#ifndef NN_VALUES_H
#define NN_VALUES_H
#include <stdint.h>


const int32_t L1_WEIGHTS[] = {
37, 1, 11, 24, 16, 24, 32, 36, 0, 23, 11, 8, 29, 17, 10, 16, 1, 23, 12, 13, 28, 33, 5, 3, 30, 9, 20, 25, 29, 28, 16, 29, 33, 6, 13, 4, 20, 37, 16, 24, 18, 28, 15, 6, 11, 21, 14, 14, 13, 27, 22, 35, 28, 6, 19, 32, 23, 17, 28, 23, 23, 3, 25, 16, 22, 17, 8, 16, 14, 2, 1, 16, 33, 28, 4, 30, 4, 3, 24, 18, 28, 36, 36, 18, 32, 21, 14, 14, 30, 3, 26, 26, 15, 9, 23, 21, 14, 31, 37, 34, 17, 17, 18, 5, 18, 26, 0, 32, 13, 15, 29, 33, 27, 15, 13, 34, 9, 9, 15, 33, 17, 34, 34, 38, 12, 1, 19, 21, -888, 54, 411, -43, 130, 549, 57, 320, -95, 363, -12, 38, -20, -266, 238, 69, 793, -254, 309, -56, 364, 623, 293, -3, -9, 439, -298, 243, 203, 289, 314, -195, -1376, -122, 234, -62, 167, 139, 164, 156, 74, 520, -116, 145, 152, -169, 174, -108, 772, 0, 412, 929, 150, 266, 43, -271, -62, 515, -42, 116, 31, -698, 400, -64, -1124, -134, 447, 424, 127, 125, 157, 207, -467, 351, -144, 193, 161, 538, 196, -134, 208, -167, 510, 415, 185, -11, 154, 120, -248, 233, -194, 187, 169, -1269, 306, -109, -547, -248, 673, -161, 316, 237, 311, 368, -832, 72, -265, 313, 323, 754, 595, -192, 320, -64, 481, -3, 208, 236, 179, 336, -482, 260, -101, 160, 147, -991, 386, -43, -878, 58, 385, -36, 160, 558, 102, 261, 50, 400, 9, 95, 36, -182, 269, 91, 845, -229, 390, -43, 416, 692, 342, 223, -127, 505, -241, 304, 260, 260, 249, -205, -1618, -163, 483, -245, 174, 204, 200, 26, -46, 502, -141, 182, 205, -128, 88, -135, 1102, -207, 411, 430, 330, 311, 318, -151, -251, 492, -193, 303, 308, -632, 200, -242, -1151, -131, 467, 703, 270, 162, 222, 4, 204, 311, -143, 178, 124, 839, 168, -100, 473, -168, 502, 84, 311, 100, 319, 53, 170, 364, -159, 294, 301, -1287, 483, -168, -629, -208, 689, 25, 354, 199, 341, 299, -232, 182, -228, 350, 355, 917, 326, -198, 319, -65, 453, -87, 237, 127, 249, 353, -239, 169, -54, 241, 246, -950, 434, -70, -597, 65, 483, 22, 140, 361, 106, 409, -93, 413, 51, 65, 76, -37, 281, 66, 853, -344, 551, -149, 511, 799, 438, 306, -247, 414, -376, 420, 363, 276, 321, -318, -1104, -211, 392, -221, 344, 214, 292, 41, -194, 427, -229, 261, 260, 19, 344, -177, 491, -383, 447, -260, 418, 267, 419, -343, -273, 492, -376, 381, 382, -631, 22, -354, -988, -263, 417, -389, 472, 233, 379, -281, 314, 526, -306, 403, 366, 627, 454, -257, 291, -174, 324, -64, 429, 111, 388, -75, -370, 473, -208, 390, 356, -1201, 243, -152, -598, -203, 363, -133, 567, 246, 494, 78, -154, 338, -217, 489, 488, 791, 494, -190, 195, -13, 262, -30, 235, 106, 245, 206, -383, 268, -15, 235, 248, -998, 475, -9, -268, -103, 572, -60, 265, 287, 284, 728, -37, 370, -117, 250, 254, 140, 437, -40, 819, -432, 442, -42, 634, 683, 538, 671, -649, 425, -473, 488, 471, 420, 500, -388, -783, -202, 386, -329, 278, 181, 290, 351, -391, 463, -206, 283, 275, 145, 361, -133, 416, -538, 109, -877, 663, 410, 621, 34, -557, 499, -521, 613, 607, 13, 521, -510, -756, -370, 93, -793, 496, 146, 452, -31, -250, 583, -396, 470, 416, 227, 14, -331, 383, -271, -231, -413, 660, 85, 573, -113, -536, 539, -305, 537, 534, -878, 442, -273, -553, -219, -125, 33, 575, 276, 518, 13, -53, 493, -270, 473, 421, 645, 500, -193, 156, -42, 4, 63, 507, 101, 448, -185, 88, 301, -56, 419, 382, -1102, 400, -42, 115, 4, 496, 377, 178, 178, 190, 1025, 89, 423, 25, 168, 184, 616, 465, 52, 439, -278, 285, 278, 484, 514, 469, 1258, -1188, 420, -305, 437, 409, 424, 704, -223, -518, -319, -309, -901, 496, 386, 482, 918, -597, 486, -332, 490, 516, 416, 755, -283, 117, -370, -681, -610, 574, 402, 533, 1040, -488, 583, -402, 460, 444, -25, 344, -336, -1087, -293, -885, -768, 597, -53, 569, 701, -6, 534, -354, 510, 474, 241, 762, -235, -157, -304, -1134, -397, 640, 68, 609, 23, -394, 379, -336, 565, 526, -1220, 509, -292, -618, -275, -578, -238, 708, 383, 690, -151, -308, 490, -295, 684, 708, 386, 817, -259, 77, 1, -413, 412, 490, 37, 447, -152, 175, 389, -23, 418, 391, -1433, 601, 25, -568, -386, 406, 384, 565, 284, 557, 1227, -469, 583, -390, 526, 496, 76, 358, -355, 13, -467, -868, 207, 687, 395, 679, 1004, -1384, 500, -494, 666, 618, 164, 1152, -435, -1628, -438, -587, -193, 561, -314, 618, 1211, -705, 647, -434, 638, 627, -587, 230, -370, -196, -591, -899, -809, 757, 657, 787, 960, -902, 494, -596, 795, 813, 27, 1101, -591, -2051, -407, -1220, -197, 529, -78, 617, 751, -273, 559, -397, 638, 679, -280, 463, -370, -79, -326, -1531, -164, 686, 253, 672, 81, -165, 389, -344, 647, 630, -2467, 1658, -296, -467, -528, -1073, -254, 1025, 747, 966, -431, -231, 245, -588, 968, 889, -2152, 659, -503, -80, -143, -220, 582, 456, 223, 482, -44, 126, 452, -115, 474, 508, -3288, 1137, -111, 16, 11, 28, 22, 26, 26, 27, 26, 12, 19, 2, 20, 11, 29, 34, 13, 27, 21, 10, 17, 36, 5, 27, 2, 23, 34, 6, 4, 1, 6, 8, 14, 14, 28, 27, 23, 12, 12, 37, 28, 28, 35, 7, 34, 9, 31, 16, 24, 35, 27, 18, 35, 3, 13, 12, 31, 18, 26, 29, 13, 20, 37, 24, 6, 6, 17, 14, 27, 32, 11, 7, 29, 12, 5, 27, 2, 6, 38, 21, 18, 13, 5, 4, 3, 30, 1, 22, 14, 34, 16, 37, 35, 23, 1, 25, 8, 34, 28, 23, 23, 6, 15, 26, 1, 3, 5, 15, 16, 6, 24, 6, 26, 8, 18, 36, 30, 9, 36, 26, 25, 1, 19, 9, 34, 33, 26, 7, 17, 614, -213, 683, 566, 333, -288, 368, -705, -378, 127, -239, 411, 427, -148, 304, -265, -241, -360, 968, 227, 347, -488, 297, 228, -450, 516, -373, 332, 354, -368, 291, -391, 68, -266, 927, 120, 394, 26, 395, -75, -306, 629, -260, 437, 427, -586, 401, -363, -249, -361, 768, -130, 422, -381, 434, 388, -494, 757, -330, 501, 490, -504, 395, -364, 21, -360, 653, 540, 399, -432, 387, -191, -341, 678, -373, 444, 445, -191, 419, -365, 75, -492, 623, -181, 538, -388, 498, 444, -483, 583, -498, 576, 530, -89, 502, -574, 150, -338, 732, 420, 333, -562, 286, 77, -458, 545, -348, 372, 365, -392, 382, -400, -436, -225, 689, -86, 379, -265, 364, -398, -371, 590, -179, 424, 372, -642, 6, -212, -142, -240, 676, 319, 363, -153, 342, -182, -716, 577, -205, 443, 400, -480, 452, -293, -148, -390, 568, -100, 367, -538, 387, 861, -319, 693, -387, 416, 433, -538, 405, -439, -140, -321, 847, 55, 413, -542, 389, 160, -260, 651, -331, 434, 436, -213, 539, -324, -181, -436, 766, 389, 395, -538, 441, 463, -384, 624, -420, 462, 458, -106, 459, -471, -109, -422, 733, 245, 438, -557, 452, 257, -578, 737, -413, 446, 452, -268, 631, -438, 158, -483, 580, 502, 595, -412, 580, 400, -438, 754, -456, 587, 596, -133, 522, -515, 44, -389, 682, 247, 496, -627, 480, -10, -349, 646, -362, 550, 502, -26, 677, -417, -66, -401, 595, 24, 413, -632, 410, 265, -525, 502, -363, 452, 453, -195, 497, -431, -450, -252, 1191, -47, 198, -449, 225, 523, -587, 682, -237, 313, 284, -264, 269, -307, 107, -450, 763, 287, 524, -423, 517, 500, -339, 689, -435, 591, 587, -69, 713, -520, -296, -414, 686, 77, 466, -650, 424, 534, -41, 722, -416, 358, 336, -335, 533, -351, 173, -441, 703, 379, 589, -645, 549, 244, -424, 761, -462, 578, 544, -68, 667, -461, -44, -465, 726, 64, 623, -546, 616, 536, -531, 877, -477, 635, 605, -24, 631, -508, -257, -574, 520, 483, 514, -648, 528, 63, -364, 651, -556, 393, 426, -178, 656, -597, -288, -431, 599, 144, 579, -607, 576, 604, -511, 771, -438, 604, 590, -179, 368, -461, 176, -487, 400, 521, 601, -487, 545, -66, -389, 587, -496, 573, 539, -266, 688, -507, -215, -371, 672, 47, 397, -657, 421, 645, -347, 467, -371, 519, 540, -154, 691, -430, 199, -479, 614, 79, 476, -782, 493, 273, -556, 807, -448, 538, 546, -197, 723, -533, -336, -355, 514, 3, 422, -911, 438, 810, -380, 821, -356, 485, 503, -103, 504, -378, 29, -354, 474, 402, 530, -719, 516, 124, -539, 889, -376, 491, 511, -402, 835, -325, -193, -414, 311, 138, 588, -612, 584, 901, -590, 792, -422, 528, 518, 60, 608, -413, 236, -429, 273, 696, 649, -695, 624, 344, -333, 775, -420, 603, 590, -196, 801, -400, -114, -332, 215, 36, 555, -676, 552, 542, -409, 661, -372, 624, 579, 181, 704, -355, -263, -425, 167, 317, 526, -669, 576, 90, -576, 739, -404, 599, 588, -250, 475, -415, -84, -522, 665, -532, 640, -764, 676, 639, -328, 675, -514, 644, 639, -92, 531, -493, 148, -419, 587, -4, 491, -597, 551, 471, -321, 642, -420, 522, 567, -180, 521, -409, -111, -503, 500, -154, 609, -826, 646, 615, -581, 794, -463, 647, 695, -162, 879, -494, 112, -440, 268, -80, 616, -907, 626, 804, -379, 809, -454, 624, 642, -272, 538, -476, -176, -514, 181, 218, 579, -987, 650, 423, -772, 670, -479, 615, 711, 124, 812, -465, 292, -452, 30, 141, 560, -1186, 587, 460, -392, 864, -442, 611, 668, -176, 802, -388, -387, -376, 119, 259, 415, -1028, 504, 362, -783, 487, -355, 526, 596, -120, 826, -327, 50, -526, 207, -423, 678, -943, 686, 416, -479, 746, -559, 705, 722, 18, 538, -560, -92, -511, -15, 86, 590, -1144, 589, 403, -345, 542, -544, 590, 564, -277, 523, -517, -12, -609, 315, -579, 636, -1043, 717, 642, -334, 427, -630, 713, 729, -195, 465, -587, -232, -537, 114, -186, 476, -1321, 603, 578, -659, 735, -487, 633, 706, 51, 613, -521, 102, -564, 14, -187, 607, -1095, 667, 769, -395, 690, -577, 703, 757, 36, 787, -545, 131, -667, -233, -196, 838, -1193, 876, 639, -699, 608, -698, 852, 849, 60, 780, -666, -12, -502, -358, 29, 689, -1547, 654, 592, -971, 756, -528, 632, 589, 65, 715, -529, -161, -407, -192, 417, 601, -1286, 590, -185, -650, 670, -439, 606, 603, 730, 774, -391, -242, -366, -248, 160, 612, -1094, 578, 271, -408, 567, -391, 511, 501, -210, 456, -363, 297, -532, 471, -92, 545, -576, 601, 298, -504, 517, -487, 605, 644, -167, 364, -513, 15, -513, 350, -650, 530, -824, 609, 488, -579, 714, -480, 551, 590, 16, 656, -501, 555, -613, 40, -361, 655, -1200, 746, 222, -357, 570, -577, 779, 863, -82, 477, -554, -46, -529, -210, -139, 624, -1255, 623, 620, -657, 589, -526, 646, 656, 199, 509, -510, 100, -431, -222, 242, 656, -1360, 605, 352, -503, 658, -446, 570, 556, -32, 455, -396, 73, -531, -415, -6, 793, -1370, 726, 588, -812, 540, -571, 688, 638, 275, 590, -528, 55, -366, -221, -201, 571, -1398, 539, 95, -541, 651, -363, 548, 585, -765, 628, -357, 222, -598, -145, -66, 663, -1190, 646, -79, -610, 398, -565, 598, 559, 228, 777, -597, -533, -176, -651, -546, 338, -590, 259, 267, -1460, -378, -205, 188, 178, -444, 158, -146, -104, -341, 10, -285, 309, -978, 359, 491, -271, 448, -310, 401, 430, -758, 120, -334, 541, -250, 10, -120, 351, -1046, 384, 557, -349, 518, -236, 416, 430, -762, 303, -207, -207, -228, -413, 263, 364, -687, 363, 531, -601, 503, -260, 379, 334, -195, 419, -210, 410, -416, -661, -376, 612, -1339, 548, 379, -641, 566, -454, 540, 496, -616, 616, -428, -953, -13, -787, 342, 329, -1133, 199, 363, -424, 442, -90, 165, 20, -1080, 141, -52, -104, -338, -115, 286, 441, -1046, 430, -289, -355, 330, -321, 410, 421, -762, 184, -303, -549, 23, -2259, 309, 110, -1057, 102, 217, -85, 315, -9, 67, 76, -1040, 370, 20, -780, -455, 214, 321, 537, -380, 538, 432, -458, 380, -454, 492, 486, -420, 636, -466, -266, -447, 181, 316, 657, -630, 633, -434, -558, 532, -454, 637, 641, -161, 48, -435, -500, -553, 434, -62, 508, -671, 481, 407, -465, 372, -547, 545, 520, -250, 227, -602, -313, -352, 490, 370, 453, -437, 441, 285, -335, 584, -331, 508, 475, -289, 284, -363, -405, -279, 739, 462, 384, -594, 407, 603, -424, 481, -243, 446, 439, -370, 503, -316, -86, -406, 508, 433, 386, -560, 396, 499, -1123, 386, -397, 461, 476, -182, 394, -470, -772, -374, 708, 203, 526, -829, 533, 368, -406, 48, -344, 538, 554, -375, 527, -366, -401, -369, 178, 389, 416, -969, 482, 248, -393, 349, -320, 526, 561, -77, -216, -402, -699, -428, 162, 449, 548, -979, 576, 52, -657, 489, -401, 550, 569, -297, -58, -409, -680, -587, 197, 321, 644, -699, 628, 476, -470, 423, -561, 569, 583, -582, 542, -523, -161, -569, 152, 155, 701, -709, 672, 203, -406, 568, -574, 650, 658, 66, 305, -571, -694, -457, 439, 265, 436, -739, 445, 496, -309, 559, -438, 454, 451, -328, 556, -513, 34, -485, 491, 642, 535, -662, 511, 473, -204, 587, -483, 525, 536, -174, 351, -509, -749, -482, 712, 266, 597, -791, 591, 661, -427, 418, -474, 558, 564, -188, 744, -487, -305, -582, 619, 331, 622, -723, 607, 619, -118, 315, -569, 589, 564, 45, 322, -581, -344, -441, 687, 101, 616, -875, 601, 126, -488, 434, -466, 589, 610, -291, 548, -449, -463, -377, 190, 141, 470, -947, 456, 416, -379, 356, -402, 495, 462, -467, 644, -375, -187, -496, 245, 558, 581, -763, 577, 585, -421, 658, -508, 559, 582, -36, 195, -479, -708, -377, 323, 352, 561, -798, 529, 795, -583, 671, -417, 553, 548, -542, 667, -418, -35, -577, 221, 553, 686, -689, 654, 382, -373, 617, -604, 650, 626, -128, 355, -557, -514, -437, 470, 352, 561, -769, 559, 724, -418, 616, -451, 539, 533, -397, 673, -419, -302, -443, 414, 662, 524, -694, 579, 592, -80, 638, -395, 567, 602, -39, 524, -442, -810, -501, 712, 154, 513, -912, 542, 451, -752, 494, -490, 484, 515, -419, 651, -496, 9, -484, 396, 66, 615, -765, 601, 735, -485, 378, -499, 660, 665, -39, 275, -510, 75, -410, 317, 163, 633, -558, 654, 485, -311, 449, -416, 554, 612, -85, 258, -402, -353, -497, 277, -90, 561, -892, 588, 657, -494, 660, -481, 570, 616, -174, 548, -488, -248, -464, 154, 554, 554, -757, 610, 685, -572, 688, -474, 573, 625, -224, 335, -453, -82, -421, 164, 421, 616, -920, 587, 503, -600, 614, -448, 589, 578, -604, 843, -379, -142, -498, 260, 645, 800, -611, 739, 540, -548, 727, -539, 701, 693, 249, 477, -482, -489, -553, 396, 348, 569, -860, 632, 512, -639, 442, -515, 570, 624, -517, 684, -555, 23, -506, 372, 209, 568, -603, 615, 526, -580, 441, -500, 639, 666, -61, 517, -508, -533, -534, 321, -339, 658, -720, 679, 549, -440, 632, -543, 676, 674, -410, 584, -556, -856, -451, 411, 124, 591, -751, 594, 641, -436, 568, -427, 545, 582, -384, 463, -423, 137, -471, 265, 638, 558, -711, 575, 718, -491, 582, -498, 601, 587, -19, 449, -476, -456, -485, 161, -20, 592, -1137, 619, 681, -720, 582, -503, 649, 659, -308, 641, -469, 210, -542, -102, 411, 701, -977, 687, 609, -587, 685, -549, 663, 688, 61, 432, -524, -656, -436, 131, 253, 589, -915, 620, 612, -580, 588, -434, 634, 661, -99, 824, -427, -14, -514, -91, 86, 765, -905, 753, 374, -384, 627, -527, 751, 739, -189, 520, -508, -551, -511, 193, 41, 580, -887, 647, 501, -754, 477, -504, 626, 680, -398, 681, -482, -517, -493, 30, 124, 597, -710, 588, 400, -477, 611, -495, 582, 587, -286, 447, -497, 110, -574, 285, 180, 650, -788, 672, 517, -521, 455, -558, 641, 710, 16, 165, -573, -324, -564, 309, 6, 636, -1066, 693, 714, -423, 534, -540, 716, 759, -546, 527, -509, -258, -515, 319, 296, 617, -831, 649, 797, -317, 575, -528, 655, 673, -235, 473, -495, -100, -615, 70, -239, 729, -1107, 768, 645, -565, 442, -614, 748, 745, -427, 783, -586, 129, -562, -246, 40, 787, -1217, 806, 396, -446, 624, -568, 816, 799, 199, 495, -521, -396, -502, -98, -195, 603, -1205, 607, 714, -719, 597, -488, 631, 671, -401, 752, -452, -205, -620, -146, 90, 763, -1084, 793, 365, -692, 551, -620, 746, 771, 98, 487, -581, -745, -483, 214, -49, 554, -1088, 582, 649, -451, 359, -484, 628, 650, -338, 553, -470, -141, -397, 263, 343, 580, -970, 587, 599, -365, 311, -384, 584, 607, -411, 529, -376, -45, -525, 269, 253, 575, -876, 629, 415, -337, 434, -513, 696, 739, 132, 251, -560, -274, -515, 420, 7, 528, -1096, 629, 632, -541, 420, -459, 674, 711, -403, 714, -514, 77, -411, 134, 411, 571, -977, 640, 373, -336, 539, -404, 637, 677, -21, 426, -398, -723, -422, -132, 10, 501, -1337, 556, 623, -585, 457, -423, 568, 616, -454, 553, -448, -330, -450, -243, 232, 640, -1084, 642, 222, -599, 611, -462, 615, 637, -379, 380, -423, -794, -501, -144, 216, 585, -884, 609, 150, -579, 346, -488, 627, 673, -156, 464, -486, 118, -498, -93, 519, 616, -1205, 643, 231, -489, 334, -507, 664, 659, -181, 85, -502, -45, -282, 218, 722, 451, -997, 492, 299, -374, 169, -237, 512, 518, -619, 76, -274, -52, -368, 200, 304, 382, -918, 463, 349, -416, 176, -350, 477, 538, -368, 446, -347, -217, -431, 180, 241, 543, -809, 576, 199, -402, 550, -431, 581, 648, -336, 446, -413, -1042, -317, 133, 171, 415, -852, 471, 614, -374, 612, -302, 471, 496, -989, 423, -281, 265, -366, -74, 397, 444, -770, 512, 557, -317, 534, -324, 524, 563, -519, 374, -334, -500, -300, -410, 294, 356, -1101, 401, 452, -463, 422, -241, 382, 447, -678, 303, -273, -460, -357, -164, 642, 558, -1121, 594, 512, -363, 402, -360, 566, 605, -278, 155, -345, -692, -352, -137, 113, 380, -1062, 438, 16, -463, 361, -342, 430, 472, -903, 254, -312, -854, -574, 1088, 989, 522, -656, 508, 667, -641, 783, -540, 431, 466, -835, 751, -572, -400, -441, 1028, 1044, 602, -663, 555, 849, -511, 810, -464, 600, 561, -743, 733, -537, -1090, -432, 1072, 977, 601, -754, 553, 832, -444, 833, -468, 561, 533, -933, 786, -432, -803, -537, 907, 609, 661, -700, 650, 951, -530, 872, -550, 602, 596, -977, 705, -517, -1023, -608, 839, 498, 761, -714, 728, 666, -279, 802, -606, 701, 703, -746, 765, -596, -838, -583, 792, 520, 660, -624, 640, 655, -626, 938, -592, 587, 547, -1274, 634, -623, -927, -564, 291, 799, 652, -763, 650, 434, -1113, 1152, -529, 670, 664, -508, 647, -590, -419, -699, 632, 540, 595, -760, 592, 219, -1536, 917, -676, 522, 537, -1125, 421, -752, -863, -376, 1136, 1126, 442, -685, 442, 820, -605, 923, -367, 508, 469, -793, 790, -420, -357, -478, 979, 978, 625, -754, 652, 824, -593, 912, -429, 682, 673, -642, 808, -516, -1196, -399, 1143, 979, 557, -774, 571, 880, -407, 953, -402, 606, 552, -836, 825, -483, -768, -518, 1076, 715, 572, -644, 588, 971, -578, 941, -485, 594, 636, -883, 869, -507, -1068, -572, 1001, 600, 696, -749, 674, 783, -438, 991, -557, 693, 720, -776, 831, -607, -709, -551, 755, 634, 628, -603, 612, 834, -467, 1034, -540, 624, 631, -1278, 805, -599, -1201, -561, 571, 775, 700, -786, 675, 477, -646, 1078, -542, 738, 729, -636, 772, -592, -904, -443, 392, 635, 611, -860, 580, 378, -591, 1241, -415, 580, 557, -1414, 805, -420, -780, -406, 1113, 1114, 597, -824, 625, 858, -320, 935, -353, 635, 677, -636, 829, -394, -748, -555, 1192, 724, 579, -774, 622, 862, -517, 953, -506, 644, 685, -716, 816, -601, -1029, -515, 995, 832, 494, -810, 561, 894, -494, 991, -447, 564, 635, -858, 959, -491, -953, -561, 1027, 729, 529, -676, 582, 1082, -549, 1040, -533, 548, 606, -856, 838, -594, -1042, -578, 1014, 692, 689, -673, 704, 712, -279, 857, -554, 702, 741, -703, 980, -541, -955, -484, 780, 734, 678, -674, 674, 932, -378, 981, -483, 660, 708, -915, 914, -487, -854, -560, 579, 630, 816, -816, 845, 773, -272, 926, -555, 900, 900, -585, 929, -589, -1043, -591, 573, 470, 719, -774, 716, 431, -637, 973, -604, 747, 771, -1332, 631, -653, -820, -355, 1115, 1011, 603, -637, 617, 1035, -391, 1139, -407, 636, 666, -659, 701, -397, -629, -500, 1119, 892, 620, -616, 651, 809, -505, 1075, -497, 652, 672, -656, 867, -498, -981, -448, 1026, 1007, 597, -692, 606, 1129, -386, 1105, -449, 607, 605, -829, 810, -431, -846, -485, 1040, 856, 658, -750, 664, 926, -593, 1030, -511, 653, 651, -878, 905, -460, -1023, -532, 909, 825, 624, -655, 644, 871, -528, 1096, -516, 596, 667, -876, 1042, -539, -681, -450, 874, 793, 661, -720, 681, 870, -361, 1055, -439, 707, 731, -989, 954, -460, -1010, -543, 800, 634, 652, -727, 723, 1188, -431, 1044, -529, 755, 808, -711, 976, -565, -787, -582, 842, 434, 703, -762, 728, 1005, -356, 1098, -574, 717, 738, -1096, 796, -582, -890, -464, 1060, 812, 661, -484, 633, 909, -548, 1196, -491, 627, 656, -651, 917, -472, -745, -546, 1086, 849, 632, -596, 664, 936, -583, 1158, -539, 643, 688, -798, 889, -516, -956, -574, 963, 680, 693, -758, 692, 997, -593, 1173, -552, 663, 708, -804, 955, -512, -907, -581, 907, 580, 714, -786, 748, 934, -711, 1135, -620, 702, 725, -698, 1021, -571, -705, -661, 844, 510, 726, -737, 749, 949, -520, 1106, -656, 746, 813, -765, 1081, -646, -841, -521, 763, 1032, 736, -748, 746, 810, -443, 1203, -545, 671, 704, -1014, 1112, -494, -524, -560, 797, 1078, 785, -713, 784, 942, -621, 1118, -568, 762, 755, -752, 1120, -566, -735, -503, 926, 646, 836, -696, 775, 959, -643, 1151, -548, 736, 708, -960, 932, -549, -823, -542, 750, 416, 852, -580, 810, 890, -619, 1270, -576, 775, 772, -700, 796, -553, -792, -635, 866, 549, 741, -767, 752, 805, -674, 1172, -641, 725, 707, -684, 1024, -579, -852, -645, 708, 536, 751, -853, 735, 1112, -642, 1211, -668, 723, 715, -853, 1022, -613, -687, -624, 507, 637, 826, -931, 793, 941, -654, 1118, -640, 769, 765, -659, 1016, -602, -873, -705, 483, 506, 852, -1190, 875, 1116, -826, 1093, -714, 823, 851, -688, 1093, -638, -888, -715, 457, 150, 908, -1011, 922, 934, -729, 1144, -738, 926, 895, -637, 1131, -697, -773, -640, 592, 425, 902, -1004, 876, 829, -751, 1179, -660, 839, 832, -731, 1115, -615, -773, -616, 748, 501, 828, -906, 782, 1102, -760, 1164, -628, 729, 712, -696, 1008, -588, -842, -562, 578, 537, 824, -763, 778, 922, -759, 1237, -603, 781, 722, -723, 857, -531, -732, -479, 487, 782, 717, -838, 701, 912, -744, 1183, -533, 668, 635, -784, 861, -465, -939, -607, 496, 438, 808, -1049, 779, 1208, -765, 1112, -638, 803, 783, -757, 987, -583, -1006, -601, 490, 616, 765, -1054, 750, 1120, -503, 1191, -597, 754, 767, -753, 1022, -585, -1001, -591, 285, 573, 809, -1065, 806, 1140, -647, 1106, -651, 807, 796, -972, 1096, -586, -686, -736, 455, 371, 1004, -1075, 957, 1165, -848, 1229, -778, 897, 856, -657, 1083, -716, -737, -557, 596, 676, 868, -984, 766, 839, -825, 1083, -622, 716, 632, -824, 1248, -557, -714, -573, 340, 372, 912, -1001, 855, 1291, -749, 1134, -608, 823, 788, -579, 1023, -568, -604, -606, 434, 410, 929, -932, 894, 1067, -697, 1121, -620, 848, 817, -632, 786, -604, -431, -636, 449, 402, 900, -1069, 903, 979, -659, 1061, -635, 901, 906, -519, 749, -619, -861, -632, 358, 541, 873, -1309, 834, 1306, -567, 1078, -644, 800, 771, -550, 788, -608, -420, -722, 321, 298, 944, -1151, 899, 1213, -761, 991, -761, 898, 822, -578, 891, -696, -785, -653, 406, 266, 930, -1046, 885, 1098, -641, 1054, -685, 888, 857, -653, 1030, -661, -232, -772, 397, -24, 962, -1077, 960, 955, -806, 1172, -788, 984, 957, -578, 1027, -801, -265, -667, 612, 513, 1033, -1011, 985, 1074, -795, 1122, -720, 981, 955, -296, 1039, -682, -531, -672, 566, -12, 1044, -1130, 980, 1056, -762, 1055, -714, 929, 905, -773, 900, -664, -1289, -1232, 1442, 1335, 1242, -1667, 1247, 1515, -1498, 1062, -1235, 1278, 1213, -1643, 1337, -1288, -1235, -1251, 1476, 1087, 1298, -1678, 1331, 1240, -1239, 1085, -1232, 1315, 1305, -1775, 1289, -1282, -1338, -1200, 1501, 1013, 1307, -1734, 1269, 1386, -1497, 1062, -1151, 1303, 1290, -1714, 1539, -1210, -1418, -1355, 1522, 1063, 1368, -1623, 1324, 1200, -1305, 1206, -1369, 1292, 1308, -1680, 1172, -1413, -1350, -1218, 1498, 930, 1285, -1601, 1266, 1272, -1423, 1258, -1197, 1338, 1305, -1661, 1460, -1286, -1119, -1239, 1529, 973, 1282, -1622, 1252, 1304, -1536, 1460, -1233, 1286, 1281, -1993, 1135, -1314, -1367, -1106, 1308, 1300, 1478, -1907, 1261, 1033, -1436, 1553, -1108, 1244, 1186, -1367, 1701, -1105, -685, -1176, 452, 1563, 1499, -2060, 1317, 852, -1489, 1590, -1233, 1256, 1150, -1513, 818, -1141, -1416, -1197, 1422, 1445, 1303, -1619, 1268, 1199, -1477, 845, -1208, 1246, 1224, -1713, 1058, -1168, -1198, -1309, 1525, 1284, 1381, -1484, 1357, 1482, -1520, 1083, -1301, 1332, 1298, -1681, 1621, -1317, -1313, -1374, 1469, 1119, 1489, -1631, 1429, 1232, -1237, 1183, -1425, 1408, 1332, -1691, 1316, -1408, -1211, -1278, 1415, 957, 1412, -1611, 1412, 1366, -1194, 1347, -1309, 1322, 1319, -1463, 1572, -1298, -1167, -1383, 1491, 1003, 1399, -1557, 1378, 1354, -1413, 1349, -1341, 1353, 1363, -1537, 1214, -1433, -1226, -1379, 1503, 965, 1446, -1674, 1443, 1432, -1362, 1497, -1323, 1461, 1459, -1557, 1616, -1409, -1331, -1350, 1131, 1165, 1388, -1571, 1320, 1503, -1427, 1922, -1367, 1327, 1312, -1279, 1138, -1399, -1182, -1178, 935, 1301, 1443, -1912, 1338, 581, -1341, 1536, -1202, 1310, 1231, -1887, 1191, -1178, -1077, -1201, 1571, 1271, 1424, -1467, 1337, 1391, -1422, 1243, -1267, 1425, 1356, -1531, 1534, -1289, -1544, -1252, 1422, 1350, 1377, -1633, 1411, 1343, -1206, 1149, -1237, 1379, 1395, -1717, 1185, -1239, -1235, -1392, 1331, 1096, 1403, -1506, 1400, 1694, -1182, 1329, -1392, 1347, 1391, -1734, 1747, -1387, -1096, -1267, 1506, 1253, 1341, -1552, 1322, 1464, -1415, 1456, -1264, 1318, 1327, -1592, 1325, -1261, -1468, -1339, 1447, 1153, 1398, -1604, 1387, 1630, -1235, 1443, -1365, 1393, 1403, -1409, 1829, -1418, -1405, -1314, 1406, 1223, 1464, -1524, 1440, 1542, -1396, 1559, -1319, 1421, 1403, -1425, 1443, -1321, -1204, -1376, 1332, 913, 1534, -1631, 1496, 1320, -1358, 1446, -1394, 1495, 1463, -1604, 1611, -1397, -1167, -1287, 969, 771, 1498, -1905, 1434, 976, -1687, 1405, -1296, 1366, 1360, -1524, 1005, -1293, -1301, -1348, 1497, 1271, 1290, -1630, 1328, 1506, -1384, 1089, -1308, 1353, 1396, -1601, 1263, -1392, -1238, -1339, 1401, 1341, 1404, -1407, 1407, 1598, -1370, 1435, -1348, 1401, 1362, -1656, 1681, -1326, -1447, -1209, 1493, 1274, 1348, -1456, 1378, 1749, -1201, 1534, -1247, 1398, 1420, -1614, 1532, -1252, -1268, -1251, 1342, 1280, 1378, -1553, 1388, 1570, -1128, 1504, -1256, 1342, 1373, -1711, 1893, -1194, -1279, -1217, 1242, 1586, 1392, -1532, 1365, 1775, -1289, 1639, -1257, 1374, 1343, -1438, 1572, -1229, -1329, -1334, 1197, 1136, 1400, -1569, 1374, 1635, -1325, 1439, -1339, 1355, 1366, -1608, 1937, -1331, -1291, -1318, 1154, 1123, 1504, -1556, 1500, 1462, -1451, 1477, -1354, 1468, 1469, -1636, 1242, -1331, -1504, -1323, 985, 689, 1498, -1817, 1428, 1395, -1498, 1275, -1352, 1369, 1309, -1635, 1446, -1304, -1367, -1257, 1335, 1196, 1444, -1559, 1377, 1710, -1373, 1318, -1291, 1331, 1256, -1578, 1589, -1242, -1222, -1212, 1490, 1406, 1359, -1513, 1376, 1449, -1276, 1190, -1182, 1358, 1372, -1763, 1355, -1178, -1033, -1291, 1333, 1146, 1416, -1608, 1387, 2017, -1343, 1484, -1314, 1375, 1368, -1711, 1842, -1292, -1147, -1266, 1164, 1388, 1512, -1465, 1435, 1801, -1245, 1723, -1308, 1378, 1356, -1606, 1597, -1239, -1371, -1264, 863, 1535, 1466, -1631, 1430, 1808, -1334, 1355, -1307, 1306, 1239, -1771, 1842, -1227, -1166, -1259, 812, 1337, 1474, -1615, 1411, 1740, -1570, 1705, -1306, 1331, 1263, -1164, 1689, -1254, -1286, -1243, 784, 904, 1553, -1625, 1454, 1473, -1424, 1500, -1276, 1368, 1309, -1574, 1952, -1226, -1402, -1251, 913, 987, 1357, -1998, 1340, 1264, -1716, 1465, -1239, 1222, 1216, -1660, 1090, -1286, -1064, -1303, 1334, 1364, 1426, -1691, 1342, 1433, -1408, 1234, -1317, 1338, 1269, -1769, 1239, -1319, -1354, -1225, 1215, 1592, 1418, -1660, 1387, 1545, -1416, 1422, -1292, 1301, 1257, -1690, 1760, -1276, -1143, -1423, 1280, 1210, 1582, -1544, 1508, 2024, -1318, 1408, -1444, 1493, 1456, -1416, 1455, -1395, -969, -1261, 1098, 1656, 1516, -1610, 1380, 1746, -1385, 1499, -1337, 1310, 1208, -1815, 1784, -1283, -770, -1345, 964, 1213, 1664, -1661, 1456, 1930, -1651, 1583, -1425, 1279, 1112, -1476, 1724, -1346, -1009, -1373, 315, 860, 1538, -1910, 1453, 1775, -1928, 1191, -1398, 1383, 1292, -1443, 1985, -1366, -1070, -1338, 658, 961, 1552, -1984, 1465, 1598, -1835, 1308, -1427, 1341, 1201, -1310, 1348, -1351, -1432, -1246, 480, 973, 1454, -2179, 1340, 1538, -1780, 1289, -1301, 1224, 1143, -1760, 1289, -1203, -994, -1230, 970, 1333, 1483, -1955, 1363, 1235, -1475, 1257, -1295, 1316, 1217, -1785, 1502, -1226, -1162, -1266, 937, 1250, 1438, -1931, 1414, 1418, -1287, 1090, -1274, 1357, 1305, -1586, 1304, -1255, -1151, -1249, 1068, 1290, 1417, -1788, 1345, 1991, -1432, 1410, -1305, 1276, 1209, -1917, 1837, -1258, -1103, -1218, 764, 1548, 1498, -1846, 1340, 1821, -1559, 1203, -1319, 1255, 1088, -1718, 1660, -1236, -1281, -1270, 489, 1209, 1509, -2089, 1363, 1572, -1552, 1030, -1341, 1264, 1060, -1863, 1920, -1280, -1229, -1231, 430, 1118, 1660, -1978, 1391, 1821, -2027, 1680, -1369, 1180, 1009, -1845, 1565, -1243, -1636, -1064, 426, 1220, 1373, -2069, 1202, 2084, -2170, 1264, -1166, 1131, 1044, -1559, 1817, -1102, -941, -1210, 370, 1018, 1639, -2317, 1414, 1711, -2198, 1132, -1357, 1240, 1046, -1546, 1154, -1191, -1278, -808, 699, 1214, 1483, -2392, 1054, 1347, -2153, 637, -1067, 814, 593, -1733, 1142, -855, -1064, -1068, 507, 1437, 1692, -2343, 1305, 1390, -1847, 654, -1280, 1095, 778, -1751, 1400, -1102, -1078, -942, 675, 1389, 1768, -2094, 1261, 1450, -1838, 1277, -1183, 989, 699, -1638, 1433, -940, -1115, -1210, 735, 1116, 1794, -2151, 1427, 1438, -1867, 1199, -1410, 1229, 875, -1738, 1646, -1199, -1361, -1239, 371, 1341, 1762, -2246, 1390, 1598, -1941, 1167, -1424, 1172, 838, -1126, 1327, -1256, -982, -1179, 380, 774, 1987, -2450, 1478, 1188, -2252, 367, -1446, 1185, 672, -1419, 1520, -1225, -911, -1075, 460, 1322, 1907, -2659, 1382, 1551, -2184, 1214, -1357, 1104, 685, -1245, 1263, -1132, -826, -884, -577, 1071, 1847, -2541, 1224, 1324, -2649, -45, -1233, 826, 505, -1531, 1402, -944, -548, 209, -422, 178, 223, 73, 229, -210, 241, 12, 207, 262, 241, -314, -525, 198, 281, 36, -361, -181, 289, -95, 352, -104, -262, 163, 73, 354, 402, 291, -399, 9, 223, 45, -98, -20, 230, 52, 254, -33, -249, -167, 48, 226, 258, 131, -79, 45, -267, 438, 7, 701, -46, 443, -47, -78, -240, 36, 444, -17, -24, -135, -327, 435, 81, 124, 345, 241, 9, 285, 37, -58, 46, -287, 178, 42, 61, 47, -156, 43, 76, 262, 282, 394, -24, 438, -39, 1, -217, -98, 268, -10, 9, 76, -390, 274, 324, -24, 147, 104, 298, 210, 296, -57, 147, -468, -38, 261, 256, 389, -59, -53, 382, -36, 64, 4, 372, 234, 341, -26, 226, -454, -1, 341, 332, 370, -212, -96, -288, 321, -341, 261, 66, -276, 77, 271, 170, -10, 376, 100, 169, -94, -172, 319, -185, 392, -233, 568, 198, -59, 150, 180, 212, 159, 391, 114, 106, -107, 20, 359, -343, 405, 59, 293, 114, 198, 106, 50, 246, 216, 435, 122, 101, -98, -318, 391, -288, 456, 26, 528, 18, 287, 10, -71, 86, 197, 476, 15, 21, -188, 76, 446, 46, 455, 227, 611, -55, 365, -89, 103, 25, 182, 448, -102, -100, -49, -280, 422, 115, 314, 271, 622, 119, 338, 65, -146, 60, 51, 312, 57, 23, 142, 124, 297, 198, 163, 242, 228, 259, 269, 218, -20, 230, -234, 160, 194, 168, 303, -145, 150, 396, 92, 32, 149, 338, 211, 271, 29, 225, -383, 60, 273, 255, 308, 54, 55, -366, 520, -535, 576, 29, -390, 54, 89, 344, 124, 571, 34, 48, -316, -73, 493, 20, 416, -91, 117, 41, -93, 93, 264, 385, 198, 471, 108, 175, -143, -66, 435, -274, 438, 41, 324, 21, 209, 36, 192, 361, 253, 470, 9, 57, -141, 208, 447, -133, 530, 254, 363, -31, 237, -22, 96, 400, 288, 508, -20, 5, -33, -49, 467, -229, 401, 223, 510, 88, 329, 80, -126, 225, 242, 393, 38, 25, -86, 288, 370, 212, 376, 223, 502, 101, 378, 90, -49, 265, 234, 392, 70, 85, 98, -76, 374, 143, 365, 179, 625, 190, 398, 196, -293, 184, 105, 351, 139, 156, 293, 320, 324, 229, 354, 18, 564, 242, 257, 178, 48, 273, -95, 343, 124, 126, 78, -137, 351, 320, 373, -342, -1, 50, -411, 117, 297, 393, 114, 430, 133, 212, -468, -81, 364, 103, 400, -242, -138, 88, -131, 148, 263, 470, 247, 451, 155, 201, -353, 251, 377, -83, 429, -22, 372, 77, 18, 92, 284, 381, 276, 443, 64, 94, -5, 158, 430, -28, 312, 56, 51, 172, 109, 186, 106, 343, 325, 295, 157, 144, -133, 354, 326, 84, 277, 140, 213, 199, 184, 192, 37, 290, 330, 254, 152, 150, 216, 111, 291, 254, 289, 121, 412, 298, 412, 271, -224, 205, 278, 267, 213, 185, 96, 378, 301, 401, 323, 29, 433, 264, 353, 227, -172, 269, 229, 327, 208, 209, 272, 216, 327, 32, 410, -102, 516, 199, 449, 215, -257, 469, 126, 436, 132, 167, -37, 226, 389, 330, 451, -383, 99, 90, -433, 130, 351, 481, 164, 455, 112, 178, -568, 44, 418, 623, 334, -213, 269, -16, -478, 70, 452, 623, 228, 392, 68, 153, -451, 218, 358, -257, 417, -295, -118, 112, -492, 161, 226, 549, 359, 422, 193, 224, -392, 353, 418, 237, 330, -23, -135, 261, 119, 248, 305, 459, 359, 324, 205, 220, -106, 298, 349, 642, 242, 37, 337, 371, 297, 360, 17, 298, 388, 211, 257, 242, 137, 467, 265, 583, 267, -55, 296, 409, 441, 382, -12, 331, 333, 236, 349, 339, 526, 362, 290, 97, 323, -6, 461, 402, 378, 396, -127, 427, 253, 309, 315, 324, 607, 432, 327, 77, 350, -259, 397, 253, 424, 252, -245, 459, 197, 351, 222, 205, 179, 253, 357, 504, 251, -489, -27, 109, -1243, 219, 486, 513, 121, 335, 239, 324, -467, 175, 267, 201, 452, -517, 223, 134, -1251, 187, 542, 674, 211, 485, 159, 203, -823, 319, 441, 550, 321, -221, -51, 290, -512, 331, 417, 566, 284, 310, 291, 331, -569, 378, 327, 519, 223, -494, -318, 433, -473, 423, 205, 466, 379, 196, 383, 426, -396, 438, 250, 742, 185, -456, -310, 571, -39, 514, 214, 402, 446, 150, 464, 454, 564, 573, 219, 639, 195, -325, 292, 677, 67, 653, -9, 368, 421, 162, 602, 581, 971, 551, 216, 146, 285, -459, 594, 508, 47, 455, -210, 362, 378, 280, 456, 422, 1222, 557, 304, 365, 314, -382, 349, 333, 192, 346, -290, 442, 158, 296, 299, 318, 404, 390, 330, 303, 297, -1031, 21, 49, -877, 106, 342, 550, -75, 322, 131, 192, -471, -30, 283, 775, 378, -504, 16, 136, -767, 198, 568, 628, -27, 406, 271, 322, -866, 295, 390, 245, 324, -1024, -10, 125, -1021, 186, 548, 623, 170, 358, 211, 269, -687, 399, 368, 1184, 261, -737, 40, 291, -365, 349, 433, 439, 220, 286, 316, 387, -365, 221, 281, 353, 135, -1041, -219, 496, -1367, 524, 272, 254, 289, 109, 475, 468, 692, 467, 156, 895, 92, -688, 281, 590, -670, 570, 58, 279, 326, 67, 530, 540, 1211, 473, 105, 253, 62, -707, 692, 444, -262, 484, -444, 276, 133, 78, 457, 478, 1815, 512, 48, 37, 136, -1240, 442, 281, -924, 352, -762, 308, -163, 171, 372, 394, 1332, 364, 117, 606, 327, -982, 145, 57, -993, 35, 134, 489, -65, 344, 49, 43, -232, 114, 336, 177, 375, -1118, 130, 50, -906, 65, 530, 601, 102, 385, 76, 124, -356, 217, 402, 474, 222, -732, 167, 15, -1289, 106, 429, 465, 31, 271, 115, 190, -372, 140, 238, 771, 285, -1992, 90, 191, -1569, 244, 400, 494, -16, 334, 228, 280, -382, 169, 259, 1260, 135, -1050, -41, 287, -1459, 325, 327, 284, 140, 184, 284, 298, 209, 214, 144, 468, 137, -1104, 209, 389, -890, 394, -265, 387, 35, 147, 355, 375, 900, 297, 168, -218, 127, -785, 447, 387, -509, 431, -426, 323, 26, 148, 407, 449, 2268, 461, 73, -416, 331, -1675, 240, 0, -1524, 67, -546, 528, -679, 406, 77, 127, 66, -32, 300, 7, 33, 12, 4, 12, 4, 37, 7, 34, 18, 27, 4, 17, 29, 23, 37, 3, 33, 34, 27, 1, 33, 12, 27, 16, 13, 18, 3, 11, 0, 20, 19, 10, 21, 5, 27, 20, 17, 27, 19, 38, 33, 21, 5, 2, 17, 13, 37, 4, 30, 30, 32, 10, 6, 24, 18, 20, 36, 23, 12, 11, 15, 8, 12, 38, 12, 26, 23, 2, 13, 3, 15, 13, 1, 32, 20, 17, 21, 16, 15, 35, 0, 35, 3, 3, 30, 14, 6, 33, 0, 8, 9, 18, 34, 5, 12, 7, 32, 36, 26, 0, 34, 31, 35, 3, 7, 31, 21, 33, 8, 30, 34, 17, 37, 18, 18, 19, 12, 29, 22, 14, 31, 6, 10, 13, 38, 27, 24, 751, 551, -564, -743, -403, 119, -397, 2, 101, 640, 563, -358, -343, 507, -631, 480, 1062, 657, -690, -830, -482, -8, -494, -1168, 484, 1163, 701, -449, -456, 298, -1838, 652, 1125, 566, -316, -632, -474, -160, -416, -32, 543, 950, 607, -357, -308, 317, -679, 577, 676, 748, 375, -94, -609, 3, -599, -864, 663, 332, 769, -577, -541, 357, -1581, 742, 777, 539, 892, -494, -459, -62, -391, -702, 543, -79, 601, -291, -236, 416, -125, 513, -450, 684, 1235, -301, -303, -66, -361, -268, 362, -102, 678, -324, -330, 801, -689, 652, -284, 988, 979, 70, -521, -535, -588, -174, 803, -1672, 965, -546, -549, 986, 535, 965, -621, 430, 783, -1011, -168, 272, -121, 21, 348, -550, 477, -42, -12, -193, -421, 390, 1441, 162, -87, -1235, 10, 47, 22, 228, -129, 39, 191, 53, 87, 595, -282, 133, 241, 480, -150, -261, -271, -265, -320, -454, 145, 155, 448, -294, -320, 174, -235, 406, 777, 489, -69, -862, -337, 409, -329, 361, 189, 272, 508, -307, -300, 194, -471, 482, 528, 537, 50, 66, -366, 340, -422, -896, 415, 103, 499, -391, -410, 172, -175, 505, -5, 579, 411, -251, -283, 337, -352, 213, 313, 12, 543, -325, -335, 206, -546, 565, -252, 614, 313, 173, -285, 365, -341, -228, 292, -131, 595, -352, -375, 363, 40, 592, -669, 686, 857, -428, -270, 344, -291, -311, 625, -475, 698, -275, -251, -8, -179, 692, -551, 446, 219, -472, -3, 291, -31, 186, 109, -194, 445, -1, -8, 476, -181, 416, 778, 260, -337, -564, -126, -158, -112, 345, -117, 78, 296, -78, -75, 604, 56, 217, 137, 559, -202, -193, -424, -72, -473, -240, 375, 170, 564, -438, -441, 145, -59, 505, 329, 276, -259, -834, -212, 179, -196, 766, 206, 214, 280, -183, -156, 101, -63, 259, -628, 614, -123, 45, -529, 43, -545, -397, 232, 205, 637, -531, -502, 109, -259, 589, 74, 495, -216, 24, -360, 245, -386, 456, 745, -18, 471, -377, -390, 79, 50, 479, -431, 588, 58, 317, -247, 260, -291, 3, 462, 181, 582, -303, -325, 199, -119, 574, -176, 522, 188, -123, -232, 375, -277, -108, 188, -277, 518, -260, -276, 350, 237, 483, -98, 452, 71, -78, -34, 292, -59, 287, 159, -77, 443, -88, -90, 461, -164, 374, 519, 103, -344, -569, 91, 124, 56, 169, 33, 69, 121, 54, 34, 575, -53, 68, 335, 458, -199, -370, -364, 160, -380, -455, 219, 94, 438, -381, -397, 392, 53, 427, 110, 322, -321, -282, -195, 54, -250, 792, 402, 152, 288, -193, -180, 140, -271, 245, -327, 395, -195, 141, -408, 71, -388, -995, 375, 167, 400, -390, -357, 279, 296, 378, -327, 442, -119, -170, -236, 314, -321, 705, 373, 65, 391, -327, -337, 43, -347, 386, -244, 406, 21, 164, -176, 247, -198, -147, 430, 227, 406, -182, -189, 229, 213, 391, -49, 519, 159, -63, -200, 315, -249, 87, 357, -153, 506, -209, -211, 237, 106, 461, 106, 253, 102, -192, -7, 194, -14, 420, 126, -30, 250, 0, 0, 325, -52, 267, 606, 153, -466, -426, 80, 202, 7, 142, 105, 55, 102, -6, -30, 473, -21, 122, 358, 351, -254, -497, -202, 274, -254, -440, 57, 142, 340, -257, -264, 351, -158, 316, 129, 157, -249, -263, -168, 125, -144, 574, -67, 96, 205, -152, -106, 474, -12, 159, -176, 328, -122, 117, -148, 150, -200, -375, 225, 215, 318, -245, -237, 210, -288, 307, -237, 228, -108, -27, -78, 197, -137, 211, 521, -278, 211, -171, -197, 70, 47, 182, -108, 291, 154, -195, -163, 165, -159, 135, 225, 292, 306, -146, -129, 292, -181, 244, 235, 331, 376, -127, -226, 412, -215, -73, 271, -210, 339, -191, -186, 285, 275, 300, 153, 247, 168, -201, -46, 199, -61, 563, 212, 3, 246, -58, -64, 203, -113, 209, 617, 100, -453, -471, 45, 89, -6, -7, 187, -8, 81, -15, -61, 527, -33, 11, 406, 306, -256, -584, -252, 290, -299, -406, -103, 7, 288, -307, -323, 495, -117, 229, -18, 150, -128, -172, -113, 201, -109, 127, -249, -8, 164, -123, -104, 406, -139, 124, -183, 154, -122, -250, 73, 203, -46, -332, 269, 178, 45, -84, -146, 250, -26, 101, -80, 144, 44, -163, -146, 24, -152, -91, 317, -156, 137, -108, -113, 184, -83, 107, 51, 216, 218, -258, -168, 332, -209, 196, 240, 321, 161, -131, -145, 282, -25, 195, 259, 299, 501, 26, -285, 547, -278, -52, 278, -81, 295, -236, -204, 198, 80, 249, 228, 188, 257, -237, -72, 259, -106, 631, 162, -19, 179, -72, -85, 268, -49, 152, 29, 8, 16, 23, 3, 15, 29, 20, 20, 5, 18, 10, 13, 25, 37, 10, 32, 21, 12, 33, 17, 16, 2, 7, 0, 20, 30, 35, 19, 27, 10, 11, 17, 5, 33, 36, 18, 34, 26, 13, 27, 25, 33, 11, 14, 10, 17, 4, 4, 21, 21, 8, 33, 21, 15, 23, 11, 29, 23, 13, 11, 16, 25, 0, 25, 34, 30, 9, 12, 2, 24, 3, 17, 13, 13, 26, 35, 33, 16, 1, 27, 32, 33, 35, 23, 4, 10, 8, 30, 6, 7, 36, 12, 28, 10, 32, 24, 2, 26, 10, 22, 33, 3, 22, 10, 31, 22, 29, 21, 27, 10, 7, 6, 30, 5, 19, 35, 7, 4, 14, 12, 10, 7, 25, 20, 35, 0, 4, 276, 291, -2454, -662, -148, 350, -224, -675, 287, -1191, 286, -234, -277, 145, -976, 298, 393, 335, -1044, -808, -380, 599, -298, -186, 292, -962, 357, -266, -214, 348, -1207, 319, 715, 375, -1107, -498, -259, 805, -241, -86, 402, -888, 384, -179, -159, 928, -914, 385, -32, 380, -934, -762, -255, 494, -243, -622, 480, -1356, 349, -201, -226, 518, -1037, 352, -159, 592, -1079, -504, -421, 852, -455, -698, 564, -742, 552, -447, -491, 419, -661, 534, -673, 262, -1718, -979, 14, 30, -123, -1301, -8, -981, 202, -122, -192, 893, -1032, 244, -714, 426, -1390, -731, -351, 733, -307, -788, 479, -1019, 441, -296, -300, -238, -791, 391, 486, 87, -1332, -664, 18, 180, -18, -845, 221, -1336, 78, 19, 15, 419, -940, 77, -654, 545, -737, -663, -544, 1008, -501, -280, 363, -866, 600, -480, -442, 118, -554, 525, 137, 534, -900, -606, -536, 649, -484, -250, 563, -709, 569, -418, -395, 300, -606, 512, -30, 709, -951, -478, -660, 768, -592, -457, 808, -810, 734, -486, -385, 162, -625, 687, -235, 621, -835, -640, -538, 952, -524, -114, 542, -741, 629, -481, -458, 288, -772, 607, 491, 608, -627, -350, -432, 955, -453, -266, 512, -832, 616, -420, -435, 38, -760, 606, 286, 751, -791, 14, -534, 873, -567, -255, 211, -756, 737, -611, -636, -210, -630, 738, 59, 559, -592, -533, -363, 457, -380, -403, 587, -974, 555, -360, -351, -459, -666, 528, -406, 626, -879, -264, -555, 581, -583, -803, 444, -624, 618, -603, -650, 8, -746, 628, -496, 587, -760, -215, -522, 847, -526, -147, 344, -810, 565, -490, -486, 254, -679, 525, 74, 653, -685, -238, -684, 1008, -643, -366, 612, -773, 706, -536, -504, 356, -404, 686, 95, 520, -604, -683, -616, 1033, -481, -191, 622, -673, 594, -387, -312, 157, -503, 468, 317, 659, -623, -292, -613, 1056, -558, -289, 634, -635, 663, -522, -471, 294, -525, 642, -223, 877, -480, -117, -682, 1195, -689, -432, 519, -622, 848, -678, -654, -13, -440, 867, -199, 673, -536, -434, -504, 1032, -545, -645, 643, -511, 642, -525, -582, -135, -622, 643, -271, 615, -562, -496, -427, 1200, -435, -619, 303, -700, 606, -417, -452, 309, -796, 646, -42, 549, -804, -514, -342, 834, -396, -416, 482, -734, 563, -420, -433, -232, -721, 578, -372, 606, -743, -476, -575, 869, -517, -253, 352, -702, 652, -478, -482, 227, -299, 571, 639, 509, -636, -615, -474, 1072, -424, -498, 249, -709, 541, -347, -300, 124, -533, 444, -220, 601, -403, -519, -517, 1036, -464, -101, 567, -605, 621, -426, -405, 240, -533, 560, 477, 615, -296, -349, -453, 1162, -474, -822, 664, -603, 621, -436, -452, 44, -531, 624, -186, 578, -260, -620, -550, 1135, -494, -213, 369, -763, 645, -425, -378, 486, -575, 569, 403, 573, -312, -662, -490, 1109, -448, -485, 916, -544, 608, -377, -339, -139, -619, 587, -168, 454, -452, -341, -455, 1079, -341, -526, 545, -712, 493, -276, -192, 741, -647, 477, 186, 674, -605, -671, -590, 1013, -571, -451, 859, -531, 663, -502, -495, -713, -543, 640, -320, 451, -655, -671, -363, 885, -357, -145, 359, -755, 423, -349, -331, 251, -599, 436, 266, 514, -387, -155, -481, 891, -457, -443, 578, -629, 536, -436, -436, 141, -581, 480, 10, 443, -535, -627, -375, 947, -373, -386, 382, -666, 455, -330, -317, 321, -477, 428, 333, 512, -309, -369, -351, 1114, -377, -644, 453, -541, 531, -354, -365, 148, -524, 478, -140, 573, -249, -470, -404, 1156, -423, -498, 899, -658, 580, -412, -428, 422, -566, 551, 343, 642, -396, -174, -420, 1070, -431, -520, 714, -628, 646, -438, -428, -46, -578, 651, -214, 596, -510, -752, -358, 1275, -358, -518, 727, -651, 541, -338, -343, 312, -580, 544, 90, 574, -645, -333, -424, 918, -369, -566, 412, -723, 564, -422, -383, -325, -666, 598, 35, 253, -879, -423, -223, 631, -208, -345, -209, -709, 227, -250, -258, 425, -526, 264, -87, 582, -652, -521, -450, 776, -454, -442, 170, -625, 536, -448, -440, 274, -448, 478, 343, 443, -490, -371, -390, 1030, -433, -328, 667, -646, 434, -442, -445, 113, -547, 415, -43, 617, -461, -325, -430, 1010, -479, -195, 506, -599, 558, -443, -467, 472, -584, 578, 93, 618, -523, -462, -442, 901, -463, -237, 673, -517, 613, -465, -486, -61, -542, 583, -82, 450, -503, -478, -551, 798, -537, -579, 318, -591, 535, -571, -517, 339, -593, 460, 186, 595, -516, -382, -413, 773, -427, -462, 876, -511, 593, -438, -444, -8, -528, 607, -173, 588, -607, -332, -464, 749, -475, -502, 371, -601, 565, -517, -561, 166, -692, 611, 185, 401, -1141, -165, -195, 714, -224, -424, 578, -783, 320, -262, -285, -198, -655, 444, -364, 371, -909, -394, -372, 480, -348, -416, 489, -740, 389, -373, -384, 541, -609, 412, 533, 406, -679, -556, -308, 762, -316, -405, 350, -688, 400, -339, -329, 312, -446, 452, -227, 425, -678, -580, -431, 656, -411, -435, 310, -647, 425, -465, -450, 363, -522, 514, 216, 444, -582, -378, -371, 733, -414, -359, 557, -613, 441, -483, -481, 14, -567, 504, -470, 625, -406, -318, -439, 874, -472, -516, 653, -504, 589, -529, -525, 370, -493, 629, 494, 535, -754, -350, -355, 541, -367, -367, 703, -616, 473, -424, -400, -80, -669, 539, 14, 425, -901, -666, -334, 589, -358, -431, 516, -624, 442, -424, -413, 316, -484, 477, 354, 387, -1147, -402, -183, 486, -211, -709, 594, -1055, 350, -234, -245, 418, -605, 415, -331, 340, -852, -390, -335, 420, -364, -339, 318, -734, 314, -416, -426, -21, -543, 396, 404, 450, -872, -358, -224, 857, -250, -472, 434, -869, 384, -308, -318, 446, -428, 457, 188, 448, -735, -491, -310, 527, -320, -302, 654, -672, 440, -361, -353, 100, -608, 516, 123, 449, -925, -562, -358, 647, -367, -433, 363, -650, 404, -386, -392, 317, -567, 477, 187, 570, -791, -410, -478, 450, -524, -432, 729, -578, 524, -511, -511, 319, -589, 597, 106, 320, -733, -545, -333, 605, -344, -353, 553, -743, 296, -435, -446, -95, -633, 362, 1060, 391, -1644, 162, -104, 80, -170, -661, 441, -897, 370, -225, -228, 302, -1220, 409, 163, 477, -1169, -459, -252, 541, -227, -399, 527, -953, 472, -223, -213, 267, -1224, 499, 649, 402, -1066, -386, -402, 630, -342, -929, 436, -1157, 444, -290, -251, 460, -635, 400, 211, 552, -645, -270, -468, 968, -429, -364, 625, -796, 557, -372, -332, 143, -1485, 551, -330, 432, -1086, -647, -347, 938, -324, -873, 560, -795, 449, -266, -226, 169, -427, 425, 701, 471, -495, -617, -405, 1122, -335, -547, 538, -839, 530, -290, -245, 169, -1351, 490, 486, 371, -1133, -687, -274, 602, -249, -1143, 395, -1193, 404, -234, -214, -49, -729, 347, -4, 550, -607, -273, -374, 872, -353, -801, 537, -785, 598, -372, -321, -80, -1412, 555, 554, 382, -837, -335, -370, 691, -324, -1063, 497, -1067, 421, -276, -275, 16, -865, 387, 150, 555, -789, -538, -406, 835, -367, -667, 469, -781, 578, -370, -327, 105, -386, 590, 628, 615, -777, -151, -562, 975, -525, -211, 429, -776, 623, -483, -434, 108, -1716, 582, -6, 581, -666, -657, -553, 1074, -453, -413, 673, -765, 613, -443, -386, 254, -19, 560, 342, 606, -415, -247, -469, 1094, -393, -397, 567, -742, 629, -384, -310, 404, -1511, 604, 469, 489, -834, -441, -505, 1040, -434, -644, 529, -803, 578, -374, -288, -18, -223, 519, 352, 641, -712, -38, -466, 922, -467, -485, 651, -673, 647, -448, -448, -18, -1737, 623, -194, 576, -839, -713, -521, 965, -481, -857, 288, -999, 612, -419, -388, 178, -399, 503, -19, 625, -400, -340, -504, 821, -471, -816, 640, -781, 653, -505, -462, -203, -1732, 602, 35, 637, -536, -250, -583, 1024, -544, -665, 394, -785, 663, -541, -511, 174, -1434, 651, 380, 640, -627, -567, -581, 1061, -540, -790, 500, -803, 693, -485, -476, 395, 398, 677, 29, 629, -416, -299, -557, 1300, -526, -286, 269, -528, 646, -490, -464, 101, -1430, 582, 223, 728, -859, -276, -642, 1250, -616, -706, 504, -745, 735, -599, -573, -143, -30, 692, 77, 799, -597, -372, -567, 1211, -564, -357, 530, -643, 791, -530, -531, 46, -1356, 782, -146, 593, -914, -1085, -544, 1112, -502, -717, 684, -726, 609, -444, -404, -360, 35, 556, -48, 743, -554, -134, -639, 1162, -629, -492, 628, -544, 771, -555, -550, 172, -1554, 738, 275, 547, -891, -619, -524, 1020, -467, -896, 565, -735, 600, -401, -349, -144, -53, 556, 38, 552, -793, -704, -458, 1024, -450, -784, 438, -815, 594, -416, -427, 188, 244, 564, 364, 576, -474, -404, -501, 1178, -485, -525, 423, -641, 561, -456, -419, 161, -1371, 537, 239, 594, -700, -622, -530, 1122, -517, -387, 318, -856, 635, -443, -419, 161, -44, 584, 277, 668, -394, -111, -553, 1276, -566, -821, 767, -531, 691, -522, -536, 73, -1380, 668, -4, 602, -422, -746, -463, 1496, -432, -665, 705, -702, 608, -399, -355, 299, 30, 614, 34, 751, -331, -152, -496, 1414, -547, -421, 883, -641, 742, -515, -533, 123, -1293, 763, 218, 548, -485, -533, -576, 1122, -499, -655, 784, -947, 640, -389, -358, 113, -11, 565, 186, 597, -551, -276, -488, 1135, -495, -558, 441, -585, 597, -488, -488, -150, -1372, 565, 589, 611, -880, -353, -437, 1128, -400, -369, 573, -684, 633, -405, -382, 217, -1556, 597, 309, 564, -784, -703, -523, 1076, -472, -689, 411, -758, 626, -454, -427, 299, -34, 575, 524, 565, -415, -48, -496, 1186, -476, -555, 392, -570, 592, -418, -421, 144, -1435, 588, 262, 592, -489, -675, -452, 1375, -453, -730, 507, -661, 585, -410, -413, 103, 67, 596, 105, 716, -233, -85, -520, 1285, -543, -453, 621, -578, 730, -497, -517, 180, -1398, 708, -60, 545, -486, -546, -574, 1101, -517, -716, 521, -831, 603, -489, -471, 110, 13, 532, 603, 596, -306, -224, -530, 1126, -515, -294, 734, -699, 634, -462, -450, 226, -1433, 602, -175, 706, -706, -422, -531, 1198, -548, -507, 785, -599, 667, -542, -518, -229, -74, 676, 491, 472, -910, -831, -385, 1145, -393, -733, 393, -913, 476, -364, -326, 167, -54, 420, 513, 588, -633, -20, -518, 1116, -514, -513, 491, -500, 605, -455, -477, 224, -1432, 526, 384, 560, -546, -788, -414, 1104, -421, -1097, 341, -622, 528, -354, -377, 87, 198, 507, 259, 668, -413, -247, -590, 1075, -607, -281, 734, -564, 651, -568, -563, 146, -1643, 618, 346, 556, -584, -703, -443, 1003, -458, -998, 646, -732, 555, -423, -446, 246, 300, 506, 417, 544, -294, -498, -421, 1089, -401, -458, 443, -434, 560, -458, -420, 127, -1480, 561, 49, 484, -624, -326, -501, 1035, -478, -658, 630, -663, 549, -434, -428, 219, 72, 428, 618, 651, -691, 13, -500, 950, -500, -370, 593, -748, 607, -413, -444, 146, -1379, 591, 283, 565, -838, 94, -419, 1061, -378, -565, 575, -632, 584, -412, -399, 74, -1578, 532, 101, 594, -884, -652, -576, 957, -574, -902, 253, -788, 602, -644, -620, -120, 83, 595, 495, 691, -588, -240, -559, 1081, -578, -524, 565, -497, 691, -555, -548, 155, -1537, 649, 431, 430, -734, -815, -434, 892, -437, -727, 452, -870, 456, -463, -485, 296, 127, 509, 321, 527, -521, -338, -460, 966, -460, -553, 541, -533, 510, -492, -507, 119, -1427, 531, 355, 529, -643, -500, -478, 992, -459, -813, 644, -749, 617, -487, -465, 195, 381, 492, 525, 597, -527, -139, -588, 978, -570, -528, 489, -594, 599, -573, -568, -21, -1362, 570, 7, 625, -807, -408, -478, 1025, -464, -463, 360, -722, 598, -470, -459, 68, -144, 595, 2, 549, -1041, -608, -408, 1041, -432, -1168, 462, -723, 534, -476, -518, -223, -186, 549, 239, 658, -596, -184, -470, 1199, -470, -666, 851, -607, 664, -472, -473, -37, -1678, 646, 328, 524, -872, -698, -533, 555, -544, -724, 451, -1064, 489, -588, -600, 153, 3, 541, 471, 490, -523, -460, -332, 1076, -356, -447, 603, -580, 453, -366, -377, 232, -1455, 510, 439, 406, -795, -741, -238, 935, -246, -638, 528, -740, 376, -323, -291, 199, 4, 420, 336, 410, -678, -366, -388, 906, -394, -397, 621, -636, 393, -408, -402, 26, -1460, 461, 382, 494, -1150, -326, -386, 889, -344, -857, 496, -865, 525, -373, -340, -119, -79, 500, 473, 487, -853, -591, -328, 972, -302, -167, 450, -782, 471, -357, -315, -103, -1366, 484, 340, 893, -1510, -874, -565, 1297, -619, -856, 518, -1036, 891, -639, -693, 523, -1073, 893, 599, 891, -1388, -764, -629, 1263, -640, -925, 771, -1132, 877, -616, -650, 591, -1035, 866, 410, 838, -1382, -762, -610, 1206, -662, -686, 624, -1142, 817, -665, -659, 516, -846, 845, 688, 940, -1467, -639, -697, 1239, -766, -789, 547, -1068, 902, -779, -817, 501, -988, 919, 284, 908, -1238, -669, -660, 1397, -694, -804, 805, -1113, 891, -664, -695, 605, -854, 881, 494, 958, -1250, -735, -778, 1256, -800, -829, 878, -1070, 962, -761, -791, 304, -886, 928, 3, 1000, -1187, -664, -660, 1378, -736, -718, 992, -1093, 978, -696, -738, 394, -724, 991, 362, 1001, -1285, -569, -662, 1310, -715, -750, 872, -1077, 975, -735, -776, 261, -931, 1002, 59, 794, -1248, -943, -548, 1396, -607, -1088, 566, -1020, 787, -575, -616, 737, -954, 793, 888, 693, -1296, -841, -491, 1377, -527, -964, 436, -1092, 705, -499, -549, 842, -994, 691, 368, 819, -1244, -681, -635, 1335, -630, -827, 676, -1097, 802, -573, -594, 732, -925, 791, 700, 763, -1175, -521, -595, 1398, -588, -898, 605, -1130, 765, -570, -591, 653, -907, 718, 369, 803, -1189, -220, -619, 1428, -636, -721, 769, -1116, 802, -595, -596, 893, -1000, 828, 480, 990, -1115, -226, -733, 1424, -778, -758, 822, -1009, 932, -784, -823, 75, -747, 992, 37, 813, -1019, -450, -522, 1407, -633, -685, 662, -1030, 759, -644, -741, 1059, -980, 816, 559, 867, -950, -1002, -578, 1528, -611, -734, 695, -1058, 857, -579, -622, 59, -855, 845, 228, 799, -1150, -1031, -548, 1431, -581, -980, 723, -1079, 809, -563, -603, 667, -873, 768, 772, 716, -963, -756, -637, 1367, -634, -854, 537, -1103, 752, -586, -598, 740, -942, 715, 244, 755, -1110, -780, -638, 1230, -655, -827, 641, -1084, 733, -640, -662, 742, -931, 760, 657, 788, -1143, -513, -635, 1347, -641, -841, 707, -1162, 789, -658, -659, 689, -1006, 798, 153, 848, -1101, -496, -719, 1290, -706, -625, 826, -1081, 877, -712, -705, 566, -734, 885, 296, 911, -910, -673, -733, 1396, -733, -788, 918, -1052, 897, -681, -695, 315, -986, 893, 113, 866, -944, -732, -651, 1348, -671, -724, 822, -1029, 852, -649, -660, 592, -742, 877, 575, 768, -878, -923, -615, 1413, -630, -599, 646, -1050, 772, -604, -644, 287, -835, 720, 91, 659, -1091, -1309, -482, 1156, -503, -947, 722, -1010, 644, -426, -463, 698, -979, 641, 833, 628, -972, -806, -584, 1237, -537, -1029, 477, -1155, 659, -506, -473, 779, -936, 636, 219, 674, -1121, -1030, -585, 1145, -573, -837, 644, -998, 683, -545, -509, 737, -1001, 641, 717, 705, -1040, -692, -624, 1164, -621, -945, 591, -1091, 719, -540, -550, 660, -912, 694, 593, 710, -875, -828, -691, 1205, -665, -762, 749, -1097, 768, -607, -578, 753, -1050, 680, 658, 701, -861, -743, -522, 1427, -540, -829, 711, -1041, 700, -513, -513, 527, -772, 722, 507, 769, -783, -491, -571, 1530, -576, -693, 701, -994, 774, -550, -573, 694, -922, 745, 519, 769, -897, -899, -503, 1313, -564, -576, 745, -1067, 753, -520, -579, 317, -855, 677, 344, 622, -1099, -1467, -383, 977, -377, -927, 697, -1025, 624, -343, -350, 561, -869, 595, 685, 617, -979, -1249, -536, 1023, -489, -1146, 533, -1084, 637, -461, -430, 578, -1061, 590, 688, 596, -1084, -1137, -471, 923, -462, -1065, 638, -1045, 622, -405, -399, 728, -901, 490, 857, 633, -1021, -832, -515, 1065, -498, -1079, 650, -1016, 651, -479, -460, 725, -973, 632, 649, 637, -937, -881, -543, 1193, -522, -944, 766, -1066, 642, -533, -521, 678, -819, 596, 521, 665, -762, -1374, -475, 1266, -457, -875, 791, -1013, 689, -372, -354, 624, -978, 660, 472, 700, -817, -1186, -580, 1327, -528, -839, 814, -1028, 714, -473, -453, 402, -806, 615, 361, 694, -841, -1305, -621, 1206, -581, -712, 848, -973, 714, -537, -533, 412, -831, 659, 380, 577, -1354, -1381, -382, 536, -347, -761, 745, -1085, 609, -388, -350, 424, -953, 622, 611, 564, -1192, -1217, -559, 851, -513, -783, 645, -1078, 594, -525, -497, 554, -895, 590, 656, 513, -1168, -1430, -541, 715, -464, -828, 598, -1062, 564, -443, -402, 589, -1064, 489, 742, 545, -1131, -1101, -562, 824, -518, -1032, 624, -1046, 557, -553, -530, 640, -867, 577, 548, 678, -1199, -1084, -589, 910, -546, -863, 723, -1161, 699, -524, -497, 594, -963, 705, 566, 644, -1064, -1237, -500, 964, -494, -1088, 740, -1067, 677, -449, -458, 701, -883, 693, 432, 838, -998, -1195, -577, 1001, -563, -952, 733, -1105, 840, -513, -502, 193, -926, 840, 227, 729, -1071, -1078, -594, 890, -592, -571, 570, -1157, 710, -563, -553, 485, -1004, 710, 539, 461, -1354, -1353, -383, 641, -377, -790, 746, -1200, 472, -385, -375, 350, -896, 502, 606, 645, -1351, -1227, -427, 612, -456, -1001, 810, -1115, 635, -518, -506, 322, -984, 651, 580, 580, -1276, -1231, -388, 839, -390, -719, 677, -1041, 546, -408, -414, 509, -925, 565, 877, 609, -1169, -1025, -508, 822, -485, -1124, 783, -1045, 605, -515, -506, 552, -949, 609, 708, 698, -1140, -856, -550, 863, -538, -742, 771, -1069, 682, -586, -589, 622, -921, 710, 580, 644, -1105, -1087, -498, 952, -543, -956, 862, -1045, 621, -581, -608, 505, -986, 626, 281, 721, -832, -895, -525, 868, -535, -875, 835, -1292, 680, -561, -562, 431, -937, 693, 457, 594, -986, -883, -378, 518, -439, -714, 948, -1271, 584, -465, -493, 787, -977, 596, 300, 489, -1507, -1222, -535, 630, -543, -970, 486, -1252, 507, -613, -616, 357, -982, 490, 527, 598, -1312, -1326, -414, 848, -480, -1066, 761, -1201, 566, -480, -534, 327, -924, 620, 601, 597, -1341, -1232, -446, 897, -469, -875, 664, -1078, 560, -434, -473, 484, -979, 543, 879, 639, -1312, -1067, -534, 928, -543, -1058, 592, -1094, 652, -554, -574, 514, -960, 612, 748, 724, -1273, -1036, -612, 976, -601, -917, 294, -1189, 749, -609, -639, 558, -989, 722, 598, 641, -1203, -1211, -555, 833, -579, -974, 724, -1125, 633, -626, -651, 484, -1011, 621, 139, 674, -950, -1244, -475, 941, -520, -832, 603, -1295, 657, -607, -590, 382, -1035, 698, 199, 549, -1476, -927, -656, 684, -649, -552, 666, -1326, 593, -748, -767, 548, -1021, 539, 1392, 1272, -2965, -2080, -636, 1615, -1071, -1476, 768, -3639, 1061, -1297, -1732, 1292, -2174, 1244, 1127, 1500, -2699, -1509, -889, 1801, -1298, -1742, 636, -3485, 1298, -1452, -1766, 805, -1875, 1516, 1628, 1535, -2566, -1653, -707, 1882, -1197, -1744, 646, -2952, 1270, -1459, -1901, 1269, -1794, 1490, 855, 1614, -2320, -1757, -1054, 1663, -1424, -1867, 848, -3205, 1401, -1543, -1863, 1217, -1821, 1573, 789, 1572, -2353, -1749, -1071, 1930, -1433, -1647, 763, -3151, 1399, -1620, -1930, 1272, -1986, 1571, 1170, 1748, -2644, -1683, -950, 1932, -1466, -1460, 523, -3312, 1465, -1701, -2104, 1251, -1937, 1702, 571, 1665, -2732, -1801, -833, 2100, -1373, -1267, 738, -2506, 1410, -1596, -1973, 303, -2083, 1661, 832, 1539, -2966, -2201, -577, 1902, -1220, -1556, 618, -3507, 1232, -1532, -2143, 437, -2074, 1556, 951, 1432, -2311, -1627, -1166, 1981, -1303, -1415, 968, -2626, 1349, -1336, -1420, 1219, -1827, 1401, 1590, 1401, -2507, -1712, -1238, 1683, -1266, -1379, 953, -3008, 1373, -1277, -1304, 1616, -1904, 1361, 1395, 1371, -2340, -1725, -1230, 1633, -1286, -1191, 1042, -2691, 1346, -1308, -1357, 1635, -1563, 1330, 1507, 1425, -2278, -1456, -1137, 1904, -1312, -1170, 950, -2990, 1344, -1375, -1522, 1661, -1908, 1360, 1073, 1414, -2315, -1769, -1209, 1621, -1334, -1236, 888, -3325, 1339, -1441, -1549, 1908, -1989, 1427, 1400, 1525, -2563, -1487, -1105, 1863, -1368, -1547, 960, -2518, 1405, -1512, -1706, 1246, -1621, 1514, 1211, 1295, -3182, -1867, -995, 1834, -1163, -1432, 1082, -2307, 1250, -1250, -1421, 1455, -1586, 1260, 981, 1517, -2923, -1779, -1090, 1942, -1356, -1596, 1102, -2593, 1370, -1435, -1623, 629, -1775, 1511, 1042, 1398, -2428, -1719, -1253, 1804, -1324, -1207, 972, -2648, 1351, -1371, -1399, 1432, -1844, 1377, 1381, 1391, -2143, -1448, -1207, 1767, -1289, -1457, 1047, -2639, 1392, -1291, -1351, 1652, -1401, 1420, 1116, 1523, -2412, -1643, -1426, 1552, -1458, -1299, 1085, -2743, 1524, -1468, -1491, 1570, -1736, 1511, 1642, 1435, -2382, -1946, -1217, 1841, -1331, -1446, 774, -2720, 1371, -1368, -1461, 1467, -1227, 1380, 1548, 1523, -2441, -1973, -1221, 1973, -1445, -1180, 964, -2578, 1433, -1571, -1684, 1617, -1552, 1490, 1430, 1469, -1982, -1958, -1324, 2206, -1413, -1311, 1144, -2705, 1457, -1432, -1498, 1153, -1670, 1464, 1324, 1491, -2655, -1964, -1286, 2069, -1424, -1469, 1335, -2502, 1438, -1448, -1552, 1375, -1424, 1452, 1216, 1409, -2371, -1931, -1160, 2060, -1310, -1506, 1286, -2551, 1363, -1383, -1457, 771, -1633, 1413, 983, 1386, -2134, -1832, -1245, 1975, -1298, -1325, 950, -2429, 1359, -1328, -1377, 1181, -1555, 1428, 1503, 1344, -2397, -1706, -1194, 1820, -1199, -1480, 1332, -2528, 1383, -1197, -1198, 1611, -1751, 1351, 1504, 1426, -2079, -1918, -1294, 1741, -1315, -1250, 1021, -2355, 1401, -1305, -1328, 1594, -1463, 1337, 1727, 1451, -2092, -1679, -1266, 2030, -1306, -1461, 1047, -2209, 1460, -1318, -1347, 1718, -1567, 1487, 1562, 1383, -2076, -1650, -1233, 2036, -1299, -1279, 1057, -2595, 1413, -1309, -1349, 1506, -1557, 1384, 1557, 1421, -1991, -1901, -1223, 2270, -1283, -1322, 1434, -2323, 1396, -1334, -1372, 1544, -1611, 1441, 1616, 1470, -2068, -2105, -1191, 2089, -1286, -1401, 1418, -2316, 1432, -1351, -1388, 1042, -1644, 1508, 1301, 1296, -2360, -1991, -1180, 2159, -1250, -1399, 1461, -2349, 1309, -1283, -1326, 1473, -1473, 1323, 1314, 1283, -2444, -1644, -1347, 1716, -1314, -1523, 884, -2564, 1346, -1291, -1295, 921, -1798, 1274, 1225, 1417, -2241, -1704, -1321, 1867, -1331, -1559, 1089, -2288, 1389, -1320, -1341, 1391, -1521, 1311, 1567, 1383, -2250, -1659, -1236, 1719, -1218, -1407, 1358, -2132, 1373, -1219, -1237, 1592, -1671, 1399, 1553, 1352, -1923, -1911, -1257, 2030, -1235, -1473, 1088, -2245, 1365, -1243, -1235, 1437, -1612, 1342, 1561, 1418, -1946, -1598, -1211, 2135, -1253, -1292, 1339, -2038, 1388, -1251, -1290, 1688, -1562, 1390, 1499, 1358, -1967, -1967, -1334, 1914, -1329, -1317, 1296, -2230, 1398, -1334, -1330, 1321, -1547, 1410, 1441, 1500, -2271, -1688, -1323, 2001, -1326, -1689, 1397, -2100, 1504, -1317, -1348, 1178, -1634, 1459, 1233, 1427, -2429, -1738, -1273, 1950, -1316, -1424, 1445, -2259, 1414, -1367, -1417, 1257, -1444, 1435, 1392, 1458, -2461, -1772, -1204, 1740, -1244, -1454, 1356, -2156, 1365, -1254, -1297, 915, -1603, 1426, 1324, 1395, -2445, -1464, -1209, 1804, -1230, -1549, 1299, -2386, 1421, -1263, -1262, 1367, -1724, 1455, 1433, 1347, -2084, -1754, -1382, 1875, -1384, -1428, 1191, -2167, 1379, -1379, -1366, 1280, -1575, 1358, 1638, 1324, -2192, -1745, -1241, 1900, -1223, -1420, 1422, -2119, 1331, -1283, -1276, 1457, -1731, 1362, 1263, 1397, -2074, -1871, -1368, 1723, -1361, -1361, 1371, -2136, 1385, -1339, -1366, 1291, -1416, 1350, 1456, 1421, -2154, -1777, -1287, 1900, -1312, -1528, 1322, -2074, 1429, -1326, -1317, 1332, -1521, 1405, 1224, 1515, -2422, -1572, -1336, 1793, -1375, -1358, 1448, -2018, 1496, -1418, -1450, 1339, -1489, 1512, 1465, 1432, -2499, -1481, -1210, 1829, -1300, -1343, 1373, -2213, 1436, -1370, -1412, 1790, -1594, 1448, 1288, 1298, -2515, -1490, -1158, 1972, -1180, -1313, 1376, -2800, 1280, -1229, -1273, 1241, -1675, 1333, 1181, 1356, -2375, -1645, -1291, 1742, -1284, -1453, 1398, -2351, 1324, -1338, -1364, 780, -1529, 1301, 1162, 1445, -2417, -1534, -1388, 1704, -1402, -1574, 1459, -2271, 1431, -1426, -1482, 1123, -1632, 1376, 1633, 1389, -2310, -1806, -1257, 1783, -1311, -1502, 1468, -2167, 1401, -1335, -1384, 1229, -1552, 1416, 1379, 1396, -2324, -1802, -1320, 1840, -1323, -1547, 1226, -2208, 1406, -1437, -1439, 1358, -1629, 1412, 1339, 1468, -2311, -1448, -1313, 1733, -1322, -1282, 1274, -1958, 1435, -1448, -1440, 1298, -1462, 1509, 1463, 1340, -2116, -1576, -1326, 1854, -1355, -1406, 1324, -2030, 1366, -1405, -1465, 1450, -1285, 1390, 1062, 1405, -2649, -1382, -1095, 1939, -1208, -1050, 1257, -2234, 1344, -1294, -1364, 1562, -1345, 1428, 1381, 1249, -2462, -1770, -1214, 1711, -1214, -1335, 1320, -2466, 1247, -1261, -1265, 814, -1594, 1272, 1366, 1305, -2534, -1566, -1199, 1679, -1233, -1443, 1530, -2443, 1332, -1316, -1308, 1249, -1673, 1418, 1402, 1314, -2605, -1630, -1138, 1539, -1145, -1306, 1503, -2343, 1275, -1245, -1221, 1288, -1671, 1373, 1512, 1359, -2465, -1563, -1294, 1581, -1348, -1604, 1401, -2311, 1336, -1438, -1449, 1126, -1715, 1357, 1179, 1333, -2438, -1881, -1146, 1884, -1220, -1340, 1236, -2261, 1253, -1283, -1311, 1139, -1543, 1380, 1428, 1277, -2544, -1533, -1182, 1726, -1253, -1274, 1391, -2154, 1247, -1330, -1320, 1136, -1653, 1339, 1680, 1326, -2508, -1263, -967, 1529, -1063, -1161, 1059, -2198, 1281, -1203, -1228, 1390, -1531, 1338, 238, 1446, -2817, -1723, -1065, 1752, -1236, -1352, 1229, -2174, 1355, -1290, -1421, 1298, -1777, 1450, 419, 49, 327, 103, 351, -909, 340, 91, -6, -1724, 30, 316, 328, 576, 277, 39, 485, 43, 286, 461, 346, -569, 404, -73, 129, -979, 61, 437, 487, 762, 131, 44, 821, 35, -108, 303, 203, -323, 269, -43, 172, -929, 109, 301, 395, -56, 141, 50, 300, 191, -572, 282, 261, -195, 332, -267, 249, -925, 256, 334, 389, 340, 161, 168, 428, 277, -751, 221, 137, -288, 176, -368, 309, -76, 310, 170, 215, 375, -134, 258, -482, 349, -740, 149, 138, -185, 147, -565, 380, 47, 395, 150, 175, 454, -61, 351, 77, 368, -834, 1, 79, -849, 144, -536, 473, 58, 418, 155, 220, 279, 188, 348, 181, 15, -897, 164, 347, -84, 414, -433, 156, 172, 65, 376, 446, -233, -1187, 16, 595, 78, 254, 306, 256, -945, 326, -501, 38, -1099, 109, 358, 418, 384, 227, 74, 801, 161, -38, 489, 329, -917, 405, -111, 270, -1621, 203, 486, 571, 843, 332, 141, 677, 130, -241, 443, 296, -591, 366, -14, 221, -924, 183, 415, 495, 575, 324, 116, 436, 275, -613, 327, 243, -344, 293, -240, 333, -359, 352, 329, 365, 541, 126, 304, -94, 497, -1087, 253, 110, -219, 111, -212, 429, -238, 523, 144, 153, 0, 365, 458, -139, 552, -1296, 17, 94, -367, 79, -268, 543, 64, 564, 113, 119, 156, 97, 542, -169, 433, -1434, 164, 49, -671, 70, -338, 478, 92, 474, 126, 132, 136, 14, 401, -183, 316, -1650, -31, 132, -287, 163, -505, 410, 130, 342, 175, 234, -355, 12, 307, 285, 137, 77, 419, 242, -374, 331, 81, 254, -151, 213, 356, 420, 502, 223, 165, 660, 123, -142, 495, 428, -542, 468, -97, 68, -319, 189, 516, 576, 1000, 473, 103, 407, 260, -187, 520, 307, -311, 313, 19, 305, -200, 313, 339, 388, 725, 304, 249, 171, 393, -261, 448, 221, -258, 193, -145, 382, -198, 424, 213, 269, 481, 466, 382, 616, 519, -584, 299, 216, -184, 149, -20, 478, -123, 512, 127, 138, 170, 300, 508, -545, 650, -957, 236, 215, -259, 160, -141, 607, 26, 628, 157, 165, 67, 339, 641, 274, 490, -716, 138, 308, -314, 281, -122, 420, 163, 478, 272, 282, 36, -174, 465, 14, 290, -1030, -28, 299, -267, 293, -448, 321, 152, 336, 306, 328, -182, -61, 300, 953, 74, -51, 300, 402, -60, 462, -17, 68, -37, 111, 485, 540, 430, 262, 47, 704, 2, 26, 382, 298, -269, 376, -262, 143, -81, 61, 459, 520, 841, 267, -10, 757, 134, -85, 307, 395, -245, 421, 13, 164, -82, 169, 469, 500, 482, 308, 100, 497, 223, 28, 321, 329, 47, 321, -32, 211, -97, 239, 322, 343, 512, 253, 202, -87, 334, -79, 378, 263, 41, 210, 161, 270, -112, 329, 205, 196, 166, 318, 329, -70, 376, -28, 58, 260, 198, 231, 32, 431, 47, 395, 258, 284, 165, 12, 354, -66, 378, -295, 195, 325, 36, 297, 6, 364, 6, 367, 316, 288, -283, -71, 362, -126, 233, -508, 109, 349, -9, 327, -460, 286, 104, 229, 357, 339, -41, 45, 199, 395, 65, 52, 220, 358, 82, 438, 233, 154, 52, 108, 453, 506, 571, 197, 77, 672, 80, 114, 258, 378, -112, 438, -116, 111, 36, 147, 465, 501, 720, 180, 80, 658, 57, 205, 500, 432, 32, 439, -154, 111, 17, 76, 437, 460, 558, 203, 48, 177, 169, 118, 298, 305, -131, 299, -47, 139, 96, 178, 330, 317, 455, 303, 148, 154, 175, 189, 137, 291, 134, 254, 136, 214, 104, 172, 260, 251, 217, 170, 148, -164, 256, 154, 306, 305, 190, 290, 246, 296, 53, 256, 276, 261, 66, 213, 198, -226, 232, 225, -188, 332, 173, 317, 172, 319, 64, 214, 305, 323, -36, 62, 199, 14, 167, -91, 68, 426, 68, 437, 130, 263, 101, 186, 389, 404, -298, -63, 160, 69, 21, 59, 559, 571, -13, 558, -19, -237, 83, 47, 503, 519, 838, 60, 30, 363, 53, 152, 184, 440, -11, 473, -6, 139, 75, 74, 483, 533, 702, 141, 58, 113, -20, 221, 126, 433, -194, 479, -235, 71, 110, 35, 478, 493, 603, 139, -10, 361, -42, 220, -88, 518, -6, 522, -3, 212, 75, -29, 513, 524, 464, 119, -47, -25, 60, 265, 150, 411, 3, 389, -49, 80, 124, 69, 370, 354, 91, 187, 39, -25, 74, 254, -296, 384, 64, 385, 154, 227, 169, 93, 381, 374, -6, -10, 78, -234, 157, 305, -11, 363, 90, 349, 78, 187, 130, 189, 327, 319, -117, 80, 144, -21, 176, -33, 161, 386, 174, 353, 226, 278, 129, 178, 312, 277, -239, 6, 164, 497, 73, 540, 781, 359, 65, 383, -179, -175, 130, 79, 333, 374, 763, 49, 73, 415, 148, 453, 923, 434, 3, 384, -261, -204, 92, 156, 347, 342, 600, 13, 123, 163, 106, 187, 510, 441, -8, 404, -167, 60, 91, 95, 380, 373, 487, 124, 102, -39, 14, 280, 50, 495, -63, 485, -46, 66, 21, 3, 434, 426, 63, 16, -12, -21, -86, 96, -123, 473, -13, 447, 59, 173, 88, -88, 434, 399, 153, 32, -68, -169, 91, 68, 151, 347, -72, 313, 105, 225, 156, 59, 243, 216, -237, 77, 85, -44, 243, -3, 258, 198, 230, 168, 172, 305, 194, 220, 87, 77, -192, 78, 225, -6, 310, 41, 426, 124, 204, 91, 224, 300, 180, 289, 55, 22, -464, 20, 302, 188, 232, 408, 1174, 230, 252, 216, -208, 131, 133, 223, 147, 154, 303, -72, 241, 541, 293, 671, 693, 29, 171, 54, 68, -538, 132, 326, 94, 130, 252, 87, 290, 16, 227, 302, 494, 16, 150, 40, 125, -332, 14, 255, 58, 84, -26, 163, 223, -45, -39, -84, 131, 456, -119, 450, 155, -601, -115, -42, 433, 456, 185, 80, -46, -103, 25, -66, 354, 135, 22, 175, 190, 61, 93, 19, 102, 126, -265, 100, 25, 150, -30, -193, 194, 281, -76, 262, 309, 90, 59, -33, 249, 223, -151, -6, -13, 24, 294, -134, 654, -27, 184, -34, 281, 54, 163, 294, -34, -41, -357, 53, 267, 108, 367, 2, 776, -6, 187, -7, 328, 356, 227, 349, -103, -111, -549, 61, 368
};
const int32_t L1_BIASES[] = {
445, 828, -391, 2166, 780, -1838, 1099, -952, 364, -781, 1122, 955, 924, 150, -805, 781
};
const int32_t L2_WEIGHTS[] = {
-80, -34, 164, 100, 43, -184, 36, 113, -58, 218, -36, 35, 28, -97, 149, -37, 80, 42, -160, -108, -29, 174, -36, -112, 51, -221, 36, -44, -50, 98, -150, 44
};
const int32_t L2_BIAS =
276
;
#endif
