#ifndef NN_VALUES_H
#define NN_VALUES_H


const float L1_WEIGHTS[] = {
0.008516771, 0.0002647092, 0.0025373825, 0.0056317104, 0.0037117703, 0.005580825, 0.0073485207, 0.0084782, 5.028967e-06, 0.005444754, 0.0025497372, 0.0018786723, 0.006776065, 0.004112177, 0.0023711545, 0.0037227827, 0.00032877387, 0.005464445, 0.0028167104, 0.003145357, 0.0066240677, 0.007715702, 0.001230402, 0.0008485149, 0.007063514, 0.002101398, 0.00469829, 0.005835587, 0.006797991, 0.006489611, 0.003675851, 0.006846799, 0.007629644, 0.0013989975, 0.0029883804, 0.0010874487, 0.004685244, 0.008502784, 0.003677492, 0.00553146, 0.0041967947, 0.0064422092, 0.0036628582, 0.0014325994, 0.0026617858, 0.0050037103, 0.00339531, 0.0032948933, 0.003150036, 0.006235022, 0.005180847, 0.008171176, 0.006543286, 0.0014537787, 0.004515801, 0.0073942407, 0.0054466906, 0.0040157614, 0.0065934137, 0.0054121534, 0.005321388, 0.0008205438, 0.005883972, 0.0037546144, 0.0052057845, 0.0040303133, 0.0019862491, 0.0036979783, 0.0034169478, 0.0006012013, 0.00042979533, 0.00380756, 0.00760237, 0.0066053458, 0.0010948757, 0.0069476045, 0.0010723904, 0.0009158261, 0.005641886, 0.0042619836, 0.006624734, 0.008417055, 0.008375588, 0.0043233447, 0.0073442454, 0.0048098178, 0.0032729458, 0.0033759756, 0.007073994, 0.0008317486, 0.006112355, 0.006116094, 0.0036144946, 0.0022776767, 0.005396405, 0.0049446085, 0.0032753367, 0.007143894, 0.008647983, 0.007784913, 0.00401923, 0.0039045794, 0.004332065, 0.001215629, 0.004264892, 0.00598806, 2.6613128e-05, 0.007548541, 0.0030505343, 0.003535552, 0.006642399, 0.007705913, 0.0063738455, 0.0036500709, 0.0031072395, 0.0077992342, 0.0021386256, 0.0022356962, 0.0036223328, 0.0076474026, 0.0040728343, 0.007989209, 0.007879701, 0.008713273, 0.0028675068, 0.00036035824, 0.0044332375, 0.0048834197, 0.008712021, 0.007894052, 0.0031392104, 0.003503329, 0.0020832152, 0.004573077, 0.0010362621, 0.0087529095, 0.001858675, 0.004517337, 0.004981677, 0.0073559824, 0.006386985, 0.00830133, 0.0016437181, 0.006368748, 0.0058652298, 0.0023573986, 0.0003558494, 0.0040879343, 0.0066292332, 0.0032468545, 0.008761259, 0.0002735777, 0.0044151614, 0.0015035858, 0.0021754522, 0.0064910627, 0.0064980187, 0.0050665205, 0.007669932, 0.0027146097, 0.00601667, 0.0042204806, 0.0063947593, 0.0002947043, 0.007253269, 0.0030809485, 0.0027703904, 0.0038071377, 0.0075603235, 0.0020000553, 0.00093148893, 0.005835806, 0.0024391676, 0.0041344166, 0.0005838721, 0.0033097842, 0.002845067, 0.00036393682, 0.005510969, 0.0063079116, 0.005514438, 0.007512387, 0.0023245544, 0.0076752137, 0.0028391683, 0.0005116462, 0.003533108, 0.0073916074, 0.0023076443, 0.0028544278, 0.004823352, 0.006183675, 0.0015553721, 0.0081364475, 0.001984272, 0.0051495517, 0.0022806188, 0.006012759, 0.0066577164, 0.004818155, 0.00035589177, 0.005692009, 0.0056881057, 0.0051601836, 0.007663974, 0.001108808, 0.0032474156, 0.007938377, 0.003974257, 0.0028594069, 0.0016228503, 0.0042544175, 0.004766607, 0.008207106, 0.006071703, 0.003929348, 0.008023794, 0.0038184673, 0.003240056, 0.0061542443, 0.0055394974, 0.00024564957, 0.007207494, 0.0035746184, 0.0037268451, 0.0015997543, 0.0057699815, 0.0012197726, 0.0068302345, 0.0039328253, 0.004255337, 0.006203142, 0.0010409579, 0.0050651543, 0.0041503543, 0.008344414, 0.008256425, 0.0030965472, 0.0028158722, 0.0069128294, 0.008400364, 0.0071459403, 0.0049699997, 0.0057316227, 0.0052371286, 0.00592317, 0.004446036, 0.00083270425, 0.005123958, 0.0045511876, 0.005614728, 0.004733822, 0.008541205, 0.0050032535, 0.0017362406, 0.0034949973, 0.001594115, 0.0056036445, 0.004561501, 0.007428296, 0.0003412607, 0.00203979, 0.0058659087, 0.00041163975, 0.001153828, 0.0069325264, 0.0039781467, 0.0037506, 0.0028230643, 0.0059629055, 0.0083849, 0.0040046405, 0.005107458, 0.00013847096, 0.0062354235, 0.0060810484, 0.00425923, 0.00012926031, 0.0015457267, 0.0037531648, 0.003920747, 0.005593033, 0.0030238854, 0.004754806, 0.0009683173, 0.0044422057, 0.0072008357, 0.0016794521, 0.0026244782, 0.0051426403, 0.0015908914, 0.0024383196, 0.0065917973, 0.0030208002, 0.0037116052, 0.00838142, 0.0047534374, 0.0041931113, 0.0048991228, 0.00137755, 0.004364331, 0.0026827776, 0.0002107234, 0.0056581018, 0.00059169816, 0.0029749123, 0.0032193407, 0.00605315, 0.00021037587, 0.006454167, 0.006085446, 0.002528754, 0.006584919, 0.005900462, 0.0080685755, 0.0014581749, 0.0052230624, 0.0064641857, 0.0032160128, 0.008489891, 0.00020593057, 0.0023352855, 0.0066482453, 0.0026829466, 0.0019952997, 0.0018684475, 0.003825579, 0.0009162108, 0.0053985133, 0.0021946393, 0.0037978, 0.0023184172, 0.008500913, 0.0011472945, 0.005574153, 0.0026736963, 0.005492375, 0.00073260476, 0.0024054737, 0.0007396693, 0.006634346, 0.008735292, 0.006256158, 0.0016090616, 0.008241758, 0.006517529, 0.0046259128, 0.0031289798, 0.00848438, 0.008453761, 0.006608245, 0.0019595264, 0.0020916215, 0.0066325935, 0.00744062, 0.003378335, 0.008156982, 0.0060656453, 0.0062009506, 0.0036678773, 0.0015947934, 0.0006971939, 0.007984757, 0.005124783, 0.0054131523, 0.00047245738, 0.007084383, 0.0021031308, 0.0062358677, 0.00069768546, 0.0005741137, 0.0006937499, 0.005610295, 0.00086299557, 0.008488972, 0.006832106, 0.0018966878, 0.0067582815, 0.008107167, 0.005608842, 0.0023291681, 0.005163287, 0.0060699712, 0.0054261405, 0.0020231665, 0.0043265424, 0.0056351763, 0.005967595, 0.0014201561, 0.0048087053, 0.0015341603, 0.0020249735, 0.0033803023, 0.0009069413, 0.0010623874, 0.0016720749, 0.0076786336, 0.0019852647, 0.0029324805, 0.0058572693, 0.0045563453, 0.007763927, 0.0012727634, 0.0034395347, 0.0069778617, 3.6762045e-05, 0.0008624604, 0.006447873, 0.006646111, 0.00661004, 0.0072286967, 0.005010189, 0.0008901481, 0.0063396664, 0.0018037733, 0.0003317631, 0.0035653946, 0.0009337142, 0.0035386295, 0.008653199, 0.0006270024, 0.0071090716, 0.005110445, 0.0020299614, 0.0058329324, 0.006819046, 0.0004537085, 0.00047328288, 0.0065418817, 0.0007170045, 0.0050288187, 0.008053663, 0.0067807464, 0.0070334706, 0.004343295, 0.007872908, 0.0070334706, 0.0043957913, 0.004338479, 0.0005684076, 0.0072317943, 0.00859804, 3.788267e-05, 0.0064465096, 0.001507843, 0.0051052184, 0.0016767518, 0.0025427088, 0.0029702408, 0.005904027, 0.00041779157, 0.0066400096, 0.0029652887, 0.006631805, 0.0004978997, 0.00596686, 0.005275258, 0.0031071217, 0.0046475697, 0.00526404, 0.008062764, 0.0036000102, 0.004111786, 0.0042164614, 0.0019179126, 0.0035990414, 0.0077523827, 0.0066055995, 0.0069821486, 0.004229387, 0.00018000373, 0.0072956216, 0.0072679226, 0.0054965587, 0.0064662085, 0.0075617875, 0.002074785, 0.0034504745, 0.0061470144, 0.0024041615, 0.0003321242, 0.0057502184, 0.0004566877, 0.0062200404, 0.0044384184, 0.008641187, 0.001421669, 0.003421665, 0.00054380903, 0.0061639384, 0.006073145, 0.002205254, 0.0072291945, 0.007931945, 0.005376412, 0.0037142215, 0.006623772, 0.0030333786, 0.002005894, 0.00031201015, 0.003084575, 0.005257458, 0.0073760627, 0.00034876104, 0.00016034208, 0.0009847716, 0.006847297, 7.008763e-05, 0.0025843196, 0.006846112, 0.0031887083, 0.00681232, 0.10018895, -0.029591847, 0.05880714, -0.03949569, -0.046170764, 0.14232907, -0.09340541, 0.014347625, 0.13510832, -0.07913846, 0.0763175, 0.075404644, 0.13261512, 0.064318255, -0.0348976, 0.052308604, 0.01523117, -0.028031178, -0.032698747, 0.061325967, 0.1296919, 0.082966015, -0.0021653774, -0.041224685, 0.10513382, 0.015967302, 0.05153604, -0.35336286, 0.04949922, 0.08019339, 0.039512858, 0.044145588, -0.04101799, 0.070265174, 0.074762106, 0.36315238, 0.110237636, 0.024653899, 0.11270216, 0.15887187, 0.05233862, -0.0065852823, 0.035916444, 0.03777652, 0.013846427, 0.048381854, 0.048107337, 0.05494643, 0.12534851, 0.0106230825, 0.109183185, 0.024227943, 0.08882558, 0.012082232, 0.011182915, -0.03961324, 0.0011677082, 0.12646085, 0.06387853, -0.042322338, 0.092622265, 0.09341444, 0.07844741, -0.0065434934, 0.067035936, 0.10959317, -0.0550111, 0.005990785, -0.027867168, -0.027199738, -0.060357988, -0.0734984, 0.16384499, -0.07914018, 0.10456243, 0.13260797, 0.22211166, 0.03275977, -0.067083426, 0.09588145, -0.044788513, 0.02578443, 0.098509625, -0.005353611, 0.056989584, -0.0191814, -0.019723209, -0.0012882785, 0.09945022, 0.018213715, 0.037631635, -0.44453168, 0.05661448, -0.048930235, 0.004815696, -0.0034725573, 0.03972147, 0.13252112, 0.16336077, -0.08614072, 0.0009026382, -0.03070196, 0.08349996, 0.22137156, -0.0041143605, 0.1282574, 0.09981197, 0.13356715, 0.035618015, 0.0922864, 0.12041967, -0.0716315, 0.073647685, 0.03523984, -0.032047585, 0.009013894, -0.026674429, 0.088455595, 0.047954917, -0.037966326, 0.09216021, 0.020215133, -0.092490874, -0.0577183, 0.07464596, 0.08829479, 0.05888593, -0.22188938, 0.036995277, -0.08642822, 0.073113255, 0.027416872, -0.040067874, 0.050546277, -0.04773663, -0.06452127, 0.056614287, 0.024938606, 0.09549829, 0.035167582, -0.10631741, 0.0753464, -0.032105666, 0.102066904, -0.032953415, 0.06512231, 0.00030272084, 0.01819354, -0.028354425, -0.16485506, -0.016037302, -0.06334802, 0.019089064, 0.061506245, 0.019227235, -0.23644173, 0.031101782, -0.03050522, -0.030166581, 0.066747926, -0.00433147, 0.12367322, 0.10406644, -0.07673777, -0.03852337, -0.06718974, 0.07389414, 0.09830343, 0.028864993, 0.047659647, 0.09245677, -0.014561228, 0.08819702, 0.06905687, -0.10020615, -0.012804423, -0.00017853366, 0.060580354, 0.012025883, 0.02132201, 0.026504422, 0.058821402, 0.019473504, -0.021386843, 0.092231214, 0.105006866, 0.06482157, -0.034791972, 0.07558055, 0.010900744, -0.055730734, -0.21290462, 0.0011055374, 0.07603252, 0.15395188, 0.106948294, 0.06586411, -0.121276304, -0.10842226, 0.07889422, 0.16833284, 0.04628399, 0.1489012, 0.032290887, 0.07757709, 0.00052739785, 0.06039827, 0.097994104, -0.060822148, 0.016282037, -0.018860368, 0.10512957, 0.014290598, -0.003602535, -0.012766855, 0.10398296, 0.0063073966, 0.11496182, 0.025108675, -0.041517287, 0.14635567, 0.118543886, -0.004235938, 0.05652154, -0.039754633, 0.22651386, 0.23984194, 0.07063559, 0.06792228, 0.0051953914, 0.038982473, 0.18254983, -0.004180923, 0.21504052, -0.0027218845, 0.058656324, 0.12793273, 0.02762201, 0.02855756, 0.07436643, 0.09438884, 0.0022985665, 0.05914077, 0.032585528, 0.031835027, -0.11565907, 0.018346598, -0.17362955, 0.003349353, 0.020316299, -0.07671864, 0.02682687, -0.07691278, -0.023780433, 0.03940473, -0.12845954, 0.0755532, -0.040593423, -0.07498172, 0.09817014, -0.09360512, 0.15010564, 0.00469136, -0.0066506844, 0.4120965, 0.058142886, 0.14017479, 0.11182134, 0.08284882, 0.0966142, 0.06252164, -0.10542236, -0.0040104683, 0.026667114, -0.044656076, -0.0023868342, 0.089188725, -0.055000227, -0.060650527, -0.016467387, 0.003700221, 0.01296461, 0.0065874574, 0.018730637, 0.094262175, 0.03351853, 0.10409383, 0.05275489, 0.15644263, 0.085745975, 0.060370438, -0.047651757, -0.0066881925, -0.0024192762, 0.07429132, 0.26954278, -0.10793065, -0.16741002, 0.086644605, 0.05657992, 0.049829856, 0.016472759, 0.15273327, -0.06794268, 0.06276381, 0.1806192, 0.0057895854, 0.05883528, -0.06589942, 0.09154119, 0.02051515, -0.13141948, -0.0055228574, -0.008322143, -0.016819384, -0.018576432, -0.10725579, 0.097054236, -0.07093772, 0.10274996, 0.08355446, -0.007870073, 0.115953594, 0.1176923, -0.10243048, -0.08865023, -0.06326817, 0.12434925, 0.24232753, -0.056560423, 0.07108034, 0.030194424, 0.10445616, 0.09739386, 0.042285394, -0.036718536, -0.030987222, 0.16939464, 0.05813427, 0.07081387, -0.031042965, 0.04322688, -0.028915673, -0.11081316, 0.07694514, 0.065687135, 0.10411623, 0.008019044, 0.10359765, 0.046084616, -0.017107408, 0.051164594, -0.012641248, 0.11071651, 0.10915155, -0.054296043, -0.012964992, 0.068663284, 0.04704307, 0.23270923, 0.16602102, 0.088792756, 0.08283621, 0.09324733, -0.049618356, -0.008134079, 0.112890154, 0.12297639, 0.05148521, -0.07678634, 0.08356727, -0.032622125, 0.04606432, -0.09905133, 0.024481775, -0.05510929, 0.06300155, 0.02110536, -0.15910095, 0.07860629, 0.06369008, 0.13956992, -0.105090134, 0.13672875, 0.11092866, -0.03665896, 0.08554317, 0.075253986, 0.11934943, 0.1334624, 0.0050174654, 0.093589336, 0.2581051, -0.013675399, 0.0988681, 0.10112644, 0.11423174, -0.033651493, 0.08626755, -0.1054686, -0.02780721, 0.02605433, -0.17367806, 0.04644755, 0.007663632, -0.10502549, 0.033384353, -0.062286958, 0.0695669, 0.042375673, 0.11245484, -0.008354348, 0.033182908, 0.074741386, -0.0059570074, 0.122778654, 0.008602574, 0.084764436, 0.049048394, 0.056194656, 0.099484324, 0.2169923, 0.078252494, 0.26518336, 0.13133058, 0.13779673, 0.15529557, 0.08489479, 0.08802358, 0.06570155, 0.06863651, 0.04541252, 0.035563953, -0.0018346627, 0.03001828, 0.08323385, -0.023638109, 0.13983724, -0.007237658, -0.051641397, 0.039123125, -0.026577773, 0.034255538, 0.17616801, 0.037996177, 0.0077623515, 0.0569692, 0.08382913, 0.12946923, -0.10411012, -0.050606076, 0.041347705, 0.11749333, -0.041322257, -0.080627576, -0.006575174, 0.20146756, -0.014871079, 0.034179874, -0.039536543, 0.058305293, 0.04840469, 0.22082095, -0.04051517, 0.0609584, -0.028107302, -0.0730967, 0.07164168, 0.049634382, 0.15198651, 0.06377857, -0.084666885, 0.07535207, 0.12581116, 0.04935293, -0.030130416, 0.0074809496, 0.055668194, 0.0073576807, 0.123906255, 0.10707636, 0.02547771, -0.00059074746, 0.071550444, 0.05201987, 0.17686689, 0.08273193, 0.23674709, -0.10365598, 0.049518283, 0.14305264, 0.056861993, 0.043961693, 0.008378321, 0.047397677, 0.03638542, -0.047429614, -0.06318404, 0.06482321, 0.16932327, 0.017017016, -0.050845657, 0.038796917, -0.059087653, -0.0023141576, 0.05012615, -0.063331924, 0.17254286, 0.17990443, 0.01871007, -0.117658, 0.075882815, 0.15215139, -0.06251374, 0.09276951, -0.03506868, -0.050439816, 0.11593452, -0.071818866, -0.029895516, 0.1495843, -0.019736543, 0.06505745, 0.08532351, 0.14750557, 0.017563812, -0.1099806, 0.039934587, 0.057050306, 0.046097863, -0.04792177, 0.053510368, 0.06899832, 0.09282238, -0.017827034, -0.061905105, 0.074925974, 0.029239237, 0.032481544, -0.34643644, 0.018554693, 0.104670085, 0.042892043, 0.030644653, -0.017811919, 0.08536008, 0.10222761, 0.37412673, 0.078767285, 0.016865447, 0.09268333, 0.15952073, 0.057884537, -0.1117627, 0.04540869, 0.06235708, 0.06811168, 0.110507905, 0.07753603, -0.01627463, 0.15194146, -0.009260583, 0.058202058, -0.008385676, 0.120687686, 0.017824266, 0.024439314, -0.06310089, 0.016896294, 0.13424021, 0.054629814, -0.038630564, 0.052130893, 0.05481163, 0.039510906, -0.036662444, 0.10833778, 0.10303227, -0.14000554, -0.0190244, -0.08890217, -7.910644e-05, -0.044474453, -0.034039125, 0.17185873, -0.022743475, 0.11441105, 0.12295691, 0.21335602, 0.0190989, -0.017597668, 0.1412608, -0.11794175, 0.0801273, 0.08799649, -0.022112707, 0.04772404, -0.03655873, -0.05599125, 0.045207378, 0.07783913, 0.109563224, 0.07929484, -0.4940157, 0.04308805, -0.06714695, -0.061900586, 0.008918108, 0.013616609, 0.09999912, 0.07272626, -0.18773298, 0.05535254, -0.01432412, 0.0699571, 0.17745818, 0.022867953, 0.08997552, 0.083743624, 0.054747187, 0.086432144, 0.0698782, 0.0394293, -0.09991965, 0.14430785, -0.00997222, 0.062481318, 0.04175499, 0.028179731, 0.10798765, 0.012675721, -0.0347332, 0.006751833, 0.02451644, 0.045788907, -0.07386733, 0.061011437, 0.07659228, 0.06305036, -0.1474906, 0.09342021, -0.16468365, 0.11978934, 0.0775754, 0.017666647, -0.060626205, -0.04179785, -0.04737608, 0.18557544, 0.06959841, 0.12743868, 0.0072164154, 0.0004069272, 0.03541093, -0.12161833, 0.028771125, 0.022175513, 0.029444722, -0.029939514, 0.009505668, 0.040928926, -0.10299379, -0.036528025, -0.04247419, 0.04414441, 0.08863507, -0.027409801, -0.22347936, 0.05863763, -0.04256074, -0.008319379, -0.0021346733, 0.050399028, 0.1097395, 0.05875749, -0.123236544, -0.04481716, 0.00059239997, 0.063122585, 0.117553696, -0.010290128, 0.124901675, 0.03969796, 0.13177925, 0.07860212, 0.10455987, 0.117302865, -0.050176196, 0.031142127, 0.04805778, 0.16786261, 0.04614839, 0.058993157, 0.09721771, 0.053492524, -0.05427686, 0.10753634, 0.118643835, 0.008041687, -0.002188878, 0.0036841573, -0.051547933, -0.08778686, -0.23851007, 0.077511095, 0.031415373, 0.021922274, 0.08752318, -0.03557211, -0.0802621, -0.047869243, 0.058130294, 0.23185915, 0.13425456, 0.17899255, 0.022209523, 0.06173299, 0.0070677735, -0.0050806324, 0.09315923, -0.12431482, 0.016457256, -0.013744311, -0.044479724, 0.06040688, -0.03971985, -0.0042452132, 0.21116692, 0.03603755, 0.17309648, 0.121788904, -0.010991443, 0.110761896, 0.049719997, 0.08849088, 0.10689916, -0.09214104, 0.098008476, -0.08033506, 0.038578037, -0.09359894, -0.011958775, 0.033414915, 0.19487087, -0.00070055336, 0.150817, 0.023459148, 0.0599692, 0.1663678, 0.035933737, 0.061534163, 0.045108836, 0.13769512, -0.10229118, -0.015462297, 0.037754424, 0.0026303264, -0.07768522, 0.013000779, -0.12428373, -0.017139353, 0.030209515, -0.09653474, -0.036218457, -0.033320446, 0.04963215, -0.0193021, -0.046752542, 0.17359446, -0.06403837, -0.049258247, 0.07346046, -0.09102363, -0.092283905, -0.06830805, -0.056018908, 0.29969501, 0.084192686, 0.0379583, 0.19212763, 0.105416864, 0.010094804, 0.01382167, 0.082172066, -0.013565987, 0.14418212, -0.043211095, 0.09259274, 0.028018495, -0.019889478, -0.08751386, -0.04205027, 0.008102767, 0.16252075, -0.0915509, -0.0093825245, 0.12596025, 0.110790074, 0.10580078, 0.01522753, 0.18102048, 0.08586937, 0.28551185, -0.08689449, -0.083788075, 0.022784512, 0.062347334, 0.15020274, -0.14127049, -0.01765402, 0.097183615, 0.093277544, 0.034363516, -0.084535114, 0.0436025, -0.10332983, 0.0072537744, 0.23462008, 0.054526526, -0.011872785, 0.012761872, 0.109011315, 0.021345032, -0.1031877, 0.14757636, -0.0049395263, -0.1344842, -0.006365651, -0.009980517, 0.11128834, -0.050697107, 0.079239994, 0.091624655, -0.036755044, -0.020052636, 0.10755328, -0.053828243, -0.12432404, 0.0048345155, 0.13898173, 0.2785922, 0.02266054, 0.0022782267, -0.0044847243, 0.122899815, 0.049758527, -0.023533653, 0.07382893, 0.023500297, 0.014422983, 0.25499904, -0.06216396, 0.07339882, -0.014668755, -0.015109605, -0.14431854, 0.10331458, 0.016170552, 0.12232766, -0.00875594, 0.09776949, 0.084529735, -0.029918864, 0.07837815, -0.08065457, 0.06955919, 0.17347443, -0.035975356, 0.00620146, 0.057233855, 0.06407777, 0.23826149, 0.22773664, 0.06417946, 0.1182496, 0.13453798, 0.018058395, -0.0034432705, 0.18791832, 0.10261057, 0.09375004, -0.14622998, -0.03758555, 0.062006813, 0.04065284, -0.21142933, -0.04651015, -0.046790782, 0.052985355, 0.011371797, -0.19199139, 0.111817345, -0.07025298, 0.044672515, -0.15179208, 0.105360225, 0.13342732, -0.014272957, 0.13941224, 0.07926402, 0.1102851, 0.039659444, -0.027888037, 0.10344306, 0.2819649, 0.01749695, 0.067567125, 0.113898896, 0.050408453, -0.1474245, 0.107427984, 0.05821177, -0.07822195, 0.015905458, -0.21462199, 0.003235144, -0.038206015, -0.010109632, 0.007388136, -0.1367427, 0.03051611, 0.064515315, 0.07264179, -0.028393049, 0.031244664, 0.024228016, -0.06397242, 0.0802863, -0.01774971, 0.046772663, -0.0069700996, -0.0037318442, 0.076279886, 0.17168128, 0.08537484, 0.23811188, 0.05675021, 0.06955801, 0.15573066, 0.1190124, 0.009533554, -0.032398168, 0.042971388, 0.04055058, 0.012037782, -0.041472632, 0.029039664, 0.061322078, 0.030612322, 0.1567439, 0.056076184, -0.0399504, 0.11825924, -0.03504678, 0.06421843, 0.1958378, 0.069211654, 0.09002977, 0.061629962, 0.06482119, 0.10043158, -0.086091906, -0.1050423, 0.04866281, 0.07687149, -0.061200466, -0.040252216, -0.019132013, 0.15660618, 0.0022954473, 0.031312063, -0.06880798, 0.05856904, 0.07382111, 0.17933513, 0.018602954, 0.073181264, -0.02656336, -0.06446196, 0.10580025, 0.0055085244, 0.12610924, 0.03383589, -0.09021709, 0.073322974, 0.12924564, 0.029408433, -0.045123268, 0.0012161422, 0.0007831273, -0.013974885, 0.13013372, 0.095629446, 0.013623042, -0.0103373425, 0.04592354, 0.043568682, 0.16450536, 0.07884597, 0.19369552, -0.113263376, 0.054869127, 0.108296186, 0.033431433, 0.09501938, 0.018134499, 0.0873706, 0.04522954, -0.058219574, -0.072366625, 0.043362048, 0.19167854, 0.00070331123, -0.0747727, 0.024194047, -0.056823313, 0.019044926, 0.033713065, -0.07491428, 0.11429287, 0.16741134, 0.021524511, -0.16689955, 0.07303433, 0.17193279, -0.035226934, 0.09441154, 0.0030036655, 0.0020311598, 0.14871132, -0.043392465, -0.073212855, 0.16478585, -0.09384035, 0.06847463, 0.10960773, 0.122435346, 0.022077814, -0.034163095, 0.039969698, 0.084672466, 0.062120784, 0.037754066, 0.022477368, 0.03559139, 0.13144472, -0.039240085, -0.062252402, 0.1101234, 0.08383699, 0.044413064, -0.23359747, 0.032540448, 0.03332194, 0.050606076, -0.0010257713, -0.009984824, 0.06667379, 0.05867508, 0.33841637, 0.09455098, 0.023961369, 0.09733464, 0.17072795, 0.028796066, 0.009117552, 0.063294254, 0.054565784, 0.07233659, 0.0477104, 0.03725259, -0.035788946, 0.14340407, -0.016738698, 0.13196881, 0.075266376, 0.11053053, 0.13664517, 0.00032134604, -0.052702747, 0.07984493, 0.16312666, -0.0026854349, -0.04983333, 0.02492793, 0.0037019274, 0.04613561, -0.016082168, 0.2340471, 0.07567912, -0.23498383, -0.03516936, -0.18175656, -0.115805596, -0.042567793, 0.015137506, 0.20161355, 0.05403997, 0.08858131, 0.09259587, 0.20741147, 0.053792186, -0.0018674117, 0.14491083, -0.120568216, 0.058415722, 0.029885354, 0.018120637, 0.07875222, 0.0007897086, -0.059059076, 0.012490264, 0.117709436, 0.13747275, 0.035163723, -0.2821952, 0.075718954, 0.03749114, -0.04455665, 0.0064314506, 0.090507284, 0.12519228, 0.0630641, -0.07617145, 0.023793684, 0.03545791, 0.098390006, 0.18100795, 0.10851885, 0.016939208, 0.05019527, 0.12019414, 0.18041304, 0.1817268, 0.14277463, -0.018251479, 0.12212864, 0.07351811, 0.08452856, 0.027824761, -0.028280426, 0.10160245, 0.005792632, -0.053588998, -0.05876309, 0.0071806563, 0.12011469, -0.040546294, 0.0034128688, 0.11967801, 0.1289685, -0.098729484, 0.19843318, -0.16356893, 0.118695885, -0.04341221, 0.025192093, 0.054720778, 0.015632842, -0.1764774, 0.20115349, -0.078221805, 0.07154518, 0.14480492, 0.022537554, 0.037333407, -0.20254758, 0.008812503, 0.047900397, 0.09776464, -0.031202635, 0.06977399, 0.08571268, -0.10646444, -0.01861237, -0.08699989, 0.08190746, 0.09908171, 0.074214965, -0.09821841, 0.07268273, 0.082689136, -0.077388644, 0.004362099, -0.06998828, 0.1255382, 0.06735983, -0.04019917, -0.010220841, 0.017917482, 0.08524831, 0.12641536, -0.09931966, 0.14878197, 0.07389829, 0.044599142, 0.06289553, 0.10395822, 0.0521949, -0.06531589, -0.016460037, 0.102043524, -0.016230889, 0.021642363, 0.06946772, -0.009245986, 0.116848424, 0.07780703, 0.10432119, 0.08891835, -0.025013981, 0.006916842, 0.028970417, 0.16989361, -0.0067169988, -0.124253094, 0.18818478, -0.03500442, -0.027445761, -0.0047137146, -0.064629816, -0.22211973, -0.074995466, 0.014555797, 0.22049676, 0.22298214, 0.04293925, -0.225648, 0.19013356, 0.023973897, 0.010601744, 0.11251472, -0.106548235, 0.01771733, -0.00017054971, 0.05977584, 0.09907573, -0.059345596, -0.034653965, 0.12447697, 0.04591769, 0.16160455, -0.11737298, -0.024674008, 0.08951703, 0.07286613, -0.025106613, 0.041964076, 0.033201214, 0.09956356, 0.035144188, 0.02897834, -0.061780676, 0.044478875, 0.07319802, 0.12982048, 0.07926526, 0.07983919, 0.01092172, 0.13142069, 0.054489475, -0.04922843, 0.06173754, 0.035008635, 0.099845864, -0.24096374, 0.05006595, 0.061926465, -0.171928, 0.12181639, -0.18560106, -0.12608309, -0.024468888, 0.07187828, 0.1330724, 0.030495157, -0.087912336, 0.119959086, -0.07714916, -0.015080813, 0.23900287, -0.08941978, 0.020606445, 0.0032714205, -0.08463487, 0.04387482, -0.0108425, -0.18540151, 0.34523734, 0.0023717454, 0.048632205, 0.21922578, 0.17917967, 0.013497524, -0.0003002898, 0.08571787, 0.015493533, -0.038166087, -0.017670853, 0.03631207, 0.010400024, -0.07222881, -0.03480148, -0.11520129, 0.106295325, 0.12828785, 0.082097866, -0.04163122, 0.15571178, 0.15918706, 0.11537385, 0.020655762, 0.14532094, 0.106100395, 0.07949443, -0.04176025, -0.026202988, 0.038603246, 0.10087714, 0.22122829, -0.27787516, 0.09631748, 0.011926227, 0.057277683, -0.023246938, -0.06564846, 0.15937671, -0.061401393, 0.09575513, 0.28106108, 0.029669233, 0.112541616, 0.034992285, -0.042731505, 0.021077901, 0.001228918, 0.07551054, -0.012647659, -0.023326052, 0.034800738, -0.019633858, 0.1327401, 0.043060966, 0.04811708, 0.19251959, -0.0716593, 0.019389892, 0.07403984, 0.040861744, -0.16593988, -0.036939267, 0.084192, 0.267065, 0.06478514, 0.037203588, -0.07586151, 0.10974826, 0.07844601, -0.048354413, 0.12739024, -0.0045075254, 0.14542429, 0.04369991, 0.06123464, 0.080757156, -0.106103875, -0.033865802, -0.17412525, 0.09218457, 0.016811203, 0.06419307, -0.031576935, 0.096942976, 0.04441746, 0.051337548, 0.017083107, -0.05293804, 0.07019034, 0.09724147, -0.039196905, -0.029682854, 0.05390592, 0.07344361, 0.21992777, 0.20200133, -0.032905106, 0.115670376, -0.0017827636, 0.0669293, -0.13424523, 0.19524428, 0.08732835, 0.04638501, -0.2579603, -0.012034303, 0.11524808, 0.035548903, 0.00057401124, -0.09614152, -0.07597522, 0.037077636, -0.06267027, -0.022187874, 0.16596511, 0.066491574, 0.0043640696, -0.063369654, 0.074408785, 0.17242128, -0.07062101, 0.10330467, 0.10555851, -0.12596168, 0.16981784, -0.013920916, 0.14748506, 0.3282167, 0.056637842, 0.000638028, 0.11972915, 0.09278759, -0.096538715, 0.1739569, 0.04311371, 0.05939687, -0.01190707, -0.14541748, -0.026482731, 0.011196719, -0.015853412, 0.0034078597, -0.21972834, 0.083155476, 0.08438512, 0.03180205, -0.056025017, 0.070134, 0.01823614, -0.09722667, 0.07437877, -0.15448534, 0.062151697, 0.112901025, -0.0013142623, 0.021765737, 0.10858138, 0.10308979, 0.30348262, -0.030237248, 0.0484161, 0.06839471, 0.047705635, 0.09718106, 0.0044762897, 0.07002562, -0.035364915, 0.10295133, -0.04064167, 0.0023599053, 0.13033575, -0.005729275, 0.08637072, 0.009757301, -0.005530973, 0.165336, -0.043298215, 0.15266152, 0.15475166, 0.064815894, -0.04049096, -0.060440507, 0.058427792, 0.17094392, -0.077507444, -0.1098827, 0.059064377, 0.162871, -0.05624499, -0.099424355, -0.07119733, 0.21670215, -0.054710276, 0.006700417, -0.07210415, 0.026573261, 0.04038588, 0.19324346, 0.008911064, -0.019897198, -0.0043536914, -0.12688144, -0.0060673133, 0.063605435, 0.15646635, 0.054663666, -0.001374462, 0.04954591, 0.07193911, 0.05503312, -0.06241503, 0.0008327238, 0.06399489, -0.024313819, 0.11598942, 0.084141105, 0.020420726, 0.058865774, 0.02818682, 0.060480945, 0.12948778, 0.083145015, 0.22742513, -0.06499875, 0.08713299, 0.1014586, 0.038929064, 0.07015316, -0.0038928199, 0.048291948, 0.055815775, -0.015606765, -0.052125473, 0.07067771, 0.06336144, 0.04546802, -0.09315934, 0.006375073, -0.08584403, 0.07923327, -0.05386571, -0.07720718, 0.113012746, 0.09038366, 0.008288634, -0.1258655, 0.08580278, 0.21524166, -0.07153102, 0.07329191, -0.0289533, -0.04437504, 0.10660376, -0.09642718, -0.047772862, 0.198466, -0.14053428, -0.007758878, 0.1488614, 0.08009816, 0.07852924, 0.107890666, 0.020404518, 0.0045292904, 0.13176432, 0.10841601, 0.035349, 0.07057657, 0.12676357, -0.011829028, -0.11767396, 0.14634489, 0.108165175, 0.06035369, -0.1931377, -0.026711518, 0.12053945, 0.022953719, 0.06411985, 0.071983054, 0.060082708, 0.10652985, 0.39247718, 0.14768684, 0.025477825, 0.12485585, 0.18095782, 0.02630345, 0.049593527, 0.100385614, 0.055766515, 0.06891328, 0.088772595, 0.091831654, -0.04776214, 0.095814444, -0.032195754, 0.056066085, 0.07298916, 0.14176631, 0.15513833, 0.016890148, -0.11106204, 0.14784625, 0.1981755, 0.019088196, -0.045713216, 0.011731073, 0.0288612, 0.028668836, -0.030545948, 0.19973992, 0.03952846, -0.25159875, -0.04915683, -0.14461388, -0.09651111, -0.03716538, -0.06417222, 0.23230703, 0.11232774, 0.038006674, 0.15184174, 0.20975634, 0.13285793, -0.036664583, -0.121116154, -0.16914268, 0.1388537, -0.019540507, -0.0219904, -0.031387646, 0.026404487, -0.03526758, -0.15716256, 0.11399281, 0.07774884, 0.019663427, -0.084035836, 0.02880006, -0.042819083, 0.079551004, -0.0027841807, 0.027771475, 0.116144076, 0.095590055, -0.011629609, 0.088393144, 0.0548176, 0.14689876, 0.16532609, 0.10493429, 0.09701108, -0.002270935, 0.12079464, 0.11332113, 0.12557952, 0.08782852, 0.1416621, 0.14676514, 0.057007104, 0.06505173, 0.046028566, -0.0709676, 0.20470135, -0.07006261, -0.06760922, -0.10877871, -0.04947212, 0.17742048, -0.036872596, 0.06861791, 0.041386403, 0.10798219, -0.053574413, 0.24734575, -0.26247323, 0.07370642, -0.20195039, -0.0846585, 0.11173867, -0.06417458, 0.05853156, 0.21315277, -0.14626177, 0.04168909, 0.08478531, 0.11059198, 0.033663187, -0.09103083, 0.008406667, 0.096952155, 0.12044478, 0.005310498, 0.066912316, 0.11997008, -0.0902679, -0.018615061, -0.07905112, 0.1417518, 0.11238804, -0.05898265, -0.06448728, -0.008668184, 0.062248964, 0.06375808, -0.024200335, 0.062243965, 0.1369546, 0.0011278415, -0.11114363, -0.011881417, 0.028658291, 0.11908671, 0.14127831, -0.08791216, 0.0969754, -0.033595804, 0.14001034, 0.11336266, 0.109426886, 0.12516972, -0.21111141, -0.09192339, 0.0103153195, 0.036960423, 0.11238635, 0.16016583, -0.20917204, 0.037419625, 0.054420047, 0.057616457, 0.122395955, -0.09078815, -0.028196746, -0.014108357, 0.15010014, 0.1148755, -0.0137964245, 0.16497716, 0.032431163, 0.005134888, -0.12329497, 0.04431765, 0.027836611, -0.032188755, -0.05578062, 0.32524958, 0.32668203, 0.054213017, -0.0015366155, 0.19000046, -0.044890106, 0.04488795, -0.3807315, -0.14341184, 0.118454136, 0.07338104, 0.11488185, 0.026361397, -0.11351028, 0.019236334, -0.057869032, 0.13637552, -0.04384124, -0.010286395, -0.039239604, -0.83027285, 0.15713055, 0.13222557, 0.025999742, 0.045802284, 0.13668768, 0.05009111, 0.123997204, 0.13385825, 0.065915786, 0.1867919, 0.17935061, 0.30192462, 0.0819661, -0.03930089, 0.085425444, 0.15779229, 0.087325476, 0.09258863, -0.009077602, 0.12900536, -0.17247316, -0.14825763, 0.04339727, -0.11684597, 0.2144324, -0.4747345, 0.015948905, -0.011108026, -0.033964723, 0.05730089, 0.03707911, 0.017511658, 0.088062115, -0.52693415, 0.027717894, 0.21786565, -0.17306586, -0.17028897, -0.13008347, -0.032109667, -0.09634609, -0.10040109, 0.03203753, 0.3499248, -0.14958307, -0.07866842, 0.087005995, 0.11199262, -0.06637803, 0.05083426, -0.07902591, 0.025323223, 0.061001383, -0.03022208, 0.12629834, 0.101838365, -0.15732944, -0.016454672, -0.11128757, 0.059906997, 0.18902346, -0.11463309, -0.047688972, 0.15316947, 0.075569026, 0.1295044, -0.079653814, 0.042517215, 0.1512651, 0.09862674, -0.06228877, 0.033862587, 0.06771046, 0.09856191, 0.21171758, -0.284897, 0.03996548, 0.036419436, -0.036482446, 0.07157204, -0.05175481, 0.06967407, -0.049129836, -0.029988311, 0.24895631, -0.09922488, 0.0084002735, 0.08421448, -0.005283866, -0.1231798, -0.069036774, 0.05711289, -0.059393093, -0.14479892, 0.026767788, 0.01604401, 0.13014944, 0.20532677, 0.03974348, 0.22183922, -0.105975784, -0.00069109985, 0.10753763, 0.03164489, -0.04893013, -0.07193028, 0.059048697, 0.33341837, 0.04496385, -0.025724744, 0.033261523, 0.103712134, -0.044672493, -0.03582145, -0.05349822, -0.1836396, -0.004707456, -0.098423794, 0.13784944, 0.18360619, -0.13142124, 0.021922601, -0.45805037, 0.10433557, 0.19399159, 0.06716152, -0.108795196, 0.10435009, 0.051428787, 0.022934133, 0.107204415, -0.07449122, 0.112945825, 0.16941743, 0.07147696, -0.009282875, 0.067019016, 0.086855054, 0.24236919, 0.28873038, 0.015473837, -0.008946998, -0.13604558, -0.050580136, 0.013715889, -0.034877054, 0.17570004, 0.11259887, -0.21568851, -0.058830384, 0.033311833, 0.15109882, 0.037552357, -0.09147622, 0.00060998864, -0.1814947, -0.120766886, -0.22992203, 0.24848044, 0.04421992, 0.0431763, -0.24730329, 0.073909275, 0.20143843, -0.10448084, 0.0060290145, 0.016407218, -0.07853561, 0.122785404, -0.11197951, 0.10823811, 0.28994825, 0.06993141, 0.004492097, 0.07008524, 0.09254333, -0.007165806, 0.22816603, -0.0929277, 0.0533214, 0.056675624, 0.005806366, 0.087868035, -0.036159035, -0.029685793, 0.09005331, -0.19272844, 0.10453274, 0.11808429, 0.11782369, -0.06731731, 0.11288485, 0.120110825, 0.012852287, 0.077240214, -0.41951674, 0.109748825, 0.032028742, 0.010136875, 0.07263368, 0.076618716, 0.09955436, 0.28249338, -0.119299896, 0.1835424, 0.059193343, -0.07603182, 0.08850825, -0.13660178, 0.15982413, -0.21614683, 0.049772307, -0.052488502, -0.040065616, -0.0538918, -0.0597612, 0.03826166, 0.0344062, -0.06845321, 0.15729819, -0.07695704, 0.049773194, 0.22783196, 0.07219621, -0.022168642, 0.08359193, 0.0839201, 0.15617879, -0.085161835, -0.024315147, 0.034455907, 0.04129794, -0.06559304, -0.08887697, -0.06694716, 0.22890782, -0.026786707, 0.02847941, -0.035221145, 0.08119862, -0.03763337, 0.2152921, -0.0719919, -0.20065625, 0.0026589201, -0.13819598, -0.052635483, 0.065817006, 0.046079338, 0.07145723, -0.030197553, 0.043655865, 0.07032898, 0.081538334, -0.103428796, 0.031883605, 0.06672301, -0.024962261, 0.1104784, 0.06837754, 0.07214416, 0.016567744, 0.0006001867, 0.044567626, 0.0908978, 0.10448843, 0.22879903, -0.076168984, 0.033729788, 0.03827138, -0.035310067, 0.12132333, -0.09040964, 0.16373044, 0.17948696, 0.036171008, -0.109329775, 0.07646861, -0.036406178, 0.1089099, -0.08263474, 0.0059672985, -0.12218677, 0.06546641, -0.054898974, -0.21819, 0.13527738, 0.072652265, 0.022839356, -0.12577444, 0.0973913, 0.32911533, 0.0035244252, 0.09616594, -0.044866923, -0.15382887, 0.06920524, -0.19267738, 0.032047614, 0.2721607, -0.09019194, -0.11689775, 0.13596882, -0.03508044, -0.008681791, 0.2769427, 0.22742786, 0.09653213, 0.2011085, 0.27732635, 0.024679963, 0.044998378, 0.09945901, -0.018764496, -0.2081426, 0.17747457, -0.06715223, 0.23737472, -0.16143486, -0.02012152, 0.16539086, -0.0004344958, -0.010056287, 0.15019159, 0.15615687, 0.12923743, 0.50564903, 0.1855805, 0.05456808, 0.14634871, 0.20682164, -0.048533034, 0.187266, 0.17352733, 0.007966595, 0.070760906, -0.023993678, 0.071178034, -0.1601226, 0.12685215, -0.14448395, -0.020469302, 0.07413366, 0.16955769, 0.28853148, 0.11918504, -0.21880156, 0.029270587, 0.1899134, -0.13030419, -0.055885505, 0.07833477, -0.043661583, 0.06702548, -0.03320681, 0.25541845, -0.012844324, -0.091306545, -0.3808886, -0.22071418, -0.23126183, -0.086510465, -0.14728747, 0.40875182, 0.09319252, -0.23856272, 0.009289596, 0.3301702, 0.21618558, -0.22457103, -0.26251385, -0.008211593, 0.022830663, -0.118624814, 0.06549392, -0.12900035, 0.19936286, -0.097912066, -0.09065443, 0.1716148, 0.029108096, 0.11447092, -0.05860565, -0.07160368, -0.08574754, 0.16237435, 0.19610825, 0.028394029, 0.15778032, 0.052994594, -0.15043682, 0.12738766, 0.06630629, 0.17599565, 0.251473, 0.07782609, 0.19165142, -0.0818337, 0.1711365, 0.07617706, 0.058821354, 0.2097431, 0.24438775, 0.2995296, 0.21294478, 0.109551005, 0.17108731, 0.06293297, 0.16668011, 0.038100585, -0.18377964, -0.18429999, -0.13086, 0.18651032, -0.09726269, 0.04014065, -0.04609796, 0.014246374, -0.06076611, 0.3321152, -0.1083438, -0.14847288, -0.26740354, 0.17032526, 0.13562159, -0.16700573, 0.12473862, 0.15474464, -0.13269392, -0.054970995, 0.12993462, 0.31385913, -0.032818016, 0.18308458, 0.12646829, 0.114106365, 0.159487, 0.20043583, 0.045250103, 0.11912343, -0.12223569, 0.08049264, 0.009725862, 0.12358479, 0.106368035, -0.07069933, -0.07810852, 0.114022486, 0.14762905, 0.17140922, -0.04628981, 0.0702583, 0.16064765, -0.14396645, -0.15959617, 0.1070585, 0.059408024, 0.16325553, 0.2000796, -0.07792145, -0.0027395668, -0.2259412, 0.19092825, 0.07302574, 0.1325041, 0.1713646, -0.17878754, -0.22525884, -0.05820123, -0.29762092, 0.13552475, 0.2069196, -0.31797874, 0.19411753, 0.121852055, 0.058076408, 0.19350804, -0.082073756, -0.01594395, -0.01716657, 0.1121024, 0.035487823, 0.024987673, 0.19994201, 0.10562827, 0.15624706, -0.5817054, 0.016845804, -0.27042985, -0.06711012, -0.09060976, 0.22334717, 0.20875153, -0.15293968, -0.023498124, 0.16955797, -0.01142273, -0.05178065, -0.16939126, -0.18584731, 0.12912437, 0.14438121, 0.059168905, 0.10266519, -0.08502637, 0.025305187, -0.15004748, 0.10457253, 0.22021522, -0.08246492, -0.094377175, -0.38287857, -0.07196503, 0.17486793, 0.046002094, -0.07214341, 0.13680646, 0.05112021, 0.10570243, 0.20801497, 0.07053741, 0.18614885, 0.20637126, 0.036917254, 0.048971448, -0.12771322, 0.07999108, 0.04210921, 0.16169919, 0.1724624, 0.01713978, 0.24606402, 0.057082027, -0.2722676, 0.09033168, -0.23943552, 0.20129263, -0.0016473492, -0.042802688, -0.2669746, 0.02396194, -0.01709572, 0.013943255, 0.005217762, 0.19001837, -0.6806346, -0.041202344, 0.21553949, -0.11934588, -0.17551301, -0.3424338, -0.015108698, -0.19213015, -0.15220185, -0.01790676, 0.29775274, -0.055810954, -0.217662, 0.18350634, 0.036219683, -0.037019126, 0.2090942, -0.13270898, 0.19167525, 0.07483214, -0.30289266, 0.044354104, -0.0037383167, -0.27394456, 0.09741455, 0.2582926, 0.22712184, 0.16260484, 0.13757333, -0.11484755, 0.036814984, -0.11951631, 0.19996598, 0.11754656, -0.12974922, 0.24109457, 0.024440194, -0.18432832, 0.1307297, 0.104792446, 0.16000701, 0.19587648, -0.087441504, 0.02025248, -0.08488821, -0.09742933, 0.11682919, 0.2150516, -0.083149, -0.15589073, -0.029629316, 0.17215627, -0.023156138, 0.043635383, 0.12277087, -0.19893062, 0.109214164, -0.052815616, -0.01722555, 0.11620428, -0.07179446, 0.023608102, -0.03407406, 0.31710145, 0.2442258, 0.04805443, 0.33627245, -0.11584568, 0.2292994, -0.18016535, -0.20777309, -0.24533749, -0.090616904, 0.16902182, 0.34486583, -0.07428889, -0.10814339, -0.13410011, 0.21823801, 0.0123988595, -0.055953406, -0.455795, -0.43755358, 0.019736428, -0.036135215, 0.21937978, -0.06472211, -0.028757269, 0.07502633, -0.62398833, 0.04402799, 0.16442388, 0.23535034, -0.10931659, 0.025546309, -0.01658998, 0.11650862, 0.03472312, -0.560668, 0.20214184, 0.04140722, 0.0045658047, 0.14957486, 0.077566884, 0.171955, 0.25060344, 0.07646042, 0.05584382, -0.032360423, -0.36395973, -0.06788158, -0.015647076, 0.16289817, 0.14490426, 0.023937395, -0.033525094, -0.04893272, -0.2348046, 0.18522397, 0.06048778, -0.084659055, -0.10432256, -0.28750417, -0.09267224, -0.17887206, 0.09014185, 0.0019859774, 0.025538605, -0.12924317, 0.09367561, 0.25946727, -0.17310104, -0.06406748, -0.065620415, -0.049710833, -0.014879657, -0.15093945, -0.14960203, 0.3210016, 0.19046767, -0.12789907, 0.086394124, 0.03072055, -0.7000381, 0.14464656, -0.27030686, 0.13033059, -0.08302602, -0.09300227, -0.1634193, 0.22428486, 0.016102778, 0.1318734, -0.13877241, 0.103029564, 0.09098261, 0.056894902, -0.23134667, -0.0010792745, 0.056086194, 0.03347744, 0.10740086, -0.5046208, 0.18252346, 0.02875189, 0.04291131, 0.15031032, 0.12075002, 0.16785838, 0.29165602, 0.035324614, 0.035336964, -0.19081725, -0.1529194, 0.16980493, -0.027764104, -0.0674301, -0.23526013, 0.096125536, -0.19733429, 0.036301114, -0.3284174, -0.1203439, 0.036513597, 0.05147793, -0.11791803, -0.0007015728, 0.012229939, 0.18661322, 0.107639246, -0.23901248, -0.028471658, 0.2486076, 0.17985904, 0.27161533, -0.14010297, 0.03302241, 0.06877445, -0.15366569, -0.24727106, 0.015636316, 0.015654882, 0.2438825, -0.067733794, 0.023869388, -0.112539716, 0.20910686, 0.17224775, 0.07034079, -0.079554774, -0.25128856, -0.041187968, -0.075229846, -0.16664599, -0.011847345, 0.09051569, 0.082808115, -0.030966515, 0.07766985, 0.17892699, 0.15833777, -0.18331261, 0.007536944, 0.06549088, -0.0062369416, 0.18051502, 0.053117193, 0.23928802, 0.022134416, 0.01551394, 0.1326686, 0.16462724, 0.21315423, 0.22557259, -0.057123244, 0.02463213, -0.113217056, -0.050352722, 0.10325438, 0.03175333, 0.03905982, 0.20884632, -0.051101204, -0.10068125, -0.041396994, -0.7694752, 0.020536067, -0.06338317, -0.06360071, -0.22269167, 0.1171248, -0.037814055, -0.19878978, 0.24828793, 0.03146215, -0.18605602, -0.026632346, 0.14475358, 0.44420716, -0.004517082, 0.17904982, -0.12842111, -0.6951418, 0.21914299, -0.2944675, 0.2017332, 0.3001066, 0.13215627, -0.19114855, 0.03436352, -0.46903753, 0.07643808, 0.16896676, 0.36813796, -0.11467616, -0.044498194, 0.31114095, 0.2146964, -0.017727893, 0.05349725, 0.022418821, -0.41124263, 0.32632178, -0.7988903, 0.18156458, -0.09608083, -0.06288519, 0.26426864, 0.12191629, 0.042918637, 0.15616688, 0.28726134, -0.0057322737, 0.5030685, 0.2609282, -0.022977645, 0.19545157, 0.25457314, -0.59294945, 0.22427413, 0.14195362, -0.22929278, 0.1578456, -0.11542822, 0.22709367, 0.1071347, -0.20880523, 0.2801586, -0.03785629, 0.3490456, 0.24408382, 0.073893726, 0.15351681, -0.32237637, -0.6577417, -0.028799405, -0.2808164, -0.08355162, -0.24600135, -0.31547204, 0.08188742, -0.049649402, 0.38933158, 0.05504178, 0.009099052, -0.047741007, -0.14453374, 0.21899772, -0.27052078, -0.5388309, 0.48698252, 0.12452374, -0.41817957, -0.021794748, 0.37850025, 0.25510758, -0.1990399, -0.017481796, 0.20830783, -0.20088702, -0.32040623, 0.2325623, 0.07735167, 0.12433902, -0.034042515, -0.15058398, 0.24405026, -0.2017503, -0.047029663, -0.14807, 0.010623645, -0.023225397, 0.10177709, 0.26828414, 0.10106241, 0.26986957, 0.071040586, -0.24026552, 0.07774181, 0.065262236, 0.14353307, 0.29822075, 0.06705232, 0.39227566, -0.17017996, -0.08635796, -0.13814601, -0.26810277, 0.2734077, 0.2186369, 0.26196897, -0.1487182, -0.17259052, 0.22882414, 0.14735106, 0.12807558, 0.23125161, -0.6498302, -0.3606612, -0.52570343, 0.00860156, -0.22817533, -0.053371474, 0.0142716775, -0.6914733, 0.0041432665, 0.34889987, -0.15023762, -0.56791, -0.42616948, 0.22731866, -0.016075745, -0.46758673, 0.3054484, 0.20430633, -0.28080857, -0.3964004, -0.08977525, 0.15738147, -0.08076653, 0.20875846, 0.070611, 0.096049055, -0.12648045, 0.3859764, 0.1425554, -0.077180095, -0.076876566, -0.09173473, -0.0505833, 0.24988282, -0.13246576, 0.13904466, -0.071238965, -0.023481531, 0.16082235, 0.1660327, 0.006116682, 0.085660174, 0.16204402, -0.20844974, -0.13153714, 0.110891104, -0.023874344, 0.17805834, 0.2696737, -0.45839086, 0.0021528732, -0.3085496, -0.024658598, -0.04791152, -0.0008096713, 0.2290737, 0.19805814, 0.06973811, 0.21320324, -0.37090185, 0.29560456, 0.37117997, -1.0132304, 0.27250654, 0.25953847, -0.15767513, 0.055792067, 0.02136723, -0.10767441, -0.07495187, -0.08243504, -0.72741014, 0.1804381, 0.44251427, 0.1184455, 0.1746851, -0.7340357, -0.23927748, -0.13779785, -0.14821932, -0.1339932, 0.3935904, 0.099690065, -0.5374836, -0.2308249, 0.38652486, -0.015607337, -0.296723, -0.13466753, 0.08928971, 0.13344765, -0.1468306, -0.18911506, -0.31142637, 0.162869, -0.09195274, -0.043049097, 0.4017438, -0.16819298, 0.11363067, 0.015182122, -0.27119383, -0.11169675, 0.14226317, 0.17263362, -0.8142861, 0.29502597, 0.04330059, -0.041717548, 0.18383671, 0.11450571, 0.17295364, 0.44240114, 0.036682256, -0.20546839, -0.36955887, -0.17177716, 0.035992023, 0.16288126, -0.02860414, -0.34677026, -0.0625389, 0.028738584, -0.2023179, 0.29881048, 0.061370198, -0.03968736, 0.1621531, -0.1899696, -0.5389407, -0.020190863, -0.006915507, -0.019734077, -0.09986689, 0.3462073, -0.5072415, -0.11159083, 0.26904082, -0.14442049, -0.4528452, -0.71057683, -0.16522704, -0.3624758, -0.37762174, -0.2770731, 0.44156784, -0.08865333, -0.37145182, 0.024964882, 0.08234963, -0.030536588, 0.27209842, -0.06976035, 0.015505555, -0.08690028, -0.4968465, -0.13316597, -0.27716103, -0.6734207, -0.09429262, 0.13342158, 0.22944634, 0.24458307, 0.17627467, -0.12299857, 0.04220695, -0.2749249, 0.23487593, 0.10829649, -0.38743865, 0.29379785, -0.10516268, -0.21257502, 0.20436074, 0.097618185, 0.13824557, 0.3595, -0.10299164, -0.1259943, 0.051623415, -0.4056423, -0.26390466, 0.23562494, -0.22481038, -0.052642625, 0.021187166, 0.51217777, -0.064423695, 0.0935564, 0.34290126, -0.28867325, 0.17761827, -0.25010228, -0.41208845, 0.28603786, -0.27226025, 0.08182038, -0.25168213, 0.29993623, -0.17351374, 0.112771586, 0.4854061, 0.018960062, 0.34882426, -0.32620025, -0.12058675, -0.1746039, -0.25733542, 0.12436831, 0.37010413, -0.081662275, -0.28537235, 0.025231402, 0.21331277, -0.39258528, -0.015179333, -0.5909353, -0.6131253, 0.13966906, -0.024309445, 0.16718423, -0.08774317, 0.14868256, -0.007621408, -0.17299108, 0.29706532, -0.047682934, -0.038849827, -0.08656822, -0.097187236, -0.42740422, -0.057951607, 0.3860998, -0.70504737, 0.29505405, -0.087505765, -0.14922456, 0.26221484, -0.051420614, 0.17085604, 0.35006854, 0.1490245, -0.25728056, 0.010839378, -0.16098231, 0.0021036577, 0.06979919, -0.02716663, -0.010385951, 0.22871369, 0.037872672, 0.26940608, -0.09471704, -0.12914144, -0.41956645, 0.19589116, -0.41857946, -0.07221781, 0.16530955, -0.105570436, 0.23806164, -0.09839479, 0.40131924, -0.2854997, 0.15103431, 0.38905907, -0.34481654, 0.049461037, -0.35311547, 0.015483872, -0.060825814, -0.88194793, 0.14558853, 0.40233094, -0.012191086, -0.13136236, 0.12993574, 0.022917291, -0.1387514, 0.09769069, -0.36001498, -0.3795271, -0.4725853, -0.18576036, 0.2203389, 0.5389963, -0.69675416, 0.10467983, 0.339219, 0.09301319, -0.0021886926, 0.09312426, -0.20608921, 0.18917067, -0.07339998, -0.0359902, 0.16074346, -0.3624031, 0.19605224, -0.12376086, 0.087375924, 0.018574959, 0.043978177, 0.13736537, 0.34580553, 0.15722984, -0.043933485, -0.0026845718, -0.13110618, 0.15751617, -0.24995725, 0.032521117, 0.04095167, -0.21949156, -0.077979736, 0.26529902, -0.29950225, -0.8690248, 0.15622015, -0.015122312, -0.026422402, 0.25561947, 0.009205973, 0.006960283, 0.07227461, -0.45270595, -0.15506102, 0.3369249, 0.24606322, 0.3989937, -0.3427544, 0.18641937, 0.05506167, -0.104497954, 0.0987075, -0.19938003, 0.14158583, 0.30084565, 0.0040585035, 0.031339604, -0.05392716, 0.066982284, -0.32540318, -0.11244732, -0.081576064, -0.9315069, -0.255348, -0.26352185, -0.31664255, 0.4752917, 0.26591986, 0.13229838, -0.389128, 0.18625301, 0.28150648, -0.068252265, -0.192917, -0.0779581, 0.30703628, -0.020400302, 0.310391, 0.22671404, 0.3089048, -0.023485824, 0.05342979, 0.0437863, 0.25813088, 0.11424774, 0.32532918, -0.09969393, -0.062742665, 0.078655995, -0.304977, 0.12529154, -0.060060047, -0.020383265, 0.12523143, 0.04547153, -0.27890044, 0.108323835, -0.09543286, -0.5685069, -0.18542318, -0.35865015, -0.83963513, 0.16379754, -0.05647865, -0.35947093, 0.2620388, -0.7445954, -0.45201844, -0.15579705, 0.19121867, 0.0051445574, 0.008756059, 0.008200922, 0.004781676, 0.0039947284, 0.00038629706, 0.00196443, 0.006980469, 0.0066709635, 0.006048683, 0.0020467811, 0.0018505019, 0.0057513826, 0.00033157482, 0.00054345094, 0.0016500453, 0.00616286, 0.0036780648, 0.0019100378, 0.00049471477, 0.0033943066, 0.007048546, 0.0047377287, 0.006808686, 0.0061925817, 0.0029964987, 0.0058915955, 0.0018939137, 0.0065941405, 0.0011034522, 0.004040942, 0.007156102, 0.0011531191, 0.003945957, 0.0071703433, 0.0040117293, 0.0077534546, 0.005700269, 0.0030577532, 0.0003581214, 0.0022773412, 0.002625124, 0.0052041626, 0.0012436896, 0.008003853, 0.0076638693, 0.008122271, 0.008044814, 0.005682135, 0.0060752532, 0.004202148, 0.008237104, 0.0025894805, 0.0016146498, 0.008070663, 0.004980448, 0.007386229, 0.004704509, 0.0009063672, 0.00070072245, 0.0025654233, 0.0029784283, 0.002065462, 0.0016599502, 0.004813946, 0.002394456, 0.0059396364, 0.0015271433, 0.0069212336, 0.00030422388, 2.0011588e-05, 0.0027976236, 5.8947287e-05, 0.002600481, 0.0041340035, 0.0016125232, 0.007653856, 0.00062801805, 0.0059568956, 0.00024564617, 0.0016592836, 0.0019264142, 0.0017508707, 0.0058626183, 0.003707615, 0.0043944293, 0.007819592, 0.0043939413, 0.007170314, 0.004823339, 0.002461428, 7.900693e-05, 0.008511121, 0.00787101, 6.621725e-06, 0.0044714874, 0.0013377361, 0.00701136, 0.0029858127, 0.0007121053, 0.0042530494, 0.0017518988, 0.0028876509, 0.008741223, 0.001527894, 0.0041809743, 0.007262229, 0.008770954, 0.0056216596, 0.0035941794, 0.0041728364, 0.003516811, 0.00778807, 0.00014885412, 0.0001859771, 0.0042940937, 0.0063789887, 0.006652155, 0.005740019, 0.008775217, 0.0071596107, 0.008077304, 0.008412107, 0.0071999608, 0.007182785, 0.008598839, 0.0024817302, 0.0028973538, 0.008189309, 0.002037111, 0.006612921, 0.0066136317, 0.0078564435, 0.000888224, 0.0084990505, 0.0011801118, 0.0006832942, 0.004818951, 0.0038231825, 0.004262784, 0.004906069, 0.002376612, 0.0036510117, 0.00040903044, 0.0047806357, 0.0022043686, 0.0068099783, 0.0041857525, 0.00095650624, 0.0057234745, 0.0047308826, 0.008791165, 0.0075137364, 0.00014544163, 0.0036857307, 0.0017708793, 0.00041487886, 0.0058881696, 0.006798001, 0.0077534495, 0.0025271415, 0.0044808383, 0.0015907396, 0.005863846, 0.0044189715, 0.0029584048, 0.0025180543, 0.0062764585, 0.0026040096, 0.0055387015, 0.00042611573, 0.0042026914, 0.0004788401, 0.0062165936, 0.004127608, 0.0014146396, 0.0004502021, 0.00523272, 0.005252327, 0.0022279185, 0.007824401, 0.00536667, 0.0035553188, 0.00373944, 0.008357885, 0.0043352293, 0.0005184433, 0.0046321065, 0.0048610414, 0.005365631, 0.007188244, 0.0033673642, 0.0016801216, 0.0012328948, 0.0022662468, 0.004333815, 0.00018853608, 0.004439391, 0.004593276, 0.0044797664, 0.006367221, 0.0019751363, 0.0006943923, 0.0010377984, 0.002225514, 0.004576283, 0.0029089267, 0.007603262, 0.0067007747, 0.0036795626, 0.008672878, 0.0007078081, 0.006258614, 0.0075798114, 0.008529672, 0.008305092, 0.0005267932, 5.187909e-05, 0.0037156765, 0.008722856, 0.0009801891, 0.00093399896, 0.008308387, 0.004435181, 0.0006639191, 0.0015954863, 0.0068328725, 0.00011787177, 0.003044898, 0.008715509, 0.007826826, 0.005380534, 0.0079455655, 0.004354883, 0.0063369013, 0.0018258909, 0.0030502877, 0.0086773895, 0.0050474755, 0.006459877, 0.008635733, 0.0008379049, 0.00072813436, 0.0012331079, 0.0077080643, 0.0014472703, 0.0063030603, 0.0028991562, 0.00024210481, 0.0041666282, 0.005600061, 0.0067684557, 0.0034133948, 0.0062762033, 3.0546365e-05, 0.0021808285, 0.006462267, 0.00873678, 9.434801e-05, 0.008582085, 0.0033849047, 0.003087345, 0.004174808, 0.0044736397, 0.006455578, 0.007144209, 0.0071464004, 0.006576714, 0.0018256451, 0.0027446838, 0.00477704, 0.00016099759, 0.0069863256, 0.001492581, 0.002850254, 0.0022454006, 0.001321449, 0.0069569573, 0.0058181705, 0.0060513075, 0.0019441526, 8.31386e-05, 0.0013536796, 0.005239001, 0.0051794476, 0.004364087, 0.005022933, 0.0017268083, 0.006048604, 0.0073228925, 0.0059671625, 0.002500683, 0.007941987, 0.008265195, 0.003809556, 0.0047194543, 0.0057778344, 0.0014517038, 0.0027949072, 0.0049093347, 0.0024916462, 0.0011539636, 0.0057465113, 0.0053603384, 0.00085586193, 0.0022986145, 0.0071147378, 0.00034782535, 0.0082901195, 0.0056575355, 0.0017150932, 0.0007186761, 0.008636486, 0.0028412102, 0.0033479931, 0.0034379605, 0.005902539, 0.0071078534, 0.0036314838, 0.0043155393, 0.0087098945, 0.0074001625, 0.0028863975, 0.007272257, 0.004571697, 0.0016824112, 0.0057729045, 0.007613929, 0.0056960215, 0.003321282, 1.0220341e-06, 0.0043093236, 0.0014207287, 0.0022090792, 0.00028632893, 0.0061676134, 0.0040433365, 0.007219555, 0.005191378, 0.008043556, 0.005723661, 0.006076775, 0.0068914937, 0.0072052777, 0.0064366804, 0.0077010244, 0.0075242757, 0.0004992428, 0.0005946465, 0.005117634, 0.007144695, 0.0011700109, 0.006918209, 0.005012049, 0.001713241, 0.0051349197, 0.006215232, 0.0037802747, 0.0045723305, 0.008308262, 0.0014012402, 0.0026872333, 0.0032306039, 0.0037779976, 0.00018150604, 0.00021790818, 0.0075274995, 0.0029150357, 0.0055166706, 0.0018751624, 0.0065783304, 0.0066699004, 0.007130944, 0.0077070296, 0.004178003, 0.0069934027, 0.0006566471, 0.0021074833, 0.008755138, 0.008102066, 0.0054631215, 0.0062306486, 0.0069407406, 0.0033876756, 0.0007692569, 0.0009970655, 0.0022695756, 0.0013126172, 0.0005914886, 0.0025031853, 0.008406583, 0.005118283, 0.004799552, 0.004035225, 0.004603294, 0.0021387523, 0.005703846, 0.0073266854, 0.0002230872, 0.0031150526, 0.004952015, 0.0022470655, 0.005933576, 0.003960139, 0.0069339992, 0.0006120728, 0.008318392, 0.006981028, 0.007902386, 0.0016525295, 0.007611336, 0.0029063844, 0.004694344, 0.0011975062, 0.0051980526, 0.002558261, 0.003924612, 0.0070411093, 0.0025834139, 0.00782745, 0.005471812, 0.0002426977, 0.0063353893, 0.0009105363, 0.00086085283, 0.007897064, 0.0037425444, 0.00556343, 0.0016312117, 0.0032797083, 0.0004581447, 0.0037813603, 0.0048301397, 0.0008454621, 0.004629046, 0.0049747457, 0.0019257814, 0.0034135955, 0.0042867325, 0.006793325, 0.006349279, 0.0043181735, 0.008714378, 0.008196358, 0.0032480631, 0.004187155, 0.0039133616, 0.0023329218, 0.007933754, 0.005177785, 0.008060352, 0.0006233243, 0.0030965419, 0.0043106857, 0.0027019877, 0.005549375, 0.00012959733, 0.0069549102, 0.0061140507, 0.0004793871, 0.0010039194, 0.002894522, 0.007822567, 0.0049663535, 0.00031030766, 0.008077109, 0.00457845, 0.008648803, 0.007704543, 0.007579336, 0.0037621388, 0.00872849, 0.0038799234, 0.005466044, 0.00030367862, 0.0051477985, 0.0027314571, 0.0076416647, 0.0016603274, 0.00033074527, 0.0024672279, 0.0071179685, 0.0059477175, 0.0048007234, 0.005452511, 0.000105229534, 0.004838152, 0.0049358155, 0.008406199, 0.0050457944, 0.0037829513, 0.0044605536, 0.0025255214, 0.008659934, 0.0018053186, 0.0010227836, 0.0025180252, 0.00534272, 7.21448e-05, 0.007574759, 0.0047430387, 0.00524828, 0.0027450242, 0.0074041635, 0.0064815306, 0.0073788264, 0.0024428267, 0.0007408314, 0.008289583, 0.0008167998, 0.004309927, 0.0026093554, -0.12775359, 0.07653916, -0.2994749, 0.1144195, -0.1784468, -0.20077705, -0.36222452, -0.11060413, 0.026214557, 0.0060981964, 0.059083402, -0.10618699, -0.27247694, -0.53336036, -0.09678487, -0.11015158, 0.051523797, 0.10670148, -0.02959255, -0.37352148, 0.042667948, 0.022323245, -0.0069650095, -0.24363747, -0.26814768, 0.087262705, -0.17020148, -0.18286446, -0.032154806, -0.012450244, 0.031581484, 0.007717067, -0.12091396, 0.027574884, -0.045241956, -0.1465802, -0.23976372, -0.19174662, 0.024797209, -0.21651338, -0.10837122, -0.051376637, 0.11898422, 0.06780375, 0.022846412, -0.045594424, 0.097022064, -0.11693953, -0.18281981, -0.18213671, -0.14370434, 0.112503886, -0.10551238, -0.061318953, -0.0708959, -0.08884371, -0.10320401, -0.21675418, -0.005340561, -0.3419475, -0.23051624, 0.13711654, -0.17567962, -0.15951717, -0.106887, -0.028755836, -0.057439353, 0.08249349, -0.08112743, -0.05413676, -0.1352599, -0.11158748, 0.071308956, -0.15644252, 0.11311999, -0.1280337, -0.15851806, -0.13881898, -0.033962943, -0.00060475053, -0.04410246, 0.13108525, -0.13204557, -0.026207982, 0.1167072, -0.032217503, -0.12863187, -0.12668405, -0.103218146, 0.109167136, 0.027631458, -0.13294587, 0.014251224, 0.15303162, -0.0028492364, 0.047449302, -0.08305063, 0.14276901, -0.09791714, -0.09671173, -0.051279176, -0.11717661, 0.041008763, 0.038681544, -0.114084184, 0.0062543014, 0.14889637, 0.12516709, -0.006214584, 0.024395121, 0.058235433, -0.03648623, 0.035542, -0.14744978, -0.06421328, 0.009840983, -0.08496261, -0.13963205, -0.0032956337, -0.23447783, -0.1920175, -0.17358829, 0.02660803, -0.15899536, 0.115130976, 0.097749844, 0.0118169775, -0.19641769, -0.12749183, -0.0485048, -0.13437857, 0.12241603, -0.033321157, -0.015837057, -0.07053544, -0.028142141, 0.029843954, -0.14681828, 0.09193503, -0.2510237, 0.023935718, -0.2045321, 0.0044531845, -0.068868324, -0.03897096, 0.0306888, -0.17828748, 0.00016408245, -0.013236748, -0.09577921, -0.083719395, -0.043253966, -0.18549573, -0.0274463, -0.021730969, -0.040118985, 0.024490207, 0.01396349, -0.044432957, 0.008397511, -0.10371488, 0.14961118, 0.15706792, -0.041582905, 0.06379021, -0.119589515, 0.055188302, -0.099104844, -0.06382668, 0.062426582, 0.15351966, 0.16318195, -0.001451045, 0.05884217, 0.09255587, -0.03951421, -0.08596681, -0.23483713, -0.0017555404, 0.09470754, -0.103490196, -0.044420827, -0.02779965, -0.22275248, -0.05276062, -0.18570189, -0.13657697, -0.09281168, 0.0098075485, 0.24267161, -0.05641324, -0.21382694, 0.076473236, 0.0015854074, -0.082485124, 0.07628359, -0.124884844, -0.042167276, -0.11730491, -0.05835273, 0.14215416, -0.1273901, 0.17109375, -0.11926711, -0.11073101, -0.11893908, -0.0065381373, -0.18253659, 0.0001835457, 0.09946955, -0.14452055, 0.08219701, 0.10972331, 0.054685883, -0.07426959, -0.042398937, -0.21687499, 0.12639157, 0.0037891974, 0.027203694, 0.01605508, 0.10486973, 0.037809998, 0.02331317, -0.08666252, 0.178743, -0.013424934, -0.056009673, 0.12340206, -0.14440458, 0.08513644, -0.0430804, -0.07690772, -0.16005933, 0.11321763, 0.1268626, 0.113993466, 0.027862217, 0.122243896, -0.097382754, 0.018790167, -0.13288116, -0.010061027, 0.10217151, -0.047661964, -0.112619884, 0.040644675, -0.17887293, 0.011205912, -0.13151105, -0.06636546, -0.077167675, 0.17162687, 0.06283193, -0.06830025, -0.05259302, -0.029497938, 0.013262558, -0.120609134, 0.15084505, 0.014217777, -0.10448091, -0.12307604, -0.025319701, 0.12578204, -0.065893374, 0.1952274, -0.08395715, -0.17093773, -0.083989136, -0.0672785, -0.16110066, 0.0048013376, 0.11956566, -0.009413087, 0.091615625, -0.0033155673, -0.08070886, -0.092012994, -0.1303977, -0.1730657, 0.04098477, -0.06560275, 0.013736958, 0.055307847, 0.093799554, -0.10409597, 0.049118992, -0.010855639, 0.13302344, 0.06763578, 0.007522949, 0.11039855, -0.17676522, 0.06248531, 0.019581618, 0.04379793, 0.06452728, 0.048610296, 0.07105301, -0.05292828, 0.088946305, 0.10833417, 0.064246595, -0.13998221, -0.114364505, 0.029314982, 0.12714103, -0.025264598, -0.061233897, 0.008272524, -0.13641466, -0.05296669, -0.1275722, -0.069382645, -0.11073397, 0.10080438, 0.17655419, -0.05756428, 0.047605217, 0.04947483, 0.0069010216, -0.07372841, 0.09042106, -0.048696283, -0.055566646, -0.13511977, -0.03965558, 0.06272029, -0.10359354, 0.11944391, -0.11489179, -0.068577394, 0.014211917, -0.047632586, -0.034773596, -0.022825457, 0.098357856, -0.058426943, 0.10178744, 0.030658642, 0.068923034, -0.084507845, -0.07575403, -0.15170245, 0.14833787, -0.016364297, 0.08295667, 0.0104104215, 0.103064544, 0.024806866, 0.06845884, 0.01520189, 0.15448077, 0.032742612, -0.009893832, 0.02395936, -0.1588852, 0.0746589, -0.036736548, -0.113657355, 0.048441984, 0.11763579, 0.13674639, 0.15945768, 0.07870377, 0.08087352, -0.056050424, -0.044308905, -0.05182965, 0.050004754, 0.11643111, -0.063716196, -0.04391366, 0.105457455, -0.18675333, -0.22203998, -0.13895844, -0.07679454, -0.03758229, 0.20179331, 0.05246178, -0.008063066, 0.07898724, -0.047138155, -0.068085805, -0.12878, 0.14801534, -0.07680138, -0.07238449, -0.11703518, -0.0837054, 0.1563324, -0.106327154, 0.11966152, -0.10913967, -0.14582707, -0.026507853, 0.03660853, -0.13081926, 0.028257307, 0.1618253, 0.017606508, 0.10177274, 0.13069953, -0.061364327, -0.13142174, -0.16884504, -0.16367419, -0.0094458815, -0.03106177, 0.0925329, 0.0017320273, 0.035009343, -0.04132307, 0.033880588, -0.047950637, 0.12548222, 0.016570168, -0.034826707, 0.025411934, -0.08830305, 0.06422965, -0.11754424, -0.026395062, 0.13768478, 0.11055811, 0.069682665, 0.013352255, -0.000790517, 0.02441174, -0.020486362, -0.17183119, -0.17800042, 0.03685423, 0.08063912, -0.0323237, 0.0030372394, 0.04642084, -0.17359291, -0.16478488, -0.15652928, -0.110093944, -0.1129619, 0.17551336, 0.07133028, -0.13918602, 0.14486581, 0.018777255, -0.1631832, -0.0063056974, 0.04912763, 0.11498409, -0.27804545, -0.11171365, -0.0913701, 0.06744768, -0.20801209, -0.06893248, -0.04650565, 0.07687756, -0.0829716, -0.18146002, -0.2566867, -0.14552025, 0.021241387, 0.07912568, -0.12448364, 0.0028923075, -0.22303298, -0.0011305029, -0.2885236, -0.16643584, 0.036939945, 0.12892467, 0.10338561, -0.012632179, 0.20710585, -0.2970118, 0.061793208, -0.22927544, -0.13507983, -0.01508462, -0.13860598, -0.21679963, -0.0994636, 0.009971337, -0.09797167, -0.15417995, -0.11541525, 0.1622362, 0.032592196, 0.19921917, -0.050581273, -0.27097002, -0.14088167, -0.21700405, -0.1291474, -0.24105066, 0.10383761, -0.038019814, -0.102892, -0.4025094, -0.26736727, -0.081655554, -0.4330257, 0.22133195, -0.26900566, 0.027736712, 0.25574622, -0.017246295, 0.05528904, -0.10676132, -0.07776382, -0.12828904, -0.046257116, -0.05753916, -0.08868753, -0.071205996, -0.09808641, -0.03913855, -0.07122066, 0.11738407, -0.19328831, -0.16144538, -0.19348846, -0.08175415, -0.08116188, -0.01166155, 0.034053452, -0.18267734, 0.051295757, 0.12715977, -0.21457584, -0.08475823, -0.16250746, -0.11279834, -0.1186255, 0.12898041, -0.1606636, 0.036133055, 0.12243906, 0.013749204, -0.0031399848, -0.13527098, 0.22178769, 0.013152785, -0.067965664, 0.0038545404, -0.059104253, 0.0073744464, -0.20604317, -0.07821574, -0.0733469, 0.11531463, 0.06936059, 0.06686679, -0.12640502, 0.1566339, -0.0016461869, -2.4451092e-05, -0.07896594, -0.085896984, -0.10035883, -0.10450364, -0.10858994, 0.10278184, -0.21648921, -0.18515813, -0.23267052, -0.07817256, -0.19705151, 0.1350038, 0.14104375, 0.011876578, -0.31875315, -0.13376223, -0.057395007, -0.15930022, -0.15576486, -0.12701952, -0.16845332, 0.0027816927, -0.13248204, 0.14173631, -0.16809191, 0.09057214, -0.042315193, -0.13699757, -0.18627961, -0.08546745, -0.21923509, 0.021777943, 0.04453921, -0.098188825, 0.16726486, 0.09086102, -0.14213328, -0.1942019, 0.017310396, -0.17620566, 0.06766113, 0.12244228, -0.06503257, -0.012446018, 0.03999289, -0.110797495, 0.019598357, -0.15037844, 0.24814321, 0.22927812, -0.027632566, 0.108459264, -0.060972434, 0.089566566, 0.00865976, -0.011310671, 0.07060168, 0.07072678, 0.112351686, -0.13933505, 0.035772435, 0.109572925, 0.034360208, -0.24548158, -0.16501327, -0.041835498, 0.07100123, -0.065450616, -0.08765687, -0.089828335, -0.18168144, -0.07998023, -0.1764112, -0.073901065, -0.12459449, 0.10504631, 0.063594475, -0.07199538, -0.19556409, 0.13337481, -0.01992981, -0.13294703, 0.14548393, -0.09450707, -0.03336238, -0.13239859, -0.037712857, 0.17507152, -0.121762715, 0.16897833, -0.107831456, -0.15609336, -0.092369534, -0.046031006, -0.08075825, -0.026269034, 0.096701264, -0.08645196, 0.08334261, -0.010442453, 0.012963281, -0.09488956, -0.12372004, -0.19184582, 0.019503005, -0.114648215, -0.07585864, 0.023291, 0.07719036, 0.061545637, 0.019102456, -0.046175938, 0.17127182, 0.03925271, -0.04717651, 0.07917719, -0.106772095, 0.071155466, 0.12003382, -0.020413155, 0.035766922, 0.10753396, 0.08258654, 0.10293897, 0.08381235, 0.035392016, 0.0141565, -0.12050248, -0.044631496, 0.027037052, 0.037399676, -0.07020562, 0.020222872, 0.102736846, -0.1291292, -0.0041044555, -0.092112616, -0.030695176, -0.09368721, 0.07293378, 0.08034561, -0.060378816, -0.12722799, 0.011556787, 0.005386662, -0.11053737, 0.10995114, -0.032698285, -0.11742572, -0.08794396, -0.14140917, 0.17404996, -0.15385273, 0.19652987, -0.043721844, -0.11871832, -0.1185256, -0.06986553, -0.051130895, 0.046515282, 0.14840542, -0.039561566, 0.15351662, 0.08802158, -0.06610559, -0.07444463, -0.10578246, -0.15933238, 0.16343689, 0.090589575, -0.042957507, -0.009672913, 0.089104235, 0.017862896, 0.04758987, -0.045037936, 0.17501032, 0.078029215, -0.06154956, 0.052769456, -0.10247475, 0.06097416, 0.10819107, -0.047651812, 0.09293491, 0.085726395, 0.18434659, 0.17668936, 0.040700678, 0.06457316, 0.016120411, -0.038712677, -0.10622997, -0.02053136, 0.10665295, -0.027839035, -0.14368922, 0.0095903985, -0.17583229, -0.13976142, -0.10311364, -0.029894484, -0.13498744, 0.09599393, 0.045657367, 0.0015662502, -0.06117385, 0.035321396, -0.023625014, -0.07183418, 0.20604008, -0.00052426785, -0.06553422, -0.06331749, -0.08824685, 0.19600068, -0.13764876, 0.13676137, -0.17008297, -0.12358146, -0.07856706, -0.037990063, -0.08466838, -0.045917578, 0.10796439, -0.0998787, 0.13967685, 0.16706014, -0.03493934, -0.06076767, -0.10943052, -0.13188535, 0.057231113, -0.06445459, -0.009591803, -0.04036214, 0.065999925, 0.12920633, 0.07119224, -0.015847182, 0.18362373, 0.10675104, -0.026374182, -0.0062071905, -0.10330019, 0.05447561, 0.121689156, 0.0242225, -0.097450495, 0.15366258, 0.07416626, 0.12804633, 0.1111362, 0.059027106, -0.06722045, -0.13004978, -0.15017317, 0.008102357, 0.07597947, -0.059686482, 0.049467415, 0.10722823, -0.17095532, -0.10200234, -0.105170295, -0.06610594, -0.09858684, 0.012193817, 0.1743457, -0.05925967, 0.012545502, -0.014537174, 0.043315813, -0.05305727, 0.17889175, -0.03651738, -0.028320484, -0.028574754, -0.04596517, 0.13903327, -0.015617617, 0.15180263, 0.022660775, -0.16738942, -0.19486573, -0.05548639, -0.13317965, -0.03348993, 0.19658162, 0.010670041, 0.1543197, 0.00768081, -0.043630697, -0.013570828, -0.08474183, -0.16008085, 0.19875072, 0.11062492, 0.034581587, -0.017543867, 0.11794263, -0.047654252, 0.08509212, 0.015245523, 0.18273322, 0.166528, 0.008686176, 0.10782127, -0.15894592, 0.11612679, 0.018472575, -0.06598936, 0.10102104, 0.16493472, 0.112816915, 0.15831666, 0.0012113161, 0.10808122, 0.0054451996, -0.05122991, -0.0992138, 0.023752915, 0.049419835, -0.0046345, -0.075625055, 0.056687377, -0.16533819, -0.1069114, -0.13382597, -0.0017811548, -0.08059006, 0.14256144, 0.1290988, -0.02290869, 0.070173815, 0.0030824104, -0.06755649, -0.07822156, 0.23515157, -0.057312354, -0.12531601, 0.05649106, -0.05957707, 0.11270229, -0.11815156, 0.15533234, -0.074427165, -0.13291539, 0.053284645, -0.019744605, -0.089103825, 0.0009772097, 0.019532071, -0.05669874, 0.081948385, 0.15658356, -0.054195974, -0.07189208, -0.14269653, -0.21141097, 0.048380677, -0.038478404, 0.011529883, -0.09706294, 0.09381766, 0.05780973, 0.06433548, 0.102765776, 0.14346753, -0.0051111346, -0.016534751, -0.0063059065, -0.13910252, 0.0016251188, 0.030599246, 0.03728418, 0.12614745, 0.13292487, 0.015200829, 0.09195095, 0.14038442, 0.15997411, -0.04729085, -0.15756819, -0.05352756, 0.10803806, 0.14187978, -0.042402733, -0.009453613, 0.027637744, -0.22841421, -0.11006525, -0.117773056, -0.01112357, -0.09625421, 0.05325796, 0.14942102, -0.06316371, 0.15348555, -0.010570116, 0.0016135187, -0.09264092, 0.11647357, -0.10441875, -0.04084258, -0.09918404, 0.0012956394, 0.03134549, -0.120298035, 0.12808475, -0.13471554, -0.027701449, -0.04207594, -0.0406907, 0.03285492, 0.070828095, 0.1080075, -0.008300685, 0.052423365, 0.031662706, -0.1246199, -0.007106159, -0.28623396, -0.21412444, 0.123548746, 0.079058744, 0.06981289, -0.04060284, 0.006479884, -0.03078351, 0.020981755, -0.027680349, 0.10577808, -0.02579697, -0.0896141, -0.02055702, -0.19012152, 0.010009354, 0.0375414, -0.0949327, 0.094221294, 0.0781883, 0.050820835, 0.108109474, -0.022312324, 0.09781118, 0.0053996528, -0.020270595, -0.12847407, 0.01699074, 0.03996642, -0.12220537, -0.09036055, 0.07009859, -0.14565697, -0.11883541, -0.13146368, 0.014377643, -0.08507108, 0.13158819, 0.03667227, -0.121484995, 0.1260258, 0.029600713, -0.09232841, -0.15803337, 0.018854637, -0.10049485, -0.09664879, -0.067320265, -0.16624312, 0.002734337, -0.12924556, 0.102322005, -0.053514514, -0.113514215, -0.09972879, -0.095114164, -0.051133063, -0.17793603, 0.14845292, -0.15045682, 0.005401842, 0.1395408, -0.041681815, -0.11040876, -0.13223934, -0.1382451, 0.103342816, 0.03683622, -0.1122628, -0.00013726797, 0.102670416, 0.0038669386, -0.014634801, -0.12424213, 0.13533144, -0.093299955, -0.036577046, 0.056171436, -0.13913827, 0.035740953, 0.020043854, -0.0944777, 0.012576337, 0.12929091, 0.16006517, -0.03203074, 0.010578305, 0.054672405, 0.013543559, -0.1723081, -0.09387982, -0.019841004, 0.08396227, -0.07328285, -0.0971698, 0.019307354, -0.12013214, -0.05890492, -0.11829208, 0.11030234, -0.114557974, 0.034815405, -0.09114106, -0.045686238, -0.3304068, -0.028308485, -0.023486646, -0.09014187, 0.109591015, -0.09702012, -0.13304539, -0.02246346, -0.069731474, 0.18564095, -0.16077945, 0.17974304, -0.06342332, -0.05686016, -0.12885232, -0.08994206, -0.08900566, 0.040843207, 0.0627901, -0.045426227, 0.013270864, -0.04306255, -0.07853521, -0.11008628, -0.066858016, -0.13696025, 0.11046959, -0.027129848, -0.15474793, 0.050584447, -0.05542929, 0.029419953, 0.043971382, -0.020275187, 0.19235282, 0.17831986, -0.07563301, 0.048379984, -0.08183284, 0.07846855, 0.080305025, -0.07335572, 0.11564362, 0.09864797, 0.16968495, 0.18137279, 0.11333081, 0.16761285, 0.0017719454, -0.043319676, -0.1187622, 0.04202646, 0.08070753, -0.09497896, -0.037248358, 0.007302634, -0.13263214, -0.06539199, -0.09650368, -0.12191142, -0.10554409, 0.06424086, 0.18470028, -0.00048808762, -0.07863073, 0.00028042815, -0.06559902, -0.062896185, 0.02758663, -0.074064426, -0.074071325, -0.0106868325, -0.1497097, 0.15741856, -0.15476288, 0.13893509, -0.10637497, -0.19600022, -0.115842156, -0.02698431, -0.065593295, -0.08033436, 0.1364787, -0.16906942, 0.16095117, 0.22074138, 0.025223931, -0.08574611, -0.11367723, -0.12040045, 0.075400576, 0.07218203, -0.056794688, -0.11395013, 0.18564008, -0.018429643, 0.014970309, 0.011049154, 0.17432566, 0.065426156, -0.08086566, 0.0016774482, -0.11268244, 0.055190723, 0.088339776, -0.078220755, 0.1225107, 0.10961006, 0.17512289, 0.07967074, 0.12703213, 0.08580669, -0.04928087, 0.0051407856, -0.11933671, 0.045636725, 0.047901314, -0.03437332, -0.091032825, 0.13732311, -0.20342135, -0.03950266, -0.08443242, -0.010104449, -0.14251296, 0.043885633, 0.016362175, -0.016074002, -0.09463556, 0.05916824, 0.016134964, -0.123554, 0.17514065, -0.008329817, -0.07629605, -0.11961497, -0.081223644, 0.21369343, -0.08115995, 0.19386224, -0.059449717, -0.12092708, -0.081739105, -0.08286516, -0.06629924, 0.08481066, 0.11734476, -0.1539261, 0.18899374, 0.11220946, -0.09549767, -0.011963426, -0.116898894, -0.122716956, 0.14741042, 0.026283113, 0.01517207, -0.008734747, -0.03019888, 0.028073635, 0.088026516, -0.038990363, 0.23030736, 0.18377331, 0.047216613, 0.10011435, -0.13026756, 0.06648273, 0.07993391, -0.0118264025, 0.19218479, 0.085780315, 0.14580218, 0.118065834, 0.08852024, 0.17215449, 0.045091506, -0.09533404, -0.16903731, 0.041421864, 0.12220471, 0.07394993, 0.02733917, 0.033937074, -0.16101386, -0.10017318, -0.06166477, -0.22162914, -0.029136773, 0.073259585, 0.2602012, 0.039982647, 0.0033969893, 0.10673654, -0.0072016823, -0.12126729, 0.11658484, -0.049305264, 0.06303457, -0.024234178, -0.0062096966, 0.19406764, -0.104260124, 0.15207824, -0.04191229, -0.13057746, -0.027463542, -0.13963924, -0.13342571, -0.043650713, 0.077631414, -0.090229936, 0.21825944, 0.06399032, 0.03931527, -0.058897294, -0.11599803, -0.17869529, 0.17609991, 0.037377633, 0.03281586, -0.06493076, 0.2454231, 0.2073224, 0.042053327, -0.017290615, 0.21834229, 0.15779833, 0.0034210496, 0.043483593, -0.123073526, 0.09409998, 0.10507675, -0.16483845, 0.12699614, 0.14799713, 0.14552203, 0.23121217, 0.09757142, 0.07004875, -0.071409255, -0.0077102412, -0.038674805, 0.14750288, 0.12727535, -0.047363684, -0.02543633, 0.16502447, -0.15565127, -0.11605798, -0.08426477, -0.10742807, -0.07635395, 0.16004965, 0.065203846, -0.049507122, 0.048367098, 0.017666398, 0.01920149, -0.149108, 0.17289966, -0.073974356, -0.09510692, -0.15139544, -0.13410874, 0.17915459, -0.105690934, 0.18809533, -0.14611045, -0.08065543, 0.007164917, -0.020091664, -0.067737035, 0.00896127, 0.19226968, 0.02995828, 0.15256503, 0.08137515, -0.13417247, 0.011298622, -0.14512444, -0.16930522, 0.088622145, -0.005576862, 0.03603815, -0.066850305, 0.0055646235, 0.010671905, 0.011382064, -0.07155858, 0.16813968, 0.04432829, -0.009786678, 0.04560214, -0.1226244, 0.05617032, 0.12527588, -0.05808816, 0.08311883, 0.10282977, -0.0024907712, 0.08149661, 0.06321774, 0.15683024, -0.007067954, -0.024444876, -0.18862776, 0.030846465, 0.12735103, 0.004644361, -0.035322253, 0.018724259, -0.18346593, -0.07896643, -0.10574143, -0.20031115, -0.082244515, 0.06195779, 0.03979445, -0.06540085, 0.0683333, 0.088194676, -0.027358945, -0.01737644, 0.19816983, 0.028264219, -0.05581321, 0.07488275, -0.011315991, 0.20604892, -0.13803503, 0.035686474, -0.059792377, -0.11648291, -0.013880365, -0.08552953, -0.08791309, -0.086519204, 0.053733148, -0.09095332, -0.019249314, 0.0715383, 0.057344105, -0.02040034, -0.08097205, -0.13127199, 0.16616638, 0.12527809, 0.066900514, -0.08737891, 0.13012868, 0.135928, 0.017059647, -0.0025101234, 0.1864917, 0.1855145, 0.0071788956, 0.003072453, -0.11999903, 0.06579192, 0.16008507, -0.027113613, 0.10307571, 0.17441148, 0.09504264, 0.2877326, 0.110601515, -0.020077392, -0.005875897, -0.077518545, -0.037330136, 0.1192947, 0.10233077, -0.05773586, -0.05650481, 0.087308206, -0.1790876, -0.11899489, -0.12542161, 0.08210349, -0.14251673, 0.14600292, 0.15065591, -0.024175406, 0.12518221, -0.1080081, -0.037508056, -0.025460798, 0.1873808, -0.11752736, -0.06600049, -0.029555973, -0.107194014, 0.18073241, -0.10194526, 0.12615089, -0.10568719, -0.14596938, -0.14263797, 0.057290543, -0.18827404, 0.025825648, 0.08957639, -0.008744532, 0.03833579, 0.20474799, -0.12395065, 0.018476484, -0.13492648, -0.1535483, 0.09412167, 0.09216595, 0.043323316, -0.056663796, 0.088083774, -0.076470345, -0.0051493202, -0.12278808, 0.088032536, 0.10239529, -0.03078142, 0.047932606, -0.16040118, 0.07174092, 0.10647764, -0.04805093, 0.11424789, 0.08424588, -0.07594528, 0.03395053, 0.065769814, 0.19972575, -0.03958059, -0.08999131, -0.1596314, 0.07179777, 0.06050595, 0.008426959, 0.022733394, 0.007910312, -0.14679016, -0.14693488, -0.17243814, -0.27477998, -0.10340315, -0.003603265, 0.12021094, -0.028530827, 0.17703696, 0.08667652, -0.097329535, -0.1261829, -0.11925209, -0.18006232, -0.131362, -0.047189128, -0.06958233, 0.08931548, -0.19368201, -0.014007554, -0.09722801, -0.06006026, -0.31130308, -0.14740151, -0.1894898, 0.056755345, 0.13907054, -0.13990615, 0.14981176, 0.12773614, -0.11168229, -0.14892635, -0.009176791, -0.085077725, 0.119835466, 0.0973385, -0.10840145, 0.0056112874, 0.14343254, -0.010436764, 0.06820765, -0.11012665, 0.24733184, 0.16616654, 0.027922956, 0.07698114, -0.06403809, 0.083771735, 0.008483446, -0.043038767, 0.087540776, 0.04271331, 0.07679586, -0.013267544, 0.06355204, 0.14533155, -0.01014223, -0.15667994, -0.047997635, 0.0027146807, -0.041885443, -0.015241604, -0.10481575, 0.05515252, -0.14943373, -0.2745251, -0.13331997, -0.06829313, -0.072742745, 0.06724395, 0.11030237, -0.08990383, -0.30007973, 0.046954725, 0.054897834, -0.24153465, -0.01966715, -0.06577955, 0.039837867, 0.034501724, -0.0824312, 0.12640887, -0.26802945, 0.08323534, -0.17243151, -0.048281107, -0.14428568, 0.012708368, -0.04425925, -0.08170637, 0.13433512, -0.13783735, 0.1355699, -0.04403384, -0.18162444, -0.10448791, -0.10805609, -0.15637675, 0.19623354, 0.04335814, -0.035922818, -0.066883795, 0.16511129, 0.04882992, 0.028449483, -0.14462245, 0.2233511, 0.066520475, -0.03052566, 0.12979236, -0.07249396, 0.077563204, 0.07962874, -0.017359374, 0.058060218, 0.06571454, 0.16624135, 0.10484997, 0.18918201, 0.12349737, -0.020784827, -0.07336009, -0.07368531, 0.026897268, 0.15095556, 0.026664222, 0.016026933, 0.058154978, -0.15410012, 0.03999228, -0.16151088, -0.09177838, 0.0045204074, -0.048470795, 0.0015100909, -0.039539482, -0.08676693, 0.0730169, 0.048741307, -0.21198013, -0.08767998, -0.0836034, -0.1895377, -0.09458902, -0.10607133, 0.20724832, -0.15502897, 0.15426292, -0.018276501, -0.104924746, -0.095425904, -0.14491457, -0.18557933, 0.0210259, 0.18260847, -0.07319863, 0.16223031, 0.12798649, -0.08446032, -0.04769754, -0.13672546, -0.09287524, 0.1846291, 0.13581173, -0.028355712, -0.060379315, 0.03171843, 0.11052589, 0.006096629, -0.09151034, 0.2220575, 0.08917382, -0.013724238, 0.07066081, -0.09613789, 0.08053693, 0.09576895, -0.17305331, 0.1291032, 0.05673947, 0.17361498, 0.18562305, 0.15040956, 0.06325075, 0.06495187, -0.19557397, -0.059801985, -0.025128601, 0.11074925, -0.070290275, -0.0722449, 0.023649182, -0.16814363, -0.14738649, -0.040374767, 0.021853693, -0.07881607, 0.1312556, 0.042128213, 0.00077210483, -0.02562864, 0.13514486, -0.025954342, -0.021612948, 0.12978743, -0.041506793, -0.011311876, -0.037717313, -0.17659801, 0.17244112, -0.15171458, 0.16506264, -0.21977821, -0.17909889, -0.019604271, -0.0708378, -0.0020812328, -0.124878675, 0.17616461, -0.123109385, 0.18947834, 0.09164666, -0.06944588, 0.0053037484, -0.12966631, -0.109927796, 0.050184555, -0.105504125, -0.022403173, -0.04703896, 0.086626664, 0.124139555, 0.08555145, -0.07835351, 0.2301756, 0.06935537, -0.060622875, 0.07896713, -0.1146312, 0.09110195, 0.16989619, -0.10188602, 0.11813626, 0.07056467, 0.15690978, 0.15806277, 0.13069618, 0.12775487, 0.06601179, -0.0094821965, -0.09609989, 0.009710172, 0.06718185, -0.124097034, 0.040163513, 0.043039206, -0.13839522, -0.09908298, -0.029919071, -0.03234562, -0.077033915, -0.002095361, 0.031551026, -0.025369203, 0.012848814, 0.1195654, 0.03775623, -0.087178506, 0.02944456, -0.043673906, 0.000120201126, -0.036103472, -0.19349626, 0.25219285, -0.04882667, 0.12782745, -0.01926343, -0.14951283, -0.09429556, -0.0138092525, -0.010255416, 0.07999653, 0.10729977, -0.073215805, 0.114018716, 0.07388508, 0.0028069085, 0.04793086, -0.07656658, -0.07800931, 0.23648864, 0.14360976, 0.037321407, -0.0800825, 0.09880559, 0.064437434, -0.0260483, 0.023188636, 0.25473657, 0.23185202, 0.023777083, 0.094741195, -0.08461662, 0.108035505, 0.12416807, -0.13894895, 0.09603006, 0.02494591, 0.091743596, 0.26922658, -0.07305861, 0.005750572, 0.05571527, -0.06705852, -0.083631106, 0.04881904, 0.016136615, -0.047607727, -0.17830606, 0.06150016, -0.13391884, -0.21462496, -0.056620415, -0.008607903, -0.08409168, 0.14182313, 0.19485903, 0.037465572, 0.09785013, 0.054652803, -0.05218561, 0.022157654, 0.2673925, -0.117420204, -0.03479035, 0.09021508, -0.11456787, 0.15790042, -0.11261818, 0.09692202, -0.1586762, -0.0957765, -0.046563797, -0.063055456, -0.09728537, -0.05031509, 0.18066551, -0.05614583, 0.23320962, 0.2614638, -0.060875442, 0.012746984, -0.07925643, -0.10023477, -0.04457674, 0.05324295, 0.051976953, -0.110996485, 0.19407333, 0.10508994, 0.09107758, -0.017912224, 0.2115809, 0.18207292, 0.008762413, 0.021150824, -0.07122476, 0.083695404, 0.13264804, 0.08730594, 0.019850358, 0.1139751, 0.046155374, 0.13648693, 0.123606496, 0.16928083, -0.054583963, -0.14083254, -0.07713265, 0.14132908, 0.1331304, 0.028136674, 0.053280037, 0.09743799, -0.15588914, -0.0894821, -0.118685886, -0.15305652, -0.07551609, 0.056140125, 0.17144233, -0.11760374, 0.07139166, 0.05009501, 0.04005397, -0.19977427, -0.013359091, -0.0134259565, -0.06135256, -0.032821193, -0.07977829, 0.19662206, -0.1571987, 0.12657674, -0.04369976, -0.07869686, -0.20048577, -0.12559533, -0.06013524, -0.019276073, 0.064779125, -0.09999823, -0.07461064, 0.011703362, 0.024053559, 0.06441346, -0.11352526, -0.09922967, 0.1738301, 0.10897359, 0.08672029, -0.1682823, 0.085685074, 0.099896066, -0.027389824, -0.073372304, 0.28552958, 0.17624266, 0.0050706845, 0.09424307, -0.1014836, 0.0793602, 0.047404286, -0.16656901, 0.21120547, 0.035396297, -0.08732046, 0.22039743, 0.04383415, 0.13364114, 0.010608912, 0.11733669, 0.053858664, 0.018397013, 0.14746928, -0.09549313, -0.1282228, 0.057052244, -0.22475271, -0.03349224, -0.12248341, -0.031473648, -0.08463131, 0.15204607, -0.061570372, -0.05764881, 0.13144684, 0.05344656, -0.0076882816, -0.19019715, 0.18788972, -0.11115738, -0.129794, 0.047452565, -0.05323316, 0.17241034, -0.2329343, 0.066593006, -0.11481346, -0.19174352, 0.009180655, 0.029585658, -0.09147453, -0.009801821, 0.14416566, -0.024917442, 0.053680453, 0.14253995, -0.1415582, 0.10202872, -0.23633142, -0.1255107, 0.07035133, -0.010051106, 0.03580537, -0.0620396, 0.085439324, 0.098863974, -0.029136455, 0.05446558, 0.15727426, -0.0024633873, 0.037219223, 0.046336297, -0.10677999, 0.080765195, 0.051796194, 0.18469173, -0.044546127, 0.06676875, -0.025791856, 0.08998832, 0.13963671, 0.13475476, -0.01935947, -0.16514742, 0.05441018, 0.14040473, 0.16918096, -0.08846048, -0.1189765, -0.026988577, -0.157544, -0.12809521, -0.13153854, -0.12497121, -0.09176875, 0.01150492, 0.025449157, -0.11273553, 0.16684502, 0.040016547, -0.088696286, -0.22886793, -0.11217178, -0.052392427, -0.24154647, -0.056840435, -0.17068323, 0.18063053, -0.32394835, 0.014358268, 0.058736466, -0.08352552, -0.1442017, -0.13729686, -0.017393285, -0.062167328, 0.008092535, -0.047390107, 0.045721173, -0.015254778, -0.034772474, -0.19296034, -0.0624837, -0.07506927, 0.18849905, 0.17289722, -0.10741598, -0.0323473, 0.016880676, 0.12512654, 0.13332665, -0.0954164, 0.21938069, 0.096578956, -0.09001851, 0.06653394, -0.06948775, 0.15732273, 0.0013681405, -0.13374981, 0.045954935, -0.05422463, 0.1828575, 0.06323176, 0.114191465, 0.16333345, 0.09649831, -0.13815305, -0.18884757, -0.07735717, 0.08043972, -0.08195937, -0.0857135, -0.032267813, -0.09752904, -0.088144004, -0.03304552, -0.014624278, -0.15037428, 0.0024929186, 0.2144641, 0.07895535, -0.09182511, -0.021616211, -0.0073961564, -0.1732806, -0.0590502, -0.08733166, -0.13181536, -0.116199024, -0.23191182, 0.13102977, -0.15956305, 0.065226875, -0.07825163, -0.10843332, -0.015120587, -0.001328821, -0.09078654, -0.2520235, 0.24136157, -0.19452414, 0.05415722, 0.17723481, 0.049285818, -0.022046244, -0.15521532, -0.069491126, 0.07888997, 0.02334984, -0.038689587, -0.09318453, 0.06601162, 0.069123544, -0.08856756, -0.056235876, 0.24379857, -0.036161106, -0.12686859, 0.032395747, -0.075943835, 0.0887188, 0.113690235, -0.09517299, 0.019649168, 0.022974806, 0.15085019, 0.09918077, -0.018434003, 0.03432085, -0.021776382, -0.13527665, -0.17806949, -0.11697609, 0.052016318, -0.17784202, -0.11865101, 0.124629326, -0.12482599, -0.16180171, -0.08213269, -0.01998248, -0.110989235, 0.04871516, -0.15217204, -0.02774192, -0.046242185, 0.027180007, -0.10459609, -0.08748446, 0.021343581, -0.100745, 0.02206616, 0.009425937, -0.11836095, 0.16036397, -0.24552888, 0.06262756, -0.047208834, -0.13163875, -0.07794441, -0.097319745, -0.06497424, 0.014542145, 0.17253311, -0.118606865, 0.15715702, 0.027307097, -0.20258634, -0.036512163, -0.06261253, -0.10550574, 0.20514326, 0.05656467, -0.020650927, -0.11273399, 0.04536348, 0.011611452, 0.10648814, -0.08518256, 0.28821197, 0.1943156, 0.015848454, 0.14020346, -0.075169966, 0.118502505, 0.10324658, -0.077868566, 0.09705818, 0.044601694, 0.21174154, 0.23954712, 0.059082247, 0.24808867, 0.049934383, -0.0010580213, -0.055798754, 0.09109837, 0.10028805, -0.062000033, -0.12674391, 0.020980367, -0.0906156, -0.09794382, -0.07490327, -0.18171331, -0.08445892, 0.066946596, 0.23642373, 0.022882959, -0.09845325, 0.07626659, 0.12432897, -0.11893874, -0.008835983, -0.20647809, -0.015411474, -0.050793115, -0.0794303, 0.16024192, -0.11678964, 0.05345547, -0.23399298, -0.18503544, -0.22430351, -0.21425512, -0.036782738, -0.13935566, 0.13641995, -0.19833809, 0.11119788, 0.14892556, 0.032897513, -0.016510438, -0.119351596, -0.028993404, 0.10065016, 0.18391225, 0.022989998, -0.14086372, 0.1587504, 0.15935361, -0.026511103, 0.018741688, 0.274035, 0.069936104, 0.053824883, 0.045376565, -0.069124736, 0.14341418, 0.12517665, -0.023555417, 0.19351545, 0.049953107, 0.12367365, 0.15747793, 0.1200471, 0.0032076498, -0.08343333, -0.07155708, -0.12892905, 0.04196854, 0.12336109, -0.043969847, -0.025404684, 0.15277915, -0.08800638, -0.021054458, -0.1161646, -0.12237444, -0.10505154, 0.12028885, 0.025027018, -0.14071427, -0.00036693877, 0.12231151, -0.009251085, -0.30618465, 0.09289932, -0.08453319, -0.087724544, -0.053160895, -0.18567152, 0.22019136, -0.19338706, 0.15489742, 0.015200574, -0.17639618, -0.072222605, -0.0832977, -0.081086434, 0.034406677, 0.124122344, -0.1652136, 0.08494568, 0.18923792, -0.13957062, 0.03513186, -0.1577831, -0.15041625, 0.20418051, 0.02967561, 0.016116668, -0.15189876, 0.02811505, 0.07421775, 0.04084176, -0.083878025, 0.25099027, 0.1954982, -0.0300046, 0.14522527, -0.08618141, 0.14458704, 0.14695755, -0.090033896, 0.11451291, 0.022514066, 0.013844191, 0.028287666, 0.043637633, 0.12728055, 0.013685444, -0.031802095, 0.10022696, -0.059524417, 0.054804053, -0.0034752968, -0.04224157, -0.027333625, -0.22155775, -0.09832965, -0.0696625, -0.19749476, -0.089538634, 0.111501426, -0.024811918, 0.02834706, 0.09383363, 0.1319797, 0.10181733, -0.123465136, -0.030757852, 0.017992571, -0.19963674, -0.05745932, -0.04450162, 0.19194378, -0.21420044, 0.014211952, -0.08893428, -0.10136899, 0.09330645, -0.17984655, -0.13979118, -0.054931343, 0.08372945, -0.07896793, -0.1146184, 0.02426321, 0.1076253, 0.08426631, -0.24035889, -0.08907261, 0.21168934, 0.111974314, 0.045153424, -0.16679691, 0.12433225, 0.23618288, -0.042790227, 0.02330315, 0.26711974, 0.14413244, 0.021678286, 0.06376653, -0.015288572, 0.11831951, 0.1752928, -0.0689794, 0.0521638, 0.039970264, 0.09387577, 0.18225598, 0.12734488, 0.14421773, -0.03620389, -0.07630177, -0.11918399, 0.07371244, 0.14189886, -0.15734865, -0.043440744, 0.13109258, -0.20515275, -0.14808497, -0.045758374, -0.10425989, -0.050346047, 0.09201728, 0.019886123, -0.041525077, 0.123369575, 0.106297135, -0.07583915, -0.12145581, 0.13836068, -0.09257494, 0.01793891, -0.0047040777, -0.24449813, 0.2350661, -0.1210202, 0.13309981, -0.056394015, -0.17942882, -0.04177789, 0.101778455, -0.16348691, 0.09018211, 0.12625453, -0.06348963, 0.10188273, 0.14792775, -0.20738043, 0.11786175, -0.103863254, -0.07463217, 0.2054572, 0.12915704, 0.07588047, -0.10377501, 0.09652411, -0.08267591, 0.05669134, -0.10610366, 0.22802846, 0.12005345, -0.03270146, 0.12890127, -0.08531773, 0.08598398, 0.102785364, -0.09205864, -0.0046435855, 0.02904089, -0.12546545, 0.13413838, -0.061421614, 0.24419788, 0.0038947666, -0.01194733, -0.32046336, 0.067632556, -0.005524397, 0.02382209, -0.11540841, 0.054699786, -0.11696031, -0.3363921, -0.13897718, -0.20809998, -0.15820356, -0.054397758, 0.06250052, 0.012477031, 0.12610257, 0.17128801, -0.106934376, 0.0029505845, 0.07287905, -0.12009168, -0.18333378, 0.13755842, -0.09848029, 0.16484527, -0.052218553, -0.087334886, -0.11106625, -0.061906222, -0.13825148, -0.16201936, -0.049920287, -0.29631335, 0.082212195, -0.113330886, 0.035268646, 0.17063181, 0.20103227, 0.069027215, -0.16603115, -0.10021086, 0.1795081, 0.059910186, -0.00038137997, -0.18179598, 0.018805487, 0.15037654, -0.060359318, -0.08135403, 0.23817445, 0.21454962, -0.12454797, 0.0312752, -0.029359845, 0.15898025, 0.08301149, -0.07979942, 0.08149087, -0.0036285175, 0.051259354, 0.24078207, 0.022251325, 0.048410196, -0.18453386, -0.13734871, -0.23618637, 0.02826076, 0.14804363, 0.03838869, 0.005555555, 0.1284068, -0.14922014, -0.0939673, -0.17906566, -0.06577327, -0.06382423, 0.122072674, 0.15330434, 0.05911838, 0.06757451, 0.10124336, -0.17912936, -0.28044924, 0.063382015, -0.31168306, -0.14302126, -0.11697559, -0.0013428801, 0.13836099, -0.20419864, 0.005713278, -0.06182233, -0.3167615, -0.27167058, -0.15838864, -0.05042277, -0.019472409, -0.060287118, -0.23972125, -0.087220855, -0.040704932, -0.25289664, -0.306998, -0.23074163, -0.003945723, 0.16766961, 0.13444969, -0.00197052, -0.16121219, 0.07269509, 0.04340545, 0.07990201, -0.124009795, 0.26030472, 0.048196726, 0.08008925, 0.033917278, -0.087352276, 0.009796483, 0.01545551, -0.017696446, 0.13413963, -0.19361258, 0.039008107, 0.027795633, 0.006248363, 0.15586977, -0.05272118, -0.07712536, -0.056526612, -0.13638498, 0.1499306, -0.119727865, -0.10804383, -0.09035572, -0.09416092, 0.030217329, -0.100797586, 0.024627296, -0.12639359, -0.05753638, 0.12968096, -0.07130355, -0.09960789, 0.20595866, -0.12003098, -0.28950775, -0.13244216, -0.16971864, -0.2780348, -0.094486654, -0.27811784, 0.17830703, -0.21822293, 0.049136117, -0.12709522, -0.07360465, -0.15614404, -0.2813718, -0.06505349, 0.02060465, 0.17698589, -0.16184197, 0.11810361, 0.21499151, -0.051695667, -0.049612015, -0.10762576, -0.055901207, 0.15879108, 0.22554061, -0.029355697, -0.12534669, 0.13126995, 0.02414797, -0.016670726, -0.06752824, 0.23119678, 0.115641475, -0.022803474, -0.02286027, -0.07560557, 0.12071647, 0.057666223, 0.00096313516, 0.10733355, -0.046428185, 0.11254873, 0.012977979, 0.083673105, 0.1310204, -0.09517795, -0.2461367, -0.19768608, -0.13257012, 0.20199873, -0.08982855, -0.011905584, 0.05299342, -0.028720893, -0.011394294, -0.13417241, 0.025218174, -0.1505817, 0.11294079, 0.01616702, -0.019553902, -0.16816719, 0.12654279, -0.06862288, -0.31772515, 0.0026392802, -0.08177707, -0.04126707, 0.02400506, -0.14621301, 0.15259822, -0.27502877, 0.020499708, -0.036602203, -0.2610718, -0.06506774, 0.008062568, -0.010169661, -0.3689631, 0.043043822, -0.115031704, 0.100322954, 0.0023340087, -0.10747615, 0.030985165, -0.24115615, -0.075753234, 0.17427093, 0.21162084, -0.06928537, -0.14637347, -0.03419575, 0.13509777, 0.005493667, -0.20859887, 0.3186803, 0.055743136, -0.14968263, 0.1076228, -0.053283438, 0.12621255, 0.0037266754, -0.10459588, 0.021898605, -0.036135744, 0.09674996, 0.087119736, 0.069584936, 0.0931348, 0.045961987, -0.118648954, -0.02550266, -0.07396517, 0.12149852, 0.003986815, -0.13503584, 0.056000277, -0.087638855, -0.08741682, -0.070795335, -0.1323309, -0.18385112, 0.021413019, -0.0072200997, 0.021940356, -0.08694111, 0.03063608, 0.05891837, -0.038865004, -0.116654776, -0.0385618, -0.122772075, 0.07266686, -0.2009273, 0.21417968, -0.17648514, 0.012770202, -0.05419645, -0.2001859, -0.0037925937, -0.12874661, -0.1350353, -0.054027326, 0.21952988, -0.055513628, -0.02655246, 0.12796372, -0.0044871904, 0.085684255, -0.19048455, -0.050694283, 0.2599545, 0.15913019, 0.01762238, -0.24863875, 0.041527014, 0.15238467, 0.021377606, -0.031373594, 0.2549945, 0.17800725, 0.041213546, 0.12903911, -0.0692527, 0.09039592, 0.09393878, -0.06557734, 0.13517827, -0.02005699, 0.06403082, 0.2578259, 0.07065133, 0.16864884, -0.021447083, -0.12495082, -0.035621196, -0.018569361, 0.0999627, -0.23113924, -0.1236507, 0.12548772, -0.13784204, 0.011642518, -0.13094808, -0.15924205, -0.11348507, 0.023811078, 0.13341837, -0.04657182, 0.02817571, 0.19210076, -0.058948018, -0.22128007, 0.005731308, -0.19765852, -0.19754696, -0.050324082, -0.066357344, 0.247617, -0.22585325, 0.012742937, -0.10292746, -0.22945444, -0.073901206, -0.04521042, -0.3407265, -0.01864243, 0.067209214, -0.17608726, 0.15869077, 0.07436108, -0.34156927, 0.11824498, -0.015750177, -0.02363501, 0.2206515, 0.22292657, -0.0014174932, -0.25690562, -0.0038747326, 0.11344489, 0.032417327, -0.06867105, 0.24081221, 0.08999046, -0.22549653, 0.1483639, -0.027060954, 0.18079603, 0.14799385, 0.01614933, -0.10542603, -0.054263312, 0.018323207, 0.064507864, -0.028741127, 0.16767488, 0.099072926, -0.18283105, -0.14067939, -0.042021133, -0.026727589, 0.052520484, 0.032638077, 0.0351997, -0.1084867, -0.11466257, -0.11116037, -0.20074497, -0.13464995, 0.0223556, 0.08416339, 0.12209778, -0.04422791, 0.07087861, 0.019704802, -0.25177667, -0.30183402, -0.14334586, 0.01124071, 0.09074266, -0.16752587, 0.17055531, -0.23425579, -0.0029749277, -0.2361594, -0.15467711, -0.21830815, -0.034681424, -0.17853047, -0.016143275, -0.0105044, -0.1472439, -0.14131624, 0.10107186, -0.039273813, 0.020460553, -0.35170808, -0.09097085, 0.18241914, 0.3363962, 0.04011651, -0.22444533, 0.09304515, 0.20080669, -0.013939286, -0.057227284, 0.30168214, 0.1817623, 0.008736622, 0.052686557, 0.011170339, 0.17183447, 0.112621136, -0.18849397, 0.06609522, -0.11013598, -0.09003931, 0.18402772, 0.051483937, 0.12141073, -0.13177139, -0.044394933, -0.1588873, -0.040104013, 0.06314994, -0.05544367, -0.18808423, 0.06705377, -0.16120167, -0.40197843, -0.17855498, -0.07095869, -0.073364116, 0.01757359, 0.10653137, -0.03713227, 0.055826988, 0.12946942, -0.10938914, -0.23361972, 0.07092957, -0.14839269, -0.19217713, -0.100870416, -0.17357911, 0.17898001, -0.15569113, 0.11036363, -0.07171264, -0.2776949, -0.037338473, -0.03810123, -0.012478484, -0.064430855, -0.042170245, -0.115020946, 0.09123775, 0.25137362, -0.27463958, 0.04873558, -0.27113006, -0.045484193, 0.17095517, 0.12591465, 0.028590215, -0.13633412, -0.032748003, 0.03375459, 0.05987542, -0.2323789, 0.2601614, 0.08256077, -0.15958653, 0.18634704, -0.072482854, 0.1625687, 0.13925517, 0.15153497, -0.025708715, 0.0025349217, -0.17577946, 0.101870775, -0.05456368, 0.08545029, -0.17393298, -0.11768039, -0.07213159, 0.025183877, -0.32125664, 0.1021289, 0.07356654, 0.12638085, -0.10684857, -0.1790895, -0.17428541, 0.0013494343, -0.008786855, -0.07839033, 0.06706142, 0.016498938, 0.042849787, -0.01341122, 0.014927279, -0.4309196, -0.23724817, -0.2022307, -0.18450853, 0.10043166, -0.14712998, 0.15263543, -0.21712, -0.25192532, -0.32851347, -0.4151121, -0.08655003, -0.041724674, -0.24927813, -0.056269467, -0.104657955, -0.07668229, -0.3048303, -0.052206013, 0.10922547, 0.02456735, -0.44739884, -0.057830967, 0.029500606, 0.08419311, 0.019858694, -0.15402056, 0.0651464, 0.1848283, -0.087995164, -0.0785476, 0.2216028, 0.11861246, -0.042708088, 0.1624374, -0.12265778, 0.12636857, -0.0024013415, -0.12112595, 0.106183894, 0.016605401, -0.11653726, 0.2386472, -0.040071562, -0.11181963, -0.03290645, -0.090983644, -0.12225814, 0.034261353, -0.11050476, -0.06807381, -0.20025873, 0.013624352, -0.1792287, -0.19471262, -0.1500639, 0.011318968, -0.008516638, 0.07416149, -0.09848431, 0.030339053, 0.098084725, 0.15528284, -0.035092477, -0.31692654, -0.10302458, -0.15944292, -0.011467407, -0.10024194, -0.07219544, 0.17249995, -0.20626026, 0.06839291, 0.010485081, -0.25459886, -0.044151705, 0.033915546, 0.084311135, -0.33218557, 0.06749994, 0.0063107773, 0.017998956, 0.24448863, -0.05215114, -0.045904707, -0.4149208, -0.076274075, 0.10604842, 0.06407267, 0.0047342656, -0.19724277, 0.19323558, 0.17556816, -0.16786905, -0.1513804, 0.2593124, -0.1881643, -0.030553097, 0.08970912, -0.04097576, 0.09447667, -0.023022236, 0.08638924, 0.04461524, -0.14108758, 0.14361401, 0.05945318, 0.03505392, 0.15789102, -0.062604226, -0.21019123, -0.22084576, -0.17929862, -0.077396944, -0.22608598, -0.17225733, -0.07773724, -0.28269547, -0.2115852, -0.10473779, -0.17619255, -0.1282584, -0.15511312, -0.34786338, 0.017129771, -0.028845416, 0.06916083, -0.08578318, -0.18818556, -0.28289875, -0.109005205, -0.26201382, -0.16831486, -0.17356819, 0.13500504, -0.36411616, 0.022827944, 0.1574506, -0.15919243, -0.066193, -0.10980088, -0.17452955, -0.04653177, 0.1539737, -0.16214916, 0.052861847, 0.027724707, -0.1949799, -0.026444975, -0.09702384, 0.008410228, 0.24749452, 0.16483149, -0.08585622, -0.02695438, -0.05334339, 0.078487605, -0.0015248075, 0.021766404, 0.21560761, 0.07097345, -0.11275733, 0.09052119, -0.005593827, 0.1723623, 0.10637367, -0.049926385, -0.00984531, -0.05955169, 0.04577219, 0.097055964, -0.04234473, 0.16786924, 0.0847036, -0.14095007, -0.16125119, -0.18325065, 0.21043482, -0.20941596, -0.13993311, -0.07814082, -0.14922369, -0.40066615, -0.17073295, 0.03707107, -0.02566251, -0.069849774, 0.2284592, 0.07646371, -0.06647815, 0.03644148, -0.089224495, -0.14203952, -0.001706205, -0.24935685, -0.09107935, -0.022532621, -0.18208703, 0.15950993, -0.4625453, -0.07409898, -0.17012084, -0.09607383, -0.123085104, -0.15048341, -0.2659321, -0.06454146, 0.120854184, -0.19048734, 0.057479568, 0.06867203, -0.008293977, -0.019493006, -0.061429735, 0.0101607675, 0.23040108, 0.15314317, -0.00029900263, -0.120074004, 0.057890054, 0.015855351, 0.003461478, -0.026266811, 0.2734686, 0.10415464, -0.16313653, 0.008418556, -0.06455523, 0.08526434, 0.031011809, 0.021750798, 0.08900217, -0.05778025, -0.072289705, -0.16376531, 0.12660567, 0.09091016, -0.12863456, -0.12667418, -0.40726638, -0.045410316, 0.08101297, -0.27565357, -0.023706501, 0.039859165, -0.046506498, -0.18055886, -0.2465469, -0.15174532, -0.18055323, -0.032452352, -0.095636, -0.095694155, -0.0597235, 0.12679501, -0.04399506, -0.37968162, -0.43291366, -0.2974788, -0.17754716, 0.019774722, -0.19738457, 0.17632088, -0.33808407, -0.020959178, -0.16522004, -0.26334062, -0.15728998, 0.005355222, -0.1577624, 0.1111618, 0.05928356, -0.13707034, -0.010712239, 0.15556207, -0.14792909, 0.0054045343, -0.20343988, -0.074808724, 0.1751538, 0.2648575, 0.039128996, -0.1779065, 0.08000033, 0.04709346, 0.029575309, -0.1510327, 0.32911065, 0.18266366, -0.01973222, 0.09443661, 0.0016083303, 0.18837802, 0.09299012, -0.14537577, 0.12121839, -0.11291472, -0.094594605, 0.12523255, 0.03714793, 0.086098425, 0.013950421, -0.16663398, 0.016791321, -0.021612199, 0.050888646, 0.070660315, -0.2909798, 0.063996494, -0.11520951, -0.19779906, -0.15215167, -0.2429876, -0.18507761, 0.060093, 0.11255033, 0.0011229443, -0.039186638, 0.09801537, -0.026815193, -0.17952828, -0.22996935, -0.1996093, -0.09050317, -0.02170997, -0.10937433, 0.1229888, -0.3290492, -0.19041552, -0.091590546, -0.260089, -0.07018864, -0.07837943, -0.21014948, -0.031570077, -0.053165548, -0.18320358, -0.035903104, 0.19284272, -0.19694674, 0.019031119, -0.4403895, -0.10401059, -0.16412881, 0.13340047, -0.023657124, -0.28243592, 0.029595787, 0.1831986, -0.05388138, -0.13453145, 0.18043657, 0.07391325, -0.101409815, 0.05346956, -0.034451753, 0.15932749, 0.071060956, -0.012047458, 0.013102633, -0.045712326, 0.043195847, 0.08246503, 0.11075561, 0.18987972, -0.16595538, -0.38501585, -0.04909056, 0.11082758, 0.023539685, -0.15225513, -0.27874008, 0.13983896, -0.23515573, -0.12549835, -0.1615326, -0.06567579, -0.3179853, -0.19078203, -0.0014841146, -0.036869526, 0.008528993, 0.19356894, -0.016661843, -0.1271184, -0.17654693, -0.1583225, -0.20532668, -0.12321973, -0.26229241, 0.24569057, -0.20405251, -0.0044129435, 0.07856276, -0.21437564, -0.13629204, -0.017122192, -0.28496984, 0.04322553, -0.051881943, -0.16142803, 0.040422834, 0.04492672, -0.3309466, 0.04814566, -0.019473402, 0.03995851, 0.20355693, 0.2907961, 0.04076771, -0.36518332, -0.10176156, 0.10115237, -0.067237414, -0.14003514, 0.120869964, 0.113729216, -0.07332993, 0.18167324, -0.07767329, 0.17260852, 0.120324664, -0.088166095, -0.051798522, -0.10309899, -0.19182724, 0.053150184, -0.029660601, -0.036042266, 0.0041287076, -0.2532422, -0.31467736, -0.08307757, 0.097534716, -0.010382927, -0.19213101, 0.12695813, -0.13841526, -0.11746353, -0.3135739, -0.18034874, -0.16688175, 0.024673935, 0.18792026, 0.0799295, 0.04630199, -0.033052024, -0.06091473, -0.026905216, -0.306492, -0.111144036, -0.40770063, -0.61454797, -0.23191811, 0.17130099, -0.36179757, -0.43520796, -0.18442553, -0.21432021, -0.09690537, -0.18520975, -0.36593756, -0.13772832, -0.10921783, -0.544288, -0.24422038, -0.011223822, 0.13718055, 0.09782694, -0.22707953, -0.048648942, 0.20176567, -0.008423849, 0.022819776, -0.13401742, 0.15719432, 0.21499181, -0.008335968, -0.027459849, 0.15394682, 0.08297941, -0.088522606, 0.081512086, -0.0006389284, 0.13449706, 0.177602, 0.0031721718, 0.114744715, 0.0018994247, -0.10121323, 0.07095671, 0.05725629, 0.11702051, -0.15339226, -0.25292674, -0.270319, -0.024901683, 0.10217957, -0.30783036, -0.048629038, -0.14709361, -0.25226426, -0.66926444, -0.21623735, -0.018484265, -0.005237773, -0.1645171, 0.030809067, 0.1768502, -0.013584786, 0.005660197, -0.004549941, -0.09610305, -0.2663261, -0.419766, -0.15104775, 0.04798879, -0.1735252, 0.1562266, -0.15307267, 0.06578255, -0.13558257, 0.0031643205, -0.3400432, -0.08494198, -0.29410067, -0.14139251, -0.05228893, -0.2548905, -0.11235955, 0.1030021, -0.0180532, 0.010924449, -0.5968015, -0.06198345, 0.24338089, 0.15735595, 0.0038707468, -0.025905907, -0.026930762, -0.26747155, 0.060285714, -0.12352092, 0.15559225, 0.22568911, -0.27715242, 0.027657855, 0.025232386, 0.16842626, 0.15911563, -0.1912305, 0.1155534, -0.083742686, -0.11849736, 0.13402866, -0.12381496, 0.078167126, -0.035333123, 0.027131436, -0.21331194, -0.10179443, 0.105473585, 0.014738278, -0.084496066, -0.4464156, -0.1527507, -0.07300112, -0.13187036, -0.14877382, -0.20796046, -0.1434134, -0.20020893, -0.020931356, 0.116068184, 0.32392707, -0.040489532, -0.30911574, -0.3421747, -0.081151925, 0.05394104, -0.20066878, -0.038119752, 0.016254215, -0.09603595, -0.4453105, -0.23578317, -0.23352456, -0.2648512, -0.34318697, 0.01259846, 0.1444953, 0.1585185, -0.117350005, -0.12225979, 0.15917711, -0.40976593, 0.037428502, -0.15493874, -0.07600404, -0.28268653, -0.14940888, 0.0474797, -0.11839475, -0.09297067, -0.04016051, -0.30792, -0.09407073, -0.037287384, -0.025691988, 0.09404986, -0.0036626852, -0.0038786219, 0.26697132, -0.028572902, -0.1179904, -0.4502728, -0.24655499, 0.040187087, -0.06771743, -0.2328726, 0.16190961, 0.09065373, -0.17933352, -0.37398127, -0.27205884, 0.0883568, -0.10770913, -0.1499685, -0.13291207, -0.41603372, -0.6501476, -0.41116723, 0.13027567, -0.7485741, -0.09402463, -0.0152241485, -0.044374075, -0.010537624, -0.00770658, -0.2646749, -0.32486522, -0.3256799, -0.36272085, -0.035211097, -0.13591318, -0.2115462, 0.01673495, -0.40336245, 