#ifndef NN_VALUES_H
#define NN_VALUES_H


const float L1_WEIGHTS[] = {
0.008516771, 0.0002647092, 0.0025373825, 0.0056317104, 0.0037117703, 0.005580825, 0.0073485207, 0.0084782, 5.028967e-06, 0.005444754, 0.0025497372, 0.0018786723, 0.006776065, 0.004112177, 0.0023711545, 0.0037227827, 0.00032877387, 0.005464445, 0.0028167104, 0.003145357, 0.0066240677, 0.007715702, 0.001230402, 0.0008485149, 0.007063514, 0.002101398, 0.00469829, 0.005835587, 0.006797991, 0.006489611, 0.003675851, 0.006846799, 0.007629644, 0.0013989975, 0.0029883804, 0.0010874487, 0.004685244, 0.008502784, 0.003677492, 0.00553146, 0.0041967947, 0.0064422092, 0.0036628582, 0.0014325994, 0.0026617858, 0.0050037103, 0.00339531, 0.0032948933, 0.003150036, 0.006235022, 0.005180847, 0.008171176, 0.006543286, 0.0014537787, 0.004515801, 0.0073942407, 0.0054466906, 0.0040157614, 0.0065934137, 0.0054121534, 0.005321388, 0.0008205438, 0.005883972, 0.0037546144, 0.0052057845, 0.0040303133, 0.0019862491, 0.0036979783, 0.0034169478, 0.0006012013, 0.00042979533, 0.00380756, 0.00760237, 0.0066053458, 0.0010948757, 0.0069476045, 0.0010723904, 0.0009158261, 0.005641886, 0.0042619836, 0.006624734, 0.008417055, 0.008375588, 0.0043233447, 0.0073442454, 0.0048098178, 0.0032729458, 0.0033759756, 0.007073994, 0.0008317486, 0.006112355, 0.006116094, 0.0036144946, 0.0022776767, 0.005396405, 0.0049446085, 0.0032753367, 0.007143894, 0.008647983, 0.007784913, 0.00401923, 0.0039045794, 0.004332065, 0.001215629, 0.004264892, 0.00598806, 2.6613128e-05, 0.007548541, 0.0030505343, 0.003535552, 0.006642399, 0.007705913, 0.0063738455, 0.0036500709, 0.0031072395, 0.0077992342, 0.0021386256, 0.0022356962, 0.0036223328, 0.0076474026, 0.0040728343, 0.007989209, 0.007879701, 0.008713273, 0.0028675068, 0.00036035824, 0.0044332375, 0.0048834197, 0.008712021, 0.007894052, 0.0031392104, 0.003503329, 0.0020832152, 0.004573077, 0.0010362621, 0.0087529095, 0.001858675, 0.004517337, 0.004981677, 0.0073559824, 0.006386985, 0.00830133, 0.0016437181, 0.006368748, 0.0058652298, 0.0023573986, 0.0003558494, 0.0040879343, 0.0066292332, 0.0032468545, 0.008761259, 0.0002735777, 0.0044151614, 0.0015035858, 0.0021754522, 0.0064910627, 0.0064980187, 0.0050665205, 0.007669932, 0.0027146097, 0.00601667, 0.0042204806, 0.0063947593, 0.0002947043, 0.007253269, 0.0030809485, 0.0027703904, 0.0038071377, 0.0075603235, 0.0020000553, 0.00093148893, 0.005835806, 0.0024391676, 0.0041344166, 0.0005838721, 0.0033097842, 0.002845067, 0.00036393682, 0.005510969, 0.0063079116, 0.005514438, 0.007512387, 0.0023245544, 0.0076752137, 0.0028391683, 0.0005116462, 0.003533108, 0.0073916074, 0.0023076443, 0.0028544278, 0.004823352, 0.006183675, 0.0015553721, 0.0081364475, 0.001984272, 0.0051495517, 0.0022806188, 0.006012759, 0.0066577164, 0.004818155, 0.00035589177, 0.005692009, 0.0056881057, 0.0051601836, 0.007663974, 0.001108808, 0.0032474156, 0.007938377, 0.003974257, 0.0028594069, 0.0016228503, 0.0042544175, 0.004766607, 0.008207106, 0.006071703, 0.003929348, 0.008023794, 0.0038184673, 0.003240056, 0.0061542443, 0.0055394974, 0.00024564957, 0.007207494, 0.0035746184, 0.0037268451, 0.0015997543, 0.0057699815, 0.0012197726, 0.0068302345, 0.0039328253, 0.004255337, 0.006203142, 0.0010409579, 0.0050651543, 0.0041503543, 0.008344414, 0.008256425, 0.0030965472, 0.0028158722, 0.0069128294, 0.008400364, 0.0071459403, 0.0049699997, 0.0057316227, 0.0052371286, 0.00592317, 0.004446036, 0.00083270425, 0.005123958, 0.0045511876, 0.005614728, 0.004733822, 0.008541205, 0.0050032535, 0.0017362406, 0.0034949973, 0.001594115, 0.0056036445, 0.004561501, 0.007428296, 0.0003412607, 0.00203979, 0.0058659087, 0.00041163975, 0.001153828, 0.0069325264, 0.0039781467, 0.0037506, 0.0028230643, 0.0059629055, 0.0083849, 0.0040046405, 0.005107458, 0.00013847096, 0.0062354235, 0.0060810484, 0.00425923, 0.00012926031, 0.0015457267, 0.0037531648, 0.003920747, 0.005593033, 0.0030238854, 0.004754806, 0.0009683173, 0.0044422057, 0.0072008357, 0.0016794521, 0.0026244782, 0.0051426403, 0.0015908914, 0.0024383196, 0.0065917973, 0.0030208002, 0.0037116052, 0.00838142, 0.0047534374, 0.0041931113, 0.0048991228, 0.00137755, 0.004364331, 0.0026827776, 0.0002107234, 0.0056581018, 0.00059169816, 0.0029749123, 0.0032193407, 0.00605315, 0.00021037587, 0.006454167, 0.006085446, 0.002528754, 0.006584919, 0.005900462, 0.0080685755, 0.0014581749, 0.0052230624, 0.0064641857, 0.0032160128, 0.008489891, 0.00020593057, 0.0023352855, 0.0066482453, 0.0026829466, 0.0019952997, 0.0018684475, 0.003825579, 0.0009162108, 0.0053985133, 0.0021946393, 0.0037978, 0.0023184172, 0.008500913, 0.0011472945, 0.005574153, 0.0026736963, 0.005492375, 0.00073260476, 0.0024054737, 0.0007396693, 0.006634346, 0.008735292, 0.006256158, 0.0016090616, 0.008241758, 0.006517529, 0.0046259128, 0.0031289798, 0.00848438, 0.008453761, 0.006608245, 0.0019595264, 0.0020916215, 0.0066325935, 0.00744062, 0.003378335, 0.008156982, 0.0060656453, 0.0062009506, 0.0036678773, 0.0015947934, 0.0006971939, 0.007984757, 0.005124783, 0.0054131523, 0.00047245738, 0.007084383, 0.0021031308, 0.0062358677, 0.00069768546, 0.0005741137, 0.0006937499, 0.005610295, 0.00086299557, 0.008488972, 0.006832106, 0.0018966878, 0.0067582815, 0.008107167, 0.005608842, 0.0023291681, 0.005163287, 0.0060699712, 0.0054261405, 0.0020231665, 0.0043265424, 0.0056351763, 0.005967595, 0.0014201561, 0.0048087053, 0.0015341603, 0.0020249735, 0.0033803023, 0.0009069413, 0.0010623874, 0.0016720749, 0.0076786336, 0.0019852647, 0.0029324805, 0.0058572693, 0.0045563453, 0.007763927, 0.0012727634, 0.0034395347, 0.0069778617, 3.6762045e-05, 0.0008624604, 0.006447873, 0.006646111, 0.00661004, 0.0072286967, 0.005010189, 0.0008901481, 0.0063396664, 0.0018037733, 0.0003317631, 0.0035653946, 0.0009337142, 0.0035386295, 0.008653199, 0.0006270024, 0.0071090716, 0.005110445, 0.0020299614, 0.0058329324, 0.006819046, 0.0004537085, 0.00047328288, 0.0065418817, 0.0007170045, 0.0050288187, 0.008053663, 0.0067807464, 0.0070334706, 0.004343295, 0.007872908, 0.0070334706, 0.0043957913, 0.004338479, 0.0005684076, 0.0072317943, 0.00859804, 3.788267e-05, 0.0064465096, 0.001507843, 0.0051052184, 0.0016767518, 0.0025427088, 0.0029702408, 0.005904027, 0.00041779157, 0.0066400096, 0.0029652887, 0.006631805, 0.0004978997, 0.00596686, 0.005275258, 0.0031071217, 0.0046475697, 0.00526404, 0.008062764, 0.0036000102, 0.004111786, 0.0042164614, 0.0019179126, 0.0035990414, 0.0077523827, 0.0066055995, 0.0069821486, 0.004229387, 0.00018000373, 0.0072956216, 0.0072679226, 0.0054965587, 0.0064662085, 0.0075617875, 0.002074785, 0.0034504745, 0.0061470144, 0.0024041615, 0.0003321242, 0.0057502184, 0.0004566877, 0.0062200404, 0.0044384184, 0.008641187, 0.001421669, 0.003421665, 0.00054380903, 0.0061639384, 0.006073145, 0.002205254, 0.0072291945, 0.007931945, 0.005376412, 0.0037142215, 0.006623772, 0.0030333786, 0.002005894, 0.00031201015, 0.003084575, 0.005257458, 0.0073760627, 0.00034876104, 0.00016034208, 0.0009847716, 0.006847297, 7.008763e-05, 0.0025843196, 0.006846112, 0.0031887083, 0.00681232, -0.031376936, -0.06131503, -0.0037473575, -0.010364771, -0.2614924, 0.008480797, 0.052392278, -0.04134815, -0.0036581936, -0.05112875, 0.0015463678, 0.04190537, -0.05527154, 0.020985259, 0.082209334, 0.024739256, 0.0143757295, 0.08023552, 0.002184879, -0.011579582, 0.061891623, 0.027514355, -0.15745021, 0.024246948, 0.08769917, -0.032252822, 0.043966163, -0.07409782, -0.05541863, 0.0058002584, 0.06142297, -0.11413595, 0.10829835, -0.011667143, 0.122521885, -0.001771072, 0.05048145, 0.03862437, 0.08015445, 0.053595517, -0.048129182, -0.003207383, 0.009370309, 0.14412236, 0.061199814, -0.0021864325, -0.10039336, 0.030654797, -0.09365783, -0.07573391, 0.06487943, 0.004510767, 0.038839024, 0.11790247, -0.016825933, -0.60807943, -0.0690703, 0.010536064, -0.09247448, -0.31228748, 0.037534636, -0.0010075989, 0.052791856, 0.048177533, -0.01462606, -0.07601346, -0.03253806, -0.10071121, -0.064452596, -0.02701197, 0.017042201, -0.05637191, 0.075672396, -0.1210627, 0.018664561, -0.12748536, -0.33652103, 0.07836875, -0.075791135, -0.050741278, -0.060909126, 0.037150126, 0.006954192, 0.087110825, -0.037050117, -0.08031859, -0.036708213, 0.022729015, 0.06417191, 0.021258924, 0.03794123, 0.15275422, 0.022979617, -0.024692468, 0.024645356, -0.31753105, 0.081308916, 0.07036732, -0.0084856395, 0.0053615756, 0.12958582, 0.061581247, 0.11737173, 0.010684866, -0.15687783, 0.085056335, 0.026476605, 0.11201238, 0.03965354, 0.079598114, 0.0028806436, -0.080675915, -0.11010955, -0.020109091, 0.045639772, -0.02442093, -0.73483783, 0.0026633027, 0.038792033, -0.43780813, 0.06316572, -0.08413442, -0.06627886, -0.25636536, 0.047753878, 0.05341944, 0.10783401, 0.075813755, -0.01732075, -0.042550035, -0.005204495, -0.08012654, -0.0048480635, -0.024165273, -0.07790739, -0.027163886, 0.010676168, -0.00020697326, 5.6129153e-05, 0.022350954, -0.59931695, 0.028928233, -0.11795476, -0.018581945, -0.038110886, -0.0002458896, 0.023183541, 0.057304733, -0.026760308, 0.028054303, -0.13794541, -0.12630726, -0.11191906, -0.011064651, 0.11216204, 0.022141663, 0.09002546, 0.016678168, -0.009447147, -0.05932814, 0.032027673, 0.00833154, 0.0148653295, -0.061119407, 0.11249746, 0.13337411, 0.16402031, 0.02571605, -0.014093538, 0.023448624, 0.1461058, 0.059495036, 0.08338126, 0.025640162, 0.012665477, 0.05762962, -0.09814149, 0.012490428, -0.078929216, 0.030209227, 0.0421958, 0.053114403, 0.020786764, -0.055230126, -0.096331626, 0.025380278, -0.12611085, -0.52644396, 0.038040105, 0.04740877, 0.084965065, 0.077292934, 0.0074558696, -0.013001131, 0.004292692, -0.02670428, -0.19518687, -0.029555624, 0.090647, -0.076400034, 0.0035202408, -0.047486994, 0.11966238, -0.17446552, -0.28297618, -0.04475337, -0.1528393, 0.028979698, -0.025991557, 0.04730013, -0.13137606, 0.03902434, -0.039838646, -0.06653906, -0.22337444, 0.12208453, 0.06157055, 0.01759746, 0.013066465, 0.08671743, 0.03463794, 0.101211414, -0.16931786, -0.02516187, 0.052214254, -0.0029777694, 0.027110994, -0.13564995, 0.018469417, -0.16886932, 0.059421487, 0.043993138, -0.0008056537, 0.018885024, 0.22761804, 0.022014707, 0.18415931, 0.026058096, 0.046522878, -0.100823045, 0.05792513, -0.105178684, 0.009767901, 0.022571253, 0.016198229, 0.08213285, 0.13497615, 0.046056475, -0.041812036, -0.0013470709, -0.0050380398, -0.32575187, -0.05076906, -0.014997559, -0.019384442, 0.019869953, 0.004791745, 0.047529753, 0.0715168, -0.043614987, 0.006934624, -0.02385258, -0.06438575, -0.005780115, -0.0005497324, -0.09366342, 0.016147379, -0.28932917, 0.0050719944, -0.14001168, 0.022037856, -0.019137068, -0.020174677, 0.117811136, -0.11251163, 0.047270913, 0.006211891, -0.018381044, -0.080803245, -0.11790905, -0.012909482, 0.06537521, 0.041736975, 0.049017984, 0.09798477, 0.10854424, -0.06255956, 0.07911549, -0.015749952, -0.01896767, 0.011371371, 0.05219786, -0.013869182, -0.103055745, -0.0097719645, 0.09971047, 0.054523807, 0.013233276, 0.04025116, 0.018525451, 0.035863213, 0.021821093, -0.004096275, 0.10950857, -0.10308011, 0.05259566, 0.05593028, -0.010532699, -0.68546844, 0.1258928, 0.013855692, 0.06995764, -0.021153195, -0.17335413, -0.05220336, 0.04785597, 0.07629926, -0.009761117, 0.08003862, 0.18226595, 0.105641134, -0.099580765, 0.020618323, -0.12187041, -0.080452666, -0.013656787, -0.02743408, -0.11742707, 0.059228934, -0.026234984, -0.0032055099, -0.19735661, 0.03009607, 0.0010926508, -0.14432472, 0.018464934, -0.040803976, 0.12121051, -0.12605469, 0.045803394, 0.03406778, 0.20962274, -0.08777282, 0.0043144845, 0.06126629, 0.043116998, -0.06307582, 0.058003727, 0.01961316, 0.061002694, -0.15238315, 0.030564338, 0.012596363, 0.057748422, -0.015983092, -0.2231474, 0.03820434, -0.21203388, -0.082138486, 0.015022817, 0.07714947, 0.059307687, 0.035109516, 0.16798866, 0.06923695, 0.054604046, -0.07263551, -0.06775848, 0.06478962, -0.018219896, 0.092983454, 0.0042020897, -0.9003906, 0.09001349, -0.018155733, 0.042185724, 0.060978908, 0.113709904, -0.15297875, 0.071563505, 0.0684929, 0.03208021, 0.09638523, 0.18460146, 0.06733546, -0.119696945, 0.040153105, -0.09708588, -0.06140556, 0.0052138614, -0.051307216, -0.0033416075, 0.10087501, -0.12231421, 0.018888867, -0.117150195, 0.01950009, -0.28715754, -0.08067016, -0.07682907, -0.07729621, 0.0969755, -0.09407011, 0.11645349, 0.013587542, -0.004926239, -0.28352737, -0.042236913, 0.13759948, 0.00869431, 0.044044495, -0.033898387, 0.06768, 0.030157464, -0.06179553, -0.001320194, -0.04706104, 0.10323675, -0.024603672, 0.15439501, 0.080925174, -0.21961556, -0.26891392, 0.065575585, 0.18221627, 0.1102419, -0.02645147, 0.23041394, 0.06511933, 0.10452716, 0.02599808, -0.033977374, -0.069538526, 0.007030004, 0.01741874, 0.047822766, -0.79147035, 0.036094308, 0.046409495, 0.039632663, -0.0121231815, 0.09538329, 0.005901666, 0.06391338, -0.06660455, 0.06512623, 0.05034065, 0.09329475, 0.08039328, -0.040979534, 0.013462145, 0.0099299215, -0.016421102, 0.01745404, 0.037382897, -0.013121029, 0.027338156, -0.02036367, 0.02339644, -0.031054461, -0.008155019, -0.05039419, -0.089867115, -0.0126341125, -0.0024872413, 0.06169865, -0.10597442, 0.021606583, -0.0067008873, -0.03017955, -0.18694326, 0.1442554, 0.08986247, -0.0076486757, 0.07630355, 0.066093296, -0.11179078, 0.0428655, 0.03898864, 0.017915383, -0.5357575, 0.034541067, 0.022125443, -0.020968312, 0.06407652, -0.018872876, -0.20127097, 0.080739096, 0.11723367, 0.039733373, 0.0011538732, 0.23901166, 0.049379483, 0.04574275, 0.029464638, -0.030437002, 0.044704743, -0.037215993, 0.035858613, 0.006308669, -0.8429257, 0.01566244, 0.016392075, 0.04266278, -0.14728272, 0.07354457, -0.010502489, 0.045912966, -0.018982198, 0.012911238, 0.055948615, 0.011285504, -0.006974252, -0.07414833, -0.0003257675, -0.015503585, -0.2746944, -0.014053434, 0.08692981, -0.037231494, 0.038232226, -0.06884689, -0.009182393, -0.040358983, -0.036831796, -3.1378535e-05, 0.09200961, 0.07869257, -0.0070769438, 0.08323483, 0.007907303, 0.031011388, 0.0965107, -0.019859191, -0.20925973, 0.04399426, 0.17514604, -0.011525014, -0.051404186, -0.11833563, -0.016848033, -0.01371881, 0.06384883, -0.1802787, 0.08561153, 0.03876912, 0.098372996, -0.07258224, 0.08261002, 0.09828441, 0.09674656, 0.0382347, -0.077374004, 0.03990997, -0.030815754, 0.09153, 0.04453553, 0.036415264, 0.010958949, 0.045730524, -0.04602797, -0.060304776, 0.059696797, -0.03226888, 0.06404649, 0.059767522, -0.0041111973, -0.5791566, -0.08777754, -0.006217747, -0.032713063, -0.07059888, 0.072601646, 0.03010858, 0.07397901, 0.057619996, -0.033011258, -0.04839896, -0.03770078, -0.046401802, 0.12283749, -0.050539088, -0.05931267, -0.033022113, 0.04520543, -0.060821075, 0.0017516555, -0.10061053, -0.2542296, 0.052643556, -0.01910989, -0.06770598, -0.030195134, 0.034437694, -0.065389074, 0.058099262, 0.029843813, -0.12066527, 0.007091781, -0.03045282, 0.092839554, -0.05534356, 0.06390275, 0.115923055, 0.036329117, 0.023776356, 0.020092988, -0.23862487, 0.07397985, 0.04113291, 0.018147299, 0.048998363, 0.12908919, 0.006647085, 0.071683556, 0.029696904, -0.13044176, 0.039383397, 0.05238578, 0.034876294, 0.082180165, 0.033718195, -0.12912701, -0.069512166, -0.061172962, -0.02791108, 0.013312531, 0.003700235, 0.0058753737, 0.07068755, 0.011486767, -0.471556, 0.0074709365, -0.12759985, -0.12293638, -0.44208404, -0.021006823, 0.03294532, 0.10811329, 0.078552656, -0.03191836, -0.1517996, 0.027305238, -0.05574736, 0.09130044, -0.049389493, -0.08475704, -0.039737806, 0.062301874, -0.0062342575, 0.0070134657, -0.0010856609, -0.79021037, -0.006296072, -0.06616956, -0.065524764, -0.06892287, -0.0065804436, 0.04700726, 0.092673376, -0.12826252, -0.0019687144, -0.25304502, -0.1725116, -0.052647855, 0.049601622, 0.04086561, -0.03614679, 0.14848298, 0.054951806, -0.029349657, -0.24185003, -0.0071774786, 0.060191438, -0.014784452, -0.13003252, 0.14526235, 0.14010271, 0.05163935, 0.010959869, 0.010064137, 0.07669044, 0.032380674, 0.00905075, 0.09477992, 0.074745536, 0.06715743, 0.09791749, 0.027466165, 0.056445666, -0.037335303, -0.03901169, 0.020474704, 0.053186785, -0.045363497, 0.0041559795, -0.09158612, 0.12757432, 0.012356877, -0.43547013, -0.02557282, 0.035600107, 0.12663312, 0.02111681, 0.10974512, -0.007827788, -0.04873726, -0.06529036, -0.06644174, -0.08444516, 0.021280775, -0.11945922, 0.00651487, 0.022830775, 0.019922609, -0.044089288, -0.2715514, 0.0021463153, -0.035102665, -0.0031931563, -0.026365038, 0.07343154, -0.0881639, 0.060789954, -0.1087794, -0.12624368, -0.07534657, 0.086742215, 0.01673463, 0.017523782, 0.050522834, 0.072624065, 0.00040132384, 0.07940002, -0.07393129, -0.06717576, -0.009419709, -0.000531688, 0.0016882337, 0.039415248, 0.056653958, -0.15109879, 0.030074244, 0.10221, -0.012955565, 0.029467892, 0.080400035, 0.06648015, 0.068599015, 0.04273229, 0.022969887, -0.060004495, 0.07344904, -0.082784355, 0.000822601, 0.07153269, 0.006600221, 0.011768856, 0.027796777, 0.07078382, -0.10390171, -0.08350308, -0.09943245, -0.34868672, -0.057206783, -0.021653075, -0.062550455, 0.021903997, 0.028113281, -0.042157825, 0.04338978, -0.043219272, -0.018481046, -0.06195474, -0.102112904, -0.03420341, 0.07133252, -0.05682442, 0.011322395, -0.092990726, -0.0021820087, -0.019440703, -0.07963955, 0.011198071, -0.091079876, 0.06794049, 0.04630341, 0.114009306, 0.099016525, -0.08799438, -0.06964382, -0.075151406, 0.05601268, 0.057643116, -0.013129301, -0.008098676, 0.083542936, 0.14765999, -0.25919208, 0.0021958635, 0.008023767, 0.06752809, 0.034658093, -0.051995035, 0.12829654, -0.087190896, 0.05184548, 0.091976516, 0.03295488, 0.0969996, -0.00089348934, 0.11103459, 0.053261004, 0.097548, 0.057808023, 0.105225466, -0.017455421, 0.049176246, 0.023277728, 0.061791655, -0.5668296, 0.071642034, 0.0012912519, 0.05683415, 0.08696123, -0.050320525, -0.01624484, 0.042021055, -0.095137246, 0.03953369, 0.06753134, 0.11380018, 0.09249789, -0.08302964, -0.0035161502, -0.052311443, -0.09055265, -0.048128217, 0.009494268, -0.096601166, 0.03217167, -0.07051746, 0.058252897, -0.07443899, -0.018042073, 0.13215631, -0.08381186, 0.024713945, 0.026450025, 0.1678405, 0.072429195, 0.06473004, -0.06893887, 0.085908815, -0.27924958, 0.1530545, 0.045651685, 0.033861503, 0.012850918, 0.06435945, 0.032831665, 0.06880635, -0.16700575, 0.041623157, -0.0034790556, 0.0011645484, 0.0113375345, -0.18229039, 0.05603186, -0.09500144, 0.028427389, 0.08686016, 0.12215487, 0.030122217, 0.011839297, 0.21920517, 0.044860225, 0.025736641, -0.015772553, -0.087661855, 0.012217309, -0.015282603, 0.017839072, 0.014495377, -0.1663658, 0.11057415, 0.11988869, 0.03856862, -0.014980058, 0.09637912, -0.09745468, 0.06315287, 0.022167172, -0.034795508, 0.053558435, 0.12959574, 0.12272992, -0.14556931, -0.008079462, -0.043669205, 0.0033900957, -0.031576496, -0.013490912, -0.0069142627, 0.08242248, -0.028541451, 0.0069330474, -0.053250775, -0.004731858, -0.08244669, -0.08614338, -0.049052756, -0.06878576, 0.058058694, 0.08450098, 0.11313318, -0.02306266, -0.0818333, -0.06918828, -0.03977602, 0.16060519, 0.0063699237, 0.009860713, -0.043475527, 0.006164273, 0.051950462, -0.05115659, 0.020527102, -0.03792263, 0.08142584, -0.02784154, 0.115081094, 0.07889948, -0.10948867, -0.24258919, 0.05499185, 0.13472833, 0.089528024, -0.0638422, 0.27452248, 0.07020544, 0.09124839, 0.021359755, -0.023097519, -0.01758341, 0.0083933305, 0.04159766, 0.008254081, -0.9034915, 0.06411892, -0.037297092, 0.042806033, 0.00050178077, 0.18784507, -0.01552353, 0.08103786, 0.10823632, 0.0430061, 0.022160128, 0.10268981, 0.07132705, -0.115707085, 0.101973005, 0.014081036, -0.016253551, -0.007398907, -0.016828582, -0.052397072, 0.034855008, -0.004625119, 0.04109522, -0.042901818, -0.016173324, 0.013020465, -0.069058925, 0.04557336, -0.0014544163, 0.05359433, -0.08790082, 0.036892917, 0.014865729, -0.068408474, -0.27763686, 0.16105309, 0.038807545, 0.022882638, 0.0397622, 0.07594684, -0.1172847, 0.025442014, -0.0060738507, 0.03007994, -0.5374168, 0.037813265, -0.0026446523, -0.044157296, 0.07582913, -0.023944728, -0.13700944, 0.07843186, 0.10329766, 0.032652337, 0.0055888193, 0.23631778, 0.03221358, 0.031292778, 0.016312776, -0.01472581, 0.026688384, -0.023595085, 0.029489676, 0.047771033, -0.0061454363, 0.014497226, 0.04220796, 0.047025803, -0.1463993, 0.044800684, 0.08438186, 0.06496163, -0.13423042, 0.015607777, 0.04716221, 0.08451902, 0.0061253808, -0.09770514, -0.0130451815, -0.0007564507, -0.28163153, -0.022093777, 0.06691774, -0.051240653, 0.0039822287, -0.09416088, -0.013357146, -0.048067946, -0.062304664, 0.0051971036, 0.1109652, 0.020157907, 0.031181253, 0.02904161, -0.048798297, 0.021581508, 0.046147775, -0.07004467, -0.06869576, 0.039496757, 0.28793427, -0.07111273, 0.02552912, -0.055309184, -0.10813903, 0.043867167, 0.018760055, -0.101630315, 0.112939455, -0.009134107, 0.0505131, -0.04449653, 0.10490991, 0.073293954, 0.054057386, 0.0049859616, -0.11573991, -0.008643769, 0.02283186, 0.06354981, 0.05900621, -0.017021207, 0.06517103, 0.045965783, -0.061183415, -0.03585845, 0.062187552, 0.04317915, 0.0710922, 0.07945367, -0.013278117, -0.25184497, -0.025765, -0.03291059, -0.05746521, -0.32149312, -0.0161845, 0.0006924722, 0.08626517, 0.07324251, 0.013270812, -0.12707147, -0.007798334, -0.025721032, 0.17308708, -0.03995422, -0.003602374, -0.06307835, 0.13595729, 0.0154878395, -0.02407568, -0.13093354, -0.20535795, 0.048592262, -0.034031946, -0.02634175, -0.0784505, 0.04299448, -0.028721735, 0.15052274, 0.03977128, -0.10603494, -0.06151124, 0.024069188, 0.031981584, 0.015177213, -0.019943623, 0.05813523, 0.115811996, -0.031728934, 0.007094912, -0.3077729, 0.073304035, 0.1276068, -0.055385347, 0.011385116, 0.07252158, -0.06406654, 0.067058094, -0.0053861737, -0.05174491, 0.12588164, -0.00019239195, 0.051334385, 0.06455444, 0.13447835, 0.084506504, -0.12751327, -0.11245923, -0.06885399, 0.086032994, -0.016743783, 0.009011412, 0.062782705, 0.026965639, -0.14977564, -0.046055887, -0.08640614, -0.050541397, -0.42270583, 0.009431474, 0.08648571, 0.17610447, 0.059685666, -0.0061723283, 0.0085164625, -0.035477355, -0.03582483, -0.05539551, -0.03719246, -0.046789583, 0.027062124, 0.08389493, -0.00038692335, 0.03255301, 0.020635756, -0.41287193, 0.016091675, -0.012550917, -0.24165833, -0.035078544, 0.056484688, -0.06546414, 0.10829132, 0.08195792, 0.055148177, 0.11402677, -0.06583379, 0.057402242, -0.019209355, 0.011309287, 0.06352729, 0.1121709, 0.010441031, -0.080747426, -0.19440098, 0.022585068, 0.060060166, -0.016925093, -0.032425754, 0.19496164, -0.04610923, 0.052373532, 0.07685385, -0.022044068, 0.0696743, 0.036336582, 0.04106137, 0.067267604, 0.066666186, 0.01593288, 0.12343015, -0.023031605, 0.054883074, -0.054234475, -0.1304085, 0.025305165, 0.039532494, 0.008999273, 0.014295598, 0.06721518, 0.06971903, 0.040469624, -0.3672413, -0.07499899, 0.040850874, -0.009045493, 0.027331887, -0.048861735, 0.015742926, 0.05735338, -0.024042519, -0.06494669, -0.05517985, -0.0117732, -0.30508462, 0.054217253, 0.07801156, 0.11283167, 0.05171418, -0.07374591, 0.028078075, 0.050554026, -0.103167556, -0.024274904, 0.017465714, -0.012055617, 0.10344273, -0.25924373, -0.15971489, -0.14533302, -0.035716657, 0.0045899777, 0.04327075, 0.083617866, -0.040163036, -0.010413329, 0.0057270024, -0.10527607, -0.12062606, 0.023752807, 0.049812153, 0.002894736, 0.0017747487, 0.11648918, -0.06554163, 0.079950035, 0.07847037, 0.04102005, 0.066541515, -0.01711477, 0.0803057, 0.08416296, 0.06965448, 0.043998566, -0.115998246, 0.058486607, -0.052312396, 0.005085379, -0.0383489, -0.016564468, 0.08706005, -0.03551296, 0.06630649, -0.30753356, 0.0539931, 0.033342358, -0.35615855, -0.15435433, -0.020185808, 0.022433527, -0.16105229, 0.119203724, 0.000101203506, -0.043739364, -0.011569658, 0.028583499, -0.038540374, -0.10242289, 0.0522336, 0.14258045, -0.025556473, 0.12991863, -0.006940136, -0.03732685, -0.021204745, -0.094747186, -0.12181332, -0.07118864, 0.06800565, -0.031095227, 0.1628836, -0.7910975, 0.12254739, 0.059538767, 0.11997071, 0.08949855, -0.011283974, 0.008888176, 0.1530073, 0.08267845, 0.04965997, -0.20283243, -0.010303487, 0.0020265223, 0.11501629, 0.056957684, -0.028251456, 0.17846598, 0.03329686, 0.048598535, 0.07754372, -0.00029429354, 0.1282845, -0.05765094, 0.14842844, 0.046475828, 0.12011464, 0.122376956, 0.06691854, 0.026051363, 0.053959206, 0.047009736, 0.036949433, -0.8934228, 0.066359326, 0.09412729, 0.050955337, 0.13034494, -0.04309916, -0.11336873, 0.02258449, -0.042910937, 0.026914423, 0.014915297, 0.052687645, 0.110876285, -0.048005793, 0.0077560795, -0.050971765, -0.069972195, -0.045969356, -0.05945188, -0.061638582, 0.08972791, -0.052648563, 0.14908953, -0.035670098, -0.043819796, 0.050269574, -0.110926844, 0.035760336, -0.03934468, 0.059755024, -0.06999638, 0.1045955, -0.08741672, -0.15636061, -0.122140095, -0.04145785, 0.112469606, 0.109046794, -0.03290243, -0.041400667, 0.03427609, 0.06533004, -0.10901052, 0.042332653, -0.012511419, 0.093701005, 0.06992851, -0.088794015, 0.057929512, -0.26318246, 0.010784052, 0.12091563, 0.031542346, 0.08239767, -0.07557789, 0.29831505, 0.036219765, 0.08697131, 0.054678127, -0.103789344, -0.01110161, -0.010974034, 0.025904618, -0.016453328, -0.9657043, 0.05144868, -0.049089473, 0.031959012, -0.0755953, 0.24482344, 0.04429753, 0.050552856, -0.008187333, 0.07347276, 0.07464781, 0.13264608, 0.1298237, -0.1383768, 0.014363928, -0.023473043, 0.036105666, -0.030127708, -0.07918274, -0.010166942, 0.15577981, -0.0056299795, 0.014787147, -0.10021828, -0.009996597, -0.031391792, -0.097268745, -0.094326, -0.025022008, 0.051779035, -0.046183575, 0.119283296, 0.054819737, 0.039536294, -0.1552978, -0.04781471, 0.109371014, 0.06304921, 0.05221398, 0.099757664, 0.018384065, 0.016472638, -0.12300325, -0.0025431986, 0.03348057, 0.12355521, -0.018983677, 0.09009087, 0.086553946, 0.027198056, -0.057467185, 0.08599658, 0.1580786, 0.10680652, -0.028232954, 0.42519447, 0.026305987, 0.10303465, 0.0047213878, -0.046166684, 0.028059576, -0.042616025, -0.008310793, 0.04136882, -0.9277894, 0.01486403, 0.059997335, 0.025513543, -0.046039253, 0.09050039, 0.028859911, 0.06694677, -0.12653476, 0.093419105, 0.01880049, 0.09025758, 0.076770365, -0.049501978, 0.0272806, 0.01644639, 0.006041136, -0.014362299, 0.00032115143, -0.022738952, 0.042527, 0.08929869, 0.004708544, -0.0039603123, -0.03665804, -0.12219427, -0.008173213, 0.036035154, -0.0071312706, 0.036769614, -0.015110477, 0.07478564, -0.027364599, -0.11629507, -0.18424468, 0.10724182, 0.03168741, 0.037315704, 0.10039132, 0.08797353, -0.07594021, 0.05454717, 0.005326332, 0.043272614, -0.5474143, 0.041701872, 0.0046223872, -0.0130222365, 0.0705551, -0.06887608, -0.05096521, 0.08337651, 0.05666583, 0.043309577, -0.11083022, 0.3316394, 0.049140252, 0.04832626, -0.039278496, -0.021358375, -0.0084567405, -0.040507704, 0.0037198372, -0.009630218, -0.040186264, 0.008370403, 0.0694836, 0.030816464, -0.09337994, 0.09988417, 0.037010256, 0.060812883, -0.007227898, 0.048126288, 0.06401401, 0.07306705, -0.024818087, 0.057687335, 0.035520807, 0.019987365, -0.21294981, -0.02689658, 0.016325705, -0.07227479, 0.066707194, -0.10463181, 0.021780638, -0.029261334, -0.086725324, 0.0053906534, 0.060902774, 0.08597988, -0.010128772, 0.036652382, 0.04916678, 0.077332996, 0.037016816, -0.056508597, -0.19531593, 0.054333784, 0.3368923, -0.05006633, 0.026542751, -0.1118928, -0.13504091, 0.040609095, 0.0034166074, -0.118598714, 0.10800673, 0.06400283, -0.010213654, -0.025246711, 0.114291504, 0.078654945, 0.090543665, 0.009414153, -0.09671446, 0.059197094, -0.03678905, 0.062036917, 0.06688482, 0.05607913, 0.02266909, 0.051196523, -0.090223394, -0.031302422, 0.034405783, -0.036780063, 0.078187786, 0.045343757, 0.012760428, -0.09213703, -0.005605328, 0.0023898105, -0.1052459, -0.46032864, -0.000117084455, 0.031747084, 0.106382325, 0.098648734, -0.014235669, -0.05112149, -0.07889057, -0.024713729, 0.17239271, -0.023183893, 0.009596328, -0.004289554, 0.123585634, -0.0055855815, -0.079137005, -0.15784143, -0.12316064, 0.0027034138, -0.03763601, 0.004985572, -0.08565262, -0.016138341, -0.09292435, 0.10934877, 0.06697076, -0.022596674, -0.031009456, 0.054213043, 0.03666018, -0.071681224, 0.019173296, 0.051450826, 0.17038435, 0.004929565, 0.007231838, -0.32339337, 0.032051526, 0.13131462, -0.053209778, 0.015906552, 0.0866025, 0.06106513, 0.06633311, -0.050897963, -0.06699044, 0.10761187, -0.06567373, 0.0906257, 0.043655675, 0.111616954, 0.15710317, -0.14681752, -0.11627142, -0.05231434, 0.015064066, 0.11289353, 0.015431248, 0.0799981, 0.06257057, -0.035909504, -0.20058943, -0.08938128, -0.109267704, -0.54223865, -0.06405992, 0.107079, 0.11235523, 0.020354172, 0.024864852, -0.04666907, -0.013505226, -0.10268445, -0.08381763, -0.032461435, -0.00926507, -0.032604832, 0.13668497, -0.06259361, 0.046673957, 0.1453322, -0.06229147, 0.014810341, -0.014582645, -0.08915351, -0.089870445, -0.033648495, -0.1465484, 0.15945174, -0.032515343, -0.02407465, -0.08345075, -0.045372985, -0.0038136595, 0.0015693682, -0.015237389, -0.07078663, -0.039964333, 0.0028447341, -0.0316856, -0.23190148, 0.116896085, 0.12814672, -0.02791614, -0.053269476, 0.12625857, -0.19127974, 0.05973023, -0.040099274, -0.023204064, 0.13823934, 0.035937652, 0.09734623, 0.03880505, 0.15425624, 0.12996168, 0.0865571, 0.03418082, 0.051134307, -0.047103208, -0.04542153, 0.0072158687, -0.077216014, 0.12522572, -0.003330234, 0.20061633, 0.10470419, -0.03258561, -0.48254555, -0.029635686, 0.08226715, 0.030105162, -0.091702595, 0.06585501, 0.041227233, 0.031165376, -0.08191173, -0.075120896, -0.015783735, 0.05724939, -0.46057737, 0.14236735, -0.02358683, 0.41141883, -0.10710162, -0.1318005, -0.05111617, -0.082011215, -0.367158, -0.05314748, -0.037922654, -0.05090627, 0.13486925, -0.04824324, -0.10593992, 0.021140154, -0.036810134, 0.22912395, -0.042082064, 0.0020074921, 0.045447666, 0.016823042, -0.06981913, -0.106099375, -0.11031704, 0.006731789, 0.11047693, -0.007826663, 0.12566246, 0.13681597, 0.117589265, 0.07785702, 0.023046963, 0.056542676, 0.11041435, 0.08207572, 0.004616697, 0.03560036, 0.10310038, 0.18198748, -0.17110388, -0.02052207, 0.0044415575, -0.010606092, -0.05509726, -0.7974464, 0.052767407, 0.12290802, 0.041068926, -0.503101, 0.01548608, -0.009053936, -0.036303245, -0.14586417, 0.056334797, 0.19485408, 0.01452668, 0.16066764, 0.08122004, -0.16140544, -0.100488335, 0.05479979, -0.014035176, -0.011204702, -0.09731276, 0.1444449, -0.1094086, 0.5297576, 0.13797222, -0.06277025, -0.07906079, -0.058540497, -0.089259006, -0.104511514, -0.068202205, -0.040689923, 0.19359787, 0.07992085, -0.0012895847, -0.13392428, 0.24894924, 0.011544297, -0.008427845, 0.0053263665, 0.031026045, -0.058985796, -0.06679515, -0.1563168, 0.06238378, 0.10542877, 0.14798778, 0.035851542, -0.11407953, 0.10119883, 0.035821587, 0.04415182, 0.06919158, 0.022020439, 0.1623401, -0.051193852, 0.18990931, 0.026507808, 0.17362845, 0.014174944, 0.010095069, 0.11293525, -0.014404101, 0.0155063495, -0.11417198, -0.8900961, -0.044358782, -0.115963556, 0.03883058, 0.22043094, -0.0008917291, -0.04433348, 0.01965491, -0.17582837, 0.10091683, 0.043262884, -0.05176775, 0.11188547, 0.00800921, -0.08785059, -0.08034902, 0.02644669, -0.029942824, 0.006636731, -0.058723032, 0.16944046, -0.2798366, 0.22989641, 0.0150119355, -0.09233767, -0.089309305, -0.2000598, -0.0800292, -0.06952947, -0.03983573, -0.029344056, 0.13417768, -0.10710611, -0.091214895, -0.13191007, -0.26022547, 0.25029963, 0.049657837, -0.0032897692, 0.10892424, -0.0298872, 0.040143523, -0.15634233, 0.027290942, -0.1910299, 0.13903724, 0.095230065, -0.025360439, 0.118362986, -0.19854847, 0.029734038, 0.20554993, 0.010670689, 0.12538227, -0.10774919, 0.31918576, -0.003302553, 0.12845604, -0.098875, -0.11602242, -0.0129687255, 0.010074681, -0.05075487, 0.061027706, -0.9402141, 0.04881792, 0.12859342, -0.014063834, -0.13472256, 0.22601481, 0.080823876, 0.03678936, -0.08825007, 0.10143139, -0.030143384, 0.023567436, 0.04599422, -0.07197819, -0.040471535, -0.08986604, -0.017330635, -0.01444263, 0.004034633, 0.021507127, 0.1583461, 0.047570635, 0.039095867, -0.08852166, -0.09710472, -0.049199253, -0.052211598, -0.007761542, -0.06814786, -0.0083209155, -0.09764452, 0.16460298, -0.10599149, -0.09759544, -0.117468946, 0.04681222, -0.04905463, 0.004485741, 0.097892225, -0.018354792, -0.045508593, 0.020482702, -0.1117382, 0.01456736, 0.2103908, 0.15361291, 0.061134372, -0.015020119, 0.06633563, 0.17954981, -0.0132711, 0.15392394, 0.15944345, 0.16022469, -0.16381358, 0.46005476, 0.0029099016, 0.14478539, 0.014073156, -0.078743316, 0.062200263, -0.09004797, 0.025127476, -0.06917345, -0.93747944, 0.014305247, 0.020751078, 0.03561278, -0.0442299, 0.034665305, -0.068232335, 0.04197983, 0.029256, 0.13672595, 0.22193272, 0.053049076, 0.047263276, -0.07926396, 0.016780937, -0.037734535, 0.09046525, -0.0042042215, 0.031152014, -0.042909794, 0.1587992, 0.004687424, -0.011546391, -0.03512086, -0.0870928, -0.08136736, -0.0061291195, -0.027245736, -0.020674651, 0.03418535, 0.09940425, 0.12288021, -0.013065077, -0.115190804, -0.15436298, 0.0302506, 0.05052946, 0.062421735, 0.0052164793, 0.22840501, -0.14512175, 0.06373773, 0.027991066, 0.094349764, -1.046254, 0.12243582, -0.00051675446, 0.021802573, 0.06171114, -0.11668055, -0.03504149, 0.097711235, 0.0507216, 0.09997865, -0.081974685, 0.37759784, 0.0571314, 0.10087532, 0.044717573, -0.030206375, 0.012055761, -0.05124558, 0.0059994175, 0.07130441, -0.025346065, 0.083867535, 0.017160062, 0.016800689, 0.028404795, 0.114951305, -0.05587094, 0.06979313, 0.022584299, 0.09842284, 0.03893551, 0.048661076, 0.094168656, 0.21953629, -0.03027158, 0.0823708, -0.2528687, -0.02068595, -0.014457013, 0.009533529, 0.08746793, -0.03482398, 0.09736982, -0.042480957, -0.18556374, 0.02296429, 0.016202271, -0.0340963, -0.010631886, 0.057377562, 0.01727126, 0.07445558, 0.19757663, -0.16767554, -0.2931043, 0.024016304, 0.38377208, -0.103347, -0.053497564, -0.07973618, -0.31770527, 0.05241054, -0.0786262, -0.13079166, 0.17064579, 0.08215697, -0.23371369, -0.21220839, 0.12481206, -0.1093452, 0.074852295, -0.01296596, -0.09848965, 0.084071204, 0.010438975, 0.14705642, 0.09660309, 0.08239115, -0.0059893155, 0.037547886, -0.21160863, -0.058186635, -0.083883554, -0.13213779, 0.08424759, -0.00010789266, -0.1465992, -0.0370197, -0.01671663, -0.12342148, -0.049991004, -0.57392085, -0.029217899, 0.05316398, 0.26148298, 0.069925256, 0.091813356, -0.25113946, -0.039250012, -0.11187606, -0.025187062, -0.039245512, -0.08148394, -0.10386845, 0.05887194, -0.050982635, -0.02774769, -0.32276204, -0.1488455, -0.095892794, -0.049790055, -0.027196474, -0.014134165, -0.02187747, -0.05945507, 0.04236587, -0.026271451, 0.1206591, -0.5587332, 0.016604051, -0.18546048, -0.02806155, 0.05434779, 0.06440876, 0.15633813, -0.007765274, 0.017791381, -0.14447503, 0.049265116, 0.056324027, -0.10154631, -0.23365393, -0.19523917, -0.14382605, 0.21323, -0.19132817, -0.1148487, 0.05203759, 0.080381505, 0.10586305, 0.022550762, 0.056555893, -0.17614858, -0.41010967, -0.110291265, -0.025999174, -0.02586975, 0.08257079, 0.04439031, 0.13276754, 0.17451824, 0.0138761755, -0.18940017, -0.364531, -0.049223136, -0.4564309, -0.10134397, 0.019478338, 0.12777056, -0.027826788, -0.17799099, 0.063257195, -0.08647514, -0.33027124, -0.10960137, -0.00392845, 0.015854962, 0.09342962, 0.12435087, -0.15874597, 0.2517082, 0.0099677965, -0.23957942, 0.0123269465, -0.049025748, 0.008163131, -0.07762654, -0.12758829, 0.024883311, 0.11071027, 0.11510586, -0.2700646, -0.14694317, -0.03633686, -0.01340536, -0.136541, -0.031691726, -0.12638567, -0.13640332, 0.033105373, -0.015710704, -0.23212525, 0.1395492, 0.12468322, -0.020478891, -0.0264758, 0.18338773, -0.435182, 0.12672715, -0.10977899, -0.07669456, 0.10851545, -0.0977205, 0.16211264, 0.008786769, 0.10935951, 0.028085528, 0.102585, 0.08931869, 0.08716065, -0.14588663, -0.18252969, 0.0031029512, 0.016782666, 0.118045785, -0.012594006, -0.04437121, -0.0039808922, 0.03233864, -0.5796772, -0.05923676, 0.103703104, 0.13145453, -0.07009192, 0.12833832, 0.011149476, -0.080339774, -0.13676336, -0.07245148, 0.027004922, 0.14975967, -0.41851088, 0.117723994, 0.048868526, 0.63988256, -0.45666572, -0.17082559, -0.019471986, -0.036114313, -0.12006222, -0.071221545, -0.22628297, -0.19876474, 0.11443025, 0.23753585, 0.009053199, -0.15221022, -0.18045102, 0.21851324, -0.078401424, -0.008321563, -0.15390806, -0.0135910455, -0.09817397, -0.058883764, -0.10584089, -0.07184735, 0.11962346, 0.022143008, -0.036392245, 0.12607953, 0.052658018, 0.08767618, -0.1210437, 0.029709334, 0.117138736, 0.0137843955, 0.06943442, 0.007805417, 0.116448194, 0.052312706, -0.106921956, -0.032494415, 0.02988358, -0.07227082, -0.08759199, 0.04997477, 0.052787874, 0.2105173, -0.05086801, -0.37226263, 0.062838964, 0.05549659, -0.6114597, -0.057380028, 0.118345186, 0.036430504, -0.025469432, -0.05176583, 0.04556715, -0.034088433, -0.17505385, 0.058567774, 0.023336584, 0.024274707, 0.16575757, 0.11971487, 0.005017331, 0.63990617, 0.16175225, -0.16614565, 0.047836237, 0.04208825, -0.10765751, -0.08320436, -0.19099118, -0.026647812, 0.1078988, 0.0590122, -0.093700625, -0.21967901, 0.4021795, -0.13545199, -0.10692453, 0.18015501, 0.07861896, -0.0941069, -0.09144667, -0.103356, 0.107677944, 0.17900981, 0.1336451, 0.019507844, -0.1720816, 0.15196921, -0.6374255, 0.11315527, -0.021155251, -0.09620469, 0.12950648, -0.0070371064, 0.18371171, 0.026437402, 0.1299034, 0.15054744, 0.028745556, 0.01215304, -0.07558851, -0.031968758, -0.004979355, -0.8844047, -0.047728315, 0.23322107, -0.06698912, -0.070477545, -0.10302594, 0.10077207, 0.048169743, -0.107664466, 0.13647366, 0.041641515, -0.020419803, 0.16059485, 0.12909591, -0.068378106, -0.26848045, 0.041097287, -0.026747536, 0.06765883, 0.012346229, 0.18606335, -0.20760164, 0.35001373, -0.024208253, -0.19122456, -0.05954179, -0.19704579, -0.058001358, -0.071811914, -0.17387924, -0.028886931, 0.1840473, 0.051626187, -0.1388679, -0.10234947, -0.29439795, 0.16933933, -0.080928445, 0.01359235, -0.06732928, 0.22813182, -0.00036123372, -0.08244257, 0.048755802, -0.30286863, 0.18336798, 0.06261353, 0.104651436, -0.1308089, -0.073421784, 0.10043738, 0.15749586, 0.06257456, 0.19020441, -0.08283627, 0.33387104, -0.05125894, 0.18107145, -0.021686822, -0.15070327, -0.14482352, -0.07318803, -0.062016133, 0.00060782663, -1.0197471, 0.034147408, -0.0069672894, -0.0536012, -0.027063975, 0.159891, -0.013606584, 0.034814376, -0.112689026, 0.16694, -0.28416923, -0.078334525, -0.058135785, -0.018618993, -0.04169924, -0.30196145, 0.07303896, -0.016013708, 0.03862023, -0.082867645, 0.12030243, 0.13699722, 0.011519049, -0.2023026, -0.2435781, -0.037583742, 0.08373778, -0.00038475264, 0.0019017376, -0.14528565, -0.19307129, 0.04662783, -0.17216589, -0.05436725, -0.10678195, -0.037528805, 0.11114538, -0.020097977, 0.10331673, -0.12154133, -0.17819637, -0.0412587, -0.07491706, 0.21490999, 0.2126236, 0.12803786, 0.017479613, -0.081758976, 0.061531816, -0.06415662, 0.20311768, 0.078508176, 0.03301847, 0.09880164, -0.29951733, 0.4418458, -0.03362988, 0.096032955, 0.01874329, -0.08152071, -0.063429534, -0.08761091, -0.02710856, 0.02099335, -0.78410065, -0.033991985, 0.05593706, -0.08455998, -0.22711009, -0.02213516, -0.11833435, 0.07072597, -0.06819692, 0.16011754, 0.31054097, -0.35945997, 0.003358056, -0.027092904, 0.004779738, -0.11470256, 0.10760565, -0.034233112, 0.081555694, 0.06616281, 0.060806356, 0.07672511, -0.041834056, 0.02829849, -0.24843611, 0.045703966, 0.17331518, -0.036591273, 0.023549007, -0.019114476, -0.0364262, 0.088052474, 0.044274185, -0.10393598, -0.08125772, 0.04861002, 0.048974153, -0.13576703, 0.032703694, 0.14924304, -0.038433492, 0.14799026, 0.024820324, 0.2975185, -1.0470097, 0.064622134, 0.109181486, -0.0022388652, 0.08253582, 0.1296484, 0.06693274, 0.113325074, 0.02659952, 0.06976375, -0.08217935, 0.42157856, 0.029810257, 0.06521559, 0.06052648, -0.068383, -0.057863984, -0.05692031, 0.08924383, 0.07725716, -0.08619472, 0.1704712, 0.030021109, -0.0009999399, 0.03211488, -0.040410757, -0.019431548, 0.07578961, 0.053592186, 0.0613473, 0.026537254, 0.036683246, 0.03647392, 0.18626836, -0.12309426, 0.18458709, -0.25146893, 0.06240456, -0.0034688902, 0.1093164, 0.0954837, -0.13921878, 0.11122922, -0.13505778, -0.10370378, -0.026521891, -0.058727715, -0.097700104, -0.08032662, 0.0056193406, -0.12590337, 0.034275528, -0.047699984, -0.09856701, -0.47343236, -0.1734219, 0.2240971, -0.039787285, -0.039502624, -0.2973071, -0.43191576, 0.01241673, -0.1703472, -0.08855693, 0.12622166, 0.10742267, -0.030036753, -0.14001438, -0.047582783, -0.32543394, 0.15819891, -0.045052055, -0.282555, 0.09033997, -0.015025626, 0.18255503, 0.08508799, 0.09469053, 0.00045552664, 0.1802183, -0.040797923, -0.24442406, -0.43887594, -0.16114603, 0.029306684, -0.09258268, -0.16199721, -0.19679773, -0.17720705, -0.3918136, -0.18174079, -0.59738106, -0.048859216, 0.0816336, 0.29960844, 0.079213895, 0.13306455, 0.3065847, -0.05249914, -0.1525687, -0.005562523, 0.0083102565, -0.29839894, -0.06410511, 0.09483121, -0.13163325, 0.11210194, -0.64552724, -0.2492518, -0.15682562, -0.30411726, 0.04660282, -0.05802588, -0.44424003, -0.09898528, 0.0647578, 0.12253643, -0.07267588, -0.45135346, -0.16174075, -0.35459808, -0.096958205, -0.06595464, 0.048287265, -0.22334124, 0.05644573, -0.14088427, -0.44378802, 0.1679121, 0.08399045, -0.09937066, -0.33878314, 0.020056775, 0.25454992, 0.061025955, -0.019687483, -0.12931664, 0.09228048, 0.1663096, 0.1501779, -0.04718247, 0.084662795, -0.22449055, -0.44133264, -0.15265816, 0.06862513, -0.24425213, 0.14280702, -0.8088129, -0.0017071461, 0.24808565, -0.0717913, -0.2259494, -0.2591838, -0.30060285, -0.5271146, -0.22510728, 0.044710398, 0.07737961, -0.20273545, -0.081625655, 0.11400281, -0.11814112, -0.40601987, -0.052204512, -0.036907453, 0.0001689613, 0.08603648, 0.11296425, -0.43482542, 0.37063822, -0.42494738, -0.29813248, -0.00528034, -0.08646389, -0.1108468, -0.09010753, -0.106092826, 0.0038493432, 0.13555668, 0.28189987, -0.19153363, -0.23359102, -0.27482823, -0.15932752, -0.047825288, 0.13618258, -0.32750082, -0.18111533, 0.025592858, -0.029723885, -0.22938818, 0.1955975, 0.121180676, 0.048523996, -0.11432243, 0.11633543, -0.3035175, 0.14569703, -0.06523099, -0.07679448, 0.13717516, 0.2767588, 0.18692589, -0.06840231, 0.13789238, -0.09550198, 0.1525173, 0.027790114, 0.04362214, -0.21422903, -0.3959338, -0.804172, 0.005858924, -0.10705359, 0.014519977, -0.09322747, -0.1882222, -0.080320485, -0.47362897, -0.0706386, 0.10936102, 0.14455947, -0.09737703, -0.339408, 0.06837894, -0.037468527, -0.14769337, -0.078182384, -0.037118517, -0.030167896, -0.11983255, 0.14354452, 0.00032092843, 0.839199, -0.68419343, -0.18589592, 0.04558439, -0.056336533, -0.07972323, -0.07157606, -0.19149084, -0.13889237, 0.12617424, 0.010950069, -0.26613295, -0.078384705, -0.08751043, -0.0734849, -0.18427677, -0.008038402, -0.295309, -0.08378364, -0.17290758, 0.017447494, -0.18205446, 0.1651674, 0.14052594, -0.05949325, -0.16341652, 0.12713717, -0.10778173, 0.10100388, -0.19441265, 0.030661678, 0.13053848, 0.3175079, 0.1060098, 0.01609319, 0.13033338, 0.062780805, -0.6523481, -0.07256443, 0.076709755, 0.099361554, -0.16832839, -0.82051665, 0.021642976, 0.32752156, 0.06550008, -0.4129689, 0.17149925, 0.09811806, -0.010712883, -0.006916899, 0.12423168, 0.19250098, 0.16480425, -0.0059747784, -0.1528257, 0.0042928183, -0.01409493, -0.24641737, 0.07987722, -0.04477783, -0.14812702, 0.10250544, 0.11443767, 0.64333826, -0.04641221, -0.23951282, 0.10828668, -0.10771953, -0.045008823, -0.023972094, -0.22723356, -0.093170814, 0.09883632, 0.2170941, -0.24264166, -0.14566265, 0.19495492, -0.47335133, -0.40138677, 0.109665975, -0.13756803, -0.007273185, 0.0025957592, -0.09415788, 0.14414035, -0.09251641, 0.09891859, -0.037623204, -0.14507778, 0.054988064, -0.4922121, 0.30562124, -0.09440573, -0.25185072, 0.10389654, -0.0064911954, 0.31042156, -0.11557809, 0.105201244, 0.13875128, 0.041476812, -0.11713079, -0.288705, -0.11503641, -0.27220747, -0.9361129, 0.11036374, 0.020896824, -0.1934376, -0.057314392, -0.10508133, -0.13522597, 0.09563349, -0.24498335, 0.07299533, -0.0065788706, -0.017724216, -0.19011208, -0.30593002, -0.10177934, 0.15661004, -0.35797003, -0.08720881, 0.07331043, 0.032109417, 0.09129249, 0.046846524, 0.5582814, -1.0941576, -0.31638846, -0.06424749, 0.1034592, -0.061180152, -0.020709243, -0.26842007, -0.0068064416, 0.012677357, -0.023174392, -0.038682807, 0.37054178, -0.10915718, 0.35928842, -0.026256919, 0.057431012, -0.43021223, 0.2499507, -0.20844638, -0.16905928, 0.011201794, -1.0121143, 0.09721296, 0.023463717, -0.019730987, -0.16993116, 0.19486949, 0.2280902, 0.12319525, -0.054293264, 0.07501769, -0.13244411, 0.36346063, 0.021938993, 0.071556546, 0.09271547, -0.16269898, -0.0015525327, -0.30484492, 0.21501753, 0.051471725, -0.8938598, 0.10238279, 0.18733798, -0.12798853, 0.07198221, 0.22325286, -0.06197866, 0.06148337, -0.13664076, 0.109973595, -0.3716599, -0.22172411, -0.089865774, -0.26652378, 0.0059159365, -0.23366332, -0.13719179, -0.60998213, 0.33726543, 0.09523526, 0.17155612, -0.075080246, 0.13071343, -0.028538791, -0.17760196, -0.30175802, -0.34855497, 0.0038227781, -0.07664471, -0.18635212, -0.32440302, 0.2007569, 0.15343992, -0.12945001, -0.08989568, 0.09841417, -0.051044606, 0.064194284, 0.13095596, -0.041530423, -0.34677988, -0.045329478, 0.1743992, 0.37902215, -0.051437914, 0.17654598, -0.1839676, -0.06904955, 0.10487381, 0.32988924, 0.3270132, 0.11724863, -0.029455781, 0.19005427, -0.29035708, 0.51225907, -0.08159211, 0.19420724, 0.17853507, -0.061550334, -0.014938576, -0.19790238, -0.037199233, 0.006451159, -0.96646136, 0.116753206, -0.057525378, -0.12840573, -0.015951008, 0.06277295, -0.18908094, 0.06335288, 0.08398841, 0.14830706, -0.050908376, -0.58739895, -0.04374316, -0.27321413, -0.01279027, -0.250414, 0.18629538, -0.0947741, 0.21347876, 0.066090114, 0.1549462, -0.15274741, -0.040938087, -0.20052384, -0.22318973, -0.07823096, -0.31575668, -0.08506538, -0.052889068, 0.029627994, -0.23422803, 0.1043609, 0.014601772, 0.115720816, -0.046749994, 0.10380183, 0.056257863, -0.17743072, 0.15819587, 0.0061661215, -0.28548038, 0.16575062, 0.13574715, 0.31455824, -1.1331224, 0.14402506, -0.18936421, 0.117107525, 0.08887773, 0.38762686, 0.16844109, 0.0961052, 0.022568854, 0.13288274, -0.30035, 0.43057445, 0.012946041, 0.12884338, 0.23609805, 0.081598744, -0.2146264, -0.48847368, -0.040475603, 0.03480763, -0.97072697, 0.100492954, 0.14950645, -0.11889224, 0.20670106, -0.40382457, 0.20912494, 0.0568187, 0.14547521, 0.13439772, 0.23982878, 0.039862942, 0.0051445574, 0.008756059, 0.008200922, 0.004781676, 0.0039947284, 0.00038629706, 0.00196443, 0.006980469, 0.0066709635, 0.006048683, 0.0020467811, 0.0018505019, 0.0057513826, 0.00033157482, 0.00054345094, 0.0016500453, 0.00616286, 0.0036780648, 0.0019100378, 0.00049471477, 0.0033943066, 0.007048546, 0.0047377287, 0.006808686, 0.0061925817, 0.0029964987, 0.0058915955, 0.0018939137, 0.0065941405, 0.0011034522, 0.004040942, 0.007156102, 0.0011531191, 0.003945957, 0.0071703433, 0.0040117293, 0.0077534546, 0.005700269, 0.0030577532, 0.0003581214, 0.0022773412, 0.002625124, 0.0052041626, 0.0012436896, 0.008003853, 0.0076638693, 0.008122271, 0.008044814, 0.005682135, 0.0060752532, 0.004202148, 0.008237104, 0.0025894805, 0.0016146498, 0.008070663, 0.004980448, 0.007386229, 0.004704509, 0.0009063672, 0.00070072245, 0.0025654233, 0.0029784283, 0.002065462, 0.0016599502, 0.004813946, 0.002394456, 0.0059396364, 0.0015271433, 0.0069212336, 0.00030422388, 2.0011588e-05, 0.0027976236, 5.8947287e-05, 0.002600481, 0.0041340035, 0.0016125232, 0.007653856, 0.00062801805, 0.0059568956, 0.00024564617, 0.0016592836, 0.0019264142, 0.0017508707, 0.0058626183, 0.003707615, 0.0043944293, 0.007819592, 0.0043939413, 0.007170314, 0.004823339, 0.002461428, 7.900693e-05, 0.008511121, 0.00787101, 6.621725e-06, 0.0044714874, 0.0013377361, 0.00701136, 0.0029858127, 0.0007121053, 0.0042530494, 0.0017518988, 0.0028876509, 0.008741223, 0.001527894, 0.0041809743, 0.007262229, 0.008770954, 0.0056216596, 0.0035941794, 0.0041728364, 0.003516811, 0.00778807, 0.00014885412, 0.0001859771, 0.0042940937, 0.0063789887, 0.006652155, 0.005740019, 0.008775217, 0.0071596107, 0.008077304, 0.008412107, 0.0071999608, 0.007182785, 0.008598839, 0.0024817302, 0.0028973538, 0.008189309, 0.002037111, 0.006612921, 0.0066136317, 0.0078564435, 0.000888224, 0.0084990505, 0.0011801118, 0.0006832942, 0.004818951, 0.0038231825, 0.004262784, 0.004906069, 0.002376612, 0.0036510117, 0.00040903044, 0.0047806357, 0.0022043686, 0.0068099783, 0.0041857525, 0.00095650624, 0.0057234745, 0.0047308826, 0.008791165, 0.0075137364, 0.00014544163, 0.0036857307, 0.0017708793, 0.00041487886, 0.0058881696, 0.006798001, 0.0077534495, 0.0025271415, 0.0044808383, 0.0015907396, 0.005863846, 0.0044189715, 0.0029584048, 0.0025180543, 0.0062764585, 0.0026040096, 0.0055387015, 0.00042611573, 0.0042026914, 0.0004788401, 0.0062165936, 0.004127608, 0.0014146396, 0.0004502021, 0.00523272, 0.005252327, 0.0022279185, 0.007824401, 0.00536667, 0.0035553188, 0.00373944, 0.008357885, 0.0043352293, 0.0005184433, 0.0046321065, 0.0048610414, 0.005365631, 0.007188244, 0.0033673642, 0.0016801216, 0.0012328948, 0.0022662468, 0.004333815, 0.00018853608, 0.004439391, 0.004593276, 0.0044797664, 0.006367221, 0.0019751363, 0.0006943923, 0.0010377984, 0.002225514, 0.004576283, 0.0029089267, 0.007603262, 0.0067007747, 0.0036795626, 0.008672878, 0.0007078081, 0.006258614, 0.0075798114, 0.008529672, 0.008305092, 0.0005267932, 5.187909e-05, 0.0037156765, 0.008722856, 0.0009801891, 0.00093399896, 0.008308387, 0.004435181, 0.0006639191, 0.0015954863, 0.0068328725, 0.00011787177, 0.003044898, 0.008715509, 0.007826826, 0.005380534, 0.0079455655, 0.004354883, 0.0063369013, 0.0018258909, 0.0030502877, 0.0086773895, 0.0050474755, 0.006459877, 0.008635733, 0.0008379049, 0.00072813436, 0.0012331079, 0.0077080643, 0.0014472703, 0.0063030603, 0.0028991562, 0.00024210481, 0.0041666282, 0.005600061, 0.0067684557, 0.0034133948, 0.0062762033, 3.0546365e-05, 0.0021808285, 0.006462267, 0.00873678, 9.434801e-05, 0.008582085, 0.0033849047, 0.003087345, 0.004174808, 0.0044736397, 0.006455578, 0.007144209, 0.0071464004, 0.006576714, 0.0018256451, 0.0027446838, 0.00477704, 0.00016099759, 0.0069863256, 0.001492581, 0.002850254, 0.0022454006, 0.001321449, 0.0069569573, 0.0058181705, 0.0060513075, 0.0019441526, 8.31386e-05, 0.0013536796, 0.005239001, 0.0051794476, 0.004364087, 0.005022933, 0.0017268083, 0.006048604, 0.0073228925, 0.0059671625, 0.002500683, 0.007941987, 0.008265195, 0.003809556, 0.0047194543, 0.0057778344, 0.0014517038, 0.0027949072, 0.0049093347, 0.0024916462, 0.0011539636, 0.0057465113, 0.0053603384, 0.00085586193, 0.0022986145, 0.0071147378, 0.00034782535, 0.0082901195, 0.0056575355, 0.0017150932, 0.0007186761, 0.008636486, 0.0028412102, 0.0033479931, 0.0034379605, 0.005902539, 0.0071078534, 0.0036314838, 0.0043155393, 0.0087098945, 0.0074001625, 0.0028863975, 0.007272257, 0.004571697, 0.0016824112, 0.0057729045, 0.007613929, 0.0056960215, 0.003321282, 1.0220341e-06, 0.0043093236, 0.0014207287, 0.0022090792, 0.00028632893, 0.0061676134, 0.0040433365, 0.007219555, 0.005191378, 0.008043556, 0.005723661, 0.006076775, 0.0068914937, 0.0072052777, 0.0064366804, 0.0077010244, 0.0075242757, 0.0004992428, 0.0005946465, 0.005117634, 0.007144695, 0.0011700109, 0.006918209, 0.005012049, 0.001713241, 0.0051349197, 0.006215232, 0.0037802747, 0.0045723305, 0.008308262, 0.0014012402, 0.0026872333, 0.0032306039, 0.0037779976, 0.00018150604, 0.00021790818, 0.0075274995, 0.0029150357, 0.0055166706, 0.0018751624, 0.0065783304, 0.0066699004, 0.007130944, 0.0077070296, 0.004178003, 0.0069934027, 0.0006566471, 0.0021074833, 0.008755138, 0.008102066, 0.0054631215, 0.0062306486, 0.0069407406, 0.0033876756, 0.0007692569, 0.0009970655, 0.0022695756, 0.0013126172, 0.0005914886, 0.0025031853, 0.008406583, 0.005118283, 0.004799552, 0.004035225, 0.004603294, 0.0021387523, 0.005703846, 0.0073266854, 0.0002230872, 0.0031150526, 0.004952015, 0.0022470655, 0.005933576, 0.003960139, 0.0069339992, 0.0006120728, 0.008318392, 0.006981028, 0.007902386, 0.0016525295, 0.007611336, 0.0029063844, 0.004694344, 0.0011975062, 0.0051980526, 0.002558261, 0.003924612, 0.0070411093, 0.0025834139, 0.00782745, 0.005471812, 0.0002426977, 0.0063353893, 0.0009105363, 0.00086085283, 0.007897064, 0.0037425444, 0.00556343, 0.0016312117, 0.0032797083, 0.0004581447, 0.0037813603, 0.0048301397, 0.0008454621, 0.004629046, 0.0049747457, 0.0019257814, 0.0034135955, 0.0042867325, 0.006793325, 0.006349279, 0.0043181735, 0.008714378, 0.008196358, 0.0032480631, 0.004187155, 0.0039133616, 0.0023329218, 0.007933754, 0.005177785, 0.008060352, 0.0006233243, 0.0030965419, 0.0043106857, 0.0027019877, 0.005549375, 0.00012959733, 0.0069549102, 0.0061140507, 0.0004793871, 0.0010039194, 0.002894522, 0.007822567, 0.0049663535, 0.00031030766, 0.008077109, 0.00457845, 0.008648803, 0.007704543, 0.007579336, 0.0037621388, 0.00872849, 0.0038799234, 0.005466044, 0.00030367862, 0.0051477985, 0.0027314571, 0.0076416647, 0.0016603274, 0.00033074527, 0.0024672279, 0.0071179685, 0.0059477175, 0.0048007234, 0.005452511, 0.000105229534, 0.004838152, 0.0049358155, 0.008406199, 0.0050457944, 0.0037829513, 0.0044605536, 0.0025255214, 0.008659934, 0.0018053186, 0.0010227836, 0.0025180252, 0.00534272, 7.21448e-05, 0.007574759, 0.0047430387, 0.00524828, 0.0027450242, 0.0074041635, 0.0064815306, 0.0073788264, 0.0024428267, 0.0007408314, 0.008289583, 0.0008167998, 0.004309927, 0.0026093554, 0.1898364, -0.015415568, -0.00020525543, 0.044432938, -0.05387856, -0.17617746, 0.11952948, -0.12794971, 0.037925866, -0.13615316, 0.012065985, -0.012316988, -0.33814654, -0.110504575, 0.030345147, 0.042875897, 0.020880837, 0.19054773, -0.081414804, 0.030436981, -0.038658008, -0.17744233, 0.08148289, -0.41644004, 0.08920007, 0.10707449, -0.056232825, 0.124360316, -0.48800302, 0.05691059, -0.0879249, -0.11186388, 0.020419959, 0.0325994, 0.027086126, 0.070202366, 0.14172389, 0.24313976, 0.29859552, -0.035984028, -0.28161648, 0.024811491, 0.0014197537, -0.141395, 0.11987471, 0.03296805, 0.10834889, -0.19696797, -0.17186719, -0.24056031, 0.22823547, 0.13045602, 0.26078486, -0.14351457, 0.00745634, -0.024333064, -0.25606045, 0.116414994, 0.115753055, 0.13982531, 0.011526759, 0.02249399, -0.12093348, 0.043179166, 0.0708327, -0.10820138, -0.08426837, -0.0502046, 0.036445364, -0.12075782, -0.040291514, 0.020563472, 0.018517122, -0.0949092, -0.12873739, -0.09414176, -0.23306613, -0.12143418, -0.03125015, 0.021106051, -0.009733045, 0.16672352, -0.12717935, 0.004426344, -0.077699386, -0.09787284, 0.19406052, -0.074447684, -0.066174984, 0.11479986, 0.081505336, 7.024546e-05, -0.15916322, 0.12867258, 0.047696665, -0.11232873, 0.08893938, 0.031766176, -0.010818929, -0.08572432, 0.13939483, 0.15457557, 0.033766877, 0.09621843, -0.18031132, 0.013754632, -0.042345654, -0.21766962, 0.09821817, 0.011464256, 0.04335376, -0.15250266, -0.15004939, -0.18727969, 0.08687612, -0.020566856, 0.25797814, -0.085632324, 0.0048260856, -0.05427222, -0.12462159, 0.11001482, -0.0033015893, 0.15473293, 0.12559146, 0.043003537, -0.13226993, 0.15058239, 0.120097876, -0.12071651, -0.057324845, -0.021874316, -0.1376574, -0.11859873, 0.035570133, 0.023880694, 0.029762564, -0.0864645, -0.06372947, -0.033859782, -0.40888605, -0.12028096, -0.13054746, 0.06987064, 0.0024471234, 0.16685145, -0.10828685, 0.017143285, -0.1381433, -0.09851784, 0.079001844, -0.13118911, -0.071939796, 0.11409325, 0.009447347, -0.17473722, -0.24557388, 0.11890191, -0.14420024, -0.116101176, 0.0031804475, 0.035379224, 0.08206374, 0.012392175, 0.23573023, -0.008378355, 0.0914487, 0.04372077, -0.22079247, 0.043689724, 0.11881016, -0.15304503, 0.11506829, 0.043366615, 0.12611635, -0.14314604, -0.08671997, -0.16579309, 0.11554289, 0.19310571, 0.29292017, -0.3797341, 0.04651606, 0.028568637, -0.08086278, 0.059348173, -0.052678898, 0.16128203, 0.09421299, 0.063124314, -0.1593738, 0.07831231, 0.15116616, -0.050774917, -0.0374364, 0.015474264, -0.039404478, -0.1288088, -0.09935197, 0.04182784, 0.044028677, -0.120497204, -0.086849645, -0.08415834, -0.11862807, -0.106148176, 0.07481178, 0.002469396, -0.0071915668, 0.10661975, -0.1574287, 0.066828616, -0.08627441, -0.025021376, 0.006433607, -0.04312898, -0.0147025455, 0.23560451, 0.060295332, -0.013674803, -0.20492695, 0.13525175, -0.05981426, -0.0666597, 0.1154809, 0.03372021, 0.10622574, -0.08171451, 0.14843115, 0.03647352, -0.05120065, 0.14506562, -0.01800488, 0.05146651, 0.048869707, -0.13759586, 0.1138623, 0.04621754, 0.08173011, -0.13771164, -0.13994478, -0.13159159, 0.10861873, -0.09607653, 0.30073935, -0.04830989, 0.043730002, 0.12277031, -0.01596357, 0.098527044, -0.05196985, 0.17011996, 0.14152442, 0.05651289, -0.13622048, 0.048165314, 0.11114904, -0.10191983, -0.11032005, 0.027840076, -0.11519469, -0.14186001, -0.04737978, -0.09639488, 0.04743617, -0.0034984665, -0.109733, -0.03733879, -0.14621153, -0.0076886564, -0.08981536, 0.056487333, -0.028988339, 0.14966479, -0.0855531, 0.05113541, -0.08512959, -0.0817029, -0.018408613, -0.1303417, -0.0047488967, 0.20404813, 0.15079045, -0.10043496, -0.21494426, 0.087160535, -0.22723037, -0.09506712, 0.030759117, 0.04672879, 0.12811208, -0.038003083, 0.16034321, 0.0010368781, 0.0414837, 0.06912978, -0.05872386, 0.053023733, 0.06418063, -0.0782114, 0.1808604, 0.05301744, -0.011295135, -0.13973294, -0.13676707, -0.11032201, 0.17266355, 0.1374227, 0.26872733, -0.13084379, 0.013348553, 0.093910694, -0.003976808, 0.05688059, -0.14406532, 0.1706511, 0.13726737, 0.028785013, -0.1666894, 0.1255768, 0.1782268, -0.14374328, -0.053729862, -0.0853908, 0.027760109, -0.1258269, -0.05782135, -0.02151166, 0.06444865, 0.0034618475, -0.09732426, -0.13973078, -0.07993611, -0.00036612005, -0.07538558, -0.0017126829, -0.058375847, 0.10108593, -0.13038711, 0.054693606, -0.06225273, -0.045122277, -0.09722404, -0.036880385, 0.0043608528, 0.16767396, 0.15328394, -0.15611482, -0.12871206, 0.06802631, -0.12805213, 0.0031465255, -0.039483707, 0.064926885, 0.0127620725, -0.007818209, 0.12441859, 0.06087962, -0.20295604, 0.11920572, -0.057957552, 0.06298186, -0.00079773855, -0.07419801, 0.11889585, 0.06453006, 0.14291626, -0.111970335, -0.15869698, -0.16808796, 0.07906687, 0.020558557, 0.29819974, -0.16485435, 0.03562703, 0.1251721, -0.018072663, 0.022246828, -0.13879585, 0.17072807, 0.04293881, 0.07311785, -0.11341817, 0.08322333, 0.1367801, -0.1972561, 0.01084921, 0.021824637, 0.017329786, -0.21174912, -0.0458372, -0.02273023, 0.014453473, -0.16953099, -0.06660252, -0.1632554, -0.12610045, -0.064091966, -0.085662454, -0.009140892, -0.018696392, 0.17697914, -0.054975737, 0.031049894, -0.04441263, -0.007959522, 0.01375071, -0.14255767, 0.0013086838, 0.20557386, 0.06558723, -0.19908556, -0.28579196, 0.1167075, -0.29697323, -0.09419925, -0.03590696, 0.020938898, 0.1340369, -0.011370446, 0.13897376, 0.038726527, -0.15596823, 0.1328427, -0.01025851, 0.019499835, 0.06277714, -0.03189836, 0.15936503, 0.022333464, 0.08722716, -0.18019262, -0.12814263, -0.14826173, 0.12202297, 0.10592029, 0.2542336, -0.065848805, -0.009541277, 0.19425675, -0.06675568, 0.009375921, 0.025636025, 0.15472868, 0.088790685, 0.034519304, -0.1643828, 0.069879435, 0.040020593, -0.010501111, 0.04897268, 0.23511626, -0.24938372, -0.16783243, 0.030567367, -0.14066416, -0.003095325, -0.1328334, 0.014339998, -0.24412511, -0.06895554, -0.07859987, -0.19903058, -0.07210998, 0.025864497, 0.12022723, -0.22834763, -0.0654988, -0.018241825, -0.14070778, 0.09427043, -0.12861408, -0.3540196, 0.18712814, 0.004699432, -0.15522328, -0.17370582, 0.04688114, -0.07151243, 0.07645125, 0.40159178, 0.007558582, 0.013937023, 0.12234916, 0.04169824, 0.21239562, 0.017881231, 0.18792589, -0.066847, -0.019964974, -0.06848456, -0.56273997, 0.017680451, -0.028310865, 0.036075335, -0.1125324, -0.022297261, -0.1982941, -0.056284964, -0.056664176, 0.2622097, -0.15231061, -0.07869396, 0.27161607, 0.016960295, 0.37145072, -0.17500725, 0.16089113, 0.1707684, 0.052561034, -0.23872754, -0.5680039, 0.006792803, -0.119534194, -0.14954978, -0.18656895, -0.08074242, -0.11746941, -0.05863158, -0.026999287, -0.02383034, -0.15079805, -0.23197135, -0.07012473, -0.4346731, -0.17037901, -0.08275111, 0.045029156, 0.013200706, 0.30144593, -0.13328834, -0.014091465, -0.035354685, -0.05387426, 0.1429061, -0.086932495, -0.2284254, 0.12457125, -0.0425368, -0.02806385, -0.24063674, 0.14165942, -0.062015317, -0.23507267, 0.07422913, -0.00557569, 0.087027974, -0.03138877, 0.12492775, 0.1173446, 0.26811162, 0.08497113, -0.18713786, 0.034535665, 0.07407958, -0.1456061, 0.016968744, 0.015700897, 0.07713601, -0.14601432, -0.14452048, -0.22433995, 0.10589624, -0.33207744, 0.26213685, -0.008299901, -0.0011290937, -0.11360626, -0.061555248, 0.27206886, -0.03166589, 0.124143936, 0.0953706, 0.046731193, -0.3018683, -0.022012029, 0.29128575, -0.27390233, 0.00949814, -0.101550855, -0.1250752, -0.15203567, 0.008209627, -0.1424943, 0.034998108, -0.12607947, -0.05099007, -0.055509496, -0.24180692, -0.16226545, 0.027255481, -0.012531056, -0.0012793781, 0.0052820262, 0.015211999, 0.017077679, -0.07410919, -0.03789747, -0.070036344, -0.081129745, -0.15839069, 0.16417041, 0.19246857, -0.10993451, -0.20244515, 0.13770081, -0.044039242, -0.071188, -0.024089312, 0.019958694, 0.062418047, 0.0067722653, 0.059188057, -0.056600936, 0.13583627, 0.11389341, -0.2093635, 0.015519279, 0.06634407, -0.09473811, 0.17564866, 0.022001345, 0.0950306, -0.14941952, -0.14643756, -0.13639246, -0.05150662, 0.08298966, 0.23813081, -0.16510633, 0.11498932, 0.09289188, -0.036331628, 0.040711712, -0.085034415, 0.18572347, 0.23850486, 0.023309149, -0.14443168, 0.022024332, 0.15080959, -0.1144724, -0.06406942, -0.005885562, -0.04460043, -0.13107108, -0.124842085, 0.049651466, 0.049930546, -0.025018945, -0.1343744, 0.00021440002, -0.3080959, -0.13487725, -0.026820896, -0.043324832, -0.035506565, 0.074896455, -0.071004495, 0.05459207, -0.04206324, -0.029559229, -0.040034175, -0.10575014, -0.037106153, 0.0713992, 0.01335229, -0.059499364, -0.15763086, 0.059318963, -0.19631277, -0.06866806, 0.015206382, 0.047828514, 0.053811256, -0.06313488, 0.17727739, 0.102072954, 0.14256512, 0.11599895, -0.13131502, 0.063161604, 0.09898708, -0.17823178, 0.21384005, 0.06447846, 0.122893006, -0.12987721, -0.14145775, -0.15826656, 0.17262004, -0.0503271, 0.27315524, -0.09649312, 0.01628664, 0.059582073, -0.017532071, 0.04368356, 0.0064776833, 0.1502264, 0.15546806, 0.07713677, -0.08870098, 0.13367173, 0.15042107, -0.1145483, -0.062519565, -0.105695434, -0.051272668, -0.12787755, -0.010544786, -0.03282598, 0.05822868, -0.059787627, -0.070790745, -0.07483216, -0.20835711, -0.0632023, -0.07338578, -0.055116143, -0.057882078, 0.08076329, -0.009446061, 0.08289217, -0.01840196, -0.06014305, -0.046848822, -0.065356866, -0.016536707, 0.21951534, 0.18997368, -0.115948886, -0.15907294, 0.111106284, -0.07414971, -0.12247579, 0.015696403, 0.04314625, 0.0032003105, -0.052269306, 0.09339099, -0.028559739, 0.04940689, 0.14998521, -0.1588154, 0.06644134, 0.19618344, -0.119947106, 0.13330336, 0.061806038, 0.080260985, -0.1330056, -0.14198, -0.10987883, 0.07771146, 0.09049743, 0.2710967, -0.19208251, 0.058398202, 0.0404044, -0.020737326, 0.032111716, -0.030296056, 0.17320988, 0.15321273, 0.038085654, -0.11071225, 0.106709436, 0.20327412, -0.009145819, -0.09501707, -0.07600589, -0.04557923, -0.11560785, -0.12215724, 0.016011585, 0.048493877, -0.060715895, -0.00047768827, -0.13426006, -0.2328979, -0.14288603, -0.02919249, -0.1523037, -0.0504993, 0.16045682, -0.06606784, 0.04266218, 0.048707608, -0.123042196, -0.03311751, -0.11827669, 0.0052326494, 0.15980029, 0.06196969, -0.18569374, -0.1882253, 0.11659654, -0.18107277, -0.107934974, -0.012665299, 0.058162503, 0.07316251, -0.059420798, 0.14564854, 0.13629653, -0.03571907, 0.09130271, -0.11468543, 0.053498726, -0.042330157, -0.03564598, 0.1530337, 0.055682026, 0.09153722, -0.113091335, -0.0947545, -0.14630356, 0.092955135, 0.013138356, 0.2586707, -0.066585906, 0.09545598, 0.08434168, -0.07561244, 0.10829988, -0.10091364, 0.17019115, 0.08875616, 0.06371098, -0.13547519, 0.13987756, 0.24106221, -0.011685894, 0.0100726485, -0.058564175, -0.08699748, -0.14185709, -0.020417383, -0.11323993, 0.039484598, -0.046232466, -0.0086926725, -0.14310129, -0.11018161, -0.014334777, -0.18618776, 0.022106268, -0.029398631, 0.11365599, -0.119687006, 0.050397728, 0.08917759, -0.06432977, -0.0050030043, -0.0051293336, 0.008306492, 0.12925477, 0.19630402, -0.03359363, -0.20867744, 0.11310559, -0.23192805, -0.079215996, 0.07733989, 0.034551606, 0.046957217, -0.13954389, 0.14918494, -0.15242493, -0.21819855, 0.21698602, -0.07111958, 0.062065158, 0.11005048, -0.116416946, 0.14070569, 0.06214691, -0.0032035338, -0.16376293, -0.058993552, -0.12780994, 0.061152313, 0.10481613, 0.31001478, -0.1533033, 0.059178106, 0.16166708, -0.08657616, -0.024090886, -0.13166067, 0.15389414, 0.07121611, 0.029075306, -0.041501515, 0.11610983, 0.15944304, 0.023961902, -0.021675356, 0.010283857, -0.066031106, -0.15580732, -0.21896091, -0.016541854, 0.07373325, -0.107210405, -0.16643703, -0.07416029, -0.14797279, 0.11486397, 0.08042674, -0.04283181, -0.03843221, 0.21840169, -0.20928262, 0.05245336, -0.06609723, -0.023893394, -0.13562441, -0.13967331, 0.014249221, 0.16046979, 0.13418013, -0.13143039, -0.20479266, 0.11789074, -0.37426826, 0.072440565, -0.035477165, 0.08186679, 0.13173057, 0.044082385, 0.18517733, -0.058068544, -0.11788016, 0.066076025, -0.030141046, 0.07527843, -0.1883518, -0.13473326, 0.18085673, 0.07382311, 0.10134156, -0.11654203, -0.17329492, -0.09079432, 0.09335318, 0.05491825, 0.28148594, -0.20114695, -0.020012353, 0.17326906, -0.0030213064, -0.077283174, -0.13983902, 0.1727117, 0.09631666, 0.048626713, -0.17611246, 0.060784496, 0.074161135, -0.12162278, -0.059786625, -0.112856135, -0.038899355, -0.12558728, 0.008093785, 0.0015170844, 0.047391903, -0.15813053, -0.085294046, -0.08407295, -0.14572932, -0.04308487, -0.07033591, -0.14197178, -0.029019242, 0.10659456, -0.07113305, -0.00059296837, -0.044866666, -0.094886646, -0.12058935, -0.17311631, -0.027860768, 0.107712865, -0.056000814, -0.13670728, -0.15881439, 0.011448788, -0.067193486, 0.026465984, -0.014014302, 0.063952625, 0.076219305, -0.036994506, 0.09668352, -0.0068679736, -0.26331377, 0.122999266, -0.08672683, 0.026704635, 0.017526887, -0.0801573, 0.16986786, 0.028026983, 0.07774844, -0.16450903, -0.11552446, -0.1214191, 0.055514738, 0.097405955, 0.26001444, -0.14109921, 0.03320581, 0.15930335, -0.010444621, 0.09315717, 0.08318515, 0.1690868, 0.13396294, 0.052315313, -0.047438905, 0.057049166, 0.10533347, -0.14453466, -0.09216547, -0.010493951, 0.058017857, -0.135872, -0.053096227, -0.038410172, -0.0013840282, -0.11742792, -0.0048077526, 0.040325627, -0.19564518, -0.20031531, 0.0023080355, -0.12712173, -0.0122254025, 0.07971262, -0.088539645, -0.0143400235, -0.094034605, -0.065506324, 0.12220488, -0.06467127, -0.032014854, 0.11105046, 0.0048274775, -0.050385375, -0.14607626, 0.19090618, 0.033539783, -0.15635477, 0.028193302, 0.014202195, -0.01775238, 0.043813854, 0.13121007, 0.10506664, 0.0070890877, 0.040018417, -0.105045624, -0.0073076407, 0.108319126, -0.19306585, 0.17386924, -0.011158553, 0.118797205, -0.10893484, -0.15598641, -0.21252038, 0.06954826, -0.071557894, 0.26720294, -0.15508564, 0.01693128, -0.036858898, -0.06969942, 0.026663559, -0.060833465, 0.14736447, 0.15508963, 0.032196134, -0.11856259, 0.112494536, 0.17972045, -0.11397824, -0.0220333, -0.107574694, -0.0700603, -0.1284931, 0.0016373217, -0.1161983, 0.07149884, -0.063725814, -0.032955557, -0.0011347937, -0.2085523, -0.06606929, -0.0549448, -0.04934604, -0.055047635, 0.11806999, 0.009189144, 0.1033434, -0.013491464, -0.07770116, 0.021047756, -0.16146977, -0.035201047, 0.035195686, -0.047504235, -0.032347254, -0.22944735, 0.08110044, -0.11217803, -0.12159904, -0.06666208, 0.070227675, 0.009568816, -0.023895068, 0.07053395, 0.06729338, 0.10063168, 0.06326104, -0.18460384, 0.08145615, 0.0570856, -0.257498, 0.11865201, 0.083709866, 0.049366366, -0.15516314, -0.06926007, -0.12174894, 0.16159138, 0.2792041, 0.2836849, -0.19525155, 0.11498676, -0.03777319, -0.041014545, 0.1063004, -0.08661206, 0.17349638, 0.10733858, 0.08885332, -0.12635008, 0.10059264, 0.096196234, -0.094324335, -0.09223777, -0.09611589, 0.0063796095, -0.09474195, -0.12742956, 0.041728858, 0.095041186, -0.07439688, -0.08531274, -0.020355392, -0.23782587, -0.16174163, -0.026090235, -0.13818994, -0.09635755, 0.10769327, -0.11517158, 0.082626514, 0.08511855, -0.060369924, -0.014536271, -0.02457691, -0.031310253, 0.24879633, 0.012748835, -0.044383675, -0.13510194, 0.1477149, -0.15179954, -0.20455706, 0.0140054915, 0.0946259, 0.0073969653, -0.15308085, 0.15041009, 0.1793524, 0.10555424, 0.10982256, -0.17540693, 0.09281923, 0.025639294, -0.11869374, 0.12808679, 0.09419132, 0.1277267, -0.07012134, -0.12500952, -0.13219331, 0.096724994, -0.1698669, 0.29927567, -0.10146701, 0.08762558, 0.056003727, -0.094038725, 0.09984786, -0.14190489, 0.17451677, 0.12945083, 0.09560024, -0.09929438, 0.07158381, 0.15459208, 0.029595938, -0.034569684, -0.06351745, -0.07415439, -0.12012706, -0.016534973, -0.09250036, 0.088103324, -0.07144278, -0.072183356, -0.13321689, -0.1665832, -0.099516876, -0.21371898, -0.05162715, -0.08193762, 0.10664189, 0.039363198, 0.09694149, -0.071883634, -0.10263138, -0.056646593, -0.057246085, -0.052676726, 0.21190834, 0.09802738, -0.04655084, -0.20546132, 0.07358353, -0.20989388, -0.13266276, 0.02869544, 0.075977705, 0.07848555, -0.12502243, 0.12797095, 0.0059128944, 0.08527716, 0.121668905, -0.15229413, 0.0997622, 0.07727633, -0.047253586, 0.17897093, 0.09472731, 0.015514781, -0.13364919, -0.07499303, -0.11264117, 0.15076242, 0.23413737, 0.28320888, -0.23704717, 0.031952485, 0.09752608, -0.07860338, -0.009291405, -0.0034872417, 0.17787659, 0.19099897, 0.08570401, -0.106318295, 0.06006536, 0.16518885, -0.09559134, -0.0140618235, -0.09114418, -0.04148061, -0.1153692, -0.18260989, 0.02029989, 0.10222778, -0.04348008, -0.03268908, -0.09837101, -0.09524122, -0.06734244, -0.04098086, -0.116359666, -0.09026135, 0.12776494, -0.18242374, 0.09545752, -0.0340052, -0.006228411, -0.13714804, 0.024423277, -0.04190812, 0.17401235, 0.15120737, -0.12236975, -0.15800376, 0.14089541, -0.24360636, -0.06528214, 0.016858036, 0.092368625, 0.10078491, -0.058527112, 0.14889497, 0.10160447, -0.040203925, 0.06351436, -0.09745045, 0.11550464, 0.031996477, -0.07343612, 0.14276253, 0.1070511, 0.14199555, -0.080947265, -0.12609075, -0.109301455, 0.06926407, -0.052525423, 0.29281068, -0.18050149, 0.124902315, 0.10815135, -0.056908317, 0.003164127, -0.060805377, 0.17984313, 0.11717157, 0.08246594, -0.121647716, 0.06253139, 0.09449108, 0.010736951, 0.007132099, -0.11396582, -0.085538276, -0.12898302, -0.08590777, -0.118883684, 0.06957054, -0.11122024, -0.046377197, -0.22930552, -0.09607052, -0.055628113, -0.05877333, -0.006910406, -0.07233211, 0.10985639, -0.004536594, 0.058196317, 0.017104546, -0.010808775, -0.15489471, -0.18121994, -0.009597226, 0.24513887, -0.023503315, -0.11010327, -0.19726057, 0.08481819, -0.24565779, -0.08363277, 0.019166242, 0.06969114, 0.12448769, -0.055146504, 0.13242023, -0.03506993, -0.055465825, 0.10670165, -0.09007689, 0.06280217, -0.024449075, -0.025228355, 0.1477275, 0.072495416, 0.17682613, -0.1409637, -0.10937616, -0.096889645, 0.11413004, 0.19253242, 0.28374273, -0.14999808, 0.02729657, 0.09181302, -0.06656014, -0.017091641, -0.041769676, 0.17289002, 0.11409364, 0.0972197, -0.09740302, 0.19386525, 0.1848335, -0.023236666, -0.03432256, -0.15727833, -0.061028823, -0.11131806, -0.12574284, 0.027890021, 0.10510418, -0.026800634, -0.097902685, -0.07371137, -0.114714466, -0.098868124, -0.013888421, -0.17052218, -0.06939881, 0.08340927, -0.2711372, 0.11882663, 0.12993932, -0.12631318, -0.10984231, 0.014316248, -0.011749818, 0.16403383, 0.21406204, -0.08874473, -0.09720511, 0.04962029, -0.29741377, 0.07910551, 0.04050207, 0.10286625, 0.10336847, -0.039428197, 0.17180397, 0.07145302, -0.1526967, 0.029597681, -0.06163483, 0.09962999, 0.016262693, 0.025784282, 0.12737624, 0.09985795, 0.113299355, -0.097723015, -0.115557164, -0.1562573, 0.02019488, 0.02942967, 0.28297055, -0.02833049, 0.08950055, 0.17021778, -0.10778999, 0.14080179, -0.17580806, 0.1809858, 0.080799825, 0.1094234, -0.14547063, 0.16186914, 0.10475544, 0.13488394, -0.085225664, -0.1407932, -0.07961187, -0.12529038, -0.029102523, 0.015435136, 0.03074614, -0.1199698, -0.11059411, -0.21997611, -0.11403758, -0.05752093, -0.077454984, -0.112947226, -0.028224602, 0.2089449, -0.061158497, 0.07604282, 0.018498963, -0.04952782, -0.19121489, -0.15304127, 0.043355238, 0.20066628, 0.078398, -0.07976684, -0.27590814, 0.13790159, -0.18418057, 0.08183674, 0.027383225, 0.033947214, 0.11564175, -0.053863242, 0.12280245, 0.04555032, -0.09422927, 0.09347597, -0.07019626, 0.035037667, -0.08560699, -0.19111754, 0.15137659, 0.040893678, 0.07623466, -0.20851564, -0.029895833, -0.19176884, 0.03155483, 0.1926231, 0.27972868, -0.14116926, -0.025895242, 0.13387375, -0.03557116, 0.02579578, -0.11238539, 0.18241093, 0.07803184, 0.061974153, -0.1618559, 0.07243536, 0.08987803, -0.098470815, -0.0073496755, -0.10236908, -0.10923102, -0.11960236, -0.0500205, -0.10394884, 0.057880607, -0.066851035, 0.0147286495, -0.010317068, -0.12551224, -0.1458018, -0.022487784, -0.10007682, -0.056270055, 0.10824942, -0.11597852, 0.06988398, 0.014013496, -0.11291596, -0.012760482, -0.07288001, -0.05416742, 0.07245906, 0.060078684, -0.006670072, -0.18763104, 0.11396432, -0.20363787, -0.20191982, 0.024016764, 0.057294067, -0.0002914268, -0.13656223, 0.032547414, 0.03268636, 0.09490994, 0.102350965, -0.12369574, 0.069155045, 0.028244562, -0.12202288, 0.12414662, 0.07191878, 0.106721126, -0.11957138, -0.19696641, -0.17680937, 0.023360474, 0.014008626, 0.2658888, -0.17715003, 0.107989654, -0.015598817, -0.025659598, 0.03351031, -0.07979732, 0.15403637, 0.13923866, 0.07908876, -0.18517943, 0.061421327, 0.047146153, -0.1415383, -0.09454228, -0.12961192, -0.02362004, -0.104225695, -0.15802571, 0.019612532, 0.0899671, -0.2290099, 0.08596373, -0.2121102, -0.3533859, -0.12871522, -0.14372227, -0.0041443757, -0.05732072, 0.05758829, -0.106670275, 0.08465621, -0.07552332, -0.13126077, 0.056508668, -0.07323309, -0.11669614, 0.14862882, 0.10685259, -0.07505209, -0.11331957, 0.12004789, -0.25328407, -0.25527254, -0.056175247, 0.08052072, -0.0035980023, -0.052999336, 0.16243005, 0.087811306, 0.16572396, 0.019578774, -0.21668608, 0.09313471, -0.06532218, -0.15999955, 0.11654109, 0.08663598, 0.09165345, -0.124923214, -0.10842505, -0.16834445, 0.19655758, 0.03579221, 0.2596349, -0.17862834, 0.05984268, 0.11621365, -0.07855788, -0.012839456, -0.14652875, 0.16368806, 0.17912988, 0.052430578, -0.15302043, -0.070759445, 0.24182397, -0.049079757, -0.08499587, -0.18811859, -0.062415488, -0.11288443, -0.08106975, -0.07557588, 0.0995139, -0.12544458, 0.0013625091, -0.024827683, -0.13986875, -0.09264245, -0.074456505, -0.04131103, -0.076547146, 0.052041426, 0.00032791542, 0.10395281, 0.015324571, -0.018550403, 0.037038088, -0.06999745, -0.15506114, 0.17712566, 0.05117375, -0.052203048, -0.21776083, 0.0706203, -0.15893586, -0.12942013, 0.018749088, 0.095622756, -0.026089586, -0.08347997, 0.11109819, -0.060552754, 0.083373725, 0.104581915, -0.17398708, 0.09067897, 0.11738866, -0.18726832, 0.12267027, 0.082500495, 0.19669946, -0.10439902, -0.20256704, -0.10102468, -0.052694652, 0.09794768, 0.30717918, -0.10246905, 0.09150265, 0.08800643, -0.012288286, 0.050483435, -0.046863414, 0.16451849, 0.18102245, 0.08547503, -0.11841885, 0.047744542, 0.19662839, -0.026992958, -0.07310105, -0.14061885, -0.14539167, -0.10502221, -0.13917519, -0.13181137, 0.12485123, -0.042376764, 0.027851118, -0.061406355, -0.12683406, -0.13212769, 0.0024750798, 0.09663758, -0.11630782, 0.10960846, -0.083174974, 0.13150217, 0.04340967, 0.015569221, -0.22935295, -0.13486506, -0.110556774, 0.10788271, 0.09977983, 0.00055669306, -0.17301081, 0.099711366, -0.22351235, -0.11433777, -0.00994308, 0.12671967, 0.0725901, -0.062483374, 0.12986808, 0.13607423, 0.07439088, 0.051505905, -0.16672204, 0.14673391, -0.048263013, -0.10931607, 0.16155013, 0.15172112, 0.17877829, -0.15593205, -0.107734986, -0.100668825, 0.1716174, -0.08928343, 0.29166278, -0.12994629, 0.123150185, 0.08195758, -0.14306204, 0.09334154, -0.20254496, 0.17079306, 0.056440257, 0.12651414, -0.23314686, -0.05489774, 0.13693263, -0.019554883, -0.11833076, -0.21215148, -0.085576266, -0.073187165, -0.0057118647, -0.0077410825, 0.09097221, -0.06793603, -0.0045012566, -0.15119241, -0.109463, -0.0770915, -0.17604715, -0.15151744, -0.06912633, 0.0011350156, -0.21263194, 0.093365245, 0.14802293, -0.08097855, -0.15665501, -0.076450415, -0.03545806, 0.20790018, 0.14374055, -0.05408147, -0.15156639, -0.018211387, -0.3068801, -0.1107788, 0.024139259, 0.078807086, 0.025008623, -0.11221855, 0.10177174, -0.13673568, 0.019010926, 0.17606083, -0.1860202, 0.08661179, 0.15599315, -0.100687444, 0.13439658, 0.083465755, 0.012947469, -0.072003804, -0.14112398, -0.11992889, -0.0094079105, 0.10272818, 0.2659182, -0.14273787, 0.0893679, 0.09654965, -0.09826568, -0.013443328, -0.041961793, 0.172306, 0.089104734, 0.09207482, -0.11208416, 0.116319045, 0.2043543, 0.15164089, -0.06095288, -0.14940225, -0.19128115, -0.09534361, -0.20201156, -0.039350547, 0.10663725, -0.010982942, 0.030241532, -0.21464044, -0.07621249, -0.13217597, -0.009681513, -0.10129191, -0.07848623, 0.16738568, -0.10248799, 0.09632768, 0.17264873, -0.06286478, -0.13294066, -0.106448635, 0.01221926, 0.2866058, 0.11828308, -0.04037926, -0.107273825, 0.1905116, -0.2764579, -0.056514483, 0.019240586, 0.1100366, 0.13191229, -0.08688221, 0.16227573, 0.17921272, -0.04690811, 0.043130234, -0.08174008, 0.111468166, -0.22343059, -0.053582728, 0.10210005, 0.116651125, 0.014774671, -0.13634245, -0.07716187, -0.08001388, 0.007441815, 0.04455413, 0.28455147, -0.18799073, 0.10820838, 0.09357276, -0.14079174, -0.040072992, -0.18297575, 0.18919799, 0.09934076, 0.093659945, -0.19878197, 0.0819417, 0.050106686, -0.1428077, -0.16021155, -0.16938332, -0.1494138, -0.07568939, 0.049757916, -0.15345754, 0.102758974, -0.088232145, -0.15094212, -0.18310614, -0.044436052, -0.12394296, -0.042780034, -0.056331802, -0.09259434, 0.0076485686, -0.092949964, 0.10437629, 0.024514817, -0.056228023, -0.21574996, -0.03984156, -0.08408328, 0.12656903, -0.08754563, -0.2027905, -0.20219989, -0.047581762, -0.2848205, -0.10970203, 0.06645177, 0.108216785, 0.09395331, -0.1295167, 0.10778867, 0.016606623, 0.023142803, 0.12407392, -0.12375796, 0.116895236, -0.06523796, -0.1190805, 0.09525439, 0.11033387, 0.12937216, -0.12797837, -0.20290098, -0.20997015, 0.046511944, 0.0458483, 0.26759118, -0.26053697, 0.16146025, 0.14220046, 0.026216045, 0.030973136, -0.0681555, 0.16346966, 0.12059738, 0.08533552, -0.0061914013, 0.07771279, 0.21784346, 0.12609187, -0.035747178, -0.18836765, -0.22157264, -0.10142349, -0.13151135, -0.11886084, 0.04880594, -0.18124065, -0.034368984, -0.06900592, -0.11310608, -0.028700748, -0.11067902, -0.004056511, -0.044711426, 0.10250475, -0.01783733, 0.06988782, -0.027352786, -0.037113164, -0.009453261, -0.14901063, 0.019772338, 0.23882926, 0.19329078, -0.10943343, -0.19361022, 0.12558687, -0.2928598, 0.18499286, -0.006263545, 0.053411502, 0.15752172, -0.006565677, 0.14412373, 0.035212353, -0.13091786, -0.0039881663, -0.11132488, 0.066383086, -0.09211115, -0.16302815, 0.1276275, 0.076893106, 0.14022261, -0.15127935, -0.16849822, -0.08217845, -0.004500552, 0.067213885, 0.28162357, -0.19893171, 0.0006893611, 0.111288175, -0.09489031, 0.07700952, -0.10359054, 0.1552481, 0.07345585, 0.055163525, -0.14751755, 0.05613432, 0.23881304, -0.0749137, -0.12583289, -0.0852524, -0.071523756, -0.09889353, -0.017716149, 0.08612873, 0.15797503, -0.09066216, 0.11478217, 0.21097529, -0.30286258, -0.2620158, -0.072616756, -0.07676747, -0.100360565, 0.066552915, -0.0021262032, 0.14046629, -0.096424244, -0.08209965, -0.087291375, -0.11357266, -0.09207392, -0.10962361, 0.19174208, 0.025870224, -0.2419253, 0.16214819, -0.07525618, -0.17178212, -0.14978243, 0.14946248, 0.01351448, 0.028253827, -0.046962794, -0.019700538, 0.2437662, 0.06743668, -0.30654454, 0.15322782, -0.026342377, -0.24918497, 0.149951, 0.14036213, 0.025311662, -0.105045706, -0.16191311, -0.15067635, 0.026562555, 0.09618418, 0.2576562, -0.116783366, 0.11605083, 0.041946054, -0.11227519, 0.035690624, -0.0451818, 0.15662384, 0.117294684, 0.12556346, -0.24304333, 0.074616596, 0.07509407, -0.08406095, -0.05717866, -0.15135248, -0.020675091, -0.10777043, -0.13339122, 0.010444558, 0.12505586, -0.027565334, -0.025858315, -0.11441286, -0.09897076, -0.179939, -0.025927661, -0.15061392, -0.11686572, 0.055816595, -0.10365679, 0.14234163, 0.02980776, -0.06090031, -0.07487843, -0.08241228, -0.124273404, 0.13219023, -0.10317681, 0.030211622, -0.17956993, 0.12430619, -0.25793076, -0.13136767, -0.017198496, 0.122670695, -0.026035814, -0.10466392, 0.19197813, 0.17760289, 0.16098754, 0.07287304, -0.16529413, 0.11524966, -0.01732245, -0.14278528, 0.14755899, 0.11435977, 0.060191438, -0.14456737, -0.15790795, -0.114224955, 0.09178759, -0.20614953, 0.23252365, -0.09798595, 0.072213314, 0.06914707, -0.08935021, 0.05921947, -0.23131749, 0.17546065, 0.123825274, 0.12343517, -0.1808148, 0.10158462, 0.15790877, -0.065795235, -0.083204985, -0.2539482, -0.14167121, -0.08641688, -0.06887307, -0.07202504, 0.12549342, -0.08497355, 0.10307497, 0.0032726736, -0.11578611, -0.11650113, -0.13095468, -0.08058576, -0.08300508, 0.06261645, -0.15145005, 0.15277945, -0.03783786, -0.043138254, -0.065114774, -0.13798137, -0.099516526, 0.13159727, 0.23592345, 0.03278984, -0.14816102, 0.056987483, -0.20064835, -0.24864876, -0.058214165, 0.11094855, 0.012501427, -0.04546494, 0.03548238, 0.078781895, 0.1693398, 0.11073851, -0.19948505, 0.123275734, 0.039223213, -0.18925495, 0.14269799, 0.122826755, -0.035439584, -0.12217286, -0.2055561, -0.13106062, 0.013113342, 0.083265394, 0.24824575, -0.09665745, 0.12731408, 0.07005843, -0.043619197, 0.07919892, -0.10140452, 0.16654149, 0.03502801, 0.06290662, -0.13909292, 0.01548658, 0.048181478, 0.032139197, -0.052882858, -0.2233428, -0.15658876, -0.03848604, -0.27640486, 0.0069148643, 0.15126237, -0.14030886, 0.04792335, 0.010650506, -0.07242171, -0.13121697, -0.08792419, -0.181581, -0.118218064, 0.045968838, -0.13614842, 0.115621485, 0.101097874, -0.12121687, -0.12466925, -0.046175674, -0.104848444, 0.20245256, 0.13791701, -0.05605153, -0.21236426, 0.0788605, -0.31007186, -0.16935168, -0.035482433, 0.14956234, 0.08160756, -0.15045042, 0.1995026, 0.08498511, 0.07644527, 0.07005175, -0.16764016, 0.14767963, -0.07416734, -0.051158834, 0.11288002, 0.14633927, 0.09699585, -0.17955747, -0.14009047, -0.14043035, -0.0033733677, -0.04968753, 0.30308408, -0.1747606, 0.11075989, 0.10118494, -0.13687667, 0.060462397, -0.1612047, 0.15999219, 0.080995455, 0.10961903, -0.051884286, 0.073166035, 0.13217564, 0.066055454, -0.09465411, -0.29667866, -0.11451136, -0.06418342, 0.026697207, -0.13624981, 0.16230974, -0.09377157, 0.10500809, -0.10454009, -0.1074954, -0.15219085, -0.16319968, -0.088094845, -0.13044165, 0.044785514, -0.060277306, 0.15662341, 0.062357105, 0.009005176, -0.23797254, -0.0884541, -0.06105569, 0.10701477, 0.007825432, -0.04422919, -0.2658123, 0.034256063, -0.22659291, -0.10878553, 0.039281365, 0.16632888, 0.118702315, -0.03506621, 0.061391573, 0.019127255, 0.0011342969, 0.118247, -0.13916406, 0.16024324, -0.030561628, -0.1146404, 0.08728935, 0.16586317, 0.055333246, -0.09483448, -0.22591978, -0.10797988, 0.06298972, 0.09176423, 0.28009948, -0.2020933, 0.08818363, 0.11495974, -0.086160176, -0.08333627, -0.08428856, 0.17546901, 0.047836293, 0.1479897, -0.1355532, 0.046597667, 0.096005954, -0.09352155, -0.07875334, -0.1880426, -0.1501799, -0.08385826, -0.123240806, -0.008183115, 0.15661955, -0.13397625, -0.017430272, -0.10583887, -0.0896798, -0.12008545, -0.10716015, -0.14308134, -0.13341352, 0.035728175, -0.13671619, 0.15709543, 0.061865766, -0.09322327, -0.075137116, -0.070112124, 0.040458772, 0.13722399, 0.13820001, -0.16967078, -0.19620822, -0.06836459, -0.36599112, -0.011487364, 0.026607238, 0.1655516, 0.10548381, -0.17175679, 0.14761625, 0.1664377, -0.0028277738, -0.019660994, -0.11266761, 0.16617516, -0.13539653, -0.07722687, 0.13000314, 0.16965374, 0.1652919, -0.14241292, -0.17748658, -0.11693769, 0.01068129, -0.13908184, 0.2748075, -0.26235428, 0.18068437, 0.1621965, -0.13581654, 0.18295185, -0.090374425, 0.16306853, 0.059045378, 0.16876706, -0.109248124, 0.07781103, 0.016697807, 0.08795977, -0.07917885, -0.2749435, -0.15406294, -0.06371236, -0.04976385, -0.029891804, 0.1192841, -0.13503441, 0.03595576, -0.20697692, -0.109128445, -0.10338313, -0.14229476, -0.12556303, -0.08858317, 0.050048236, -0.12223798, 0.15961982, 0.09514042, -0.049271677, -0.15935837, -0.14993136, 0.019976512, 0.14182411, 0.12563556, -0.103636965, -0.2204366, 0.102529295, -0.3396519, -0.039974026, 0.039530274, 0.11075353, 0.11343535, -0.09011003, 0.07381314, -0.14536816, -0.09129854, 0.19730698, -0.14926943, 0.12311192, -0.0484834, -0.19902612, 0.1044883, 0.12741137, 0.06439915, -0.12928933, -0.18515672, -0.11683638, -0.0065058507, 0.11965311, 0.24908507, -0.09336509, 0.01252191, 0.1423646, -0.16718832, -0.05504763, -0.06720923, 0.16569172, 0.04987381, 0.059627637, -0.19123183, 0.07928958, 0.13889603, 0.11310867, -0.0755254, -0.13369744, -0.104883865, -0.10004848, -0.08001578, 0.12438435, 0.174387, -0.027029455, -0.014767523, -0.08319438, -0.26378003, -0.21991323, -0.06968228, 0.0035441727, -0.11492214, 0.03495902, -0.20151828, 0.15586147, 0.005257952, -0.23076075, -0.1325432, -0.0686194, 0.11988063, 0.24940544, -0.00090672064, -0.16308904, -0.13499525, -0.07787227, -0.26623112, 0.02616355, 0.0843919, 0.17097397, 0.08794151, -0.09555946, 0.14007479, -0.14188461, -0.06424853, 0.031469923, -0.07423474, 0.164195, -0.09150497, -0.101813406, 0.16607876, 0.16583587, 0.13564311, -0.15265995, -0.111133784, -0.119692445, -0.022014778, -0.124474674, 0.27081162, -0.2153442, 0.17806585, 0.13866502, -0.09741003, -0.09731639, -0.1384334, 0.18116862, 0.012495356, 0.18318814, -0.23665732, 0.078207694, 0.0517141, 0.0058240686, -0.08331294, -0.061908774, -0.24259366, -0.09497223, -0.10427086, -0.15983996, 0.07447743, -0.14458185, -0.053449787, 0.071405806, -0.12368292, 0.008428449, -0.0596861, -0.028524842, -0.065301225, -0.08987011, -0.042698372, 0.04734242, -0.060051765, -0.0038848282, -0.019955399, -0.15323266, -0.094465554, -0.16916619, 0.09482924, -0.11796706, -0.24683861, 0.13737997, -0.11573456, -0.27788675, 0.07388352, 0.08054168, 0.11408192, -0.053197477, -0.04870717, 0.10534108, 0.05344471, 0.01987454, -0.21926898, 0.063571066, -0.0010130043, -0.06074773, 0.10737243, 0.06333538, -0.026969396, -0.13004035, -0.20990296, -0.28560758, 0.26833487, 0.07785829, 0.24024706, -0.13162026, 0.07670943, 0.083069995, 0.017702362, -0.035088595, 0.036366887, 0.18279636, -0.09666284, 0.083210744, -0.17648108, 0.067259826, 0.01537119, 0.030811803, -0.12710875, -0.16455115, -0.01874733, -0.10544235, -0.05022775, -0.0747532, 0.17502908, -0.050567582, 0.046613574, 0.11306189, -0.08746369, -0.21750742, -0.047138296, -0.13478725, -0.14134067, -0.026223157, -0.10710213, 0.16233145, -0.041406825, -0.061701152, -0.23181744, -0.0010670129, -0.06936536, 0.20044899, 0.054401, 0.030664967, -0.23203571, 0.0033248914, -0.14168254, -0.23781577, 0.027823789, 0.1847488, -0.036503393, -0.19445136, 0.12165208, -0.035247922, -0.02296556, 0.10259189, -0.21748307, 0.17261451, -0.12739176, -0.16283657, 0.09529426, 0.17054488, 0.0839345, -0.24284534, -0.2006753, -0.11835743, -0.05713951, -0.081704624, 0.24379449, -0.2437622, 0.14097789, 0.13354547, -0.16642839, 0.028358834, 0.12884472, 0.16805835, 0.1158294, 0.17584363, -0.11695607, 0.06394633, -0.01901131, 0.050553225, -0.14214133, -0.20936593, -0.11947412, -0.06897049, -0.11504258, 0.042396262, 0.16085313, -0.1581836, -0.020992374, 0.11905916, -0.20923355, -0.23539096, -0.035063382, -0.10531064, -0.11850632, -0.014771913, -0.13395353, 0.16093992, 0.07189887, -0.11197602, -0.057911545, -0.18913609, -0.12392199, -0.11562699, 0.09119275, -0.031498984, -0.24267788, 0.10898602, -0.13265546, -0.20424598, -0.104584344, 0.16490133, 0.078599796, -0.061656136, 0.13630167, -0.06264309, -0.030274797, 0.033050343, -0.24161966, 0.17525113, -0.054020822, -0.10274314, 0.086041704, 0.17070653, 0.048512988, -0.14226785, -0.14364207, -0.18082775, 0.0080977315, 0.05929692, 0.29251784, -0.1344695, 0.08586638, 0.08132544, -0.057065167, 0.09496712, -0.22552654, 0.13998817, -0.068805546, 0.15705018, -0.21971688, 0.05021968, 0.15646614, -0.0055966396, -0.10524915, -0.15409379, -0.21975799, -0.07540775, -0.02928837, -0.025840556, 0.1920357, -0.025665365, 0.08231916, -0.05354475, -0.10288878, -0.13901937, -0.08503968, -0.20834424, -0.15067829, -0.025833674, -0.20802215, 0.1931115, 0.15873349, -0.025724895, -0.09376291, -0.080001876, 0.034379862, 0.14262424, 0.21782799, -0.029841421, -0.16850407, -0.036966063, -0.2260875, -0.09384788, -0.018875647, 0.1978705, 0.060611345, -0.02801018, 0.0648007, 0.14610349, 0.09211799, 0.09221566, -0.24821004, 0.20089157, -0.025853269, -0.119736165, 0.16599448, 0.20470735, 0.123826854, -0.16207115, -0.16130665, -0.108208075, -0.02749702, -0.027773391, 0.2763103, -0.21436602, 0.25068027, 0.15882242, -0.17390305, 0.1328663, -0.05333141, 0.17456101, 0.10054311, 0.17934181, -0.19738407, 0.03718121, 0.09466773, 0.01619236, -0.08269687, -0.1414204, -0.17695405, -0.04016132, -0.14606155, 0.083977886, 0.17077117, -0.02400256, 0.026625516, 0.03855931, -0.15515296, -0.24637292, -0.11385656, -0.15807529, -0.14707084, 0.02015175, -0.06378827, 0.2489104, 0.12137413, -0.08349128, -0.16127858, -0.099053465, -0.11771886, 0.0143754445, 0.21097791, -0.10332899, -0.22221756, 0.058433015, -0.33560812, -0.31837016, 0.08982463, 0.17781688, 0.10071843, -0.051847182, 0.08308037, -0.104566336, 0.07745564, 0.023105372, -0.1314933, 0.18295598, -0.101422496, -0.10962425, 0.04779513, 0.19014503, 0.088808805, -0.17021798, -0.12097543, -0.20902307, -0.021639487, 0.024291841, 0.24561818, -0.16310406, 0.08122591, 0.059668805, -0.16063327, -0.0063882903, -0.14287116, 0.14763421, -0.0979199, 0.237308, -0.34580195, 0.06354242, 0.029480824, -0.06069996, -0.16435368, -0.2350013, -0.15816104, -0.030265886, -0.13034326, -0.120714985, 0.14494345, -0.21398704, 0.09216367, -0.042136565, -0.085107, -0.2220673, -0.054514028, -0.1155027, -0.11193763, -0.04383948, -0.24232616, 0.07704956, 0.13555558, -0.09109058, -0.27225706, -0.11452836, 0.010768361, 0.038749933, 0.12750974, -0.20545024, -0.18005, -0.016389417, -0.24657083, -0.05039802, 0.073497064, 0.1493765, 0.03189489, -0.2230394, 0.05601793, -0.04771155, -0.05681856, 0.029284883, -0.13086772, 0.12486177, -0.11843866, -0.07617143, 0.06732933, 0.12042582, 0.13634895, -0.1659744, -0.14408918, -0.2216656, 0.0070495266, -0.14201368, 0.2726973, -0.042595744, 0.2028908, 0.1271403, -0.11443033, -0.0114602, -0.017193258, 0.18761073, 0.060015712, 0.17163236, -0.18379243, 0.07771039, 0.14680086, 0.03475341, -0.009055239, -0.30892232, -0.15129982, -0.0660594, -0.07350968, -0.12824345, 0.14421329, -0.08563196, -0.027936017, -0.11689817, -0.093600616, -0.2168265, -0.1345671, -0.09724865, -0.10556641, -0.014068058, -0.014863254, 0.14129922, 0.026759095, -0.19087131, -0.082333386, -0.32432228, 0.009176929, 0.07856919, 0.13902728, -0.13341577, -0.08986169, 0.12921332, -0.2725441, -0.124302305, 0.19487761, 0.14474452, 0.16378485, -0.09928853, 0.1089989, -0.044359036, -0.014154191, 0.13641325, -0.087429486, 0.14890696, -0.11346875, -0.107046954, 0.03473365, 0.14894098, 0.07069904, -0.21972033, -0.19454363, -0.1515336, -0.12191879, 0.15888259, 0.24727201, -0.11608561, 0.052596234, 0.12237155, -0.1617544, 0.019263206, 0.070216574, 0.14464077, 0.053605106, 0.16822957, -0.12977955, -0.05082931, -0.022238765, 0.1576931, -0.16499898, -0.13063744, -0.1384445, -0.083052255, -0.079037465, -0.14234973, 0.11944487, 0.02306159, 0.06063294, 0.13795093, -0.17571138, 0.042813666, 0.0187491, -0.11546398, -0.10582299, -0.31204826, -0.12086089, 0.087842554, -0.022386432, -0.117732026, -0.028589506, -0.061229385, -0.1759941, 0.013142606, 0.0957982, -0.3228103, -0.33288467, -0.03825258, -0.21093838, -0.035410587, -0.109318174, 0.12576793, 0.13768922, -0.058566056, -0.036294527, 0.17793976, -0.10726337, 0.039850526, -0.09020557, 0.10830946, -0.1062638, -0.10999933, 0.03963122, 0.10279322, 0.068175495, -0.16408184, -0.3279802, -0.2800472, -0.03339786, -0.043600533, 0.250298, -0.061910618, 0.1345244, 0.15229736, -0.13079776, 0.007699969, -0.10643516, 0.12244756, -0.06744793, 0.16882755, -0.24007286, -0.12597227, 0.05326149, 0.05392037, -0.13557756, -0.14362052, -0.18453896, -0.093619384, -0.24075991, 0.09982328, 0.06432729, -0.1066901, -0.03346969, -0.081437595, -0.15861243, -0.09413881, -0.0751875, -0.13796046, -0.07029278, -0.021261444, -0.23807742, 0.05701239, -0.19800735, -0.0006866325, 0.3641879, -0.12525289, -0.10397364, -0.012922533, -0.08473155, -0.07889403, -0.45091382, 0.13670586, -0.12332469, -0.17972411, -0.0033313932, 0.07285287, 0.13605624, -0.037968688, -0.038712252, 0.14850768, -0.092342354, -0.000861861, -0.22756825, 0.07140643, -0.26614726, -0.11341828, 0.06189863, 0.07221537, -0.006601336, -0.18851571, -0.16081227, -0.20393915, 0.1980563, -0.26467147, 0.2245852, -0.09709237, 0.026098572, 0.07452853, -0.050238438, 0.03415865, -0.20057149, 0.13188714, 0.03219616, 0.064014874, -0.06522041, -0.015687281, 0.15336749, 0.052660137, -0.105921865, -0.10993105, -0.21023236, -0.09236873, 0.052881304, -0.2510279, 0.10837294, -0.11117923, 0.2372574, 0.219334, -0.2733974, -0.22606242, -0.23412327, -0.07183553, -0.07902469, -0.036977317, -0.20403565, 0.07148921, -0.07467551, 0.054425422, -0.08299911, -0.123272635, 0.004679327, 0.002906698, -0.12840341, 0.028178629, -0.29012161, 0.072980784, -0.06982408, -0.1906801, 0.061263718, 0.10709764, -0.02435227, -0.076118074, -0.071322955, -0.02462521, 0.15782203, 0.026595144, -0.2661057, 0.09091207, -0.051277127, -0.16492434, 0.17693864, 0.07966561, 0.12227763, -0.23143744, -0.23350535, -0.14412381, -0.0026877874, 0.118641794, 0.20208839, 0.005825306, 0.17022325, 0.10847133, -0.119409986, -0.044217575, -0.06989044, 0.14381678, 0.07648761, 0.08640948, -0.18122685, 0.007826464, -0.02816806, -0.056145575, -0.13785452, -0.048697524, -0.03233246, -0.092833295, -0.24649644, -0.014134649, 0.22382514, -0.106156684, 0.090861656, 0.05704617, -0.13786417, -0.27821976, 0.016680736, -0.181602, -0.17012574, -0.040242355, -0.0048947334, 0.22227955, -0.09115958, -0.1821808, -0.05639664, -0.23444182, 0.009426019, 0.21405105, 0.17306586, -0.1537739, -0.11944045, 0.06523059, -0.24303554, 0.0021057832, -0.077863365, 0.23118737, 0.06324352, -0.12386164, 0.115328126, 0.1649388, -0.044530824, 0.054341182, -0.26573932, 0.21028689, 0.079057164, 0.007212338, -0.060132515, 0.20593426, 0.11078, -0.37496334, -0.14644974, -0.22085147, 0.0062949276, -0.24062051, 0.26042584, -0.09285716, 0.025987016, 0.15239872, 0.065302745, 0.046912394, -0.017311335, 0.13457978, 0.012215062, 0.24543507, -0.18003821, 0.12788999, 0.043054685, -0.07298574, -0.14568746, -0.18006344, -0.15897709, -0.07148224, -0.12341504, -0.07736397, 0.16503935, -0.14896545, 0.10457545, -0.044964086, -0.11739515, -0.22410657, -0.09363116, -0.11344377, -0.11535433, -0.07119846, -0.2290761, 0.09855456, 0.017206127, -0.07019113, -0.21303539, -0.22505046, -0.07527159, 0.1341969, 0.20735428, -0.09741823, -0.17249887, -0.11775178, -0.21821229, -0.29249868, -0.11247658, 0.16745757, -0.05077124, -0.14046644, 0.065830335, -0.39313948, -0.040198833, 0.07838404, -0.22553639, 0.14332531, 0.051700443, -0.1179511, 0.06268584, 0.1387302, 0.12953775, -0.18846822, -0.23205942, -0.167725, -0.115413144, 0.015089456, 0.23284392, -0.12466799, 0.08637182, 0.12635261, -0.12886158, 0.043283835, -0.107628725, 0.17468299, -0.08134237, 0.1713437, -0.19446534, 0.07491206, -0.038909096, -0.062045198, -0.16577545, -0.19395372, -0.3439643, -0.07991091, -0.0844261, -0.0063427854, 0.16216417, -0.10747827, -0.09534797, -0.0317175, -0.034941204, -0.13847297, -0.17535126, -0.12500416, -0.111575365, 0.007751245, -0.20647094, 0.104200654, 0.07804594, -0.005628676, -0.10481872, -0.110748015, -0.22951072, 0.055867277, 0.1453597, -0.072628774, -0.21966566, 0.0821727, -0.33532405, -0.16708186, -0.015351537, 0.16794427, 0.033420876, -0.08818317, 0.09006793, -0.05881119, 0.08113293, -0.09642968, -0.30231294, 0.1447621, -0.18656306, -0.20774345, -0.132487, 0.14458793, 0.27336144, -0.2750016, -0.18940973, -0.1901727, -0.02598557, -0.06468358, 0.2801464, -0.23565313, 0.06519398, 0.090804674, -0.2085967, 0.18890317, -0.16237006, 0.14383376, -0.019791605, 0.16498871, -0.23636645, -0.17512941, 0.057894707, 0.038680736, -0.06013734, -0.07788237, -0.20691136, -0.04344606, -0.15140787, -0.09023203, 0.20926434, 0.06653496, 0.16771093, -0.057446606, -0.17219281, -0.20124699, -0.21442549, -0.20753974, -0.15001155, -0.10312986, -0.028886318, 0.14796248, -0.1400744, -0.11303701, -0.032862905, -0.16295564, 0.005499585, -0.038972244, 0.31267375, -0.05942088, -0.48101574, -0.12022719, -0.4111306, -0.017718155, 0.033824172, 0.21234554, 0.10350094, 0.03311308, 0.057231545, -0.20946093, -0.38427886, 0.030916257, -0.16167177, 0.17887008, -0.13930278, -0.09709824, 0.122621335, 0.16230196, 0.11480051, -0.21041614, -0.0005321813, -0.25660378, -0.054455318, 0.05545902, 0.22801799, -0.08060171, 0.17812583, 0.13804664, -0.047562636, 0.061719123, -0.085574165, 0.15787636, -0.075544104, 0.25184116, -0.28722855, 0.08715756, 0.05215945, -0.27271, -0.03527644, -0.0949044, -0.2587088, -0.09140665, -0.04952993, -0.05174587, 0.12528066, -0.009948097, 0.05409411, 0.11134286, -0.19184406, -0.33335268, -0.03400314, -0.043047346, -0.07216244, -0.089135595, -0.038878903, 0.07539921, -0.107953615, -0.0028149255, -0.1113259, -0.24659154, -0.03793113, 0.16413765, 0.18583986, -0.08985109, -0.21858752, 0.013696909, -0.25233525, -0.09395895, -0.024011893, 0.13178599, 0.12369388, -0.13435479, 0.06962204, 0.1933856, 0.14007701, -0.3631181, -0.1532712, 0.10829623, -0.1213179, -0.022619488, 0.063494176, 0.1035228, 0.11505952, -0.17104386, -0.282158, -0.26164755, -0.04613483, -0.2573025, 0.1569172, -0.07347329, 0.114019126, 0.09729057, -0.12884514, 0.11791995, -0.28729665, 0.1267502, -0.22868903, 0.1507156, -0.19553518, 0.10935348, -0.068986155, 0.0026016312, -0.11108388, -0.090589546, -0.094857775, -0.03323734, 0.10216341, -0.16469236, 0.11183056, 0.021317163, 0.085741565, -0.09834897, -0.091145135, -0.05724044, -0.14240572, -0.16351646, -0.13175051, -0.15412308, 0.002598907, 0.106590316, 0.094721876, -0.22365917, -0.016797068, -0.31040776, 0.11143897, 0.11536853, -0.030537764, 0.025716834, -0.15062076, 0.06812578, -0.12507103, -0.033937212, -0.051268335, 0.11173572, 0.07842377, -0.07019333, 0.097098194, 0.0006992899, -0.27207705, 0.20046104, -0.24935141, 0.10597148, -0.11356173, -0.18452524, 0.06456019, 0.10656138, 0.099889986, -0.37179935, -0.2839451, -0.35085735, 0.013225049, 0.12078864, 0.23969017, -0.14067662, 0.17829767, 0.16244432, 0.028360076, -0.2785826, -0.124744155, 0.16916198, 0.022573099, 0.09848472, -0.2288299, 0.051809464, -0.00820311, 0.3045302, -0.28615326, 0.13417894, -0.2650033, -0.19049057, 0.07622073, 0.013343046, 0.05929157, -0.27097932, 0.18935797, -0.16397345, 0.0006478727, -0.20825462, -0.024053613, -0.02557, -0.069433585, -0.044498608, -0.09478713, -0.019127816, -0.090827614, -0.096530594, 0.08849905, -0.30295187, -0.22374305, 0.17983286, -0.045976818, -0.28543535, -0.65699625, 0.02266964, -0.062194888, -0.21436933, 0.0024596404, 0.082768805, -0.24736899, -0.10403628, -0.09036602, 