#ifndef NN_VALUES_H
#define NN_VALUES_H


const float L1_WEIGHTS[] = {
0.009075646, 0.0002820841, 0.0027045615, 0.0060024383, 0.0039554057, 0.005948475, 0.007831321, 0.009034686, 5.3598146e-06, 0.0058042603, 0.0027176198, 0.0020021645, 0.0072243433, 0.0043828855, 0.0025268442, 0.0039670984, 0.00035057537, 0.005825118, 0.003002123, 0.0033534463, 0.007062929, 0.008226245, 0.0013123555, 0.00090463494, 0.0075305044, 0.0022394597, 0.00500704, 0.0062214714, 0.007247552, 0.0069176788, 0.003917351, 0.007299286, 0.008135036, 0.0014911371, 0.0031855584, 0.0011596299, 0.0049932264, 0.009060874, 0.0039190943, 0.0058961282, 0.0044725225, 0.0068674283, 0.0039036984, 0.0015278708, 0.0028392554, 0.00533375, 0.003619866, 0.0035120132, 0.0033583986, 0.006648927, 0.0055215023, 0.008711514, 0.0069745975, 0.0015500342, 0.004814718, 0.007879786, 0.0058063194, 0.004283359, 0.0070281574, 0.005769699, 0.005676195, 0.00087461225, 0.006272766, 0.0040012323, 0.005547958, 0.0042987936, 0.0021187633, 0.0039407993, 0.0036428017, 0.00064114, 0.0004581876, 0.004059818, 0.008106106, 0.0070416788, 0.0011679791, 0.0074061244, 0.0011427127, 0.000976036, 0.0060131922, 0.0045416146, 0.007063688, 0.008970006, 0.008925856, 0.0046073403, 0.007826779, 0.0051293597, 0.0034886845, 0.0035993769, 0.007542167, 0.00088699884, 0.0065148305, 0.006518795, 0.0038536922, 0.0024277812, 0.0057530026, 0.0052723195, 0.0034912266, 0.0076172217, 0.00921621, 0.008303626, 0.004287067, 0.004165405, 0.0046176477, 0.0012967091, 0.0045446795, 0.006383111, 2.8372782e-05, 0.008046824, 0.0032514324, 0.003769537, 0.007083707, 0.008215871, 0.006795017, 0.003890938, 0.003314294, 0.008319682, 0.0022788728, 0.0023846482, 0.0038620061, 0.008153862, 0.0043436345, 0.008521839, 0.008405814, 0.009293046, 0.0030583818, 0.0003843884, 0.004728884, 0.0052089854, -0.21701415, 0.01326643, 0.1004519, -0.010680018, 0.031776823, 0.13411266, 0.014046632, 0.07823221, -0.023332713, 0.08887949, -0.0031164263, 0.009333693, -0.0049931803, -0.064999446, 0.058287777, 0.016932627, 0.19375174, -0.062167525, 0.07561428, -0.013907913, 0.089074224, 0.15215722, 0.07171102, -0.00078401633, -0.0023827767, 0.10735091, -0.073015414, 0.059499934, 0.04973818, 0.07061431, 0.07675985, -0.047804132, -0.33617923, -0.029796153, 0.057196517, -0.0153054055, 0.040848065, 0.034022134, 0.040198233, 0.038283948, 0.018216385, 0.12721741, -0.028358243, 0.035558473, 0.03719941, -0.041426364, 0.042590655, -0.026615713, 0.18871126, -5.0826544e-05, 0.100639515, 0.22706762, 0.036796518, 0.06497162, 0.0107321255, -0.06628134, -0.015275687, 0.12594965, -0.010469219, 0.028484628, 0.007591317, -0.17052257, 0.09784717, -0.015659317, -0.27458838, -0.03281093, 0.109293394, 0.10361272, 0.031224571, 0.030741569, 0.03853399, 0.050607473, -0.11410875, 0.085731715, -0.035349958, 0.04719251, 0.039348904, 0.1315084, 0.048055895, -0.0329662, 0.05089198, -0.040805727, 0.12475795, 0.10138832, 0.04540078, -0.0027629386, 0.037645757, 0.029429855, -0.060763333, 0.057089433, -0.0475912, 0.045690507, 0.04134251, -0.31011552, 0.07482194, -0.026718948, -0.13370739, -0.060728576, 0.16435087, -0.03946962, 0.07736313, 0.057976555, 0.07615621, 0.09006384, -0.20321435, 0.017625533, -0.06491386, 0.076644026, 0.079066575, 0.18413562, 0.14547159, -0.046981104, 0.07828302, -0.015758717, 0.11769342, -0.0007743227, 0.050878704, 0.05766477, 0.04377158, 0.082267374, -0.1178008, 0.06372318, -0.024808751, 0.03910169, 0.035913326, -0.24211964, 0.094439425, -0.010599844, -0.21442577, 0.014275624, 0.09403434, -0.008912211, 0.039211445, 0.13650082, 0.0251315, 0.06396547, 0.012300871, 0.09781878, 0.002315058, 0.02321167, 0.008844002, -0.044599317, 0.06581998, 0.022355016, 0.20655023, -0.056154232, 0.09532866, -0.010669445, 0.10163349, 0.16917263, 0.08359881, 0.054484162, -0.03105158, 0.123377755, -0.05892919, 0.07436245, 0.06351328, 0.06368774, 0.06101841, -0.050266657, -0.39529255, -0.039916296, 0.11799757, -0.06002922, 0.04256142, 0.050007496, 0.04896446, 0.0064370227, -0.011288355, 0.122805744, -0.034489356, 0.044518463, 0.050286647, -0.03146553, 0.021507902, -0.033199053, 0.26919955, -0.050674673, 0.100447565, 0.105098896, 0.08070892, 0.07605465, 0.07774761, -0.037073106, -0.061517406, 0.120264895, -0.047193736, 0.07418667, 0.07538959, -0.15440336, 0.049042188, -0.05921906, -0.28128132, -0.032052457, 0.11406546, 0.17179261, 0.065934226, 0.039619427, 0.054392237, 0.0011194331, 0.049920347, 0.07610784, -0.034925293, 0.04368168, 0.03042461, 0.20512526, 0.041060627, -0.02455705, 0.11563671, -0.041223872, 0.12277421, 0.020640112, 0.07616101, 0.024575803, 0.07800562, 0.013135187, 0.04173378, 0.088959485, -0.039032653, 0.07188752, 0.073615745, -0.31435755, 0.118011676, -0.041058913, -0.15374878, -0.050931316, 0.16848725, 0.006217983, 0.08645907, 0.04879802, 0.083300166, 0.0732121, -0.056861475, 0.0444693, -0.05588726, 0.08560707, 0.08680418, 0.22404025, 0.07971302, -0.048421048, 0.078086555, -0.016063347, 0.110721454, -0.02127512, 0.058041126, 0.031185105, 0.060876857, 0.08620355, -0.058578786, 0.041300643, -0.01323868, 0.05908725, 0.060224082, -0.2320759, 0.106051914, -0.017241132, -0.1459653, 0.015992016, 0.11803392, 0.005463458, 0.034197904, 0.08833279, 0.025887737, 0.09991798, -0.02291607, 0.10104691, 0.012635367, 0.015892368, 0.018794991, -0.0091845635, 0.06885783, 0.016327737, 0.20842922, -0.08402851, 0.13470292, -0.036414344, 0.12497406, 0.19534463, 0.107166775, 0.07489783, -0.06050943, 0.10116031, -0.091845274, 0.102579236, 0.08879895, 0.06761884, 0.07860364, -0.07777826, -0.2696148, -0.051659424, 0.09586925, -0.05416807, 0.08403552, 0.052485958, 0.07154389, 0.010161684, -0.04761074, 0.10451448, -0.056001473, 0.063937984, 0.06355061, 0.0047026733, 0.08419986, -0.043437436, 0.120095976, -0.0936986, 0.1091774, -0.06370594, 0.10225911, 0.065250196, 0.102451034, -0.083872035, -0.066758834, 0.12021013, -0.091949254, 0.09328377, 0.09348508, -0.15413572, 0.0054666307, -0.0864514, -0.2412999, -0.064378105, 0.10186385, -0.095160134, 0.115375616, 0.056908183, 0.092642866, -0.068817444, 0.076732524, 0.12863052, -0.0749084, 0.0985315, 0.08953046, 0.15319228, 0.11097131, -0.06296578, 0.07116047, -0.042643342, 0.07917716, -0.015810391, 0.10479841, 0.027203139, 0.09485241, -0.018407848, -0.0905013, 0.11555417, -0.05091896, 0.09528312, 0.086996764, -0.29345885, 0.059344973, -0.03729202, -0.14613679, -0.049735203, 0.088714406, -0.03260239, 0.13855462, 0.060141034, 0.120750874, 0.019282637, -0.037723813, 0.08260438, -0.053088468, 0.11948443, 0.11929354, 0.19337362, 0.12085623, -0.046487164, 0.047633786, -0.0032200036, 0.06408757, -0.007542547, 0.057598572, 0.025955554, 0.060005132, 0.050543524, -0.09363743, 0.06561179, -0.003728145, 0.057546157, 0.0607876, -0.24387227, 0.116057545, -0.0023945586, -0.06544911, -0.025254818, 0.13978562, -0.014745387, 0.06484365, 0.07011936, 0.06944867, 0.17797744, -0.009147262, 0.090569824, -0.028809715, 0.061196145, 0.062038988, 0.034380943, 0.10682325, -0.009842809, 0.20015404, -0.10562764, 0.1079568, -0.010496766, 0.15503095, 0.1668895, 0.13144854, 0.16387933, -0.15863305, 0.103854775, -0.115523815, 0.11928589, 0.11519258, 0.10264452, 0.12213767, -0.09496476, -0.19137534, -0.0494624, 0.09441946, -0.08044592, 0.06798143, 0.044306416, 0.070914514, 0.08580323, -0.09561255, 0.11320709, -0.05050164, 0.069314644, 0.06721128, 0.03564302, 0.088205, -0.03269219, 0.10162214, -0.13150258, 0.026831873, -0.21418293, 0.16198562, 0.10014372, 0.15168351, 0.008402126, -0.13612588, 0.12189686, -0.12733933, 0.14970233, 0.14832392, 0.0032708023, 0.12727956, -0.124708995, -0.18484394, -0.09053249, 0.022785692, -0.19382268, 0.12131694, 0.035725333, 0.110450864, -0.0077389437, -0.061074853, 0.14256154, -0.09680871, 0.11496333, 0.10164194, 0.05565891, 0.003599416, -0.0808853, 0.093578376, -0.06633741, -0.056597386, -0.100920334, 0.16127461, 0.020836188, 0.13998923, -0.027782759, -0.13100679, 0.13170221, -0.07471955, 0.13120756, 0.13050605, -0.2146393, 0.107995436, -0.06666888, -0.13521294, -0.053623993, -0.03059358, 0.00826926, 0.14062369, 0.06759209, 0.12663849, 0.0034176323, -0.012959711, 0.12042959, -0.06611374, 0.11554233, 0.10287398, 0.1575541, 0.1222241, -0.047313068, 0.03810398, -0.0104433475, 0.0010400013, 0.015426043, 0.12387272, 0.024736788, 0.10956457, -0.045267146, 0.021686494, 0.073616445, -0.013839325, 0.1023619, 0.09342664, -0.26919752, 0.09780327, -0.010261017, 0.0283187, 0.0010768187, 0.12114354, 0.09218927, 0.04357103, 0.04362459, 0.0466374, 0.25040594, 0.021830145, 0.103310086, 0.0062081246, 0.04105006, 0.04508021, 0.15061574, 0.11355409, 0.012928662, 0.107287385, -0.06809316, 0.069734916, 0.068085454, 0.1182169, 0.12557231, 0.11469825, 0.3074397, -0.29026246, 0.102768146, -0.0746253, 0.106846236, 0.09991517, 0.10376531, 0.17206189, -0.054671414, -0.12651873, -0.078053296, -0.07559269, -0.22011364, 0.12118005, 0.09444286, 0.11776044, 0.22429097, -0.14594135, 0.11888391, -0.08120825, 0.1198751, 0.12622465, 0.10177049, 0.18443234, -0.069280915, 0.028737957, -0.09050294, -0.16637455, -0.14916702, 0.14019085, 0.09822724, 0.13017978, 0.2539923, -0.11929038, 0.14256638, -0.09821039, 0.11255739, 0.10863407, -0.0062966603, 0.08404633, -0.08213256, -0.26547608, -0.071675256, -0.2162033, -0.18778747, 0.14602637, -0.013061635, 0.13914047, 0.17125228, -0.0016584876, 0.13051225, -0.08645922, 0.124576345, 0.115754925, 0.0590033, 0.18614963, -0.057442836, -0.03855988, -0.0744309, -0.27703604, -0.09708447, 0.15644562, 0.016772848, 0.14883804, 0.0058027525, -0.096376166, 0.09257837, -0.082090676, 0.13814057, 0.1285255, -0.2979312, 0.12435213, -0.07145515, -0.15094301, -0.06731974, -0.14119644, -0.058124863, 0.17308596, 0.093598194, 0.16855857, -0.037052248, -0.07530818, 0.11988419, -0.07221443, 0.16724779, 0.17301773, 0.094374634, 0.19951336, -0.063420214, 0.018954683, 0.0003475282, -0.10099651, 0.10076939, 0.11986452, 0.009196554, 0.10925211, -0.03734078, 0.04296585, 0.095107004, -0.0057228836, 0.10223303, 0.09558483, -0.34999937, 0.14695123, 0.0063021267, -0.13875759, -0.094501816, 0.099334165, 0.0939824, 0.1380194, 0.06945353, 0.136109, 0.299788, -0.11460644, 0.14257047, -0.095257595, 0.12856397, 0.12136562, 0.018777141, 0.08745177, -0.086757466, 0.0033987018, -0.11416461, -0.2121441, 0.0506276, 0.16792962, 0.09659855, 0.16602992, 0.24529445, -0.3381382, 0.12225186, -0.120808855, 0.16270654, 0.15108998, 0.040257964, 0.28151602, -0.106290534, -0.39772046, -0.10712716, -0.14338547, -0.047334835, 0.13720898, -0.076692924, 0.1511547, 0.29587898, -0.17239554, 0.15808453, -0.10616803, 0.1558191, 0.15323241, -0.1433644, 0.056347065, -0.090424836, -0.047891278, -0.14452012, -0.21959871, -0.19777887, 0.18490583, 0.1605401, 0.19239402, 0.23465335, -0.22041774, 0.12068898, -0.14563611, 0.19418111, 0.19861259, 0.0067035053, 0.26905212, -0.14441667, -0.50105715, -0.09948011, -0.29807997, -0.04818247, 0.12936354, -0.019189626, 0.15083285, 0.18350829, -0.06685389, 0.1366415, -0.0970207, 0.15579988, 0.16584726, -0.068568185, 0.11324535, -0.09037461, -0.01943822, -0.07964433, -0.3739021, -0.04005273, 0.16770281, 0.0619341, 0.16418226, 0.019961445, -0.040386237, 0.09520965, -0.08406475, 0.15807414, 0.15386532, -0.6024906, 0.40495378, -0.072380334, -0.11405068, -0.12899046, -0.26215413, -0.062210783, 0.25033677, 0.18254948, 0.23600037, -0.10544108, -0.05653214, 0.05999265, -0.14360599, 0.23650177, 0.21733242, -0.52553684, 0.1609856, -0.12289524, -0.019548353, -0.03507565, -0.053860627, 0.14227423, 0.11150905, 0.054506596, 0.1178084, -0.010916595, 0.030776674, 0.110563375, -0.028213833, 0.115894735, 0.12406289, -0.80304193, 0.27782774, -0.027145142, 0.0041132635, 0.002808958, 0.0069516804, 0.0054067443, 0.0064205728, 0.00643834, 0.00663038, 0.0064402972, 0.0031312495, 0.0048299404, 0.0006969969, 0.0050485656, 0.0029033595, 0.0070839687, 0.008320603, 0.003210496, 0.006731101, 0.005183528, 0.0025177284, 0.004392489, 0.008845009, 0.0012349999, 0.0067401724, 0.0004911695, 0.0056328354, 0.008457539, 0.0015071518, 0.0012102966, 0.0002664665, 0.0016222972, 0.0019885807, 0.0034769778, 0.0036246467, 0.0068833865, 0.0067984816, 0.005673915, 0.0031337275, 0.0029593192, 0.009131028, 0.0070566544, 0.00687346, 0.008743303, 0.0018120267, 0.008376549, 0.0023561043, 0.0076561975, 0.0040845214, 0.0060657696, 0.008651793, 0.0066649164, 0.0045799376, 0.0086757755, 0.00076747336, 0.0033577266, 0.0031032409, 0.007813035, 0.0044541373, 0.006429724, 0.0072216266, 0.0032690659, 0.004979312, 0.009215313, 0.005866959, 0.001485471, 0.0015600487, 0.0043946165, 0.0036124315, 0.006667043, 0.007876113, 0.0028786003, 0.0018988207, 0.0070984513, 0.0029586293, 0.0013368747, 0.00665975, 0.0005390327, 0.0015546519, 0.0093271015, 0.0052454774, 0.0046212072, 0.0032820355, 0.0013731503, 0.0012009632, 0.0007899671, 0.007413125, 0.00046428485, 0.0054141893, 0.003651561, 0.008507961, 0.0039301445, 0.009170013, 0.008640757, 0.0057219444, 0.00041689214, 0.006236611, 0.002178861, 0.008397386, 0.006870468, 0.0057470156, 0.005827517, 0.001514129, 0.0037549068, 0.006446489, 0.000327266, 0.00089779403, 0.0012509967, 0.0038314352, 0.0039692624, 0.0016458709, 0.006003562, 0.0014792143, 0.0064565227, 0.002086231, 0.004617293, 0.008986868, 0.0074334373, 0.0022237943, 0.008860004, 0.0065510166, 0.0061926497, 0.00032027208, 0.0047250153, 0.0022773764, 0.008350755, 0.00823771, 0.0064155986, 0.0018338978, 0.004259036, 0.15005067, -0.052134052, 0.16698618, 0.13834147, 0.08151703, -0.07041466, 0.08987825, -0.17219311, -0.09254387, 0.031130655, -0.058592245, 0.10053495, 0.104365975, -0.036170073, 0.07441325, -0.06474326, -0.059031047, -0.0879923, 0.23659824, 0.05553402, 0.08485863, -0.11934611, 0.07259234, 0.055853825, -0.11008769, 0.12621027, -0.09110998, 0.08125769, 0.08656813, -0.09007827, 0.07109702, -0.09569935, 0.016796332, -0.06502505, 0.22650939, 0.029540934, 0.096451685, 0.006378356, 0.09662256, -0.018344056, -0.074741036, 0.1538404, -0.06364462, 0.106750205, 0.10433476, -0.14332066, 0.09803687, -0.08872184, -0.06103504, -0.08827014, 0.18759115, -0.03182033, 0.10317968, -0.0931291, 0.1060315, 0.09493649, -0.120784625, 0.18505344, -0.080646925, 0.122504346, 0.1197456, -0.12330654, 0.09662951, -0.08909346, 0.005218381, -0.088036634, 0.15970322, 0.13190798, 0.09753143, -0.10563169, 0.094555706, -0.04685716, -0.08340359, 0.16578022, -0.09129282, 0.10843637, 0.10871056, -0.04667211, 0.10237984, -0.08914617, 0.01835859, -0.12034731, 0.15233305, -0.044307772, 0.13151066, -0.094773635, 0.12171472, 0.10860506, -0.118049264, 0.14258736, -0.1217184, 0.14076813, 0.12954079, -0.021755958, 0.12277062, -0.14026558, 0.036849797, -0.08259875, 0.17880927, 0.102612734, 0.081466705, -0.13735978, 0.069989845, 0.019006202, -0.111992, 0.1331454, -0.08506122, 0.09091669, 0.0893234, -0.0957887, 0.09331575, -0.09790252, -0.106511034, -0.055173956, 0.16844939, -0.021031996, 0.09259493, -0.06483509, 0.08896633, -0.09727537, -0.09066156, 0.14413436, -0.043790642, 0.10375472, 0.09090446, -0.15692903, 0.0016004058, -0.051992424, -0.034904882, -0.05874792, 0.16515346, 0.078005105, 0.08873036, -0.037500974, 0.08352519, -0.044655655, -0.17501333, 0.14098364, -0.050084766, 0.1083168, 0.09773897, -0.11739019, 0.11043621, -0.07166594, -0.036332637, -0.09546129, 0.13884906, -0.024609858, 0.08981453, -0.13160636, 0.09469392, 0.21042512, -0.078023374, 0.1694138, -0.09460095, 0.101759166, 0.105864316, -0.13153061, 0.099143066, -0.10734062, -0.034269728, -0.07850911, 0.20687214, 0.013543458, 0.10085594, -0.13252908, 0.095070265, 0.039237343, -0.06354344, 0.15916224, -0.08106921, 0.106202416, 0.10663944, -0.05212849, 0.13185926, -0.079199344, -0.044202756, -0.10650834, 0.1872781, 0.09512477, 0.09656186, -0.13159792, 0.107717656, 0.11314505, -0.09400104, 0.1525205, -0.10256882, 0.11295609, 0.11185963, -0.025903279, 0.11226585, -0.115165494, -0.026808897, -0.10329355, 0.17916852, 0.060047884, 0.10715396, -0.13614939, 0.110378735, 0.0628952, -0.14116965, 0.17999558, -0.10095184, 0.10898589, 0.1104181, -0.0656841, 0.1542658, -0.10704851, 0.038771812, -0.11795415, 0.14171138, 0.12278082, 0.14530744, -0.10074521, 0.14167814, 0.09790919, -0.10697565, 0.1843253, -0.11153306, 0.14352676, 0.14573628, -0.0325183, 0.12761772, -0.12594017, 0.010763954, -0.09507778, 0.16670182, 0.060382422, 0.12114744, -0.15324418, 0.117244974, -0.0025554365, -0.08542369, 0.15789561, -0.088528365, 0.13450985, 0.122822315, -0.006552332, 0.1654409, -0.10201233, -0.016353594, -0.09795458, 0.1454074, 0.0059430636, 0.10091559, -0.15449508, 0.10025363, 0.06479256, -0.12840179, 0.12265195, -0.0886642, 0.11039527, 0.110769264, -0.04783297, 0.12160907, -0.10535613, -0.10993152, -0.061631702, 0.29107624, -0.011523706, 0.048539106, -0.109820515, 0.055188585, 0.12776789, -0.14334862, 0.16676386, -0.05805183, 0.07644569, 0.06940002, -0.064585164, 0.06588341, -0.07509863, 0.026303457, -0.10989067, 0.18641055, 0.070217006, 0.12817667, -0.10341534, 0.12645859, 0.1221548, -0.08298393, 0.16845156, -0.106422454, 0.14454748, 0.14355838, -0.016971452, 0.17422411, -0.12700723, -0.07248293, -0.101163074, 0.16765365, 0.018903155, 0.11402005, -0.15875113, 0.103690766, 0.13051175, -0.010031688, 0.17651455, -0.10161939, 0.087505035, 0.08210415, -0.08204535, 0.13016544, -0.08584813, 0.042435735, -0.10782608, 0.17175609, 0.09275181, 0.143842, -0.1575398, 0.13409624, 0.059682596, -0.10363602, 0.18598934, -0.1128864, 0.14123814, 0.13307124, -0.01666041, 0.16288164, -0.11273391, -0.010823495, -0.113633044, 0.17735134, 0.015784154, 0.15234947, -0.133474, 0.15058753, 0.1309792, -0.1298777, 0.21418859, -0.11664895, 0.15513624, 0.14796859, -0.005976685, 0.15430838, -0.12421223, -0.06293806, -0.14039944, 0.1271387, 0.117982015, 0.12573817, -0.15824518, 0.12909374, 0.01551318, -0.088996895, 0.1591802, -0.13591199, 0.096114516, 0.104269646, -0.04370312, 0.16042058, -0.14599092, -0.0703847, -0.1054681, 0.14644721, 0.03533282, 0.14160164, -0.14827542, 0.14071468, 0.14767078, -0.1248319, 0.18843861, -0.10699832, 0.14772703, 0.14428678, -0.043921802, 0.089897655, -0.11260943, 0.043179046, -0.11911211, 0.097900175, 0.12744159, 0.14689693, -0.11911871, 0.1332228, -0.016257579, -0.09504618, 0.14354023, -0.12136254, 0.14004247, 0.13172555, -0.0649671, 0.16813187, -0.12399506, -0.052737195, -0.09063661, 0.16415769, 0.011531297, 0.09696157, -0.16051866, 0.10289288, 0.15763843, -0.084900014, 0.11412737, -0.09077421, 0.1269122, 0.13191666, -0.037839644, 0.16882572, -0.1051996, 0.04876351, -0.117161006, 0.15000544, 0.019321522, 0.11642576, -0.19099362, 0.1204349, 0.06674914, -0.1358885, 0.19724087, -0.109642334, 0.13161974, 0.13350402, -0.04812904, 0.17672841, -0.13023598, -0.08221383, -0.08676677, 0.12569357, 0.000926819, 0.10310141, -0.22259995, 0.107191145, 0.19792096, -0.09282053, 0.20072074, -0.08709489, 0.118644625, 0.12299792, -0.025395334, 0.123166256, -0.092460364, 0.0071386932, -0.08664802, 0.115772046, 0.09821421, 0.12966976, -0.17565067, 0.1262326, 0.03033925, -0.13186759, 0.21728311, -0.09190187, 0.12013229, 0.12491429, -0.09821385, 0.20396666, -0.07937784, -0.04734223, -0.10128732, 0.07601077, 0.03384085, 0.14381537, -0.1495845, 0.14273001, 0.22008352, -0.1441836, 0.19357169, -0.10324452, 0.12914471, 0.12660834, 0.014892811, 0.1484878, -0.10104215, 0.05786049, -0.10478515, 0.06689199, 0.17007889, 0.15852316, -0.16987483, 0.15249479, 0.08413695, -0.08146778, 0.18942195, -0.10264182, 0.1474114, 0.14416088, -0.048002817, 0.19581892, -0.097732574, -0.027981125, -0.08107634, 0.05251171, 0.008999261, 0.13561341, -0.16527267, 0.1349759, 0.13243935, -0.09991614, 0.16164437, -0.0908803, 0.15239644, 0.14142646, 0.044394836, 0.17194033, -0.086897716, -0.064377345, -0.104026824, 0.04096742, 0.07743695, 0.12856944, -0.16359322, 0.14089525, 0.022007264, -0.14069039, 0.18058068, -0.09872858, 0.14643034, 0.14363489, -0.06110137, 0.115996026, -0.101517305, -0.020529531, -0.12761125, 0.16251189, -0.1300203, 0.15648508, -0.18680096, 0.16527243, 0.15628012, -0.08013509, 0.1649181, -0.12568106, 0.15746796, 0.15622675, -0.022559455, 0.12974826, -0.120592415, 0.03630895, -0.10251498, 0.143443, -0.001065417, 0.11992663, -0.14586692, 0.13479656, 0.1151062, -0.0784189, 0.15683705, -0.10266879, 0.12764134, 0.13869146, -0.044072416, 0.12726133, -0.10008792, -0.027304327, -0.1228565, 0.12231263, -0.03771684, 0.14874434, -0.20183237, 0.1579417, 0.15027627, -0.1421002, 0.1940573, -0.113304526, 0.15811439, 0.1697762, -0.039796222, 0.21468969, -0.12083847, 0.027505375, -0.10765013, 0.065530755, -0.019551488, 0.15053996, -0.22163409, 0.1529993, 0.19654807, -0.09279587, 0.19775881, -0.111090705, 0.15247986, 0.1570034, -0.066446826, 0.13147536, -0.11647977, -0.043141846, -0.12572882, 0.04433851, 0.053410932, 0.14158736, -0.24108107, 0.15890749, 0.103448495, -0.18864477, 0.16377336, -0.11714565, 0.1504089, 0.17375371, 0.030322788, 0.19841242, -0.11366091, 0.0713921, -0.11043768, 0.0073545766, 0.03452492, 0.13692603, -0.28963462, 0.14345908, 0.11252805, -0.09581849, 0.2110385, -0.10796343, 0.14943688, 0.16316073, -0.043007012, 0.19605868, -0.094903655, -0.094651245, -0.09191087, 0.029093644, 0.06344529, 0.10139962, -0.25104165, 0.12314688, 0.08862625, -0.19130018, 0.11902196, -0.08681768, 0.12863712, 0.14556432, -0.029350974, 0.20176029, -0.08004578, 0.012331289, -0.12868743, 0.05055667, -0.10345801, 0.16559984, -0.2302893, 0.16769615, 0.10165615, -0.11703327, 0.18221101, -0.13663077, 0.17238384, 0.1763565, 0.004469759, 0.13157493, -0.13698442, -0.022622172, -0.1248891, -0.003872937, 0.021079512, 0.14424944, -0.27950504, 0.14403667, 0.09858058, -0.08447237, 0.132513, -0.13308387, 0.14421423, 0.1377494, -0.067782514, 0.12784766, -0.12647858, -0.0031107021, -0.14874782, 0.07695975, -0.14146607, 0.15537259, -0.25480536, 0.1751722, 0.1569263, -0.08175078, 0.10439072, -0.15390506, 0.17422087, 0.1780877, -0.04785938, 0.113755256, -0.1433695, -0.05687793, -0.13119684, 0.028000154, -0.045579266, 0.11632802, -0.32281855, 0.14727412, 0.14135435, -0.1610653, 0.17972042, -0.11902673, 0.15471843, 0.17251785, 0.012516544, 0.14983344, -0.12735276, 0.024995368, -0.13776931, 0.0034686876, -0.04572174, 0.14842938, -0.267603, 0.16302298, 0.18800342, -0.09653307, 0.1685298, -0.14094913, 0.17184244, 0.18486875, 0.008896933, 0.19242391, -0.13328521, 0.03215884, -0.16308813, -0.057127677, -0.047921505, 0.20474102, -0.29149053, 0.2139691, 0.15611593, -0.17078583, 0.14857376, -0.17046614, 0.2081794, 0.2074218, 0.014768378, 0.19062638, -0.16267745, -0.003145241, -0.12260255, -0.08765371, 0.0071002943, 0.16849162, -0.37787244, 0.15992433, 0.14464337, -0.2373055, 0.18474418, -0.1290615, 0.15437567, 0.14385661, 0.01596899, 0.17482091, -0.12935483, -0.03949004, -0.0995625, -0.046907973, 0.1019683, 0.14700563, -0.31426665, 0.14411755, -0.0452361, -0.15887645, 0.16372599, -0.10726545, 0.1479985, 0.14746273, 0.17832103, 0.18915732, -0.09560105, -0.059134733, -0.08956949, -0.06076632, 0.03925587, 0.14955369, -0.267217, 0.14123094, 0.06626129, -0.09971479, 0.13868764, -0.09555458, 0.12497269, 0.12256719, -0.051426698, 0.11144062, -0.088685945, 0.07274704, -0.1300316, 0.11524278, -0.022656675, 0.13320017, -0.1408967, 0.14691891, 0.07288562, -0.12324176, 0.12629679, -0.11909431, 0.14795655, 0.1573303, -0.040868636, 0.0890905, -0.12549384, 0.0038560114, -0.12536353, 0.08554996, -0.15895668, 0.1294776, -0.2013842, 0.14886756, 0.11917911, -0.14155771, 0.17455581, -0.1172586, 0.13474518, 0.14411834, 0.003961067, 0.16036783, -0.12245364, 0.13563041, -0.14978771, 0.009906242, -0.08839087, 0.16000225, -0.29323283, 0.18241452, 0.054443803, -0.08720082, 0.13941732, -0.14104909, 0.19025065, 0.21079914, -0.020257456, 0.11666049, -0.13546702, -0.011310643, -0.12918854, -0.051303826, -0.034145504, 0.15257066, -0.3065273, 0.15236503, 0.15143614, -0.16068186, 0.14397487, -0.12864184, 0.1579644, 0.16030356, 0.048708826, 0.12442987, -0.12472033, 0.024563586, -0.10543056, -0.054297853, 0.05932292, 0.1603593, -0.33221844, 0.14777264, 0.086023115, -0.12288624, 0.16081457, -0.1091391, 0.13929011, 0.13598497, -0.007898283, 0.11122959, -0.09694163, 0.017884217, -0.12985604, -0.10153175, -0.0015814479, 0.19383219, -0.3347415, 0.17751305, 0.14376216, -0.1985095, 0.13191842, -0.13959353, 0.1680291, 0.15602037, 0.06739182, 0.14424989, -0.12898758, 0.013642374, -0.08943246, -0.053993315, -0.04916363, 0.13965784, -0.34149256, 0.13183272, 0.023216266, -0.13232094, 0.15907262, -0.08883131, 0.1339805, 0.14296624, -0.18687604, 0.153366, -0.08724188, 0.05431515, -0.14621034, -0.03541577, -0.016136935, 0.16198428, -0.29065824, 0.15785308, -0.01930153, -0.14903775, 0.09721694, -0.13801873, 0.14617471, 0.13659361, 0.055820744, 0.18989046, -0.1458268, -0.13017066, -0.04317768, -0.15899356, -0.13350481, 0.08273287, -0.14415036, 0.06336797, 0.065432414, -0.35653535, -0.09234621, -0.050186526, 0.045927666, 0.04367487, -0.108591475, 0.038804185, -0.035872843, -0.025476886, -0.08327688, 0.0026556621, -0.06981592, 0.07550756, -0.23897895, 0.087813, 0.119916975, -0.06621348, 0.10959557, -0.07590952, 0.09813896, 0.10502484, -0.1852973, 0.029385041, -0.08164739, 0.13234165, -0.06105315, 0.0024981224, -0.029312383, 0.08580995, -0.25551772, 0.093841664, 0.13605398, -0.08546321, 0.12656303, -0.057655662, 0.10158821, 0.10508279, -0.18619636, 0.074083336, -0.050747097, -0.0507643, -0.055701703, -0.10093562, 0.06440197, 0.088927045, -0.16784728, 0.08888067, 0.12974662, -0.14688246, 0.12287123, -0.06363239, 0.09274202, 0.081790805, -0.04778061, 0.102545284, -0.05144235, 0.100348346, -0.1016391, -0.16145816, -0.091939405, 0.14960572, -0.32714695, 0.13386327, 0.09263551, -0.15657899, 0.13826743, -0.11099266, 0.13210528, 0.12125447, -0.1505962, 0.15066433, -0.10452994, -0.23291887, -0.0033567334, -0.19241562, 0.08351856, 0.08043313, -0.276736, 0.048603173, 0.088679984, -0.10366781, 0.1080113, -0.022133766, 0.040495075, 0.0050777546, -0.26380694, 0.0345923, -0.012824025, -0.025603058, -0.08254232, -0.028203215, 0.07000833, 0.10770037, -0.2556048, 0.105168335, -0.07060261, -0.08670462, 0.08079619, -0.07840054, 0.10030592, 0.10292913, -0.18629, 0.045138642, -0.07404604, -0.13422835, 0.005835881, -0.5516972, 0.07562279, 0.027000824, -0.2582947, 0.025087215, 0.05303916, -0.02076809, 0.07703449, -0.002331049, 0.016433852, 0.01856026, -0.25400597, 0.09054917, 0.0051171496, -0.19061045, -0.1113312, 0.052316047, 0.07860695, 0.13132982, -0.09285936, 0.13156189, 0.10565378, -0.112002455, 0.09298037, -0.110992245, 0.12020407, 0.118802264, -0.102642044, 0.15542378, -0.113816984, -0.06505265, -0.10935834, 0.044332378, 0.07736018, 0.16046649, -0.15398888, 0.15462053, -0.10607373, -0.13627616, 0.129915, -0.11106241, 0.15556762, 0.15661615, -0.03951461, 0.011914798, -0.10630285, -0.122130066, -0.1351275, 0.106158756, -0.015141057, 0.12426655, -0.16389224, 0.117484614, 0.09954094, -0.113685876, 0.09085681, -0.13374352, 0.13308924, 0.12715892, -0.061177347, 0.055453464, -0.14704797, -0.076554455, -0.086065024, 0.11968594, 0.09044507, 0.11073175, -0.106922485, 0.10771698, 0.069805115, -0.08195113, 0.14269078, -0.08099893, 0.12415917, 0.116025366, -0.07065389, 0.069539614, -0.08888101, -0.098998524, -0.06817051, 0.18068413, 0.112840846, 0.09385027, -0.14522924, 0.099549666, 0.1472726, -0.103723325, 0.117617816, -0.059394885, 0.10894401, 0.10739346, -0.09042272, 0.12288334, -0.07727525, -0.021012858, -0.09925264, 0.12408487, 0.10586364, 0.094388306, -0.13685332, 0.09681142, 0.12189652, -0.27438816, 0.094370835, -0.09707392, 0.11263589, 0.116460055, -0.0446231, 0.09645339, -0.11483709, -0.18866825, -0.091565095, 0.17311299, 0.049753398, 0.12864915, -0.20259671, 0.1302589, 0.0899388, -0.09921102, 0.011919788, -0.0841008, 0.13139065, 0.13543977, -0.09164899, 0.12893744, -0.08943871, -0.09816764, -0.09032676, 0.043664277, 0.09514331, 0.10175574, -0.23663574, 0.117742985, 0.060605694, -0.09609098, 0.0854587, -0.07820224, 0.1285055, 0.13717386, -0.018909844, -0.05281071, -0.098206185, -0.1707977, -0.10463289, 0.039783377, 0.109887846, 0.13382654, -0.23924355, 0.14087568, 0.01285582, -0.16046418, 0.119495206, -0.09811629, 0.13442352, 0.13899349, -0.07259447, -0.014166601, -0.09995062, -0.16625112, -0.14358394, 0.048283014, 0.0786305, 0.15737529, -0.17070389, 0.15343793, 0.11632054, -0.11501519, 0.10349879, -0.13711032, 0.13899694, 0.14248857, -0.14216809, 0.13254046, -0.12790504, -0.03940571, -0.13918969, 0.037349574, 0.037940457, 0.17136846, -0.17336163, 0.16416089, 0.049647935, -0.099379204, 0.13871673, -0.14017154, 0.15886275, 0.1608095, 0.016133908, 0.074493624, -0.13964002, -0.16948955, -0.111827284, 0.10720727, 0.06494603, 0.1067026, -0.18063892, 0.10879227, 0.12114548, -0.07557268, 0.13659713, -0.106962405, 0.11092291, 0.11021057, -0.08023776, 0.13596876, -0.12533766, 0.008437902, -0.11863075, 0.12004278, 0.15694928, 0.13086784, -0.1617534, 0.12498342, 0.11573082, -0.04995674, 0.14350407, -0.11818268, 0.12836356, 0.1311311, -0.04273146, 0.0857728, -0.12432514, -0.18298958, -0.11779322, 0.17408554, 0.065149255, 0.14598644, -0.19333948, 0.1444098, 0.16152358, -0.10434155, 0.10213724, -0.11579208, 0.13637255, 0.13774595, -0.045947567, 0.18177578, -0.11898421, -0.074527614, -0.14231847, 0.15135372, 0.0809554, 0.15206999, -0.17660873, 0.14844806, 0.1513988, -0.028930388, 0.07692955, -0.13910067, 0.14390537, 0.13777918, 0.011136714, 0.0787251, -0.14197694, -0.08420928, -0.10774632, 0.16785783, 0.02466777, 0.1505952, -0.21369396, 0.14676838, 0.03085985, -0.11929007, 0.10600971, -0.11391326, 0.14401866, 0.14910333, -0.071153395, 0.13406464, -0.109797634, -0.11314997, -0.0921218, 0.04652976, 0.034666948, 0.11501488, -0.23149647, 0.11139035, 0.10162214, -0.09277289, 0.08695632, -0.09817117, 0.12089515, 0.11303842, -0.11412691, 0.1574198, -0.09167587, -0.045716915, -0.12113703, 0.059962075, 0.13650718, 0.14190039, -0.18652058, 0.1411374, 0.14309447, -0.102947734, 0.16083765, -0.12416281, 0.13655937, 0.14226286, -0.00880689, 0.04776892, -0.117137805, -0.17293386, -0.09221846, 0.07907769, 0.086080104, 0.13722743, -0.19491711, 0.12934126, 0.19417079, -0.14253758, 0.16408144, -0.10186488, 0.13511825, 0.13392292, -0.13247395, 0.16298635, -0.10231024, -0.008694109, -0.14095119, 0.054136008, 0.13520832, 0.16758676, -0.16829796, 0.15992396, 0.09351302, -0.09110369, 0.15068665, -0.14770825, 0.15886866, 0.153084, -0.03136762, 0.086932644, -0.13611503, -0.12565507, -0.10678739, 0.114942014, 0.0860935, 0.13723321, -0.18781476, 0.13654965, 0.17681807, -0.102179684, 0.15045746, -0.11034492, 0.13184695, 0.13038217, -0.09697108, 0.16443026, -0.102398165, -0.07398296, -0.10833807, 0.10124078, 0.16185853, 0.12803987, -0.16966197, 0.14154571, 0.14468294, -0.019633181, 0.1558292, -0.0966808, 0.1386398, 0.14716524, -0.009664678, 0.12812388, -0.10816757, -0.19791104, -0.122523755, 0.17410374, 0.03767729, 0.12534799, -0.22276048, 0.13257939, 0.11022105, -0.18378833, 0.12078256, -0.119847186, 0.11841289, 0.12595965, -0.102374464, 0.15912977, -0.12132503, 0.0022136634, -0.11820237, 0.09671435, 0.016161095, 0.15039138, -0.18687867, 0.14696836, 0.17966485, -0.11858652, 0.0925095, -0.12189716, 0.16128081, 0.16242668, -0.009666539, 0.06736069, -0.1246587, 0.01839886, -0.100306004, 0.07753575, 0.039951745, 0.15481798, -0.13631225, 0.15979286, 0.118559346, -0.07600897, 0.109750465, -0.10171883, 0.13539073, 0.1496517, -0.020783495, 0.0631406, -0.09835307, -0.08636328, -0.12143241, 0.067730725, -0.022141684, 0.13719589, -0.21789841, 0.14368418, 0.16044804, -0.12083904, 0.1611814, -0.11766819, 0.13933937, 0.15067017, -0.042716246, 0.13386017, -0.119205885, -0.06080207, -0.11341636, 0.03776239, 0.13549049, 0.13551515, -0.1848675, 0.14906277, 0.16746876, -0.13978964, 0.16821806, -0.11581436, 0.13995832, 0.15281323, -0.054926448, 0.08183672, -0.11083962, -0.020049112, -0.1029785, 0.04013565, 0.10301779, 0.1504846, -0.22480093, 0.14345074, 0.12287111, -0.14675392, 0.14996128, -0.10942922, 0.14405741, 0.14134729, -0.14756216, 0.20599908, -0.0925665, -0.034704205, -0.1217037, 0.063526936, 0.1575347, 0.1955349, -0.14932375, 0.1806201, 0.13205844, -0.13383766, 0.17769556, -0.13163649, 0.17133513, 0.16945145, 0.060931105, 0.11662496, -0.11787758, -0.119643405, -0.13521774, 0.09693084, 0.085221104, 0.1390338, -0.21017194, 0.1545224, 0.12504247, -0.15611643, 0.107975625, -0.12579128, 0.13921352, 0.1526025, -0.12632486, 0.16704762, -0.13565311, 0.0056336806, -0.123577155, 0.090874515, 0.05121789, 0.13871603, -0.14733593, 0.15019964, 0.12856108, -0.14178883, 0.10771651, -0.12229986, 0.15625587, 0.16283517, -0.015053598, 0.12644129, -0.124060825, -0.13036744, -0.13062781, 0.07840575, -0.08293932, 0.16084073, -0.17588651, 0.16582093, 0.13414115, -0.1074527, 0.1544908, -0.13274941, 0.16527617, 0.16464159, -0.10019711, 0.14266269, -0.13578548, -0.20908481, -0.110175736, 0.10045967, 0.030509641, 0.14444062, -0.18356365, 0.14521748, 0.15655982, -0.10655532, 0.13885269, -0.10434608, 0.13326599, 0.1422241, -0.09388991, 0.11326307, -0.10339845, 0.0336001, -0.1151861, 0.06487061, 0.15583028, 0.13649207, -0.17384009, 0.14059083, 0.17541657, -0.119956575, 0.14224641, -0.12178586, 0.14683695, 0.14345208, -0.0048524295, 0.10967157, -0.11643764, -0.11140646, -0.11846847, 0.039456345, -0.0051058517, 0.14474797, -0.27767023, 0.15132324, 0.16636066, -0.1758256, 0.1422326, -0.122890845, 0.15854491, 0.16116913, -0.07538588, 0.15675235, -0.11473212, 0.05135344, -0.13242272, -0.025062947, 0.10037556, 0.17136914, -0.23876868, 0.16798301, 0.148874, -0.14351198, 0.16729398, -0.13410495, 0.16198482, 0.1681581, 0.014909124, 0.10561857, -0.12806617, -0.16030014, -0.10663844, 0.032178, 0.06182459, 0.14385632, -0.22361937, 0.15155914, 0.1496677, -0.14186147, 0.14367831, -0.106081, 0.1550338, 0.16156185, -0.024274483, 0.20128012, -0.10439063, -0.0036463186, -0.12563664, -0.022421643, 0.021201307, 0.18686894, -0.22107404, 0.18402621, 0.09136873, -0.093832456, 0.15318374, -0.12874976, 0.18362619, 0.1805401, -0.046322554, 0.12718002, -0.12424768, -0.13470207, -0.124814674, 0.047185432, 0.010067624, 0.14182106, -0.21669723, 0.15819207, 0.12258222, -0.18423755, 0.11666005, -0.12319209, 0.1531007, 0.16626218, -0.09737908, 0.16631052, -0.11779158, -0.1264487, -0.1204714, 0.0075199353, 0.030388547, 0.14581572, -0.17339964, 0.14379486, 0.097882904, -0.11653599, 0.14939466, -0.12110666, 0.14224383, 0.14338328, -0.06985786, 0.109188996, -0.12137614, 0.026952792, -0.14037706, 0.06960728, 0.044071443, 0.15890743, -0.19259053, 0.16430351, 0.12645432, -0.12731048, 0.111173, -0.13638349, 0.15676697, 0.17357494, 0.0041028946, 0.040409997, -0.14015436, -0.07927322, -0.13778444, 0.07559852, 0.001709313, 0.15534276, -0.26038387, 0.16930103, 0.17458542, -0.103477955, 0.13064218, -0.13210975, 0.17489997, 0.18552339, -0.13338351, 0.12891129, -0.12449486, -0.06315075, -0.125906, 0.077904, 0.07248649, 0.15086216, -0.20310037, 0.15860875, 0.19470792, -0.077508345, 0.14048895, -0.129112, 0.16013257, 0.16450539, -0.057575442, 0.11571934, -0.121024504, -0.024433477, -0.15018784, 0.017183414, -0.058510818, 0.17815728, -0.27045792, 0.18778357, 0.15761822, -0.13803753, 0.10816121, -0.14998682, 0.1829009, 0.18200004, -0.10434219, 0.1913141, -0.14313222, 0.031628534, -0.13735646, -0.060141586, 0.009799439, 0.19225995, -0.2972211, 0.19686852, 0.09688075, -0.109064244, 0.15253724, -0.13871977, 0.19929725, 0.1951455, 0.048723083, 0.12104593, -0.12734872, -0.09688536, -0.12266951, -0.024043193, -0.0478591, 0.14726174, -0.2944119, 0.14823715, 0.17439947, -0.17576416, 0.14589186, -0.11938961, 0.15421787, 0.16396156, -0.09805133, 0.18367147, -0.11053878, -0.050261036, -0.15141873, -0.03584106, 0.022161372, 0.18646672, -0.2647445, 0.19370191, 0.08920277, -0.16908881, 0.13464916, -0.15144175, 0.18238948, 0.1883821, 0.024139812, 0.11912, -0.14210057, -0.1821506, -0.11815443, 0.05245387, -0.012048628, 0.13541713, -0.26590607, 0.14222217, 0.15866683, -0.11013696, 0.0876887, -0.11843591, 0.15349954, 0.15892614, -0.08269869, 0.1352647, -0.11477521, -0.034574334, -0.09697938, 0.06428089, 0.08385681, 0.14168172, -0.23688808, 0.14357644, 0.14633444, -0.0893371, 0.07604486, -0.093879834, 0.14280063, 0.14842574, -0.100441545, 0.1293549, -0.091946125, -0.011030896, -0.1283897, 0.06569695, 0.06188528, 0.14062478, -0.21399355, 0.15371376, 0.10152056, -0.08243226, 0.10621566, -0.12538777, 0.17016514, 0.18048276, 0.032280136, 0.06137756, -0.13695705, -0.06697466, -0.12589, 0.10274597, 0.0018269108, 0.12900014, -0.26780254, 0.1536487, 0.15456332, -0.13231562, 0.102720775, -0.112107635, 0.16483328, 0.17364417, -0.09850769, 0.17440748, -0.12571575, 0.018843971, -0.1005611, 0.03275115, 0.10054664, 0.13962078, -0.23882249, 0.15631351, 0.09111666, -0.08220555, 0.13172154, -0.098691344, 0.15575036, 0.16551167, -0.005212875, 0.10404401, -0.09720698, -0.17676997, -0.103210986, -0.032345876, 0.0025200667, 0.122540265, -0.32672757, 0.13595086, 0.15223758, -0.14293067, 0.11180423, -0.1034573, 0.13890746, 0.15061927, -0.110882826, 0.1351094, -0.10953845, -0.08061775, -0.110006, -0.05947538, 0.056879878, 0.15642424, -0.2648983, 0.15695725, 0.05423521, -0.14643084, 0.149267, -0.11292299, 0.15024392, 0.15576324, -0.092748545, 0.09286688, -0.103484534, -0.19400208, -0.12256727, -0.03528881, 0.052877072, 0.14297208, -0.21607369, 0.14872296, 0.036804546, -0.14140925, 0.084724486, -0.11917356, 0.15321575, 0.16452363, -0.038312327, 0.11333955, -0.118921116, 0.029047674, -0.12161239, -0.022734622, 0.12694392, 0.15061729, -0.2943358, 0.15708908, 0.056439716, -0.11951828, 0.081796885, -0.12385268, 0.16236916, 0.16100632, -0.04431278, 0.0207746, -0.12282971, -0.011011343, -0.06899712, 0.053307686, 0.17649812, 0.11018372, -0.24364775, 0.12036992, 0.07305026, -0.09138688, 0.04130593, -0.05802422, 0.12507932, 0.12655888, -0.15129621, 0.018676821, -0.0669811, -0.012922845, -0.089895755, 0.048966207, 0.07442826, 0.09332275, -0.2243293, 0.11312681, 0.08527493, -0.10160567, 0.04309657, -0.0856941, 0.11652863, 0.13146952, -0.08996469, 0.10911082, -0.084946424, -0.05305539, -0.10537022, 0.044138614, 0.05906222, 0.13282387, -0.19772062, 0.14089948, 0.048621677, -0.098299034, 0.13454224, -0.10536959, 0.14196533, 0.1584111, -0.08206568, 0.10905727, -0.10095324, -0.2546027, -0.07761466, 0.032500234, 0.041961845, 0.10154772, -0.20829183, 0.115201496, 0.14994971, -0.09154952, 0.14945237, -0.07381957, 0.115098745, 0.121189706, -0.24154998, 0.10330047, -0.068789534, 0.06477346, -0.08956646, -0.018162925, 0.09707207, 0.10851023, -0.188091, 0.12509269, 0.13618611, -0.077508755, 0.1304775, -0.07929958, 0.1279981, 0.137715, -0.12688981, 0.091383725, -0.08177331, -0.1223325, -0.073461026, -0.10013382, 0.07197388, 0.08707154, -0.26902857, 0.09793867, 0.1103861, -0.113092534, 0.10317848, -0.059063964, 0.093302436, 0.10924333, -0.16562724, 0.07408918, -0.066755496, -0.1123641, -0.08724855, -0.040197372, 0.15680851, 0.13646303, -0.27381065, 0.1451476, 0.12525184, -0.08865856, 0.0981946, -0.087998465, 0.13840975, 0.14784655, -0.06809958, 0.03791342, -0.084441856, -0.16916609, -0.08618678, -0.033618048, 0.027791692, 0.09283379, -0.25944957, 0.107053146, 0.0041147755, -0.11330641, 0.088169634, -0.083585344, 0.105199985, 0.11539892, -0.22057123, 0.062172394, -0.07633315, -0.20861693, -0.14029263, 0.26572353, 0.24164979, 0.12749511, -0.16021404, 0.12414489, 0.16306774, -0.15666164, 0.19133952, -0.1319256, 0.10547877, 0.11395361, -0.2040844, 0.18351647, -0.13989532, -0.097746745, -0.10786174, 0.25119856, 0.25518665, 0.14715272, -0.1619729, 0.13572587, 0.20746496, -0.12499129, 0.19797073, -0.11348474, 0.1466006, 0.13723546, -0.18153739, 0.17903355, -0.13130787, -0.2662062, -0.10554981, 0.2619386, 0.23875642, 0.14678076, -0.18433413, 0.13514473, 0.20318069, -0.108441904, 0.20361339, -0.114305176, 0.13707452, 0.13024941, -0.2280587, 0.19203924, -0.10558167, -0.196302, -0.13133056, 0.22171965, 0.14879057, 0.16156425, -0.1711773, 0.15891139, 0.23231779, -0.12953489, 0.21295889, -0.13432679, 0.14718671, 0.14557667, -0.23864642, 0.172367, -0.12629108, -0.2500355, -0.14863375, 0.20506632, 0.12172836, 0.18606663, -0.17445974, 0.17778797, 0.16279794, -0.06817531, 0.19596276, -0.14807534, 0.17130719, 0.17186923, -0.18228611, 0.18702352, -0.14571273, -0.20476633, -0.14241752, 0.19343351, 0.12716618, 0.16128215, -0.15250173, 0.15637213, 0.16001058, -0.15291746, 0.22909535, -0.14460382, 0.14350837, 0.13358079, -0.31123957, 0.15492475, -0.15230054, -0.2264052, -0.13785383, 0.07117084, 0.19515345, 0.15922481, -0.18653159, 0.15893084, 0.10604177, -0.272038, 0.28148037, -0.12921533, 0.16371922, 0.16237046, -0.12422691, 0.15802836, -0.14409241, -0.102394745, -0.17076342, 0.15456694, 0.1320584, 0.14552628, -0.18580891, 0.14466277, 0.053711187, -0.37517908, 0.22411612, -0.16523327, 0.12750503, 0.13128851, -0.27485892, 0.10283698, -0.18376727, -0.21098647, -0.091901265, 0.27763623, 0.27507386, 0.10814278, -0.16746755, 0.10816926, 0.20032455, -0.14787634, 0.22552791, -0.08966781, 0.12409074, 0.11456611, -0.19375989, 0.1929929, -0.10271776, -0.08720822, -0.116792694, 0.23918222, 0.23899825, 0.15277544, -0.18433775, 0.15935656, 0.20133893, -0.14495139, 0.22276269, -0.10494535, 0.16656116, 0.16457802, -0.15694518, 0.19737928, -0.12622134, -0.29226947, -0.09745172, 0.2793156, 0.2391237, 0.13621391, -0.18910064, 0.13953912, 0.21493146, -0.09951728, 0.23278965, -0.09832009, 0.14813031, 0.13487147, -0.20434603, 0.20160435, -0.11803448, -0.18775038, -0.12671854, 0.2629007, 0.17480013, 0.13974656, -0.15729462, 0.14363137, 0.23724249, -0.14121382, 0.22986358, -0.1186615, 0.14507937, 0.15545477, -0.21575543, 0.21230772, -0.123825595, -0.2610321, -0.13979654, 0.24461181, 0.14665501, 0.17011566, -0.18299717, 0.16461861, 0.19132286, -0.107020795, 0.24201766, -0.1362602, 0.16942768, 0.17595483, -0.18970665, 0.20306884, -0.14844815, -0.17327486, -0.13474813, 0.18447118, 0.15500878, 0.1534923, -0.14739478, 0.14953996, 0.20370205, -0.11427303, 0.2526183, -0.1319298, 0.15254988, 0.15424909, -0.3121631, 0.19681473, -0.14647448, -0.29336387, -0.13702671, 0.13962235, 0.18946043, 0.17104262, -0.19206628, 0.16501632, 0.11655067, -0.15798327, 0.26325083, -0.1325126, 0.18027231, 0.1780224, -0.15550393, 0.18865032, -0.14465554, -0.2208037, -0.10840958, 0.09575221, 0.15517056, 0.14937973, -0.2101739, 0.14164554, 0.09253778, -0.14445384, 0.30314264, -0.10147576, 0.14181453, 0.13625307, -0.34545815, 0.19673316, -0.10268325, -0.1906924, -0.099212274, 0.27198303, 0.27221465, 0.14599434, -0.20136636, 0.1528131, 0.20960853, -0.07836415, 0.22849876, -0.08621798, 0.15523177, 0.16546236, -0.15545484, 0.20250584, -0.09621757, -0.18284827, -0.13554208, 0.29117244, 0.17684495, 0.141405, -0.1891863, 0.15194418, 0.21056785, -0.1263187, 0.23291501, -0.123611696, 0.15729769, 0.16733533, -0.1750443, 0.19940387, -0.14691177, -0.25139138, -0.1259784, 0.24313991, 0.20340496, 0.12080915, -0.19794391, 0.13717929, 0.21845922, -0.12083265, 0.24223673, -0.109318085, 0.13787915, 0.15507163, -0.20968105, 0.23439802, -0.12000377, -0.23272529, -0.13721994, 0.2509667, 0.17821369, 0.1291968, -0.16527337, 0.14214237, 0.26445046, -0.13413928, 0.25413522, -0.1303343, 0.13386257, 0.1481651, -0.2092626, 0.2047938, -0.14514014, -0.25457716, -0.1412732, 0.24776763, 0.1690227, 0.16840366, -0.16443832, 0.17205453, 0.17400803, -0.06829692, 0.20948616, -0.13532971, 0.17152895, 0.18110932, -0.1718076, 0.23939642, -0.13214044, -0.23330452, -0.11839967, 0.1906804, 0.17947897, 0.16578056, -0.16483419, 0.16475615, 0.2278142, -0.092405066, 0.2395919, -0.11809486, 0.16128215, 0.17305654, -0.22365922, 0.22335617, -0.11899075, -0.20870115, -0.13691409, 0.14156957, 0.15394759, 0.19946304, -0.19933823, 0.20649727, 0.18899876, -0.06647801, 0.22634482, -0.13565782, 0.21981515, 0.21995653, -0.14295527, 0.22705784, -0.14400074, -0.2547056, -0.1445516, 0.14011793, 0.1149136, 0.17571785, -0.18912496, 0.17501785, 0.10536767, -0.15559882, 0.23774344, -0.1476273, 0.18245885, 0.18839706, -0.325507, 0.15416606, -0.15959123, -0.20043905, -0.08689739, 0.27234212, 0.24709082, 0.14738771, -0.15567893, 0.15081653, 0.25274876, -0.0956594, 0.27817002, -0.09954809, 0.15533286, 0.1627433, -0.16112034, 0.17137937, -0.09715269, -0.15383738, -0.12234193, 0.27333376, 0.21806228, 0.15150565, -0.15056887, 0.15903679, 0.19768499, -0.12353903, 0.26265007, -0.12156088, 0.15931357, 0.16417237, -0.16036582, 0.21194565, -0.121846534, -0.23980173, -0.109546594, 0.25061458, 0.24592723, 0.14583805, -0.16919732, 0.14799912, 0.2757835, -0.09429679, 0.2698627, -0.10976235, 0.14833562, 0.1479708, -0.20255946, 0.1979631, -0.10529532, -0.20679998, -0.11847227, 0.25415114, 0.20922953, 0.1607874, -0.18336771, 0.16216046, 0.22618896, -0.1448322, 0.2516035, -0.124948144, 0.15966928, 0.15914923, -0.214611, 0.22123215, -0.112428784, -0.2500242, -0.12997003, 0.22213714, 0.20149423, 0.15246218, -0.15998176, 0.15734866, 0.21280244, -0.1289584, 0.26767316, -0.126135, 0.14557502, 0.1630445, -0.21403314, 0.25460207, -0.13169245, -0.16642094, -0.10998646, 0.21358773, 0.19382739, 0.16148764, -0.17605086, 0.16634022, 0.21263753, -0.08819992, 0.25782955, -0.10725646, 0.17286204, 0.17858176, -0.24169388, 0.23304276, -0.11251763, -0.24672715, -0.13276975, 0.19537534, 0.15506704, 0.15934211, -0.17771395, 0.17677799, 0.29012895, -0.105417, 0.25512087, -0.12930085, 0.18449391, 0.1974319, -0.17363884, 0.23842965, -0.13816462, -0.19228157, -0.14215729, 0.20584913, 0.10619017, 0.17177464, -0.18612486, 0.17797497, 0.2455833, -0.08712786, 0.26823902, -0.14025664, 0.17517026, 0.18037038, -0.26779997, 0.19449174, -0.14235102, -0.21746846, -0.11342119, 0.2590164, 0.19833134, 0.16162205, -0.11832654, 0.15466909, 0.22212733, -0.13403083, 0.29220712, -0.1200923, 0.15312715, 0.16032028, -0.15920746, 0.22413154, -0.115505874, -0.18208374, -0.13338998, 0.26527843, 0.20747676, 0.15442523, -0.1455995, 0.16238369, 0.2287278, -0.14237301, 0.28291038, -0.13181257, 0.15715091, 0.16825004, -0.1949903, 0.21719766, -0.12609912, -0.23351145, -0.14033207, 0.23537333, 0.1661311, 0.16939907, -0.18515772, 0.16899922, 0.24347158, -0.14490235, 0.28661698, -0.1348943, 0.16192615, 0.17310967, -0.19647522, 0.23330145, -0.12506843, -0.22170793, -0.14188997, 0.22156596, 0.14177111, 0.17452921, -0.19215669, 0.18278255, 0.22808577, -0.17365164, 0.2773841, -0.15161955, 0.17160437, 0.17713566, -0.17060901, 0.24950656, -0.13945007, -0.17233494, -0.1615853, 0.20628045, 0.12478542, 0.17743663, -0.18014982, 0.18303569, 0.2318422, -0.12700786, 0.2701233, -0.16035187, 0.1823462, 0.19866551, -0.18687412, 0.26406848, -0.15795265, -0.20555848, -0.12739144, 0.18635629, 0.252029, 0.1798788, -0.18290466, 0.18239263, 0.1978291, -0.10839361, 0.29384202, -0.1332668, 0.16399422, 0.17194083, -0.24763873, 0.27156505, -0.120648086, -0.12802003, -0.13697907, 0.1948415, 0.2634808, 0.19176653, -0.17411782, 0.19162647, 0.23014702, -0.15174045, 0.27307943, -0.13881645, 0.18630008, 0.18452094, -0.18372825, 0.27353024, -0.13824566, -0.17964847, -0.122978285, 0.22614273, 0.15798952, 0.20422043, -0.17003499, 0.18926615, 0.23431262, -0.15715697, 0.2811722, -0.13387015, 0.17990422, 0.17311549, -0.23457752, 0.22775237, -0.13412179, -0.2010643, -0.1324393, 0.18318443, 0.10167788, 0.20817386, -0.14164671, 0.19800067, 0.2174915, -0.15116291, 0.3101665, -0.14068595, 0.18949074, 0.18870664, -0.17111969, 0.1943934, -0.13525936, -0.1935052, -0.15527238, 0.21171702, 0.13422708, 0.18116856, -0.1874768, 0.18367344, 0.19663425, -0.16469821, 0.2862972, -0.15673086, 0.17704837, 0.17269978, -0.16727103, 0.2502318, -0.14143114, -0.20807935, -0.15763113, 0.17296979, 0.13103652, 0.18355682, -0.20840237, 0.17962855, 0.27155334, -0.15686545, 0.2959219, -0.163217, 0.17671522, 0.1747631, -0.20848387, 0.24959527, -0.14981332, -0.16784567, -0.15260257, 0.1238812, 0.15568702, 0.20171492, -0.2275755, 0.1937876, 0.22981341, -0.15979387, 0.27319598, -0.15634346, 0.1879745, 0.18690322, -0.161092, 0.2482285, -0.14721218, -0.2133622, -0.17219906, 0.11796546, 0.123690255, 0.20821914, -0.29060152, 0.21379401, 0.27261782, -0.20176195, 0.26693213, -0.17456801, 0.20101179, 0.20805067, -0.16817461, 0.26712427, -0.1559689, -0.21702223, -0.17468423, 0.111637816, 0.03686365, 0.22192238, -0.24701025, 0.22521518, 0.22830772, -0.17806542, 0.27958813, -0.1802625, 0.22633092, 0.21866809, -0.15573122, 0.27637422, -0.17033793, -0.1887905, -0.15629616, 0.14477661, 0.103903584, 0.22041748, -0.245278, 0.21414426, 0.20258781, -0.18345824, 0.2879429, -0.16135533, 0.2050228, 0.20332636, -0.17852522, 0.27242595, -0.15029018, -0.1888841, -0.1504322, 0.18277933, 0.122493304, 0.20233262, -0.22141206, 0.19109605, 0.2691452, -0.18577275, 0.28437608, -0.15353526, 0.17805788, 0.17398743, -0.17017548, 0.24616368, -0.14367494, -0.20565242, -0.13726307, 0.14123861, 0.13116659, 0.20137753, -0.18645462, 0.19004649, 0.22515972, -0.18552606, 0.30227146, -0.14729236, 0.19085926, 0.17654997, -0.17668757, 0.20933168, -0.12976381, -0.17887849, -0.1171535, 0.11907994, 0.1911701, 0.17509972, -0.20484982, 0.17135602, 0.2228505, -0.1817734, 0.28905037, -0.13026287, 0.16315429, 0.15508258, -0.1915563, 0.2103835, -0.11356551, -0.22934985, -0.148233, 0.12129556, 0.10702536, 0.19734412, -0.25626972, 0.19028646, 0.2951399, -0.18703768, 0.27168307, -0.15601383, 0.1962411, 0.1912575, -0.18498532, 0.24111122, -0.14252955, -0.24589811, -0.1468091, 0.11966181, 0.15044984, 0.18693677, -0.25762933, 0.1832283, 0.2736643, -0.12289718, 0.290873, -0.14592344, 0.18430616, 0.18740593, -0.18408257, 0.24974665, -0.14297162, -0.24463232, -0.14438982, 0.069747984, 0.14007924, 0.19777364, -0.26015955, 0.1970386, 0.27845684, -0.15809335, 0.27021977, -0.15904136, 0.19713357, 0.19453098, -0.23740935, 0.26785433, -0.14321595, -0.16755281, -0.17973532, 0.111153424, 0.090726465, 0.24536926, -0.26272035, 0.23378515, 0.28467527, -0.20728007, 0.30027038, -0.19006501, 0.21905136, 0.20918095, -0.16065295, 0.2645063, -0.17487647, -0.18008468, -0.13625002, 0.14563277, 0.16512363, 0.21208376, -0.24049444, 0.18717939, 0.20501667, -0.20154347, 0.26456136, -0.15199228, 0.17492321, 0.15451053, -0.20123915, 0.30485368, -0.13608673, -0.17438677, -0.14006126, 0.08304244, 0.09103628, 0.22274576, -0.24462916, 0.20880376, 0.31526875, -0.18296863, 0.27713847, -0.14853504, 0.2010249, 0.1925211, -0.14159662, 0.25004637, -0.1388534, -0.14757699, -0.14810012, 0.10615353, 0.100236975, 0.22710226, -0.22762549, 0.21848372, 0.26079565, -0.17038475, 0.2738489, -0.15151301, 0.20720664, 0.19953185, -0.15434319, 0.19194499, -0.14759192, -0.10548541, -0.15546176, 0.10969102, 0.09828335, 0.21986587, -0.2611244, 0.22052768, 0.23909487, -0.1611153, 0.2591379, -0.15507606, 0.2202539, 0.22128241, -0.12674429, 0.183026, -0.15120097, -0.21028998, -0.15436226, 0.087556586, 0.13234052, 0.21326551, -0.31977758, 0.20368198, 0.31915092, -0.13866296, 0.26329908, -0.15741895, 0.1954637, 0.18834448, -0.13452847, 0.19250922, -0.14867486, -0.10275023, -0.17640835, 0.078578174, 0.0729162, 0.23066562, -0.2810856, 0.21973002, 0.29630625, -0.18601279, 0.24219535, -0.18604943, 0.21943483, 0.20074013, -0.14137055, 0.21778576, -0.16996913, -0.1918305, -0.15956464, 0.09938422, 0.0650102, 0.22717157, -0.25555116, 0.2162635, 0.26817527, -0.156539, 0.25753915, -0.16741225, 0.21706901, 0.20928966, -0.15949126, 0.25163135, -0.16154136, -0.0568394, -0.18853837, 0.097110614, -0.005897471, 0.23495078, -0.26304793, 0.23460774, 0.23328997, -0.19691835, 0.28635183, -0.1925625, 0.24048826, 0.23387569, -0.14128353, 0.25084856, -0.19570936, -0.0647742, -0.16307443, 0.14969108, 0.12551087, 0.25244865, -0.24700095, 0.24071854, 0.26244026, -0.19420983, 0.27400145, -0.17599994, 0.23969136, 0.23336557, -0.07228576, 0.25374538, -0.16665263, -0.12985523, -0.16415055, 0.13824667, -0.003133916, 0.2549558, -0.2760033, 0.23934679, 0.25803888, -0.18618147, 0.2577493, -0.17460257, 0.2270052, 0.22117999, -0.18879294, 0.21992892, -0.16236664, -0.31491452, -0.30109167, 0.35220927, 0.3262469, 0.30345237, -0.4072755, 0.30468157, 0.37007058, -0.36601874, 0.2593816, -0.30183044, 0.312283, 0.2962646, -0.4014368, 0.326686, -0.3147178, -0.30160007, -0.30549657, 0.36047593, 0.265512, 0.3171235, -0.40993142, 0.325273, 0.3029759, -0.3025653, 0.2651644, -0.30104205, 0.32123178, 0.3187777, -0.43364853, 0.31491557, -0.3132736, -0.32688844, -0.2932015, 0.3667043, 0.24744794, 0.31924453, -0.42346954, 0.3100121, 0.33857462, -0.3656917, 0.25940952, -0.28112334, 0.3184328, 0.31522506, -0.41862914, 0.3759536, -0.29559618, -0.34634545, -0.33094805, 0.37172168, 0.25959373, 0.33414584, -0.3964409, 0.323539, 0.29318953, -0.3188548, 0.29462928, -0.3344172, 0.31567115, 0.31959364, -0.41028112, 0.28623942, -0.34522697, -0.32985854, -0.29748708, 0.36598068, 0.22726645, 0.3138153, -0.3910355, 0.30932876, 0.31072122, -0.3475797, 0.30733857, -0.29245278, 0.32679027, 0.3188177, -0.40571102, 0.3565565, -0.314223, -0.2733071, -0.30269173, 0.3733928, 0.23778029, 0.31316796, -0.39612487, 0.30588412, 0.318562, -0.3753352, 0.35666236, -0.3012492, 0.31409895, 0.31290078, -0.4868011, 0.27723977, -0.3210749, -0.33391702, -0.27027193, 0.3194555, 0.3176568, 0.36107853, -0.4658253, 0.30808264, 0.25247073, -0.35075155, 0.37930867, -0.27057746, 0.30389252, 0.2898401, -0.3340172, 0.41548297, -0.2699501, -0.16746059, -0.28735211, 0.110453464, 0.38187066, 0.36626312, -0.50314415, 0.32184312, 0.20819326, -0.3638189, 0.38836995, -0.30124485, 0.306843, 0.28096363, -0.36950728, 0.19976895, -0.2788271, -0.34580797, -0.2924676, 0.34725937, 0.3530092, 0.31823066, -0.39559743, 0.30965462, 0.29287088, -0.36082768, 0.20642836, -0.29510152, 0.30429822, 0.29908782, -0.41854405, 0.25839278, -0.28542724, -0.29279447, -0.3198892, 0.37250885, 0.3136635, 0.3373537, -0.36256218, 0.33152303, 0.36206752, -0.3713634, 0.2646439, -0.3177543, 0.32548514, 0.31720734, -0.41069964, 0.39594197, -0.321801, -0.3208657, -0.33554125, 0.35879758, 0.273367, 0.36369166, -0.3985229, 0.34897533, 0.30107734, -0.30219638, 0.28896365, -0.34820548, 0.3440748, 0.3254496, -0.41300657, 0.3214622, -0.34391364, -0.295936, -0.31218216, 0.34569183, 0.23375289, 0.3448726, -0.39364177, 0.34487727, 0.33359122, -0.29163247, 0.3290441, -0.31967992, 0.32299027, 0.32225922, -0.35745364, 0.3838922, -0.31714517, -0.285104, -0.3379114, 0.36412445, 0.24498883, 0.3418525, -0.38035196, 0.33674672, 0.33071223, -0.3451811, 0.3295381, -0.32768935, 0.33049515, 0.3330514, -0.37548992, 0.29669312, -0.3500809, -0.2994245, -0.33683947, 0.3671975, 0.23589031, 0.35317242, -0.408829, 0.35244864, 0.3498821, -0.3326884, 0.3658067, -0.32325327, 0.35688272, 0.3564755, -0.38038474, 0.3947885, -0.34417388, -0.32513773, -0.32971364, 0.27619237, 0.28473276, 0.33909208, -0.38376924, 0.32237637, 0.36727434, -0.34853223, 0.46956012, -0.3340252, 0.3241206, 0.32055163, -0.31255916, 0.27803782, -0.3418491, -0.288764, -0.28767926, 0.22852986, 0.31775793, 0.35259137, -0.46708286, 0.32683212, 0.14196235, -0.32768396, 0.3751373, -0.29370496, 0.32004616, 0.3007588, -0.46102184, 0.29106197, -0.2877258, -0.26302847, -0.29339847, 0.38385013, 0.31054386, 0.34785405, -0.35841864, 0.32654047, 0.33973894, -0.34732607, 0.30368838, -0.3094503, 0.34813675, 0.33115417, -0.37402567, 0.37481505, -0.31496054, -0.37718788, -0.3059421, 0.34729126, 0.32969075, 0.33638632, -0.39899343, 0.34459794, 0.32809, -0.29458797, 0.28077453, -0.3023161, 0.33686218, 0.3409023, -0.41931266, 0.28954864, -0.30269858, -0.30170068, -0.33999726, 0.3250787, 0.26786625, 0.3428403, -0.36791298, 0.34194666, 0.4137193, -0.28876474, 0.3246039, -0.34006873, 0.32910505, 0.33975792, -0.42360377, 0.42683828, -0.33873057, -0.26786432, -0.30959, 0.36780363, 0.30602986, 0.3275151, -0.37903795, 0.32304946, 0.3576328, -0.34566808, 0.355788, -0.30883363, 0.32190964, 0.32428026, -0.38896838, 0.32367378, -0.30794233, -0.3586283, -0.32718116, 0.3534926, 0.28179255, 0.34139994, -0.39190105, 0.3388371, 0.39826232, -0.30168155, 0.35254034, -0.33352867, 0.34027845, 0.3426774, -0.34421813, 0.44664562, -0.346496, -0.34320262, -0.32092637, 0.34347686, 0.29865697, 0.35751843, -0.37235153, 0.35188615, 0.37674642, -0.34092602, 0.3807676, -0.32233006, 0.34707597, 0.3428091, -0.34802967, 0.3525502, -0.32269672, -0.29410902, -0.3362463, 0.32538792, 0.22299983, 0.37477857, -0.3984813, 0.3655089, 0.32257318, -0.331683, 0.3533536, -0.34055716, 0.3652951, 0.35728863, -0.39170027, 0.3935578, -0.3412419, -0.28513908, -0.31432274, 0.23668586, 0.18837035, 0.3659286, -0.46522573, 0.350296, 0.238436, -0.4120307, 0.34313878, -0.31665543, 0.33375192, 0.3322527, -0.37217876, 0.24548471, -0.31588632, -0.31779718, -0.3292792, 0.3656478, 0.31041613, 0.315183, -0.39818275, 0.3243192, 0.36784464, -0.3380961, 0.26610175, -0.3194858, 0.33041853, 0.34096712, -0.39105856, 0.30847043, -0.34012517, -0.30236587, -0.3270258, 0.34229705, 0.3274751, 0.3429931, -0.34373403, 0.34369826, 0.39043134, -0.33473015, 0.35063687, -0.3293028, 0.34230193, 0.33278102, -0.4045526, 0.41050354, -0.32404426, -0.35350055, -0.2952653, 0.36470255, 0.31122544, 0.32927233, -0.35565144, 0.3365129, 0.42724642, -0.29340616, 0.374787, -0.30454516, 0.34143233, 0.34683874, -0.39415738, 0.3743227, -0.3059599, -0.30985537, -0.30565247, 0.32786754, 0.31273198, 0.33668295, -0.37939474, 0.3391725, 0.38355014, -0.27563778, 0.36730778, -0.30675176, 0.32773256, 0.33537322, -0.4180357, 0.46227846, -0.29168886, -0.31238207, -0.29740986, 0.3033375, 0.3874892, 0.33993518, -0.37412828, 0.33339474, 0.4336566, -0.3148753, 0.40046176, -0.30705702, 0.33553714, 0.32797837, -0.35127205, 0.38393468, -0.30031726, -0.32474512, -0.32593775, 0.29232123, 0.27759674, 0.3420804, -0.38329527, 0.33553207, 0.39932394, -0.32378793, 0.35143223, -0.32705322, 0.33113065, 0.33366802, -0.39276484, 0.47307312, -0.32522783, -0.31542227, -0.32188556, 0.2818424, 0.2742747, 0.367478, -0.38011724, 0.36651668, 0.35709545, -0.35434303, 0.36087227, -0.33066523, 0.3585121, 0.3587321, -0.39961502, 0.30342135, -0.32525298, -0.36750564, -0.32319322, 0.24053854, 0.16834775, 0.36602387, -0.44395494, 0.34892207, 0.3408356, -0.36599058, 0.31143323, -0.3302521, 0.334541, 0.3197377, -0.39948738, 0.35314468, -0.31851584, -0.33390123, -0.30697078, 0.32620174, 0.29225865, 0.35265768, -0.38077015, 0.3364398, 0.4178214, -0.33549353, 0.32192007, -0.3153014, 0.32503927, 0.30692384, -0.3853676, 0.38805386, -0.30330175, -0.29852834, -0.29602718, 0.3639369, 0.3435584, 0.3320934, -0.3696209, 0.33622453, 0.35399693, -0.31163427, 0.29072258, -0.28881902, 0.3318608, 0.33519527, -0.43061793, 0.3309404, -0.28789914, -0.25249505, -0.31544665, 0.3257027, 0.27992427, 0.34593192, -0.3928654, 0.33888113, 0.49267203, -0.32813472, 0.36260054, -0.321084, 0.33598325, 0.33412865, -0.41805318, 0.44991806, -0.31561944, -0.2801536, -0.30932662, 0.2844584, 0.33912057, 0.36939427, -0.35780492, 0.35045964, 0.43983904, -0.3041277, 0.42077923, -0.31962088, 0.3367288, 0.33129045, -0.39234462, 0.39009804, -0.30262432, -0.3348159, -0.3087722, 0.21084149, 0.37492672, 0.35800183, -0.39842612, 0.34924942, 0.44157758, -0.32581967, 0.33095694, -0.3192995, 0.31907797, 0.30262113, -0.4327148, 0.45000097, -0.29979968, -0.2849225, -0.30755526, 0.19834048, 0.32654706, 0.35997167, -0.39460552, 0.34457722, 0.4251462, -0.38362253, 0.41653103, -0.31896222, 0.32523677, 0.30850914, -0.28446758, 0.4124929, -0.30634192, -0.31412566, -0.30367243, 0.19150425, 0.22082767, 0.37941656, -0.39698872, 0.35530916, 0.35981286, -0.3478556, 0.3664925, -0.31176046, 0.3342095, 0.31982395, -0.38442355, 0.47671267, -0.29954916, -0.34244892, -0.30569005, 0.22312842, 0.24115923, 0.33148873, -0.48805684, 0.3274228, 0.30879694, -0.4192486, 0.35779238, -0.30277622, 0.2985795, 0.29711142, -0.40554464, 0.26639825, -0.31407595, -0.25995535, -0.31833273, 0.32596117, 0.33321396, 0.34841633, -0.4130633, 0.32790196, 0.35003725, -0.34406355, 0.3015419, -0.32179493, 0.32686535, 0.30994174, -0.432129, 0.30269304, -0.32212323, -0.3307123, -0.29925996, 0.29679954, 0.3887736, 0.34647283, -0.40549925, 0.33889318, 0.3775277, -0.34591547, 0.3473636, -0.31574586, 0.31782869, 0.30704927, -0.412761, 0.4298475, -0.3116002, -0.27933428, -0.3475039, 0.31271893, 0.29550213, 0.38646406, -0.37720346, 0.3684979, 0.49440548, -0.3220643, 0.3440037, -0.3526313, 0.36474183, 0.3556109, -0.34587634, 0.3553953, -0.34074283, -0.23682846, -0.30797663, 0.2682296, 0.4044728, 0.37028039, -0.39340597, 0.33712882, 0.4265508, -0.33827335, 0.3662767, -0.3264978, 0.31994143, 0.29505256, -0.4433379, 0.43565708, -0.31355047, -0.18827596, -0.32846007, 0.23561038, 0.2963718, 0.40636605, -0.4058171, 0.35567206, 0.47141188, -0.4032924, 0.38678977, -0.34806815, 0.31250113, 0.2717345, -0.36050573, 0.42117706, -0.3288295, -0.24647538, -0.33545014, 0.07692435, 0.21024828, 0.37574083, -0.46648774, 0.35487625, 0.43360242, -0.47101063, 0.2910205, -0.34155366, 0.3379117, 0.31570357, -0.3524295, 0.48478025, -0.33363283, -0.2614064, -0.32695603, 0.16080517, 0.23491177, 0.37900347, -0.48465884, 0.3577848, 0.39025816, -0.44832683, 0.31945136, -0.34856868, 0.327619, 0.29350647, -0.3199207, 0.32936645, -0.329994, -0.34993607, -0.30439857, 0.117216915, 0.23780207, 0.35515982, -0.5323194, 0.3273668, 0.37580153, -0.43475062, 0.31500617, -0.31773326, 0.29909626, 0.27934095, -0.42999145, 0.3148718, -0.29396364, -0.24274714, -0.30060688, 0.23696901, 0.32556725, 0.36216664, -0.4775384, 0.33301485, 0.30175972, -0.36031255, 0.30697548, -0.3163192, 0.32143998, 0.29733995, -0.43599343, 0.3668907, -0.29954603, -0.28387734, -0.3093681, 0.22882086, 0.305486, 0.35133553, -0.4717728, 0.34547418, 0.34642777, -0.31448755, 0.26640096, -0.31118944, 0.33159986, 0.31881166, -0.38753992, 0.31857562, -0.3066128, -0.28107774, -0.3050691, 0.2608531, 0.3152285, 0.34627298, -0.4367179, 0.32847393, 0.48625755, -0.3498991, 0.34439728, -0.3188918, 0.3116133, 0.29535955, -0.46835017, 0.44876057, -0.3073605, -0.269466, -0.2976359, 0.18678768, 0.37812537, 0.36599314, -0.45087665, 0.32724816, 0.44487998, -0.38075256, 0.2938092, -0.32210886, 0.30665958, 0.26590624, -0.41969407, 0.40549114, -0.301875, -0.3128429, -0.3101578, 0.11956169, 0.29540598, 0.36861163, -0.5101597, 0.3329595, 0.3840221, -0.37920228, 0.25168967, -0.32758057, 0.3087263, 0.25890717, -0.45513505, 0.46896696, -0.31271923, -0.30019778, -0.3006728, 0.10512317, 0.2730618, 0.40553373, -0.4830293, 0.33978882, 0.4447288, -0.49501088, 0.41043913, -0.33447772, 0.28834325, 0.2464485, -0.45056358, 0.38222882, -0.30368027, -0.3995352, -0.25997752, 0.10426827, 0.29796708, 0.33551276, -0.50528646, 0.29367942, 0.5091484, -0.5300696, 0.30876836, -0.28491884, 0.27631265, 0.25518394, -0.38073406, 0.44391048, -0.2693103, -0.2300077, -0.29557565, 0.09049975, 0.24882424, 0.40025526, -0.5660371, 0.34550732, 0.41805193, -0.5369931, 0.27661437, -0.33151108, 0.30297145, 0.25553474, -0.3776735, 0.2819426, -0.29087007, -0.31222275, -0.1975081, 0.17082421, 0.29650244, 0.3621806, -0.5843222, 0.2575535, 0.3289668, -0.52595085, 0.15576392, -0.2607418, 0.1990078, 0.14505082, -0.4233181, 0.27911237, -0.20895778, -0.2599509, -0.26086223, 0.12394752, 0.35094967, 0.41339692, -0.57219994, 0.31881052, 0.33966425, -0.45109653, 0.15980648, -0.31270483, 0.26748288, 0.19004245, -0.42760175, 0.34195846, -0.2692215, -0.26342338, -0.23004273, 0.16494775, 0.33938283, 0.431873, -0.51154906, 0.3080119, 0.35423347, -0.44900143, 0.31195453, -0.28912476, 0.24165115, 0.17082825, -0.40002608, 0.3500744, -0.22972882, -0.27233103, -0.2955561, 0.17971042, 0.27263817, 0.438137, -0.5253514, 0.34860244, 0.35117906, -0.45607048, 0.29283148, -0.34453282, 0.30034098, 0.21373431, -0.42448246, 0.40201983, -0.29293445, -0.3325165, -0.30277407, 0.09069112, 0.32758033, 0.4304658, -0.5486657, 0.3395239, 0.39026394, -0.4742188, 0.285105, -0.34794787, 0.2862229, 0.20472808, -0.27504116, 0.3240572, -0.30692822, -0.24001087, -0.28808373, 0.09283526, 0.18905331, 0.4852713, -0.59844315, 0.36096808, 0.29023197, -0.549971, 0.08979878, -0.35312858, 0.28955936, 0.16426724, -0.3467062, 0.3713035, -0.29927412, -0.22270454, -0.26251885, 0.11247763, 0.32286417, 0.46569854, -0.649341, 0.3376924, 0.37893194, -0.5335557, 0.2966198, -0.33154675, 0.26960722, 0.16731462, -0.3041781, 0.30858952, -0.27657568, -0.20171525, -0.21597233, -0.1409472, 0.26157212, 0.45122972, -0.6206605, 0.29906052, 0.3235543, -0.6469705, -0.011198447, -0.30131763, 0.2018863, 0.12344701, -0.37389395, 0.3426061, -0.23055665, -0.1338273, 0.05106092, -0.1031475, 0.04359587, 0.054535836, 0.017859403, 0.05593541, -0.051503144, 0.058916308, 0.0031092134, 0.050713133, 0.06408751, 0.059068084, -0.07680643, -0.12824565, 0.048511583, 0.06873093, 0.008887776, -0.08830443, -0.044208623, 0.07060555, -0.023220632, 0.08600591, -0.025436925, -0.06406304, 0.040034752, 0.017945081, 0.08668824, 0.09820666, 0.07130383, -0.09746886, 0.0023176693, 0.054689694, 0.0111945495, -0.024085786, -0.0048922044, 0.056268178, 0.012774597, 0.062047213, -0.008134297, -0.06102077, -0.040920563, 0.011845247, 0.055396635, 0.0631712, 0.032187, -0.01951543, 0.011126523, -0.06534924, 0.10717909, 0.0019510504, 0.17124537, -0.011390928, 0.10838972, -0.011663618, -0.019263852, -0.058839142, 0.008941171, 0.1086063, -0.0043005357, -0.005990985, -0.03308105, -0.079991244, 0.106329024, 0.01980205, 0.030514503, 0.08428091, 0.05887092, 0.0023128898, 0.069626845, 0.009093853, -0.014334576, 0.011369943, -0.07011881, 0.04369602, 0.010439186, 0.01498537, 0.011618975, -0.03825979, 0.010555573, 0.018706895, 0.064208396, 0.06888222, 0.096350014, -0.0058899745, 0.10702836, -0.009593182, 0.0004513711, -0.053152695, -0.023996444, 0.065540366, -0.0024655145, 0.0024419446, 0.018693479, -0.09545732, 0.066918574, 0.07932838, -0.0060396665, 0.03591857, 0.02556394, 0.07301315, 0.051428795, 0.07228398, -0.0139455665, 0.036072046, -0.11434322, -0.00946434, 0.06383517, 0.06254699, 0.095179155, -0.014409477, -0.013023641, 0.093466036, -0.008903349, 0.015839119, 0.0009971629, 0.091069505, 0.057219356, 0.08350071, -0.0064258096, 0.055224627, -0.11095688, -0.00027276983, 0.083392754, 0.08126495, 0.09057927, -0.051860116, -0.023583435, -0.07052963, 0.07842185, -0.08332611, 0.06395637, 0.01624492, -0.067535385, 0.01889397, 0.066234075, 0.0417148, -0.0025134345, 0.09182257, 0.024655519, 0.04142976, -0.022967167, -0.042195175, 0.078052156, -0.04540723, 0.09582065, -0.056969427, 0.13887745, 0.04847989, -0.014637169, 0.036805384, 0.044000015, 0.051822826, 0.038897283, 0.095662825, 0.02794616, 0.025939489, -0.026200794, 0.0051117092, 0.08766933, -0.08385801, 0.09911654, 0.0144767715, 0.07158259, 0.027912898, 0.0484223, 0.025962645, 0.012445915, 0.060214274, 0.05282264, 0.10633964, 0.029970096, 0.024763523, -0.024069615, -0.077856064, 0.0955654, -0.07033991, 0.1114227, 0.0063501634, 0.12896842, 0.004437672, 0.07014027, 0.0026312796, -0.017566174, 0.021056823, 0.048165422, 0.116331555, 0.0037489291, 0.005317441, -0.046035964, 0.018575646, 0.10908139, 0.011233457, 0.11120277, 0.05548911, 0.14922568, -0.013559397, 0.08935688, -0.021839265, 0.025300644, 0.006286394, 0.044507265, 0.10957836, -0.025111035, -0.024615781, -0.01210851, -0.06856582, 0.10324547, 0.028084392, 0.07673688, 0.06626326, 0.1519938, 0.029080521, 0.08260494, 0.016088253, -0.035758458, 0.014826297, 0.012670807, 0.07636024, 0.014058362, 0.0057239397, 0.03472869, 0.030325767, 0.07269604, 0.048458587, 0.039853692, 0.059257638, 0.055737067, 0.06344525, 0.06587565, 0.05330199, -0.0050323657, 0.056214154, -0.05736464, 0.039189726, 0.04761626, 0.041108824, 0.074016556, -0.035521574, 0.036653467, 0.09678405, 0.022642069, 0.0078493655, 0.0364543, 0.08275735, 0.051732134, 0.06641145, 0.0071734656, 0.055183716, -0.09362008, 0.01466283, 0.066676095, 0.062294293, 0.075456604, 0.013416518, 0.013647752, -0.08961347, 0.12713164, -0.13085103, 0.14072385, 0.00713506, -0.095253386, 0.013287085, 0.021745164, 0.08404031, 0.030524597, 0.1394915, 0.008393624, 0.011842678, -0.07733874, -0.017964441, 0.12062178, 0.004891174, 0.10169394, -0.022277547, 0.028610008, 0.010243792, -0.02275366, 0.02274433, 0.06467571, 0.09424967, 0.0485488, 0.11520129, 0.026394181, 0.042931855, -0.034954924, -0.01612556, 0.10633663, -0.067057885, 0.10704584, 0.0101771355, 0.07936298, 0.0053565144, 0.051040486, 0.009001354, 0.046919312, 0.08839582, 0.061953302, 0.11489843, 0.0023700064, 0.014078784, -0.034607276, 0.050887156, 0.109233685, -0.032660943, 0.129612, 0.06224647, 0.088832185, -0.0077268244, 0.058037117, -0.0055423286, 0.02346756, 0.09776539, 0.07052508, 0.12421385, -0.005094751, 0.0012242681, -0.0081414655, -0.012094523, 0.11425112, -0.05597987, 0.09799813, 0.05447039, 0.124574795, 0.021668587, 0.08054315, 0.01969736, -0.030829998, 0.055025462, 0.05933814, 0.09606108, 0.009378614, 0.006135896, -0.021019831, 0.07056449, 0.09048184, 0.052004874, 0.09191569, 0.054613534, 0.122693926, 0.0247571, 0.09245514, 0.02199389, -0.012064445, 0.06491887, 0.057366256, 0.09582002, 0.017104827, 0.020787893, 0.024146182, -0.018572705, 0.09142899, 0.035040054, 0.08919113, 0.04372458, 0.15278113, 0.04663664, 0.09720985, 0.04790446, -0.07176722, 0.044955935, 0.025761968, 0.08589907, 0.03414749, 0.038266256, 0.0716079, 0.0782315, 0.07920819, 0.05598672, 0.086601175, 0.004628343, 0.13783166, 0.059205756, 0.06294584, 0.04365145, 0.011779193, 0.066851035, -0.02337971, 0.08400233, 0.030392868, 0.030812228, 0.01908074, -0.033507954, 0.0858548, 0.07823923, 0.091309264, -0.08364103, -0.00029336024, 0.012246742, -0.100574285, 0.028587652, 0.07270308, 0.0959779, 0.027949318, 0.10507422, 0.032647252, 0.05185997, -0.11435753, -0.019852709, 0.088997304, 0.025286734, 0.09773888, -0.059330508, -0.033863004, 0.021672633, -0.032185324, 0.036185596, 0.06439498, 0.11498227, 0.060436647, 0.11019486, 0.037936594, 0.049270067, -0.08626926, 0.061502602, 0.092106715, -0.020479355, 0.10484016, -0.0053854585, 0.09103674, 0.018909933, 0.004542567, 0.022670759, 0.069415286, 0.093164176, 0.06757774, 0.10829857, 0.015866099, 0.023099078, -0.0013893982, 0.03882688, 0.10518491, -0.00699763, 0.07632323, 0.013905373, 0.012654385, 0.042137347, 0.026704269, 0.045500066, 0.025899338, 0.08381408, 0.07954751, 0.072192885, 0.038530983, 0.03516849, -0.032660145, 0.08648835, 0.07980996, 0.020552268, 0.067834795, 0.034407116, 0.052014902, 0.04866253, 0.045159187, 0.04688691, 0.009063137, 0.07100657, 0.08063944, 0.062117554, 0.03735804, 0.03666748, 0.052810412, 0.02719167, 0.071198404, 0.062070977, 0.07063975, 0.029624466, 0.100630134, 0.07277861, 0.10063053, 0.06636296, -0.054792862, 0.050246954, 0.067990445, 0.06538335, 0.052254714, 0.045417447, 0.023476947, 0.09245406, 0.07353418, 0.09808933, 0.07893685, 0.0072722244, 0.105930746, 0.06462204, 0.08629336, 0.055491988, -0.042241715, 0.06578156, 0.056035753, 0.079949595, 0.05097511, 0.051105764, 0.066623226, 0.052899163, 0.08000683, 0.007978513, 0.10028052, -0.024991857, 0.12608695, 0.048721913, 0.10965146, 0.052601114, -0.062861584, 0.11460167, 0.030865815, 0.10655701, 0.032288756, 0.041024424, -0.009112497, 0.055392507, 0.09506395, 0.080737665, 0.1103301, -0.0937253, 0.024369879, 0.022043806, -0.10582356, 0.03185898, 0.08573606, 0.11768997, 0.04021019, 0.11128957, 0.027561817, 0.043664705, -0.13892344, 0.010839482, 0.10227408, 0.15225337, 0.08179152, -0.05204902, 0.06587092, -0.0039226124, -0.11684053, 0.017274395, 0.11054383, 0.15228389, 0.055888668, 0.09589191, 0.016688343, 0.03741364, -0.11030533, 0.053384393, 0.08743542, -0.06279303, 0.10191535, -0.07217926, -0.028998379, 0.027469413, -0.120175004, 0.039375465, 0.055344682, 0.13425478, 0.0877191, 0.10315184, 0.047217328, 0.05489907, -0.095965214, 0.08622751, 0.10211211, 0.057889532, 0.080635995, -0.0058283946, -0.033084113, 0.06377392, 0.029170204, 0.06074318, 0.074540526, 0.11223606, 0.08781792, 0.079255655, 0.050067805, 0.05381878, -0.025982123, 0.072977714, 0.08538955, 0.1568601, 0.05912384, 0.009184821, 0.0824077, 0.09077388, 0.072657004, 0.087954685, 0.0043945475, 0.07282616, 0.0948964, 0.051556934, 0.06296457, 0.05917303, 0.033577576, 0.11421131, 0.06481392, 0.14255129, 0.06541085, -0.013662718, 0.07229976, 0.09994188, 0.10770388, 0.0934226, -0.0029830611, 0.08099728, 0.08147027, 0.057792354, 0.08535193, 0.08286375, 0.12858583, 0.08857972, 0.070935234, 0.023719175, 0.07898135, -0.0016634315, 0.11272536, 0.09835026, 0.092441514, 0.09692208, -0.031138152, 0.10444075, 0.061826315, 0.07550164, 0.07716514, 0.07914013, 0.14826551, 0.10565998, 0.079900034, 0.019022118, 0.085619025, -0.063323766, 0.09708626, 0.06195505, 0.10375739, 0.061588764, -0.059851438, 0.11217803, 0.048268575, 0.08585566, 0.05425883, 0.050303794, 0.043900196, 0.061891247, 0.087364376, 0.12310687, 0.061462067, -0.11953196, -0.0067661433, 0.026658418, -0.30367306, 0.0537023, 0.118791014, 0.12540519, 0.029673947, 0.08190302, 0.05844409, 0.07925224, -0.114073515, 0.042905856, 0.06523196, 0.0490923, 0.110583544, -0.1264517, 0.05452239, 0.0327552, -0.30560425, 0.045713525, 0.13239482, 0.1647239, 0.05167331, 0.118576154, 0.039019015, 0.049625207, -0.20102678, 0.0779919, 0.10790135, 0.1344763, 0.07848458, -0.05402044, -0.01259508, 0.070982374, -0.12512203, 0.080924556, 0.10184965, 0.13832723, 0.06947741, 0.07592172, 0.071280025, 0.080978796, -0.13916045, 0.09231135, 0.079938, 0.12683122, 0.054691315, -0.12067961, -0.07770986, 0.10574968, -0.115745254, 0.10343123, 0.050185893, 0.113948874, 0.092634, 0.04803441, 0.093617655, 0.104029424, -0.09684462, 0.10706973, 0.06122847, 0.18120542, 0.045382716, -0.1115596, -0.07571784, 0.13954489, -0.009749661, 0.12557295, 0.052458648, 0.09826207, 0.1089206, 0.03679277, 0.11351926, 0.11097346, 0.13777442, 0.14015475, 0.053498592, 0.15610386, 0.047710635, -0.07956633, 0.07144195, 0.1654336, 0.016597321, 0.1596978, -0.0022675386, 0.09002786, 0.10305187, 0.039609335, 0.14705676, 0.1420715, 0.23723605, 0.13472788, 0.052879903, 0.035779573, 0.069830805, -0.112223424, 0.14516339, 0.12417104, 0.011703067, 0.11128942, -0.051349163, 0.08857285, 0.09243057, 0.06846578, 0.111417204, 0.103170544, 0.29845202, 0.13613722, 0.074321136, 0.08917364, 0.07681746, -0.09350132, 0.08523409, 0.081398174, 0.047014233, 0.08467781, -0.07082812, 0.108068235, 0.038648266, 0.07241715, 0.07315779, 0.077717766, 0.09887226, 0.09525766, 0.08059362, 0.07400211, 0.07273267, -0.25188306, 0.0053694756, 0.012108562, -0.21440127, 0.026096836, 0.08371022, 0.13434127, -0.018359382, 0.07868439, 0.03210622, 0.047045387, -0.115175664, -0.0073286965, 0.06915708, 0.18949012, 0.09232058, -0.12322148, 0.003932972, 0.033360872, -0.1873461, 0.04856323, 0.13875566, 0.15338695, -0.0066673686, 0.09934299, 0.06627349, 0.0788645, -0.21171995, 0.072212346, 0.09527319, 0.059983388, 0.07932943, -0.25010997, -0.0025290514, 0.030682916, -0.24942553, 0.045627493, 0.13403736, 0.15220189, 0.04170115, 0.08761398, 0.051594093, 0.06573697, -0.16792613, 0.09753217, 0.090029344, 0.2891536, 0.06381609, -0.18008214, 0.009783217, 0.07113796, -0.08930303, 0.08540745, 0.10584181, 0.107362956, 0.05379157, 0.06999373, 0.077357255, 0.09457598, -0.08917982, 0.053987306, 0.06886057, 0.086329654, 0.03307941, -0.2543848, -0.05356425, 0.12123247, -0.33403367, 0.12799123, 0.06664221, 0.062216517, 0.07062554, 0.026640423, 0.11605988, 0.11443116, 0.1690372, 0.114051424, 0.038100462, 0.21862048, 0.022648094, -0.16816536, 0.06870491, 0.14428702, -0.1637505, 0.13924998, 0.01435989, 0.068218, 0.07964534, 0.016491428, 0.12960988, 0.1319202, 0.29592192, 0.1156951, 0.025714789, 0.061869055, 0.015280247, -0.1726617, 0.16916686, 0.108499125, -0.064212486, 0.11843606, -0.10857664, 0.067453414, 0.03271273, 0.019070324, 0.11175355, 0.11690411, 0.44341415, 0.12524144, 0.011907471, 0.009209732, 0.033348028, -0.30280864, 0.10800793, 0.068749994, -0.22587113, 0.086075455, -0.18625048, 0.0754319, -0.039822094, 0.04184912, 0.09090056, 0.09641988, 0.3254298, 0.08890314, 0.028622307, 0.14809129, 0.07993802, -0.2398438, 0.035628375, 0.014041474, -0.24267413, 0.0086046485, 0.03296482, 0.11956572, -0.015919542, 0.08417463, 0.012105658, 0.010717381, -0.05670635, 0.028023787, 0.0822771, 0.043305445, 0.09175182, -0.27320185, 0.031795602, 0.012288951, -0.22137585, 0.016090155, 0.12960382, 0.14693858, 0.024945434, 0.094219595, 0.018724369, 0.030343756, -0.086972915, 0.053039834, 0.09820957, 0.11577207, 0.054320585, -0.17896158, 0.040961888, 0.0038315717, -0.31496993, 0.025920428, 0.10491594, 0.11366166, 0.007581795, 0.06626397, 0.02809231, 0.04663578, -0.091043554, 0.03438226, 0.05813869, 0.18837667, 0.069710396, -0.48666957, 0.022207392, 0.046866115, -0.3832262, 0.059665214, 0.09790782, 0.12065987, -0.004150192, 0.08173091, 0.055881936, 0.06857228, -0.093479894, 0.04132034, 0.06331272, 0.30777976, 0.03298672, -0.25642738, -0.010193606, 0.07018422, -0.35635644, 0.079392016, 0.0800437, 0.06953709, 0.034409773, 0.04514045, 0.06954376, 0.07277169, 0.05122479, 0.052355003, 0.035297483, 0.11429751, 0.033636026, -0.26972347, 0.05126397, 0.09505559, -0.21744435, 0.09642756, -0.06491184, 0.09465802, 0.008671099, 0.035983603, 0.08677874, 0.09177411, 0.21995772, 0.07276273, 0.041035883, -0.053302873, 0.031058406, -0.19186464, 0.10927019, 0.09463261, -0.124442644, 0.105416246, -0.10418049, 0.07893442, 0.0064315223, 0.036295377, 0.09945996, 0.10981934, 0.5538624, 0.112813264, 0.017854048, -0.101682015, 0.080986395, -0.40912253, 0.05873922, -0.0001857372, -0.372385, 0.016558563, -0.13350716, 0.12916596, -0.16588205, 0.099384785, 0.01890691, 0.031208543, 0.016204022, -0.007889295, 0.07333121, 0.0018083364, 0.008069604, 0.003125858, 0.0010219837, 0.0029620794, 0.0009834481, 0.009067449, 0.0019282779, 0.008368066, 0.0045947297, 0.0066903434, 0.0010903875, 0.004169727, 0.0072298893, 0.0057361033, 0.009044763, 0.000766714, 0.008300438, 0.008467793, 0.0067064925, 0.00039916806, 0.008148527, 0.0031693166, 0.0066977744, 0.0039820867, 0.0033593609, 0.0044915266, 0.0008538845, 0.0027451923, 0.00017049401, 0.005015624, 0.0047922386, 0.0026709726, 0.00533613, 0.0014112334, 0.0066413037, 0.0049008126, 0.004263185, 0.0067065237, 0.0047733854, 0.009299831, 0.008292092, 0.0052278508, 0.0014633505, 0.00048861664, 0.004228224, 0.0032733597, 0.009121473, 0.0011717888, 0.0075605926, 0.0074636326, 0.007910588, 0.0025689125, 0.0015655189, 0.0060158544, 0.004603351, 0.0050568623, 0.008857565, 0.005831839, 0.002944065, 0.0028566273, 0.003810678, 0.0021922498, 0.0031307065, 0.009281785, 0.0029711053, 0.0064572063, 0.0058432487, 0.0007100115, 0.0032813721, 0.00091465085, 0.0037564188, 0.0032240439, 0.0002958064, 0.00797192, 0.005009418, 0.004333939, 0.0052809115, 0.0040503778, 0.003670563, 0.008783529, 0.00023668782, 0.008559226, 0.00081607164, 0.00093874, 0.0074346033, 0.0035826894, 0.0017074367, 0.008148939, 0.00013608852, 0.002090763, 0.0023109142, 0.0044559482, 0.0083685815, 0.0013822869, 0.0031410868, 0.0018398275, 0.007891195, 0.008914659, 0.0065622553, 0.00010053121, 0.008358407, 0.007739958, 0.008786071, 0.00087035436, 0.0019366908, 0.007653097, 0.005200151, 0.008117341, 0.00208585, 0.007441674, 0.008544015, 0.004242118, 0.009244237, 0.0045067184, 0.0044728364, 0.004715736, 0.0029679188, 0.0072290003, 0.0054042055, 0.0036312817, 0.007686801, 0.001703363, 0.0025497524, 0.003271012, 0.009285141, 0.0066670757, 0.0060209185, 0.18356794, 0.13475329, -0.13795769, -0.18152547, -0.09841568, 0.029239984, -0.097075716, 0.0006717068, 0.024693338, 0.1564359, 0.13757513, -0.087648116, -0.083873, 0.123876706, -0.15410718, 0.1173912, 0.25951877, 0.16065538, -0.16858865, -0.20277411, -0.11786074, -0.002135466, -0.12068982, -0.28529736, 0.11839453, 0.2841389, 0.17128444, -0.10979322, -0.111556984, 0.072988905, -0.448885, 0.15935782, 0.2748815, 0.13838933, -0.07719057, -0.15445937, -0.11582687, -0.039250143, -0.101705156, -0.007900477, 0.13282809, 0.23214635, 0.14834715, -0.08725548, -0.07545633, 0.0776372, -0.16583882, 0.14107563, 0.16519639, 0.18277337, 0.091800496, -0.023193939, -0.1489158, 0.00078353815, -0.1464229, -0.21109682, 0.16214815, 0.081103794, 0.1878657, -0.14100152, -0.13220245, 0.08729003, -0.38624215, 0.18124449, 0.18977061, 0.13186239, 0.21802121, -0.12083494, -0.112245336, -0.015229315, -0.09560018, -0.17149138, 0.13260214, -0.019534132, 0.14698544, -0.07114782, -0.057650074, 0.1015967, -0.030583564, 0.12531853, -0.10996884, 0.16714421, 0.30166942, -0.07368803, -0.07415959, -0.016300213, -0.0882721, -0.065554105, 0.088485956, -0.025149168, 0.16561563, -0.07928379, -0.08067616, 0.19579285, -0.16840552, 0.15934245, -0.06956388, 0.24148095, 0.23925023, 0.017253798, -0.12741065, -0.13088304, -0.1436592, -0.04259188, 0.19633542, -0.40840882, 0.23587425, -0.13340834, -0.13430741, 0.24080472, 0.13072099, 0.23571275, -0.15182124, 0.10518552, 0.19124086, -0.24703278, -0.041204408, 0.06660039, -0.029566903, 0.0052166455, 0.08498271, -0.13450772, 0.11652529, -0.01048368, -0.002984916, -0.047231983, -0.10302325, 0.09545621, 0.35194188, 0.039643954, -0.021477258, -0.3017837, 0.0025484243, 0.011513324, 0.0054215505, 0.055689294, -0.031724192, 0.00968431, 0.046796806, 0.013000801, 0.021275533, 0.14551035, -0.068943776, 0.03262015, 0.059020206, 0.11734619, -0.03684405, -0.06375616, -0.06618315, -0.06486711, -0.07825694, -0.11091637, 0.035565812, 0.038050245, 0.10941227, -0.07179807, -0.07835499, 0.042603765, -0.0575114, 0.09918912, 0.18997727, 0.11947597, -0.016916974, -0.2105566, -0.082360975, 0.10000766, -0.08043446, 0.088191636, 0.04631061, 0.06664704, 0.12407123, -0.07505855, -0.07329611, 0.047509987, -0.11506668, 0.11780297, 0.12896262, 0.13115388, 0.01237539, 0.016170638, -0.08953091, 0.083121404, -0.10317223, -0.21883142, 0.10158183, 0.025153067, 0.12207591, -0.0955237, -0.100234434, 0.04213293, -0.042824022, 0.12346834, -0.0014075229, 0.14148024, 0.100521944, -0.0614142, -0.069242805, 0.08247217, -0.08616872, 0.052168664, 0.07650264, 0.0030659167, 0.13274936, -0.07938422, -0.08199822, 0.050400537, -0.13338423, 0.13816845, -0.061562773, 0.15017782, 0.07654794, 0.042275142, -0.069652155, 0.089255534, -0.08343636, -0.055843305, 0.07142046, -0.032107037, 0.1453976, -0.0860655, -0.09159449, 0.08877683, 0.009959503, 0.144642, -0.16359144, 0.16759837, 0.20935772, -0.10456579, -0.066150516, 0.08414525, -0.07113529, -0.07597161, 0.15269145, -0.11613962, 0.17069024, -0.06730475, -0.06145727, -0.0020973387, -0.04387664, 0.16903596, -0.13471736, 0.10911139, 0.053577896, -0.11532114, -0.0007693455, 0.07107519, -0.007684798, 0.04552321, 0.026674984, -0.047409248, 0.10867707, -0.00029793754, -0.0021276353, 0.116360806, -0.04425852, 0.10161609, 0.19014081, 0.06349453, -0.08241894, -0.13788235, -0.030978749, -0.038636148, -0.027583728, 0.08429774, -0.028619742, 0.019239543, 0.07248119, -0.019111935, -0.018529365, 0.14765035, 0.013830066, 0.053229786, 0.033614766, 0.13668387, -0.049344745, -0.047136616, -0.10371702, -0.01780855, -0.11559448, -0.05882567, 0.09171005, 0.041704286, 0.13775028, -0.10708876, -0.10792524, 0.03543292, -0.014496661, 0.12339088, 0.08036536, 0.06753302, -0.06333341, -0.20385084, -0.05177808, 0.043865863, -0.047956843, 0.18721521, 0.050437983, 0.05227328, 0.06842073, -0.044845745, -0.038160127, 0.024763716, -0.015482893, 0.06339312, -0.15350337, 0.1501439, -0.030243061, 0.011195801, -0.12924553, 0.010604893, -0.13330744, -0.09713758, 0.05671209, 0.05016719, 0.15558799, -0.12977926, -0.12258907, 0.026784714, -0.06327323, 0.14393999, 0.018249806, 0.121011145, -0.05290568, 0.0059242737, -0.0880327, 0.05998388, -0.09444379, 0.111459725, 0.18207908, -0.0044207275, 0.11509423, -0.09206513, -0.09548141, 0.019437805, 0.012286417, 0.11704994, -0.105437204, 0.14373732, 0.014252895, 0.077642374, -0.060325634, 0.063686654, -0.07118892, 0.0008186706, 0.11294449, 0.04434447, 0.14227293, -0.07415183, -0.07958972, 0.048647497, -0.029232027, 0.14021875, -0.043043323, 0.12771067, 0.045993693, -0.030255426, -0.05687088, 0.09173108, -0.06779583, -0.026615737, 0.046114594, -0.06775211, 0.12651503, -0.06370374, -0.06757604, 0.08548803, 0.058095858, 0.118034236, -0.023993555, 0.11048679, 0.017412037, -0.019278338, -0.008427912, 0.07146124, -0.014555291, 0.07027957, 0.03904373, -0.018939199, 0.10832619, -0.021613467, -0.022042578, 0.1128042, -0.04020244, 0.09136239, 0.12692219, 0.025357356, -0.08416635, -0.13901645, 0.02227019, 0.030313756, 0.013875895, 0.041498005, 0.008088677, 0.016910672, 0.029708674, 0.013225948, 0.008517892, 0.14047182, -0.0130831, 0.01662553, 0.08203112, 0.11207409, -0.048674744, -0.090485856, -0.08900931, 0.03927488, -0.093008935, -0.11120358, 0.05368955, 0.023016108, 0.106987484, -0.09324325, -0.096971646, 0.0958809, 0.01296627, 0.10436471, 0.027008984, 0.0787023, -0.07851001, -0.069023706, -0.047820594, 0.013297035, -0.061261192, 0.19351012, 0.098205775, 0.037166446, 0.070500545, -0.04719655, -0.04403883, 0.034319997, -0.06632058, 0.059856966, -0.08005661, 0.096493684, -0.047768645, 0.03451237, -0.09963452, 0.017535571, -0.09491017, -0.24301526, 0.0917189, 0.040944498, 0.09771006, -0.09529055, -0.08732245, 0.068325296, 0.0724239, 0.0924042, -0.079892166, 0.10798317, -0.0292416, -0.041610546, -0.05778211, 0.07675886, -0.07844966, 0.17240436, 0.09120689, 0.015997473, 0.09564204, -0.07986713, -0.08242499, 0.010627999, -0.08489972, 0.094303764, -0.059706956, 0.09929316, 0.005293503, 0.040188536, -0.04312358, 0.060414474, -0.04858862, -0.035922866, 0.10514775, 0.05557835, 0.09917954, -0.04461019, -0.04624573, 0.056048512, 0.052129343, 0.09572431, -0.0121960305, 0.12678245, 0.03905627, -0.01552717, -0.048883725, 0.07716325, -0.060867373, 0.021476202, 0.08736752, -0.037597332, 0.12374553, -0.05106827, -0.051769994, 0.05797709, 0.026079955, 0.11276636, 0.02607295, 0.061803542, 0.025063971, -0.046889883, -0.0017710392, 0.047484867, -0.0036000267, 0.10262063, 0.030812537, -0.0075091105, 0.061151646, -0.00015324974, -0.00014676049, 0.07938187, -0.012873967, 0.06529531, 0.14813614, 0.037591822, -0.11393427, -0.10403189, 0.019709064, 0.049432617, 0.001721105, 0.03484163, 0.025751231, 0.01359587, 0.025059596, -0.0015928973, -0.0074255248, 0.11561895, -0.005242089, 0.02981022, 0.08764887, 0.08591391, -0.062205367, -0.12158946, -0.049483806, 0.066929966, -0.062169638, -0.10753669, 0.013948776, 0.034794, 0.08307271, -0.06299091, -0.0644905, 0.085773714, -0.038676307, 0.077279076, 0.031624213, 0.03845722, -0.060937315, -0.064307205, -0.04104653, 0.030705787, -0.035338435, 0.14032318, -0.01651583, 0.023481233, 0.050177913, -0.037217356, -0.025934516, 0.11576185, -0.0029618326, 0.038834397, -0.043104652, 0.080125466, -0.029857103, 0.02878227, -0.036145367, 0.036766414, -0.04905536, -0.09168367, 0.05497678, 0.052506514, 0.077689774, -0.0598323, -0.05791385, 0.051317584, -0.070454374, 0.07517729, -0.058075335, 0.055689152, -0.02648002, -0.0067786905, -0.019077588, 0.048320036, -0.033594735, 0.05160312, 0.12733415, -0.06790811, 0.051715776, -0.04182645, -0.04827959, 0.017337212, 0.011637045, 0.04446163, -0.026584242, 0.071269825, 0.037656438, -0.047847304, -0.039943364, 0.040343296, -0.038843583, 0.033172864, 0.05517621, 0.07152418, 0.07496665, -0.035790473, -0.03167143, 0.071348704, -0.04426669, 0.05962155, 0.057490166, 0.080894746, 0.09185437, -0.031180946, -0.055233367, 0.1007315, -0.05251891, -0.018067513, 0.06626068, -0.051365823, 0.08296546, -0.04668978, -0.045444332, 0.06977438, 0.06726902, 0.07334234, 0.037432056, 0.06032257, 0.04121614, -0.0491897, -0.011259303, 0.048759457, -0.015102831, 0.13765737, 0.05190957, 0.0009261249, 0.06028704, -0.01439421, -0.01566229, 0.04976326, -0.027613897, 0.051064584, 0.15071899, 0.024531407, -0.11069807, -0.11524165, 0.011191949, 0.021797933, -0.0015386225, -0.001728669, 0.045821637, -0.0020349612, 0.019836102, -0.003772066, -0.014943582, 0.1288572, -0.008169756, 0.0027779122, 0.09920093, 0.07488116, -0.062637724, -0.14266752, -0.061619066, 0.07083036, -0.07325911, -0.099330895, -0.025235076, 0.001868923, 0.07044727, -0.075155236, -0.07909878, 0.12103458, -0.028665125, 0.055965412, -0.004616625, 0.03676843, -0.03125942, -0.042219307, -0.027814385, 0.049228333, -0.026827194, 0.031160472, -0.06088669, -0.0019553096, 0.04009284, -0.030102262, -0.025413062, 0.09938209, -0.03396811, 0.030281153, -0.044893622, 0.03764125, -0.029986098, -0.061066374, 0.017905083, 0.04961498, -0.011375339, -0.08126572, 0.06571387, 0.043473896, 0.011075078, -0.020750193, -0.035842527, 0.061182514, -0.0063807447, 0.024680194, -0.019776832, 0.03535635, 0.010851304, -0.04002339, -0.035860352, 0.0058705127, -0.037176386, -0.02246202, 0.077486135, -0.038217835, 0.033491187, -0.026561365, -0.027598428, 0.04508698, -0.020443358, 0.02619162, 0.0125166625, 0.052907266, 0.05326019, -0.063128665, -0.041156, 0.08127309, -0.051253047, 0.047984205, 0.058709998, 0.07841738, 0.03951938, -0.03207948, -0.035651926, 0.0689862, -0.0063085444, 0.047763363, 0.063359514, 0.073126085, 0.1224204, 0.0065407245, -0.06964015, 0.13377747, -0.06811415, -0.012887956, 0.06810864, -0.019952167, 0.07218049, -0.05786964, -0.04990412, 0.048592027, 0.019625552, 0.06083821, 0.055710077, 0.04613504, 0.062911995, -0.057916984, -0.017594429, 0.06341955, -0.026113106, 0.15415715, 0.03974885, -0.0046602217, 0.043812707, -0.017627656, -0.0207649, 0.06548495, -0.012029147, 0.037218954, 0.0072839614, 0.0020193988, 0.003954117, 0.0058458042, 0.0007858611, 0.0037906389, 0.007320906, 0.005066644, 0.0048946454, 0.0012229716, 0.0044175196, 0.0025061448, 0.0032219035, 0.0061053373, 0.009067252, 0.0025760971, 0.007985081, 0.0051418333, 0.0030904817, 0.008084236, 0.0043598735, 0.0041004643, 0.0006088103, 0.0019426747, 7.184943e-05, 0.0050780727, 0.00752706, 0.008662781, 0.0048185396, 0.0066672796, 0.0025325587, 0.0027381922, 0.004211403, 0.0013577595, 0.0082628215, 0.008879447, 0.0045957398, 0.00834268, 0.006380869, 0.0033866651, 0.006778133, 0.0062335604, 0.008091152, 0.0027865614, 0.0034874906, 0.0024658984, 0.004186904, 0.0011040884, 0.0010085981, 0.005297748, 0.0052439133, 0.0021752312, 0.0082564065, 0.0051296772, 0.003777306, 0.0057411063, 0.0027420796, 0.0072478103, 0.005758802, 0.0031769718, 0.0027367896, 0.003994763, 0.0061175795, 3.2383206e-05, 0.00626468, 0.008429573, 0.0074098445, 0.0022274775, 0.003153931, 0.0006413299, 0.0059469147, 0.00093809055, 0.004340437, 0.0032363362, 0.0033701102, 0.0064641256, 0.008564553, 0.00812482, 0.0039924965, 0.0002562677, 0.0067355097, 0.007845005, 0.008246163, 0.008714742, 0.005718673, 0.001194042, 0.002678491, 0.0021466275, 0.0073902225, 0.001616014, 0.0019465508, 0.00891402, 0.0030541075, 0.007010852, 0.002682011, 0.007945457, 0.005955231, 0.00072847394, 0.006485664, 0.0024651103, 0.005483445, 0.008211971, 0.0008497494, 0.0054740096, 0.0025883405, 0.0076251486, 0.0054672607, 0.0071757105, 0.0052133324, 0.0066930936, 0.0024797567, 0.0018005737, 0.0015086905, 0.007514498, 0.001245117, 0.0046556294, 0.008745796, 0.0018338503, 0.0010928339, 0.0035720184, 0.002964386, 0.0025487118, 0.0019130871, 0.006325272, 0.005076008, 0.008723251, 0.00018327257, 0.0011944195, 0.06744465, 0.0710805, -0.59927523, -0.16185391, -0.036298603, 0.08550951, -0.054903004, -0.1648674, 0.07029567, -0.29101118, 0.07002166, -0.057332676, -0.06764935, 0.035434205, -0.23834452, 0.072798945, 0.09619234, 0.08184055, -0.25513092, -0.1973594, -0.09302296, 0.14640176, -0.07277822, -0.045510773, 0.071306825, -0.23508301, 0.08721866, -0.065132394, -0.052490454, 0.08501464, -0.29484233, 0.077933095, 0.17472838, 0.091730505, -0.27044114, -0.121705234, -0.063310996, 0.19667917, -0.058979478, -0.021077376, 0.09831027, -0.21686137, 0.094004065, -0.043925174, -0.038882002, 0.22678316, -0.2233366, 0.09407584, -0.007863462, 0.09297886, -0.22829582, -0.18631747, -0.06246731, 0.120801724, -0.05945742, -0.15212387, 0.11723595, -0.33129555, 0.08529088, -0.04927845, -0.05520636, 0.12666929, -0.253384, 0.0860379, -0.038849223, 0.14470713, -0.2635435, -0.12311021, -0.10296021, 0.20821513, -0.11127758, -0.17063509, 0.13781154, -0.1811969, 0.13489535, -0.10923935, -0.12000322, 0.10246455, -0.16163881, 0.13045914, -0.16457641, 0.064161435, -0.41969538, -0.2391682, 0.003615644, 0.0074673505, -0.030151814, -0.31790125, -0.0020935657, -0.23973379, 0.049488805, -0.030019943, -0.046996254, 0.21828517, -0.2522114, 0.059765026, -0.17438231, 0.10406854, -0.3395047, -0.17860495, -0.08575883, 0.17912124, -0.07515018, -0.19257757, 0.11710365, -0.24892439, 0.10769251, -0.072380096, -0.07337545, -0.058311272, -0.19326426, 0.09553276, 0.11875856, 0.021374833, -0.32542405, -0.16233647, 0.0045518507, 0.04412893, -0.0044978554, -0.20635584, 0.0541267, -0.326346, 0.01915445, 0.0048275585, 0.0036726624, 0.10255833, -0.2296195, 0.018940164, -0.15972856, 0.13323501, -0.18021625, -0.16195805, -0.13291827, 0.24625678, -0.1225295, -0.06859591, 0.08880616, -0.2115432, 0.1465524, -0.11743588, -0.108135484, 0.028843515, -0.13540843, 0.12835626, 0.03346895, 0.13043103, -0.22001679, -0.14809959, -0.13103867, 0.15871759, -0.11829142, -0.06128378, 0.1376715, -0.17336006, 0.13918932, -0.10231171, -0.09660713, 0.07341006, -0.14808702, 0.12525748, -0.007416763, 0.17334682, -0.23238437, -0.11684802, -0.1611962, 0.18769671, -0.14474235, -0.111780874, 0.19746488, -0.19795589, 0.17929786, -0.11885801, -0.0941161, 0.039745346, -0.15270235, 0.16791426, -0.057499155, 0.15176135, -0.20395379, -0.15643021, -0.13152161, 0.23264125, -0.12808827, -0.027901532, 0.13240926, -0.18105373, 0.15368083, -0.117601775, -0.11192885, 0.07034155, -0.18869679, 0.1483143, 0.119922854, 0.14865042, -0.1532624, -0.08567094, -0.10559853, 0.23331425, -0.110864945, -0.06509229, 0.1251957, -0.20331934, 0.15064242, -0.10257808, -0.106301196, 0.009465741, -0.18560459, 0.1482292, 0.07005579, 0.18351305, -0.19335999, 0.0034867325, -0.13049236, 0.21332285, -0.13863443, -0.062418967, 0.05167557, -0.18474397, 0.18006249, -0.1493074, -0.15540333, -0.051473506, -0.1539929, 0.18032236, 0.01448105, 0.13655324, -0.14462979, -0.13022731, -0.08866804, 0.11165962, -0.092993975, -0.0984408, 0.14349782, -0.23793288, 0.13555904, -0.08806852, -0.08576362, -0.112124905, -0.16263773, 0.12898834, -0.09914949, 0.15301442, -0.21488523, -0.064612195, -0.13561289, 0.14212312, -0.14237623, -0.19611084, 0.10861589, -0.15253739, 0.15093298, -0.1474154, -0.15874681, 0.0021954542, -0.18218638, 0.15348208, -0.121179536, 0.14351813, -0.18583015, -0.052584123, -0.12753856, 0.20684187, -0.1284806, -0.036057923, 0.08403386, -0.19782977, 0.1380203, -0.1196678, -0.11882963, 0.062163807, -0.16605105, 0.12824737, 0.018228548, 0.15967996, -0.1673394, -0.058291577, -0.16717651, 0.24635589, -0.15702574, -0.0894146, 0.14949909, -0.18877749, 0.17262124, -0.13091712, -0.1231781, 0.087143034, -0.09889204, 0.16776022, 0.023262747, 0.12717852, -0.14771013, -0.16700259, -0.1504395, 0.25249922, -0.11746728, -0.046841055, 0.1521262, -0.16441953, 0.14505845, -0.09474451, -0.07625082, 0.038391948, -0.12292699, 0.11452782, 0.077566504, 0.16106945, -0.15231548, -0.071485326, -0.1499249, 0.2580346, -0.13630478, -0.070764944, 0.15495642, -0.15513428, 0.16209672, -0.1275063, -0.11507103, 0.07190134, -0.12830448, 0.15699492, -0.054520983, 0.21425942, -0.11726435, -0.028801769, -0.16678673, 0.29195416, -0.1683441, -0.10562755, 0.1269026, -0.15192477, 0.2071689, -0.1657688, -0.15982881, -0.003231615, -0.1074599, 0.21186945, -0.048715092, 0.16444097, -0.13102612, -0.106154114, -0.12330503, 0.25203314, -0.13320301, -0.15772486, 0.1571595, -0.12502488, 0.15687431, -0.12835532, -0.14233872, -0.033122543, -0.15209633, 0.15714926, -0.06621443, 0.15034021, -0.13730948, -0.12120829, -0.10430176, 0.29327816, -0.10627153, -0.15128712, 0.07414324, -0.1711493, 0.14799726, -0.101918854, -0.1104447, 0.07561158, -0.19442184, 0.15787461, -0.010263528, 0.13425876, -0.19652314, -0.12574631, -0.083745755, 0.20388868, -0.096727036, -0.10159611, 0.11774855, -0.17944434, 0.13754585, -0.10261249, -0.105753005, -0.056736004, -0.17614065, 0.14124173, -0.09090797, 0.14803304, -0.18144487, -0.11630821, -0.1405097, 0.21240099, -0.12630714, -0.061860174, 0.086043544, -0.17155112, 0.15930201, -0.11685444, -0.11782986, 0.055513985, -0.073037274, 0.13965388, 0.15623939, 0.12431472, -0.15541853, -0.15038718, -0.11583902, 0.26195472, -0.10371588, -0.12179291, 0.061035138, -0.17332175, 0.13231489, -0.08483066, -0.07334509, 0.030369759, -0.13019745, 0.10861316, -0.05376974, 0.14697348, -0.09865042, -0.12691304, -0.12625569, 0.25301036, -0.113337606, -0.024705414, 0.1386926, -0.14782435, 0.15179671, -0.10425549, -0.09908271, 0.058716003, -0.13023363, 0.13684686, 0.1164895, 0.15035486, -0.07235921, -0.08528917, -0.110629424, 0.28396407, -0.11585824, -0.20090398, 0.16230416, -0.14747365, 0.15183087, -0.106656946, -0.11037855, 0.01080713, -0.12980916, 0.15262425, -0.045461874, 0.14134902, -0.06350589, -0.15159504, -0.13432516, 0.277172, -0.12070601, -0.052130476, 0.0903047, -0.18647607, 0.15752973, -0.10383173, -0.09240442, 0.11877834, -0.14065748, 0.13908729, 0.098626934, 0.13998352, -0.076288074, -0.16190249, -0.1197832, 0.2708612, -0.10958309, -0.118597254, 0.22382107, -0.13290586, 0.14865673, -0.09214537, -0.08285186, -0.033945117, -0.1513198, 0.14346924, -0.041166507, 0.11103302, -0.11056368, -0.08349615, -0.11126448, 0.26353478, -0.083388455, -0.12864539, 0.13318123, -0.1739038, 0.12043143, -0.067601316, -0.047120146, 0.18117833, -0.15802729, 0.11651929, 0.045618784, 0.16481979, -0.1479827, -0.16403864, -0.14409916, 0.24746601, -0.13949704, -0.11037468, 0.20985824, -0.12967204, 0.16213866, -0.122791916, -0.12101853, -0.1743047, -0.13267078, 0.156297, -0.07837236, 0.11033587, -0.16003934, -0.16394012, -0.08868969, 0.21623516, -0.08727531, -0.035415493, 0.08779879, -0.18438466, 0.10350371, -0.085385196, -0.08094921, 0.06131604, -0.14628427, 0.10654162, 0.06512481, 0.12575568, -0.09461673, -0.037990775, -0.11763331, 0.21774818, -0.11164769, -0.108293496, 0.14122377, -0.15364422, 0.13089456, -0.106502205, -0.10651198, 0.03451702, -0.142104, 0.1173057, 0.002484257, 0.10839267, -0.1306754, -0.15316954, -0.091722, 0.23137426, -0.091141455, -0.094406456, 0.0934758, -0.16267185, 0.11123034, -0.080735154, -0.077543825, 0.07851697, -0.11668463, 0.10456217, 0.081523605, 0.1251415, -0.07558913, -0.090242796, -0.08593744, 0.2720587, -0.092231385, -0.15734713, 0.110834025, -0.13219662, 0.12968528, -0.08657508, -0.08914492, 0.03621452, -0.12798312, 0.11687301, -0.034363844, 0.14005975, -0.061026175, -0.11483039, -0.09875958, 0.28246394, -0.10347403, -0.121642485, 0.21976365, -0.16090053, 0.1417869, -0.10078721, -0.10470741, 0.10322754, -0.1382188, 0.1347272, 0.08387789, 0.15682818, -0.0967406, -0.04267221, -0.10274323, 0.26152885, -0.10547572, -0.12703717, 0.17453511, -0.15339877, 0.15788904, -0.10703927, -0.10471357, -0.011345505, -0.1412483, 0.15921086, -0.05230228, 0.14563273, -0.124737166, -0.18370387, -0.08751379, 0.3114615, -0.08762277, -0.12666474, 0.17769788, -0.15904233, 0.13217169, -0.08268901, -0.08396119, 0.07620691, -0.14182258, 0.13291976, 0.0221673, 0.14023621, -0.15769516, -0.08146588, -0.103675306, 0.22426301, -0.09019259, -0.13833658, 0.10077271, -0.17668715, 0.13781798, -0.10313029, -0.0937721, -0.079550035, -0.16276373, 0.14622037, 0.008556854, 0.061971024, -0.21476251, -0.103366695, -0.05463652, 0.15417022, -0.050910853, -0.08426671, -0.051175077, -0.17320862, 0.055497147, -0.0610857, -0.063129865, 0.1038204, -0.12848897, 0.0645689, -0.02126737, 0.14230666, -0.15929289, -0.1273275, -0.10995963, 0.18968734, -0.11099363, -0.107975625, 0.041664705, -0.15271002, 0.13105586, -0.10961683, -0.107664935, 0.06703635, -0.10956813, 0.11683803, 0.083800375, 0.10821093, -0.11984025, -0.090689994, -0.09527049, 0.2516524, -0.10589239, -0.080329694, 0.16304694, -0.15788794, 0.10609798, -0.10803325, -0.1088797, 0.02766723, -0.13375337, 0.10149669, -0.010690051, 0.15081453, -0.1127132, -0.07937757, -0.105181135, 0.24680747, -0.117025055, -0.047642354, 0.123705044, -0.14638087, 0.13649216, -0.108380005, -0.11420968, 0.11537619, -0.14277373, 0.14132774, 0.02284803, 0.1509787, -0.12783478, -0.11301434, -0.1081597, 0.22017114, -0.113182634, -0.05803749, 0.16457249, -0.12638968, 0.1499264, -0.11368936, -0.11868484, -0.015132076, -0.13258034, 0.14251061, -0.020032128, 0.10999577, -0.12288537, -0.1168598, -0.13468432, 0.19505979, -0.13136059, -0.14145394, 0.07775069, -0.1443585, 0.13084233, -0.1394643, -0.1263365, 0.08299542, -0.14484128, 0.11233391, 0.045491107, 0.1454501, -0.12611419, -0.093412004, -0.10091625, 0.18882376, -0.104393065, -0.1130557, 0.21413602, -0.12482344, 0.14493968, -0.10708986, -0.108645186, -0.001957231, -0.129137, 0.14823222, -0.042285133, 0.14376517, 