#ifndef NN_VALUES_H
#define NN_VALUES_H


const float L1_WEIGHTS[] = {
0.008516771, 0.0002647092, 0.0025373825, 0.0056317104, 0.0037117703, 0.005580825, 0.0073485207, 0.0084782, 5.028967e-06, 0.005444754, 0.0025497372, 0.0018786723, 0.006776065, 0.004112177, 0.0023711545, 0.0037227827, 0.00032877387, 0.005464445, 0.0028167104, 0.003145357, 0.0066240677, 0.007715702, 0.001230402, 0.0008485149, 0.007063514, 0.002101398, 0.00469829, 0.005835587, 0.006797991, 0.006489611, 0.003675851, 0.006846799, 0.007629644, 0.0013989975, 0.0029883804, 0.0010874487, 0.004685244, 0.008502784, 0.003677492, 0.00553146, 0.0041967947, 0.0064422092, 0.0036628582, 0.0014325994, 0.0026617858, 0.0050037103, 0.00339531, 0.0032948933, 0.003150036, 0.006235022, 0.005180847, 0.008171176, 0.006543286, 0.0014537787, 0.004515801, 0.0073942407, 0.0054466906, 0.0040157614, 0.0065934137, 0.0054121534, 0.005321388, 0.0008205438, 0.005883972, 0.0037546144, 0.0052057845, 0.0040303133, 0.0019862491, 0.0036979783, 0.0034169478, 0.0006012013, 0.00042979533, 0.00380756, 0.00760237, 0.0066053458, 0.0010948757, 0.0069476045, 0.0010723904, 0.0009158261, 0.005641886, 0.0042619836, 0.006624734, 0.008417055, 0.008375588, 0.0043233447, 0.0073442454, 0.0048098178, 0.0032729458, 0.0033759756, 0.007073994, 0.0008317486, 0.006112355, 0.006116094, 0.0036144946, 0.0022776767, 0.005396405, 0.0049446085, 0.0032753367, 0.007143894, 0.008647983, 0.007784913, 0.00401923, 0.0039045794, 0.004332065, 0.001215629, 0.004264892, 0.00598806, 2.6613128e-05, 0.007548541, 0.0030505343, 0.003535552, 0.006642399, 0.007705913, 0.0063738455, 0.0036500709, 0.0031072395, 0.0077992342, 0.0021386256, 0.0022356962, 0.0036223328, 0.0076474026, 0.0040728343, 0.007989209, 0.007879701, 0.008713273, 0.0028675068, 0.00036035824, 0.0044332375, 0.0048834197, 0.008712021, 0.007894052, 0.0031392104, 0.003503329, 0.0020832152, 0.004573077, 0.0010362621, 0.0087529095, 0.001858675, 0.004517337, 0.004981677, 0.0073559824, 0.006386985, 0.00830133, 0.0016437181, 0.006368748, 0.0058652298, 0.0023573986, 0.0003558494, 0.0040879343, 0.0066292332, 0.0032468545, 0.008761259, 0.0002735777, 0.0044151614, 0.0015035858, 0.0021754522, 0.0064910627, 0.0064980187, 0.0050665205, 0.007669932, 0.0027146097, 0.00601667, 0.0042204806, 0.0063947593, 0.0002947043, 0.007253269, 0.0030809485, 0.0027703904, 0.0038071377, 0.0075603235, 0.0020000553, 0.00093148893, 0.005835806, 0.0024391676, 0.0041344166, 0.0005838721, 0.0033097842, 0.002845067, 0.00036393682, 0.005510969, 0.0063079116, 0.005514438, 0.007512387, 0.0023245544, 0.0076752137, 0.0028391683, 0.0005116462, 0.003533108, 0.0073916074, 0.0023076443, 0.0028544278, 0.004823352, 0.006183675, 0.0015553721, 0.0081364475, 0.001984272, 0.0051495517, 0.0022806188, 0.006012759, 0.0066577164, 0.004818155, 0.00035589177, 0.005692009, 0.0056881057, 0.0051601836, 0.007663974, 0.001108808, 0.0032474156, 0.007938377, 0.003974257, 0.0028594069, 0.0016228503, 0.0042544175, 0.004766607, 0.008207106, 0.006071703, 0.003929348, 0.008023794, 0.0038184673, 0.003240056, 0.0061542443, 0.0055394974, 0.00024564957, 0.007207494, 0.0035746184, 0.0037268451, 0.0015997543, 0.0057699815, 0.0012197726, 0.0068302345, 0.0039328253, 0.004255337, 0.006203142, 0.0010409579, 0.0050651543, 0.0041503543, 0.008344414, 0.008256425, 0.0030965472, 0.0028158722, 0.0069128294, 0.008400364, 0.0071459403, 0.0049699997, 0.0057316227, 0.0052371286, 0.00592317, 0.004446036, 0.00083270425, 0.005123958, 0.0045511876, 0.005614728, 0.004733822, 0.008541205, 0.0050032535, 0.0017362406, 0.0034949973, 0.001594115, 0.0056036445, 0.004561501, 0.007428296, 0.0003412607, 0.00203979, 0.0058659087, 0.00041163975, 0.001153828, 0.0069325264, 0.0039781467, 0.0037506, 0.0028230643, 0.0059629055, 0.0083849, 0.0040046405, 0.005107458, 0.00013847096, 0.0062354235, 0.0060810484, 0.00425923, 0.00012926031, 0.0015457267, 0.0037531648, 0.003920747, 0.005593033, 0.0030238854, 0.004754806, 0.0009683173, 0.0044422057, 0.0072008357, 0.0016794521, 0.0026244782, 0.0051426403, 0.0015908914, 0.0024383196, 0.0065917973, 0.0030208002, 0.0037116052, 0.00838142, 0.0047534374, 0.0041931113, 0.0048991228, 0.00137755, 0.004364331, 0.0026827776, 0.0002107234, 0.0056581018, 0.00059169816, 0.0029749123, 0.0032193407, 0.00605315, 0.00021037587, 0.006454167, 0.006085446, 0.002528754, 0.006584919, 0.005900462, 0.0080685755, 0.0014581749, 0.0052230624, 0.0064641857, 0.0032160128, 0.008489891, 0.00020593057, 0.0023352855, 0.0066482453, 0.0026829466, 0.0019952997, 0.0018684475, 0.003825579, 0.0009162108, 0.0053985133, 0.0021946393, 0.0037978, 0.0023184172, 0.008500913, 0.0011472945, 0.005574153, 0.0026736963, 0.005492375, 0.00073260476, 0.0024054737, 0.0007396693, 0.006634346, 0.008735292, 0.006256158, 0.0016090616, 0.008241758, 0.006517529, 0.0046259128, 0.0031289798, 0.00848438, 0.008453761, 0.006608245, 0.0019595264, 0.0020916215, 0.0066325935, 0.00744062, 0.003378335, 0.008156982, 0.0060656453, 0.0062009506, 0.0036678773, 0.0015947934, 0.0006971939, 0.007984757, 0.005124783, 0.0054131523, 0.00047245738, 0.007084383, 0.0021031308, 0.0062358677, 0.00069768546, 0.0005741137, 0.0006937499, 0.005610295, 0.00086299557, 0.008488972, 0.006832106, 0.0018966878, 0.0067582815, 0.008107167, 0.005608842, 0.0023291681, 0.005163287, 0.0060699712, 0.0054261405, 0.0020231665, 0.0043265424, 0.0056351763, 0.005967595, 0.0014201561, 0.0048087053, 0.0015341603, 0.0020249735, 0.0033803023, 0.0009069413, 0.0010623874, 0.0016720749, 0.0076786336, 0.0019852647, 0.0029324805, 0.0058572693, 0.0045563453, 0.007763927, 0.0012727634, 0.0034395347, 0.0069778617, 3.6762045e-05, 0.0008624604, 0.006447873, 0.006646111, 0.00661004, 0.0072286967, 0.005010189, 0.0008901481, 0.0063396664, 0.0018037733, 0.0003317631, 0.0035653946, 0.0009337142, 0.0035386295, 0.008653199, 0.0006270024, 0.0071090716, 0.005110445, 0.0020299614, 0.0058329324, 0.006819046, 0.0004537085, 0.00047328288, 0.0065418817, 0.0007170045, 0.0050288187, 0.008053663, 0.0067807464, 0.0070334706, 0.004343295, 0.007872908, 0.0070334706, 0.0043957913, 0.004338479, 0.0005684076, 0.0072317943, 0.00859804, 3.788267e-05, 0.0064465096, 0.001507843, 0.0051052184, 0.0016767518, 0.0025427088, 0.0029702408, 0.005904027, 0.00041779157, 0.0066400096, 0.0029652887, 0.006631805, 0.0004978997, 0.00596686, 0.005275258, 0.0031071217, 0.0046475697, 0.00526404, 0.008062764, 0.0036000102, 0.004111786, 0.0042164614, 0.0019179126, 0.0035990414, 0.0077523827, 0.0066055995, 0.0069821486, 0.004229387, 0.00018000373, 0.0072956216, 0.0072679226, 0.0054965587, 0.0064662085, 0.0075617875, 0.002074785, 0.0034504745, 0.0061470144, 0.0024041615, 0.0003321242, 0.0057502184, 0.0004566877, 0.0062200404, 0.0044384184, 0.008641187, 0.001421669, 0.003421665, 0.00054380903, 0.0061639384, 0.006073145, 0.002205254, 0.0072291945, 0.007931945, 0.005376412, 0.0037142215, 0.006623772, 0.0030333786, 0.002005894, 0.00031201015, 0.003084575, 0.005257458, 0.0073760627, 0.00034876104, 0.00016034208, 0.0009847716, 0.006847297, 7.008763e-05, 0.0025843196, 0.006846112, 0.0031887083, 0.00681232, 0.13120434, -0.033843745, -0.038844064, 0.122276716, -0.022697411, 0.13253093, -0.0020267083, 0.06760326, 0.085035175, 0.09932018, 0.11048412, 0.14473099, 0.140462, -0.03168834, -0.009729814, 0.11445182, 0.1426166, -0.07383606, -0.019262072, 0.081078514, 0.17428114, 0.027302904, 0.13709715, -0.097453944, 0.07565177, 0.0101744365, 0.06982422, -0.03844881, -0.041751157, 0.087820254, 0.12743255, 0.09040974, 0.015366885, -0.010897291, 0.035194825, 0.14224342, 0.019973673, 0.2468316, 0.06704369, 0.047121648, 0.10912559, 0.022185886, 0.13399886, 0.12508224, 0.033190653, 0.06628668, 0.10595124, 0.0038027982, 0.15186295, -0.015081432, 0.16438738, 0.032123655, -0.0012924226, 0.14163318, 0.032307062, -0.14160748, 0.064521745, -0.015295682, 0.13892692, 0.021858254, 0.11755982, 0.012667159, 0.05380251, 0.07882535, 0.05831519, -0.0709734, -0.03306986, 0.066297606, -0.07556647, 0.058253627, 0.020731075, 0.054286234, 0.07479527, -0.091361634, 0.013257658, 0.087721474, 0.12826303, 0.2244826, 0.12492227, 0.06592587, 0.086651236, 0.039006066, 0.0828478, 0.025859037, 0.16187786, -0.073396705, 0.12452289, 0.0305079, 0.077300504, -0.00045458256, 0.03433476, 0.11018541, 0.18517499, 0.12077975, 0.04390567, 0.0049013346, 0.06904791, -0.016361201, 0.07316833, 0.18128848, 0.06731704, -0.00789446, -0.018210338, 0.14549126, 0.043401092, 0.07730961, -0.2635125, 0.111855455, 0.09659477, 0.053223334, -0.018491885, -0.10589525, -0.1413261, 0.04268999, 0.020632999, 0.008619567, 0.1587366, 0.18863694, 0.10726906, -0.0920486, 0.10807967, 0.15960504, -0.07586395, -0.074786276, 0.12528831, 0.06191493, 0.14526881, 0.052649282, -0.011101878, -0.018748417, 0.027104052, 0.03260082, 0.12811972, 0.05572882, -0.065181226, 0.026235817, 0.0029593653, -0.03881172, 0.10301225, -0.08319142, 0.12272979, -0.05079755, -0.10134443, 0.054375112, 0.09439021, 0.06990712, 0.053026546, 0.07056518, -0.09592415, -0.13689789, 0.110501304, -0.008585024, 0.018235212, 0.01530441, 0.027270656, -0.14838894, 0.2276187, 0.020324105, 0.03920606, 0.013354372, 0.06998573, -0.015621576, 0.044010285, -0.110913835, 0.07379628, 0.09803745, -0.0029742054, -0.0452065, -0.012703836, 0.1226116, -0.27138633, 0.0403371, 0.07789454, 0.022933202, -0.056655757, 0.04372378, 0.0744593, 0.20840743, -0.026065102, 0.04199873, -0.06239325, 0.23086317, 0.039476603, -0.0006823547, -0.047629934, 0.045287374, 0.03165486, 0.081742086, 0.12372446, -0.003929045, -0.012602775, 0.102123454, -0.09165228, 0.08007714, -0.11755846, 0.092957236, -0.060774133, 0.05035706, 0.08308113, 0.044597376, 0.17265597, 0.25444904, -0.107890785, 0.061083958, 0.080628805, 0.0029891313, 0.096483916, 0.104813814, 0.072399706, 0.16715124, -0.17548643, 0.12708278, 0.061535522, -0.061758157, 0.024454897, -0.007089177, -0.011229484, -0.016356004, 0.016782392, 0.0044334163, -0.025721911, 0.114626154, -0.046993088, -0.0737344, 0.05712088, 0.06780764, 0.10369979, 0.18698388, -0.12685451, 0.09357707, -0.11930113, 0.15196247, 0.100744754, 0.057454478, -0.09070131, 0.07104724, 0.101668, -0.028091453, 0.022222538, 0.0063869273, -0.06572343, -0.009159627, 0.10586218, -0.063126944, 0.11415025, 0.13881785, 0.026003597, -0.08022128, -0.07928283, -0.041984998, -0.033752266, -0.10930004, -0.022962172, 0.16054395, -0.08254831, 0.063771605, 0.058919415, 0.06919248, -0.14696753, 0.024221364, -0.016244303, 0.03471604, -0.016036466, -0.00035218746, -0.04108319, -0.039321832, 0.13942596, -0.0250176, 0.10449099, 0.11588726, 0.12638038, 0.059680965, 0.06860162, 0.05155807, -0.068618484, -0.010809655, -0.004727431, -0.04521586, 0.03967936, 0.10041824, -0.053752854, 0.06739272, -0.05657564, 0.058874972, 0.08585658, 0.048142396, 0.09010147, 0.12757505, 0.035615403, 0.08349875, -0.09987641, -0.10629447, 0.028025862, -0.11552423, -0.07567335, -0.10717414, 0.042727802, 0.33346504, 0.03752588, 0.04418091, 0.16362974, 0.072191, 0.098002754, 0.04400241, 0.07232675, -0.031143874, 0.09521959, 0.032502733, -0.117503, 0.018792924, 0.035398573, -0.10167792, -0.035544526, -0.04220736, -0.08610951, -0.040096607, -0.00595898, -0.009102201, 0.033926997, 0.069688395, 0.07228044, 0.11593424, 0.061776586, 0.0755658, -0.10955257, -0.12773618, 0.06082244, -0.014713082, 0.00777186, -0.09673275, 0.033723325, -0.013302118, 0.08669884, 0.07239669, 0.028991435, 0.09164847, 0.021089109, 0.10810485, 0.033572048, 0.09455363, 0.06466643, -0.07322618, 0.050076604, -0.046055794, 0.09319184, 0.062634625, 0.08477523, -0.017836487, -0.06425263, 0.11835287, 0.112707496, 0.07196104, 0.06129048, 0.24530543, -0.03669799, 0.020220673, 0.060708124, 0.14565837, -0.03917702, 0.08082765, 0.08986007, 0.145951, 0.16003081, 0.07287068, 0.10043608, 0.110092245, 0.26033533, 0.043704066, 0.018305395, -0.04171807, 0.100351766, -0.014445612, 0.0788213, -0.039616574, 0.068241194, -0.10857942, 0.03937845, -0.05354818, -0.1501394, 0.010280524, -0.0579024, -0.17015456, -0.1709349, 0.069426976, 0.04321326, -0.022020942, 0.15104978, 0.20717582, 0.06907327, 0.0007384219, 0.19847919, 0.08359847, 0.015605318, 0.06455871, 0.08024312, -0.13790315, 0.081413545, -0.0423062, 0.11680881, 0.07324832, -0.03739823, 0.09684393, 0.02356369, 0.09260246, 0.0382131, 0.19094107, 0.048306543, 0.087308034, 0.09860752, 0.005329834, 0.086092845, 0.13790157, -0.026307635, 0.05758618, -0.08475185, 0.09740503, 0.02084688, 0.3087966, 0.05534951, 0.0013232242, 0.0178539, -0.018881707, -0.0206742, 0.023202855, 0.09309076, 0.18541673, 0.10814552, 0.1596063, 0.14164355, 0.19688515, 0.14018388, 0.034496114, 0.09460602, -0.070487134, 0.017364815, 0.063691154, -0.009145866, 0.008015862, 0.05137406, -0.0565118, -0.059299953, 0.032227788, -0.17302625, -0.08911058, 0.041493792, 0.1292897, 0.084867895, 0.15198135, 0.021997973, 0.023019573, 0.020273503, 0.21707867, 0.0004593111, -0.031088071, 0.00015785867, 0.0095564015, 0.096512735, -0.00782172, 0.20010224, -0.093777485, 0.06408542, 0.055773854, -0.042858455, 0.045147732, 0.01603524, 0.0665391, -0.03787267, 0.15022908, 0.069520615, 0.30006638, 0.091104604, 0.046034954, 0.12395873, 0.087791465, 0.1268828, 0.13842952, -0.030002493, -0.011160772, 0.043724667, 0.09088926, 0.085640855, 0.18914986, 0.05200577, 0.08884779, 0.005281232, 0.102180794, 0.39115703, -0.059114203, 0.07604529, 0.023682617, 0.05949871, 0.16120426, 0.07339865, 0.036941845, -0.051539186, 0.005975811, -0.018897986, -0.037848443, 0.02733768, 0.034213033, -0.054951776, 0.0048063784, 0.0390659, -0.06578815, -0.04096319, -0.024376858, -0.124276295, 0.064751334, 0.11054754, 0.0620089, -0.13817658, 0.07312589, 0.18248682, -0.057454266, -0.0051910835, 0.10109997, -0.04746851, 0.07581689, 0.08666942, 0.074870214, 0.08175303, 0.09844748, 0.072984144, 0.15262981, 0.14708667, -0.04171743, -0.113274924, 0.08866235, 0.1077683, -0.025561385, -0.06847007, 0.024294768, 0.1628124, 0.008477452, 0.18808661, -0.09676327, 0.06532512, 0.049294323, 0.04470069, -0.09267197, -0.05626675, 0.07574993, 0.113852166, 0.039073676, 0.021476857, 0.0075263637, -0.05152589, 0.11336672, 0.02227091, 0.24939758, 0.04331292, 0.017639188, 0.14251055, 0.031511113, 0.042759165, 0.088013195, 0.008608214, 0.100064345, 0.12712605, -0.008499203, 0.17379439, 0.034278307, 0.1384162, 0.0077146715, -0.01208222, 0.17361066, 0.05535706, -0.15154794, 0.08515854, 0.01785474, 0.08806099, 0.11386036, 0.04334621, 0.010129828, 0.02855554, 0.047013175, 0.12953563, -0.06347796, -0.0152314035, 0.031934887, -0.1325563, 0.10254895, -0.03618026, 0.027710406, 0.097316675, -0.01846648, 0.023091136, 0.012389722, 0.11826762, 0.24839027, 0.1579374, 0.09832686, 0.1480405, 0.016801732, 0.09638053, 0.02277495, 0.08944245, -0.061415825, 0.13260554, 0.095655374, 0.032669373, -0.017057551, 0.058195833, 0.120328866, 0.10558504, 0.059750855, 0.034912366, 0.010480691, 0.16144562, 0.046096206, 0.092977576, 0.17390278, 0.10039162, -0.071706355, -0.018923394, 0.051542565, 0.031472296, 0.026699899, -0.03801095, 0.066310555, 0.06955538, 0.035727076, -0.0008431333, -0.15691863, -0.07701539, 0.024040546, 0.08499312, 0.016329672, 0.11821975, 0.2202111, 0.1006783, -0.06573751, 0.14581077, 0.13378811, -0.0630104, 0.0063279085, 0.16895261, 0.10338982, 0.10633034, 0.11222971, 0.023476772, -0.058869954, 0.087675974, 0.030038431, 0.0742122, 0.10321515, 0.15231685, -0.023107845, 0.08005633, -0.018373, 0.055582173, -0.06989089, 0.096835114, -0.052993823, -0.24772021, 0.039411373, 0.08480698, -0.0061926753, 0.0438388, 0.08275063, 0.06255532, -0.06212539, 0.09853523, 0.010242129, 0.062400475, -0.000507682, 0.00067508133, -0.29332545, 0.20656599, 0.065698616, 0.033583675, -0.025242971, 0.004691293, 0.013046345, 0.035426717, -0.12022551, 0.12532002, 0.08497954, 0.0066142785, 0.012833747, -0.034140497, 0.13976839, -0.41193056, 0.054468695, 0.12744077, 0.08433589, -0.011166589, 0.09392627, 0.092032716, 0.2064731, 0.11251684, 0.053642154, -0.127034, 0.19101636, 0.07313747, 0.005764546, -0.013001957, 0.048550315, -0.042846724, 0.18611687, 0.043304704, 0.09283879, -7.540871e-05, 0.08659411, -0.041872744, 0.07272808, -0.08306731, 0.08920296, -0.09885915, -0.030053008, -0.032353375, 0.041020032, 0.10313077, 0.24172811, -0.0023404756, -0.13008188, 0.0475106, 0.05581031, 0.083618514, 0.0746076, 0.029126652, 0.1276305, -0.0017217533, -0.019569732, -0.15549633, -0.14959902, 0.05983985, 0.10681516, -0.013433432, 0.055027314, 0.06633788, -0.00068145, -0.17753959, 0.005660572, 0.11936145, 0.08691506, 0.033634774, 0.08864853, -0.059393253, 0.06645202, 0.06866202, 0.074422665, -0.045109704, 0.020258006, 0.04721663, 0.0003894221, 0.0057049366, 0.034304444, 0.15337898, -0.036424834, 0.0069036144, -0.0904973, -0.020041337, -0.06565167, -0.037483368, -0.013175798, 0.111419655, 0.14514738, -0.046583354, -0.0656051, -0.06429502, -0.011667037, -0.02208156, 0.037706465, 0.043368712, -0.027200792, 0.0018093295, 0.07942357, 0.03222491, 0.020448685, -0.09262762, 0.035742957, -0.04397606, -0.029544048, 0.095537566, 0.0016031965, 0.05442928, -0.0430284, 0.064875335, -0.050768286, 0.08673415, 0.026817169, 0.046323083, 0.08988112, 0.064381026, 0.09318389, -0.14676584, 0.16076306, 0.07945622, -0.09832811, 0.023342159, 0.005544723, 0.042097833, -0.09517065, -0.007557689, 0.010183832, 0.11888388, 0.12078832, 0.069377296, 0.10234974, -0.06587367, 0.1436748, 0.11373692, -0.01723315, -0.076747, -0.0715232, -0.07064544, 0.009615918, -0.015958985, 0.2960157, 0.078149915, -0.016937496, 0.06756213, 0.07561231, 0.05078568, -0.024747692, 0.093655534, 0.11405211, 0.140451, -0.0020672563, -0.10388375, 0.066962495, 0.060582716, -0.07203343, 0.046387564, -0.07497167, -0.09522847, -0.047866184, -0.039571945, -0.032628786, 0.17811105, 0.03088658, 0.05885963, 0.15180211, 0.06630473, 0.18623789, -0.15208314, -0.17951421, 0.0771256, 0.058839444, 0.0621043, -0.15400934, 0.07974292, 0.041134454, 0.07082157, 0.09363213, 0.12105654, 0.046265833, 0.013474123, 0.047297683, 0.16914271, 0.000266348, 0.0817998, -0.13897413, 0.027245536, -0.033943307, 0.109957, 0.057132438, -0.086612515, -0.0011975368, -0.050746936, 0.14426072, 0.085550345, 0.20302299, 0.024122937, 0.23737074, 0.09029419, 0.08323734, -0.10413437, 0.14400153, -0.056433298, 0.010497417, 0.05342438, 0.0637989, 0.112367965, 0.09012372, 0.07957276, -0.056971155, 0.07764733, 0.03703196, 0.045368385, -0.08891296, 0.034747016, -0.032828428, 0.04902394, 0.043308407, 0.047852505, -0.065645866, -0.090301566, -0.097479984, -0.18405458, 0.10350024, 0.010411484, 0.27046022, -0.24641734, 0.06863427, 0.09720804, -0.07423891, 0.18297628, 0.1680015, 0.11019781, -0.020758726, 0.24812663, 0.04224463, 0.052722156, 0.09215373, 0.021828642, -0.077722065, 0.046021506, -0.10444264, 0.07551071, 0.0487673, -0.054397054, 0.020198861, -0.016730912, 0.061743286, 0.10994313, 0.10164476, 0.008905479, 0.004869532, 0.13200402, 0.16126662, 0.105298676, 0.09618777, -0.021163393, -0.023164397, 0.097822405, 0.031949516, -0.046961267, 0.37068978, -0.054591678, 0.0586554, 0.07887886, -0.028367909, 0.008361492, 0.06525048, 0.11272014, 0.18492307, 0.092862554, 0.1340712, 0.13087822, 0.12722938, 0.10152002, 0.07535139, 0.0809712, -0.038980253, 0.035479274, 0.051427923, 0.030569455, 0.034521155, 0.05511289, -0.05475284, -0.0023557881, 0.016246162, -0.08137737, -0.046165813, 0.08131, -0.013138043, 0.11873332, 0.09587336, 0.013965802, 0.062081367, 0.011382124, 0.22175892, -0.03716204, -0.07297349, 0.009854658, -0.013262293, 0.09431353, -0.052967068, 0.20033917, -0.07043351, 0.049810454, 0.08206889, -0.035714798, 0.059414, -0.019878257, 0.058417182, -0.047451213, 0.14274023, 0.048574284, 0.28241944, 0.065509185, 0.050322514, 0.12142179, 0.040557075, 0.110860035, 0.13186666, -0.046841566, -0.012607201, 0.039095726, 0.068508, 0.10810079, 0.20365396, 0.04677211, 0.07244823, 0.007451575, 0.08135259, 0.37899747, -0.08579478, 0.04852452, 0.020496756, 0.10044726, 0.14060643, 0.07172788, 0.0816373, 0.0061641964, 0.025699347, -0.02835242, -0.03463088, -0.022106364, 0.019954093, -0.054358166, 0.024748204, 0.025325617, -0.082326226, -0.079739705, -0.0052305167, -0.12905936, 0.12590219, 0.11264311, 0.030205037, -0.19025211, 0.09046977, 0.17517526, 0.025526468, -0.0038653526, 0.112228386, -0.0686045, 0.07553, 0.028832572, 0.040095024, 0.10700593, 0.09917512, 0.075694114, 0.14591825, 0.1435649, 0.028081479, 0.11925994, 0.117196165, 0.11678597, -0.033294424, 0.021955319, 0.012791081, 0.16369252, 0.03865793, 0.2956003, -0.07004514, 0.053903643, 0.05079843, 0.081973776, -0.028502231, -0.05130824, 0.06807119, 0.075641654, 0.051975213, 0.0864769, 0.07482528, 0.04434654, 0.13728467, 0.10010738, 0.25940624, 0.072364025, 0.044484288, -0.059435338, 0.028106038, 0.116443165, 0.11596971, 0.006583054, 0.04270921, 0.07334209, -0.12295262, 0.13597938, 0.02840293, 0.077677675, 0.012071141, 0.022995431, 0.16882162, 0.037653975, -0.1947008, 0.1389714, 0.07686841, 0.063057624, -0.011331771, 0.07652479, 0.00710064, 0.0653478, 0.079459935, 0.25887474, 0.01611705, -0.10399899, 0.06831671, -0.13903698, 0.0008372604, -0.056285385, 0.12150569, 0.124348104, -0.07369159, 0.03455609, 0.01001843, 0.14090483, 0.15540196, 0.05954409, 0.17062376, 0.16481704, 0.14552182, 0.015303629, 0.023927141, 0.12873773, -0.030778948, 0.3211231, 0.039592948, 0.05952251, 0.03324391, 0.04187688, 0.12121427, 0.31044018, 0.029686112, 0.14233653, -0.038543407, 0.08525308, 0.14731504, -0.041474726, 0.18323764, 0.024913268, -0.06115884, 0.0368397, 0.09939914, 0.17522348, 0.09680996, -0.084326684, 0.057723906, 0.0033244188, 0.06152629, 0.13332199, 0.0021571973, -0.049055133, -0.04726381, 0.1139294, 0.0073910397, 0.07951555, 0.2249693, 0.090917744, -0.09229491, 0.11164416, 0.07678628, -0.0046906527, -0.0208452, 0.0077396743, 0.07465293, 0.11806355, 0.12636046, 0.07403524, -0.14871413, 0.10843182, 0.1132793, 0.053274274, 0.03446391, 0.121603794, -0.034888837, 0.13373423, -0.120606035, 0.11469242, -0.05559207, 0.11824801, -0.054332394, 0.012207416, 0.15126087, 0.12490614, 0.037374496, -0.012304493, 0.046705898, -0.15677084, -0.05041318, 0.13740349, 0.06172889, 0.014176419, 0.07396755, 0.018417692, -0.15472357, 0.012222588, 0.03355321, 0.11065675, -0.0060771317, 0.05983794, 0.099571735, 0.030833552, -0.03141491, 0.017705273, 0.09425889, -0.037152335, -0.02041338, -0.18492755, 0.07450793, 0.017895082, 0.034702152, 0.07187841, -0.029158177, 0.05418912, -0.07096344, 0.08629565, 0.3458773, 0.07528559, 0.19333379, 0.01982684, 0.20514043, 0.0509202, -0.036174856, -0.004599794, 0.06318606, -0.15421864, 0.101828724, 0.06911173, 0.010862789, 0.0538946, 0.09283848, 0.019977413, 0.09677979, -0.06783504, 0.073681965, -0.08435372, -0.19423597, -0.1956917, 0.050508868, 0.21176626, 0.22984588, -0.041827112, -0.071104765, 0.08876416, 0.04747839, -0.008433837, 0.18038517, 0.0947624, 0.13397586, 0.002413597, 0.03688, -0.046436075, -0.07201585, 0.07523595, 0.047674168, 0.05561737, 0.019000454, -0.031377707, -0.011963989, -0.029832207, 0.048871227, 0.046192236, 0.016368419, -0.06790963, 0.08245876, 0.12592965, 0.1754704, -0.0050535137, 0.09724921, 0.0106325215, 0.07646236, 0.15812853, 0.16491015, 0.03917729, -0.035315283, 0.13198753, 0.023912076, -0.030603005, 0.020345172, -0.021938229, -0.29143345, 0.124457076, 0.033752915, -0.0005811958, 0.16403851, 0.027023692, 0.01417136, -0.08055254, 0.046370123, 0.09148855, 0.09312981, 0.013515061, 0.103233814, -0.056626365, 0.106649816, 0.010790859, 0.12094297, -0.01587624, 0.056943502, -0.0901466, 0.12796424, 0.23689622, 0.018659363, 0.16713214, -0.23504014, 0.008159468, -0.18792735, 0.14378303, -0.11762363, 0.17297707, 0.101239815, 0.061293278, 0.0343414, -0.2680245, -0.07606051, 0.005941393, -0.09926686, 0.0066590295, 0.06569963, 0.023150556, 0.046787404, 0.039823327, 0.109002054, -0.0030398772, 0.13817735, 0.18984887, 0.11658544, -0.007715114, 0.15764788, 0.14941573, -0.12810528, -0.0382345, -0.14240225, -0.021938637, -0.053325478, -0.063632965, 0.12899868, 0.03587673, -0.052190237, 0.13692817, 0.04716747, 0.06965597, -0.08898938, 0.06806197, 0.18251012, 0.0667589, 0.1275236, 0.03436613, 0.122359805, 0.022010945, -0.055889957, -0.019485291, -0.061006695, -0.16935426, 0.09161178, -0.026877204, 0.16081266, 0.17685348, 0.04713844, 0.0407386, -0.0819107, 0.053074967, 0.14392152, 0.016460914, -0.36199638, 0.044944536, 0.038503606, 0.11670011, -0.16326502, 0.035381448, -0.06949751, 0.094418444, 0.060410764, 0.018625928, 0.09847192, 0.018034201, 0.0008829552, 0.1318018, 0.09234189, 0.07830971, -0.0672611, 0.028619304, -0.054625046, 0.12790047, 0.079255514, 0.09130534, 0.003342067, 0.01998634, 0.0365091, 0.25180003, 0.042639133, 0.0050820247, 0.24748355, 0.057370014, 0.1501879, 0.04239262, 0.1978269, -0.029586764, 0.014355521, 0.057216305, 0.13606453, 0.10209437, -0.019915137, 0.071852304, 0.058913432, 0.15851316, -0.040193602, 0.06776565, -0.038229693, 0.064979345, -0.0015060887, 0.009203729, 0.08183088, -0.012486885, -0.054873735, -0.06726441, -0.09179721, -0.112633474, 0.097180896, 0.09034823, 0.24467313, -0.29508153, 0.042982265, 0.052006062, -0.032781515, 0.27321148, 0.23765022, -0.05776925, -0.0040175086, 0.16505362, 0.053630047, 0.111040846, 0.16920598, 0.0154559575, -0.11268091, 0.12282171, -0.049607567, 0.13676241, 0.040723003, 0.0019454727, 0.04953728, -0.08264102, 0.06375904, 0.08121265, 0.06473641, 0.030156655, -0.0011640149, 0.120917715, 0.15527439, 0.0052238186, 0.07669548, 0.025814798, 0.04971561, 0.08843859, 0.03883712, 0.06869928, 0.35207707, 0.04891533, -0.023553465, -0.02855408, -0.09065949, 0.037195466, 0.13492382, 0.11020361, 0.11545562, 0.15539706, 0.080664575, 0.13278282, 0.010470758, 0.041256286, -0.0029798774, 0.06257337, 0.0081463065, -0.033880405, 0.109441906, 0.08096674, 0.09580827, 0.025533052, 0.030942952, -0.05085025, -0.025511784, -0.13401066, 0.05029287, 0.21261814, 0.048787575, 0.14170624, 0.017405873, 0.08832911, 0.0182999, -0.0792286, 0.19581294, 0.11349481, -0.030303182, -0.0035665433, 0.0037802202, 0.10417775, -0.08731627, 0.16646685, -0.15793277, 0.07726818, -0.06312572, 0.018857935, 0.069966964, -0.05112782, 0.045922544, -0.07771619, 0.08281688, 0.11984077, 0.21835376, 0.045888048, 0.051680434, 0.10398895, 0.06158883, 0.035955302, 0.09597078, -0.11028428, -0.009892956, 0.09820239, 0.09738989, 0.040000834, 0.2310787, 0.0067141997, 0.098556936, 0.03460966, 0.102700025, 0.334284, -0.08138309, -0.040983662, 0.040911928, 0.124524966, 0.13657162, 0.090802886, -0.05440335, 0.02216757, -0.035766337, -0.07550945, -0.057927527, 0.022314737, 0.018186504, -0.055868514, 0.05446444, -0.02360352, -0.12185892, -0.035890322, -0.019483332, -0.10634844, 0.07301572, 0.11944495, 0.102902, -0.11649664, 0.04000087, 0.1857799, -0.055118132, 0.025136223, 0.13502102, -0.15225671, 0.024456767, 0.010603325, 0.08770128, 0.16340849, 0.029819317, 0.07905326, 0.15975723, 0.1407266, 0.08332428, 0.022653572, 0.102594785, 0.060413, 0.055311933, 0.075116165, 0.03608602, 0.10430802, 0.07375859, 0.3992216, 0.0043838033, 0.06330138, 0.03949778, 0.07650023, 0.10800555, -0.013152698, 0.09713112, 0.036997076, 0.13407555, 0.118456356, 0.14469378, 0.063827805, 0.08701112, 0.114375584, 0.3619994, 0.051661916, 0.023519171, -0.055219103, 0.10743096, 0.11003008, 0.065574795, -0.041455407, -0.0072837723, 0.10208738, -0.10988115, 0.19529073, 0.10845213, -0.02580294, 0.021956505, -0.010843412, 0.2144425, 0.06291007, -0.29757673, 0.22709891, 0.058189373, 0.1102617, 0.014705159, 0.08944818, 0.040289108, 0.097247824, 0.10325679, 0.22198568, 0.1358573, -0.06319333, 0.12838906, -0.1920857, -0.03964484, 0.083131, 0.08621918, 0.16731682, -0.0001102409, 0.034338336, 0.0886646, 0.22677213, -0.008706988, -0.063714884, 0.17515752, 0.1332652, 0.013813267, -0.09036605, 0.008621436, -0.030119983, -0.00022725758, 0.42887673, 0.09882835, 0.02477649, 0.14090817, 0.043275323, 0.10050857, 0.26111495, 0.1485096, 0.115471736, 0.03866639, 0.11198317, 0.15132307, 0.10041329, 0.021718128, 0.119122334, -0.045694165, 0.10041329, 0.06640718, 0.15240204, 0.054818455, 0.09869098, 0.07769169, -0.13061889, 0.07873911, -0.0018466738, 0.014887287, 0.14681324, -0.08874108, 0.13344185, 0.02265272, 0.0672154, 0.21741141, 0.05749123, 0.014793444, 0.07539531, 0.089859575, -0.027925123, -0.13517575, 0.13105613, 0.03461442, 0.12160526, 0.1522759, 0.14465816, -0.28151864, 0.024388993, 0.09865904, -0.03536322, -0.05455323, 0.030522434, 0.1407801, 0.14132187, -0.1810777, 0.19155528, -0.00598055, 0.15644397, 0.09252772, 0.18937656, 0.20773377, 0.072072946, 0.16927534, 0.074141905, 0.033779576, 0.09023033, -0.011091479, 0.26953688, 0.035691403, 0.082951844, -0.00312621, -0.026922625, -0.034721132, -0.06953375, 0.017652746, 0.08259722, -0.035429455, 0.081895515, 0.112824306, 0.060195383, -0.039058864, -0.086893335, 0.1078127, -0.06609193, 0.08557255, -0.13435873, 0.11947297, 0.009819391, -0.11952956, -0.14682713, 0.09740163, 0.029528342, -0.036622893, 0.03285797, 0.24977313, 0.12600608, 0.20080376, -0.040009923, 0.20309737, 0.030212363, -0.0032995434, 0.026822018, 0.008015555, -0.09796799, 0.062084217, 0.020640412, 0.056310143, 0.09628661, 0.16522785, 0.05222832, 0.21827856, -0.20833163, 0.09463062, -0.30584902, -0.08091011, 0.016880125, 0.056191575, 0.25891766, 0.23707853, 0.1072896, -0.018176112, 0.168697, -0.16440028, -0.14667672, 0.21396282, 0.07269746, 0.02977898, 0.09121259, -0.015447827, -0.022636624, 0.019156415, 0.08871659, 0.08740911, 0.054206174, 0.08440819, -0.06298468, -0.016448747, 0.12151407, 0.018658375, 0.13909602, -0.005398341, 0.10265785, 0.08471878, 0.18467784, 0.17140989, 0.0627542, 0.17881094, -0.016719975, 0.07675128, 0.08605484, 0.09239499, 0.02617577, 0.007689261, 0.015964758, 0.06159205, 0.10400956, -0.23597112, 0.06630887, -0.19832666, 0.13577008, 0.6927527, 0.038844895, 0.15587254, -0.058552906, 0.079810284, 0.063925214, 0.14480723, -0.03350727, 0.14481547, 0.058648907, 0.015783088, -0.04528751, 0.1076933, 0.08020305, 0.070509166, 0.0084862, 0.100187644, -0.11389613, -0.16370873, 0.19666596, 0.039160084, 0.20628774, -0.11731316, 0.086573064, -0.30593026, 0.11717602, -0.09101442, 0.10698787, 0.09746971, 0.102910504, 0.06451774, -0.065559655, 0.08030583, -0.06810952, -0.0022036715, 0.039293814, 0.115480565, 0.07000648, 0.21483225, -0.07856096, 0.10225726, -0.11161781, -0.064407006, 0.18013784, -0.024213186, -0.105000176, 0.11585926, 0.16948439, -0.113133565, 0.06354939, -0.18642437, 0.027831348, 0.14696686, 0.08434341, 0.087718874, 0.034545343, 0.02497938, 0.005146279, 0.115656585, 0.005076886, 0.10572133, 0.030297747, 0.027879301, 0.11726877, 0.09150259, -0.01624813, 0.1569801, 0.018819844, 0.002938159, 0.0961676, -0.14785963, -0.07546665, -0.014589279, 0.0455941, 0.26906157, 0.1673033, -0.061931305, 0.020312201, -0.1164931, 0.03143712, 0.23134363, -0.009779738, -0.2343481, 0.0030737075, -0.028183522, 0.14488493, -0.23949406, 0.024025796, -0.08675569, 0.11287473, -0.06141675, -0.08566428, 0.12093397, -0.010347522, 0.10660696, 0.061418857, 0.16252357, 0.04466476, 0.013129548, 0.052806687, -0.23948215, -0.016627813, 0.10079952, -0.12474481, -0.007655551, -0.07400354, 0.07051319, 0.20567706, 0.09364731, 0.08942838, 0.21308, -0.0062144883, 0.17429094, 0.06733227, 0.20843181, -0.1634117, -0.019811766, -0.08023305, 0.11938378, 0.15372075, -0.07968491, 0.07352399, -0.000866093, -0.051374342, -0.27641836, 0.15296465, 0.11460456, 0.0031936532, 0.07713764, 0.019179456, 0.13719024, -0.09865113, 0.052621648, 0.034410093, 0.05016874, -0.29591802, 0.17852622, 0.15856443, 0.15031429, -0.29657575, -0.100894615, 0.10820995, -0.034961194, 0.33807135, 0.18612123, -0.123843774, -0.032348003, 0.13995898, 0.08722114, 0.14935203, 0.18577728, 0.047462594, -0.00585229, 0.13740766, -0.09805962, 0.01392422, 0.0438345, 0.063296266, 0.091685414, 0.042394314, 0.09126493, 0.19435725, 0.032486755, 0.0043798382, 0.10010584, 0.31706455, 0.09545269, 0.07479555, 0.022515869, 0.08820364, 0.009762289, 0.13685125, 0.061531533, 0.004682328, 0.34802568, -0.0045680515, 0.060560044, 0.016174814, -0.15059176, 0.09572152, 0.19190465, 0.045928575, 0.066372894, 0.12075544, 0.024507653, 0.011401133, -0.1950185, 0.1085848, 0.051461373, 0.02089187, -0.008002061, -0.027736202, -0.040043797, 0.010789645, 0.15655705, -0.06174607, 0.005469037, -0.13357456, -0.08882873, -0.06570152, 0.016771719, 0.1981015, 0.16735202, 0.20277874, -0.00915956, 0.11554528, -0.030680347, -0.19710271, 0.19053659, 0.01806654, -0.045058236, -0.07108527, -0.017644927, 0.13591322, -0.0743405, 0.1474588, -0.12448539, 0.097651504, -0.2822821, 0.04072296, 0.009868842, 0.0015875521, -0.016753491, -0.09779589, -0.006920274, 0.018239038, 0.11674498, 0.032589972, -0.024938913, 0.12174447, 0.068515286, 0.0064054835, 0.09920052, -0.17620695, 0.05685232, 0.10667305, 0.084223256, -0.022031864, 0.25803643, -0.07299979, 0.040138975, 0.028735198, 0.16850767, 0.21995474, -0.096688226, -0.06267885, 0.06242737, 0.105351165, 0.124788925, 0.028881526, 0.020733539, 0.11458498, 0.04781401, -0.08208742, -0.052111898, -0.033560265, 0.041646343, -0.0071017807, 0.07750516, -0.06983275, -0.10568527, 0.09494193, 0.0053737625, -0.12386697, 0.08550827, 0.17494391, 0.069109716, -0.06343314, -0.024386643, 0.13641013, -0.044707153, -0.12301038, 0.2755468, -0.23290244, 0.12690125, -0.10607823, 0.0619509, 0.20985924, 0.025088789, 0.024791125, 0.1809383, 0.16624013, -0.057772912, -0.045847543, 0.06736477, 0.021767663, 0.21662048, 0.1380127, 0.1546416, -0.16861759, 0.19748819, 0.4332254, -0.20648505, 0.04276553, 0.058950443, -0.112971954, 0.018854225, 0.09511696, 0.1968504, -0.035563856, 0.2023586, 0.18058601, 0.13184261, -0.062042058, 0.11803041, 0.28493154, 0.27622584, 0.052312944, 0.13957186, -0.013960927, 0.13941328, 0.09834002, -0.0422489, -0.2933423, -0.1069986, -0.06183729, -0.21076564, 0.2668058, 0.06612981, -0.21912064, 0.15098374, -0.06605168, 0.24639589, 0.12831606, -0.6062489, 0.11051852, 0.14690223, 0.19626716, 0.081760876, 0.15401423, -0.06049257, 0.0997199, 0.06592675, 0.20630865, 0.21789023, -0.03014433, 0.17309873, -0.51236963, 0.04537907, 0.15517284, 0.12847796, 0.20370553, -0.10737822, -0.0010812575, 0.15583329, 0.25733408, 0.12381645, 0.0019088067, 0.22289656, 0.1396337, 0.1021842, -0.5383677, 0.04496386, 0.026318653, 0.015512216, 0.45182836, -7.061099e-05, 0.16494203, 0.12535967, 0.015687294, 0.0388372, 0.11503954, 0.23991118, 0.036126018, 0.1988907, 0.0026434895, 0.15508747, 0.117157295, 0.10116196, 0.32183254, -0.10552387, 0.06156997, 0.017613739, 0.13174237, 0.14772864, 0.13003883, -0.054241933, -0.4183889, 0.16580582, -0.051069167, 0.09889544, 0.32876077, -0.20253785, 0.056492098, 0.1803366, -0.20112425, 0.26922062, -0.03984188, 0.061045635, -0.122677624, 0.07811451, 0.14761496, -0.071614854, 0.112041965, -0.19656901, 0.2318889, 0.18006025, 0.119801976, -0.15359677, -0.029309744, 0.17991348, 0.062496573, -0.18554665, -0.09190706, -0.015732957, 0.16625512, -0.2503821, 0.1987633, 0.01747859, 0.124527514, -0.093383424, -0.12785031, 0.1680258, 0.12637176, 0.13427661, 0.25313264, -0.23348328, -0.030338837, 0.045309167, 0.3026142, 0.037043918, 0.038741946, 0.040295143, 0.1752559, -0.17843418, -0.017808178, 0.06404061, 0.260143, -0.039966118, 0.084212884, 0.189454, 0.28778672, 0.13707809, 0.2823098, -0.05883024, -0.011378706, -0.01439456, -0.21828869, 0.17111935, 0.028268017, 0.17219344, -0.43044004, 0.060251057, 0.04355689, 0.022114763, 0.03168042, 0.07249114, 0.27619556, 0.19674547, 0.16063178, 0.2710116, -0.088411085, -0.17250423, 0.07335982, -0.049332365, -0.095618874, -0.0010556082, 0.16083503, -0.10935388, 0.14309749, 0.156081, 0.055520676, 0.31214494, -0.069146745, 0.1594635, -0.107743934, 0.12874013, -0.04980287, 0.014414795, 0.19549784, 0.16863605, 0.05942111, 0.087692164, 0.1581408, -0.016089091, -0.17354545, 0.1709152, 0.012468571, 0.26847032, -0.013629683, 0.030477285, 0.07706098, -0.028346023, 0.1529412, 0.026911542, -0.010547249, 0.23190549, 0.025750313, -0.02476021, 0.055796366, -0.033616588, 0.050405867, -0.055223413, 0.057967793, 0.2280844, 0.2327726, 0.15658565, 0.115270056, 0.20234592, -0.017534634, 0.22707963, -0.15930583, 0.10123162, 0.0016793332, -0.02097282, -0.51964647, 0.34185603, 0.11164622, -0.11737966, 0.116028585, -0.056659594, 0.16474481, 0.38591528, -0.14130397, 0.1619273, -0.12065483, 0.016971998, -0.07165785, 0.012424626, -0.41056445, 0.051812183, 0.06075722, -0.07859837, 0.06713343, 0.064732224, 0.027494457, 0.033267178, -0.0007247084, 0.14863034, -0.12682027, -0.08571889, 0.085897624, 0.0435912, 0.1311281, -0.032530755, 0.31630477, -0.6120533, 0.16364521, -0.050658282, -0.11792227, 0.18158989, 0.09999359, 0.13750283, -0.17055595, -0.1253949, -0.1451594, -0.062086117, 0.10375822, 0.08095769, -0.077676326, 0.103236146, 0.06696569, 0.12620497, 0.040408608, 0.01019805, -0.1579231, 0.1650896, 0.15987056, 0.16828738, 0.22342494, -0.06459613, 0.11346255, -0.1455508, -0.0059705013, -0.13648345, -0.088701166, 0.2729022, 0.06406726, 0.031690825, -0.27795115, 0.21942706, -0.063682586, 0.28565016, -0.0039142678, -0.25700703, 0.15489006, 0.15714917, 0.00261845, 0.09831205, -0.1696806, -0.06696154, 0.18370652, -0.031881105, -0.33898717, -0.28271073, 0.14429154, -0.08477454, 0.18526132, -0.18881051, 0.09033661, -0.16211991, 0.055293277, 0.14476079, -0.26686627, -0.031864744, -0.06720542, -0.10732589, 0.1639729, -0.15791284, -0.0033614773, 0.038707092, 0.17888586, -0.21468894, -0.055516258, 0.025652375, 0.04093403, 0.19719905, -0.09371291, 0.109214574, -0.031269725, -0.07695499, 0.051765695, -0.20458096, 0.12061351, 0.20012997, -0.05625059, -0.043034595, -0.000102707316, 0.025481358, -0.013141815, -0.00379911, -0.072474994, 0.29168522, 0.07671841, 0.05430922, 0.07190344, 0.19598211, -0.06918656, 0.042261872, -0.15967973, 0.1780452, 0.08863432, 0.09763374, -0.42063797, -0.05297818, 0.045816675, -0.04398812, 0.030508103, 0.31259534, -0.037505385, 0.03253723, -0.14319794, 0.10994706, -0.14304593, 0.116476774, -0.14744908, -0.15993704, -0.3163311, -0.36655933, 0.018601337, -0.12740268, -0.27202666, -0.31786636, 0.09138319, -0.07129232, 0.3273438, 0.20666559, -0.34615874, -0.25678083, 0.09293332, 0.05622342, 0.22969134, 0.035981692, 0.20794162, -0.2190595, 0.15711433, -0.28272414, -0.36693487, 0.12908517, -0.02669952, 0.14507583, 0.10217735, -0.08621333, 0.16377391, 0.03531385, 0.048168633, 0.15814911, 0.42146233, 0.012612313, -0.25051972, 0.006613204, 0.003575774, -0.050311886, 0.2669354, 0.08782205, -0.061488062, 0.34028333, -0.34575033, -0.020988671, -0.05504715, -0.23029773, 0.04061045, 0.2984121, 0.051874276, 0.18203528, 0.19522287, 0.1443597, -0.109951876, -0.5767099, -0.08880791, -0.06183305, -0.069121554, 0.08938326, -0.047666937, 0.0347968, -0.11925097, 0.1547238, -0.05306776, -0.056547347, 0.04469336, -0.13818902, 0.022199253, 0.3857616, 0.10328236, 0.15220343, 0.1454299, -0.13555953, 0.057822797, -0.20819603, 0.01932718, 0.18081772, -0.17987588, -0.3214944, -0.032283157, 0.0142216245, 0.21861088, 0.0051162555, 0.056376405, 0.07586258, 0.088781275, -0.2609624, 0.089760385, 0.050011765, -0.08238576, 0.044928536, -0.19246404, -0.10514743, 0.074028954, 0.005521453, 0.05723356, 0.08198391, 0.345375, -0.14151295, -0.18286084, 0.06843683, -0.1635418, -0.08794039, 0.16782744, 0.13838015, -0.012020515, 0.29801905, -0.10391966, 0.07287208, -0.007234106, 0.27047962, 0.242257, -0.21723545, -0.099862255, 0.18456928, 0.16959071, 0.28679895, 0.023422109, -0.18817401, 0.15514131, 0.07918667, -0.023681082, -0.042160522, -0.12201049, 0.0027265467, -0.15011187, 0.05967702, -0.21390848, -0.039927803, -0.056576304, -0.02153673, -0.30800575, -0.19559234, 0.13839711, 0.14342506, 0.02376763, -0.049614523, 0.1958073, -0.2937614, -0.06185484, 0.39443597, -0.49373317, 0.28060123, -0.23811087, 0.15189765, 0.23254424, 0.19161874, 0.004891931, 0.2771074, 0.30207482, -0.0623839, 0.15750493, 0.10989684, -0.28748348, 0.40480605, -0.1338879, 0.12240296, -0.04034909, 0.23768999, 0.4527977, 0.009921425, -0.24079253, -0.1535268, 0.21280284, 0.14313789, -0.09256074, 0.15917279, 0.08990707, 0.24975175, 0.1290486, 0.246302, -0.0066954833, 0.37725517, 0.56789, 0.17031214, -0.09960739, 0.099665485, -0.18960032, 0.0736845, 0.08472968, -0.055307288, -0.15005806, -0.08153663, 0.16264714, -0.07871323, 0.4162736, 0.3030842, -0.28197238, 0.28307393, -0.16453603, 0.31111753, -0.029121133, -0.9725584, 0.06668939, -0.14619969, 0.2833888, 0.25818187, 0.1619342, -0.06815183, -0.24626513, 0.0073166853, -0.051276997, 0.32318196, 0.10683703, 0.3647735, -0.27805552, 0.39923185, 0.006196242, 0.07677936, 0.59442234, -0.49603358, -0.27204514, -0.11412979, 0.3552121, 0.24272087, -0.1327453, -0.009084427, 0.14615464, 0.18516122, -0.8076554, 0.30900958, -0.17015873, -0.14999072, 0.49272677, -0.25898215, 0.07923491, -0.16215016, -0.048025224, -0.19682896, 0.1993692, 0.36748898, 0.13382268, 0.20324449, -0.05297143, 0.094402336, -0.0019637698, 0.27845544, 0.20045316, -0.17467123, 0.054743383, -0.19151314, -0.057190042, 0.1454851, 0.14542978, -0.041917942, -0.36987698, -0.050370164, 0.21753451, 0.19474292, 0.20205423, -0.32262927, -0.103727065, 0.19836773, 0.08969973, 0.27055755, -0.2047398, -0.48034275, -0.36660492, 0.10668167, -0.45922738, 0.33705625, 0.027063834, 0.030766368, 0.3859842, 0.24170911, 0.3307982, 0.23168617, 0.07451702, 0.2090559, 0.087134756, -0.04016709, -0.19943509, 0.07331944, 0.22079168, -0.4180188, 0.0930077, -0.026322313, 0.2630984, -0.09080538, -0.38276398, 0.100774676, -0.4599385, 0.069698915, 0.32633802, -0.16597985, -0.06529941, -0.054863077, 0.39085886, -0.16045271, 0.026979683, 0.1847826, 0.3184102, -0.11586754, -0.03839155, 0.11431064, 0.25646585, -0.10827671, 0.0046893894, 0.14049742, 0.1884809, -0.19048657, 0.26213154, -0.10811952, -0.19149426, -0.059718918, -0.5025831, 0.08127562, 0.14407644, 0.038404755, -0.5384044, 0.251886, 0.039068196, 0.12588038, 0.053959038, 0.03634664, 0.17424053, 0.39682898, 0.20286053, 0.2868872, -0.27255908, -0.847474, -0.49372202, -0.23686996, 0.18724315, -0.13419822, 0.11419106, 0.060122382, 0.15270853, 0.051836684, 0.053376004, -0.059279997, 0.031244949, 0.15321878, -0.3036428, 0.20892952, 0.24301514, -0.01988608, 0.24988936, 0.1478475, 0.11222509, -0.106476076, 0.20278642, -0.0034720316, -0.31005716, 0.07395385, 0.19402166, -0.037633553, -0.38773218, -0.17562042, 0.101957485, -0.36479482, 0.18988714, -0.052573863, -0.030107306, 0.276174, -0.022753607, -0.3674345, -0.0066144387, -0.116002284, -0.067143284, 0.029370066, 0.12673599, 0.35381904, 0.24263318, 0.16747199, 0.03500738, 0.03737894, -0.045887183, -0.12729034, -0.048139673, 0.25956607, -0.0584849, 0.20804098, -0.73300505, 0.44550774, 0.08658265, 0.07095351, 0.15453036, 0.120184585, 0.10765421, 0.3049249, 0.13614938, 0.2975829, -0.25120303, -0.41367832, -0.24738349, -0.26002988, -0.97432685, -0.07333224, -0.086193494, -0.1899591, -0.20246527, -0.002955273, -0.06490322, 0.044775877, -0.003423617, 0.32451132, -0.12253539, -0.122933574, 0.10519247, 0.037436683, 0.28665158, 0.12226834, 0.27157867, -0.27632362, 0.32925662, -0.040120147, -0.61619955, -0.19200815, 0.11732134, 0.054177754, -0.13587193, -0.0013022901, 0.025153799, -0.12674461, 0.15460397, -0.10819627, -1.0616986, 0.37673184, 0.04685421, -0.4106975, -0.06713569, -0.16950907, -0.13816617, 0.082425535, 0.014606246, 0.22848724, 0.14880612, -0.14891097, 0.19383858, -0.28803456, -0.4076308, -0.108551815, 0.12793867, 0.20979665, 0.18279058, 0.060495224, -0.36142033, 0.3802467, -0.38903394, 0.37197164, -0.031461824, -0.24024083, -0.17316353, 0.047995545, -0.20415948, 0.1802406, -0.34532413, -0.80706996, -0.00021250486, 0.028597368, -0.47886315, -0.37199855, 0.017377881, -0.047942866, 0.07222799, -0.23742448, -0.063891895, -0.12526816, 0.31525066, 0.24891406, -0.22254369, 0.25165835, 0.015478175, -0.1486383, 0.29541704, 0.16918896, 0.13610967, 0.027127404, 0.16943507, -0.2660232, 0.10589409, 0.029247483, 0.098778896, -0.065112114, -0.16332653, 0.28729445, 0.15765311, -0.67268074, 0.112975135, -0.35463804, -0.0271248, 0.27283585, -0.14119782, 0.08867423, 0.089319795, -0.08533109, -0.093574, -0.1166285, 0.07363778, 0.5400147, -0.0924927, -0.22067626, -0.038232043, 0.068423815, -0.17940888, 0.15224962, -0.26791218, 0.332839, 0.13143933, 0.40251717, -0.46403447, -0.29517135, -0.29652205, -0.4387448, -0.3790897, 0.27147728, -0.018810263, 0.093352996, 0.031011876, 0.13613623, -0.26983282, -0.15273066, -0.13290738, -0.2637534, -0.44745445, -0.3470787, -0.3501458, 0.17356163, -0.28570393, -0.605151, -0.15783843, 0.13065022, 0.23350555, 0.3793241, -0.1767639, -0.05601044, 0.056944862, 0.2930392, 0.14382869, -0.21885845, -0.15210532, -0.14140604, 0.26203626, -0.31324512, -0.28016734, 0.0966433, 0.4008291, 0.13900875, 0.38934657, 0.24983786, 0.20976633, -0.07607701, 0.09306713, 0.34036398, 0.16716222, 0.04439378, -0.36123824, -0.51319826, -0.13223241, -0.13820605, 0.3655167, -0.0010425807, -0.37921226, 0.28003448, 0.005257095, -0.19596255, -0.19977285, -0.106460795, -0.07436053, 0.16136646, 0.14906211, 0.018783387, 0.251147, 0.35514113, -0.27286738, -0.096528225, -0.064344965, 0.17108615, -0.024676453, 0.38683635, -0.3146783, -0.24374427, -0.10714536, 0.073580794, -0.15979536, -0.33589497, 0.1795277, -0.33906624, -0.05675795, 0.167685, 0.09494071, 0.33079657, 0.08325702, -0.14853585, -0.022883467, -0.44289893, -0.021908648, 0.21888997, -0.15589525, -0.31582364, -0.04712356, 0.17186454, 0.2058571, -0.022365844, -0.17647737, 0.26018998, 0.023745432, -0.41935638, 0.07491729, -0.008158572, -0.06506335, 0.20225085, -0.3665761, -0.08001141, 0.24956577, -0.14348806, 0.14229017, -0.20827852, 0.1892541, -0.11437758, -0.025379946, 0.36346227, 0.0055335304, 0.028831417, 0.30565166, 0.20524383, -0.026986508, 0.23063022, -0.43898648, 0.11078178, -0.34203464, 0.1533604, -0.6605648, -0.07471388, -0.37587625, 0.24411517, 0.27659565, 0.27202138, 0.04254617, -0.16147119, -0.066554874, 0.13044865, -0.32530567, 0.12716848, -0.0883187, -0.057144012, -0.675988, 0.18907686, -0.021424428, -0.24749744, 0.22913277, 0.21665442, -0.07896345, 0.244947, -0.08146693, 0.21854268, 0.102424905, -0.25119177, 0.0051445574, 0.008756059, 0.008200922, 0.004781676, 0.0039947284, 0.00038629706, 0.00196443, 0.006980469, 0.0066709635, 0.006048683, 0.0020467811, 0.0018505019, 0.0057513826, 0.00033157482, 0.00054345094, 0.0016500453, 0.00616286, 0.0036780648, 0.0019100378, 0.00049471477, 0.0033943066, 0.007048546, 0.0047377287, 0.006808686, 0.0061925817, 0.0029964987, 0.0058915955, 0.0018939137, 0.0065941405, 0.0011034522, 0.004040942, 0.007156102, 0.0011531191, 0.003945957, 0.0071703433, 0.0040117293, 0.0077534546, 0.005700269, 0.0030577532, 0.0003581214, 0.0022773412, 0.002625124, 0.0052041626, 0.0012436896, 0.008003853, 0.0076638693, 0.008122271, 0.008044814, 0.005682135, 0.0060752532, 0.004202148, 0.008237104, 0.0025894805, 0.0016146498, 0.008070663, 0.004980448, 0.007386229, 0.004704509, 0.0009063672, 0.00070072245, 0.0025654233, 0.0029784283, 0.002065462, 0.0016599502, 0.004813946, 0.002394456, 0.0059396364, 0.0015271433, 0.0069212336, 0.00030422388, 2.0011588e-05, 0.0027976236, 5.8947287e-05, 0.002600481, 0.0041340035, 0.0016125232, 0.007653856, 0.00062801805, 0.0059568956, 0.00024564617, 0.0016592836, 0.0019264142, 0.0017508707, 0.0058626183, 0.003707615, 0.0043944293, 0.007819592, 0.0043939413, 0.007170314, 0.004823339, 0.002461428, 7.900693e-05, 0.008511121, 0.00787101, 6.621725e-06, 0.0044714874, 0.0013377361, 0.00701136, 0.0029858127, 0.0007121053, 0.0042530494, 0.0017518988, 0.0028876509, 0.008741223, 0.001527894, 0.0041809743, 0.007262229, 0.008770954, 0.0056216596, 0.0035941794, 0.0041728364, 0.003516811, 0.00778807, 0.00014885412, 0.0001859771, 0.0042940937, 0.0063789887, 0.006652155, 0.005740019, 0.008775217, 0.0071596107, 0.008077304, 0.008412107, 0.0071999608, 0.007182785, 0.008598839, 0.0024817302, 0.0028973538, 0.008189309, 0.002037111, 0.006612921, 0.0066136317, 0.0078564435, 0.000888224, 0.0084990505, 0.0011801118, 0.0006832942, 0.004818951, 0.0038231825, 0.004262784, 0.004906069, 0.002376612, 0.0036510117, 0.00040903044, 0.0047806357, 0.0022043686, 0.0068099783, 0.0041857525, 0.00095650624, 0.0057234745, 0.0047308826, 0.008791165, 0.0075137364, 0.00014544163, 0.0036857307, 0.0017708793, 0.00041487886, 0.0058881696, 0.006798001, 0.0077534495, 0.0025271415, 0.0044808383, 0.0015907396, 0.005863846, 0.0044189715, 0.0029584048, 0.0025180543, 0.0062764585, 0.0026040096, 0.0055387015, 0.00042611573, 0.0042026914, 0.0004788401, 0.0062165936, 0.004127608, 0.0014146396, 0.0004502021, 0.00523272, 0.005252327, 0.0022279185, 0.007824401, 0.00536667, 0.0035553188, 0.00373944, 0.008357885, 0.0043352293, 0.0005184433, 0.0046321065, 0.0048610414, 0.005365631, 0.007188244, 0.0033673642, 0.0016801216, 0.0012328948, 0.0022662468, 0.004333815, 0.00018853608, 0.004439391, 0.004593276, 0.0044797664, 0.006367221, 0.0019751363, 0.0006943923, 0.0010377984, 0.002225514, 0.004576283, 0.0029089267, 0.007603262, 0.0067007747, 0.0036795626, 0.008672878, 0.0007078081, 0.006258614, 0.0075798114, 0.008529672, 0.008305092, 0.0005267932, 5.187909e-05, 0.0037156765, 0.008722856, 0.0009801891, 0.00093399896, 0.008308387, 0.004435181, 0.0006639191, 0.0015954863, 0.0068328725, 0.00011787177, 0.003044898, 0.008715509, 0.007826826, 0.005380534, 0.0079455655, 0.004354883, 0.0063369013, 0.0018258909, 0.0030502877, 0.0086773895, 0.0050474755, 0.006459877, 0.008635733, 0.0008379049, 0.00072813436, 0.0012331079, 0.0077080643, 0.0014472703, 0.0063030603, 0.0028991562, 0.00024210481, 0.0041666282, 0.005600061, 0.0067684557, 0.0034133948, 0.0062762033, 3.0546365e-05, 0.0021808285, 0.006462267, 0.00873678, 9.434801e-05, 0.008582085, 0.0033849047, 0.003087345, 0.004174808, 0.0044736397, 0.006455578, 0.007144209, 0.0071464004, 0.006576714, 0.0018256451, 0.0027446838, 0.00477704, 0.00016099759, 0.0069863256, 0.001492581, 0.002850254, 0.0022454006, 0.001321449, 0.0069569573, 0.0058181705, 0.0060513075, 0.0019441526, 8.31386e-05, 0.0013536796, 0.005239001, 0.0051794476, 0.004364087, 0.005022933, 0.0017268083, 0.006048604, 0.0073228925, 0.0059671625, 0.002500683, 0.007941987, 0.008265195, 0.003809556, 0.0047194543, 0.0057778344, 0.0014517038, 0.0027949072, 0.0049093347, 0.0024916462, 0.0011539636, 0.0057465113, 0.0053603384, 0.00085586193, 0.0022986145, 0.0071147378, 0.00034782535, 0.0082901195, 0.0056575355, 0.0017150932, 0.0007186761, 0.008636486, 0.0028412102, 0.0033479931, 0.0034379605, 0.005902539, 0.0071078534, 0.0036314838, 0.0043155393, 0.0087098945, 0.0074001625, 0.0028863975, 0.007272257, 0.004571697, 0.0016824112, 0.0057729045, 0.007613929, 0.0056960215, 0.003321282, 1.0220341e-06, 0.0043093236, 0.0014207287, 0.0022090792, 0.00028632893, 0.0061676134, 0.0040433365, 0.007219555, 0.005191378, 0.008043556, 0.005723661, 0.006076775, 0.0068914937, 0.0072052777, 0.0064366804, 0.0077010244, 0.0075242757, 0.0004992428, 0.0005946465, 0.005117634, 0.007144695, 0.0011700109, 0.006918209, 0.005012049, 0.001713241, 0.0051349197, 0.006215232, 0.0037802747, 0.0045723305, 0.008308262, 0.0014012402, 0.0026872333, 0.0032306039, 0.0037779976, 0.00018150604, 0.00021790818, 0.0075274995, 0.0029150357, 0.0055166706, 0.0018751624, 0.0065783304, 0.0066699004, 0.007130944, 0.0077070296, 0.004178003, 0.0069934027, 0.0006566471, 0.0021074833, 0.008755138, 0.008102066, 0.0054631215, 0.0062306486, 0.0069407406, 0.0033876756, 0.0007692569, 0.0009970655, 0.0022695756, 0.0013126172, 0.0005914886, 0.0025031853, 0.008406583, 0.005118283, 0.004799552, 0.004035225, 0.004603294, 0.0021387523, 0.005703846, 0.0073266854, 0.0002230872, 0.0031150526, 0.004952015, 0.0022470655, 0.005933576, 0.003960139, 0.0069339992, 0.0006120728, 0.008318392, 0.006981028, 0.007902386, 0.0016525295, 0.007611336, 0.0029063844, 0.004694344, 0.0011975062, 0.0051980526, 0.002558261, 0.003924612, 0.0070411093, 0.0025834139, 0.00782745, 0.005471812, 0.0002426977, 0.0063353893, 0.0009105363, 0.00086085283, 0.007897064, 0.0037425444, 0.00556343, 0.0016312117, 0.0032797083, 0.0004581447, 0.0037813603, 0.0048301397, 0.0008454621, 0.004629046, 0.0049747457, 0.0019257814, 0.0034135955, 0.0042867325, 0.006793325, 0.006349279, 0.0043181735, 0.008714378, 0.008196358, 0.0032480631, 0.004187155, 0.0039133616, 0.0023329218, 0.007933754, 0.005177785, 0.008060352, 0.0006233243, 0.0030965419, 0.0043106857, 0.0027019877, 0.005549375, 0.00012959733, 0.0069549102, 0.0061140507, 0.0004793871, 0.0010039194, 0.002894522, 0.007822567, 0.0049663535, 0.00031030766, 0.008077109, 0.00457845, 0.008648803, 0.007704543, 0.007579336, 0.0037621388, 0.00872849, 0.0038799234, 0.005466044, 0.00030367862, 0.0051477985, 0.0027314571, 0.0076416647, 0.0016603274, 0.00033074527, 0.0024672279, 0.0071179685, 0.0059477175, 0.0048007234, 0.005452511, 0.000105229534, 0.004838152, 0.0049358155, 0.008406199, 0.0050457944, 0.0037829513, 0.0044605536, 0.0025255214, 0.008659934, 0.0018053186, 0.0010227836, 0.0025180252, 0.00534272, 7.21448e-05, 0.007574759, 0.0047430387, 0.00524828, 0.0027450242, 0.0074041635, 0.0064815306, 0.0073788264, 0.0024428267, 0.0007408314, 0.008289583, 0.0008167998, 0.004309927, 0.0026093554, 0.26770377, -0.22308187, -0.22053494, -0.040001553, -0.29128107, -0.10030677, -0.58644015, -0.19725694, -0.032576714, -0.010791919, -0.17470899, -0.18307672, 0.02953987, -0.05511624, -0.24559574, -0.3700208, -0.0842531, 0.026060976, -0.007907128, -0.20553887, -0.116199754, 0.10549682, -0.09457441, -0.20868084, 0.074649, -0.0894954, -0.14278862, 0.009253265, -0.08522115, -0.03704064, -0.17238088, 0.019990439, 0.057428837, -0.117347844, -0.07762719, 0.036102995, -0.2948717, -0.05092249, 0.03796511, -0.17746167, -0.1544727, -0.04139225, -0.14986588, 0.020122385, 0.21473716, -0.017092144, 0.09677398, -0.39226744, -0.23200195, -0.041318193, -0.039056446, 0.035214853, -0.10662655, -0.04355996, 0.025999857, -0.09552227, -0.13298723, -0.12146016, -0.024368694, 0.034054674, -0.021968758, 0.047492914, -0.047760233, 0.013256196, -0.14726974, -0.16597927, -0.08240531, 0.04377924, -0.12569018, 0.048161868, -0.19382207, -0.11707672, 0.2775021, -0.1183678, -0.09632287, 0.001832073, 0.09600778, -0.22779593, -0.027852805, -0.09394536, -0.016760381, -0.028716153, -0.091520175, -0.02518615, 0.07466763, -0.005679005, -0.13413791, -0.11494098, -0.050551068, 0.13766675, 0.099374935, -0.09283917, 0.0037795715, 0.090769604, 0.081119575, 0.021704009, 0.039226983, -0.01969666, -0.04395218, -0.009440456, -0.011247704, -0.001697227, -0.0021735148, -0.16848363, -0.18026002, 0.042912167, -0.13185178, 0.10133132, 0.17070621, 0.017734526, 0.11438079, -0.024018275, -0.17209111, -0.015888063, -0.023636334, 0.004925924, -0.14826445, -0.046703808, 0.113388754, -0.17974904, -0.14001475, -0.14435466, -0.07764316, -0.059828855, 0.045255493, -0.053015098, -0.031570505, 0.1528613, -0.06151158, -0.064471714, -0.042524286, 0.0074688275, -0.026183728, -0.08015808, -0.20909183, -0.21145158, 0.15509982, -0.05930283, -0.20247978, -0.052704915, 0.07760008, -0.3378716, 0.028756347, -0.08253959, -0.12247625, 0.1502232, -0.20239398, -0.03462035, -0.119041465, -0.049021766, -0.04630322, -0.14126481, -0.03740413, 0.07609714, 0.02030978, -0.13173766, -0.09608858, 0.105115496, 0.18820079, -0.010107653, 0.08061958, -0.053955454, 0.10590803, -0.11044687, -0.014401726, -0.08224436, 0.04774851, -0.034616522, 0.044370163, -0.0012522474, -0.14724879, 0.030379463, 0.19574842, 0.04596457, -0.023511123, -0.07363463, -0.23083682, 0.064556845, 0.015372044, 0.037878606, -0.1882022, -0.00911486, 0.15670589, -0.19775914, -0.13941601, 0.016214682, 0.08023066, -0.14150235, -0.016184157, 0.13124256, -0.18577848, 0.1638542, 0.06501384, -0.097719185, -0.07528248, 0.108515196, -0.12479305, -0.044840764, -0.11810366, -0.12682003, 0.11575064, -0.03855885, -0.06146953, -0.08594206, 0.15662515, -0.10663919, -0.013974548, -0.075282685, 0.036423188, -0.11371434, -0.09971455, 0.0720925, 0.020884477, 0.025828416, -0.07220949, -0.046650853, 0.006769431, 0.19133893, 0.09348498, -0.047622517, -0.07596358, 0.124081135, 0.18927695, -0.0053558066, 0.16869879, 0.0071909567, 0.04824975, -0.09988128, 0.06678682, -0.029950347, -0.017931357, 0.031001594, -0.021393329, 0.12137708, -0.039196625, 0.1638207, 0.23112513, 0.10688967, 0.0365182, -0.09443107, -0.10567797, 0.11050753, 0.162433, 0.008290204, -0.06435347, 0.04418725, 0.13579698, -0.18906781, -0.09466295, -0.15351163, -0.053810388, -0.04764936, 0.14876895, 0.059066348, -0.02425833, 0.11710439, 0.037956037, 0.008225203, 0.022556636, 0.11774359, -0.032026473, -0.095021315, -0.15058167, -0.12962583, 0.15693654, -0.11331293, -0.10308138, 0.09385161, 0.088048525, -0.14970241, -0.10115816, -0.11996079, -0.09787193, 0.1883471, -0.0072448687, 0.107312515, -0.035578404, -0.042438015, -0.065329775, -0.15898263, -0.026619123, 0.1065517, 0.08870521, 0.018142615, -0.06458007, 0.16692865, 0.13627881, -0.031411044, 0.11999027, -0.031401474, 0.13101026, -0.09679564, 0.15386401, 0.085594445, 0.05914973, -0.057749663, -0.112454, 0.16721638, 0.03474037, 0.20422255, 0.26101854, 0.107928336, 0.13246286, -0.11820211, -0.034383573, -0.07377147, 0.09827159, -0.08031443, -0.15434946, -0.008589847, 0.07176794, -0.16699904, -0.07099178, -0.06334535, 0.022626115, -0.15957329, 0.11064732, 0.028652562, -0.04448389, 0.13729063, 0.008937485, -0.0714267, -0.11160772, 0.08733268, -0.17505576, 0.10322441, -0.08073559, -0.18399794, 0.13253854, -0.042813655, -0.09416625, -0.0013088578, 0.022495447, -0.13526607, -0.08692483, -0.11386953, -0.019941134, 0.047231626, -0.11229468, 0.09540373, 0.04847158, 0.08519722, -0.12934695, -0.11519301, -0.05673238, 0.16805919, 0.076240085, 0.10412578, -0.055256017, 0.09335625, 0.07690656, 0.015088645, 0.11448401, 0.090029284, 0.100732416, 0.05966957, 0.034990866, -0.07784762, -0.010442654, -0.11578293, -0.08298429, 0.021441476, -0.050291546, 0.08263975, 0.21724275, 0.120834306, 0.14133105, -0.013023957, -0.11468173, -0.03670851, 0.14877142, 0.036663767, -0.14761609, -0.098814614, 0.1120068, -0.29001707, -0.1425043, -0.1060115, -0.1114839, -0.11399301, 0.13619462, 0.03150793, -0.009742637, 0.1651128, -0.005299538, -0.015367393, -0.03964734, 0.16122612, -0.15734729, 0.036305297, -0.203513, -0.14258578, 0.1708461, -0.1751924, -0.092233986, 0.057334576, 0.087425835, -0.12594369, -0.058826983, -0.12489052, -0.040098112, -0.0020077205, -0.0075740106, 0.15583156, 0.05106477, 0.060930215, -0.17592268, -0.14145018, -0.041934405, 0.062485557, 0.13911177, -0.035684843, -0.028176535, 0.1627459, 0.032651987, -0.05518361, 0.10750316, 0.03463102, -0.014348957, 0.008663397, 0.039559633, -0.114110656, 0.023688532, -0.017922249, 0.037853733, 0.029155953, 0.14361031, 0.08656419, 0.18544932, 0.10365399, 0.11593077, -0.072984554, -0.067718245, -0.020980602, 0.030336134, 0.006498041, -0.14720903, -0.09042736, 0.09591466, -0.33551112, -0.15851739, -0.13400508, -0.10290161, 0.021937624, 0.10967655, 0.092608266, -0.15277389, 0.09745661, -0.21219935, -0.24184032, -0.17412733, 0.23297931, 0.06789477, 0.041974474, -0.05140379, -0.25151443, 0.039857984, -0.21470924, -0.1096905, -0.072979584, 0.043543823, -0.5984226, 0.0057039154, -0.09549841, -0.1900277, 0.059592426, -0.03799778, -0.02154632, -0.044982404, -0.109660126, 0.013872188, -0.105513945, -0.04797035, 0.12843002, 0.14727524, -0.14811473, -0.0903641, -0.10507998, 0.15895155, -0.06577916, -0.2083155, -0.1417106, -0.17092445, 0.11323254, -0.5832339, 0.08263204, 0.059148856, 0.11591924, -0.24442804, -0.046960637, -0.15416507, -0.09785267, 0.17317933, -0.06082656, -0.28807738, -0.23388112, -0.107640915, -0.1202494, 0.08934046, -0.09308122, -0.20547475, -0.14967313, 0.01043343, -0.26094395, -0.83755255, -0.5681325, -0.12083305, -0.45266935, 0.026467886, -0.09374419, -0.14166956, 0.017651584, 0.05606133, -0.043662906, -0.08100391, -0.070891336, -0.09894879, 0.0053618485, -0.18743432, -0.09934396, 0.3811599, -0.14970212, -0.15404204, -0.053724527, 0.1424793, -0.23082261, 0.058903594, -0.13625374, -0.15296488, -0.18874949, -0.07438218, 0.03989987, -0.026925974, -0.10394324, -0.2438164, -0.14682807, 0.023069361, -0.0047309063, 0.059096158, -0.13875711, -0.074591085, 0.13695705, 0.1357383, 0.05918906, 0.0798279, -0.06806921, -0.21194407, 0.018796178, -0.04227195, 0.05145273, 0.06475635, -0.16425464, -0.06962252, -0.0002389832, -0.25013196, 0.11937029, 0.043333393, -0.045023397, 0.02200696, 0.008422699, -0.1591776, 0.08856172, 0.18305314, -0.00478876, -0.24005999, -0.0102181975, 0.119065516, -0.24122523, -0.17568865, -0.083833404, 0.003559817, -0.13599531, 0.0939149, 0.039191097, 0.009897321, 0.046330348, -0.07232009, -0.20586132, -0.17088963, 0.061895724, -0.09536288, -0.018022293, -0.09518663, -0.20442052, 0.2659157, -0.06470979, -0.12503587, -0.09723368, 0.030880982, -0.25052962, -0.1455346, -0.09961521, -0.080822214, 0.18985508, 0.023655618, 0.20418578, 0.116498336, -0.03919329, -0.0863928, -0.1450516, 0.06834443, 0.12745833, -0.029165486, -0.07495395, -0.1660741, 0.19788128, 0.09380252, -0.013139539, -0.05620902, 0.070432045, 0.17124458, -0.09162249, -0.011514912, -0.016644366, -0.030923113, -0.09208635, -0.122888945, 0.0366486, -0.13306029, 0.024677606, 0.05698332, 0.31168222, -0.05201569, -0.12875444, -0.16277577, -0.02376913, 0.026979776, -0.086857066, -0.2557642, 0.038774118, 0.04933778, -0.13338703, -0.082627915, -0.07240079, 0.055537753, -0.09933289, 0.13558865, 0.1438618, -0.0028364486, 0.16286722, 0.09090417, -0.0025561638, -0.01880489, 0.050526228, -0.055714164, -0.046498418, -0.1726939, 0.08894707, 0.14732924, -0.05124852, -0.18054438, 0.020633874, 0.095230974, -0.17168789, -0.06587981, -0.048464175, -0.14745195, -0.097434886, -0.07625266, 0.1698142, -0.09834629, -0.011933016, -0.009180467, -0.107461475, -0.041980177, 0.13873973, 0.06313574, -0.06372308, 0.049732886, 0.080600955, 0.112752795, 0.018391706, 0.17791836, -0.024365975, 0.04547391, 0.011190139, 0.19875881, 0.0032859717, 0.0047524394, -0.06005527, -0.07568841, 0.2441599, -0.17135836, 0.096551076, 0.23657066, 0.049737036, 0.03067651, -0.034395996, -0.11824409, -0.12480255, 0.14779091, 0.059986304, -0.039860964, -0.006879182, 0.14786433, -0.107526034, -0.09739652, -0.07344707, 0.012982627, -0.10622305, 0.06964599, 0.011465112, -0.03593849, 0.117643155, -0.031027755, -0.10710423, -0.066027954, 0.09916782, -0.087216936, -0.021180559, -0.16123167, -0.11619362, 0.21443534, -0.1351303, -0.10099113, 0.0702099, 0.08712567, -0.20866965, 0.000292847, -0.102874026, -0.032757368, 0.17709357, -0.038531143, 0.111076616, 0.10521707, -0.057169296, -0.057428617, -0.102245785, -0.047582828, 0.08955771, 0.14959075, 0.04564156, -0.031408142, 0.153816, 0.07647855, -0.067428485, 0.03698404, 0.010487473, 0.10971627, 0.012168263, -0.034754574, -0.024785431, -0.041339166, -0.21588789, -0.18681158, 0.03618952, -0.051753644, 0.13853353, 0.17155963, 0.078033656, 0.075241216, -0.05665689, -0.10234914, -0.08339537, 0.044331457, -0.087128945, -0.13258617, -0.016028432, 0.061551146, -0.2028783, -0.11608751, -0.07157204, -0.0952827, -0.13926008, 0.048156437, -0.000515512, -0.06156979, 0.14393431, 0.03197165, -0.051037263, 0.02613588, 0.10320725, -0.036272928, -0.029803831, -0.13377978, -0.13157867, 0.18548335, -0.11713535, -0.14348552, -0.013000821, 0.06688353, -0.11182811, -0.06277697, -0.036708374, -0.06622075, 0.012035305, -0.024465626, 0.143752, 0.03806907, -0.005422148, -0.06136466, -0.040476818, 0.001006728, 0.01734186, 0.029283095, -0.045246445, -0.017324306, 0.064812765, 0.17508563, 0.11809883, 0.14760183, 0.041722182, 0.0061299005, -0.09644406, 0.13869694, 0.012299441, 0.033382505, -0.0329164, -0.0009347412, 0.14662218, -0.040487938, 0.1031399, 0.24025345, 0.15697943, 0.076552786, -0.05415076, -0.081101194, 0.018621786, 0.092654005, 0.07751042, -0.06809497, -0.06754889, 0.12057837, -0.18864615, -0.117313504, -0.008993323, -0.049602557, -0.07881985, 0.07042529, 0.059611104, -0.0129683195, 0.08043848, 0.008092086, -0.11528234, -0.1162895, 0.2030854, -0.072607495, -0.050159063, -0.20771453, -0.08685758, 0.16594827, -0.17310728, -0.010504375, -0.0074334107, 0.09129975, -0.14767025, -0.007390919, -0.067745596, -0.075517155, 0.27070144, -0.014688477, 0.19696657, 0.08771465, -0.08287819, -0.096548885, -0.10096528, -0.06861371, 0.20056263, 0.19707647, 0.026218954, -0.0067216847, 0.21349424, 0.10969609, 0.0108442735, 0.14759575, -0.047900066, 0.09607646, 0.020062067, 0.056836516, -0.028454127, 0.00039600034, 0.0060011996, 0.051911697, 0.07314496, 0.03179803, 0.15810089, 0.17914706, 0.0011921432, 0.13665186, 1.2800076e-05, -0.02660677, 0.005093002, 0.10924941, -0.026884854, -0.01423403, -0.012980679, 0.11377108, -0.23112601, -0.11424509, -0.03394539, -0.20738778, -0.023564864, 0.14358133, 0.02959448, -0.061369754, 0.1090926, 0.008367778, -0.086549, 0.03390814, 0.19746695, -0.017280117, -0.06593295, -0.21209899, -0.08827279, 0.10906412, -0.12863675, -0.13110773, -0.01608107, 0.07951037, -0.053075183, -0.06985415, -0.15558961, -0.011763305, 0.064887226, -0.16714828, 0.11369627, 0.031050779, 0.04186326, -0.11348714, -0.14530936, -0.063228264, 0.08963845, -0.058685135, -0.01147743, -0.0005306646, 0.017761983, 0.14309321, 0.15545243, 0.10041281, 0.021122605, -0.16148162, -0.07059622, 0.15207586, 0.10767729, 0.058754798, -0.079526216, -0.057426754, 0.122654095, 0.108133316, 0.09512923, 0.28272808, 0.16287008, 0.12569135, -0.13784254, -0.045915388, -0.048435554, 0.05892971, 0.09407526, -0.16003364, -0.058987807, 0.20599669, -0.26531565, -0.01677447, -0.13954973, 0.008740242, -0.16467993, 0.20478651, -0.0003077505, 0.022038395, 0.079243265, 0.055089064, -0.12287123, 0.00061600533, 0.06439404, -0.2411657, -0.0070940224, -0.11524712, -0.2326447, 0.0644895, -0.11698778, -0.18460049, -0.03651913, 0.07422367, -0.16128087, -0.036810473, -0.22341655, -0.007693777, 0.047415838, 0.027041815, 0.020956375, 0.008124108, 0.09710014, -0.121021785, -0.33216932, -0.05302399, 0.15316094, 0.10866366, 0.02130925, 0.0075264806, 0.107772544, 0.061190985, -0.06724445, 0.09149343, 0.0819233, 0.053584866, 0.013468076, 0.0694162, -0.029759156, -0.01234986, -0.115565516, -0.16267757, 0.16520862, 0.06701451, 0.046452425, 0.14193828, -0.014034297, 0.060802016, -0.22297205, -0.12522468, 0.1638631, 0.0023750693, -0.09250956, -0.24951077, -0.19806118, 0.09442843, -0.1884323, -0.1636036, -0.077887885, -0.14040671, -0.09191719, 0.08528985, 0.11975486, -0.17365742, 0.10511918, -0.003984337, -0.2605834, -0.12188161, 0.044885393, -0.14675094, 0.05018698, -0.14943379, -0.17649715, 0.1558893, -0.051587712, -0.17073669, -0.045956213, 0.08814104, -0.28591597, -0.11595609, -0.1202238, -0.118958324, -0.089441374, -0.039322924, 0.018889809, 0.044290967, 0.019807793, 0.025245313, -0.019820785, -0.060635127, 0.066562735, 0.12237598, -0.11375477, -0.07011775, 0.11690789, 0.09234508, -0.013293288, 0.07146739, 0.055360217, -0.042201467, 0.07673709, 0.05703753, 0.011084256, -0.08797573, -0.15398537, -0.19738555, 0.18024021, -0.14295334, -0.054681223, 0.15993255, 0.012031039, -0.031200549, 0.009526344, -0.117990784, -0.019650133, -0.04083938, 0.046196036, -0.10366704, -0.040056575, 0.07943528, -0.15416482, -0.055043943, -0.1514151, -0.08989108, -0.18743944, -0.00066870335, 0.031516906, -0.05584441, 0.19911827, -0.10475132, -0.08047691, -0.07528589, 0.09578846, -0.07519176, -0.08300388, -0.20409511, -0.037272405, 0.19406499, -0.103106104, -0.111012846, 0.042933755, 0.10597426, -0.16485856, -0.008488197, -0.13265532, -0.13807285, 0.08039534, -0.115937285, 0.051879834, 0.015554574, -0.056849893, 0.049276028, -0.14975977, -0.01227303, 0.057301912, 0.046153568, -0.04004601, -0.099953964, 0.13008781, 0.13130471, -0.010235075, 0.05605057, 0.034144636, 0.15439536, -0.075170204, 0.12399819, 0.039195646, -0.009176464, 0.003736286, -0.07488795, 0.15429352, -0.041589137, 0.07923923, 0.14307685, 0.13538907, 0.05332912, -0.08032881, -0.15796742, -0.08019794, 0.077632844, -0.025559725, -0.09493608, 0.014215353, 0.12058583, -0.09028097, -0.11731539, 0.020046452, -0.06006253, -0.09623324, 0.12080097, 0.051327888, -0.023927744, 0.170163, 0.041762788, -0.10384715, -0.112115726, 0.079234645, -0.041140705, 0.0075479522, -0.08923904, -0.13900378, 0.14242975, -0.12660368, -0.13157403, -0.03843977, 0.11225271, -0.172003, -0.058836382, -0.062794305, -0.020204352, -0.0068735606, -0.12304407, 0.16292775, -0.019294601, -0.051900674, -0.010602478, -0.043765012, -0.046388883, 0.17642006, 0.07271967, -0.09300881, 0.042811606, 0.13631581, 0.14345127, 0.041189753, 0.08972715, 0.020277781, -0.12904714, -0.14320752, -0.014252822, -0.0069164257, -0.041369244, -0.16451828, -0.12195767, 0.123454235, -0.05075795, 0.019431632, 0.16864404, 0.04313615, 0.08946514, 0.034488477, -0.07265209, 0.0024372095, 0.13870852, 0.21163926, -0.14106447, 0.009311682, 0.11318655, -0.15267956, 0.0025171472, -0.05464183, -0.07652622, -0.00015361198, 0.045087118, 0.124153934, -0.056737725, 0.1526899, 0.057481114, -0.08539682, -0.12685305, 0.11658864, -0.056394357, -0.124806315, -0.0640995, -0.11536254, 0.1617354, -0.07418294, -0.062218238, 0.10667031, 0.06550524, -0.15340286, -0.14281313, -0.11228749, -0.14682458, 0.21230097, -0.09455692, 0.19524272, 0.081931084, -0.047352776, -0.028615512, -0.09162778, -0.021432208, 0.15498738, -0.022915108, -0.08806149, -0.028312173, 0.15795685, 0.15069902, -0.04205152, 0.07225237, 0.04487667, 0.15935056, -0.1250009, 0.13552438, -0.017943319, 0.0049843756, -0.04097845, -0.046851367, 0.14388874, 0.07183595, 0.11608233, 0.2197825, 0.11908045, 0.033397973, -0.012591581, 0.005425749, -0.002113631, -0.022727707, 0.1383179, -0.065694176, -0.012303439, 0.024128275, -0.18349735, -0.0077164895, 0.009843499, 0.007087354, -0.15087451, 0.058391973, 0.06250975, -0.09705776, 0.1381408, 0.09174822, -0.12862295, -0.11013731, 0.14224368, -0.073040456, -0.06721804, -0.07546278, -0.085052386, 0.1319096, -0.025564149, -0.09413431, 0.122757554, 0.09920592, -0.06244751, -0.072578, -0.09969767, -0.088283174, 0.02364267, -0.04383232, 0.16344346, 0.13279848, -0.031877957, -0.07081502, 0.06631043, -0.035820972, 0.10644962, 0.15856396, 0.011245968, -0.00050787535, 0.09282858, 0.10334901, 0.113502175, 0.13263956, 0.025258536, 0.16161036, 0.016160384, 0.051823806, -0.03132251, -0.08985347, -0.0077595883, -0.16488717, 0.08932189, 0.022539066, -0.0116345035, 0.20136479, 0.14015079, 0.055824153, -0.04962786, -0.043078907, 0.053534623, 0.22426061, 0.19414288, -0.09233331, -0.034526553, 0.14043416, -0.16883646, -0.13059482, -0.03948562, -0.2074725, 0.004455419, 0.17301323, 0.05371565, -0.021973772, 0.09086056, 0.013062896, -0.021913905, 0.02731682, 0.12745789, -0.08213354, -0.05465381, -0.2381871, -0.1492205, 0.18429664, -0.099658266, -0.091764264, 0.022587826, 0.08711361, -0.2087776, -0.054509085, -0.1380569, -0.11069143, 0.0734017, -0.04125145, 0.10351036, 0.06237042, -0.083799854, -0.09202489, -0.11694459, -0.0809846, 0.07159666, 0.09595984, -0.014801737, -0.10735566, 0.15163097, 0.02044813, -0.09237835, 0.21832198, 0.073903725, 0.06414868, -0.081579335, 0.14535607, -0.045185998, -0.037695643, -0.019657478, -0.07335155, 0.14280398, 0.06977889, 0.08345435, 0.19120456, 0.106823154, 0.19129466, -0.12004591, -0.05297624, -0.08245397, 0.028112983, -0.02494805, -0.11696403, -0.03982399, 0.028976945, -0.2130552, 0.008773489, -0.06379859, 0.012952476, -0.10846471, 0.0742723, 0.17513911, -0.16764271, 0.09065662, -0.020391094, -0.12442351, -0.04537278, 0.14159685, -0.0903722, 0.07159099, -0.022288037, -0.06099141, 0.13253167, -0.07235249, -0.19632314, -0.069927715, 0.064492404, -0.12357836, -0.016870784, -0.14727202, -0.029410422, 0.06655486, -0.17421295, 0.11567285, 0.14457747, 0.006882488, -0.11218059, -0.010324239, -0.11231398, 0.2238999, 0.07227575, 0.030186338, 0.010064951, -0.055401646, 0.08575361, 0.1287159, 0.0371553, 0.061288305, -0.025118975, 0.0329042, -0.026489232, 0.0046774023, -0.01237462, -0.076453805, -0.08401199, 0.16759445, 0.03711868, 0.032430455, 0.18832055, 0.15689223, 0.08546545, 0.050138384, -0.05538718, 0.00207135, 0.14637825, 0.0019872782, -0.066511236, -0.030975284, 0.18671419, -0.21829025, -0.2771862, -0.061457854, -0.0887324, -0.07146197, 0.2359385, 0.071201384, -0.033136792, 0.05425087, 0.016054435, -0.039290298, 0.040378325, 0.17107931, -0.11086396, -0.031402238, -0.22485793, -0.13967796, 0.18101846, -0.18422066, -0.011812596, 0.022239996, 0.07775459, -0.2131395, -0.14141278, -0.13551715, -0.14266013, 0.15308845, -0.065056756, 0.041238874, -0.016503736, 0.01928728, -0.20488685, -0.12437198, -0.12357111, 0.08429241, 0.030858193, -0.03176705, -0.035236787, 0.18961431, 0.106498815, 0.024804909, 0.07250084, -0.021725813, 0.10290182, -0.27412373, 0.2291519, -0.03199466, 0.07228215, 0.034618348, 0.03388663, 0.099450774, 0.24199174, 0.05571682, 0.2056737, 0.11465273, 0.21261059, -0.06451132, -0.061063282, -0.05674425, 0.046068463, 0.060925044, -0.0062145563, -0.02032813, 0.05511666, -0.35436305, -0.017459327, -0.16882235, 0.010682416, -0.055387978, 0.15189102, 0.11041746, -0.047296293, -0.0033261243, 0.030028282, -0.12178416, -0.20638621, 0.11701153, -0.121549845, -0.019519584, -0.17520829, -0.08852484, 0.22782862, -0.1534511, -0.029254153, -0.053822957, 0.116539225, -0.22087835, -0.12280394, -0.124329165, -0.18922068, 0.062291525, -0.008983966, 0.17844181, -0.00037176444, -0.071855314, -0.002516797, -0.20903903, 0.00565321, 0.1083552, 0.05756867, -0.13615869, -0.15365843, 0.18914554, 0.04751595, 0.0991757, 0.06383026, -0.010744644, 0.10026752, -0.12719212, -0.034270614, -0.0087680565, -0.0591325, 0.05614308, -0.033586834, 0.0980513, -0.07402685, -0.11278012, 0.052253123, 0.08543503, 0.18979253, 0.06869706, -0.13361357, 0.015022473, 0.017533317, 0.022124665, -0.132388, -0.032418784, 0.040329564, -0.119918674, -0.2286165, 0.04011551, -0.09968904, -0.15893215, 0.1342996, -0.004528989, 0.054236878, 0.15423873, 0.10282934, -0.2154489, -0.103899926, 0.15119961, -0.08843707, -0.11377951, -0.07768744, 0.05183984, 0.07975192, -0.12391254, -0.14029421, -0.0013944398, 0.032773368, -0.2416328, 0.17788576, -0.13411665, -0.12818094, 0.101452604, -0.045080792, -0.03559184, 0.0909485, -0.035609968, -0.0004262698, -0.06650476, 0.10611738, 0.17520471, 0.0343817, -0.10183115, 0.08137417, 0.15872946, 0.1362075, -0.037399016, 0.06639518, 0.03886698, 0.13854857, -0.070876114, 0.17071116, -0.0997963, 0.027565775, -0.02898219, -0.19339366, 0.14530669, -0.07065547, 0.15026072, 0.0058145546, 0.081294745, -0.038721573, 0.04892944, -0.10938451, -0.11254621, 0.23380974, 0.20538399, -0.08486047, 0.05825257, 0.040345885, -0.22349437, -0.028559165, -0.016356893, 0.061669987, -0.21270813, 0.01648526, 0.11383846, -0.16000004, 0.07762154, 0.007638546, -0.10472594, -0.1700631, 0.11083586, -0.019664593, -0.14991136, -0.18062454, -0.051676314, 0.17440502, -0.09035391, -0.1923781, 0.066393115, 0.09207342, -0.16835104, -0.1901143, -0.10646777, -0.050887544, 0.17169215, 0.043045368, 0.11661129, 0.021826452, -0.06270622, 0.033219725, -0.11222043, -0.041623633, 0.0861932, 0.07400085, -0.028171496, -0.06891704, 0.11836217, 0.241168, -0.021606615, 0.17390658, 0.06967821, 0.10456258, 0.007145065, -0.08191443, -0.06990534, -0.042977687, -0.1788684, -0.14841758, 0.19780158, 0.027412642, -0.022323888, 0.0653717, 0.124863796, 0.04073968, -0.045578763, -0.011937113, -0.08449251, 0.075756654, 0.020859968, -0.13528687, 0.009387149, 0.012292526, -0.04796421, -0.04090377, -0.121703945, -0.091126844, -0.21880224, 0.17360978, 0.046813164, -0.10077592, 0.19156483, 0.09304333, -0.19707677, -0.00060127315, 0.1357667, 0.021436045, 0.00787186, -0.20386356, -0.09486302, 0.18007718, -0.069126494, -0.15660389, 0.068423435, 0.09255092, -0.08735422, -0.04095214, -0.0540873, -0.11910947, 0.0657131, -0.15650855, 0.09076349, 0.04668727, -0.018213063, 0.0016654199, 0.01027934, -0.05386229, 0.06912537, 0.019785162, -0.031454623, -0.05261865, 0.07330638, 0.15083022, -0.00089994876, 0.18113296, 0.06482877, 0.11976061, -0.24250266, 0.24350412, 0.07550994, -0.0150512885, -0.031776007, -0.048119176, 0.24052952, -0.009277108, 0.052962374, 0.1269015, 0.07793876, 0.04107647, -0.12527965, -0.007618518, -0.13749655, 0.16504113, 0.044086315, -0.084809534, 0.06326591, 0.057850614, -0.10243951, -0.10518792, -0.008216346, 0.059383504, -0.037322767, -0.056353513, 0.07281098, -0.09216848, 0.0929649, 0.05898125, -0.08322402, -0.16690482, 0.19645976, -0.11879988, 0.007678266, -0.19107006, -0.024170024, 0.15798397, -0.11253821, -0.090352826, 0.002894203, 0.12224828, -0.21232183, -0.051267896, -0.09871903, -0.0416109, 0.16627143, -0.14540684, 0.18301475, 0.08435202, -0.06736165, -0.012791595, -0.11951908, -0.0648457, 0.21021526, 0.114422716, 0.033182703, 0.10458624, 0.077242, 0.12731236, 0.0720906, 0.12645015, 0.067945346, 0.11991043, 0.013145758, 0.12763472, -0.0729636, -0.05514438, -0.20216557, -0.2290702, 0.18079711, 0.01744897, -0.05438342, 0.14375126, 0.041482184, 0.061899226, 0.053568367, -0.117117, 0.023740744, 0.17684062, 0.061851162, -0.099452086, -0.007173926, 0.045896314, -0.17458193, -0.20442703, -0.01837907, 0.051292274, -0.04738279, 0.026925659, 0.13428283, -0.05285721, 0.08980622, 0.055017944, -0.10268671, -0.0033344124, 0.19938672, -0.18374416, 0.054705936, -0.11161058, -0.067724526, 0.13588683, -0.16443343, -0.12343727, -0.0067692976, 0.099179186, -0.063728936, -0.12230863, -0.098696955, -0.041034494, 0.13864526, -0.10148735, 0.19838388, 0.16592613, -0.046695307, -0.06314312, -0.021744777, -0.034521777, 0.083180115, -0.11555384, -0.09126602, 0.019044602, 0.10563113, 0.27603152, 0.03817886, 0.15091835, 0.055363055, 0.12961076, -0.17249106, 0.13724092, 0.07176032, -0.03385283, -0.048410498, 0.018496122, 0.15988179, 0.11922751, 0.05332525, 0.21117257, 0.26000103, 0.16197252, -0.037019003, -0.034910012, 0.0078692315, 0.056150958, 0.22506796, -0.043327305, -0.0046652593, 0.015909228, -0.2316698, -0.13186246, 0.0011068353, -0.027391301, -0.07773753, 0.14452453, 0.15820307, -0.010451645, -0.073371604, 0.1197057, -0.10404835, -0.26192153, 0.15743099, -0.17611076, -0.14584309, -0.054893393, 0.072035365, 0.1377154, -0.09603841, -0.071200565, 0.040850207, 0.12078815, -0.16078064, -0.10979433, -0.054972943, -0.108003296, 0.054281037, -0.033690672, 0.11359597, 0.02381274, 0.028047103, -0.22784594, -0.058150306, -0.04164617, 0.17395698, 0.05624193, 0.06714975, -0.033880573, 0.13468987, 0.15123756, -0.0045109713, 0.2179925, 0.035059553, -0.10487884, -0.105349906, 0.031644836, -0.073481195, -0.10572256, -0.031405408, -0.34261408, 0.15277162, 0.0822425, 0.033312943, 0.10015665, -0.1591732, 0.00672472, -0.08612407, -0.16683958, 0.07599102, 0.1567176, 0.066885255, -0.14645658, -0.045691423, -0.02580773, -0.3273512, -0.008531489, -0.079830214, -0.212089, -0.015674632, 0.123094484, 0.2054393, -0.053750955, -0.0063056876, 0.08654675, -0.076947555, 0.010954934, 0.22429201, -0.06339372, -0.07026273, -0.1878295, -0.06067114, 0.15453531, -0.23251693, -0.11641639, -0.03391352, 0.07942601, -0.037571624, -0.072851904, -0.13121153, -0.10196708, 0.1269782, 0.034120157, -0.057304204, 0.15187554, -0.017668251, -0.098942034, -0.18823305, -0.09955095, 0.12587, -0.060416393, 0.041901298, -0.02144982, -0.021107739, 0.170445, 0.058554497, 0.12320399, -0.0061481553, 0.04898, -0.19537391, 0.18638924, 0.10241482, 0.006697687, -0.051269636, -0.027508033, 0.17306793, 0.1442007, 0.04370372, 0.18484686, 0.17882767, 0.17013289, -0.22285463, -0.015969994, -0.10462719, 0.040707316, 0.017229022, -0.17981364, -0.046298962, 0.08646969, -0.18697038, -0.010863214, -0.17026456, 0.09288569, -0.23840617, 0.20760877, 0.16378552, -0.20846784, -0.059265524, 0.05078273, -0.07061489, -0.09683793, 0.19058971, -0.00096431887, -0.16285479, -0.32315463, 0.108310565, 0.19861256, -0.092126496, -0.24094862, -0.047358368, 0.1247513, -0.24083687, 0.0023469285, 0.034314334, -0.028249506, 0.14911032, 0.120816305, 0.041263793, 0.06052125, -0.06876756, -0.007953471, -0.061719377, -0.006154291, -0.013984473, -0.038812555, -0.025532, -0.18093763, 0.13490276, 0.14221217, 0.12020591, -0.015923724, -0.003336561, 0.1320363, -0.034550875, 0.19342075, 0.017560752, 0.055983346, -0.21195808, -0.27650088, 0.20890263, -0.08696341, 0.05263632, -0.15500055, 0.19080015, 0.011725285, -0.226297, -0.027826253, -0.07184739, 0.052463096, -0.016732005, -0.07862037, 0.004272466, -0.021204019, -0.05995637, -0.01654859, -0.12923305, -0.1255204, -0.1846842, 0.1903274, 0.06917166, -0.0515323, 0.18173786, -0.07268697, -0.1877514, -0.09757519, 0.07255836, -0.043393306, 0.034363408, -0.1976901, -0.07512903, 0.17431676, -0.19896355, -0.17362434, 0.11156088, 0.1663315, -0.15100457, 0.048008006, 0.0021114305, -0.16411597, -0.1189811, -0.24965255, 0.03135091, -0.044996057, -0.093100734, 0.007216684, -0.05089394, -0.00991863, 0.1129209, 0.14985316, -0.082535096, -0.034096014, 0.12530991, 0.1796934, 0.042482965, 0.1960683, 0.0047169626, 0.056746263, -0.054653622, 0.059793565, 0.05322107, 0.06316294, -0.21254061, -0.020269506, 0.22239663, -0.06736389, 0.066126, 0.045673437, 0.11880075, 0.038800284, 0.03722975, -0.092950515, -0.04242859, 0.14578721, 0.12532488, -0.055585165, 0.00700154, 0.0750117, -0.07379995, -0.07987335, -0.01116954, -0.11967379, -0.12117509, 0.002085102, -0.03537041, 0.084891565, 0.12061277, 0.05422705, -0.115187824, -0.12805092, 0.21722385, 0.0074475724, -0.0027651503, -0.16609877, -0.08021365, 0.11890122, -0.16934747, -0.033612784, 0.035311926, 0.145248, -0.20778967, -0.060378633, -0.07955157, -0.105782785, 0.1920662, -0.043447133, 0.016428199, 0.12800975, -0.0953478, -0.001981404, -0.112781405, -0.022796165, 0.19651721, -0.087406695, -0.12442377, -0.09888674, 0.13718674, 0.061015826, 0.013960841, 0.087455675, 0.019740913, 0.2642617, -0.17260475, 0.16198862, 0.007033024, -0.054953236, -0.036693547, -0.15124637, 0.18215159, -0.10878839, 0.074493885, 0.058939457, 0.072582066, 0.19304511, -0.0464955, -0.092108086, -0.09199592, 0.1350905, 0.115384705, -0.12556833, 0.026291853, -0.016629744, -0.12533271, -0.26066747, 0.034222562, -0.045245115, -0.15339944, 0.19127275, 0.0033864835, -0.008212338, 0.17542602, 0.14034832, -0.18787259, -0.18499681, 0.17315334, -0.12840323, -0.11022958, -0.18216711, 0.00031372902, 0.09889136, 0.011590099, -0.13831417, -0.054006927, 0.13191202, -0.16704403, -0.07856284, 0.09947881, -0.11830473, 0.09154479, -0.1320946, 0.077939406, 0.005243615, -0.09887353, 0.04180915, -0.12943144, -0.010335356, 0.17471583, 0.07916378, -0.086685255, 0.0028295275, 0.13782239, 0.21482559, -0.020067634, 0.16024545, 0.07343933, 0.04068424, -0.039369382, -0.082759224, 0.025844872, -0.03895867, -0.087968305, -0.053311564, 0.22589305, 0.017556416, 0.012885666, 0.077745356, 0.03758555, 0.03415495, 0.016376555, -0.12935701, -0.16306902, 0.17972668, 0.27569532, -0.042600237, 0.037144363, 0.10871352, -0.04986206, -0.09773498, 0.012123377, -0.06808459, -0.00055853336, 0.20074987, 0.10508803, -0.09138565, 0.01323573, 0.07183737, -0.11566442, -0.15571967, 0.2568472, -0.09305313, -0.16071147, -0.23220064, -0.084825, 0.16860038, -0.17526382, -0.031219061, 0.08418504, 0.13383725, -0.15759553, -0.26403037, -0.13514008, -0.1021625, 0.21798311, -0.05141378, 0.19303246, 0.046554912, -0.036875386, -0.045618188, 0.06450736, -0.102021754, 0.2013981, -0.023944618, 0.013335007, -0.16063485, 0.1567717, 0.13428944, -0.033692148, 0.11715571, 0.03225075, 0.07748183, -0.24308144, 0.065766595, -0.13455701, -0.035615586, -0.14788796, -0.13648683, 0.12912312, 0.07627221, 0.1042526, 0.08693611, 0.029023401, 0.09944459, -0.1395437, -0.032162394, -0.08626329, 0.090279184, -0.018786099, -0.15769126, -0.02078452, -0.07534696, -0.20766743, 0.064000405, -0.097923085, 0.0014256623, -0.18550152, 0.11099924, 0.20110808, -0.07576613, 0.008799081, 0.047129806, -0.09975552, -0.03986321, 0.2149996, 0.048717566, -0.098847724, -0.19330627, -0.123514816, 0.1521969, -0.11421825, -0.30416733, 0.104400754, 0.0867527, -0.111038715, -0.18192825, 0.14436367, -0.07235381, 0.041519053, -0.11690398, 0.024284413, 0.099018425, -0.0028340593, -0.07466603, -0.09380016, -0.11837168, 0.13964944, -0.023685876, 0.0450316, 0.12787199, 0.0319991, 0.2310105, 0.13936241, 0.15443446, 0.06579301, 0.19684161, 0.077975295, 0.117391184, 0.042180113, 0.026796611, -0.023763338, -0.0609517, 0.2617843, 0.008906634, 0.022575201, 0.06598652, 0.08976923, 0.068238944, -0.16964285, -0.11654835, 0.0028224254, 0.24385075, 0.1363683, -0.062033575, -0.030407004, 0.16039817, -0.18498659, -0.25274923, -0.04583564, -0.42887667, -0.25173557, 0.1505422, 0.13684106, -0.18135794, -0.0016313987, 0.03880894, -0.016466442, 0.008605811, 0.27742538, -0.10839602, -0.0547836, -0.28914645, 0.07444894, 0.17008874, -0.26500067, -0.025491806, 0.026784906, 0.1394628, -0.26131, 0.0025728857, -0.0919622, -0.0893235, 0.22071818, -0.083561026, 0.09392511, 0.111989215, -0.040798713, -0.0954413, -0.09837147, -0.28329575, 0.024891663, -0.04801039, -0.03859644, -0.10435423, 0.046352196, 0.08989684, 0.0010844894, 0.120553255, -0.0007404194, 0.064754464, -0.12997188, 0.3027043, -0.0840221, -0.05202689, -0.23896267, -0.14039177, 0.16565815, 0.086250134, 0.13281761, 0.07241657, 0.10542796, 0.20437463, -0.030733285, -0.035341915, 0.001084697, -0.024846856, 0.05763461, -0.15580726, -0.00068896206, -0.14349619, -0.26021904, -0.16619812, -0.07524143, 0.060485773, -0.047850095, -0.014065917, 0.277077, -0.038705636, -0.040297765, 0.052594878, -0.2337402, -0.03526339, 0.1687076, -0.28087717, -0.063592725, -0.11695771, -0.03432575, 0.12644249, -0.15687528, -0.21407911, -0.24213025, 0.111615844, -0.121093355, -0.10633186, 0.004206813, -0.114207745, 0.07348864, -0.16705228, 0.120509885, 0.058491368, 0.055964924, -0.27709562, -0.19671181, -0.022580344, 0.2011216, -0.045069344, -0.06543141, -0.036971055, -0.055846542, 0.28894594, 0.058956403, 0.11426046, -0.007344636, 0.20076086, -0.047429997, -0.02843366, -0.11510417, 0.0075198025, -0.16228881, 0.011938565, 0.27908078, -0.04040058, -0.13550805, 0.08657937, 0.18523571, 0.029697089, 0.018736197, -0.09096365, 0.093306296, 0.09073281, -0.010198287, -0.055398647, -0.07973444, 0.120575026, -0.25635907, -0.21896464, 0.0035603694, -0.29386935, -0.1612093, 0.23226944, 0.14533405, -0.01394369, -0.054505803, 0.08531497, -0.0734117, -0.19458336, 0.12900591, -0.1613085, -0.45614263, -0.2837131, -0.14371744, 0.10289079, -0.13674325, -0.20147583, -0.15080486, 0.14680861, -0.1955878, 0.09182404, -0.075877026, 0.013393459, 0.0029481463, -0.14961776, -0.15374303, 0.059374288, -0.32631513, -0.07589361, -0.30485883, 0.035749696, -0.0033209873, -0.029604197, -0.14983681, -0.102828145, 0.11449909, 0.203745, 0.024223734, -0.043274447, 0.0315446, 0.19778767, -0.20019425, 0.08366616, 0.033959534, -0.0715223, -0.017129906, -0.06451666, 0.04525608, -0.064563364, 0.13551523, -0.04692869, 0.09644128, 0.07928726, -0.33828145, -0.06677883, -0.028290069, 0.12418073, 0.023785587, -0.28061965, 0.010909482, -0.20952958, -0.20386635, -0.14659108, -0.0454821, 0.07715216, -0.16500887, 0.21600698, -0.028938675, -0.08116169, 0.12046762, 0.10649837, -0.034071464, -0.10398757, 0.06806807, -0.17180918, -0.29584494, -0.12734342, -0.10052564, 0.19245575, -0.17789192, -0.1831676, -0.24048883, 0.10879326, -0.18941882, -0.26268598, -0.10055151, -0.04330787, 0.118540816, -0.024212958, 0.16030589, 0.012825211, -0.079353854, -0.004083244, -0.08716212, -0.011685791, 0.12585497, 0.13046964, -0.07162834, -0.12169049, 0.13637216, 0.14092356, 0.002185846, 0.12659144, 0.0136164315, 0.18932688, -0.03196173, -0.1636498, -0.062603824, -0.041423276, -0.15724772, -0.21063259, 0.23417854, -0.10332455, 0.023461232, -0.100841634, 0.16849186, 0.08725816, -0.020916738, -0.05099848, -0.029031519, -0.11817999, 0.26536527, -0.10888767, -0.039782323, 0.020883758, 0.0013849686, -0.075552836, -0.078747235, -0.20454487, -0.075909376, 0.16643612, 0.001316201, 0.073848404, 0.12575258, 0.15548924, -0.27826476, -0.12263932, 0.22804011, -0.029978592, -0.23748222, -0.3263669, -0.051117066, 0.12759225, -0.15659231, -0.06931914, 0.12771188, 0.15035616, -0.3933882, -0.015007211, 0.07840925, -0.15491329, 0.08269035, -0.058061972, 0.0058844774, 0.1061807, 0.014418218, 0.027075054, -0.0430638, -0.10659319, -0.021624902, -0.017708817, -0.047571182, -0.16559646, 0.107804984, 0.18631764, -0.05137278, 0.13518082, 0.043363918, 0.11510098, -0.11680497, 0.16094698, -0.016951587, 0.009466222, -0.075243756, -0.15367173, 0.21233112, -0.07968774, 0.10895306, -0.22385156, 0.037482746, -0.048640355, -0.11191381, -0.14518447, -0.1667089, 0.15832034, 0.11394467, -0.054969665, 0.07075013, -0.027808521, -0.048597686, -0.04878133, -0.088800535, 0.01417055, -0.20585817, 0.11374365, 0.121569596, -0.14979628, 0.045421556, 0.03256263, -0.19853319, -0.11654468, 0.2023596, -0.022541128, 0.10957258, -0.17566471, -0.055004533, 0.14538138, -0.11843542, -0.22177379, 0.024878122, 0.06860105, -0.22084416, 0.0022454725, 0.011513172, -0.09335566, 0.19797513, -0.18761928, 0.070210144, 0.17493483, -0.050385393, -0.00323616, -0.11828688, -0.06996017, 0.24368186, 0.11627248, -0.0070021832, -0.010280694, 0.1095066, 0.07029174, 0.09043715, 0.06821791, 0.04437089, 0.047893234, -0.051110063, 0.027302468, 0.1449234, 0.025676684, -0.06850897, -0.12487026, 0.17663904, -0.03553027, -0.0017158403, -0.07699363, 0.072777286, 0.055982426, -0.22789936, -0.077433534, -0.09681333, 0.14874041, 0.20017765, -0.15712044, 0.03820764, -0.011454331, -0.07436242, -0.14640988, 0.0065747625, -0.2529596, -0.17658596, 0.13882525, 0.07549069, -0.026527835, 0.06935586, 0.033851277, -0.116205186, -0.11305394, 0.23310377, -0.20917113, -0.12656821, -0.2084676, 0.04471948, 0.16041161, -0.34529552, -0.07359565, -0.023296267, 0.18309519, -0.3239919, -0.35987502, -0.020167753, 0.024283351, 0.33285707, -0.05387151, 0.049873512, 0.09752186, 0.02216619, -0.072193936, -0.14453486, -0.13988774, 0.099233106, 0.070966035, -0.06878487, -0.04031948, -0.02999089, 0.34142646, 0.006785287, 0.049056716, 0.05226613, 0.13011731, -0.33201516, 0.2944445, -0.10533642, 0.0064835735, -0.10441307, -0.077285714, 0.24292304, -0.036769606, 0.1742084, -0.12051828, 0.09165902, 0.06531198, 0.054099496, -0.094082184, -0.20788395, 0.0737802, 0.1443728, -0.053689085, -0.03186711, -0.11106463, -0.15700409, -0.3126254, -0.08592217, 0.034606613, -0.22096847, 0.08469217, 0.0974304, -0.018347379, -0.05041024, 0.14140877, -0.28010088, -0.21933526, 0.2660801, -0.29292935, -0.18099865, -0.21181336, -0.13083054, 0.034515727, -0.16674347, -0.14274319, -0.12934846, 0.15467975, -0.1700202, -0.25357428, 0.07667435, -0.01746877, 0.1929374, -0.10082866, -0.06993803, 0.13685301, 0.029518705, -0.15697284, -0.28182516, -0.14185984, 0.13751252, 0.1368984, 0.068932906, 0.011851332, 0.014737716, 0.16323882, 0.10170801, 0.05450147, 0.06836964, 0.034532294, -0.23700689, -0.09499464, -0.07121154, -0.07305661, -0.12278554, -0.20248379, 0.20700777, -0.043077275, -0.017850084, -0.1729437, -0.0037347255, -0.052867573, 0.016822344, -0.12674163, 0.11220496, 0.041854385, 0.15523694, -0.14710478, -0.024993809, 0.024673844, -0.120591894, -0.37805903, -0.027271297, -0.20158312, -0.016054375, 0.073020115, 0.18494351, -0.19012661, -0.11989803, 0.06094279, -0.07057572, -0.038605902, 0.20241168, -0.33326477, -0.17434096, -0.1675228, -0.04240662, 0.113512516, -0.47687382, -0.0986884, -0.13544479, 0.18293767, -0.25438115, -0.44635573, -0.11958462, -0.051110703, 0.2527184, -0.037657294, 0.014425846, 0.044262256, 0.018651532, -0.12059097, -0.070244335, -0.05878527, -0.18335168, -0.1629992, -0.16261938, -0.055663228, 0.21970892, 0.31956574, -0.067372285, 0.0028157427, -0.01791949, -0.40669832, -0.23210442, 0.12148793, -0.107400246, -0.18091196, -0.094557814, -0.10307183, 0.22378792, 0.028817447, 0.058305565, 0.027769977, -0.04857368, 0.15878272, -0.2444057, 0.009065101, -0.17555846, -0.041820224, 0.049906556, -0.16858473, -0.05271112, -0.12172372, -0.28542975, -0.076405376, -0.13957518, 0.042541604, -0.02998039, 0.19600655, 0.053358283, -0.1555657, -0.14744562, -0.13020745, -0.25500974, -0.20978919, 0.20258915, -0.6076147, -0.19888881, -0.06097653, -0.11090057, 0.143886, -0.072060905, -0.14064635, 0.092722, 0.21202558, -0.31233796, -0.20773576, -0.09722826, -0.07920775, -0.009105941, -0.39144915, -0.009651545, 0.0023375445, 0.11155493, -0.16096467, -0.15698601, 0.029705351, 0.1310314, -0.12396451, 0.18486176, -0.065346226, -0.18893933, 0.15285139, 0.064622626, 0.083672285, 0.01075721, -0.026690634, -0.1670663, 0.024674792, 0.03288151, -0.052755304, -0.12776743, -0.32706305, 0.09079773, -0.018973688, -0.12819044, -0.20368351, -0.107129864, 0.029781189, 0.04835602, -0.27276847, -0.022957643, 0.16250917, -0.09354336, -0.32852474, -0.11671714, 0.053164974, -0.18217084, -0.35800502, -0.14165777, 0.05140106, -0.16824979, 0.090950176, 0.122605465, -0.12849241, -0.15308993, 0.10764132, -0.11965872, -0.016585508, 0.16589342, -0.13114302, -0.18512715, -0.3797767, -0.07084302, 0.17192334, -0.3084691, -0.17569447, 0.12323206, 0.2102114, -0.2654631, -0.15127394, 0.019018138, -0.13291842, 0.034154933, -0.12850101, -0.18581109, 0.056049906, -0.07076114, -0.002485, -0.1322174, 0.016612662, 0.11699556, 0.08329293, -0.11134244, -0.15184112, 0.07932755, 0.35990044, -0.0074923825, -0.05963738, 0.040414296, -0.13871609, 0.11732976, 0.071645014, -0.009078071, 0.01836079, -0.13681005, -0.09028355, 0.1945838, -0.0410378, 0.056627028, -0.020544032, -0.08015328, 0.11727926, -0.25853133, -0.20377487, -0.067844726, 0.17569919, -0.011953637, -0.35126245, 0.0026277716, -0.13811827, -0.19000353, -0.05497692, -0.060262613, 0.15334213, -0.049457416, -0.089743994, -0.03502099, 0.068321265, 0.119856246, 0.067339286, -0.014844048, -0.13528197, 0.21405368, -0.11352349, -0.08168352, -0.23385397, 0.058811516, 0.13518059, -0.34692976, -0.13242833, 0.11336541, 0.18024135, -0.11943884, -0.10645073, 0.01064534, -0.17567988, 0.11801837, -0.1916897, -0.18900791, 0.043637652, -0.15203838, -0.010962387, -0.2768993, 0.06859546, 0.12616971, 0.011109861, 0.07500576, -0.2499686, 0.13049123, 0.21016623, 0.028998902, 0.071616456, -0.029541986, 0.17574893, -0.0045535616, 0.19982569, -0.027564684, 0.06719404, -0.045526844, -0.13546632, 0.17158258, 0.029644983, -0.0020629417, -0.118931286, 0.21108705, 0.08424367, -0.40150976, 0.008895343, -0.092457525, 0.10292427, 0.22789273, -0.26494136, -0.060349703, -0.18268974, 0.014300633, -0.19505295, -0.09116267, 0.22447109, -0.3830749, 0.091391884, 0.051173165, 0.096180126, 0.12379665, -0.057932742, -0.34159735, -0.13103843, 0.15664007, -0.077589266, -0.050130915, -0.4026014, -0.073079854, 0.17709896, -0.26515386, -0.27759576, -0.15626991, 0.14802411, -0.14606926, -0.11579645, 0.04120849, -0.11248811, -0.040203787, -0.07983884, 0.10375828, -0.111000635, -0.08037488, 0.016701743, -0.26837686, -0.045932077, 0.13473508, 0.012309425, -0.15558489, -0.018960157, 0.103654206, 0.2002539, -0.015884561, 0.09711913, -0.03128024, 0.1269872, -0.059749108, -0.0019236166, -0.04046806, 0.10761771, -0.14500546, -0.21927635, 0.28456947, -0.015939645, 0.014905742, -0.15969464, 0.13204554, 0.062058892, -0.0849964, -0.08933743, -0.13897552, 0.024968958, 0.41586265, -0.15445682, -0.060703836, -0.13114408, 0.060437635, -0.14050491, -0.10223987, -0.3409109, -0.33549544, 0.1277925, 0.22471708, 0.19533837, -0.048254605, 0.1520465, -0.16081072, -0.15769596, 0.20459022, -0.1362336, -0.17593214, -0.32377818, 0.008821506, 0.19185925, -0.29240346, -0.016730681, -0.029948007, 0.15932024, -0.23770094, -0.27167115, 0.17314172, -0.012052803, 0.2548777, -0.081020266, 0.067373134, 0.07445802, 0.06560928, -0.048646983, -0.41047165, -0.062582724, 0.10204985, -0.009333142, -0.12706447, -0.1988385, 0.08751782, 0.24161729, -0.020660743, -0.030009346, 0.048727974, 0.061336678, -0.16437581, 0.08546348, -0.15046158, 0.029369287, -0.045833558, -0.44970727, 0.15440805, -0.040732674, 0.039009355, -0.22310361, 0.08004354, -0.14006504, -0.09131931, -0.2655822, -0.14194821, 0.08530039, 0.05909036, -0.18635355, -0.029061532, -0.07818411, -0.25459564, -0.08285345, -0.13101338, 0.035325497, -0.30711532, 0.13703781, 0.1153763, 0.015615778, -0.012240142, 0.17117673, -0.29440582, -0.08368858, 0.22511184, -0.13505287, -0.21905771, -0.23495685, -0.08524501, 0.18316624, -0.8063978, -0.28780085, -0.05491507, 0.178293, -0.24104193, -0.29349306, 0.109366454, -0.0756945, -0.06845386, -0.22543015, 0.036009513, 0.06637968, -0.10101664, 0.034684442, -0.2232447, -0.22895366, -0.15594238, -0.19666785, 0.022121184, 0.03583087, -0.016578922, 0.3094704, 0.0052669724, -0.03374501, -0.09086293, 0.11510956, 0.02098294, 0.13299954, -0.027182302, -0.068332545, -0.10321487, -0.0821746, 0.22109444, -0.079131134, -0.045217182, -0.36819458, 0.040260274, 0.13386115, -0.18797185, -0.2070286, -0.10336274, 0.14840762, 0.16285628, -0.24768779, -0.005950301, -0.007328741, -0.05512642, -0.1722874, -0.1632527, -0.19872712, -0.16005796, 0.069193386, 0.13609664, -0.39527956, -0.09124009, 0.041134086, 0.010122163, -0.14661543, 0.2167528, -0.07681208, -0.12021134, -0.16798867, -0.07817241, 0.2080166, -0.3739459, -0.0137438495, -0.01664617, 0.22847356, -0.2893204, -0.24778561, 0.07521628, -0.020885734, 0.20097108, 0.0039899107, -0.06434602, 0.07186334, -0.015168012, -0.08736933, -0.107878394, 0.06124683, 0.12505059, 0.15512177, -0.0610159, -0.3526379, 0.03255608, 0.26005825, -0.035601724, 0.027838958, 0.017807197, 0.064300865, -0.17570661, 0.13846444, -0.11939839, -0.037172295, -0.13565636, -0.18605833, 0.17075722, 0.06366071, 0.015405351, -0.12538008, 0.022292329, -0.18115537, -0.26829374, -0.089364484, -0.38909185, 0.060536932, 0.08949048, -0.08244133, -0.048545342, -0.23555505, -0.21470167, -0.14700225, -0.24310718, -0.060031097, -0.16942357, 0.025162969, -0.01649643, -0.105220415, -0.14976893, 0.060768224, -0.41579062, -0.037605494, 0.019973885, -0.102774866, -0.25226048, -0.34328824, -0.104076914, -0.019117555, -0.2967712, -0.16007067, -0.08289789, 0.20976785, -0.31779948, -0.20047292, 0.03080277, -0.07949468, -0.05632934, -0.2504591, -0.18535268, 0.12811218, 0.10389801, -0.051551305, -0.13558225, 0.06081051, 0.07752639, -0.23642716, -0.07856826, -0.3179538, -0.37405637, 0.31053957, 0.07375454, 0.033888042, -0.08092283, 0.114851326, -0.25845855, -0.06746414, -0.021078544, -0.08540894, -0.118926995, -0.0022289113, 0.05793812, 0.07278997, -0.0091864085, -0.23922397, 0.009177046, -0.047171496, -0.1668496, -0.22758973, -0.11821178, 0.116389275, 0.035350464, -0.37182713, -0.007345267, -0.050380293, -0.11737225, -0.15644114, -0.104576826, -0.2300896, -0.80220646, 0.058241278, 0.12979132, 0.13479981, -0.49504346, 0.085406326, -0.21649382, -0.11873293, 0.11989818, -0.35717818, -0.30828184, -0.20568022, -0.053318527, 0.16992773, -0.20346181, 0.057831354, 0.023764838, 0.20326221, -0.23376493, -0.2407317, -0.019861111, -0.09727516, 0.13563254, -0.17227426, 0.01849337, 0.09601652, 0.02039097, -0.046073224, -0.25198478, -0.112093486, 0.11911949, -0.291962, -0.11666357, -0.22338967, 0.16640282, 0.15993418, -0.09731638, 0.10169408, 0.02097927, -0.08353815, -0.2104875, -0.11151448, -0.086670086, -0.16877902, -0.12335615, -0.2473184, 0.17852202, 0.09466614, -0.01641375, -0.13423325, -0.10773948, -0.0077307587, -0.35269186, -0.25115934, -0.4683988, 0.018012961, -0.098570146, -0.157669, -0.009418016, -0.11774215, -0.12270952, 0.11479802, -0.09813767, -0.54735845, -0.18407667, -0.06891405, 0.26204786, 0.04424961, -0.1229062, -0.21410447, -0.19575302, -0.265713, 0.00016615559, -0.27957952, 4.637856e-05, -0.03497244, -0.18942443, 0.31026608, -0.14763944, -0.2823028, -0.06233317, 0.28236526, -0.3846062, -0.62991244, 0.14910603, -0.1670986, -0.60492337, -0.035047933, -0.06740911, -0.09837751, 0.038701996, -0.05430261, -0.6920412, 0.042721037, 0.089185126, -0.61032665, 0.023812713, -0.3056151, 0.05710903, 0.16031949, 0.007724977, 0.024966616, -0.25337833, 0.12458541, 0.005977993, -0.23236075, -0.12531082, 0.07014519, -0.12536848, -0.37186015, 0.11258092, 0.13310203, 0.064357296, -0.5158349, 0.038693734, 0.062118273, -0.06930244, -0.14736962, 0.06293739, -0.28095636, -0.14479074, -0.35747284, -0.29648513, -0.009242903, -0.3809227, -0.8501211, -0.55078, 0.10896391, -0.026972111, 0.18719213, 0.07127881, -0.15008542, 0.0004417374, -0.033691768, 0.13174072, -0.10646157, 0.2875122, -0.22351103, -0.02683509, -0.29380265, -0.2135657, 0.14367317, -0.6352523, -0.16676182, -0.06304735, 0.18362358, -0.029212398, -0.039282676, 0.17429002, -0.15592359, 0.097818054, -0.33591422, 0.11439877, 0.13729583, 