#ifndef NN_VALUES_H
#define NN_VALUES_H


const float L1_WEIGHTS[] = {
0.008516771, 0.0002647092, 0.0025373825, 0.0056317104, 0.0037117703, 0.005580825, 0.0073485207, 0.0084782, 5.028967e-06, 0.005444754, 0.0025497372, 0.0018786723, 0.006776065, 0.004112177, 0.0023711545, 0.0037227827, 0.00032877387, 0.005464445, 0.0028167104, 0.003145357, 0.0066240677, 0.007715702, 0.001230402, 0.0008485149, 0.007063514, 0.002101398, 0.00469829, 0.005835587, 0.006797991, 0.006489611, 0.003675851, 0.006846799, 0.007629644, 0.0013989975, 0.0029883804, 0.0010874487, 0.004685244, 0.008502784, 0.003677492, 0.00553146, 0.0041967947, 0.0064422092, 0.0036628582, 0.0014325994, 0.0026617858, 0.0050037103, 0.00339531, 0.0032948933, 0.003150036, 0.006235022, 0.005180847, 0.008171176, 0.006543286, 0.0014537787, 0.004515801, 0.0073942407, 0.0054466906, 0.0040157614, 0.0065934137, 0.0054121534, 0.005321388, 0.0008205438, 0.005883972, 0.0037546144, 0.0052057845, 0.0040303133, 0.0019862491, 0.0036979783, 0.0034169478, 0.0006012013, 0.00042979533, 0.00380756, 0.00760237, 0.0066053458, 0.0010948757, 0.0069476045, 0.0010723904, 0.0009158261, 0.005641886, 0.0042619836, 0.006624734, 0.008417055, 0.008375588, 0.0043233447, 0.0073442454, 0.0048098178, 0.0032729458, 0.0033759756, 0.007073994, 0.0008317486, 0.006112355, 0.006116094, 0.0036144946, 0.0022776767, 0.005396405, 0.0049446085, 0.0032753367, 0.007143894, 0.008647983, 0.007784913, 0.00401923, 0.0039045794, 0.004332065, 0.001215629, 0.004264892, 0.00598806, 2.6613128e-05, 0.007548541, 0.0030505343, 0.003535552, 0.006642399, 0.007705913, 0.0063738455, 0.0036500709, 0.0031072395, 0.0077992342, 0.0021386256, 0.0022356962, 0.0036223328, 0.0076474026, 0.0040728343, 0.007989209, 0.007879701, 0.008713273, 0.0028675068, 0.00036035824, 0.0044332375, 0.0048834197, 0.008712021, 0.007894052, 0.0031392104, 0.003503329, 0.0020832152, 0.004573077, 0.0010362621, 0.0087529095, 0.001858675, 0.004517337, 0.004981677, 0.0073559824, 0.006386985, 0.00830133, 0.0016437181, 0.006368748, 0.0058652298, 0.0023573986, 0.0003558494, 0.0040879343, 0.0066292332, 0.0032468545, 0.008761259, 0.0002735777, 0.0044151614, 0.0015035858, 0.0021754522, 0.0064910627, 0.0064980187, 0.0050665205, 0.007669932, 0.0027146097, 0.00601667, 0.0042204806, 0.0063947593, 0.0002947043, 0.007253269, 0.0030809485, 0.0027703904, 0.0038071377, 0.0075603235, 0.0020000553, 0.00093148893, 0.005835806, 0.0024391676, 0.0041344166, 0.0005838721, 0.0033097842, 0.002845067, 0.00036393682, 0.005510969, 0.0063079116, 0.005514438, 0.007512387, 0.0023245544, 0.0076752137, 0.0028391683, 0.0005116462, 0.003533108, 0.0073916074, 0.0023076443, 0.0028544278, 0.004823352, 0.006183675, 0.0015553721, 0.0081364475, 0.001984272, 0.0051495517, 0.0022806188, 0.006012759, 0.0066577164, 0.004818155, 0.00035589177, 0.005692009, 0.0056881057, 0.0051601836, 0.007663974, 0.001108808, 0.0032474156, 0.007938377, 0.003974257, 0.0028594069, 0.0016228503, 0.0042544175, 0.004766607, 0.008207106, 0.006071703, 0.003929348, 0.008023794, 0.0038184673, 0.003240056, 0.0061542443, 0.0055394974, 0.00024564957, 0.007207494, 0.0035746184, 0.0037268451, 0.0015997543, 0.0057699815, 0.0012197726, 0.0068302345, 0.0039328253, 0.004255337, 0.006203142, 0.0010409579, 0.0050651543, 0.0041503543, 0.008344414, 0.008256425, 0.0030965472, 0.0028158722, 0.0069128294, 0.008400364, 0.0071459403, 0.0049699997, 0.0057316227, 0.0052371286, 0.00592317, 0.004446036, 0.00083270425, 0.005123958, 0.0045511876, 0.005614728, 0.004733822, 0.008541205, 0.0050032535, 0.0017362406, 0.0034949973, 0.001594115, 0.0056036445, 0.004561501, 0.007428296, 0.0003412607, 0.00203979, 0.0058659087, 0.00041163975, 0.001153828, 0.0069325264, 0.0039781467, 0.0037506, 0.0028230643, 0.0059629055, 0.0083849, 0.0040046405, 0.005107458, 0.00013847096, 0.0062354235, 0.0060810484, 0.00425923, 0.00012926031, 0.0015457267, 0.0037531648, 0.003920747, 0.005593033, 0.0030238854, 0.004754806, 0.0009683173, 0.0044422057, 0.0072008357, 0.0016794521, 0.0026244782, 0.0051426403, 0.0015908914, 0.0024383196, 0.0065917973, 0.0030208002, 0.0037116052, 0.00838142, 0.0047534374, 0.0041931113, 0.0048991228, 0.00137755, 0.004364331, 0.0026827776, 0.0002107234, 0.0056581018, 0.00059169816, 0.0029749123, 0.0032193407, 0.00605315, 0.00021037587, 0.006454167, 0.006085446, 0.002528754, 0.006584919, 0.005900462, 0.0080685755, 0.0014581749, 0.0052230624, 0.0064641857, 0.0032160128, 0.008489891, 0.00020593057, 0.0023352855, 0.0066482453, 0.0026829466, 0.0019952997, 0.0018684475, 0.003825579, 0.0009162108, 0.0053985133, 0.0021946393, 0.0037978, 0.0023184172, 0.008500913, 0.0011472945, 0.005574153, 0.0026736963, 0.005492375, 0.00073260476, 0.0024054737, 0.0007396693, 0.006634346, 0.008735292, 0.006256158, 0.0016090616, 0.008241758, 0.006517529, 0.0046259128, 0.0031289798, 0.00848438, 0.008453761, 0.006608245, 0.0019595264, 0.0020916215, 0.0066325935, 0.00744062, 0.003378335, 0.008156982, 0.0060656453, 0.0062009506, 0.0036678773, 0.0015947934, 0.0006971939, 0.007984757, 0.005124783, 0.0054131523, 0.00047245738, 0.007084383, 0.0021031308, 0.0062358677, 0.00069768546, 0.0005741137, 0.0006937499, 0.005610295, 0.00086299557, 0.008488972, 0.006832106, 0.0018966878, 0.0067582815, 0.008107167, 0.005608842, 0.0023291681, 0.005163287, 0.0060699712, 0.0054261405, 0.0020231665, 0.0043265424, 0.0056351763, 0.005967595, 0.0014201561, 0.0048087053, 0.0015341603, 0.0020249735, 0.0033803023, 0.0009069413, 0.0010623874, 0.0016720749, 0.0076786336, 0.0019852647, 0.0029324805, 0.0058572693, 0.0045563453, 0.007763927, 0.0012727634, 0.0034395347, 0.0069778617, 3.6762045e-05, 0.0008624604, 0.006447873, 0.006646111, 0.00661004, 0.0072286967, 0.005010189, 0.0008901481, 0.0063396664, 0.0018037733, 0.0003317631, 0.0035653946, 0.0009337142, 0.0035386295, 0.008653199, 0.0006270024, 0.0071090716, 0.005110445, 0.0020299614, 0.0058329324, 0.006819046, 0.0004537085, 0.00047328288, 0.0065418817, 0.0007170045, 0.0050288187, 0.008053663, 0.0067807464, 0.0070334706, 0.004343295, 0.007872908, 0.0070334706, 0.0043957913, 0.004338479, 0.0005684076, 0.0072317943, 0.00859804, 3.788267e-05, 0.0064465096, 0.001507843, 0.0051052184, 0.0016767518, 0.0025427088, 0.0029702408, 0.005904027, 0.00041779157, 0.0066400096, 0.0029652887, 0.006631805, 0.0004978997, 0.00596686, 0.005275258, 0.0031071217, 0.0046475697, 0.00526404, 0.008062764, 0.0036000102, 0.004111786, 0.0042164614, 0.0019179126, 0.0035990414, 0.0077523827, 0.0066055995, 0.0069821486, 0.004229387, 0.00018000373, 0.0072956216, 0.0072679226, 0.0054965587, 0.0064662085, 0.0075617875, 0.002074785, 0.0034504745, 0.0061470144, 0.0024041615, 0.0003321242, 0.0057502184, 0.0004566877, 0.0062200404, 0.0044384184, 0.008641187, 0.001421669, 0.003421665, 0.00054380903, 0.0061639384, 0.006073145, 0.002205254, 0.0072291945, 0.007931945, 0.005376412, 0.0037142215, 0.006623772, 0.0030333786, 0.002005894, 0.00031201015, 0.003084575, 0.005257458, 0.0073760627, 0.00034876104, 0.00016034208, 0.0009847716, 0.006847297, 7.008763e-05, 0.0025843196, 0.006846112, 0.0031887083, 0.00681232, 0.14698075, -0.053989306, -0.03567575, 0.10136847, -0.04947679, 0.044595793, -0.01083581, 0.061770197, 0.12126494, -0.03656882, 0.0657322, -0.031255525, 0.081228144, 0.18182695, -0.001823328, 0.004927779, 0.10118801, 0.03453969, 0.035376247, 0.133068, 0.1970493, -0.023327997, -0.016422106, 0.034708753, 0.098104015, -0.020174252, 0.049559142, 0.018016469, 0.030258061, 0.08652207, 0.034590445, -0.0021251708, -0.07794666, 0.07144489, 0.10115593, 0.13606401, 0.14799938, 0.20312963, -0.015448222, 0.11439201, 0.023644052, 0.07825424, 9.692269e-05, 0.085371755, -0.03172623, 0.067709155, -0.00034148537, 0.07917928, 0.1447354, 0.10208366, 0.061655432, 0.072671264, 0.12811688, 0.029706744, 0.0048283343, 0.037333254, -0.067648254, 0.18094024, 0.15003505, 0.004759241, 0.109042965, 0.04174614, 0.03645972, 0.033285953, 0.14465493, -0.016170707, -0.016251417, 0.0636246, 0.0066271066, -0.014051655, -0.0600269, 0.05998535, 0.108954474, 0.0014506012, 0.016638497, -0.03345941, 0.049806148, 0.15933031, -0.12067976, 0.020519897, -0.004809887, -0.20726642, 0.1450782, -0.0787168, 0.2283325, 0.01303919, -0.032224208, 0.027577052, -0.11209663, 0.02302957, 0.06285251, 0.037849043, 0.08100924, -0.027871914, 0.002292212, -0.09553454, -0.048863854, 0.0029224674, 0.17705691, 0.03988795, 0.11202549, 0.09932347, -0.022791531, 0.16890572, -0.0042265207, 0.12357903, 0.10261404, 0.041071802, 0.10276816, 0.18196826, 0.057427447, -0.05448634, 0.010930599, -0.021863762, 0.10169808, -0.02693647, -0.027224345, 0.018395418, 0.054376192, 0.007498559, 0.04268043, 0.075682335, -0.023807287, 0.06124807, -0.034208734, 0.14445284, 0.2444023, 0.06034251, 0.089871705, 0.002546943, -0.024252195, 0.02332108, 0.0738539, 0.005510594, -0.09071984, -0.05982645, 0.1633622, -0.045124836, 0.07440124, -0.019192552, 0.023886777, 0.0013329112, -0.027191054, -0.09860357, -0.050709672, -0.2470366, 0.07085502, 0.06899788, 0.095883735, -0.11769704, -0.02235993, 0.012765767, 0.03806182, 0.034136377, 0.037796754, -0.037833195, 0.040933292, -0.064083405, 0.01746046, 0.01128194, -0.01399862, 0.020044362, 0.0429029, -0.19242658, 0.08275206, -0.006795995, 0.014382496, 0.044277515, 0.045458116, 0.080448315, 0.10023151, -0.025791604, 0.084207766, 0.06802907, -0.0094814915, -0.0051931227, 0.020837087, 0.08341803, 0.08351541, 0.023645962, 0.06518475, -0.004907236, 0.0467263, 0.008651654, 0.04864581, 0.08090083, -0.060562614, 0.05897953, 0.012538349, -0.03965228, -0.037069283, 0.06488287, 0.13037926, -0.045409158, -0.051785678, 0.057401545, -0.030452581, -0.026586758, 0.021823823, 0.10186798, 0.17120638, 0.06005472, 0.082593285, -0.11085525, 0.027708491, 0.16360879, 0.037673622, -0.10532246, -0.09328802, -0.021403717, 0.0033576195, 0.15013334, 0.09489251, 0.12895447, 0.030403748, -0.05465672, -0.19930409, 0.03462582, 0.13034438, -0.22895734, 0.092878714, -0.019145487, 0.044114973, -0.017424338, 0.03548501, -0.024370013, 0.056265224, 0.21489298, -0.021049954, -0.013658177, 0.051850922, 0.11647436, -0.025632227, -0.0077177123, 0.030799532, 0.046892315, 0.20238826, 0.023196213, 0.009443686, -0.015922742, 0.21459322, -0.055405434, 0.13535362, 0.033460308, -0.0315233, -0.04161407, 0.107755005, 0.04987484, 0.05708002, -0.02863288, -0.048839297, -0.018290227, -0.08264211, 0.021304997, -0.018662322, 0.14159794, 0.15565228, -0.08397702, -0.022035336, 0.028620014, 0.11972983, -0.060143672, -0.07573542, -0.10278165, 0.080372535, 0.08129734, -0.02127585, -0.060405027, -0.031037346, 0.10892945, 0.005577785, 0.01774342, -0.11878249, 0.057038605, -0.016155878, 0.1208464, 0.07132735, -0.12752324, -0.028292919, 0.01260327, -0.0020219933, 0.038068954, -0.0022626868, -0.09363513, 0.08996201, -0.03164702, 0.14789113, 0.095562756, -0.032980274, 0.049057566, 0.008300369, -0.29804277, 0.005404155, 0.07049652, 0.056783475, 0.16088514, 0.093227595, -0.096245356, 0.11246155, 0.09987831, 0.12972084, 0.14381176, -0.06257508, -0.063258074, -0.13842621, 0.15532076, 0.0153660355, -0.02289049, -0.01143639, 0.07619374, -0.0042164573, -0.024024542, 0.008564989, -0.12445218, 0.12531032, 0.08163161, 0.024520928, 0.047821444, 0.041321784, 0.082338125, 0.21031028, -0.26725158, 0.049886193, 0.06771886, -0.023285983, -0.07447207, -0.04392394, 0.029951844, -0.11879176, -0.012231041, -2.5190166e-05, -0.07062145, -0.0100602135, 0.09090052, -0.007715488, -0.013916279, -0.03928972, 0.114284694, 0.20124687, 0.20136899, 0.11479329, 0.021093713, -0.0031030418, -0.20232157, -0.07910628, 0.13321021, 0.10382325, 0.07494558, 0.16846111, 0.054151576, 0.06578984, 0.07258887, 0.031391032, 0.012243314, 0.13508192, 0.05613511, 0.015017575, -0.044533115, -0.05384663, 0.24313322, 0.100362174, -0.13543299, 0.06971141, 0.07603014, 0.06181504, 0.03460931, 0.12930982, 0.08587447, 0.1193324, -0.07126963, 0.06251082, 0.05617942, 0.026092416, -0.03415592, 0.049855717, 0.032408856, 0.020351727, -0.049282283, 0.0023295896, -0.0628667, 0.006664789, -0.03315597, -0.008685135, 0.07783584, 0.2522744, -0.33963394, 0.13448432, 0.05482131, 0.053348277, -0.03499456, 0.011173385, -0.01046349, -0.009476729, 0.1390965, -0.04458367, -0.03636612, 0.010801029, -0.025175156, 0.11090202, 0.013481186, 0.1025872, 0.049327966, -0.16253984, 0.1057668, 0.14450721, -0.12297019, 0.009872333, -0.059711188, -0.012806253, 0.09991993, 0.09712633, 0.055485096, 0.03703712, 0.036569845, -0.045620084, 0.12670268, 0.020593869, 0.09556413, 0.03452146, 0.018497294, 0.02392302, -0.038212553, 0.013740091, 0.23042552, 0.10794232, 0.079210654, 0.07728151, 0.060467213, 0.13407698, 0.00072139734, 0.06680635, 0.06507312, 0.04058275, -0.0037809687, 0.043411266, 0.07670669, 0.055801805, 0.12650485, 0.019402683, 0.0059871064, 0.060339935, -0.05551106, 0.0071353605, 0.1089977, 0.08164127, -0.026737949, 0.14370064, 0.094186395, 0.21388161, -0.3440691, 0.081060484, 0.0876954, 0.10462132, -0.017417327, 0.024933197, 0.010129892, -0.011397783, 0.054787878, 0.048273265, -0.07032334, 0.03024403, -0.040007114, 0.18770824, 0.015750514, 0.077326514, 0.030426556, -0.01840963, 0.053569995, 0.1103757, 0.2154366, 0.012552226, -0.031135162, 0.21661475, 0.13271636, 0.009427347, 0.036469836, 0.02919108, 0.01969148, 0.06973092, 0.074887894, -0.019717816, 0.036386292, 0.055557344, 0.008453902, 0.05376365, 0.030355757, 0.0119622415, 0.18287571, 0.07065845, -0.0010846296, 0.10585479, 0.048686583, 0.052548528, 0.03391325, 0.030143987, 0.014127953, -0.046511766, -0.107447185, 0.031524424, 0.084921725, 0.023120899, 0.014573077, 0.02282554, -0.040525835, -0.13930179, 0.0572034, -0.08602282, -0.05459261, 0.088289924, 0.029415458, -0.09224124, 0.11715104, 0.12079194, -0.048974313, -0.033578247, 0.11583035, -0.1021979, 0.07409382, 0.038975872, 0.034384944, 0.14362596, -0.0141201075, 0.024525093, -0.038223732, 0.07191925, 0.23929746, -0.013956972, -0.013085183, 0.07500909, 0.015742823, 0.026703876, 0.11425275, 0.18225847, -0.021486523, -0.01779518, 0.022591159, 0.11493831, -0.0014682242, 0.035418604, 0.011510384, 0.023015376, 0.07536514, 0.026552275, 0.0019794244, -0.022432627, 0.02582309, 0.11628693, 0.16505538, 0.20219694, 0.21213798, -0.026719172, 0.07472199, -0.010515237, 0.0726874, -0.0048784968, 0.054358363, -0.01133222, 0.15670471, -0.0051206183, 0.034998834, 0.19215165, 0.062323947, 0.06313082, 0.05008008, 0.101116955, 0.0024346183, 0.035477478, 0.042328656, -0.05879456, 0.15741616, 0.0930621, -0.0062884353, 0.024611913, 0.059960112, 0.022744229, -0.00944472, 0.12448838, -0.041530877, -0.020215347, 0.096887626, -0.05787194, -0.062096078, -0.03943435, 0.08381576, 0.15849857, 0.029725146, 0.050241917, 0.02260767, 0.048186745, 0.15411422, -0.08747657, 0.072326355, -0.008803558, -0.1296941, 0.12648869, 0.056262527, 0.22993448, -0.04880377, -0.06608234, 0.03564604, -0.13571905, 0.017012162, 0.13213989, 0.021809412, 0.072371714, -0.026190262, 0.01473811, -0.09816787, -0.00396658, 0.04308141, 0.067462906, -0.0100077875, 0.1156452, 0.03255224, 0.029987989, 0.14874026, 0.027601343, 0.044725347, 0.07565772, 0.0401247, 0.091234595, 0.0526222, 0.007384753, -0.025633834, -0.01680119, -0.037132293, 0.17764537, 0.045782227, 0.04457114, 0.07941641, -0.014272479, -0.019017402, 0.031064745, 0.096146844, -0.020116385, 0.048234954, 0.10703513, -0.06045567, 0.22926609, 0.076381475, 0.1552036, -0.024119297, -0.03306964, 0.0946647, -0.043312825, 0.09198209, 0.0065007387, -0.065856956, 0.09840035, 0.096939, 0.029157016, 0.0015011542, 0.012592568, 0.11584156, -0.077867396, -0.05486758, -0.022428382, -0.28466272, 0.021712232, 0.09573038, 0.14283511, -0.0756603, -0.029817406, -0.013624314, 0.10908461, 0.08439498, -0.025206126, 0.0031683636, 0.08572057, -0.0846527, -0.04392096, -0.05160928, 0.033736207, 0.10762909, 0.09501489, -0.23431955, 0.08503665, 0.0076628677, 0.03904239, 0.120239556, 0.03321691, 0.05496988, 0.087463655, 0.08534428, 0.059069466, 0.034648135, 0.009604997, -0.061817646, 0.093785174, 0.038711593, 0.105972424, 0.038648725, 0.08284352, -0.06706808, 0.082828134, 0.01659683, 0.12483139, 0.10059653, -0.065691546, 0.0117328875, -0.15860815, 0.1625003, -0.05639396, 0.0960749, 0.15604712, -0.08122902, -0.04106477, 0.09252608, -0.038614623, -0.12757158, -0.004587545, 0.13483818, 0.022609338, 0.05442205, -0.05660226, -0.0013750452, -0.006796719, 0.088939875, -0.021626983, -0.05215821, -0.17238462, 0.03590972, -0.024461167, 0.1321789, 0.09138541, 0.06202883, -0.028780667, -0.05654252, -0.22695728, 0.110005684, 0.13073042, -0.23509356, 0.07234495, -0.039740518, 0.098590195, 0.04518725, -0.06535487, -0.034039877, -0.04017565, 0.15637791, 0.020720894, 0.005339516, 0.043517247, 0.15344308, 0.032482542, 0.013039064, 0.04442888, 0.07174534, 0.16568132, 0.083593, 0.025797486, 0.020117266, 0.17956771, -0.08134842, 0.051746927, 0.014728374, 0.017995922, 0.06552494, 0.14297616, -0.04106097, 0.042528428, -0.050419006, -0.09959734, -0.043019496, -0.13284498, -0.031091988, -0.06831034, 0.13621989, 0.20399792, -0.12431815, -0.0066098785, 0.08842312, 0.03345936, -0.03805194, 0.01753266, -0.13241258, 0.114107125, 0.09196601, -0.0030353323, -0.046669688, -0.003925541, 0.11883815, -0.075014226, 0.046681706, -0.07540184, 0.042966474, 0.008512835, 0.22824578, 0.06353646, 0.037592657, -0.065926865, -0.037413243, 0.029960658, 0.035236996, -0.05139189, -0.14022359, 0.11925837, 0.10105686, 0.18472195, 0.05678813, 0.032948114, 0.021427456, 0.2942758, -0.3495091, 0.002966043, 0.12462454, 0.022877242, 0.15645298, -0.019360008, 0.005929571, 0.030133331, 0.07207275, 0.105797455, 0.067958325, 0.006414415, -0.05260183, -0.14718711, 0.1830834, 0.03329403, -0.08376579, 0.030769076, -0.0050286436, 0.049007256, -0.04228766, 0.06385046, -0.036506582, 0.053345546, 0.0594045, -0.010757522, -0.032236196, 0.11413217, 0.056389246, 0.26989853, -0.21867125, 0.05435356, 0.08703532, -0.041072436, -0.006696864, 0.010567863, 0.081012346, 0.078267135, -0.007360056, -0.06993406, -0.008729254, -0.015057437, 0.05553151, 0.030248236, 0.03455831, -0.01189281, 0.04371114, 0.26343936, 0.13253786, 0.075451486, 0.057804234, 0.0063790563, -0.27194023, -0.2138055, 0.087171696, 0.12481874, 0.057039358, 0.16670486, 0.06229496, -0.043069545, 0.0659955, 0.0051006833, 0.041360915, 0.031067038, 0.0312441, -0.0062401392, -0.054112382, 0.017420728, 0.28309754, 0.13177253, -0.14581859, 0.13985196, 0.047180574, 0.07735809, 0.047850583, 0.027985105, 0.09308184, 0.19088477, -0.0397687, 0.030043203, 0.00831254, 0.039090525, -0.05748413, 0.011463202, 0.011877858, 0.019905023, -0.028744519, -0.11085887, -0.12238601, 0.02202189, 0.070086375, -0.074974075, 0.11335469, 0.2813507, -0.34227386, 0.15652193, 0.07336339, 0.0017396958, -0.05043914, 0.06397877, 0.0199573, 0.029969903, 0.1095182, -0.010382825, -0.038955145, -0.008044175, -0.018079448, 0.09945875, 0.009652169, 0.020994442, 0.028399104, -0.13606988, 0.11110856, 0.08697789, -0.009556219, -0.022822186, -0.12632012, 0.014925988, 0.12510416, 0.054031495, 0.016086048, 0.05350984, 0.006135223, 0.07243296, 0.07041325, 0.03355586, 0.05902798, 0.03977998, 0.05065601, -0.009387387, 0.008817222, -0.18407896, 0.238042, 0.022785723, -0.16875069, 0.11133691, 0.048565466, 0.06289116, -0.029992625, 0.09314551, 0.061167005, 0.008633522, 0.032519992, 0.018657982, 0.10019296, 0.07520942, 0.1393162, -0.00057165796, -0.0124251, 0.085604906, -0.0096832635, -0.055157162, 0.09764538, 0.027435157, 0.031201247, 0.2049914, 0.0912952, 0.1945511, -0.3047454, 0.058435813, 0.08092833, 0.12065298, -0.035976082, 0.0062609497, 0.016021084, -0.0975781, 0.043358188, 0.01290241, -0.037473984, 0.020244885, 0.0025976845, 0.19911435, 0.023245968, 0.08839026, 0.009249671, -0.02811237, 0.06269758, 0.07749235, 0.21948431, 0.0009433583, -0.102393426, 0.16443498, 0.12952076, 0.030671824, 0.005504514, 0.025339596, -0.029359164, 0.023293048, 0.08703321, -0.04309332, 0.042001907, 0.04281952, -0.019157426, 0.044706427, 0.035001703, 0.038024668, 0.18606988, 0.034259684, 0.081271924, 0.079067975, 0.034891974, 0.07834936, 0.04181289, 0.07591119, 0.017221192, -0.07061242, -0.107241794, -0.028885016, 0.07166572, 0.022093525, 0.0013311154, 0.027398342, -0.07854198, -0.13242018, 0.055233303, -0.0791093, -0.079304986, 0.08040959, -0.038081158, -0.14264277, 0.11445309, 0.11917666, -0.06902399, -0.043401822, 0.13367389, 0.04896804, 0.059813067, -0.0053096865, 0.040636692, 0.17519866, -0.061787263, 0.041969094, 0.012954858, 0.053355213, 0.24267465, -0.02259055, -0.05926065, 0.08869339, 0.038738698, 0.18030952, 0.08703072, 0.23773777, 0.032913458, -0.024290033, 0.060511637, 0.13526915, 0.015035665, 0.045904417, 0.027900629, 0.027467016, 0.04636711, 0.05089355, -0.043675873, -0.039436284, 0.095984116, 0.082780525, 0.13036118, 0.30675235, 0.19078785, 0.023432046, 0.08901423, -0.033108156, 0.08404343, 0.01750872, 0.059938647, 0.039648883, 0.010662679, 0.007255823, 0.0039718566, 0.07146042, 0.043899626, 0.0891355, 0.09053364, 0.06012871, 0.041796036, 0.016845273, 0.043931052, 0.05104038, 0.13964, 0.08220243, 0.023276366, 0.06865081, -0.044367466, 0.01607666, 0.050267287, 0.17927746, -0.11031697, -0.01834539, 0.14303006, -0.081973, -0.19760387, -0.030569784, 0.10117886, 0.19120774, 0.052212477, 0.0054259123, 0.086192116, 0.09731208, 0.11350093, -0.12880744, 0.07510404, 0.01733973, -0.053767867, 0.038375307, 0.24153696, 0.28694525, 0.015796028, -0.05764242, -0.0034892878, -0.06345336, 0.13111381, 0.06411094, 0.03188904, 0.084566034, -0.0019757352, -0.013925886, -0.11319312, 0.038901474, -0.0021129432, 0.029157137, 0.020916607, 0.27150592, 0.0011306034, 0.026771689, 0.088076524, 0.12419739, 0.0073585887, 0.029873038, 0.08696459, 0.030523293, 0.17330366, 0.16503355, 0.055721253, 0.01812794, 0.066276915, 0.1451982, 0.065880135, 0.11734156, 0.07557616, 0.07811038, -0.017042203, -0.057305228, 0.098273575, -0.027996024, 0.06017302, 0.0077686314, 0.013405431, 0.27029654, 0.020263083, 0.18287694, -0.070777826, -0.023099499, 0.1356905, 0.08265579, 0.14101507, -0.029231424, -0.49207994, 0.16991359, -0.038258888, 0.04213792, 0.05393171, 0.050389554, 0.13085353, -0.08969623, 0.03475345, -0.0020817954, -0.09542936, 0.041673325, 0.100518726, 0.20619112, -0.11188651, -0.05812255, 0.03373264, 0.053844985, 0.06941168, 0.059775673, -0.022697037, 0.05591265, 0.040882148, -0.0048416853, -0.04052126, -0.051850274, 0.23605129, 0.13293844, -0.012296208, 0.10633219, -0.00021979093, 0.053328115, 0.08163253, -0.089062355, 0.08853956, 0.08668558, 0.014880527, 0.06623834, 0.10809766, 0.03170865, -0.10009925, -0.0153536685, 0.07459378, 0.08397053, -0.03726708, -0.018270245, -0.0894417, 0.03279087, 0.02292718, -0.008153256, 0.100411445, -0.0030856924, -0.036490515, 0.054296978, -0.015129489, -0.020483576, 0.11988336, 0.18144956, -0.10231849, -0.024529163, 0.135296, -0.1858612, -0.57933384, 0.008239262, 0.27737948, 0.1343443, 0.1233451, 0.057095915, 0.045031913, 0.060377024, 0.11627262, -0.020498507, -0.1513713, -0.06908957, -0.04649, -0.015023356, 0.20605111, 0.113804184, 0.056409784, -0.021790868, -0.041244186, 0.0024551966, 0.017809415, -0.11499369, 0.045387294, 0.07008492, 0.013461689, -0.09211382, 0.034251515, 0.02187477, 0.047208507, 0.09916451, 0.057341363, 0.04465918, 0.034027703, 0.008031362, 0.10366688, 0.09919464, 0.035416804, 0.08628749, 0.11378824, -0.017217446, 0.083140135, 0.07934727, 0.084082924, 0.095242746, -0.09108873, 0.0506359, -0.03593545, -0.018943226, 0.060029615, 0.01717252, 0.0024748517, 0.028805053, 0.035420176, 0.05038517, -0.026074957, -0.19138697, 0.1059112, 0.04964679, 0.17633611, 0.25224757, -0.14576083, -0.038306717, 0.104318075, 0.026116222, 0.04527449, 0.03510523, -0.45709583, 0.11393291, 0.016074315, -0.0013094995, -0.011210587, 0.038528036, 0.060853187, 0.028127031, 0.08030238, -0.15704691, -0.029124562, -0.026371703, 0.1898266, 0.17817996, 0.032831594, -0.07383097, -0.022374382, 0.05050442, 0.04732229, 0.08802666, -0.23535015, 0.13456272, 0.11980358, 0.19460015, -8.1153e-05, -0.07255802, 0.14919135, 0.0064280275, -0.19150114, 0.0031415827, 0.031981047, 0.010173589, 0.15032093, -0.1640795, -0.006472973, 0.089830846, -0.0006412694, 0.10023815, 0.093521774, -0.049296763, -0.03578044, -0.01904354, 0.09791187, 0.05335412, -0.004714407, 0.068798475, -0.18651697, -0.06616708, 0.011067575, -0.047491, 0.068259105, -0.0028683234, 0.0017945371, -0.21736835, 0.08914371, 0.101640165, 0.14261407, 0.27988762, -0.19875997, 0.02228548, 0.11969435, -0.0117679965, -0.13811497, 0.047366716, 0.07542101, 0.1000319, 0.043889724, -0.08812517, -0.02027231, 0.021210754, 0.08129078, -0.04347944, -0.001201389, -0.06966785, 0.047036298, 0.19662628, 0.19421658, 0.11167469, -0.056760866, -0.00078994065, -0.13389453, -0.05935877, 0.03877576, 0.08998189, 0.15866464, 0.1798025, 0.12918417, 0.14480607, 0.026018264, -0.008230181, -0.015277824, 0.0733648, 0.0129055055, -0.009675474, -0.05262909, -0.0650626, 0.21045496, 0.077769294, -0.0852487, 0.14147525, 0.04032606, 0.093210146, -0.01730883, 0.17654082, 0.12690514, 0.071050085, -0.21301949, -0.045239393, 0.033018716, -0.09385542, 0.07836338, -0.045452133, 0.0487061, 0.05973441, -0.049682293, 0.0022061425, -0.08246987, 0.02833527, -0.027392173, 0.046701804, 0.054136217, 0.32433856, -0.33652994, 0.105961785, 0.10805026, -0.111759454, -0.052436654, 0.033623192, 0.04938672, 0.06288574, 0.11336754, -0.027407942, 0.009423579, 0.040269516, 0.06608763, 0.22295952, -0.00485008, -0.104193084, 0.027993975, -0.09865253, 0.08260464, 0.13059671, -0.023871882, -0.013577199, -0.29793033, 0.039719973, 0.104521416, 0.06806609, 0.05127779, 0.059322327, -0.039431732, 0.025161976, 0.0523103, -0.0470288, 0.14683418, 0.05861816, 0.07814953, 0.0002466189, 0.008216348, -0.06507249, 0.23722656, 0.070187524, -0.08730068, 0.0889317, 0.00579635, 0.048393488, -0.026184887, 0.11169529, 0.009386424, -0.024178024, 0.050151527, -0.081093505, -0.026940778, 0.06742965, 0.030048499, -0.0078810165, 0.016668543, 0.011117621, -0.010310003, -0.009233493, 0.08121639, 0.04455471, -0.001669793, 0.10462698, 0.10801992, 0.20832571, -0.28752106, 0.06328573, 0.08994936, 0.13280371, -0.05589135, 0.013949673, 0.0092804665, -0.0059889155, -0.024048323, -0.03006574, -0.05380367, 0.0062972545, 0.002737772, 0.12608576, 0.004763587, 0.04473174, 0.03770973, -0.043827157, 0.05172933, 0.08314431, 0.17901494, 0.027919084, -0.0028725206, 0.14521657, 0.1373987, 0.022049803, -0.0057420367, 0.049820952, 0.065243065, 0.013407686, 0.079959586, -0.041245144, 0.025786435, 0.07124595, -0.06838139, 0.019487727, -0.033565823, -0.033768624, 0.1889709, -0.012958002, -0.06529137, 0.060881563, -0.0067961994, 0.11112392, -0.0364414, 0.063361, 0.029183658, -0.05853223, -0.11794665, 0.0010417299, 0.09189112, 0.010663646, 0.021254813, 0.009295574, -0.11034853, -0.10266073, 0.020891368, -0.013998888, -0.056055542, 0.08402272, 0.03505581, -0.11048417, 0.086831175, 0.14211768, -0.09623696, -0.056634564, 0.14750877, -0.008137413, 0.016031435, -0.036445472, 0.03541851, 0.09658557, -0.14450641, 0.058967914, -0.0058471635, 0.042957608, 0.2873242, 0.0132432645, -0.063117824, 0.044129148, 0.04797731, 0.20460589, 0.115786806, 0.309635, 0.102266565, -0.032093998, 0.010145999, 0.12983067, 0.10378525, 0.05449256, -0.012103601, -0.003688216, 0.16506325, 0.044263884, -0.007981029, 0.069598116, 0.0361422, 0.09606375, 0.15301952, 0.43556783, 0.24189356, 0.0041293427, 0.08041474, -0.005988317, 0.120844916, 0.025260994, -0.013605118, 0.022939542, 0.085421, 0.08909606, -0.028637018, 0.034308515, -0.015628103, 0.072329976, 0.073336676, 0.18581133, 0.11363925, 0.049645204, -0.013952021, 0.07697264, 0.13077684, 0.060659207, 0.03113771, 0.10135469, 0.0547831, -0.026563568, 0.042812668, 0.22387594, -0.12869558, -0.047460597, 0.1927458, -0.07212136, -0.044569366, -0.07301308, 0.110540286, 0.16436574, 0.11877503, 0.024920674, 0.1022439, 0.09636331, 0.13943766, -0.08602857, 0.034568567, -0.004122732, -0.0072659706, -0.021318847, 0.056227818, 0.31788847, 0.016930565, -0.0445242, -0.12193423, 0.0906832, 0.04221445, 0.033412978, 0.08563074, 0.058381144, 0.004359018, 0.055287108, -0.03326945, 0.009090182, 0.15392277, 0.091600336, 0.009350922, 0.43005997, -0.1093803, 0.07029154, 0.13778964, 0.050745424, 0.05323488, -0.081989564, 0.045903534, 0.09048772, -0.006464983, 0.05752584, 0.14524673, 0.10049371, 0.0057693296, 0.16354665, 0.011477595, 0.05759873, 0.12039078, -0.07752541, 0.03255551, -0.09651241, 0.027756108, 0.07725884, 0.1338715, 0.11348091, -0.015139587, 0.24227251, 0.07029668, 0.20930202, -0.14133699, -0.014148712, 0.17744109, 0.13123477, 0.18371163, -0.066298075, 0.030905114, 0.22973943, -0.15252931, 0.082127325, 0.063731246, 0.12294729, 0.015969077, -0.046399366, 0.1456275, -0.028996525, -0.005325385, 0.08213844, 0.14415856, 0.23883584, -0.19611435, -0.06433746, -0.05831928, -0.057004362, 0.033548553, -0.03909437, -0.006557702, 0.03498413, -0.009516128, 0.023081224, -0.1108817, 0.0768921, 0.13928507, 0.036602087, 0.02576698, 0.23519523, 0.11314168, 0.044191573, 0.096487716, -0.08019257, 0.06785459, -0.07921158, 0.117803924, 0.04431943, 0.039724387, 0.11549656, -0.4197124, -0.071611665, -0.048343617, 0.10568803, 0.002556103, 0.09436256, 0.0061463076, 0.12211135, -0.0015292156, 0.044199277, 0.12488076, 0.0941772, -0.10953316, 0.027407616, 0.061582867, -0.05673797, 0.14463432, 0.24608144, -0.16535157, -0.015149874, 0.19840017, -0.044778876, -0.19672257, -0.050957717, 0.3661516, 0.18428239, 0.3266912, -0.06433344, 0.03971438, 0.12969546, 0.09585304, -0.093331225, -0.5684829, 0.0075419988, -0.04515314, 0.0820444, 0.17561093, 0.17035991, -0.0084588975, -0.08126913, -0.12801099, -0.038761605, -0.051542424, 0.0007930433, 0.16039729, 0.068407066, 0.08166176, 0.0027520068, 0.0076003927, -0.0027674679, 0.4827721, 0.07026892, -0.090413466, 0.03221751, -0.10606591, 0.06983636, 0.14594312, 0.080391474, 0.047902104, -0.017013453, -0.016819458, 0.1323054, 0.07507306, 0.02770738, 0.14323767, 0.03927708, -0.1994052, -0.06267008, 0.016179627, 0.098292746, 0.01964151, -0.049098417, 0.05219323, -0.039881922, 0.096093565, 0.04481103, 0.07981171, -0.03311239, -0.0116317505, -0.052688204, 0.17156918, 0.25531718, -0.16990227, -0.025829408, 0.14241098, -0.044460006, 0.19906007, 0.02942454, 0.03743213, 0.17109804, -0.2500829, 0.029956147, 0.023057371, 0.10936436, -0.09136162, -0.05209867, 0.051710602, -0.122373946, 0.018840706, -0.06483574, 0.19238062, 0.17127427, -0.06612905, -0.03595889, -0.18859152, 0.056460824, -0.02468039, -0.04237952, -0.4644157, 0.13932416, 0.12340025, 0.05844645, -0.0026147242, 0.020895557, 0.0526264, 0.16858886, -0.0891096, 0.034339402, 0.07708972, 0.055889845, 0.18044184, -0.26493207, 0.024596833, 0.03828033, -0.036877334, 0.04532072, 0.06398278, 0.16116929, 0.06610529, 0.017407056, 0.08579225, -0.12713327, -0.027274117, -0.026713697, 0.0002861223, -0.050443612, 0.016949529, 0.06693641, 0.13029158, -0.1369735, -0.16208439, -0.009182015, 0.1453223, 0.12447996, 0.13780813, 0.3244696, -0.13291883, 0.03019716, 0.12484929, 0.072907634, -0.13352758, -0.004925542, 0.11708262, 0.12968478, 0.042621076, 0.06591338, 0.0023289702, 0.08346827, 0.10492753, -0.012483549, -0.113581315, -0.23166004, 0.03118207, 0.10000344, 0.13081867, 0.19071746, -0.12787177, -0.022314932, -0.19857267, 0.032147743, 0.04566115, 0.1059329, 0.30248913, 0.18082647, 0.05585485, 0.13138388, 0.072172426, -0.18627197, 0.1668152, 0.027504, -0.08858595, 0.020100914, -0.10062977, 0.06546503, 0.22099555, 0.044597205, -0.055091552, 0.017978996, -0.14943656, 0.023919081, 0.115139626, 0.13752422, 0.06942314, 0.06127085, -0.18907394, -0.09744182, -0.054468215, 0.113777064, 0.031376883, -0.041419238, 0.07735858, -0.07082375, -0.16227783, -0.11744991, -0.0274232, 0.008290723, 0.06593084, -0.041743174, 0.081163205, 0.32968652, -0.2417466, 0.42152014, 0.14166287, -0.06830998, -0.014724223, 0.07165193, 0.05164423, 0.10294881, 0.031024972, 0.00317078, 0.018865945, 0.08756785, 0.05036048, 0.14379779, 0.10225815, -0.09682698, 0.07223261, -0.036756653, 0.1448023, 0.13998574, 0.0072981366, 0.11195879, -0.28400013, 0.022619791, 0.09910899, 0.102482304, -0.034412116, 0.053557973, 0.10417959, 0.11730285, 0.06670137, -0.0062103258, 0.071114734, 0.016292457, 0.18798941, 0.025243238, 0.020016858, -0.059295688, 0.20730348, 0.093145736, -0.10656429, 0.06341279, -0.111246385, 0.10798608, -0.1600752, 0.069626085, 0.081898525, -0.02907335, 0.02946868, -0.043690804, 0.04787376, -0.06705008, 0.13424356, 0.025780769, 0.014712112, 0.00069011416, 0.11596887, -0.024808789, -0.03278249, 0.06122261, 0.13714796, 0.11283405, 0.07892576, 0.2090707, -0.2212839, 0.11927467, 0.11932537, 0.07267802, -0.10292318, 0.014069985, 0.008116049, -0.03437539, -0.06856135, -0.005993203, -0.050854124, 0.024182007, 0.03965153, 0.22967875, 0.0051509733, -0.26596767, 0.016017623, -0.022199582, 0.08031861, 0.05221138, 0.010181773, 0.03868291, -0.02213617, 0.1696928, 0.08892787, 0.053530768, 0.077083625, 0.047156267, 0.064383425, 0.055086862, 0.036326222, -0.16699944, 0.15399963, -0.03430591, -0.06474435, 0.019425001, -0.029174484, -0.028716007, 0.17454176, -0.03841646, -0.09206073, 0.044062123, 0.002806317, 0.1114678, -0.023551658, 0.14063534, 0.004055362, -0.0025326111, -0.10077229, -0.033421457, -0.06540989, 0.09895676, -0.02275713, 0.0065514348, -0.19828732, -0.040312134, -0.042305723, -0.021651687, -0.056927685, 0.0793067, 0.11598151, -0.12352699, 0.0829188, 0.23178566, -0.1343173, -0.047364116, 0.1999651, -0.20333353, -0.049040634, -0.009173451, -0.02347115, 0.10845209, -0.0943874, 0.19170485, -0.021243487, 0.05834167, 0.35296023, 0.019208452, -0.0995034, 0.0934747, 0.015059792, 0.28351158, 0.060330175, 0.37063792, 0.1389783, -0.038393278, -0.03350311, 0.18994622, 0.11479898, 0.19372655, -0.19653769, -0.0840822, 0.2893186, 0.10340925, -0.04306504, 0.09585274, 0.25794932, 0.10407499, 0.11142885, 0.47245046, 0.32129776, 0.025551578, 0.20118918, 0.0021119397, 0.17590119, 0.10848686, -0.17891829, 0.04200296, -0.054154746, 0.19032413, 0.0626997, 0.0966963, -0.29107004, -0.007647323, 0.092888564, 0.31162545, 0.2041384, 0.024630535, -0.061728824, 0.102071226, 0.15514325, -0.030073058, -0.011669988, 0.11663252, -0.03791762, -0.13617325, 0.0784925, 0.29138082, -0.17972271, -0.08412053, 0.25399947, -0.050659418, 0.041669745, -0.07612325, 0.10648046, 0.18707538, 0.12115709, 0.15481076, 0.016070664, 0.10369921, 0.18549938, -0.13512741, 0.02865361, 0.09561583, 0.029752549, -0.09425876, 0.06456194, 0.39796382, 0.007577061, -0.106679484, -0.27582186, 0.23241849, 0.12141798, 0.19530481, 0.07440975, -0.09769732, 0.093861766, 0.11624247, 0.108750895, 0.017464831, 0.14585976, 0.008827219, -0.05101331, 0.44533667, -0.01150096, 0.011200309, 0.20102802, 0.0015515864, 0.15572573, -0.14007156, 0.16000184, -0.058100972, -0.12562521, 0.29602197, 0.15098472, 0.33919474, 0.20936152, 0.011099837, 0.13115184, -0.14872706, 0.12239329, -0.019430082, -0.054988317, -0.28603053, -0.31007522, 0.359873, 0.037821896, 0.16461712, -0.0074741156, 0.22879809, 0.039725382, 0.21927708, -0.1548063, -0.07066084, 0.26574135, 0.123224534, 0.28987172, -0.03800614, 0.038680978, 0.18210615, -0.120347954, -0.10478581, -0.0061165844, 0.14918497, -0.11336435, 0.039715774, -0.06051349, -0.015480913, -0.04629652, -0.029263554, 0.09690944, 0.27553347, -0.14717287, -0.02009929, -0.13580205, -0.16776504, -0.025941359, 0.029864766, -0.13554305, 0.0728739, 0.22465263, 0.12893386, -0.13180748, 0.04641685, 0.20813884, -0.07206166, -0.10847545, 0.2837451, 0.2296859, 0.09396277, 0.24200356, 0.017982224, 0.113077626, -0.23423888, 0.15292652, 0.109037764, 0.07952336, 0.05547417, -0.12587582, -0.1893504, -0.3131889, -0.16676359, 0.021213742, 0.2368912, -0.0011394958, 0.18106963, 0.07434348, 0.26518804, 0.09336448, 0.07830066, -0.22556448, 0.16488989, 0.0076607848, -0.10871163, 0.1764938, 0.2167714, -0.25214696, -0.100599065, 0.2399002, 0.074396566, -0.3553484, -0.05628314, -0.14446892, 0.2641163, 0.31583372, 0.07134291, 0.005493715, 0.1468126, 0.08356129, -0.065316476, -0.64044875, -0.1604198, -0.0786616, 0.1948789, 0.27778974, 0.25202402, 0.15079182, 0.004454819, -0.075566486, -0.054279417, 0.014417495, 0.009922046, 0.27341163, -0.12770662, 0.080355816, 0.17949627, -0.007994114, 0.078971185, -0.0037110527, 0.018460788, 0.006769674, 0.12234593, 0.051007546, -0.10301458, 0.22949836, 0.06755767, 0.19866534, -0.25261986, 0.13937373, -0.08465019, 0.111667044, 0.1738638, 0.2191702, 0.057326045, 0.018860959, -0.11361053, -0.032295544, -0.0069737146, 0.10572018, 0.13019362, 0.031563863, -0.2607628, 0.00014758039, 0.20869765, -0.042694245, 0.16718915, 0.16105554, -0.087082446, 0.16886944, 0.19214183, -0.23384948, 0.051945083, 0.27097338, -0.05303414, 0.23970543, -0.08239803, -0.017213706, -0.13215263, -0.30984497, -0.0033236286, -0.030171117, 0.16812286, -0.048819773, 0.031146508, -0.2728354, -0.16931278, -0.056656823, -0.07925601, 0.28640848, 0.20525855, -0.16320507, -0.017397273, -0.16019294, -0.022868533, 0.02046243, 0.14690131, -0.5519966, -0.07668899, 0.079117455, 0.16718176, 0.02218845, -0.13894947, 0.18358937, -0.018710027, -0.086069226, 0.06343398, 0.12086521, 0.0036868164, 0.26198366, 0.15569276, 0.19319977, -0.08709251, -0.21478994, -0.044099595, 0.2079881, 0.0510512, -0.16259132, -0.072680466, -0.15477839, -0.1127139, 0.0042690234, -0.10794176, 0.110183805, 0.04179708, 0.1021952, 0.065957114, 0.20322444, 0.0455149, -0.09774318, 0.106748834, 0.07286394, 0.17701755, 0.20059201, 0.35302755, -0.29307696, 0.18939485, 0.17765202, 0.004063005, -0.12477688, -0.105781265, 0.038163364, 0.055082295, -0.111624576, 0.021172378, -0.12947276, 0.09154264, 0.07194907, -0.019359676, 0.030630067, -0.41459656, 0.01293865, -0.006804951, 0.2977372, 0.20748045, -0.02803738, 0.12256775, -0.13300836, 0.06432148, 0.012407578, 0.22647476, 0.35084963, 0.04219829, 0.17412907, 0.15478401, 0.015356024, -0.09062204, 0.13204609, 0.116457626, -0.04598929, 0.0061960015, 0.05913214, -0.027311482, 0.2628136, 0.04687176, 0.14663078, -0.13429052, -0.27086782, -0.3615812, -0.05678414, 0.10011009, 0.25013942, -0.13547872, -0.02614107, -0.15237574, -0.18216653, 0.12349042, -0.08878606, -0.12230828, 0.15595709, -0.13484399, -0.3200724, -0.2311466, -0.10278782, 0.035417516, 0.11787918, -0.103738986, 0.20170552, 0.21328418, -0.25323182, 0.42884025, 0.24216521, -0.10693768, -0.09672496, 0.0321383, 0.042412344, 0.13201492, 0.24330652, 0.0059872507, 0.061461754, 0.099201635, 0.06763399, 0.04034761, 0.04798872, -0.04829152, 0.099303186, 0.023582695, 0.22926201, 0.2680679, -0.037600607, 0.13433172, -0.21719034, 0.06108691, 0.06879559, 0.07673713, -0.22293893, 0.05160779, -0.0039724796, 0.14716889, 0.081434086, -0.2659709, 0.2045146, -0.06872672, 0.21684088, 0.034420826, 0.0041031446, -0.012825821, 0.20542659, 0.2413099, -0.06905542, -0.10833709, -0.33541268, 0.08426007, 0.14636765, 0.090896286, -0.18047044, -0.014048132, -0.16006483, 0.05447839, -0.10674185, -0.022597918, 0.19384165, 0.007935224, 0.019060748, -0.15509477, 0.16427048, 0.03602666, -0.03812349, -0.093547404, 0.10960481, 0.16902931, 0.2018248, 0.27370542, -0.27849308, 0.38768017, 0.19559264, 0.051758412, -0.16731249, 0.080920145, -0.07153845, 0.110007815, -0.0450257, -0.036516365, -0.7804684, 0.032120097, 0.18155509, 0.2725512, 0.16488726, -0.23875766, 0.008740426, 0.0017626978, 0.078314714, 0.16716854, -0.09917166, 0.11785908, -0.099331215, 0.18430558, 0.10153011, 0.12175674, 0.14492033, 0.0878911, 0.118849725, 0.11110789, 0.100796744, 0.0010531909, 0.015906908, 0.022586633, -0.1030413, 0.0044842428, 0.005302468, -0.025975654, 0.1558556, -0.16357301, -0.10580173, -0.16240107, -0.16266368, 0.1702884, 0.080247305, 0.07416027, 0.15858926, -0.16717105, 0.029108573, 0.022964342, 0.021957662, 0.094347775, -0.032989856, -0.003597973, -0.37222004, 0.0074167093, 0.00821619, 0.061787017, -0.040264346, 0.029117826, 0.03997062, -0.23288141, 0.20845965, 0.23836303, -0.13972484, -0.003926502, 0.2443089, 4.6795776e-05, -0.16935584, 0.011196159, 0.0028752142, 0.10546888, -0.10515523, 0.2366122, -0.21831062, 0.056081127, 0.24274641, 0.2177349, 0.17274886, 0.115569204, 0.085112534, 0.0054230574, -0.029609669, 0.56652486, 0.13040468, 0.0726202, -0.18840621, -0.359774, 0.08855864, 0.3321151, -0.26165378, -0.27704313, 0.16630207, 0.15745862, 0.07641382, 0.030735757, 0.36854735, -0.19795178, -0.13213815, 0.46074042, 0.36906204, 0.05558188, 0.25042146, -0.37704358, 0.21207756, 0.096787855, 0.032909956, 0.11415202, -0.02299278, 0.39854646, 0.06254554, 0.1401128, -0.23413701, -0.21436475, 0.13143389, 0.04928941, 0.47529083, -0.07340412, 0.17565152, -0.5916201, -0.04610128, -0.34663856, 0.17402832, 0.1608426, 0.024363732, -0.409882, 0.10810421, 0.37003538, -0.20732057, -0.00437423, 0.30244523, 0.15505333, 0.25245064, -0.08447535, 0.012036472, 0.24113433, 0.04724456, 0.07878139, 0.049580637, 0.16800417, 0.3201047, -0.17665312, 0.19953245, -0.016363187, 0.014626126, -0.45726654, -0.2846191, 0.54134756, 0.096524395, 0.06387008, -0.38854474, 0.3082627, 0.00043702446, 0.055731744, -0.0787706, -0.175494, 0.06795995, 0.22043216, 0.21312632, -0.081137925, 0.352082, -0.10433319, -0.6004291, 0.46217614, -0.020330759, 0.0022121947, 0.37763324, 0.19368862, 0.45644438, -0.17632723, 0.14915779, 0.054954484, -0.15271378, 0.39609048, 0.24204277, 0.41736, -0.07997626, -0.9092219, 0.08602991, -0.10631205, -0.7689382, -0.15626344, -0.09367808, -0.08914878, -0.53655607, 0.21722764, 0.23842055, 0.2281961, 0.24926874, -0.25289118, 0.018166719, 0.20125283, -0.25564837, -0.035535723, 0.29684028, 0.1789954, -0.084786795, -0.25610515, 0.08367971, 0.32000652, -0.7414049, 0.021378953, 0.014515692, 0.11107817, -0.5564381, 0.04973959, -0.059863344, 0.025968993, -0.10921701, 0.13542095, -0.016423838, 0.53839356, -0.09573629, -0.096675165, 0.05911826, -0.17563683, -0.27042577, 0.087802395, -0.21858023, -0.2532045, 0.08840128, 0.283807, -0.07370154, 0.033049, 0.25919834, -0.34886634, -0.7193426, 0.358514, 0.21171308, -0.12795909, 0.48077285, -0.045493547, 0.2752878, -0.28568816, 0.33165753, 0.0015616199, -0.061652415, 0.096086234, 0.18927708, 0.054455705, -0.13975877, -0.3086542, 0.09543094, 0.28960204, -0.21428879, 0.14781095, 0.26868105, 0.11022061, -0.1244643, 0.17706773, -0.36604106, 0.26313603, -0.08191164, -0.6386916, 0.1739842, 0.3644296, -0.28855997, -0.085819766, 0.3199103, -0.5694456, 0.041975144, 0.027271314, -0.2648867, 0.086349085, 0.31828454, -0.20432198, -0.13447955, 0.2051888, 0.088267125, -0.4480051, -0.31496447, -0.31874564, -0.18505783, -0.18945314, 0.07426885, 0.38651723, 0.32591084, -0.1548804, -0.14045164, -0.2961817, -0.16524348, 0.14174499, 0.100881085, -0.24227303, -0.10159406, 0.23998581, -0.035206016, -0.18208346, 0.345286, -0.06022077, 0.21160828, 0.15471484, 0.114042655, -0.3221716, 0.47514826, 0.2409732, 0.22153366, -0.35951504, -0.09412547, -0.08245648, 0.19407365, 0.003722421, 0.2992504, -0.34619242, -0.12991272, -0.48856297, -0.010678817, 0.03296341, -0.21432489, 0.047342062, 0.14749384, -0.004734627, -0.18060614, 0.27634957, -0.02210765, 0.2099169, 0.27058664, -0.32948118, 0.24458149, 0.32576454, -0.27256843, -4.2846288e-05, 0.26944017, 0.014457309, 0.08877753, -0.12414424, -0.26543626, -0.49996376, -0.51877195, -0.054398082, -0.38618687, 0.1764565, -0.10589349, 0.1298332, -0.42311293, -0.25081447, -0.07458641, -0.28925973, 0.5072826, 0.26827982, -0.09997306, -0.08952583, -0.0702976, -0.27020454, -0.12790903, 0.12586996, -0.3661701, -0.054285157, 0.023975512, 0.24557866, 0.05644566, 0.01874419, 0.3756286, -0.06352623, -0.24276198, 0.07769129, -0.09232387, -0.39176744, 0.3874597, 0.28696963, 0.30343387, -0.13801321, -0.47808424, -0.36491296, 0.23402351, -0.50000495, -0.6674131, 0.012441523, 0.12358048, -0.18738103, 0.09093663, 0.04999746, 0.19331609, 0.04368652, 0.3279842, -0.62816525, 0.065736964, -0.3159433, -0.15142155, 0.25000343, 0.23158613, 0.16855524, 0.28094774, 0.43734446, -0.450588, 0.16450751, 0.23231305, -0.15889937, -0.049829997, -0.13411592, -0.18948257, -0.20314406, -0.37402585, 0.0102417795, -0.15219478, -0.017022237, -0.042781785, -0.025253117, -0.5026072, -0.29627565, 0.099470355, 0.19730984, 0.38316086, 0.28089637, 0.4368786, 0.028627291, -0.44374943, -0.26781547, -0.23435311, 0.1060046, 0.32050937, 0.124293074, -0.26101768, -0.101146445, 0.24854618, -0.5333374, 0.40417656, 0.155562, 0.24827869, -0.025759025, 0.066176176, -0.060168248, 0.21704397, 0.3537826, 0.089497894, -0.16886424, -0.5043121, -0.38428098, 0.20734344, 0.13322242, 0.08564499, -0.03091897, 0.12128765, 0.052379303, -0.23609059, -0.016054777, -0.13947812, -0.07942753, 0.0937196, 0.06181216, -0.3731215, -0.15661995, 0.057433862, 0.110903226, -0.035247497, -0.28543177, 0.3975225, 0.3733339, -0.71718496, 0.18764623, 0.19282015, -0.108412065, -0.09421227, -0.39472726, 0.12594213, 0.35565504, 0.44561243, -0.07371756, -0.63373977, 0.09321163, -0.04744777, -0.14665517, 0.012294627, -0.22006062, 0.16421333, -0.1346334, 0.44935113, 0.5182247, -0.11141271, 0.05103887, 0.2917777, -0.16714504, -0.16823287, 0.3209488, -0.09026228, 0.09602681, 0.062126048, 0.00016430863, 0.14994171, -0.25591362, 0.14444359, 0.15468282, 0.28616327, 0.10161031, -0.13067548, 0.04271684, 0.1343811, 0.2353196, -0.14686887, -0.10508791, -0.33403626, -0.043444205, 0.25188807, -0.3788041, -0.11262362, 0.17418249, -0.21002306, 0.063668646, -0.09219667, -0.052794497, 0.17088069, -0.036465976, -0.5372006, -0.005795792, 0.13583587, -0.2925334, -0.08796279, -0.053184357, 0.08079975, 0.291806, 0.16929474, 0.2855432, -0.34991473, 0.054784052, 0.23048563, 0.050224993, -0.6415899, -0.068033196, -0.04688444, 0.3475266, -0.02296626, -0.0725626, -1.1585472, 0.0041633807, 0.08416121, 0.38563743, 0.3296584, -0.1170579, 0.11109373, 0.0037042643, 0.06082062, 0.3617198, -0.27270508, 0.08019495, -0.24987487, -0.017617807, 0.19415882, 0.02494153, 0.22828649, 0.1412537, 0.16896248, -0.12310731, 0.27106392, -0.27612117, 0.042460345, -0.022113986, -0.103411414, -0.014106121, 0.019729337, 0.03164692, 0.10384642, -0.50227106, -0.4313038, -0.12012398, -0.16576743, 0.17696403, 0.23890026, -0.14160962, -0.03533703, 0.25427252, -0.05940476, 0.2335265, -0.1900823, -0.14179711, -0.2453786, -0.059223272, -0.40014592, 0.21234436, 0.151981, 0.10572978, 0.23514126, -0.4617587, 0.14844719, -0.8192495, 0.14338562, 0.0051445574, 0.008756059, 0.008200922, 0.004781676, 0.0039947284, 0.00038629706, 0.00196443, 0.006980469, 0.0066709635, 0.006048683, 0.0020467811, 0.0018505019, 0.0057513826, 0.00033157482, 0.00054345094, 0.0016500453, 0.00616286, 0.0036780648, 0.0019100378, 0.00049471477, 0.0033943066, 0.007048546, 0.0047377287, 0.006808686, 0.0061925817, 0.0029964987, 0.0058915955, 0.0018939137, 0.0065941405, 0.0011034522, 0.004040942, 0.007156102, 0.0011531191, 0.003945957, 0.0071703433, 0.0040117293, 0.0077534546, 0.005700269, 0.0030577532, 0.0003581214, 0.0022773412, 0.002625124, 0.0052041626, 0.0012436896, 0.008003853, 0.0076638693, 0.008122271, 0.008044814, 0.005682135, 0.0060752532, 0.004202148, 0.008237104, 0.0025894805, 0.0016146498, 0.008070663, 0.004980448, 0.007386229, 0.004704509, 0.0009063672, 0.00070072245, 0.0025654233, 0.0029784283, 0.002065462, 0.0016599502, 0.004813946, 0.002394456, 0.0059396364, 0.0015271433, 0.0069212336, 0.00030422388, 2.0011588e-05, 0.0027976236, 5.8947287e-05, 0.002600481, 0.0041340035, 0.0016125232, 0.007653856, 0.00062801805, 0.0059568956, 0.00024564617, 0.0016592836, 0.0019264142, 0.0017508707, 0.0058626183, 0.003707615, 0.0043944293, 0.007819592, 0.0043939413, 0.007170314, 0.004823339, 0.002461428, 7.900693e-05, 0.008511121, 0.00787101, 6.621725e-06, 0.0044714874, 0.0013377361, 0.00701136, 0.0029858127, 0.0007121053, 0.0042530494, 0.0017518988, 0.0028876509, 0.008741223, 0.001527894, 0.0041809743, 0.007262229, 0.008770954, 0.0056216596, 0.0035941794, 0.0041728364, 0.003516811, 0.00778807, 0.00014885412, 0.0001859771, 0.0042940937, 0.0063789887, 0.006652155, 0.005740019, 0.008775217, 0.0071596107, 0.008077304, 0.008412107, 0.0071999608, 0.007182785, 0.008598839, 0.0024817302, 0.0028973538, 0.008189309, 0.002037111, 0.006612921, 0.0066136317, 0.0078564435, 0.000888224, 0.0084990505, 0.0011801118, 0.0006832942, 0.004818951, 0.0038231825, 0.004262784, 0.004906069, 0.002376612, 0.0036510117, 0.00040903044, 0.0047806357, 0.0022043686, 0.0068099783, 0.0041857525, 0.00095650624, 0.0057234745, 0.0047308826, 0.008791165, 0.0075137364, 0.00014544163, 0.0036857307, 0.0017708793, 0.00041487886, 0.0058881696, 0.006798001, 0.0077534495, 0.0025271415, 0.0044808383, 0.0015907396, 0.005863846, 0.0044189715, 0.0029584048, 0.0025180543, 0.0062764585, 0.0026040096, 0.0055387015, 0.00042611573, 0.0042026914, 0.0004788401, 0.0062165936, 0.004127608, 0.0014146396, 0.0004502021, 0.00523272, 0.005252327, 0.0022279185, 0.007824401, 0.00536667, 0.0035553188, 0.00373944, 0.008357885, 0.0043352293, 0.0005184433, 0.0046321065, 0.0048610414, 0.005365631, 0.007188244, 0.0033673642, 0.0016801216, 0.0012328948, 0.0022662468, 0.004333815, 0.00018853608, 0.004439391, 0.004593276, 0.0044797664, 0.006367221, 0.0019751363, 0.0006943923, 0.0010377984, 0.002225514, 0.004576283, 0.0029089267, 0.007603262, 0.0067007747, 0.0036795626, 0.008672878, 0.0007078081, 0.006258614, 0.0075798114, 0.008529672, 0.008305092, 0.0005267932, 5.187909e-05, 0.0037156765, 0.008722856, 0.0009801891, 0.00093399896, 0.008308387, 0.004435181, 0.0006639191, 0.0015954863, 0.0068328725, 0.00011787177, 0.003044898, 0.008715509, 0.007826826, 0.005380534, 0.0079455655, 0.004354883, 0.0063369013, 0.0018258909, 0.0030502877, 0.0086773895, 0.0050474755, 0.006459877, 0.008635733, 0.0008379049, 0.00072813436, 0.0012331079, 0.0077080643, 0.0014472703, 0.0063030603, 0.0028991562, 0.00024210481, 0.0041666282, 0.005600061, 0.0067684557, 0.0034133948, 0.0062762033, 3.0546365e-05, 0.0021808285, 0.006462267, 0.00873678, 9.434801e-05, 0.008582085, 0.0033849047, 0.003087345, 0.004174808, 0.0044736397, 0.006455578, 0.007144209, 0.0071464004, 0.006576714, 0.0018256451, 0.0027446838, 0.00477704, 0.00016099759, 0.0069863256, 0.001492581, 0.002850254, 0.0022454006, 0.001321449, 0.0069569573, 0.0058181705, 0.0060513075, 0.0019441526, 8.31386e-05, 0.0013536796, 0.005239001, 0.0051794476, 0.004364087, 0.005022933, 0.0017268083, 0.006048604, 0.0073228925, 0.0059671625, 0.002500683, 0.007941987, 0.008265195, 0.003809556, 0.0047194543, 0.0057778344, 0.0014517038, 0.0027949072, 0.0049093347, 0.0024916462, 0.0011539636, 0.0057465113, 0.0053603384, 0.00085586193, 0.0022986145, 0.0071147378, 0.00034782535, 0.0082901195, 0.0056575355, 0.0017150932, 0.0007186761, 0.008636486, 0.0028412102, 0.0033479931, 0.0034379605, 0.005902539, 0.0071078534, 0.0036314838, 0.0043155393, 0.0087098945, 0.0074001625, 0.0028863975, 0.007272257, 0.004571697, 0.0016824112, 0.0057729045, 0.007613929, 0.0056960215, 0.003321282, 1.0220341e-06, 0.0043093236, 0.0014207287, 0.0022090792, 0.00028632893, 0.0061676134, 0.0040433365, 0.007219555, 0.005191378, 0.008043556, 0.005723661, 0.006076775, 0.0068914937, 0.0072052777, 0.0064366804, 0.0077010244, 0.0075242757, 0.0004992428, 0.0005946465, 0.005117634, 0.007144695, 0.0011700109, 0.006918209, 0.005012049, 0.001713241, 0.0051349197, 0.006215232, 0.0037802747, 0.0045723305, 0.008308262, 0.0014012402, 0.0026872333, 0.0032306039, 0.0037779976, 0.00018150604, 0.00021790818, 0.0075274995, 0.0029150357, 0.0055166706, 0.0018751624, 0.0065783304, 0.0066699004, 0.007130944, 0.0077070296, 0.004178003, 0.0069934027, 0.0006566471, 0.0021074833, 0.008755138, 0.008102066, 0.0054631215, 0.0062306486, 0.0069407406, 0.0033876756, 0.0007692569, 0.0009970655, 0.0022695756, 0.0013126172, 0.0005914886, 0.0025031853, 0.008406583, 0.005118283, 0.004799552, 0.004035225, 0.004603294, 0.0021387523, 0.005703846, 0.0073266854, 0.0002230872, 0.0031150526, 0.004952015, 0.0022470655, 0.005933576, 0.003960139, 0.0069339992, 0.0006120728, 0.008318392, 0.006981028, 0.007902386, 0.0016525295, 0.007611336, 0.0029063844, 0.004694344, 0.0011975062, 0.0051980526, 0.002558261, 0.003924612, 0.0070411093, 0.0025834139, 0.00782745, 0.005471812, 0.0002426977, 0.0063353893, 0.0009105363, 0.00086085283, 0.007897064, 0.0037425444, 0.00556343, 0.0016312117, 0.0032797083, 0.0004581447, 0.0037813603, 0.0048301397, 0.0008454621, 0.004629046, 0.0049747457, 0.0019257814, 0.0034135955, 0.0042867325, 0.006793325, 0.006349279, 0.0043181735, 0.008714378, 0.008196358, 0.0032480631, 0.004187155, 0.0039133616, 0.0023329218, 0.007933754, 0.005177785, 0.008060352, 0.0006233243, 0.0030965419, 0.0043106857, 0.0027019877, 0.005549375, 0.00012959733, 0.0069549102, 0.0061140507, 0.0004793871, 0.0010039194, 0.002894522, 0.007822567, 0.0049663535, 0.00031030766, 0.008077109, 0.00457845, 0.008648803, 0.007704543, 0.007579336, 0.0037621388, 0.00872849, 0.0038799234, 0.005466044, 0.00030367862, 0.0051477985, 0.0027314571, 0.0076416647, 0.0016603274, 0.00033074527, 0.0024672279, 0.0071179685, 0.0059477175, 0.0048007234, 0.005452511, 0.000105229534, 0.004838152, 0.0049358155, 0.008406199, 0.0050457944, 0.0037829513, 0.0044605536, 0.0025255214, 0.008659934, 0.0018053186, 0.0010227836, 0.0025180252, 0.00534272, 7.21448e-05, 0.007574759, 0.0047430387, 0.00524828, 0.0027450242, 0.0074041635, 0.0064815306, 0.0073788264, 0.0024428267, 0.0007408314, 0.008289583, 0.0008167998, 0.004309927, 0.0026093554, 0.014285598, -0.038360424, -0.15224874, 0.12772278, -0.17775123, -0.38046345, -0.18019985, -0.23811537, -0.16156855, -0.09806779, -0.07450504, 0.03796863, -0.08424529, -0.32438192, -0.04046341, -0.23459108, 0.0414554, -0.19401914, -0.20730706, -0.047794387, -0.11726611, 0.010447174, -0.07490786, -0.20867297, -0.04298869, 0.08111063, -0.12608929, -0.17877914, 0.06307844, -0.02639205, -0.06904448, -0.08795319, -0.09529668, -0.22592682, 0.10788499, -0.1795781, -0.23431681, -0.07368605, 0.056368463, 0.013586703, -0.13558072, -0.018183941, 0.09771918, 0.004534368, -0.07836036, -0.071326524, 0.05560922, -0.09900319, -0.27425486, -0.12794563, 0.052452203, -0.010840678, 0.006638592, -0.09844013, -0.01680395, -0.25161037, -0.2678167, -0.13363306, -0.13396263, -0.15501963, 0.055520136, 0.019696128, -0.12376833, 0.12014401, 0.10884703, -0.053144913, -0.04621145, 0.18151502, -0.12003063, 0.07720522, 0.026598342, -0.048794433, 0.021147106, -0.084480286, 0.060289517, -0.18894836, -0.16114984, -0.1510827, -0.018599527, -0.120544545, 0.0026826884, -0.110338755, -0.08118473, 0.0485511, 0.1118615, -0.094269864, -0.1551327, -0.098027214, 0.016551767, 0.020046443, 0.040079158, -0.13833742, 0.105365485, 0.08943749, 0.03502682, 0.037912853, -0.095808916, -0.09920287, 0.013806399, -0.01263431, -0.090023175, -0.17181504, 0.0063023074, 0.03667987, -0.08694043, 0.066249475, 0.16341822, 0.08107225, 0.058591943, 0.031249205, 0.06371584, -0.06160873, -0.04155598, -0.045276217, 0.047129147, -0.05793454, -0.08862976, -0.21850112, 0.1277225, -0.13252392, -0.064799026, -0.011708454, 0.047058117, -0.10858443, 0.040372025, 0.0125557175, -0.04064179, 0.085822076, 0.015123477, -0.002396103, -0.032799937, 0.12977624, -0.21214469, -0.010047508, -0.057249133, 0.06786175, 0.17522673, -0.09124383, 0.12192511, -0.13510521, -0.14704326, -0.097994395, 0.018564938, -0.18560162, 0.02346156, -0.15880987, -0.18500412, 0.031967305, -0.04619734, -0.09397099, -0.10142936, -0.045416158, -0.04594552, 0.082325, -0.044355392, -0.08765907, 0.064600416, -0.043817755, -0.04574895, -0.03680569, -0.07717506, -0.14158998, 0.12780893, 0.033668276, -0.020983513, -0.1452673, 0.000299059, 0.03328369, -0.15732421, 0.005104121, 0.13511296, -0.024372123, 0.009769924, 0.17380711, 0.1142119, -0.013057526, -0.14735648, -0.059957694, 0.08019225, 0.11338186, -0.10465437, -0.043439113, 0.07528318, -0.15063156, 0.014980547, -0.100284055, 0.14642006, -0.09404234, 0.11453293, 0.027389556, -0.1911437, 0.1439874, 0.08124926, 0.11347071, -0.07250007, 0.12341202, -0.016036943, 0.0682826, -0.0839514, 0.025213104, 0.07090972, -0.04188601, 0.11270959, -0.1146198, -0.107848905, -0.0897329, -0.055635564, -0.055665284, 0.0027046665, -0.11170356, -0.08875001, 0.0497241, 0.043167584, -0.071465686, -0.11644122, -0.14156659, 0.029405097, -0.027794957, 0.046227373, -0.17144784, 0.094776034, 0.10537913, 0.07296427, -0.006163316, -0.099783614, -0.12294159, -0.052831747, -0.016542096, -0.035342027, -0.095987834, -0.0077576856, 0.10106482, -0.00502549, 0.020371592, 0.2110376, 0.11196624, 0.19191131, 0.05065244, 0.031178633, -0.05631882, -0.060223546, -0.056410562, 0.1373086, 0.015730428, -0.084254466, -0.10550633, 0.048757575, -0.09139782, -0.029546399, 0.0027350448, 0.04982279, -0.065098464, 0.11168613, 0.08423457, -0.14130849, 0.13790044, 0.09586474, 0.046028625, -0.008135329, 0.18654221, -0.12567307, 0.01641184, -0.20434365, -0.0032036866, 0.08499384, -0.096126266, 0.124003634, 0.006572047, -0.15374033, -0.10822726, -0.041021183, -0.1534345, 0.075695224, 0.015210581, -0.0035432165, 0.08402018, -0.05464438, -0.04314896, -0.066030174, -0.08471801, -0.07445158, 0.007133698, -0.007655974, -0.09635901, 0.039007567, 0.03904748, -0.010138617, -0.0057837474, -0.09519889, -0.10437571, 0.037594225, 0.040875643, -0.068433434, -0.08837594, 0.052155804, 0.11275375, -0.0814067, 0.06083394, 0.18084972, 0.12449724, 0.05298401, 0.13811031, 0.13478933, -0.016846828, -0.05805222, 0.00082168524, 0.14383583, 0.063425854, -0.05874207, -0.041499306, -0.012408906, -0.13987559, -0.13918559, -0.09057751, -0.031347543, -0.03943854, 0.08469151, 0.12402876, -0.14567551, 0.14067613, 0.07717339, -0.007252389, -0.07457956, 0.11193139, 0.021553682, 0.04524832, -0.074338816, -0.027152361, 0.05832095, 0.037626684, 0.10747478, -0.07376118, -0.15909438, -0.0954483, -0.07367375, -0.06385745, 0.080868386, 0.054190937, -0.07992121, 0.06581393, 0.014998869, 0.021455908, -0.02708266, -0.005158569, -0.03275279, 0.13067147, 0.049867496, -0.1826283, 0.02284415, 0.020188352, 0.0608792, 0.042771667, -0.048479453, -0.1601414, 0.010708209, 0.0035360185, -0.07614228, -0.050056662, 0.012026523, 0.08669918, -0.057782948, 0.1198132, 0.19348973, 0.11009862, 0.18037198, -0.00560711, 0.028466184, -0.047019083, -0.064219385, -0.07695149, 0.12839727, 0.09487937, -0.03927514, -0.11466624, 0.06884328, -0.14753143, -0.12374571, -0.031861223, -0.04388647, -0.05523511, 0.0220938, 0.09433631, -0.079957426, 0.15055591, 0.09336693, -0.006633079, -0.104296714, 0.21195418, -0.169846, 0.05859912, -0.02194138, 0.023912383, 0.06586697, -0.119848594, 0.09614436, -0.11893213, -0.15517743, -0.120869614, 0.040482357, -0.14243954, 0.12934199, 0.17698139, -0.023901248, 0.08737076, 0.085228615, -0.017932994, -0.077819504, -0.13881236, 0.07371657, 0.08481889, -0.032803673, -0.034921546, 0.01206624, 0.08267526, -0.025686353, 0.0675169, -0.052182585, -0.101916805, 0.1042304, -0.02060108, -0.11615557, -0.12966342, 0.07336627, 0.09127325, -0.033000033, 0.039526798, 0.12735961, 0.09474456, 0.0945304, 0.006820228, 0.1404639, -0.037865955, -0.16766167, -0.033654775, 0.13170014, 0.05238905, -0.078482315, -0.037752938, 0.06132833, -0.13974234, -0.15746327, -0.15506771, 0.043899335, -0.1301858, 0.089949146, 0.036199722, -0.14667472, 0.07336375, 0.042050667, -0.16786729, 0.05398833, 0.110262305, -0.06995778, -0.13614608, 0.06527795, 0.036663637, -0.1895224, -0.28782317, 0.035286743, -0.24489109, -0.1278662, -0.086595334, -0.29173547, -0.2552491, 0.18629353, 0.02811458, -0.339199, 0.060539927, -0.017339887, -0.13164134, 0.06512097, -0.13698559, 0.011627264, 0.046691295, 0.074069485, -0.124493085, 0.05514502, 0.013756522, -0.084933504, 0.094091676, -0.02951781, -0.25570837, 0.025401697, 0.20285368, 0.03498629, -0.3162764, -0.09984402, -0.03278629, -0.21011916, 0.008009674, 0.24155217, -0.072773926, 0.009481913, -0.16148621, 0.0270993, -0.10163003, -0.14190851, -0.17156105, -0.06380175, -0.14981113, 0.07829677, -0.26840383, -0.16774899, -0.1502272, -0.17640746, -0.24560884, -0.0223557, -0.20754695, 0.06747735, 0.0915715, -0.15654702, -0.045334, 0.04049129, 0.040655073, -0.023267547, 0.1363297, -0.13011646, 0.032046374, 0.038688943, -0.0117794685, 0.14166869, -0.09477763, 0.122284785, -0.21018086, -0.12526444, -0.23380552, -0.117936894, -0.10581057, 0.025417337, -0.2977041, -0.13694528, -0.063378744, -0.06825393, -0.10817871, -0.1259171, -0.09431883, -0.036125503, 0.043001395, 0.0662362, -0.0927092, 0.14167449, 0.1401395, -0.037799764, -0.04669159, -0.14026484, -0.14982294, 0.07118843, -0.063704066, -0.11639756, -0.19263972, -0.011635764, -0.036186285, -0.07225374, 0.014960374, 0.1266365, -0.016762447, 0.096408, 0.13636029, 0.06600317, -0.03601767, -0.03123598, -0.11643556, 0.060733605, 0.009685847, -0.064674966, -0.16444379, 0.07258176, -0.13010898, -0.08530028, -0.045450114, -0.06466614, -0.16155787, 0.056758646, 0.0648292, -0.13654473, 0.09003614, 0.11812238, 0.05484965, 0.012678512, 0.17478581, -0.07794639, 0.08965796, -0.053844653, 0.0039320127, 0.14629073, -0.1338381, 0.22245173, 0.0061495816, -0.08530947, -0.13290153, -0.1020781, -0.13478495, 0.0109741725, -0.16038184, -0.12871775, 0.052660666, -0.0913389, -0.13823245, -0.21242265, -0.068501234, 0.006439594, -0.09891077, 0.10913728, -0.22457226, 0.09528054, 0.06918272, -0.119795635, 0.022456523, -0.084275134, -0.25636807, 0.037652586, -0.06667517, -0.013206753, -0.11257281, -0.03901921, 0.05087538, -0.025918137, 0.09759893, 0.11820796, 0.12467665, 0.014276074, 0.09957551, -0.0049159946, -0.056727093, -0.102927044, -0.06205643, 0.1546981, -0.0060837083, -0.1370876, -0.11350302, -0.019474536, -0.24320832, -0.22653183, -0.05547782, -0.0567672, -0.08912638, 0.04011627, 0.012579009, -0.12637703, 0.08084537, 0.111601375, 0.05475111, -0.0338041, 0.20201574, -0.11047837, -0.03170203, -0.028936025, -0.032740384, 0.18491422, -0.1464417, 0.069603056, -0.16425925, -0.13334739, -0.048500348, -0.077610746, -0.072353885, 0.044962745, -0.1601404, -0.08941824, 0.10500053, 0.039226737, -0.040875737, -0.07305537, -0.049957097, -0.014781846, 0.06984261, -0.077459574, -0.05787482, 0.07189558, 0.032186422, 0.05750765, -0.014417065, -0.040089242, -0.08323098, 0.054299828, -0.03149744, 0.037292812, -0.047974464, 0.050416037, 0.122051306, -0.014429376, 0.003780165, 0.16478662, 0.06153909, 0.14138645, 0.1445694, 0.058835186, 0.0018966391, -0.1184952, 0.046358682, 0.10098549, 0.14027046, -0.0774815, -0.09723401, 0.07687512, -0.15326868, -0.052313145, -0.01727938, 0.0036697488, -0.031135112, 0.015187399, 0.069655016, -0.07872983, 0.15375395, 0.1315431, 0.059312534, -0.04995241, 0.17423443, -0.10618234, 0.0147803975, -0.042729724, -0.107908435, -0.010283206, -0.08615167, 0.15276538, -0.116346866, -0.12976784, -0.15694265, -0.018598033, -0.09212605, 0.069686994, 0.004926187, -0.010482185, 0.18941508, 0.035747163, -0.08171616, -0.06668414, -0.09464771, -0.07143569, 0.081425704, 0.100332044, -0.15773991, 0.027930839, 0.030698592, 0.05586592, 0.02352743, -0.015726205, -0.12902981, 0.06242341, -0.03573808, -0.0048533934, -0.10414672, 0.08636187, 0.11996753, -0.12400538, 0.055524644, 0.11392649, 0.17901981, 0.21086444, -0.035287645, 0.10415964, -0.029481923, -0.057226375, -0.03166231, 0.07093167, -0.04601305, -0.064881444, -0.15944187, 0.08720244, -0.1265192, -0.11602384, -0.06466356, -0.022161799, -0.041452598, 0.03371205, 0.029406374, -0.036445107, 0.113718495, 0.14270277, 0.062229957, -0.07504557, 0.20035516, -0.11065788, 0.019668475, -0.078881666, -0.05440926, 0.08777474, -0.046390064, 0.07035534, -0.12967278, -0.13449149, -0.11796823, -0.063687615, -0.18441029, 0.02238656, -0.012405377, -0.07684607, 0.18788832, 0.03576957, -0.013319906, -0.04354608, -0.024236327, 0.051109754, 0.024057535, -0.07583086, -0.004838514, 0.004558909, 0.022101216, 0.12352712, 0.082808055, -0.03610962, -0.01040905, 0.119455114, -0.004736911, -0.03751069, -0.10481556, 0.11467893, 0.1354613, -0.005950016, 0.08039533, 0.18325588, 0.06292282, 0.17379698, 0.16558376, 0.040518507, -0.032430835, -0.08649569, -0.041698962, 0.061565474, 0.11206698, -0.06754128, -0.031983323, 0.07264501, -0.14894466, -0.00013154026, -0.06977323, 0.0125904335, -0.08600313, 0.11191836, 0.06483567, -0.065489665, 0.06085565, 0.13540724, 0.03078105, -0.058504354, 0.14272738, 0.02966272, -0.029532997, 0.07446652, -0.04524336, 0.04567844, -0.02113675, 0.18198729, -0.066763856, -0.13137776, -0.09092966, 0.0060455543, -0.1105056, -0.0058114454, 0.028389284, -0.12270729, 0.18496567, -0.011878736, -0.0054493067, 0.010821991, -0.13587631, -0.024278143, 0.18635122, 0.119726986, -0.15497059, 0.032793414, 0.1425407, 0.07460595, 0.057575583, -0.050874345, -0.10943252, 0.076074995, 0.05242374, -0.03356987, -0.075450234, 0.062452514, 0.16522889, -0.110703915, 0.02240966, 0.197181, 0.07584911, 0.13602884, -0.017830253, 0.09374587, 0.08021907, -0.061783504, -0.18345505, 0.10191533, 0.0075694486, -0.0046873586, -0.048629414, -0.020267248, -0.070606925, -0.10345261, -0.024678394, -0.0024395124, -0.0045354543, 0.1361817, 0.109492525, -0.067758314, 0.15981373, 0.14711756, 0.09585239, -0.1602751, 0.11599608, -0.06595578, 0.09380935, -0.05829003, -0.024360055, 0.037906103, -0.058303684, 0.054657415, -0.10949562, -0.14837573, -0.071452394, 0.0016093446, -0.036284078, 0.02529037, 0.050201897, -0.027734324, 0.016609129, -0.029669896, -0.022393346, -0.025309555, -0.010469871, 0.031251255, 0.091520496, 0.03952273, -0.06109255, -0.033714756, 0.011304009, 0.08320327, 0.00997856, 0.016382793, -0.15519032, 0.05163009, 0.01250411, -0.038360383, -0.06198082, 0.04973012, 0.14047088, 0.121857315, 0.0814636, 0.19469744, 0.07814649, 0.13226293, 0.0738185, 0.12135008, -0.10199551, -0.14992718, 0.013358596, 0.12101938, 0.19021283, -0.14296731, -0.038470175, 0.0069873394, -0.18001233, -0.077039726, -0.11864574, 0.09012023, -0.057193115, 0.048629526, 0.20562081, -0.13693663, 0.03982255, 0.061146665, 0.041705415, -0.096943624, 0.10002974, -0.11552883, -0.020090137, -0.14333306, 0.06460735, -0.05722744, -0.03668693, 0.19437364, -0.03219536, -0.19023018, -0.12684514, 0.039511386, -0.1810928, 0.1438803, 0.1362712, -0.0237455, 0.08234254, 0.021143688, -0.13561612, -0.040874455, -0.20875046, -0.03911947, 0.056318015, 0.031029971, -0.041943558, 0.06862004, 0.066126, 0.09595487, 0.028359078, -0.012025912, -0.098203085, -0.08067616, 0.0017837067, -0.077541515, -0.07492046, 0.08212624, 0.15550762, -0.105472855, 0.088980414, 0.13121153, 0.07005369, 0.11218121, -0.057112735, 0.07314419, -0.03868342, -0.12140751, 0.0014010958, 0.0762283, 0.009599338, -0.034167584, -0.1406401, -0.0028691075, -0.11370997, -0.20455845, -0.11599464, 0.0021422405, -0.06613309, 0.019308144, 0.124393396, -0.1534119, 0.02513972, 0.03992342, 0.014637478, -0.037448578, 0.15103218, -0.11727612, 0.076299086, -0.009075661, -0.14129274, 0.073040545, -0.11210743, 0.06587507, -0.1448963, -0.15625787, -0.13329329, -0.09476875, -0.07282067, -0.049329072, -0.15581521, -0.12095444, 0.054534666, 0.037502676, -0.07574021, -0.12983586, -0.13856664, 0.006022402, -0.03493431, 0.051838275, -0.12538044, 0.06364593, 0.13849808, -0.018565945, 0.0153074935, -0.09480047, -0.04595125, -0.005783598, -0.00212489, 0.022937259, -0.1381521, 0.018676782, 0.01983273, -0.08341923, -0.033325117, 0.13300465, 0.117096804, 0.12765422, 0.028119376, -0.00031650276, -0.009936942, -0.14600731, 0.03611887, 0.0838016, -0.032872654, -0.10080988, -0.16298242, 0.13691121, -0.13215904, -0.15643981, -0.012835205, 0.103161186, -0.032133523, 0.03562498, 0.0063216095, -0.07873328, 0.12667653, 0.06919473, 0.06292057, 0.00663375, 0.17589235, -0.25030175, -0.16008808, -0.01626073, 0.035118394, 0.12992272, -0.042803418, 0.056455977, -0.062722206, -0.113055214, -0.036469772, -0.0015056459, -0.12743922, 0.08797951, -0.050778758, -0.050774556, 0.1412861, 0.06562144, -0.12892212, -0.07256448, -0.013160015, -0.03125848, 0.1372053, 0.038724694, -0.075054474, 0.08207237, -0.07079603, 0.10800002, 0.0198887, -0.013981197, -0.06835218, 0.11762065, -0.05642436, 0.048224732, -0.041041207, 0.096065484, 0.1312212, -0.16972098, 0.06916925, 0.1124362, 0.113231115, 0.10252594, 0.058565944, 0.15686782, -0.072283335, -0.1013498, -0.03661522, 0.08400664, 0.066999, -0.064103514, -0.12205207, -0.0104668755, -0.12995869, -0.06839739, -0.09163928, -0.036122587, -0.07926868, 0.069213055, -0.031693116, -0.07671622, 0.13941741, 0.10662768, 0.078328215, -0.05962922, 0.16744882, -0.03987809, 0.031277116, -0.018970331, -0.16123177, 0.11174409, -0.11525702, 0.12267736, -0.118044935, -0.14831738, -0.17374752, -0.02885668, -0.12125452, -0.078809045, -0.081064664, -0.066640034, 0.15371078, 0.1271625, -0.007252975, -0.0648153, -0.09003517, -0.0058638155, 0.05990813, 0.081929125, -0.09247766, 0.007051821, 0.16134816, -0.016069042, 0.048434373, -0.022358976, 0.074830756, 0.103229456, -0.10324665, 0.017196463, -0.17601188, 0.068353064, 0.14896272, -0.020733371, 0.05745871, 0.13605244, 0.121406786, 0.15559945, 0.11449039, 0.07050309, -0.08979228, 0.021587526, -0.052238878, 0.07472816, -0.02279117, -0.06057525, -0.15637669, 0.13758337, -0.09508645, 0.07107165, 0.017423423, -0.046004698, -0.025307875, 0.06950289, 0.07462584, -0.107128896, 0.10595222, 0.14492607, 0.08922041, -0.043635055, 0.14851998, -0.17909677, 0.039010532, -0.039352845, 0.01789217, 0.18470518, -0.092180975, 0.17979823, -0.08396382, -0.1349555, -0.09383663, -0.043675333, -0.12844881, 0.1522628, -0.035285525, -0.024107337, 0.19481908, 0.07403076, -0.06987669, 0.008070413, -0.07367179, -0.014516583, 0.20462644, 0.049309656, -0.14118263, 0.0011849111, -0.038305208, 0.015658248, 0.08304495, -0.001630525, -0.039197575, 0.19496015, 0.08943716, -0.018188505, -0.07198432, 0.14470701, 0.13669157, -0.1287574, -0.012838512, 0.13245589, 0.08912877, 0.08336234, 0.15221456, 0.1366365, -0.0020647002, 0.01177218, -0.07668642, 0.058509618, 0.06663615, -0.058210343, 0.041277047, 0.04465998, -0.102725275, -0.03502871, -0.08422639, -0.12384468, -0.02957185, 0.055794787, 0.086623825, -0.08837458, 0.17682512, 0.19476543, 0.08607396, -0.057905298, 0.20312534, -0.018743053, 0.0909965, 0.028594824, -0.14263822, 0.1729427, 0.022355601, 0.16800892, -0.077650644, -0.10703706, -0.12420052, -0.07119737, -0.047947004, -0.0025185694, -0.0047011627, -0.08132836, 0.17586051, 0.042513613, -0.061288286, -0.03558183, -0.102566585, -0.06787143, 0.1790957, 0.04159842, -0.052267022, -0.016651623, 0.17319416, 0.18314473, 0.06030042, 0.017122727, 0.026731992, 0.1454743, 0.03371781, -0.004243413, -0.018104918, 0.00055474514, 0.16515453, -0.092029124, 0.06321448, 0.15907478, 0.14385897, 0.29984668, 0.053227533, -0.0029127302, -0.025000216, -0.08770026, -0.01701782, 0.13641529, 0.14532313, -0.06984972, -0.066757575, 0.09456949, -0.14175048, -0.074792005, -0.020399477, 0.023247184, 0.03564596, 0.02313371, 0.09006077, -0.12712838, 0.10455924, 0.15803605, 0.05471229, -0.071601115, 0.12415074, -0.20297535, -0.042127598, -0.019533608, -0.013484638, 0.12061524, -0.20089324, 0.0916328, -0.05629191, -0.15583856, -0.08332853, 0.048109718, -0.119188964, 0.07198367, 0.04197631, 0.10269876, 0.16842256, 0.064835034, -0.068444066, 0.00991949, -0.11705369, -0.03886665, 0.11998018, 0.012422198, -0.0937764, -0.024729235, 0.042183116, 0.09043271, 0.0629179, -0.07801953, -0.106357135, 0.016321614, -0.09914987, -0.05453477, -0.079590484, 0.20063771, 0.2007969, -0.09259722, 0.0097098285, 0.16009614, 0.051869452, 0.10402735, 0.112127215, 0.11259371, -0.029725336, -0.033582877, 0.027856348, 0.07052128, -0.017347766, -0.053774375, -0.017369885, 0.031528868, -0.1296017, -0.15533441, -0.13884869, -0.07329721, -0.048141543, 0.015673159, 0.038313054, -0.1237231, 0.08742827, 0.2638178, 0.0039772, -0.10868785, 0.1229703, 0.035143293, -0.021027004, -0.05400757, -0.07299854, 0.053553436, 0.0072160712, 0.08392404, -0.08098195, -0.12496545, -0.09696661, -0.088566355, -0.12567148, 0.025707055, 0.08818344, -0.17801598, 0.18196163, 0.08522205, 0.035230026, -0.0105420165, -0.045567255, -0.021303056, 0.20967199, 0.097503, -0.10295671, -0.021197569, 0.020801593, 0.07103309, 0.029598532, 0.017753629, -0.033936385, 0.16299719, 0.03688, -0.075857304, -0.1051701, -0.031626027, 0.17239507, -0.04716989, 0.0963363, 0.19055083, 0.087103665, 0.18710892, 0.022861173, 0.0003036008, 0.032309517, -0.022677515, -0.06071249, 0.06761029, 0.22499195, -0.009973911, -0.15393077, 0.06866652, -0.16109142, -0.05275957, -0.0151784485, 0.047576305, -0.03407999, 0.08662578, 0.090294376, -0.08195808, 0.040118266, 0.14581802, 0.036766287, -0.13506277, 0.09779768, -0.19909771, 0.112577125, 0.020609705, -0.025300864, 0.054750353, -0.058241006, 0.078248434, -0.05120873, -0.14690627, -0.1100605, 0.06878616, -0.089297846, -0.060074564, 0.1389127, -0.006009847, 0.11228197, 0.04589947, -0.082151026, 0.039192278, 0.01271622, 0.13378057, 0.0077874316, 0.08490105, -0.054372296, -0.07495645, 0.07969713, 0.0077445894, 0.017689493, -0.08640475, -0.054839484, 0.022547822, 0.0808668, -0.12486366, -0.14449744, 0.13085562, 0.12446482, 0.036792617, 0.0077535384, 0.12667845, 0.029806856, 0.13504441, 0.049687378, 0.11788941, -0.00068923656, -0.11463403, -0.14928766, 0.05138066, 0.012646034, -0.23831679, -0.00427712, 0.053690124, -0.08205334, -0.086919025, -0.11129288, 0.010444477, -0.16351263, 0.121219546, 0.1839387, -0.12693237, 0.060373444, 0.13286072, 0.027629685, 0.013360154, 0.17652905, -0.21751776, 0.01648847, -0.0079360185, -0.03717643, 0.12232832, -0.12953417, 0.12456956, -0.1338266, -0.08249153, -0.14288703, -0.08956572, -0.24290967, -0.024894875, -0.20283403, -0.18930884, 0.25096264, 0.038061652, -0.102947906, -0.14459434, -0.08606541, 0.027515093, -0.04198686, 0.083582476, -0.08496131, 0.035192836, 0.12084891, 0.008047516, 0.133175, -0.06196033, -0.13721243, 0.102455094, -0.10315971, 0.03058264, -0.08711351, 0.08997389, 0.090534076, -0.057273764, 0.07548301, 0.044507228, 0.089780524, -0.04951892, 0.038438488, 0.10532039, -0.048906762, -0.064395726, -0.097016945, 0.06993524, 0.0067972667, -0.05720101, -0.18230276, 0.0953732, -0.13787098, -0.12205022, -0.033726994, 0.016880447, -0.18020159, 0.116137154, -0.070355505, -0.124420345, 0.08370406, 0.09954155, 0.052335296, -0.02510394, 0.18766755, -0.13818559, 0.13680483, -0.0048585306, -0.10341904, 0.26958388, -0.12820466, 0.118691266, -0.06883366, -0.09009649, -0.08809149, -0.04356364, -0.1392623, 0.09986295, -0.047156557, -0.038327612, 0.058402725, 0.13013726, -0.21369328, -0.09186156, -0.055548232, -0.1072652, 0.15643476, -0.049380533, -0.067898795, 0.048068415, 0.13471086, 0.039144356, -0.032177582, -0.09214229, 0.032409467, 0.12941115, -0.06460549, -0.0028022004, -0.14336984, -0.01647981, 0.14470267, -0.0918495, 0.023849208, 0.03902331, 0.11129334, 0.0909114, 0.20796648, 0.16478728, 0.06575878, -0.18146507, 0.008724805, 0.096360944, 0.058487523, -0.07165634, -0.041519176, 0.056740142, -0.16464968, 0.012586557, -0.060504954, -0.050860748, -0.0325453, 0.010866604, 0.0063001206, -0.1273982, 0.105569236, 0.160973, 0.10435983, -0.038627986, 0.21646816, -0.20872706, 0.03049067, 0.002657515, -0.18157718, 0.18139242, -0.06159445, 0.14046498, -0.06766965, -0.070504785, -0.16702469, -0.11780199, -0.115032405, 0.034857433, -0.030614657, -0.055389263, 0.22251512, 0.10857743, -0.11763873, -0.07428306, -0.1815475, 0.036585413, 0.14112255, 0.16088063, -0.10401496, -0.021473132, 0.031082423, 0.054676935, 0.098810256, -0.026014065, -0.091218784, 0.05635502, -0.05046886, 0.061241888, 0.0007683724, 0.14229682, 0.10477438, -0.14989038, 0.027977547, 0.0745657, 0.1349916, 0.15082522, -0.07855042, 0.011350088, 0.00016200304, -0.118252784, 0.06549764, 0.1065471, -0.031648844, -0.15383601, -0.11420926, 0.124998726, -0.18809876, -0.12132889, -0.08743884, 0.013505543, -0.04542523, 0.10428765, -0.008484421, -0.08709614, 0.12861018, 0.14165536, 0.08280438, -0.05186342, 0.20705342, -0.21581213, -0.1486558, -0.062339593, 0.1172661, 0.23885675, -0.13505928, 0.07950404, -0.039480217, -0.084665656, -0.06448829, 0.03785985, -0.11421002, 0.034409378, 0.021320343, -0.10968578, 0.14815702, 0.11194565, -0.025106428, 0.054396, 0.014678597, -0.01821679, 0.009267024, -0.023030516, 0.019145533, -0.02992114, 0.09925753, 0.087448224, 0.04456411, -0.028402135, -0.17160405, 0.14469498, 0.073843084, 0.02791903, -0.09709947, 0.058179643, 0.22036745, -0.1408159, -0.013907096, 0.09002573, 0.066416904, 0.18998508, 0.12286389, 0.14532413, -0.06424733, -0.00044567906, 0.03540401, 0.08434972, 0.13395591, -0.09668799, -0.047861826, 0.070785075, -0.110937744, -0.1322369, -0.1447363, 0.012226972, -0.011974003, -0.04070741, 0.057469804, -0.08143202, 0.14085506, 0.19476971, 0.11915673, -0.08687138, 0.21595952, -0.054046, -0.084135294, 0.021353021, -0.08416452, 0.17593819, -0.1393997, 0.23321804, -0.08485971, -0.017881623, -0.08852909, 0.047532123, -0.14736389, 0.024503196, 0.042510383, -0.03951925, 0.12710041, 0.12247373, -0.049687225, -0.024171405, -0.003213634, 0.04225998, 0.2706308, 0.14365633, -0.2030588, -0.059231047, 0.062149927, 0.023595506, 0.07505503, -0.043455817, 0.0032537833, 0.09748744, -0.07306116, 0.021566173, -0.05527751, 0.1643971, 0.19862786, -0.12661293, -0.01594904, 0.08915052, 0.0702449, 0.27073333, 0.09169625, 0.03079717, -0.011924696, -0.059684172, -0.25155878, -0.047417533, -0.09629727, -0.0878223, -0.17971297, 0.057559896, -0.11941147, -0.1568504, -0.018576177, 0.07454201, 0.061709523, 0.13245857, 0.032135013, -0.023189966, 0.11792177, 0.20362213, 0.10200578, -0.104775526, 0.20562266, -0.12297226, 0.08915244, -0.014090286, -0.08964307, 0.13523383, -0.038569212, 0.049349297, -0.09204484, -0.1064637, -0.03070208, -0.022376403, -0.13033766, -0.039680723, 0.020654133, -0.06460203, 0.23632124, 0.08511698, -0.07436523, 0.099406324, 0.06419029, 0.005384232, 0.02538836, 0.065170184, 0.030807605, -0.048691966, 0.055656902, 0.15590215, 0.089990154, 0.07906684, 0.09572677, 0.20802504, 0.07934952, -0.0820253, -0.11887935, 0.11991307, 0.17295684, 0.10400879, -0.046318926, 0.1895783, 0.01599747, 0.080216125, 0.10105808, 0.23210941, -0.00734113, -0.049825646, -0.07190459, 0.04882417, 0.15196441, -0.0722237, -0.047287133, 0.07520571, -0.14114365, 0.025224634, -0.096464574, -0.09322103, -0.08752616, 0.08390375, 0.093803644, -0.15332451, 0.032577995, 0.2256264, 0.09819997, -0.06773248, 0.20255734, -0.08097539, -0.0020781467, 0.086514585, -0.09741158, 0.100930125, -0.015779266, 0.17468253, -0.056824766, -0.07185578, -0.20023844, -0.12949353, -0.23997542, -0.020869076, 0.07324208, -0.04013751, 0.05342513, 0.11311928, -0.049734876, 0.043972064, -0.23083636, -0.058534823, 0.26163444, 0.075196356, -0.12675354, -0.09114044, 0.06848906, 0.06482796, -0.0006965199, -0.041602436, 0.007590315, -0.05812332, -0.056729097, -0.10151198, -0.07857801, 0.06394726, 0.2656252, -0.16462481, 0.069352515, 0.056596, -0.07706761, 0.25560433, -0.13067922, 0.12438216, 0.0018869137, -0.03033611, -0.037449118, 0.10373871, -0.04201898, -0.0713517, -0.08001386, -0.030316241, -0.10721779, -0.14306954, -0.08348204, 0.0022677872, 0.03896981, 0.07216745, 0.10188399, -0.13952084, 0.1102955, 0.1593423, 0.10139389, -0.1345687, 0.15004665, -0.15634276, 0.07146183, -0.16632655, 0.00807073, 0.024701122, -0.08483181, 0.020415677, 0.004055904, -0.10272213, -0.11129669, 0.07021357, -0.19999203, 0.061386563, 0.084485084, 0.0006581521, 0.13823381, 0.059434667, -0.054204214, 0.11895243, -0.14374284, -0.047538467, 0.052184384, 0.039190337, -0.062006924, -0.041346364, 0.062240764, 0.10527304, -0.02186612, -0.023873867, -0.16745284, 0.09616624, -0.043032218, -0.06207063, -0.07411415, 0.08508702, 0.0997691, 0.075683795, -0.021530038, 0.19140115, 0.05537217, 0.08107225, 0.122062266, 0.124283776, -0.15275736, -0.1285583, 0.04957523, 0.055388086, 0.11199501, -0.1190132, -0.13205831, 0.050608248, -0.2314055, -0.15940467, -0.1238204, -0.11831289, -0.11720302, 0.0314356, 0.17268248, -0.14020696, 0.0034361011, 0.110684, -0.018434033, -0.01383412, 0.21351157, -0.15580048, 0.012312888, 0.023289163, -0.026442282, 0.20265521, -0.20814186, 0.0852372, -0.041565318, -0.041251983, -0.13976963, -0.0042749424, -0.09486241, 0.037084136, 0.0063288948, -0.025830317, 0.08972202, 0.06712509, -0.05915228, -0.13439105, -0.0034871183, 0.006023568, 0.048877567, 0.22632472, -0.018040106, 0.0843726, 0.050781164, 0.12017395, 0.08568066, -0.08583869, -0.10735337, 0.05722773, -0.12648268, -0.0061626425, -0.079852164, 0.045612246, 0.08137499, -0.23126046, 0.06580336, -0.0816347, 0.08957393, -0.073453404, 0.06099273, 0.118566714, 0.024374614, -0.20732336, -0.08901133, -0.01850277, 0.05911182, -0.15354174, -0.17271408, 0.0019640494, -0.167241, -0.16022955, -0.023397902, -0.064131424, -0.14457378, 0.07819408, 0.16992028, -0.04685208, 0.10483762, 0.16069438, 0.07532666, -0.010942542, 0.19753915, -0.16052593, 0.0072867963, -0.068617806, -0.033488635, 0.20379785, -0.12500456, 0.07523989, -0.06715591, -0.064890854, -0.09879153, -0.076549225, -0.056100298, -0.15347326, -0.044358987, -0.10528848, 0.013909884, 0.1147118, 0.03744168, -0.054651186, -0.1390554, 0.004683643, -0.06914326, 0.07296667, 0.037191324, 0.006048512, 0.17903681, 0.019652855, -0.04353189, -0.07329637, 0.06675883, 0.05603181, -0.02673663, 0.0055981, -0.17737024, 0.05058018, 0.13617654, -0.039778914, -0.05668519, 0.0528981, 0.053123582, 0.23678993, 0.09566099, 0.09825549, -0.10463496, -0.06532372, 0.011832016, 0.017463684, 0.014148463, -0.11379028, -0.19337782, 0.16672663, -0.21667872, -0.058341227, -0.03903025, 0.028634593, -0.01457825, 0.068260804, -0.1435562, 0.0039169025, 0.09581719, 0.15180776, 0.11073471, -0.05309944, 0.20141602, -0.064898014, -0.042544518, -0.07393528, 0.052262027, 0.25928998, -0.24639276, 0.14164928, -0.07822638, -0.04130112, -0.12501524, -0.05258809, -0.058091976, 0.09682002, -0.11512353, -0.07824126, 0.24384631, 0.14922951, -0.20135011, -0.0058767498, 0.054005478, -0.023353165, 0.13171011, 0.10700562, -0.14674039, -0.019690726, 0.044194862, 0.050312564, 0.08168337, 0.0042205337, -0.11707204, 0.16905992, -0.028991729, 0.016152442, -0.11181443, 0.12118161, 0.102880225, -0.1240152, 0.09528554, 0.010496753, 0.13469063, 0.14446346, 0.04081405, 0.2161217, -0.06925923, -0.031239618, -0.13540347, 0.06834194, 0.059753604, -0.011423912, -0.07410469, -0.020359956, -0.13370807, -0.14029881, -0.022914324, 0.00051986566, -0.087055, 0.055497527, 0.04869705, -0.12192159, 0.18667175, 0.121682234, 0.0841774, -0.059053905, 0.22646768, -0.16221859, -0.028454557, -0.009623103, 0.3543293, 0.17938228, -0.015121428, 0.15211655, -0.13787961, -0.01072623, -0.16214593, -0.19485639, -0.23303896, -0.049516592, -0.0046032425, -0.06897895, 0.12952973, 0.16558914, -0.13016708, -0.0061943703, -0.12392506, -0.037538588, 0.14415313, 0.21149983, -0.02727432, -0.0909634, 0.10685644, 0.06725211, -0.012911234, -0.051983275, 0.1322051, 0.09364883, 0.023873303, 0.05354851, -0.06973486, 0.03285537, 0.24141608, -0.07388856, 0.018322745, 0.057061996, 0.075511284, 0.15708221, 0.08459399, 0.16504851, 0.018470103, -0.09012215, -0.020335782, 0.05749131, 0.08875936, -0.066915, -0.17381585, 0.15253063, -0.17075962, 0.035950664, -0.020133214, -0.058980882, 0.0013454332, 0.012608472, 0.01984571, -0.18683617, 0.09753816, 0.22227252, 0.10602435, -0.08491255, 0.2280737, -0.11784327, 0.11276393, -0.02218277, -0.024296742, 0.25652137, -0.09078657, 0.11113312, -0.10356754, -0.061576728, -0.16691074, -0.068504296, -0.14614446, 0.11556523, 0.05600417, -0.057509232, 0.14130735, 0.14869073, -0.11350387, 0.084958196, -0.17217968, 0.006800496, 0.21194239, 0.025729222, -0.17623262, -0.09217001, 0.12480018, 0.1255731, 0.09721337, -0.023334596, -0.17709689, 0.11114766, -0.14424247, -0.032547735, -0.079793155, 0.13137223, 0.25095314, -0.16635676, 0.007493311, 0.015842682, -0.012522438, -0.022262082, -0.044686865, 0.0996271, -0.07204261, -0.06913791, 0.15194793, 0.030482419, -0.10359037, -0.11614934, 0.026298158, 0.031407017, -0.14581202, -0.18692335, -0.12404775, -0.3911067, -0.059365887, 0.13591716, 0.10136641, -0.07648107, 0.13938725, 0.20349914, 0.13258392, -0.13009582, 0.24412681, -0.012374654, -0.07689076, 0.050456937, -0.015465019, 0.17477809, -0.018203262, 0.10060263, -0.08772042, -0.03264748, -0.20646073, -0.11940323, -0.16071834, 0.10108949, 0.037108887, -0.028085796, 0.09190179, 0.15242046, 0.06735721, 0.1070122, -0.12693839, -0.019272754, 0.18546666, 0.1390218, 0.07414376, -0.08283113, 0.07381368, 0.15619604, 0.06177118, -0.0076171695, -0.007623182, 0.08612295, 0.014389744, -0.04888507, -0.03757688, -0.033973154, 0.23966031, -0.14089994, 0.052538548, 0.13288556, 0.02283512, 0.2123887, 0.15801077, 0.113739684, -0.020979086, -0.077097625, 0.055043627, 0.07432256, 0.10087258, -0.13676275, -0.22514267, 0.09238363, -0.19578421, -0.047011226, -0.0663583, 0.0053247446, -0.0035295032, 0.065779686, 0.05268936, -0.17054597, 0.12911095, 0.1975487, 0.11679033, -0.09878785, 0.20069619, -0.19691062, -0.060352523, -0.12896653, -0.024772873, 0.13943344, -0.16167672, 0.16867542, -0.05459661, -0.048023783, -0.01631751, 0.20854317, -0.1392362, 0.02143018, 0.09994756, -0.048253722, 0.20959546, 0.10504851, -0.21311165, 0.15114862, -0.010866938, 0.08423444, 0.018627653, 0.07777262, -0.20373333, -0.11509598, 0.09414306, 0.05134641, 0.123974405, -0.03353465, -0.02582555, 0.039410107, -0.008714894, -0.023249954, -0.18967807, 0.14174591, 0.20815985, 0.003926944, -0.12071416, 0.028976966, -0.1094866, 0.11659482, 0.076895356, 0.07949482, -0.032415148, -0.07917028, -0.1715866, -0.032968525, 0.012453129, -0.14532638, -0.084395945, 0.048778288, -0.0819557, -0.22633752, -0.10839673, -0.16738038, -0.11129757, 0.20389523, 0.14871106, -0.02524737, 0.13062976, 0.16232231, 0.02592997, -0.091448426, 0.21708016, -0.092170574, -0.063714586, 0.039310656, 0.061397698, 0.0740163, -0.07197987, 0.08066977, -0.07425362, -0.011289406, -0.08621659, -0.093806386, -0.037177924, -0.063376516, 0.01744472, -0.22944087, 0.17263305, 0.10794575, 0.019153463, 0.06769223, -0.04988928, 0.03651925, 0.079904824, 0.06564254, -0.067226745, -0.105976604, -0.060302693, 0.094918914, -0.057192903, 0.013448418, 0.025467565, 0.17844556, 0.037889726, -0.15919685, -0.17919694, -0.04888433, 0.12778926, -0.14646576, 0.11602086, 0.1229906, -0.109330736, 0.10346519, 0.04189599, 0.1736423, -0.0858523, -0.14286973, -0.18868695, 0.049081143, 0.15229829, 0.005170869, -0.18116708, 0.059726287, -0.14249142, -0.12079346, -0.084321745, -0.10561007, -0.104494765, 0.0048861313, 0.17024232, -0.1099891, 0.059407912, 0.14358512, -0.038784906, 0.008972577, 0.11526676, -0.2356949, -0.112114795, 0.055425208, -0.018179536, 0.087339945, -0.23050801, -0.036918953, -0.11287823, -0.026216233, -0.1436215, -0.037570316, -0.1542315, 0.05152464, -0.004272572, -0.21878883, -0.0034854547, 0.16793521, -0.2638266, -0.20912246, -0.010382924, -0.07583881, -0.019586386, 0.07317724, -0.062048767, -0.062188115, 0.05299027, 0.07682244, -0.023827601, -0.054044407, 0.05472534, -0.028983586, -0.06548683, -0.03358883, -0.16594572, 0.02776291, 0.016891276, -0.21593219, 0.12060847, -0.0641828, 0.10468304, -0.0069708023, 0.0008714272, 0.1825748, -0.15805118, -0.22182436, -0.060303695, -0.07168553, 0.0785027, -0.05162607, -0.10515223, -0.13314386, -0.19804202, -0.22627589, -0.053399883, -0.0016377424, -0.16022374, -0.02734114, 0.105049916, -0.22271769, 0.15324329, 0.16935794, -0.0016798512, -0.10702226, 0.2297598, -0.2501489, -0.012715235, 0.04246234, -0.20263776, 0.07469805, -0.26247874, 0.012011294, -0.095109195, -0.022960337, -0.13299592, -0.29135582, -0.13411868, -0.022751493, -0.063267514, -0.03535459, 0.14011595, 0.15505303, -0.11626626, -0.17335607, -0.0859414, 0.03355554, 0.16322638, 0.2386327, -0.043275174, -0.05094781, 0.14832053, 0.023043813, -0.08847655, -0.014672882, 0.03432712, -0.034423776, 0.0689144, 0.03389323, -0.20226899, 0.06372584, 0.14228019, -0.13009225, 0.01359031, -0.026851116, 0.11353713, 0.009448446, 0.0010706292, 0.16315949, -0.018667398, -0.23577355, -0.15271506, -0.018171946, -0.02842736, -0.03026439, -0.2192382, 0.054948926, -0.26017264, -0.06611618, -0.058699816, -0.13847028, -0.16977163, 0.092385516, 0.08099192, -0.020714305, 0.10661949, 0.15684307, 0.035699625, -0.082517564, 0.20680809, -0.2423275, 0.13403817, 0.040967643, -0.0008876666, 0.2960522, -0.231697, 0.07795023, -0.061280675, 0.030868698, -0.16192238, 0.03475334, -0.24738091, 0.0005831723, -0.06290546, -0.1136599, 0.12649445, 0.15503587, -0.29426315, 0.05985392, -0.16253857, -0.0026552835, 0.0821763, 0.31516698, -0.007836579, 0.043041624, 0.09066327, 0.14222485, 0.0056341314, -0.1402694, -0.009320392, 0.096495226, -0.09447109, 0.043044437, -0.17542855, -0.032212824, 0.17297307, -0.21706164, 0.012701483, -0.075950585, 0.02616749, 0.052654758, 0.071186274, 0.16907215, -0.17737567, -0.27774784, 0.15819965, -0.0023960273, 0.063932925, -0.09380957, -0.03145222, -0.06385464, -0.17025569, -0.21719347, -0.14083701, -0.16348204, -0.19485062, 0.059184764, -0.09117237, -0.14425583, 0.1686724, 0.20083594, 0.10520016, -0.06418998, 0.22818916, -0.08025014, -0.14980654, -0.030548243, -0.028748628, 0.13462585, 0.0028022418, 0.10352425, 0.022060279, -0.004364755, -0.052805346, -0.1927706, -0.24552675, -0.068963155, 0.014894777, -0.036205266, 0.1498311, 0.15584397, 0.09092631, 0.036058575, -0.14946271, -0.05273247, 0.108268574, 0.20474757, -0.04205875, -0.057486024, 0.16169412, 0.11464956, 0.063612476, -0.003456475, -0.0035483304, 0.11452485, 0.053059563, 0.026059, -0.08397789, 0.036614362, 0.26377964, -0.13964616, 0.09963193, -0.007334955, 0.025707962, 0.071936704, 0.045152206, 0.21405864, 0.04827799, -0.22469619, -0.056771595, 0.013384771, 0.043843523, -0.20270136, -0.21589807, 0.10875453, -0.25454727, -0.1946092, -0.05812913, 0.060964547, -0.06090718, 0.10495069, 0.08759663, -0.14413157, 0.09572811, 0.2013788, 0.08424834, -0.16744852, 0.26220948, -0.3044821, 0.044873443, -0.045813728, 0.015109453, 0.045074597, -0.38231125, 0.020833421, -0.072548136, 0.04643297, -0.07131282, -0.07085007, -0.14298463, 0.1161681, -0.11230265, -0.19964713, 0.30469993, 0.12256391, -0.32031903, 0.13853489, 0.032823864, 0.12500551, -0.013533935, 0.19124055, -0.10923728, -0.12785968, 0.12089112, 0.15330553, 0.09916678, 0.01489862, 0.042157084, 0.10569007, -0.037354514, -0.03678516, -0.1502518, 0.069762334, 0.24830404, 0.059369646, 0.012697103, -0.010887917, -0.072172605, -0.07931168, 0.00046041046, 0.14246432, -0.0883301, -0.13318431, -0.1963362, -0.05771145, 0.02929661, -0.1040832, -0.074314, 0.012693919, -0.12744235, -0.08668829, -0.15650289, -0.07237967, -0.1830528, 0.1006997, 0.03281694, -0.10689275, 0.13258056, 0.19063517, 0.10331776, -0.05940257, 0.2211348, -0.08560513, -0.033462744, -0.14041135, -0.037198216, 0.081304565, -0.13490978, 0.021328393, -0.033439208, 0.052965827, -0.24962443, -0.008112069, -0.29709023, -0.09615292, -0.037599195, -0.13710105, 0.18686448, 0.14681059, -0.24709202, -0.015048654, -0.2143497, 0.007967855, 0.18652566, 0.206957, -0.054990962, -0.12963316, 0.16914831, 0.104229204, 0.00061751367, -0.014026504, 0.023395939, -0.020067267, -0.08186827, -0.037552956, -0.08402438, -0.10436953, 0.30601448, -0.029643811, 0.04013417, -0.044384938, -0.09827345, 0.13943376, 0.010472995, 0.15662304, -0.020974914, -0.12804978, -0.3007311, 0.0366882, 0.030753603, -0.13008411, -0.29391348, 0.017072504, -0.11077449, -0.17112318, -0.03874197, -0.03716048, -0.07473856, 0.06326765, 0.03831769, -0.108514294, 0.11092133, 0.20536795, 0.12191625, -0.04798964, 0.25661695, -0.4822229, 0.11867884, -0.0008720427, -0.015641024, 0.07338233, -0.099712364, 0.13717052, -0.008934402, -0.01514038, -0.079431415, -0.13664776, -0.2436887, 0.16360173, -0.0045755976, -0.18664402, 0.36651707, 0.1347291, -0.20654754, 0.105937906, -0.07343974, 0.011110402, -0.114301175, 0.19601431, -0.062151894, -0.14003332, 0.10521712, 0.15908046, 0.10462844, 0.061110083, -0.085077815, 0.014471099, -0.051782683, 0.0010360114, -0.24423921, 0.08429009, 0.16513881, -0.053299006, -0.12686564, -0.042146847, -0.2199359, 0.0013332197, 0.0072492664, 0.18852122, -0.23286681, -0.15871933, -0.2065778, 0.063837215, -0.09537978, -0.08334072, 0.09033758, 0.12191839, -0.09677954, -0.15180463, -0.26730058, -0.23810829, -0.24387673, 0.040982824, 0.14461185, -0.09529358, 0.10053948, 0.17277777, 0.096795306, -0.100031994, 0.22476885, -0.21308362, -0.088572524, -0.0019653349, 0.26220164, 0.16755132, -0.07311459, 0.105582625, -0.1285685, -0.04838053, -0.3937095, -0.052238204, -0.25739646, -0.08946015, 0.052352138, -0.075651705, -0.124755606, 0.13976954, -0.029523287, 0.07242475, -0.27407706, 0.13113195, 0.068290494, 0.087592945, -0.20185125, -0.06863262, 0.06087682, 0.082750455, -0.03499716, -0.040562727, -0.12943025, 0.09820633, -0.13990611, -0.053397406, -0.13743442, -0.49012342, 0.13490742, -0.24865179, 0.07342153, 0.07263127, -0.231868, 0.05729579, -0.14346194, 0.16609946, -0.119439386, -0.28383413, 0.017958708, -0.03945686, 0.13714366, -0.042033166, -0.23594284, -0.015330857, -0.22516261, -0.33164853, -0.14550614, -0.077840544, -0.07161263, -0.042236403, -0.11312018, -0.35100898, 0.07518234, 0.1492975, 0.056280427, 0.018644368, 0.16344434, -0.14581718, -0.0175535, -0.0222068, -0.014512419, 0.23029712, -0.061686963, 0.0031068411, -0.14577751, -0.00014161444, -0.07130547, 0.019159634, -0.106248334, -0.07130203, -0.049060203, -0.066822425, -0.20062847, 0.14990047, -0.03735671, -0.064199746, -0.20888305, -0.06786385, -0.080991104, 0.1648183, 0.01315539, -0.07307419, 0.19838424, 0.11776921, -0.09088657, -0.111050166, -0.025926206, -0.0743694, -0.09937371, 0.018865403, -0.115318306, -0.028193312, 0.07855784, -0.15193117, -0.031472452, -0.110105045, 0.13824618, 0.15817657, 0.09428807, 0.08276504, -0.11226037, -0.11755842, -0.27203664, 0.010364946, -0.032286596, -0.1796132, -0.06296163, 0.061186027, -0.28657427, -0.22543813, -0.18122412, -0.04688034, -0.12270616, -0.018725123, 0.027437523, -0.07940391, 0.055691935, 0.13409694, 0.039054528, -0.008197326, 0.24048147, -0.071894936, 0.04035876, 0.025064576, 0.14176409, 0.2009297, -0.4438528, 0.033310357, -0.23660207, 0.050656352, -0.1327352, -0.052912988, -0.19996825, -0.00487855, -0.06497683, -0.12227908, 0.013350475, 0.13604024, -0.15562455, -0.08063026, -0.14956202, 0.16887508, -0.053364206, 0.21869394, -0.028793344, 0.03659344, 0.006517544, 0.08261257, 0.045157697, 0.0133387325, -0.08268512, 0.10319773, -0.1444334, -0.0008581313, -0.13012329, 0.091431335, 0.14985535, -0.09663672, -0.03157743, -0.007888164, 0.048453838, 0.005877128, 0.037748322, 0.19748248, -0.12611079, -0.058046367, -0.26288512, -0.05756671, 0.006527381, -0.24895726, -0.19963945, -0.1699224, -0.34053978, -0.23260438, -0.11475853, 0.07625763, -0.15962283, 0.040608887, -0.07015536, 0.052249018, 0.11238393, 0.18977353, -0.024132648, -0.19097078, 0.19513665, -0.17417467, -0.048025314, -0.21377228, -0.09797967, 0.2264963, -0.28177166, -0.008404694, -0.03174619, 0.04603302, -0.25913775, -0.23806317, -0.09942464, -0.141751, -0.06345475, -0.0739061, 0.14044069, 0.121740915, -0.23747168, -0.012144678, -0.06719056, 0.07085821, 0.015591349, 0.17219377, 0.0016171404, 0.003588359, 0.14406878, -0.036778048, -0.035768785, -0.01734623, 0.18986423, 0.031978134, -0.020424983, 0.072105244, -0.30053484, 0.0055980603, 0.13126919, 0.047356952, -0.11315759, -0.03770779, -0.06608532, -0.068237156, 0.14319707, 0.08342299, 0.011495723, -0.19491604, -0.11952479, -0.019646378, 0.12570637, -0.15925768, -0.29805234, 0.036368538, -0.26049465, 0.040263157, -0.1145045, 0.1480983, -0.19256148, 0.040456902, 0.061578434, -0.089691535, 0.08097475, 0.14080104, 0.05750264, -0.1346142, 0.2551072, -0.21266645, -0.025963582, 0.047468536, 0.015298352, 0.20066401, -0.41837794, 0.07636988, -0.1192546, 0.0759279, -0.26456136, 0.01196877, -0.3012592, 0.06853059, -0.08819529, -0.12454324, 0.25945115, 0.17705089, -0.15755652, -0.0045484635, -0.17862147, -0.017588306, 0.21198393, 0.18212847, -0.17354918, -0.06015578, 0.11268066, 0.029406866, 0.004179136, -0.0049900515, 0.10117426, 0.028004415, -0.1072951, 0.015321498, -0.18528298, -0.06555531, 0.25204054, -0.18827307, 0.091744736, -0.049223606, -0.067031585, -0.08613751, -0.010820966, 0.19380148, -0.06255915, -0.3509442, -0.15452522, 0.02731395, -0.07430495, -0.039298013, -0.14214985, -0.0021260586, -0.10702889, -0.27673987, -0.1557977, -0.11046095, -0.26991433, 0.0538651, -0.20317395, -0.09889633, 0.088871725, 0.14415948, 0.028288774, -0.1478467, 0.28906906, -0.22782308, 0.11333459, -0.11017559, -0.102554865, 0.22666706, -0.33785427, -0.14255537, -0.12731603, 0.01796964, -0.3065729, -0.045172635, -0.30876708, 0.025401905, -0.048335664, -0.10911798, 0.17520054, 0.096137, -0.15380755, 0.107958205, -0.38143206, -0.1523925, -0.051956948, 0.18994164, -0.0063706413, -0.12648425, 0.096590154, 0.13094895, -0.03432883, -0.0674498, 0.098310746, 0.10898296, 0.013741915, 0.0618465, -0.04724883, -0.11917801, 0.19352588, -0.054053515, 0.028427428, 0.010024676, -0.02544818, -0.016765341, 0.06340741, -0.0017601429, -0.33743072, -0.4013743, -0.024814883, 0.029588588, 0.09029203, -0.21118708, -0.22616635, 0.04624349, -0.247163, -0.2450486, -0.20318936, -0.11591625, -0.1488809, -0.030698847, 0.023033021, -0.040846743, 0.07337232, 0.24073823, 0.09787306, -0.15349655, 0.30114064, -0.2220035, 0.025758283, -0.043028176, -0.03670622, -0.16227128, -0.24471956, 0.08251912, -0.06900741, 0.07481892, -0.2763589, -0.13425523, -0.56864524, 0.016842369, -0.019541139, -0.121142745, 0.19053549, 0.049151342, -0.13678893, 0.024213234, -0.09190115, 0.041533653, 0.013012443, 0.18966389, -0.15567191, -0.1374009, 0.06521166, 0.08580638, -0.067727625, -0.120448254, 0.092254475, 0.02040393, 0.012832576, -0.017026037, -0.23023462, -0.09612883, 0.21970186, -0.04343067, 0.023678938, 0.017640287, -0.2171526, -0.03691865, 0.06843815, 0.11236921, -0.14406237, -0.19647944, -0.08476223, -0.09180951, -0.09828843, -0.20494452, -0.16076687, -0.16185021, -0.2440832, -0.19236901, -0.21255852, -0.38970855, -0.3077012, 0.045553807, 0.13780169, -0.017786914, 0.10755106, 0.12024347, 0.01217352, 0.18231568, 0.2219403, -0.16540188, -0.20969316, 0.16076116, -0.043547064, 0.07175074, -0.20244889, -0.13951987, -0.20970125, 0.10639806, -0.24733858, -0.12834074, -0.12949689, 0.035286967, -0.066012874, -0.3230636, 0.06464255, 0.16105224, -0.049091995, 0.10660051, -0.23215836, 0.06425613, -0.02346208, 0.033379484, 0.00026067827, 0.009728235, 0.003644283, 0.025024427, 0.03947975, -0.053978495, -0.0160096, 0.18676916, 0.064346515, -0.054587103, -0.09442701, -0.27307007, 0.18480855, -0.07377422, -0.033204053, 0.074796624, -0.20762436, 0.0567279, 0.15584385, 0.022705017, -0.17558016, -0.23900297, -0.13549711, -0.040128015, 0.231228, -0.41749746, -0.280148, 0.004325748, -0.24178478, -0.23157641, -0.18458529, 0.030905958, -0.08860935, 0.00491792, 0.041172475, -0.2177192, 0.14910364, 0.20881377, -0.043276, -0.122318424, 0.2538546, -0.23168217, -0.030373268, 0.09855866, -0.002626627, 0.07775194, -0.19419388, 0.04349079, -0.08344299, 0.12544651, -0.07722856, -0.0040206322, 0.018209806, -0.14815179, 0.049155273, -0.029492674, 0.032354794, 0.204303, -0.23359041, -0.0073428424, -0.42668858, 0.20899421, 0.112387516, 0.18183684, -0.10975323, -0.06413459, 0.072610356, -0.10391714, 0.051317036, -0.1200496, 0.0768293, -0.037559588, -0.13631509, -0.12219458, -0.18905461, 0.11725621, 0.21819347, -0.13590832, -0.05939054, -0.07502769, -0.23544255, 0.13672745, -0.03379279, 0.08498221, -0.12984112, -0.26025364, -0.1867094, -0.09648481, -0.07249871, -0.16127966, -0.23304752, -0.374749, -0.07153053, -0.41286346, -0.2308524, -0.19637045, -0.091370605, -0.17203733, 0.049747996, -0.13514176, 0.12625107, 0.14724874, 0.044880215, 0.10030414, 0.14519845, -0.088725746, -0.17648579, -0.23445603, 0.024356924, -0.13161983, -0.16031617, -0.045074068, -0.38516396, 0.038583755, -0.32035986, -0.37667143, -0.056183845, 0.06612104, -0.06983267, -0.40988994, -0.09839204, 0.043793313, -0.20280276, 0.0010529419, -0.33288974, -0.21258567, -0.70035505, -0.21304376, -0.33177143, -0.27315736, -0.023829114, -0.08775358, -0.5413304, -0.06951089, -0.08934227, 0.03076965, -0.043220203, 0.005124384, 0.029392025, 0.11214259, -0.18235214, -0.328359, -0.06744056, -0.033467326, -0.050421584, -0.07789061, 0.07793741, 0.21063378, 0.15260474, 0.08515258, -0.8563887, -0.32221684, -0.13180195, -0.16385476, -0.06935615, 0.00075359794, -0.3621956, -0.48604265, -0.38449848, 0.08536709, -0.2606611, 0.09770758, -0.0488097, -0.24658781, 0.07762822, -0.014614156, -0.031190569, 0.07086701, 0.15574224, -0.2686237, 0.12107393, 