#ifndef NN_VALUES_H
#define NN_VALUES_H


const float L1_WEIGHTS[] = {
0.008516771, 0.0002647092, 0.0025373825, 0.0056317104, 0.0037117703, 0.005580825, 0.0073485207, 0.0084782, 5.028967e-06, 0.005444754, 0.0025497372, 0.0018786723, 0.006776065, 0.004112177, 0.0023711545, 0.0037227827, 0.00032877387, 0.005464445, 0.0028167104, 0.003145357, 0.0066240677, 0.007715702, 0.001230402, 0.0008485149, 0.007063514, 0.002101398, 0.00469829, 0.005835587, 0.006797991, 0.006489611, 0.003675851, 0.006846799, 0.007629644, 0.0013989975, 0.0029883804, 0.0010874487, 0.004685244, 0.008502784, 0.003677492, 0.00553146, 0.0041967947, 0.0064422092, 0.0036628582, 0.0014325994, 0.0026617858, 0.0050037103, 0.00339531, 0.0032948933, 0.003150036, 0.006235022, 0.005180847, 0.008171176, 0.006543286, 0.0014537787, 0.004515801, 0.0073942407, 0.0054466906, 0.0040157614, 0.0065934137, 0.0054121534, 0.005321388, 0.0008205438, 0.005883972, 0.0037546144, 0.0052057845, 0.0040303133, 0.0019862491, 0.0036979783, 0.0034169478, 0.0006012013, 0.00042979533, 0.00380756, 0.00760237, 0.0066053458, 0.0010948757, 0.0069476045, 0.0010723904, 0.0009158261, 0.005641886, 0.0042619836, 0.006624734, 0.008417055, 0.008375588, 0.0043233447, 0.0073442454, 0.0048098178, 0.0032729458, 0.0033759756, 0.007073994, 0.0008317486, 0.006112355, 0.006116094, 0.0036144946, 0.0022776767, 0.005396405, 0.0049446085, 0.0032753367, 0.007143894, 0.008647983, 0.007784913, 0.00401923, 0.0039045794, 0.004332065, 0.001215629, 0.004264892, 0.00598806, 2.6613128e-05, 0.007548541, 0.0030505343, 0.003535552, 0.006642399, 0.007705913, 0.0063738455, 0.0036500709, 0.0031072395, 0.0077992342, 0.0021386256, 0.0022356962, 0.0036223328, 0.0076474026, 0.0040728343, 0.007989209, 0.007879701, 0.008713273, 0.0028675068, 0.00036035824, 0.0044332375, 0.0048834197, 0.008712021, 0.007894052, 0.0031392104, 0.003503329, 0.0020832152, 0.004573077, 0.0010362621, 0.0087529095, 0.001858675, 0.004517337, 0.004981677, 0.0073559824, 0.006386985, 0.00830133, 0.0016437181, 0.006368748, 0.0058652298, 0.0023573986, 0.0003558494, 0.0040879343, 0.0066292332, 0.0032468545, 0.008761259, 0.0002735777, 0.0044151614, 0.0015035858, 0.0021754522, 0.0064910627, 0.0064980187, 0.0050665205, 0.007669932, 0.0027146097, 0.00601667, 0.0042204806, 0.0063947593, 0.0002947043, 0.007253269, 0.0030809485, 0.0027703904, 0.0038071377, 0.0075603235, 0.0020000553, 0.00093148893, 0.005835806, 0.0024391676, 0.0041344166, 0.0005838721, 0.0033097842, 0.002845067, 0.00036393682, 0.005510969, 0.0063079116, 0.005514438, 0.007512387, 0.0023245544, 0.0076752137, 0.0028391683, 0.0005116462, 0.003533108, 0.0073916074, 0.0023076443, 0.0028544278, 0.004823352, 0.006183675, 0.0015553721, 0.0081364475, 0.001984272, 0.0051495517, 0.0022806188, 0.006012759, 0.0066577164, 0.004818155, 0.00035589177, 0.005692009, 0.0056881057, 0.0051601836, 0.007663974, 0.001108808, 0.0032474156, 0.007938377, 0.003974257, 0.0028594069, 0.0016228503, 0.0042544175, 0.004766607, 0.008207106, 0.006071703, 0.003929348, 0.008023794, 0.0038184673, 0.003240056, 0.0061542443, 0.0055394974, 0.00024564957, 0.007207494, 0.0035746184, 0.0037268451, 0.0015997543, 0.0057699815, 0.0012197726, 0.0068302345, 0.0039328253, 0.004255337, 0.006203142, 0.0010409579, 0.0050651543, 0.0041503543, 0.008344414, 0.008256425, 0.0030965472, 0.0028158722, 0.0069128294, 0.008400364, 0.0071459403, 0.0049699997, 0.0057316227, 0.0052371286, 0.00592317, 0.004446036, 0.00083270425, 0.005123958, 0.0045511876, 0.005614728, 0.004733822, 0.008541205, 0.0050032535, 0.0017362406, 0.0034949973, 0.00042957134, 0.054220654, 0.060042866, 0.03416234, 0.089499, -0.022419892, -0.013976171, -0.024058847, 0.05981213, 0.04519894, -0.027737241, 0.10056107, -0.013592962, -0.019136313, -0.13374372, 0.03256897, 0.05172554, 0.048024256, 0.07349459, -0.020182658, 0.036674127, 0.06001783, -0.010195154, -0.23308112, -0.041193955, 0.080675974, 0.040718403, -0.0077403667, -0.017029945, 0.028273398, 0.13394055, -0.026350537, 0.031539977, 0.043116037, 0.015701309, -0.075738445, 0.0027595707, -0.06796885, -0.021779442, 0.080698706, -0.049376026, 0.039047305, -0.012857891, -0.011844278, 0.039509285, 0.10629617, 0.073418066, 0.061558764, 0.012558583, 0.05690618, 0.07630498, -0.05973781, -0.087092765, 0.07038525, 0.08213501, -0.28220364, 0.07226019, 0.06579947, -0.06524312, -0.036726102, 0.08074644, -0.03444281, 0.22813162, 0.0884268, -0.052220453, 0.024652902, 0.10212717, -0.089643605, 0.012455517, 0.01563356, -0.0634123, 0.033999767, -0.040501785, 0.037527185, 0.011075456, 0.023957005, 0.042044718, 0.03964822, 0.014860555, -1.0928702e-05, -0.00029931273, 0.026607383, 0.07096055, -0.02353199, -0.043666635, 0.06357373, 0.04548475, -0.29897705, 0.09586867, -0.08677875, -0.029024804, 0.011604153, 0.048276037, -0.0974741, 0.13660096, 0.041734062, 0.04442728, 0.06769397, 0.033402614, 0.029466942, 0.038270287, -0.048831906, -0.18153535, 0.016275043, 0.075925745, 0.160103, -0.01308196, -0.047426812, 0.079556756, 0.0069497237, -0.050204318, 0.07528884, 0.10082229, 0.021027455, 0.10863125, 0.016298812, -0.09510973, 0.016748974, 0.015664753, -0.56897527, -0.057038482, 0.095565476, -0.0052507604, 0.23367646, 0.011405755, -0.030440196, 0.005805819, 0.017758062, -0.0023208566, 0.116990745, 0.114226304, -0.045787074, 0.019892307, -0.025422085, 0.11468183, 0.03089537, -0.04785653, 0.07008173, -0.0403929, 0.13443723, 0.056905497, 0.02467726, -0.13623352, 0.015970543, 0.1029225, -0.044648148, 0.08568867, 0.025216958, 0.0024125217, -0.09008248, 0.012423746, -0.16137059, 0.048821457, -0.07951753, -0.0119652, 0.12126887, 0.024195451, -0.006550791, -0.008629559, 0.021906354, 0.022817763, 0.14338088, -0.05295732, 0.0119234435, 0.022300044, -0.07656862, -0.2607192, 0.072697744, -0.007280339, 0.13827106, -0.049179055, 0.024758177, 0.0049860277, 0.049527053, -0.099489555, 0.036023773, 0.03997545, -0.03298114, 0.10601209, 0.19048218, -0.11186937, -0.09774543, 0.06840677, -0.11688071, -0.07172161, 0.10977212, -0.029569827, 0.077577814, 0.07195645, 0.039173562, 0.10935515, 0.07936452, 0.02763889, 0.14887421, -0.010152612, -0.08617389, -0.006273656, 0.0056871353, 0.076721996, 0.07138399, 0.1956588, 0.05942737, -0.037104815, -0.0047196206, -0.004641606, -0.010418972, -0.13418266, 0.067889825, 0.046060782, -0.00106241, 0.093960315, 0.04610114, 0.030164555, -0.16400313, 0.07101433, -0.13707577, -0.08181631, 0.024497285, -0.028043855, -0.0633565, 0.07675975, -0.031993944, 0.14446364, 0.07975443, 0.027811263, 0.08703198, 0.083050445, -0.02636078, 0.029133812, 0.03340662, 0.012043182, 0.041063234, 0.2241913, -0.06447294, -0.004593307, 0.008135911, 0.03348519, 0.05095089, -0.029144764, 0.060789835, 0.05830716, 0.0049950015, 0.1017745, 0.102758236, -0.057262816, -0.040711287, 0.056608528, -0.14755021, 0.02241362, 0.0818629, -0.01344413, -0.0076560527, 0.04880931, 0.027966361, 0.12290672, 0.04915939, 0.017793054, 0.04778176, 0.0624741, -0.01993333, 0.09152833, -0.037802953, -0.014481513, 0.00054934254, 0.016183615, 0.10004559, 0.023544837, 0.06131667, -0.012943408, 0.006051768, -0.15990382, 0.059841838, 0.032088548, 0.07991125, 0.07549317, -0.02340034, 0.042929746, 0.083207205, 0.013741279, -0.214834, -0.047639795, 0.118043885, 0.010677212, 0.013138482, 0.0063130436, 0.015054713, 0.15598276, 0.005566765, -0.010373872, 0.051786087, 0.054400064, -0.03832259, 0.029593932, -0.009097081, -0.026520614, 0.1045404, -0.013407104, 0.11742923, 0.0046108686, 0.08345829, 0.027549125, 0.12802777, 0.085892364, 0.06380254, 0.016216453, 0.02371775, 0.07364773, -0.083910935, -0.063284144, 0.07148292, 0.07563224, -0.2545761, 0.049897697, -0.019868638, -0.046428733, 0.011798435, 0.06708628, -0.02252671, 0.20380683, 0.07366392, 0.01866981, 0.04993918, 0.13171121, -0.063420035, -0.021572314, -0.031207558, -0.061248288, 0.04134028, -0.095096454, 0.05896945, 0.025991648, -0.45081362, 0.007364873, 0.051867176, 0.01813602, -0.030364951, 0.0057000685, 0.027750649, 0.082449585, -0.003354995, -0.031181928, 0.0063555837, 0.060798924, -0.26869974, 0.1179787, -0.025130628, -0.052589, -0.032045178, 0.058098495, 0.033614796, 0.18356465, 0.048843734, 0.03311009, 0.07266023, 0.12787808, -0.058266364, -0.027618276, 0.059075285, -0.1514098, 0.104073286, 0.02581425, 0.17832293, -0.040540256, -0.107557565, 0.083334886, -0.043782014, 0.026010651, 0.052993316, 0.12783939, -0.013348456, 0.10634969, -0.039179318, 0.0032578611, 0.027330946, 0.0563463, -0.17343175, -0.085773215, 0.074041426, -0.051106267, 0.15533456, 0.060299966, -0.026848745, -0.04008852, 0.071858644, 0.017538715, 0.08470757, -0.015464393, 0.06514548, 0.039978307, -0.13114892, 0.14043629, 0.08849302, -0.046931062, 0.1456741, -0.016024113, 0.054712035, 0.04320924, 0.025971761, -0.051894773, -0.007765722, 0.1591817, 0.034251876, 0.09990426, 0.053661752, 0.043652836, -0.06428628, 0.06619832, -0.11738835, 0.07813699, 0.031949695, -0.0381842, 0.20360157, 0.07888262, 0.083853796, -0.023669962, 0.08807682, 0.053219687, 0.15725604, -0.005165061, 0.0014997039, 0.06579664, -0.045153376, -0.27332333, 0.0670626, -0.035309166, 0.14056134, -0.05004527, 0.07309101, 0.009565021, 0.012784306, -0.0594027, 0.08199088, 0.02821232, -0.023644399, 0.112561, 0.1137777, -0.083144225, 0.004219418, 0.039841935, -0.08837189, -0.04184269, 0.115318544, -0.008084712, -0.029832004, 0.044951715, 0.00051627535, 0.05567743, 0.048350755, 0.025464442, 0.18821186, 0.011562461, 0.032116927, 0.02341495, 0.082017176, 0.09318887, 0.08558652, 0.033642504, 0.026089804, -0.04202515, -0.015732042, -0.004740294, -0.004044681, -0.09471797, 0.018453239, 0.037624292, -0.024597757, 0.115330435, 0.044529025, 0.016366623, -0.17916714, 0.07215756, -0.095529735, -0.091581665, 0.090084344, -0.038125608, -0.020411417, 0.07750698, 0.026143989, 0.16542503, 0.0837268, 0.015488005, 0.07924184, 0.05064426, -0.069650896, 0.027731698, -0.0021535438, 0.0009988814, 0.042221323, 0.23223914, -0.05920096, 0.0033889047, 0.031124605, 0.04534674, 0.062381994, -0.04318296, 0.053317558, 0.062526084, 0.06528947, 0.088868335, 0.07865169, -0.020961184, -0.04912925, 0.053254917, -0.09960275, 0.022932703, 0.056412168, -0.038264126, -0.06457496, 0.053452384, -0.003275862, 0.114278145, 0.05074067, -0.0016116531, 0.05471697, 0.05155659, -0.0007623343, 0.105855376, 0.018773979, -0.0117167365, 0.02901651, 0.033930775, 0.08386914, 0.16295911, 0.04622716, 0.0024762875, -0.012273317, -0.17307822, 0.026431574, -0.032858957, 0.03553457, 0.056789856, -0.046086125, 0.07185112, 0.05012029, 0.015162978, -0.2616759, 0.0004677134, 0.101693586, 0.0045550363, 0.06402999, 0.008482824, 0.015670639, 0.14958723, 0.001700147, -0.049872667, 0.07806993, 0.05873053, -0.07093497, 0.027601844, -0.013504613, -0.01506481, 0.12677751, -0.014994119, 0.10052069, 0.09078637, -0.013520569, -0.054616846, 0.1358374, 0.065397546, 0.06561054, 0.031433735, 0.16771503, 0.048278354, -0.048188474, -0.04024929, 0.117155306, 0.10738443, -0.32930705, -0.03509875, -0.051951144, -0.06085826, 0.07846736, 0.11831424, 0.026176697, 0.18750276, 0.11555179, 0.019609047, 0.06510752, 0.07864354, 0.0043622665, 0.0076936735, 0.021280674, -0.04756577, 0.09181718, 0.012359248, 0.13123232, 0.041323453, 0.043490063, -0.09343864, 0.04846206, 0.050766356, 0.0943671, 0.09250091, 0.068056636, 0.057485435, -0.04822129, -0.13576697, -0.0013739539, 0.042673815, -0.29786372, 0.13505219, 0.082886174, -0.013910479, 0.06489701, 0.043903757, 0.0015526118, 0.06835519, 0.050270367, 0.021656388, 0.06833825, 0.10186008, -0.021270975, 0.019717505, 0.02120981, -0.21647361, 0.10943215, 0.011404793, 0.06480797, -0.017489988, -0.260794, -0.10961421, 0.02716535, 0.11219627, -0.03523686, 0.13431501, -0.03358102, 0.10294426, -0.01469504, 0.007446238, -0.019868685, 0.07628259, -0.22729325, -0.17998905, 0.025488336, -0.0474725, 0.055787392, 0.10364012, 0.1088006, 0.0022592049, 0.122862, 0.04325617, 0.10185632, 0.012054443, -0.09338765, 0.075368986, 0.101278916, 0.17769013, 0.1625505, -0.018323625, 0.38032466, -0.056772787, -0.029717945, -0.046974577, 0.076348834, 0.14539021, 0.051936544, 0.08821559, -0.03587805, 0.069419675, 0.007876598, 0.03504799, -0.16283531, 0.099937946, -0.15346164, 0.09850564, 0.051373526, -0.05465974, -0.06483198, 0.09867322, -0.022331614, 0.009534695, 0.10265615, 0.045364812, 0.1289804, -0.026339872, 0.062716275, 0.057841774, 0.00096072326, -0.31304356, 0.08618117, -0.041976146, 0.03636707, -0.044529174, 0.02622371, -0.017674275, 0.016649945, -0.04227177, 0.023271713, 0.038838845, 0.10423232, 0.119907305, 0.14162277, 0.00210484, 0.083049275, 0.070324555, -0.1362613, -0.039699547, 0.09210924, -0.030066574, -0.024761083, 0.08853025, 0.047768705, 0.036620688, 0.09739416, 0.046101745, 0.11557442, 0.00010514586, 0.0051018987, 0.004501315, 0.0011231368, 0.10900276, 0.1687372, -0.006439942, 0.15279579, -0.027930787, 0.0086739585, -0.015310524, -0.0057226075, 0.034229066, 0.06922166, 0.05739898, 0.12396134, 0.12770845, 0.014510488, 0.02233337, -0.15819798, 0.11289843, -0.14882936, -0.09792486, 0.12211607, -0.01207559, -0.12380407, 0.11066452, -0.04053429, 0.09631462, 0.110664345, 0.008500012, 0.06700182, 0.022210468, 0.11657431, 0.10199669, 0.08902234, -0.011409291, 0.07401497, 0.09363206, -0.056758825, -0.005947765, -0.0075638643, 0.03830197, 0.044763424, -0.04405096, 0.11219258, 0.040798288, 0.08258774, 0.10140005, 0.10560179, -0.013365454, -0.04748046, 0.07014359, -0.11072687, 0.060235545, 0.03391829, -0.0320594, -0.053559538, 0.077429965, 0.017051557, 0.13789734, 0.0842504, 0.061076213, 0.07298208, 0.05644288, -0.04152638, 0.08099135, -0.017587826, 0.01304882, 0.031092836, 0.01582996, 0.20618507, 0.36167347, 0.054734156, -0.06888393, -0.033270996, -0.23095667, 0.09050213, -0.117886946, 0.008516463, 0.039754406, -0.044536866, 0.05956831, 0.054458335, 0.041828897, -0.30117694, 0.0100415135, 0.12556103, -0.0044780998, 0.017183514, 0.041264337, 0.048867624, 0.09442327, 0.042515807, -0.19162315, 0.107936874, 0.024236733, -0.093543984, 0.08254853, -0.021608543, 0.00019243802, 0.10325042, 0.015711866, 0.16648017, 0.211612, -0.01441429, -0.113126926, 0.18686037, -0.009814701, 0.13857073, -0.036633365, 0.10355333, 0.009107929, -0.04187521, -0.026999079, 0.18899919, 0.11902616, -0.33818772, -0.11218833, -0.092789926, -0.06605098, 0.12360688, 0.10603591, 0.04767788, 0.12351827, 0.1009101, -0.080741554, 0.06902465, 0.086322136, -0.031161504, 0.068001404, -0.048278682, -0.05079931, 0.08486207, 0.03281636, 0.14113332, 0.10732975, -0.08127415, -0.21742162, 0.060474165, -0.017151888, 0.09453612, -0.018673774, 0.09380068, 0.046307202, -0.083025105, -0.15046929, -0.20117065, 0.068986855, -0.32930288, 0.18530847, 0.19908401, -0.023162832, 0.033659715, 0.076188326, 0.1506671, 0.04128325, 0.07920687, -0.055673886, 0.056092653, 0.062249616, -0.08881028, 0.111134544, 0.11474938, -0.069884025, 0.1597196, 0.07568778, 0.23850597, -0.028311295, 0.062656134, -0.18632941, 0.08026811, 0.060742937, 0.050675415, 0.04819327, 0.12945578, 0.019713594, -0.017110959, -0.042376522, 0.103590935, 0.115505025, -0.2973981, -0.21614014, 0.03384763, -0.07590015, -0.001078721, 0.097980104, -0.047213096, -0.03979395, 0.095080025, 0.028955154, 0.019517329, -0.03354271, -0.05273433, -0.025003986, 0.12599543, 0.1276126, 0.15531458, 0.0232211, 0.22343151, -0.0459354, -0.07253986, -0.13877003, 0.044774532, 0.21749781, -0.015469982, 0.0778427, 0.120975696, 0.069937125, -0.06391454, 0.11817077, -0.31479412, 0.14038609, -0.24169627, 0.04830952, 0.1017538, -0.09210143, -0.10861434, 0.14856088, 0.1749726, 0.013986052, 0.16746242, 0.04766626, -0.01291962, -0.064625554, -0.06178427, 0.11418435, 0.074470855, -0.25900155, 0.12802173, 0.0070430655, 0.3498793, -0.006966398, 0.04089623, -0.08658568, -0.023289016, -0.011101441, 0.06471733, 0.069307566, 0.10349097, 0.13569862, 0.10557489, 0.100922704, 0.16393697, 0.10432753, -0.20941517, -0.061391715, 0.060889762, -0.025020786, -0.13055857, 0.09344038, -0.0050218524, 0.009549896, 0.09073699, 0.059438273, -0.027618876, 0.0011543741, -0.03534732, 0.1279857, 0.12218337, 0.11576071, 0.11624809, -0.032804698, 0.030125257, -0.042067226, 0.04137021, -0.013908026, -0.031083604, 0.10892572, 0.11310364, 0.006326087, 0.09227677, 0.17035373, -0.049286783, -0.056929212, -0.16797802, 0.101429075, -0.22146638, -0.081767015, 0.21223748, -0.012042868, -0.07534673, 0.11503752, 0.061058268, 0.085028775, 0.13601965, 0.03147958, 0.0010956398, 0.024503153, -0.07061965, 0.016370287, 0.08536893, -0.027344098, 0.1611201, 0.045106176, 0.22521095, -0.015530136, -0.010562344, 0.039083626, -0.021039054, -0.046815686, 0.09288026, 0.006701511, 0.1326148, 0.17266949, 0.1042205, 0.09743032, -0.06961475, 0.12878636, -0.16284452, 0.079879306, 0.09313949, -0.055787355, -0.084884405, 0.11116086, 0.026461886, 0.09931379, 0.10347697, 0.06400967, 0.08296065, 0.043692544, -0.02129558, 0.09749675, -0.09792651, -0.02653973, 0.015013257, 0.07088906, 0.07338333, 0.57671833, 0.06487146, -0.10932872, -0.034612276, -0.3707938, 0.07958376, -0.22872983, 0.011492856, 0.053469166, -0.059058387, 0.068884015, 0.022580791, 0.047800448, -0.37487274, -0.033107135, 0.072285466, -0.0051932414, 0.0919712, 0.050152086, 0.16819106, 0.0040350147, 0.03808998, -0.33082294, 0.14701298, 0.019992664, 0.04697846, 0.16997796, -0.09953329, -0.08063812, 0.082545266, 0.039199535, 0.21253665, 0.34628636, -0.034921158, -0.20088881, 0.14994626, -0.15486181, 0.25867003, -0.17568174, 0.09718787, 0.023897512, -0.044331104, 0.013152342, 0.014932421, 0.08618029, -0.36698768, -0.16075255, -0.07271018, -0.03608838, 0.015787857, 0.09462721, 0.23215683, 0.044215165, 0.089228, 0.0011651167, 0.0854039, 0.032471668, -0.08686546, 0.19868639, 0.061057348, -0.14211771, 0.026932381, 0.12295124, -0.0017197927, 0.097647876, 0.26215962, -0.40804428, 0.08945954, -0.19628197, 0.22608201, -0.03596683, 0.08511397, -0.08348053, -0.12694155, -0.014730577, -0.29210398, 0.042382367, -0.3173957, 0.08436953, 0.23652886, 0.0070351325, -0.003004901, 0.039749585, 0.19108818, 0.063870795, 0.024278248, -0.1598962, 0.021622382, 0.05836424, -0.10849454, 0.02859953, 0.08953637, -0.015560176, 0.14158596, 0.15488477, 0.21400133, 0.03884367, 0.04092031, -0.30983737, 0.13840157, -0.071834855, 0.06823193, -0.048213996, 0.15437058, 0.026949208, -0.03901041, -0.17865206, 0.016805107, 0.1336965, -0.29436678, -0.20319113, 0.07646924, -0.082973674, -0.108628325, 0.14232093, 0.2292366, 0.0819284, 0.14623047, -0.056206666, -0.23913614, -0.055662904, -0.1642656, -0.01954338, 0.09269708, -0.07920118, 0.1691045, 0.18732932, -0.13026838, -0.020016752, 0.039759956, -0.11639595, 0.03268843, 0.20224859, 0.16044651, -0.004648564, 0.15126148, 0.112876356, -0.16143863, 0.02589145, -0.29043725, 0.15586534, -0.28994733, 0.11860053, 0.14387788, -0.09803914, -0.18736295, 0.17482893, 0.17428774, -0.012506177, 0.17448346, -0.1909228, -0.2667037, -0.12212252, -0.10842408, -0.04223088, 0.15915807, -0.091866575, 0.17275243, 0.10880461, 0.42616138, -0.04674328, -0.0863295, -0.09391969, -0.071840435, -0.00902479, 0.098808676, -0.1779085, 0.18693735, 0.13745803, -0.013504969, 0.22269686, 0.07285071, 0.19063212, -0.21790741, 0.16244458, 0.12280674, -0.09036369, -0.11306275, 0.19297974, 0.07386997, 0.0376799, 0.16874518, 0.0005606505, -0.14792807, -0.058228455, 0.037979834, 0.04347483, 0.14790396, -0.04258326, 0.14692391, 0.07383895, -0.045679137, -0.08728847, 0.07735425, 0.017790293, -0.12258225, 0.09069915, 0.14724949, -0.02204199, 0.11787578, 0.14421757, -0.08634739, -0.20528664, -0.11351406, 0.12897138, -0.2597014, -0.19686894, 0.22274487, -0.008212602, -0.18144804, 0.15018694, 0.10596762, 0.05619692, 0.15520029, -0.037966948, -0.14025974, 0.022591649, -0.038438685, 0.019140128, 0.019489288, -0.048254587, 0.12238523, 0.11331871, 0.58707577, -0.053936236, 0.0071022776, 0.09278196, -0.10030111, -0.121982105, 0.13457827, 0.05337329, 0.1124915, 0.1707824, 0.042841937, 0.09471096, -0.028815836, 0.1367535, -0.24864207, 0.2609596, 0.054181896, -0.04819014, -0.14150335, 0.13569199, -0.09341893, 0.13848294, 0.12528358, -0.07227295, 0.15999699, 0.009139699, -0.080152646, 0.2421567, -0.15820621, -0.009516382, 0.06992403, 0.30706328, 0.048650704, 0.45373672, -0.10089405, -0.11201962, -0.021301089, -0.47170922, 0.08122639, -0.2539824, 0.064690195, 0.063701205, 0.026913293, 0.04668044, -0.07067271, 0.09640743, -0.3546704, -0.3303629, -0.012346524, -0.046210025, 0.25368008, 0.09475939, 0.16904227, 0.0063671526, 0.081662856, -0.13934375, 0.09638601, -0.0012769867, -0.024207633, 0.23519155, -0.33904153, 0.098607115, 0.09873331, 0.26109606, 0.30555543, 0.3217619, -0.006218293, -0.33147123, 0.2742058, -0.20583344, 0.39107525, -0.14699866, 0.019741403, -0.13225582, -0.07477777, -0.061862193, -0.08305541, 0.09501599, -0.40286356, -0.20184407, -0.48042548, -0.036315117, 0.11375253, 0.11069521, 0.116255395, -0.0067694825, 0.100649275, -0.18382677, 0.18230817, 0.11271961, -0.04446105, 0.14699666, -0.21203311, -0.18405662, 0.093934014, 0.2010062, -0.079243585, 0.18389311, 0.17676535, -0.53746635, 0.16660896, -0.23713014, 0.12499838, -0.12972093, 0.068128906, 0.021700647, 0.008836264, 0.05730497, -0.2873814, 0.09461326, -0.33899233, 0.008298447, -0.012916273, -0.041163135, -0.14445345, 0.104386084, 0.21069066, 0.08715255, 0.09744803, -0.15469813, 0.13454655, 0.1206571, 0.030504523, 0.02705751, -0.42612928, -0.09501165, 0.10871386, 0.19250336, 0.055608798, 0.022987498, 0.1009565, -0.23643497, 0.1566625, -0.26567668, 0.34784487, -0.012146103, 0.099344224, 0.04115154, -0.076267086, -0.13740647, 0.14001387, 0.10849942, -0.31660897, -0.13696799, 0.051456753, -0.045092538, -0.34933627, 0.12040504, 0.06597648, 0.054292258, 0.11579281, -0.039407592, -0.40431005, 0.11700595, -0.0044506886, 0.085446686, -0.2409869, -0.18141322, 0.114023656, 0.17548415, 0.004719851, -0.103044756, 0.03376467, -0.09520912, 0.042350873, 0.06498527, 0.024316534, -0.108411975, 0.06168786, 0.0034422397, -0.24590622, -0.035321437, -0.5849796, 0.08968372, -0.34714013, -0.0905854, 0.028731912, -0.0023192465, -0.34681973, 0.106696405, 0.18224609, 0.12918107, 0.123187885, -0.33882174, -0.6071145, 0.012938741, -0.06061543, 0.10871731, -0.23622462, -0.2984471, 0.16291761, 0.30919644, 0.11503306, -0.054958433, -0.019557767, 0.103339985, -0.08199769, -0.23535907, 0.49669933, -0.13486046, 0.12608021, 0.19998428, -0.11609681, -0.017172253, -0.046118546, 0.14063942, -0.26672065, 0.12817934, 0.020764658, -0.03930521, -0.14172791, 0.16126904, 0.10359081, 0.17068914, 0.16678049, 0.028049566, -0.41207856, 0.070061594, -0.0078236, -0.042574503, 0.16902675, -0.1481042, 0.18426348, 0.009708031, 0.029641178, -0.13021936, -0.062345523, -0.12240382, -0.6391986, -0.12133895, 0.049445793, -0.18704382, 0.12845396, 0.1176948, -0.048036065, -0.007207449, -0.11619124, 0.15775543, -0.29925236, -0.15784712, 0.19943479, -0.048057932, -0.21501154, 0.1728892, 0.07451916, 0.13996212, 0.18349878, 0.090529226, -0.098992914, 0.09530426, -0.1126402, 0.014338657, 0.1713605, 0.03204141, 0.20419867, 0.0099887885, 0.547021, -0.05534823, 0.17247786, -0.024396496, -0.5150769, -0.1943629, 0.32507357, -0.15636386, 0.1545212, 0.20138359, 0.34328613, -0.30735403, -0.059017815, 0.18824205, -0.29210392, 0.078928865, 0.029697414, -0.07512538, -0.04525449, 0.20019795, -0.006179355, 0.16435646, 0.19897611, 0.0021390908, 0.0035979745, 0.0048304154, 0.008375483, 0.0035587132, 0.0053388183, 0.008580221, 0.0033034135, 0.0047100214, 0.00059846445, 0.002665994, 0.0025703327, 0.004465838, 0.0042120446, 0.007830412, 0.008231731, 0.0039044817, 0.0036692787, 0.0044254507, 0.0030062597, 0.00043306535, 0.00017513035, 0.008664123, 0.004871809, 0.00016299891, 0.006059918, 0.0070037213, 0.0006849567, 0.0036027993, 0.00820202, 0.0069472375, 0.006748375, 0.005007655, 0.0002335858, 0.004572029, 0.0003481486, 0.006355655, 0.0052516554, 0.004429608, 0.0036315206, 0.0033539976, 0.0053789513, 0.0064493176, 0.006089768, 0.0028931943, 0.0025156657, 0.006842662, 0.005148536, 0.0034959298, 0.005821639, 0.0020747131, 0.0031345808, 0.007348151, 0.0021385655, 0.00059424835, 0.0062762504, 0.002950479, 0.0073711732, 0.0059189033, 0.0032808417, 0.0030032864, 0.0075877085, 0.00686547, 0.0017382414, 0.00017279114, 0.0024251794, 0.0039060751, 0.0061048316, 0.006892128, 0.00080903544, 0.0050631766, 0.006121347, 0.00857471, 0.005174973, 0.0074527916, 0.0017837634, 0.001680685, 0.0017856682, 0.003338538, 0.0028169965, 0.008304866, 0.008526508, 0.0067808377, 0.0007509559, 0.0067312154, 0.006258636, 0.0033852009, 0.005510925, 0.0040041828, 0.0058037816, 0.004698254, 0.0055887573, 0.0011324896, 0.008287465, 0.006829915, 0.0034506193, 0.0054073865, 0.006186188, 0.0077104317, 0.00086624786, 0.0056502107, 0.008617082, 0.0015948102, 0.0048647765, 5.5108732e-05, 0.0007022365, 0.0071028443, 0.0018613099, 0.00813593, 0.0028492566, 0.005254021, 0.0016295289, 0.0040371753, 0.0027512575, 0.0011645996, 0.00697019, 0.008261461, 0.007976758, 0.007965124, 0.007925988, 0.00030673927, 0.004441681, 0.0074752066, 0.008075622, 0.008709524, 0.0027662988, 0.0027356278, 0.005109437, 0.0026221583, 0.0024145704, 0.0076532145, 0.0043468415, 0.0026197562, 0.006624384, 0.0029957863, 0.000983581, 0.0014405214, 0.0075493394, 0.0053046066, 0.00040512817, 0.0036353145, 0.00528991, 0.007786498, 0.0069185337, 0.0032010262, 0.0017776034, 0.0048972936, 0.0021680633, 0.0032684389, 0.005592388, 0.0044742655, 0.0052519436, 0.00053101644, 0.0044961628, 0.0018866804, 0.007485297, 0.002807203, 0.0016202838, 0.00022453451, 0.0041695354, 0.0036872132, 0.0034727538, 0.0062404047, 0.0035371943, 0.0017934373, 0.0008109824, 0.00054342055, 0.0017958283, 0.0005144147, 0.0034190032, 0.0028515158, 0.002427663, 0.0004092731, 0.0051946957, 9.539024e-06, 0.0031600546, 0.0024784235, 0.004925621, 0.0073947283, 0.0073545496, 0.0015097572, 0.007296813, 0.0020309892, 0.002513811, 0.0023126125, 0.00012330148, 0.0014031519, 0.006930572, 0.0006827669, 0.006583457, 0.008651126, 0.007934583, 0.0072025545, 0.001438366, 0.0054024667, 0.0035461828, 0.0080502145, 0.002566504, 0.0062886104, 0.0025267657, 0.0022831638, 0.005927952, 0.00028644004, 0.0029885839, 0.0026225015, 0.001250206, 0.0073358123, 0.0054984195, 0.0077385767, 0.0070074946, 0.0034082797, 0.0050399886, 0.007815687, 0.0048161177, 0.0035770196, 0.0074739144, 0.0003623679, 0.0038371603, 0.008658287, 0.005032354, 0.001134706, 0.004721712, 0.004781639, 0.0074303607, 0.0014592768, 0.0010671004, 0.00057782826, 0.0001500619, 0.0049641035, 0.0035883498, 0.0011372507, 0.006411008, 0.0064647673, 0.0018654775, 0.004677572, 0.0067422716, 0.0074980906, 0.0078588, 0.0022650296, 0.002937468, 0.0063856104, 0.0014210157, 0.0029755933, 0.0083749015, 0.00013007293, 0.0035518436, 0.008044896, 0.0071685696, 0.006541084, 0.0037551336, 0.0026858104, 0.007119517, 0.00477069, 0.0054758, 3.0629442e-06, 0.0033288235, 0.14905538, 0.067348264, 0.10760217, 0.07818727, -0.04348777, 0.14172146, 0.03974995, 0.01995925, -0.036470752, 0.06130054, -0.2281464, 0.060722884, 0.1325658, -0.1515297, 0.024920117, -0.014083792, 0.07515545, -0.05770383, 0.12703183, -0.17738809, -0.09620317, 0.11916498, 0.026316758, -0.29276884, -0.22772992, -0.120244086, 0.015835512, 0.1493991, 0.028138954, 0.06794714, 0.023380829, 0.016022876, 0.10401068, 0.18502575, 0.12619407, -0.02951564, -0.09519231, 0.057490367, -0.013812642, 0.0124003645, 0.03695469, 0.046713203, -0.20363815, 0.16929525, 0.076855995, -0.12732697, -0.011298817, -0.0129116075, 0.112100884, -0.055583954, 0.123839736, -0.2029156, -0.086476296, 0.027809728, 0.028138177, -0.32144812, -0.11941002, -0.1928308, -0.062241722, 0.09765455, 0.019391658, 0.015205126, 0.07743482, 0.014404768, 0.13798465, 0.16902857, 0.1265379, -0.08276554, -0.11938768, 0.041752037, -0.019796211, 0.03981723, -0.020747248, -0.12749618, -0.044819374, 0.03366581, 0.02928889, -0.12605734, -0.12768492, -0.019570062, 0.2367032, 0.034693483, 0.10581771, -0.11191412, 0.030416645, 0.0050425567, 0.050199058, -0.2950734, -0.19452618, -0.25567818, -0.04261569, 0.15605372, 0.044961147, 0.023703495, 0.18673556, 0.036885045, 0.13404469, 0.18623869, 0.07182149, -0.112181254, -0.073816665, 0.23978743, -0.012092912, 0.04697852, 0.012645309, 0.04317051, -0.081805654, 0.16851328, 0.0557401, -0.10835081, -0.07587607, 0.034591917, 0.115390435, 0.031975634, 0.14135616, -0.06839704, -0.047652047, -0.036379345, 0.062206693, -0.29652718, -0.17137292, -0.11857752, -0.054991696, 0.03324559, 0.053620454, 0.12899126, 0.13910249, 0.052014343, 0.10884557, 0.15588208, 0.12279319, -0.10224301, -0.09166799, 0.1424775, -0.04256297, 0.051738795, 0.048338346, 0.054052494, -0.088475525, -0.0025053537, 0.12054258, -0.084417365, -0.074353054, 0.026793096, 0.17551255, 0.020093774, 0.18203624, -0.16750842, -0.118889235, 0.007885024, 0.062436983, -0.33179724, -0.16012576, -0.19662783, -0.06288719, 0.13640316, 0.05538607, -0.046232235, 0.14259997, 0.049347576, 0.054338064, 0.14926222, 0.0076068677, -0.15312973, -0.14121062, 0.11092857, 0.05499884, 0.06615217, 0.05842267, 0.06127098, -0.04348646, 0.049058188, 0.07214527, -0.06003843, -0.082887135, 0.047123205, 0.16330406, 0.036409363, 0.13878274, -0.091041856, -0.10448323, 0.05288999, 0.08125574, -0.26830372, -0.12061373, -0.15612999, -0.078676604, 0.10987589, 0.067764126, 0.06604785, 0.29470125, 0.06744778, 0.15861326, 0.18138409, -0.020785026, -0.04183804, -0.038822416, 0.05738521, -0.01298721, 0.050718643, 0.13206494, -0.0005306339, -0.04644316, 0.0049156714, 0.08582404, -0.1391165, -0.03387156, 0.031240989, 0.11659138, 0.079880565, 0.14045759, -0.09222383, -0.06965779, -0.009462574, 0.055097446, -0.24327953, -0.17268911, -0.14272265, -0.06546429, 0.1111295, 0.052753653, 0.003352593, 0.022853723, 0.05403302, 0.27191916, 0.15286438, 0.13607103, 0.14951877, -0.099019885, 0.05040614, -0.12625669, -0.03927647, -0.1070304, 0.09599478, -0.0859227, 0.0048814253, 0.06669471, -0.15971616, -0.32674256, -0.0317986, 0.30311224, 0.042959746, 0.10049073, -0.17690651, -0.37160596, 0.069953255, -0.011691126, -0.31291786, -0.16720645, -0.17892489, 0.04174246, 0.23073895, -0.028136875, -0.06549818, 0.01433544, -0.042460673, 0.17295742, 0.14999937, -0.042450264, 0.1253803, -0.11629423, -0.040484756, -0.034027305, -0.009425753, -0.05059987, 0.037178356, -0.2168459, 0.26697916, 0.05849279, -0.0669603, -0.040296216, -0.010243679, 0.13478634, 0.059805226, 0.14862062, -0.21435815, -0.07548577, -0.01882926, 0.033586208, -0.27629906, -0.2506327, -0.27377546, -0.008313668, 0.05563423, 0.015413225, 0.12211852, 0.1233758, 0.019076215, -0.117221095, 0.13975605, 0.019397924, -0.092884414, -0.119169764, 0.08944419, -0.12120534, 0.069661655, 0.036865205, 0.046569873, -0.06616568, 0.034739524, -0.03557678, -0.22918396, 0.039718106, 0.044348612, 0.03153216, 0.089251086, 0.18000287, -0.19756567, -0.20891166, -0.05001213, 0.07497799, -0.30995867, -0.12126666, -0.17524049, -0.107129075, 0.08596463, 0.06614004, 0.08515703, 0.16715918, 0.064860806, 0.19441403, 0.16862532, 0.05442712, -0.0627251, -0.088307686, 0.31434566, -0.016371762, 0.050168756, 0.027109176, 0.056152232, -0.07372811, -0.008077002, 0.09335061, -0.13392681, -0.013774862, 0.053792708, 0.11460756, 0.11496714, 0.085526586, -0.12337834, -0.08818041, -0.019434359, 0.04432083, -0.3527654, -0.15265879, -0.1895829, -0.023487892, 0.16172819, 0.04073564, 0.18295887, 0.16011974, 0.041263577, 0.0502495, 0.15336397, 0.05127895, -0.20073338, -0.08415014, 0.056731295, -0.0021816597, 0.07792487, 0.049640242, -0.011952439, -0.1220224, 0.06243648, 0.09388824, -0.08140078, -0.047512792, -0.005115036, 0.12141686, 0.13278048, 0.14837693, -0.17787568, -0.11807744, -0.021223653, 0.06937108, -0.35648674, -0.09174088, -0.17012224, -0.08832403, 0.20559475, 0.080654204, -0.00035980227, 0.09631985, 0.08069207, 0.14550109, 0.16375327, 0.029902026, 0.021530783, -0.04377109, 0.07248642, -0.03815518, 0.06889833, 0.07185231, 0.020828322, -0.112945944, 0.036199093, 0.114117496, -0.12212063, -0.053194564, 0.096733764, 0.17488737, 0.08150924, 0.122455224, -0.13933042, -0.09285856, -0.03171585, 0.06797077, -0.35065892, -0.13931353, -0.18912867, -0.083496004, 0.122840025, 0.07580646, 0.11361578, 0.11953763, 0.07093254, 0.11147631, 0.1790834, 0.02461338, -0.16917299, -0.12178605, 0.22102074, -0.066810645, 0.11565206, 0.016093984, 0.040863324, -0.083038054, 0.084899, 0.09369926, -0.024693068, -0.04938902, 0.04400027, 0.1390385, 0.1349061, 0.18315849, -0.111705475, 0.112189345, -0.0095044235, 0.12581618, -0.31994897, -0.14892145, -0.14459695, -0.11274304, 0.20849954, 0.12087003, -0.029793672, 0.1028165, 0.13061564, 0.16466078, 0.17161177, 0.1602883, 0.033380985, -0.12897843, 0.24072872, 0.0063412804, 0.06092954, 0.009350344, 0.09670544, -0.1052399, -0.11453548, 0.10830187, -0.02204141, -0.184714, 0.12896079, 0.12771869, 0.003513196, 0.13033342, -0.0590469, -0.16949072, 0.04555536, 0.08202576, -0.27939457, -0.1423698, -0.13015541, -0.08570838, 0.042762645, 0.07903449, 0.0653651, 0.14510699, 0.07193774, 0.09241468, 0.13079739, -0.06458933, -0.15078898, -0.12115112, 0.1325338, -0.031136822, 0.08674517, 0.08306367, 0.034640856, -0.060133636, -0.012777981, 0.040665925, -0.03223202, -0.10816398, 0.056732953, 0.16416736, 0.06565158, 0.16393249, -0.12849908, -0.05372647, -0.04385131, 0.06708967, -0.24821366, -0.12908503, -0.095034905, -0.092668556, 0.121017605, 0.08205689, -0.01253972, 0.15891275, 0.08273161, 0.1500952, 0.22312485, 0.12756313, -0.083515644, -0.09871157, 0.07582904, 0.0027264543, 0.02215431, 0.010973155, 0.15775168, -0.10337867, 0.044525623, 0.022726256, -0.15715177, 0.028153654, 0.0031224128, -0.09988186, -0.017534418, 0.16468658, -0.08764399, -0.11707391, -0.020255482, 0.03714857, -0.33386675, -0.17194948, -0.15302521, -0.0801949, 0.07552044, 0.029986555, 0.084801935, 0.13011298, 0.025815982, -0.030221174, 0.19809979, -0.040966876, -0.06948759, -0.1862792, 0.13776167, -0.07019929, 0.06789501, 0.023253744, 0.04954477, -0.04674633, 0.04916674, 0.07758353, -0.117698334, 0.06201549, 0.107339144, 0.124779075, 0.062194884, 0.13452251, -0.15114573, -0.11177592, -0.07442474, 0.07479826, -0.3457945, -0.14923337, -0.07939408, -0.07106467, 0.15585074, 0.06252245, 0.030568277, 0.19616652, 0.063015126, 0.16260883, 0.1731082, 0.056135803, -0.13890728, -0.15159996, 0.0541753, -0.028131235, 0.11644144, 0.007825966, 0.19137679, -0.0783594, 0.10738801, 0.02768798, -0.11570388, -0.115529686, 0.11158649, 0.120496176, 0.12209804, 0.1221809, -0.14449842, -0.061303448, -0.003694427, 0.11077023, -0.3833339, -0.08902457, -0.23162758, -0.09839028, 0.09365307, 0.11459152, 0.17680044, 0.13070622, 0.1128581, 0.086280964, 0.182812, 0.12038801, -0.08108847, -0.16368514, 0.18158746, -0.095745765, 0.11409347, 0.114900135, 0.04718709, -0.1309841, -0.12811713, 0.038631994, -0.11160261, -0.11807196, 0.038712464, 0.1594739, 0.13812669, 0.18247253, -0.12004239, -0.07144757, -0.055808965, 0.13411625, -0.3753494, -0.1400243, -0.14114903, -0.11350037, 0.19521183, 0.1259899, -0.019837564, 0.09528006, 0.121007666, 0.07319141, 0.22026844, -0.008666486, -0.061192725, -0.13445476, 0.08425092, 0.009404163, 0.12386449, 0.051377907, 0.08234573, -0.13838539, 0.06970273, 0.108553976, -0.062246293, -0.15346679, 0.08467985, 0.24432285, 0.12237388, 0.103793584, -0.15797925, -0.1737153, -0.0194774, 0.1217056, -0.36692202, -0.06285616, -0.14208956, -0.092016764, 0.0635749, 0.11729785, 0.22124867, 0.15750033, 0.123259924, 0.12400679, 0.15770839, 0.027791552, -0.14782013, -0.14071807, 0.14831063, -0.045995034, 0.08247603, 0.10441865, 0.085492425, -0.115129106, 0.035018895, 0.101102136, -0.09940783, -0.06873892, 0.048026353, 0.104362644, 0.10341485, 0.17300788, -0.090417475, -0.06154233, -0.08440072, 0.06894751, -0.36239862, -0.142904, -0.1604103, -0.08498199, 0.11343252, 0.07444782, -0.07731706, 0.0700618, 0.07852141, 0.05321784, 0.19260058, -0.053697, -0.14072411, -0.077615716, 0.16795692, -0.0058356165, 0.09999229, 0.03402731, 0.13768594, -0.08556611, 0.087103754, 0.13612857, -0.06464122, -0.057343107, 0.03915657, 0.24117999, 0.09814054, 0.08781652, -0.10861023, -0.0979551, -0.034607302, 0.09723299, -0.35005006, -0.12596674, -0.19975364, -0.05585727, 0.080684386, 0.09421625, 0.15079518, 0.17764509, 0.096853666, 0.12840559, 0.17184459, -0.05138138, 0.06765173, -0.12547581, 0.13432956, -0.06274353, 0.07350036, 0.06325108, 0.061927408, -0.037096363, 0.022729987, 0.06732518, -0.0982934, -0.003025711, 0.11289617, 0.044543978, 0.06436881, 0.19299911, -0.12243411, 0.02329766, -0.01199402, 0.07600596, -0.31667325, -0.22667506, -0.06900605, -0.086648874, 0.029938055, 0.066776544, -0.070031114, -0.045813397, 0.07380537, 0.02232378, 0.14709726, -0.014001658, -0.14846134, -0.12627116, 0.07586115, -0.09755596, 0.090014905, 0.036219425, 0.08053112, -0.06970717, 0.14026773, -0.04420772, -0.19392997, 0.06314576, 0.09986027, 0.044519436, 0.017904319, 0.12374053, -0.21946196, -0.06312139, -0.076331094, 0.0887127, -0.34728986, -0.16480078, -0.15724729, -0.048115343, 0.08963408, 0.08328847, 0.099862315, 0.09464719, 0.081482664, 0.08803813, 0.15888749, -0.008152532, -0.15402913, -0.10230912, 0.13287288, -0.041022573, 0.10204382, 0.11368395, 0.08103585, -0.08415989, -0.03429767, 0.0024778072, -0.09101329, -0.043139074, 0.14843506, 0.07110685, 0.09995246, 0.17616238, -0.14811474, -0.016601516, -0.05460446, 0.1175591, -0.33292845, -0.1679953, -0.26212844, -0.11673782, 0.13925931, 0.10754414, 0.21074979, 0.16301566, 0.10460894, 0.009560698, 0.16450784, 0.035950795, -0.139451, -0.13471542, 0.1725323, -0.055915292, 0.14724687, 0.084848866, 0.084620565, -0.11384989, 0.064863905, -0.020033885, -0.13092762, -0.015954318, 0.03334939, 0.016047979, 0.19646645, 0.14601801, -0.15432954, -0.14160751, -0.12102386, 0.15655965, -0.40932694, -0.093214124, -0.17620909, -0.15399013, 0.1508695, 0.15461327, 0.050154462, 0.12143814, 0.14507015, 0.121883996, 0.16296539, -0.020387862, -0.022365252, -0.17220026, 0.16256589, -0.1281993, 0.12086654, 0.0864806, 0.12497356, -0.10077385, -0.0831689, 0.066315085, -0.14727874, -0.100002855, 0.18362787, 0.12115368, 0.11941187, 0.1360077, -0.17790322, -0.13776746, -0.0748781, 0.12196474, -0.41856498, -0.12868968, -0.19574477, -0.07654864, 0.15986042, 0.11917172, 0.12423102, 0.12622848, 0.12130616, -0.0020425436, 0.14508516, -0.08425723, -0.14878723, -0.12166647, 0.14560598, -0.040819332, 0.14128648, 0.09167282, 0.10310424, -0.109626316, 0.08316648, 0.018858064, -0.119215325, -0.14975339, 0.04443556, 0.16340391, 0.16355203, 0.12120247, -0.11033119, -0.09693771, -0.064306036, 0.13103843, -0.4332902, -0.10806246, -0.19095436, -0.10158755, 0.13003395, 0.13922432, 0.0544003, 0.14300483, 0.146299, 0.122830555, 0.1492079, -0.0073318523, 0.119907334, -0.14994273, 0.07517771, -0.043874003, 0.14784162, 0.073941976, 0.067188844, -0.14323063, -0.019360019, 0.097203, -0.092465244, -0.16034313, 0.15929072, 0.07386358, 0.19132894, 0.11156946, -0.12242132, -0.102060795, 0.010882222, 0.15196788, -0.40481827, -0.17175287, -0.17447032, -0.10743454, 0.12080596, 0.14964105, 0.11989858, 0.09982878, 0.15059549, 0.00590056, 0.079839, -0.1314064, -0.1499058, -0.1307416, 0.18759435, -0.014821464, 0.101651125, 0.07398948, 0.19974412, -0.108149655, 0.05101696, 0.03884215, -0.06772742, -0.34283742, 0.11253415, 0.08488012, 0.14345558, 0.14319184, -0.21583034, -0.21640164, -0.1103655, 0.12500438, -0.39636028, -0.1041902, -0.16796592, -0.071252346, 0.0574388, 0.12109227, 0.007990749, 0.112027526, 0.12685865, 0.09695872, 0.13898031, -0.0057938993, -0.07954658, -0.08745215, 0.19133662, 0.004364136, 0.1224452, 0.085016936, 0.024862753, -0.19703622, -0.07172833, 0.097584166, -0.11690619, -0.10375593, 0.059333127, 0.011329173, 0.08652734, 0.09850099, -0.10844201, -0.10503177, -0.04454755, 0.12523021, -0.30078432, -0.16517694, -0.24121647, -0.0899857, 0.090961166, 0.1256128, 0.015576574, 0.0426948, 0.12357757, -0.0756575, 0.19015922, 0.020210078, -0.16828458, -0.09681287, 0.13078335, -0.102785185, 0.1715174, 0.117964365, 0.0077281655, -0.17332315, 0.09058937, -0.09489862, -0.13451864, 0.021949982, 0.11662539, -0.015348297, 0.1680248, 0.16547054, -0.26411736, 0.019192273, -0.075552195, 0.17452762, -0.30785996, -0.1175929, -0.09239984, -0.13982405, 0.11468946, 0.16588438, 0.14544581, 0.09423671, 0.15803182, 0.21793999, 0.13803296, -0.038909577, -0.03416745, -0.16357283, 0.09050862, -0.049592834, 0.11281432, 0.07453661, 0.15692924, -0.12698425, 0.1585244, 0.0008075967, -0.09719214, 0.021566749, 0.08959529, 0.034805924, 0.047220387, 0.10597906, -0.16848694, -0.07574045, 0.015321308, 0.10789994, -0.37846375, -0.15722549, -0.20673116, -0.07354788, 0.09570901, 0.10703467, 0.18483815, 0.12897794, 0.10667136, -0.06768815, 0.18662925, -0.082784906, -0.17395432, -0.1494609, 0.16831474, -0.0832074, 0.14685833, 0.10605984, 0.05728919, -0.11473137, -0.089380056, -0.026314205, -0.15629269, -0.05567906, 0.18073045, 0.026738979, 0.1127282, 0.14685573, -0.16067125, -0.11730292, -0.044431057, 0.16041435, -0.39630866, -0.08051707, -0.1751116, -0.11298744, 0.13243496, 0.1418471, 0.04809542, 0.15920515, 0.13912442, 0.086337574, 0.13132736, -0.07954273, -0.08735226, -0.17988735, 0.103841364, -0.11102393, 0.20430638, 0.12820558, 0.07390317, -0.077960394, 0.12136067, -0.04074774, -0.11038976, -0.066143565, 0.10017729, 0.05658667, 0.17760925, 0.09017882, -0.14037234, -0.04494628, -0.07077674, 0.20773582, -0.42825514, -0.19544315, -0.15781355, -0.16029532, 0.13140707, 0.21338648, 0.1659154, 0.15669347, 0.21487093, 0.04114888, 0.0925891, -0.10288017, -0.03598892, -0.11448197, 0.18886685, 0.026698433, 0.15387958, 0.11669449, 0.08601547, -0.13270125, 0.01544303, -0.035680786, -0.15266478, -0.15186347, 0.12844947, 0.040972963, 0.14788279, 0.12874195, -0.14887609, -0.12083014, -0.14720799, 0.16572481, -0.4236518, -0.14376111, -0.21043691, -0.11846495, 0.15097272, 0.16578603, 0.04254778, 0.09812207, 0.16090883, 0.092543766, 0.117444, -0.12034818, -0.094336815, -0.12041063, 0.07620679, -0.06994291, 0.17308123, 0.06639665, 0.10449721, -0.18391517, 0.03810813, 0.051594604, -0.049193487, -0.29672468, 0.1775323, 0.11703752, 0.16062012, 0.077044375, -0.14181772, -0.12044086, -0.024454873, 0.17468105, -0.39732683, -0.12664297, -0.2433237, -0.111217454, 0.08575262, 0.18837382, 0.17605515, 0.22027127, 0.1950374, 0.035533078, 0.07817669, -0.18953682, -0.0363891, -0.09971305, 0.08619379, -0.06649805, 0.1629984, 0.115405165, 0.14962062, -0.12290426, 0.033913143, 0.0035645966, -0.122587785, -0.12687667, 0.12397544, -0.02843294, 0.15668344, 0.20793241, -0.18833424, -0.038108945, -0.1822648, 0.12146608, -0.39741176, -0.17201276, -0.22352456, -0.06540901, 0.08385008, 0.14866532, -0.074519776, 0.07143739, 0.16356997, 0.20263305, 0.105409436, -0.14849089, -0.05726737, -0.12883753, 0.06858817, -0.070278324, 0.16825171, 0.07511489, 0.06880412, -0.13696295, 0.020230046, 0.024292652, -0.03547105, -0.07815707, -0.00026591073, 0.23357624, 0.1783991, -0.006558804, -0.12909786, -0.023640951, 0.02902239, 0.1744581, -0.36659616, -0.1543475, -0.15922005, -0.123523116, -0.04722088, 0.16877334, 0.20835342, 0.07274005, 0.16880265, -0.10283531, 0.093080334, -0.08689347, -0.11083038, -0.12081829, 0.15494151, -0.008586258, 0.1077479, 0.06026919, 0.20210448, -0.2046518, -0.033513833, -0.10259442, -0.14177765, -0.07089382, 0.09147998, 0.09181857, 0.16437338, 0.09377884, -0.29331997, -0.19874845, 0.05575782, 0.13375434, -0.32263237, -0.20061474, -0.17003103, -0.12419927, 0.13963868, 0.117700376, 0.06404115, -0.032834608, 0.11040117, 0.12330724, 0.07301476, -0.029330274, -0.14928205, -0.21797016, 0.0019593101, -0.06821635, 0.21229994, 0.034235053, 0.19901249, -0.03269841, 0.10351421, -0.19872212, -0.13915823, 0.08999077, 0.032690737, 0.016876042, 0.23627229, 0.089846246, -0.23887189, -0.010256113, -0.0137619395, 0.21613996, -0.37687537, -0.15731119, -0.1449744, -0.17439593, 0.0556686, 0.22148867, 0.013513213, 0.064611, 0.22480513, 0.051492084, 0.0758489, -0.11916789, -0.16615365, -0.11566746, 0.01074983, -0.07685074, 0.18788452, 0.118063495, -0.008557295, -0.121551484, 0.053466715, -0.11730143, -0.13450496, 0.020145398, 0.068418436, -0.04941003, 0.17732699, 0.13228737, -0.23806624, -0.080814324, -0.21697558, 0.21580915, -0.41502675, -0.18154769, -0.18381435, -0.1659424, 0.13112146, 0.22388093, 0.11383881, 0.07114751, 0.22188875, -0.0016921939, 0.10746998, -0.11754751, -0.18515229, -0.16430214, -0.017489683, -0.03610053, 0.22591446, 0.08387103, 0.17363775, -0.07269863, -0.03942924, -0.080174044, -0.08951089, -0.04475972, 0.16852787, 0.06449017, 0.19958733, 0.10667877, -0.16251837, -0.14240408, 0.021693893, 0.21163698, -0.40456903, -0.1637569, -0.1920908, -0.16081211, 0.08652231, 0.23197646, 0.19582663, 0.13655375, 0.2352307, -0.076390736, 0.020108052, -0.08447325, -0.22985278, -0.2963494, 0.100368634, -0.0039664023, 0.23302078, 0.18076938, 0.08484909, -0.21919295, 0.0124409, -0.011909066, -0.07538242, 0.068342, 0.1291507, -0.08851921, 0.2706111, 0.09604879, -0.21859679, 0.053796813, -0.12711082, 0.24978894, -0.43236408, -0.17025359, -0.24573623, -0.22045648, 0.117138155, 0.247821, 0.05023733, 0.11393885, 0.24501298, 0.04912725, 0.046812378, -0.17644823, -0.20673987, -0.15899105, -0.035126124, -0.07776828, 0.22133754, 0.03948314, 0.09595726, -0.12753788, 0.023094904, -0.059897408, -0.05582524, -0.06420142, 0.09429088, -0.035335235, 0.24470991, 0.13193257, -0.22194575, -0.0578585, -0.08457758, 0.23604597, -0.38466182, -0.22302274, -0.2865796, -0.19044358, 0.004572181, 0.22992629, 0.17099522, 0.08207223, 0.21920247, -0.041752897, 0.045269236, -0.22407217, -0.1350869, -0.043556284, 0.124847345, 0.047471117, 0.1569941, 0.13206387, 0.08011331, -0.13196447, -0.046915714, 0.049030345, -0.09227139, -0.046586286, 0.20026639, -0.19441071, 0.1596863, 0.2513243, -0.16405423, -0.098170355, -0.013205333, 0.1558786, -0.3545489, -0.24112767, -0.24173045, -0.12820926, 0.09568387, 0.16104579, -0.028328871, 0.039532892, 0.15675223, -0.021315442, 0.026711127, -0.18939444, -0.13122867, 0.08792423, 0.16993675, 0.027663, 0.12558578, 0.101094946, 0.14496976, -0.1780784, 0.05804606, 0.052837286, -0.07891906, -0.118105136, 0.04886646, 0.08897071, 0.15274733, -0.025192793, -0.15509313, -0.27583385, -0.056224, 0.1428687, -0.34360963, -0.17495117, -0.38106975, -0.12454245, 0.14033125, 0.13989721, 0.1139528, 0.18461022, 0.13273765, 0.06530943, 0.05856751, -0.0026082112, -0.047597595, -0.15217751, 0.11040426, 0.06730607, 0.075094424, -0.010964842, 0.063596845, -0.13341142, 0.10821027, -0.17151478, -0.11958184, -0.07743936, 0.016045641, 0.07648525, -0.007699117, 0.079589345, -0.19809608, -0.19445635, -0.11427828, 0.081773095, -0.34190255, -0.24349642, -0.065449946, -0.06767304, 0.18731518, 0.08144337, 0.18800865, -0.07484316, 0.08070681, -0.32719764, 0.18465777, 0.018003032, -0.07591805, -0.0073147467, 0.018787721, -0.07918492, 0.082779214, 0.16186766, 0.08999774, -0.14235517, 0.028309552, -0.13075922, -0.08688053, -0.0063072094, 0.16888969, -0.044643193, 0.092440285, 0.14205062, -0.23488101, -0.162809, -0.036280345, 0.09517057, -0.38438782, -0.23953971, -0.11945556, -0.065004475, 0.033624478, 0.085977145, -0.041154146, 0.055480786, 0.07464573, 0.085815325, 0.06341282, 0.0075751366, -0.13164023, -0.17529531, -0.0014558284, -0.03156146, 0.28416452, 0.010262836, 0.15090889, -0.050854214, -0.018417813, -0.13560878, -0.1686613, 0.01760018, 0.10046719, -0.03538896, 0.1961529, 0.12125314, -0.17001039, -0.041265965, 0.086877376, 0.22556606, -0.3942697, -0.19038711, -0.1489426, -0.1791345, -0.0062217778, 0.2538722, 0.21477523, -0.00966134, 0.26570687, -0.09996802, 0.034238055, -0.02546825, -0.19317456, -0.025760004, -0.08447784, -0.11602987, 0.23060527, 0.14370446, 0.07154741, -0.09485233, -0.0661729, -0.11585671, -0.07292547, -0.022019947, 0.032714274, -0.038550634, 0.23302098, 0.15559456, -0.21021388, -0.1356011, -0.1333109, 0.24517596, -0.40257937, -0.17827588, -0.12120539, -0.19174822, 0.099005766, 0.23845538, -0.039383546, 0.101814166, 0.23011896, -0.059018157, 0.06434801, -0.113859855, -0.15575115, -0.09356536, -0.020422203, -0.0012090148, 0.20115785, 0.07627461, -0.0031767949, -0.09412153, -0.013955252, 0.006318098, -0.18369111, -0.061276704, 0.18360564, -0.103783526, 0.27944458, 0.064402364, -0.2635528, -0.21740803, 0.013955131, 0.2467162, -0.40233675, -0.098940894, -0.26989934, -0.1738218, 0.1128407, 0.22717552, 0.19623171, 0.08738717, 0.2074014, 0.04856778, -0.029515887, -0.16480364, -0.1686137, -0.0833928, 0.022858663, 0.025421284, 0.17967576, 0.23509653, 0.17053562, -0.05051924, 0.015866833, -0.021753054, -0.19492508, -0.0652881, 0.119797215, -0.08457878, 0.2172932, 0.07993833, -0.28145847, 0.013742763, -0.06512681, 0.19219638, -0.36012965, -0.23047303, -0.15465662, -0.17817812, 0.13653067, 0.19197352, 0.18550198, 0.114001684, 0.17900947, -0.09650478, 0.06411703, -0.12466499, -0.037845235, 0.034862757, 0.13170837, 0.038048778, 0.123973586, 0.045828763, 0.1292099, -0.104003616, -0.105174735, 0.024793973, -0.17594983, -0.09773468, 0.18813106, 0.11288599, 0.15144159, 0.10890569, -0.23502252, -0.34567595, 0.0073261834, 0.14421003, -0.35419828, -0.13806961, -0.31539744, -0.09015433, -0.029971853, 0.13041563, 0.22516423, 0.18389806, 0.12348953, -0.024356116, 0.0076118843, -0.11485644, -0.24396057, -0.14368112, 0.08117631, 0.044976752, 0.18897979, 0.102981396, 0.19797766, -0.0762717, -0.058365494, -0.05767841, -0.032106627, -0.043327376, 0.09047453, -0.031269424, 0.13776004, 0.06612949, -0.3365339, 0.1315817, -0.06985368, 0.16012807, -0.3397456, -0.1362954, -0.12732197, -0.15002953, 0.11864924, 0.16359578, -0.6669511, 0.038560387, 0.16509707, 0.12500677, -0.23749611, -0.17192529, -0.0015374136, 0.11024291, -0.011861028, -0.015783591, -0.032684565, 0.04975888, -0.06334851, 0.26614428, 0.039646946, -0.26335648, -0.22583367, -0.28156942, 0.12815036, -0.2096203, -0.014046861, -0.097704664, -0.28700432, 0.045627084, -0.079763845, 0.0026177517, -0.33041584, -0.44107553, -0.13190696, -0.014451807, 0.06495086, -0.011744776, 0.09947888, -0.21077058, -0.032194484, -0.23065835, 0.052007563, -0.040084403, -0.10549007, -0.05643409, -0.18055205, -0.07816507, 0.11261356, 0.2795688, -0.0030405736, -0.17006788, -0.078621835, -0.074819304, -0.030236682, -0.05792103, 0.014597561, -0.08920474, 0.13737324, 0.08713358, -0.29512691, -0.15967493, -0.15898693, 0.10355461, -0.3940778, -0.19794907, -0.28729486, -0.1012692, 0.029111682, 0.108272284, 0.1481067, 0.08807927, 0.10387766, 0.1015022, 0.069768846, -0.08955789, -0.105770685, 0.01565236, -0.0007581028, 0.05612549, 0.10911086, 0.020785186, 0.07339076, -0.054110024, 0.084273346, -0.10394604, -0.15192966, 0.038708597, 0.13788068, -0.06003263, 0.08809955, 0.09713691, -0.22848566, -0.24583584, 0.003223263, 0.10167633, -0.36405778, -0.2960649, -0.17879611, -0.043616157, 0.045048278, 0.10032064, 0.1335644, -0.08703694, 0.102530085, 0.004588384, 0.035954993, 0.04119252, 0.14769919, 0.043454714, 0.16604103, -0.08292407, 0.011978609, 0.18374057, 0.07214665, -0.09597219, -0.078885995, -0.21629518, -0.20408802, -0.10590867, 0.06010562, 0.037596725, 0.06439798, 0.09771315, -0.30685848, -0.22153747, -0.11570904, 0.01599206, -0.41251096, -0.29838598, -0.16699666, 0.04922738, 0.091461904, 0.014420662, -0.0054602283, -0.035686895, 0.0024275815, -0.005915268, 0.05643757, -0.13051385, -0.1708011, -0.0823257, 0.24685334, -0.020704404, 0.15068962, -0.02025388, -0.011115439, -0.08204701, 0.24007177, -0.18262376, -0.16267526, -0.113517605, 0.08376774, 0.06773659, 0.17717016, 0.030245801, -0.16509105, -0.016723266, 0.10608005, 0.17089123, -0.3903574, -0.15991749, -0.17579801, -0.2071163, -0.055902462, 0.14354073, 0.021698607, 0.01065321, 0.12959939, -0.3255828, -0.10030443, -0.07709362, 0.003229882, 0.09694022, 0.17735903, -0.2054126, 0.0075864764, 0.04294387, -0.09952592, -0.17965141, -0.0905023, -0.063847736, -0.37926066, -0.12288867, -0.014410714, -0.09709748, 0.061283167, 0.067384265, -0.33867797, -0.3088591, -0.08023875, 0.037204396, -0.40115216, -0.35218596, -0.46036598, -0.003989308, 0.041643012, 0.026114909, 0.060798083, 0.021321665, -0.005845875, 0.008268673, 0.05136701, -0.1361752, -0.09646426, -0.11964704, 0.17771876, 0.08580135, 0.15653898, 0.027102461, 0.032776684, -0.09250086, -0.13782614, -0.074694894, -0.20305729, 0.008060838, 0.07388868, 0.10828731, 0.09683451, 0.007126733, -0.2538111, -0.059046894, -0.05050232, 0.12757127, -0.3593076, -0.095436044, -0.12667297, -0.10166823, 0.032387942, 0.14533365, 0.047817282, -0.1707559, 0.15346391, -0.065904625, -0.55570227, 0.049613267, -0.002891378, 0.11638757, -0.046438348, 0.0110462345, -0.037987944, 0.102123104, -0.018868163, -0.02668236, -0.123674914, -0.10930361, -0.36981907, -0.008637693, 0.22722942, 0.14650497, 0.06326814, -0.038773004, -0.19746338, 0.13958997, -0.27411363, -0.01584981, -0.2944374, -0.2562119, -0.35571018, 0.07305728, 0.11354611, -0.012362952, 0.1651821, -0.04680946, -0.028751733, 0.06820201, 0.07694955, -0.15981618, -0.16328737, -0.14648716, 0.05263425, -0.08000788, 0.11705598, 0.0044755284, -0.024018455, -0.19373666, 0.44892424, 0.17670083, -0.068704404, 0.14632326, 0.12741111, 0.14024025, 0.1944899, 0.073344894, -0.16394196, 0.037942264, -0.18321988, 0.116069146, -0.37026626, -0.1215153, -0.14060195, -0.13404611, -0.032366555, 0.116073854, -0.046009947, 0.022308443, 0.111944094, 0.15746029, 0.069109544, -0.13946457, -0.18178321, -0.13864252, 0.15748443, -0.05606391, 0.1882874, 0.08135589, 0.17736399, -0.14384365, -0.06343526, 0.11987942, -0.17298308, 0.046866294, -0.0317145, 0.2942895, 0.1460808, 0.156824, -0.15688969, -0.21732248, 0.025551146, 0.17004016, -0.35718325, -0.12601057, -0.16670978, -0.12581395, -0.009382449, 0.16234845, 0.10777514, 0.10106327, 0.17104107, 0.08523943, 0.1129848, -0.024859002, -0.16411863, -0.17083424, 0.25824618, 0.025604852, 0.088705406, 0.031105062, 0.005192993, -0.13348429, 0.15605117, 0.07342822, -0.10328591, -0.076958835, 0.029769797, 0.09101703, 0.03262821, 0.05604304, -0.09838501, -0.08250171, -0.12470211, 0.12031427, -0.36969998, -0.1264994, -0.11732577, -0.13243808, 0.019248344, 0.10813401, 0.0019161478, 0.0886652, 0.094976865, 0.14453986, 0.12992828, -0.012895763, -0.042163536, -0.13586077, 0.25916627, -0.14375232, 0.1136112, 0.08566373, 0.11812569, -0.11047992, 0.0017121991, 0.09738384, -0.15860479, 0.010799346, 0.07289593, 0.13513483, 0.12754686, 0.1799784, -0.14626832, -0.04281717, 0.039145213, 0.11821245, -0.361348, -0.13801621, -0.055672, -0.10199793, 0.083371095, 0.120924756, 0.1013309, 0.1304954, 0.13557546, 0.18590733, 0.1264105, -0.030113094, -0.115959905, -0.10199988, 0.12813133, -0.011887927, 0.08345936, 0.16475326, 0.06215764, -0.07720379, 0.16880691, 0.14599074, -0.0614829, -0.044914108, 0.06112159, 0.13783738, 0.10940358, 0.079129525, -0.04460339, -0.04495476, -0.16299193, 0.073752545, -0.39117596, -0.17155805, -0.15196443, -0.05747962, 0.11480861, 0.07293494, 0.040409338, 0.057884805, 0.080651924, 0.06955546, 0.12967296, -0.13833515, -0.043862045, -0.13819958, 0.15292434, -0.093605585, 0.060619254, 0.29192346, 0.20448294, -0.031997595, 0.025283357, 0.109946236, -0.18907408, 0.07871799, 0.030565662, 0.044558086, 0.08362076, 0.112612374, -0.20997097, -0.083308704, 0.019436304, 0.05377509, -0.363503, -0.16925606, -0.18193811, -0.061126452, 0.1251616, 0.051439762, 0.15360732, 0.11440128, 0.06160738, 0.08030728, 0.10233465, -0.19759056, -0.11738597, -0.122604206, 0.17152467, -0.10736991, 0.22043277, 0.010347826, 0.07049536, -0.048690032, 0.18764636, 0.3066783, -0.11857816, 0.13280143, 0.15613574, 0.019906638, 0.19138789, 0.065345265, -0.17628665, 0.010690226, -0.15058425, 0.18755165, -0.3457658, -0.13143802, 0.020807564, -0.17726809, 0.06890311, 0.19404005, 0.08282707, 0.13104665, 0.22149023, 0.082807526, 0.04204211, -0.08347965, -0.00820001, -0.1716762, 0.24343114, -0.013754234, 0.10719031, 0.14963081, 0.21002968, -0.06683645, -0.14526692, 0.097603984, -0.12871327, 0.0032072512, -0.02051527, 0.10066587, 0.07142785, 0.08724016, -0.25224146, -0.00027686058, 0.07984964, 0.101651266, -0.35605606, -0.17046845, -0.12975422, -0.0864031, 0.18130445, 0.101545714, 0.18924455, 0.034108095, 0.10912491, -0.0026885248, 0.10444846, -0.05881028, -0.05947653, -0.045715272, 0.04225796, -0.10097306, 0.14882784, 0.077430144, 0.19054437, -0.17577152, -0.04125051, 0.12957375, -0.16253567, 0.12968461, -0.06455879, 0.06531811, 0.15135334, 0.12537196, -0.1806529, -0.18389143, 0.010459306, 0.14843673, -0.35545048, -0.19709955, -0.1154622, -0.12800556, -0.033741456, 0.14155212, 0.14855811, 0.090330854, 0.14052132, 0.06487793, 0.057481907, -0.18976073, -0.08252739, -0.09599795, 0.1298446, -0.062317353, 0.12500969, 0.031686794, 0.1390493, -0.15487908, 0.40790868, 0.12495421, -0.07537312, 0.09803474, 0.108404085, 0.052132685, 0.20113297, 0.055739734, -0.18934695, -0.052200418, -0.20958628, 0.13554151, -0.40675506, -0.13698126, -0.21631928, -0.14328143, 0.045916457, 0.12885712, -0.051734768, 0.10028755, 0.12704574, 0.056541022, 0.08311233, -0.061784673, -0.14061268, -0.15932655, 0.19707498, -0.11620466, 0.19184352, 0.074826166, 0.2777846, -0.10833377, -0.018283479, 0.09111302, -0.14198087, 0.05243727, 0.043114267, 0.104557626, 0.22268756, 0.12892945, -0.2060916, -0.11924696, 0.044993814, 0.13982026, -0.41078448, -0.15318649, -0.12108173, -0.11125405, 0.02101194, 0.1387609, 0.10453102, 0.21351673, 0.13579406, 0.10651651, 0.12439752, -0.07837902, -0.20598823, -0.15698126, 0.25991213, -0.030794935, 0.15084365, 0.07797502, 0.034698635, -0.05848206, 0.1308475, 0.109088175, -0.05685812, -0.05463813, 0.09473378, 0.117984354, 0.16177256, 0.09335063, -0.10815846, -0.04147107, -0.1533968, 0.13419612, -0.4094919, -0.0673366, -0.13777548, -0.15162969, 0.09904385, 0.1349296, 0.011579853, 0.03920465, 0.14489675, 0.071575634, 0.13712947, -0.062326804, -0.08489522, -0.12814638, 0.16162284, -0.12094874, 0.12945479, 0.092525646, 0.1631532, -0.06653331, 0.06075352, 0.12554696, -0.16850005, 0.05232554, 0.04206859, 0.06485145, 0.1031246, 0.14166877, -0.17175192, -0.07674071, 0.030146902, 0.11076746, -0.36721507, -0.16511247, -0.15577984, -0.11195008, 0.16346134, 0.107884064, 0.18412372, 0.10942752, 0.11611977, 0.12567838, 0.16180478, -0.10368256, -0.16741599, -0.095902584, 0.2361333, -0.05707352, 0.16209586, 0.1028169, 0.13553508, -0.022554496, 0.12185409, 0.10573873, -0.07921282, 0.026855174, 0.09081127, 0.060964197, 0.1910124, 0.081447534, -0.062125612, 0.002875969, -0.20711099, 0.14801636, -0.3832655, -0.15329255, -0.10950606, -0.14885803, 0.031426284, 0.1664974, 0.04775347, 0.081125654, 0.16836797, 0.060390446, 0.15303339, -0.12092625, -0.17813422, -0.16265921, 0.14457454, -0.033484153, 0.18123703, 0.15411507, 0.23762733, -0.045781016, 0.00010942747, 0.10689166, -0.16917087, 0.12780762, 0.061147157, 0.16001032, 0.18826784, 0.12763306, -0.15518458, 0.002520799, 0.00031852417, 0.15940851, -0.35065702, -0.11115726, -0.14197202, -0.1623946, 0.09629086, 0.16559201, 0.18200552, 0.080289066, 0.16725539, 0.10928418, 0.14414011, -0.2581147, -0.17761192, -0.1287592, 0.10121078, -0.01337218, 0.1556468, 0.072017804, 0.29061976, -0.12234786, 0.05574212, 0.10903385, -0.012926048, 0.019654999, 0.19024101, 0.06821763, 0.15978514, 0.11049708, -0.17895971, -0.20580702, -0.29581082, 0.18885331, -0.31320864, -0.14449547, -0.08083683, -0.15697734, 0.07717179, 0.16718367, 0.08691272, 0.061383225, 0.15937446, 0.10668789, 0.06304075, -0.22966543, -0.14551833, -0.108943656, 0.20767227, 0.005907458, 0.13356882, 0.015881043, 0.15341619, -0.15242921, 0.13094795, 0.09394472, -0.05418011, -0.068127334, 0.21036902, 0.087169595, 0.025794527, 0.017229686, -0.20048653, -0.115863174, -0.18784364, 0.14963482, -0.37803257, -0.115216, -0.096504085, -0.12589005, 0.042173557, 0.13939188, 0.04065666, 0.06724028, 0.13344203, 0.03206954, 0.116689265, -0.16549984, -0.10433569, -0.10763942, 0.19582279, -0.14480901, 0.16209605, 0.045924176, 0.15055639, -0.13564928, -0.008196175, 0.16185199, -0.10870026, 0.096301086, 0.005005246, 0.01171665, 0.11097778, 0.11525049, -0.2098982, -0.12863834, 0.025706908, 0.14926101, -0.3886058, -0.1334437, -0.09738592, -0.11405131, 0.027465813, 0.15537287, 0.20222643, 0.13277355, 0.15849097, 0.09894445, 0.09541248, -0.15060835, -0.10103402, -0.10292345, 0.2516865, -0.15567267, 0.14873554, 0.06675155, 0.03567357, -0.06725346, 0.32042825, 0.15357901, -0.023093719, 0.039435554, 0.08836767, 0.03942988, 0.22628407, 0.0755264, -0.16158463, -0.024726618, -0.27363595, 0.1538709, -0.4383011, -0.09556199, -0.26738024, -0.12175667, 0.112612575, 0.13744502, -0.042665828, 0.09111337, 0.12709643, 0.05949956, 0.09124941, -0.099775404, -0.10946938, -0.15045983, 0.20706923, -0.10694989, 0.17363845, 0.15244344, 0.27354074, -0.031496663, -0.104579575, 0.09390232, -0.18436228, 0.007136038, 0.031931024, 0.16013545, 0.18046635, 0.1308185, -0.16807294, -0.17435156, 0.05039859, 0.15851448, -0.41265818, -0.12926531, -0.15023747, -0.1213672, 0.16917975, 0.16544732, 0.1461959, 0.09707892, 0.16577055, 0.09117051, 0.12351704, -0.14852947, -0.096501894, -0.12121942, 0.24592093, -0.12338299, 0.16147014, 0.058393832, 0.06381226, -0.059233893, 0.16215077, 0.11805402, -0.07603476, 0.0094399275, 0.10268098, 0.11503092, 0.15007132, 0.07426611, -0.12481411, -0.030255312, -0.21916142, 0.15762657, -0.43633357, -0.10442188, -0.14869642, -0.113474526, 0.09233625, 0.15479688, 0.11051128, 0.086622745, 0.15254463, 0.06758004, 0.1651771, -0.107047655, -0.12270437, -0.17876154, 0.092913754, -0.07829559, 0.17829436, 0.116811566, 0.312237, -0.11701576, -0.020258239, 0.11284566, -0.15139249, 0.061492838, 0.12093094, 0.058319658, 0.14467393, 0.15695542, -0.13558705, -0.09350202, 0.0058957543, 0.14273135, -0.36469072, -0.0976349, -0.079818994, -0.12441125, 0.11760398, 0.14377649, 0.20040126, 0.102651194, 0.15441532, 0.109210715, 0.15891787, -0.1830212, -0.1814486, -0.15393218, 0.0989674, -0.08009613, 0.17220624, 0.11467555, 0.098324746, -0.098045364, 0.008946274, 0.08129009, -0.047736518, 0.03534924, 0.11326314, 0.11491272, 0.18981247, 0.11991988, -0.1284964, -0.031748056, -0.25007528, 0.15935977, -0.40891308, -0.13088237, -0.13892443, -0.13428766, 0.070345186, 0.16916262, -0.010962764, 0.07236033, 0.1686628, 0.035311613, 0.15615043, -0.23958324, -0.16910052, -0.13260554, 0.25010136, -0.043246854, 0.15373455, 0.13965483, 0.25176677, -0.10445964, -0.010103851, 0.093240194, -0.22999206, 0.04829877, 0.060728848, 0.08101073, 0.16752195, 0.107496426, -0.1840239, -0.06695681, 0.07528827, 0.14141534, -0.35855126, -0.15522197, -0.13636242, -0.10977374, 0.09138768, 0.14346388, 0.22070482, 0.16849388, 0.15095975, 0.03864274, 0.13231412, -0.1225891, -0.03870066, -0.08344624, 0.15996835, -0.078108475, 0.13307293, 0.11431186, 0.21631703, -0.16451798, 0.06399248, 0.00799734, -0.13487722, 0.13898355, 0.06642231, 0.057763495, 0.09595324, 0.12923272, -0.23971587, -0.1353737, 0.08782487, 0.118426725, -0.3420608, -0.16717339, -0.098120145, -0.05931143, 0.00811224, 0.112953685, 0.26031074, 0.089926235, 0.11378605, 0.07443212, 0.08015324, -0.17481437, -0.09045803, -0.09273307, 0.2097512, -0.049662445, 0.1722192, 0.013632344, 0.20551977, -0.1092231, 0.12794328, 0.052485503, -0.084757514, -0.014681929, 0.13286462, 0.054229643, 0.1493248, 0.053068567, -0.14594999, -0.12757084, -0.19819263, 0.17375849, -0.40835354, -0.08430324, -0.15221977, -0.15325579, 0.10177907, 0.17052811, 0.06588716, 0.104998074, 0.1694204, -0.008987366, 0.12507439, -0.114638045, -0.10765631, -0.16095161, 0.19033332, -0.1648519, 0.16748282, 0.12464679, 0.16459513, -0.0920649, -0.08070441, 0.11553403, -0.13652615, 0.010230221, 0.089362495, -0.032388695, 0.13387199, 0.116099924, -0.16887851, -0.101338506, 0.021556107, 0.16021654, -0.41300452, -0.16404311, -0.1936254, -0.12765984, 0.123810634, 0.17568998, 0.18722288, 0.14726372, 0.18649308, 0.11006791, 0.055384602, -0.17894249, -0.13585398, -0.15092209, 0.1587525, -0.12909338, 0.22649957, 0.08310133, 0.124375984, -0.08219458, -0.010728283, 0.10133079, -0.0743409, 0.012091341, 0.22658765, 0.06713232, 0.24032255, 0.09586069, -0.1943077, -0.09552541, -0.3080203, 0.22198968, -0.44904932, -0.065956265, -0.10537764, -0.12837042, 0.1854302, 0.2249392, 0.13960199, 0.06505416, 0.22172138, 0.023319148, 0.15148239, -0.18931015, -0.15186486, -0.16743337, 0.105423585, -0.10039154, 0.19083138, 0.0960646, 0.07363795, -0.10330169, -0.053750034, 0.091002315, -0.18647437, -0.060543057, 0.06356764, 0.11888148, 0.1619051, 0.13155062, -0.1515818, -0.14171231, 0.06469406, 0.18789653, -0.3909493, -0.11580089, -0.164086, -0.11975509, 0.13370338, 0.17681828, 0.13495907, 0.13021274, 0.17709929, 0.077041745, 0.10982173, -0.049167495, -0.049831264, -0.18047172, 0.12625588, -0.02550896, 0.17041592, 0.066847876, 0.177114, -0.1155185, 0.08717625, 0.05846212, -0.0979094, -0.012952174, 0.14371908, 0.019492712, 0.18762481, 0.09347016, -0.15716286, -0.065257266, -0.274087, 0.16217045, -0.43647087, -0.13183834, -0.13653539, -0.14531629, 0.07901015, 0.16788344, 0.0277738, -0.0006986142, 0.16871665, 0.07868386, 0.15106922, -0.18076561, -0.16865507, -0.13297266, 0.15160525, -0.10684495, 0.19387613, 0.1788876, 0.19885835, -0.19738197, 0.0005996963, 0.09580737, -0.19223543, -0.04051194, 0.10785353, 0.023308283, 0.13891925, 0.11304847, -0.14778069, -0.11974556, 0.073699445, 0.16811134, -0.32792932, -0.16148084, -0.14613873, -0.12380963, 0.04591319, 0.17849334, 0.15246063, 0.20347229, 0.18505642, 0.054186422, 0.097314954, -0.24538885, -0.11842345, -0.14702338, 0.045690004, 0.0026661388, 0.16092865, 0.10576562, 0.15506038, -0.15223531, 0.11095353, 0.08100574, 0.04345635, -0.092477806, 0.024160018, 0.18604296, 0.15648429, 0.060896322, -0.17033273, -0.12005949, -0.16777895, 0.16751336, -0.38944733, -0.102167286, -0.17144641, -0.13890305, -0.025999907, 0.16625743, -0.0220201, -0.0007187172, 0.16634612, -0.032102678, 0.13222395, -0.10422864, -0.120574676, -0.046182584, 0.20550649, -0.066563524, 0.17461824, 0.03711943, -0.0022377495, -0.18766229, 0.16936348, 0.05412338, -0.108632885, 0.053284552, 0.16668715, 0.09226705, 0.12971868, 0.07720218, -0.19156374, -0.0754938, -0.20277537, 0.17616503, -0.37377915, -0.10205974, -0.084451355, -0.13158509, 0.07054033, 0.18567897, 0.13643542, 0.030564465, 0.17249079, 0.046518754, 0.113265164, -0.16314706, -0.08269303, -0.07085144, 0.21301724, -0.1285886, 0.17078581, 0.113474704, 0.17317547, -0.08173312, 0.06852135, 0.07503969, -0.14647049, 0.12154031, 0.09243228, 0.009052495, 0.10507964, 0.11011623, -0.1985071, -0.115391016, 0.08253684, 0.16488014, -0.39741203, -0.18860023, -0.13932133, -0.1396422, 0.16248137, 0.17115827, 0.21091057, 0.13186081, 0.18452634, 0.04915039, 0.027549235, -0.17811912, -0.10618962, -0.117234, 0.27571875, -0.079748146, 0.20300145, 0.09040324, 0.16253456, -0.06186841, 0.02511344, 0.046751052, -0.11546205, 0.0022909231, 0.1457948, -0.068644546, 0.2312084, 0.059287786, -0.1811277, -0.15185432, -0.12660189, 0.21065411, -0.43230075, -0.09048181, -0.09376742, -0.1568748, 0.16211967, 0.20475705, 0.075133204, 0.08945916, 0.208029, 0.060921058, 0.082185656, -0.22725862, -0.20117334, -0.17313638, 0.21425016, -0.18635908, 0.22141539, 0.14681755, 0.14403841, -0.13890623, 0.0375925, -0.0014892644, -0.17830016, 0.012880091, 0.1064292, 0.00013121433, 0.19778296, 0.103370726, -0.1828297, -0.031520747, 0.034842808, 0.20659064, -0.41602647, -0.1938336, -0.18399902, -0.15193617, 0.2214247, 0.21761905, 0.19042647, 0.11703298, 0.22235124, 0.06845001, 0.06544255, -0.21364842, -0.10688394, -0.08468492, 0.19571014, 0.027635561, 0.19786409, 0.12371945, 0.11706314, -0.1550026, 0.11492707, 0.02537824, -0.08644696, -0.06198939, 0.184483, 0.057795256, 0.21651724, 0.11483174, -0.14019534, -0.10381634, -0.31773254, 0.18542215, -0.40514907, -0.06709784, -0.10023571, -0.12556915, 0.1456496, 0.20406435, 0.04155532, 0.043438993, 0.21394926, 0.019032639, 0.112607986, -0.23393168, -0.20559941, -0.15509453, 0.21478096, -0.13278542, 0.22526886, 0.08194217, 0.033907905, -0.18062688, -0.06561769, 0.061340533, -0.23602624, -0.003200829, 0.07814432, 0.03302142, 0.20283051, 0.12019561, -0.14321491, -0.2540138, 0.07605532, 0.22682282, -0.38670948, -0.14572132, -0.17766936, -0.15555999, -0.029745745, 0.23634486, 0.15015887, 0.08928863, 0.22966228, 0.06729028, 0.068566166, -0.2130829, -0.041937917, -0.171781, 0.14166492, -0.042877298, 0.15966202, 0.1076533, 0.20404808, -0.11284129, 0.10110972, 0.05862571, -0.09061644, -0.13587917, 0.15142563, 0.100207746, 0.19894621, 0.108649164, -0.15275799, -0.069673054, -0.2840231, 0.14662911, -0.38664234, -0.15376726, -0.10606808, -0.09244564, 0.050720673, 0.15924712, 0.08546016, 0.07099262, 0.15821654, 0.05596242, 0.065559715, -0.17068711, -0.15411377, -0.08661545, 0.26786268, -0.05873207, 0.11819324, 0.1893804, 0.1654657, -0.14877, 0.08412694, 0.10184497, -0.21992977, 0.047901526, 0.046810087, 0.027691538, 0.15315902, 0.065786235, -0.16943417, -0.2610865, 0.07676699, 0.116355404, -0.3730019, -0.17405584, -0.17094101, -0.09054585, 0.11425105, 0.11583533, 0.039914917, 0.09523874, 0.11636185, 0.01775511, 0.07904611, -0.1199666, -0.09888636, -0.105483316, 0.13118798, -0.06327458, 0.1781242, 0.10547739, 0.2247864, -0.12620854, -0.0029561743, 0.031709116, -0.1999438, 0.038790178, -0.010367692, 0.02724153, 0.11541003, 0.13943076, -0.2433445, -0.103133075, 0.03779379, 0.16047767, -0.32323697, -0.21182936, -0.11696983, -0.13538194, 0.052082803, 0.16691296, 0.22964637, -0.0075111687, 0.17120104, 0.05023326, 0.11618423, -0.18789141, -0.15902768, -0.17486413, 0.057264585, -0.10074883, 0.23290308, 0.035234813, 0.082178675, -0.060621686, 0.10987062, -0.015745994, -0.023809733, 0.11135422, 0.0988698, 0.07283122, 0.22515713, 0.074129604, -0.18206564, -0.14642175, -0.30830345, 0.23639792, -0.4281309, -0.16987567, -0.117255166, -0.18402043, 0.098682895, 0.23840268, 0.089198366, 0.07066881, 0.2397203, -0.028293956, 0.09009028, -0.23579498, -0.14335562, -0.15424207, 0.12647173, -0.15411332, 0.20226029, 0.14570129, 0.25684646, -0.09612343, -0.003916556, 0.009234219, -0.18599509, 0.09208865, 0.07569944, -0.032708798, 0.16992094, 0.1020407, -0.278537, -0.08549923, -0.014263161, 0.19707471, -0.39893222, -0.15004279, -0.13635448, -0.16514286, 0.18919599, 0.20018774, 0.16755964, 0.108171135, 0.20397954, -0.0076488163, 0.04846052, -0.24048567, -0.14898317, -0.11933822, 0.17593232, -0.040667325, 0.22552066, 0.110624716, 0.083440386, -0.13951544, -0.051210925, -0.016693166, -0.058781933, -0.011589067, 0.19634287, 0.0071197874, 0.23321955, 0.036223322, -0.18178754, -0.08572566, -0.14049734, 0.2392671, -0.42115787, -0.17017262, -0.18801963, -0.18543553, 0.13342077, 0.23300533, 0.092709966, 0.02580607, 0.230149, 0.009823516, 0.029638477, -0.18991232, -0.14050873, -0.13832507, 0.2846232, -0.076035425, 0.1871728, 0.21071465, 0.21602903, -0.15928094, -0.027140351, -0.009498613, -0.26123738, 0.040511727, 0.043568376, -0.020459834, 0.23049982, 0.107830934, -0.24122325, -0.14113466, 0.0036800131, 0.20160685, -0.39707488, -0.13899839, -0.09429032, -0.15472926, 0.08614202, 0.20184195, 0.13621552, 0.060202442, 0.20458873, -0.01710315, -0.06127481, -0.28894526, -0.20045367, -0.027039774, 0.08990748, -0.04110648, 0.1765496, 0.23750243, 0.15418263, -0.11193127, 0.2339726, 0.093139485, -0.06649666, 0.017696546, 0.20724247, -0.005909733, 0.18746912, 0.09773805, -0.24088027, -0.13923387, -0.2793759, 0.1812975, -0.45072728, -0.11800911, -0.16754258, -0.1339975, 0.015862295, 0.17557384, 0.054468818, 0.013998876, 0.1793703, 0.024756385, 0.075163975, -0.30048645, -0.135454, -0.16906121, 0.21013749, -0.07824272, 0.18830918, 0.15958573, 0.15341923, -0.2060295, 0.07577912, 0.08037594, -0.16792963, 0.114184126, 0.05306398, -0.0039027217, 0.21045008, 0.1632433, -0.17290828, -0.18900561, 0.044114802, 0.20606865, -0.390318, -0.19019207, -0.13942902, -0.17101601, 0.029738879, 0.20729484, 0.1270555, 0.12544489, 0.1995569, 0.08569166, 0.060674686, -0.2653593, -0.16759099, -0.10771033, 0.1200838, -0.045305613, 0.21217184, 0.13947457, 0.15994452, -0.21425945, 0.099044055, 0.07444731, -0.068251744, 0.040478535, 0.103673525, -0.058174018, 0.14659655, 0.004119692, -0.110281244, -0.043564472, -0.14203337, 0.18980339, -0.359304, -0.12677917, -0.08516421, -0.14267631, 0.04751537, 0.19712105, 0.05919455, -0.01745137, 0.19269508, 0.01456953, 0.042803276, -0.08915011, -0.05557631, -0.015561111, 0.19963747, -0.113385856, 0.13273704, 0.10410663, 0.08947649, -0.06716368, 0.08087487, 0.06509355, -0.0552536, -0.078021325, 0.17176102, 0.13196313, 0.11180735, 0.0600797, -0.25895157, -0.17820008, -0.19524635, 0.14365853, -0.36046946, -0.18158834, 0.013446294, -0.08316659, 0.10095741, 0.13536331, 0.103764884, -0.02130652, 0.13946722, 0.12510638, 0.089085735, -0.17622577, -0.12333855, -0.09557725, 0.15605873, -0.09127972, 0.20327237, 0.120175764, 0.22888757, -0.09617429, 0.03666312, 0.012460363, -0.19789761, 0.059013706, 0.057076517, 0.052238367, 0.14544456, 0.09900872, -0.2676749, -0.13123237, 0.06672767, 0.17159545, -0.35238758, -0.19286966, -0.07030394, -0.124451235, 0.22141093, 0.18430221, 0.22112942, 0.025899602, 0.19702305, 0.030849515, 0.106985815, -0.18612, -0.12885436, -0.1883764, 0.12315458, 0.019023845, 0.2087429, 0.09847838, 0.18905206, -0.07530049, 0.045133766, -0.011959271, -0.12899919, 0.021505173, 0.23314813, 0.002032845, 0.18867041, 0.124242775, -0.17665558, -0.073796876, -0.24203207, 0.20248495, -0.37971696, -0.05994806, 0.0069782413, -0.16230464, 0.16859825, 0.21552283, 0.026699478, 0.005050736, 0.2241699, 0.046618838, 0.08452604, -0.15363067, 0.051734075, -0.06400035, 0.25879112, -0.08920941, 0.15505125, 0.14754602, 0.15506548, -0.1685504, 0.020223916, 0.058411982, -0.23805273, 0.043552443, 0.09480325, 0.021099843, 0.14416602, 0.10582025, -0.25011787, -0.13052562, 0.011793326, 0.13730593, -0.38660324, -0.15275218, -0.12935776, -0.09451988, 0.15637515, 0.1415559, 0.24456936, 0.088242956, 0.14706548, 0.029647155, -0.041203864, -0.1864931, -0.06516261, 0.009442641, 0.09075152, 0.04375402, 0.18972008, 0.1888251, 0.30754903, -0.0773576, 0.14848214, 0.028630065, -0.10113956, 0.029631406, 0.17321697, 0.03690342, 0.14574397, 0.08660294, -0.23659472, -0.042955462, -0.25968757, 0.16527034, -0.44219628, -0.1461414, -0.15074575, -0.1135256, 0.04398187, 0.17984535, 0.051002413, 0.12780382, 0.19111612, 0.04066135, 0.0060469783, -0.1454117, -0.092672996, -0.073478855, 0.2103914, -0.1037801, 0.17417288, 0.14641388, 0.27436757, -0.19545083, 0.010438373, 0.07833483, -0.33614627, 0.03763654, 0.09475983, -0.028627656, 0.16462322, 0.15536131, -0.2158931, -0.09444563, 0.07140008, 0.16710608, -0.3465025, -0.14286466, -0.07915352, -0.11416057, -0.011603596, 0.1816595, 0.2743212, 0.035627164, 0.17885752, 0.013992916, -0.18725556, -0.093951076, -0.15058321, -0.1208787, -0.12651007, -0.061298233, 0.17380655, 0.082935914, 0.08100344, -0.08222469, 0.05520785, 0.09873625, -0.13404213, 0.12734963, 0.13164644, -0.12057248, 0.14593394, 0.14247744, -0.24512336, -0.13242795, -0.2152663, 0.17131652, -0.44290492, -0.14925148, -0.14261079, -0.1148187, 0.11159312, 0.16401863, -0.16203102, 0.004863419, 0.16586326, -0.08454503, 0.078372404, -0.13796306, -0.12569252, -0.10525927, -0.08422273, -0.15640348, 0.14500937, 0.16469751, 0.26061463, -0.19372399, -0.08868029, 0.06825637, -0.25712502, -0.14066295, -0.038988624, 0.16498832, 0.13118818, 0.0386698, -0.19600473, -0.18497384, 0.024346644, 0.1596101, -0.35715762, -0.18569796, -0.2770601, -0.123293996, 0.15926129, 0.15407512, 0.045473382, 0.18855615, 0.15551902, -0.028472655, 0.06738623, -0.07974768, -0.0859639, 0.0064053577, 0.06711449, 0.2847987, 0.11886183, 0.122871965, 0.17160213, -0.061679535, -0.047800235, 0.040315837, -0.22672921, -0.062823646, -0.012139751, 0.0743662, 0.09011625, 0.0424413, -0.29236442, -0.15694907, 0.028124321, 0.11390884, -0.35277224, -0.14615802, -0.100482374, -0.057832178, 0.21763073, 0.1055282, 0.023893218, -0.05903015, 0.09922009, 0.06737871, 0.06676983, -0.079268456, -0.052121963, -0.01424522, 0.009098271, -0.033743057, 0.08636932, 0.080043085, -0.0059862374, 0.0018858439, 0.16151884, 0.10884049, -0.13006428, -0.06621741, 0.14460513, 0.20707402, 0.07816003, 0.08058488, -0.24786621, -0.15082237, -0.12462733, 0.07738746, -0.3938503, -0.1280852, 0.015552616, -0.050595243, 0.05118197, 0.08568192, 0.012064568, -0.111663066, 0.08920842, 0.034640387, 0.06348409, -0.13184637, -0.028690936, -0.05658419, 0.20953959, -0.08587955, 0.10440878, 0.13361038, 0.09888018, -0.09733326, -0.06405907, 0.048078418, -0.26237696, 0.006288931, 0.089069344, 0.0534307, 0.12571828, 0.101123184, -0.23189466, -0.22426578, -0.007669686, 0.087264396, -0.38307855, -0.2196376, -0.20612665, -0.022869173, 0.11971413, 0.09224272, 0.27361345, 0.013466358, 0.104928315, -0.005014822, 0.014373958, -0.29617456, 0.079172656, -0.015394166, 0.19082695, -0.14616099, 0.069796875, 0.09160702, 0.12633657, -0.11526371, 0.0781787, 0.07865892, -0.14724265, -0.09209167, 0.16438578, 0.038403586, 0.0832868, 0.09488633, -0.119585894, -0.10194522, -0.25372404, 0.069291815, -0.43423432, -0.12822413, -0.16112448, -0.015714105, 0.13266237, 0.06574473, 0.04763005, 0.06991732, 0.067216806, -0.0014031115, 0.051181473, -0.14598502, 0.07049419, -0.056802034, 0.18761542, -0.1203196, 0.11387672, 0.18963121, 0.16157654, -0.09070803, 0.086454585, 0.008108098, -0.36055565, 0.027454384, 0.05382, 0.016317567, 0.09141102, 0.09154684, -0.22942154, -0.19890858, 0.0431014, 0.087822676, -0.4156423, -0.16252089, -0.081693195, -0.044460233, 0.15219834, 0.10808819, 0.143286, 0.053074595, 0.11206515, -0.023971567, -0.19221376, -0.044940464, 0.07366361, 0.063838586, 0.12178098, -0.06874616, 0.05841335, 0.1845669, 0.15644813, -0.054402318, -0.0022952827, 0.23963057, -0.2998883, -0.0008948555, 0.15343793, -0.12622744, 0.1416151, 0.046883974, -0.344558, -0.14063929, -0.09917555, 0.08127723, -0.43790215, -0.20739456, -0.3113539, -0.040421795, 0.047009647, 0.07613129, 0.035367038, -0.016813664, 0.05946742, 0.06337949, 0.0011504355, -0.17563115, -0.01692976, -0.1023749, 0.11741392, -0.15456074, 0.15568016, 0.007314834, 0.12328836, -0.17348862, 0.17238556, 0.08740037, -0.12916128, -0.028170785, 0.033971544, -0.053669382, 0.09561612, 0.07601254, -0.2673921, -0.0889985, -0.037459396, 0.12472257, -0.36857054, -0.24649084, -0.14971036, -0.07916167, 0.14808601, 0.14177264, 0.45753914, 0.0016634075, 0.15171622, 0.10552333, -0.025288634, -0.056005485, 0.012407922, -0.029021319, -0.095565744, -0.08761474, 0.118195534, -0.06556412, 0.11587909, -0.1353105, 0.051831145, 0.12791258, -0.19226372, -0.10579002, 0.18239926, 0.042747777, 0.038164683, 0.08304476, -0.18780078, -0.024627391, -0.20268, 0.0916378, -0.30042335, -0.06401655, -0.20415294, -0.038634066, 0.1084429, 0.09948098, -0.024995646, 0.061007082, 0.11406324, 0.09525417, 0.24159946, 0.03175845, -0.08654645, 0.00021013306, 0.10844967, -0.21594825, 0.051296066, 0.111562535, 0.09458161, -0.017441928, 0.08944223, 0.22257471, -0.18417831, -0.035207786, 0.10064509, 0.15217876, 0.016735883, 0.15402487, -0.18906215, -0.22431032, -0.12512471, 0.032365702, -0.6568898, -0.18594009, -0.14082626, -0.045965593, 0.124780245, 0.037671443, 0.12344037, 0.081489414, 0.04422062, 0.11894931, 0.24389315, 0.06809583, -0.033013526, -0.08541341, 0.10493491, -0.2391854, 0.06896456, 0.16653644, 0.082969144, -0.04702307, 0.13586968, 0.20667255, -0.13339318, 0.08255112, 0.099234015, 0.19840118, 0.038664132, 0.17382908, -0.17648147, -0.24966328, -0.120266646, 0.07023841, -0.6179265, -0.14162755, -0.17257285, -0.058984302, 0.16411984, 0.067939796, 0.20924307, 0.030047607, 0.06607403, 0.11133708, 0.25955623, 0.020777583, -0.094379574, -0.001698503, 0.13829346, -0.29021692, 0.06793677, 0.14931577, 0.11603134, -0.11050892, 0.22836775, 0.18740466, -0.15200303, 0.065679364, 0.11973002, 0.21067818, -0.0036453344, 0.18066016, -0.19014229, -0.24800533, -0.15141757, 0.049434807, -0.63118774, -0.116882056, -0.18817502, -0.036882907, 0.14089991, 0.048967812, 0.17494223, 0.08757016, 0.06183763, 0.1152202, 0.24122606, 0.034238752, -0.13448092, -0.07330958, 0.10177172, -0.31435153, 0.08543148, 0.102036364, 0.13427222, -0.09452677, 0.2528656, 0.1852961, -0.16008516, 0.07280961, 0.10124433, 0.13186988, 0.0695152, 0.17231399, -0.18437836, -0.1650503, -0.19987878, 0.07840093, -0.63078904, -0.18927172, -0.15645164, -0.07653314, 0.0142800305, 0.071750045, 0.16982976, 0.20733464, 0.07714382, 0.12718233, 0.22074081, 0.08161371, -0.18129665, -0.120857224, 0.18642414, -0.22858498, 0.11528078, 0.16365978, 0.22468592, -0.088741176, 0.09596562, 0.183404, -0.18050201, 0.06672809, 0.12996902, 0.12702057, 0.11312889, 0.18786068, -0.1385707, -0.12693748, -0.18793176, 0.10681316, -0.61775625, -0.14432953, -0.17833595, -0.09947539, -0.010669902, 0.10434496, 0.08582203, 0.18630975, 0.10752623, 0.12093495, 0.20907861, 0.040951982, -0.075291626, -0.0771443, 0.2034668, -0.3112615, 0.0696618, 0.20213167, 0.12757394, -0.12659466, 0.12883313, 0.20346703, -0.16582426, -0.005223056, 0.07304025, 0.22721812, 0.063886054, 0.17247312, -0.073525645, -0.20108147, -0.16319151, 0.07147834, -0.6271718, -0.18450896, -0.170208, -0.096497156, 0.03700676, 0.06862999, 0.13784325, 0.14933172, 0.07157156, 0.12183625, 0.15185171, 0.08338716, -0.03435735, -0.08040866, 0.15425938, -0.1648493, 0.07050007, 0.051143795, 0.061066274, -0.086318485, 0.15174054, 0.21534692, -0.19121543, 0.033712715, 0.090756014, 0.20121375, 0.17961456, 0.1851178, -0.16010274, -0.223616, -0.2172618, 0.06799298, -0.6470958, -0.2358863, -0.10899593, -0.07263872, 0.064418465, 0.063958414, 0.11407873, 0.06685353, 0.06689365, 0.13314366, 0.1940262, 0.12554485, -0.14561258, -0.09284849, 0.16882323, -0.21024986, 0.07177166, -0.94000417, 0.0642736, -0.12640698, 0.10790311, 0.18216576, -0.12022254, 0.028097827, 0.038408514, 0.27844825, 0.06370886, 0.16347615, -0.20568971, -0.12115404, -0.13985851, 0.07273479, -0.6713509, -0.19390543, -0.16326629, -0.1045152, 0.055538766, 0.07442479, 0.05944604, 0.064089775, 0.063389726, 0.14165701, 0.27387094, 0.07721237, -0.048936576, -0.07973351, 0.23235375, -0.22292978, 0.015433803, 0.103586435, 0.093185686, -0.015918199, 0.117072545, 0.23810594, -0.15995778, -0.06959806, 0.12808807, 0.13650744, 0.006438821, 0.17778431, -0.1515856, -0.21170579, -0.09704075, 0.018868534, -0.6207175, -0.13950697, -0.14957896, -0.024456266, 0.17448561, 0.021295942, 0.22329888, 0.05468001, 0.01776447, 0.14143012, 0.2227907, 0.13960688, -0.036866236, -0.10086318, 0.088677086, -0.23553446, 0.079519734, 0.13982809, 0.06473652, -0.08671736, 0.16416982, 0.21376653, -0.097503416, 0.017959086, 0.1492743, 0.16364703, 0.05415606, 0.174016, -0.19727702, -0.23092581, -0.019014888, 0.06846942, -0.6213786, -0.12561402, -0.2189528, -0.05600427, 0.18565297, 0.07330357, 0.22238205, 0.034515772, 0.07729884, 0.09955003, 0.2668335, 0.086584955, -0.10218203, -0.11728275, 0.14434828, -0.28973216, 0.04879301, 0.16408643, 0.14684227, -0.117457055, 0.24345201, 0.19835792, -0.14664893, 0.06546469, 0.1082135, 0.2192148, -0.022172851, 0.20352483, -0.14831378, -0.20096314, -0.17437549, 0.050949655, -0.6257886, -0.09972705, -0.14174989, -0.041922648, 0.15670058, 0.049289603, 0.14801183, 0.100425206, 0.04724695, 0.1233834, 0.2809499, 0.09002298, -0.054594066, -0.117263764, 0.12667476, -0.29516068, 0.05330436, 0.1514682, 0.17265594, -0.10014531, 0.24421708, 0.18593086, -0.17329842, 0.06183356, 0.12591921, 0.17158583, 0.07632082, 0.1822603, -0.13753878, -0.18045853, -0.16736892, 0.05247879, -0.6165854, -0.20240428, -0.17241274, -0.04685646, 0.02423822, 0.067225024, 0.16794506, 0.21877402, 0.07123212, 0.12851371, 0.24858905, 0.10052711, -0.1457257, -0.15290943, 0.25269306, -0.17750908, 0.11804911, 0.12842143, 0.24412283, -0.11632003, 0.12234867, 0.17736071, -0.13775933, 0.02534416, 0.12708525, 0.17757355, 0.119490355, 0.21319558, -0.08253001, -0.13109079, -0.14215952, 0.10201123, -0.59983915, -0.1379466, -0.12376981, -0.09175445, 0.00424655, 0.099183224, 0.104303725, 0.20172934, 0.10990244, 0.06909535, 0.22925416, 0.101223886, -0.08121867, -0.121065766, 0.23537467, -0.29715598, 0.08088516, 0.20156358, 0.13882846, -0.108517736, 0.0989089, 0.22313745, -0.12320672, 0.012324141, 0.11392984, 0.3641273, 0.10958129, 0.17188737, -0.099237315, -0.123838566, -0.10338189, 0.075807534, -0.6238401, -0.14791994, -0.18762277, -0.058828115, 0.0470178, 0.076244876, 0.12549746, 0.1990353, 0.073381975, 0.13765027, 0.14581901, 0.151271, -0.062062338, -0.057145093, 0.25116774, -0.15845156, 0.092430346, 0.16637953, 0.03321436, -0.104622394, 0.07562128, 0.23419394, -0.19316667, -0.008670239, 0.103203446, 0.3057306, 0.1248105, 0.19717269, -0.16625518, -0.17547408, -0.2697469, 0.07642336, -0.6157417, -0.21064225, -0.0054987846, -0.044649992, 0.07213831, 0.07793181, 0.11433326, 0.05428037, 0.0796542, 0.13846977, 0.14522538, 0.09300235, -0.1098338, -0.06521635, 0.41646597, -0.23662286, 0.020972978, -0.008551835, -0.011817974, -0.03271804, 0.13045886, 0.226045, -0.20969637, 0.039948016, 0.17657484, 0.35668778, 0.040218636, 0.2069781, -0.11926011, -0.12174335, -0.26779795, -0.027210701, -0.6207233, -0.1798342, -0.19731683, 0.011069559, 0.03487802, -0.02860676, 0.12883222, 0.11268909, -0.024049953, 0.097131334, 0.23935805, 0.13970152, -0.061148703, -0.05252605, 0.17502052, -0.23571758, 0.09043673, 0.1482821, 0.085950494, -0.06282894, 0.24579014, 0.24663109, -0.16573755, -0.02233211, 0.13310017, 0.1878674, 0.05368212, 0.19472851, -0.16723113, -0.17515558, -0.060839478, 0.06723916, -0.6566531, -0.10626431, -0.09268057, -0.022968573, 0.14471607, 0.069690935, 0.14905627, 0.09718645, 0.07822115, 0.1525468, 0.2622734, 0.12477054, -0.028837122, -0.14204632, 0.15649995, -0.22762477, 0.11318866, 0.1423783, 0.18918996, -0.11385737, 0.21080261, 0.17410001, -0.1215273, 0.032067746, 0.102383785, 0.17273358, 0.042283677, 0.1736546, -0.1521803, -0.23217857, -0.09070469, 0.10025621, -0.6443387, -0.13663271, -0.14364234, -0.08921677, 0.10865853, 0.11246581, 0.1724195, 0.10417598, 0.12075756, 0.11209944, 0.26847377, 0.10725583, -0.09919234, -0.05536664, 0.17810823, -0.33469796, 0.08043154, 0.14939396, 0.11171358, -0.0995352, 0.13619378, 0.15798931, -0.15151261, -0.023672288, 0.131477, 0.21039681, 0.065208726, 0.17945947, -0.14736934, -0.17888205, -0.17190875, 0.060430665, -0.66292197, -0.102739654, -0.14641109, -0.035952542, 0.110887006, 0.07326659, 0.098979115, 0.15015563, 0.08534026, 0.14781797, 0.26104832, 0.09043774, -0.11989409, -0.13028897, 0.19178711, -0.30945578, 0.08214716, 0.15706758, 0.22010581, -0.12869707, 0.32936782, 0.17242162, -0.13644695, -0.00525661, 0.10537683, 0.16194317, 0.09932761, 0.19639374, -0.14982489, -0.15772747, -0.14521424, 0.050443754, -0.65058935, -0.17163768, -0.17210741, -0.06338427, 0.09870477, 0.06548406, 0.13566558, 0.19467694, 0.077653795, 0.117608845, 0.25533184, 0.092111774, -0.062375527, -0.18493451, 0.0859362, -0.19525062, 0.15706795, 0.16156219, 0.13233073, -0.108160205, 0.108909875, 0.16621244, -0.14574003, 0.06789888, 0.16834842, 0.26450744, 0.14380708, 0.20455644, -0.15614079, -0.15148549, -0.13661537, 0.14495407, -0.63586056, -0.09164353, -0.16293289, -0.10600621, 0.10237633, 0.15577076, 0.056968115, 0.14025888, 0.16342343, 0.10301765, 0.23172896, 0.043312456, -0.14771476, -0.10491352, 0.110702924, -0.28672746, 0.10582628, 0.19912085, 0.15397348, -0.1276061, 0.15678757, 0.1784261, -0.16490023, -0.00842244, 0.092922315, 0.2740414, 0.059721913, 0.15774597, -0.08771114, -0.10902047, -0.12551203, 0.092566654, -0.65258354, -0.13754131, -0.17663704, -0.042170405, 0.094931394, 0.08882873, 0.0568582, 0.30296004, 0.09201, 0.15206128, 0.18845391, 0.08245929, -0.11083766, -0.17953767, 0.22030753, -0.12563959, 0.20594887, 0.16794832, 0.1997911, -0.13756414, 0.18712382, 0.17554334, -0.14740475, 0.033274002, 0.15859829, 0.30351934, 0.20169632, 0.15501843, -0.14358145, -0.16130522, -0.098517485, 0.1833466, -0.637602, -0.1460364, -0.1299513, -0.09842403, 0.07581844, 0.2019021, 0.116514176, 0.15121706, 0.20273834, 0.08475626, 0.1643134, 0.03952713, -0.17838146, -0.16210954, 0.11435849, -0.16887742, 0.128211, 0.104230754, 0.1675498, -0.08254294, 0.09000116, 0.16097052, -0.16507757, 0.012470381, 0.115827374, 0.31917402, 0.11784562, 0.17564689, -0.11573908, -0.16356616, -0.22415002, 0.11789085, -0.672825, -0.12483106, -0.23771518, -0.092974156, 0.037789263, 0.109484896, 0.067010224, 0.12341687, 0.11207229, 0.02113152, 0.26572937, 0.09031448, -0.04983378, -0.016809516, 0.26676363, -0.25668326, 0.0869645, 0.13250917, 0.19950125, -0.09839903, 0.19208445, 0.281949, -0.19314243, -0.013861006, 0.09665782, 0.16753009, 0.05516634, 0.17705515, -0.17042159, -0.15886603, -0.12008675, 0.08386382, -0.67588884, -0.13874157, -0.10159068, -0.05613266, 0.11647307, 0.072971225, 0.1793403, 0.11562132, 0.07066445, 0.14549974, 0.2623909, 0.15483278, -0.028886506, -0.08763366, 0.082406685, -0.29707432, 0.10370281, 0.12523428, 0.15335192, -0.12374862, 0.1528107, 0.16681346, -0.1771289, 0.043018468, 0.14574766, 0.08358073, 0.054869086, 0.18775903, -0.17679937, -0.21681577, -0.08154726, 0.108071916, -0.67324054, -0.16066739, -0.1570372, -0.07757281, 0.13425818, 0.11145994, 0.12686898, 0.14583528, 0.115374535, 0.068626545, 0.25050822, 0.08022365, -0.029768316, -0.10355526, 0.1280846, -0.32251254, 0.09829849, 0.12717223, 0.106633455, -0.0873081, 0.22087456, 0.1800254, -0.18963993, 0.030525187, 0.09106149, 0.17814021, 0.073826425, 0.21580176, -0.17049536, -0.19233139, -0.23123455, 0.09789095, -0.6788652, -0.1387287, -0.14702427, -0.06325713, 0.10693034, 0.098880924, 0.15061074, 0.17015894, 0.10165251, 0.10768671, 0.26618046, 0.070591085, -0.15576924, -0.08089723, 0.077634126, -0.27623096, 0.12572928, 0.14551345, 0.15560251, -0.1063139, 0.086890094, 0.19318087, -0.14618543, 0.004423317, 0.1513514, 0.17207836, 0.10759957, 0.20241153, -0.16289358, -0.22670141, -0.23666003, 0.097881384, -0.67031425, -0.1340649, -0.18553971, -0.054159712, 0.13168019, 0.10658273, 0.13064124, 0.19521174, 0.11987658, 0.11974904, 0.26538447, 0.072388574, -0.07946194, -0.12743634, 0.15092498, -0.24217948, 0.12346502, 0.14921573, 0.1101459, -0.13689302, 0.17464338, 0.20680109, -0.16827558, 0.0325394, 0.13170302, 0.22792673, 0.14698555, 0.21198805, -0.08686785, -0.065305896, -0.23384951, 0.09586788, -0.6822028, -0.11919964, -0.1811399, -0.07604888, 0.07688657, 0.10985037, 0.040639926, 0.19830526, 0.11829095, 0.10907519, 0.23741823, 0.04754211, -0.039806154, -0.10155313, 0.13893129, -0.2838598, 0.12310332, 0.13277796, 0.16727963, -0.10744126, 0.12123984, 0.18436813, -0.1468904, 0.008699857, 0.13580781, 0.2500693, 0.11791157, 0.1685952, -0.15146331, -0.15633039, -0.23642807, 0.10795982, -0.6880339, -0.13937525, -0.15052855, -0.028416714, 0.09123951, 0.11930159, 0.085543, 0.25531155, 0.1318094, 0.0741168, 0.23338154, 0.025392199, -0.17070045, -0.17099434, 0.14896972, -0.20683345, 0.21267909, 0.20489566, 0.13883509, -0.13529551, 0.1483582, 0.19608206, -0.14465517, 0.041373413, 0.09713721, 0.2042298, 0.17601585, 0.18554695, -0.1581162, -0.123615265, -0.21867046, 0.17441925, -0.671614, -0.16729683, -0.14784151, -0.12581319, 0.023309987, 0.19751953, 0.0871555, 0.20407812, 0.20836234, 0.11293243, 0.24724804, 0.0878829, -0.16395643, -0.12663518, 0.15899271, -0.2496642, 0.17167951, 0.12772873, 0.069686696, -0.13098918, 0.122675836, 0.13274604, -0.06722979, 0.067140184, 0.084867604, 0.36972344, 0.14830883, 0.15957722, -0.13390468, -0.015890326, -0.2164239, 0.12021098, -0.68358487, -0.15848497, -0.15407626, -0.08181352, 0.0016557921, 0.13041154, 0.08619642, 0.16778359, 0.13308151, 0.03300547, 0.2606214, 0.113036595, -0.075863294, -0.02702988, 0.12198066, -0.2709649, 0.08413335, 0.061615344, 0.16586167, -0.2209936, 0.11985835, 0.17811507, -0.16186358, 0.033587504, 0.15788972, 0.16455747, 0.11107493, 0.23669112, -0.16167912, -0.21684238, -0.13640276, 0.090719715, -0.6848515, -0.17644444, -0.11622901, -0.040915236, 0.10127206, 0.088777035, 0.2324234, 0.066157065, 0.084210545, 0.13541141, 0.27975935, 0.06233623, -0.0103401905, -0.062472, 0.031253766, -0.2416419, 0.120312475, 0.13619807, 0.17421478, -0.14132561, 0.12680663, 0.16051339, -0.15733151, 0.09767775, 0.10347521, 0.12275962, 0.060422048, 0.20149, -0.14097083, -0.26760438, -0.12853032, 0.102260076, -0.6715356, -0.2053656, -0.16057956, -0.06478314, 0.1731313, 0.107396625, 0.14389491, 0.19386406, 0.114325605, -0.020064937, 0.27899703, 0.087554805, -0.09855123, -0.055651337, 0.078410946, -0.28575152, 0.13821119, 0.10721325, 0.105044685, -0.16822965, 0.07077315, 0.15708563, -0.15363373, 0.02938495, 0.13586544, 0.1499931, 0.1251046, 0.21228544, -0.16475157, -0.16608188, -0.16619386, 0.12709703, -0.6728397, -0.14184512, -0.16424415, -0.09852717, 0.108420394, 0.1387006, 0.17328148, 0.1433463, 0.1336361, 0.11033085, 0.27492577, 0.065588914, -0.07675408, -0.102946244, 0.13897635, -0.23867072, 0.15204807, 0.17675303, 0.015919931, -0.18307109, 0.101419106, 0.17363626, -0.14454548, 0.05415228, 0.1336745, 0.12462567, 0.12584774, 0.18991278, -0.1477224, -0.2431352, -0.19336495, 0.13308233, -0.67904156, -0.22609937, -0.14667201, -0.09737063, 0.13140953, 0.1400265, 0.10013651, 0.1894273, 0.14207236, 0.09661619, 0.24924964, 0.024211086, -0.07512577, -0.15626964, 0.15578036, -0.21406609, 0.15318313, 0.116845325, 0.070590146, -0.15816233, 0.14001432, 0.15841022, -0.18110926, 0.012294043, 0.17420383, 0.13990086, 0.112275034, 0.18783826, -0.17705879, -0.16092686, -0.28065363, 0.13910052, -0.6862644, -0.13675751, -0.19519663, -0.09229391, 0.07728018, 0.1546908, 0.14422044, 0.22339028, 0.16271722, 0.12804244, 0.2230691, 0.046826717, -0.095576555, -0.11661779, 0.09771152, -0.21491285, 0.15750656, 0.1982089, 0.065963514, -0.16122796, 0.09616292, 0.19774128, -0.14813133, 0.07307784, 0.15134303, 0.16443545, 0.14647688, 0.19467264, -0.15024231, -0.13436529, -0.22068867, 0.13474205, -0.68974096, -0.17775685, -0.16676784, -0.07686181, 0.08701911, 0.14993401, 0.08299799, 0.17063773, 0.15853323, 0.10872597, 0.23700377, -0.017602136, -0.0063214707, -0.13124003, 0.1924147, -0.23731503, 0.14958291, 0.18210718, 0.107112266, -0.20520326, 0.15568158, 0.15303503, -0.1616056, 0.063928254, 0.11724973, 0.12166956, 0.11949187, 0.20204447, -0.15803377, -0.22511119, -0.2346171, 0.13525325, -0.6872761, -0.22620809, -0.14914729, -0.06801883, 0.1457895, 0.14889605, 0.11543128, 0.19873212, 0.15402381, 0.085001096, 0.2557438, 0.044927113, -0.17312545, -0.11369631, 0.14229135, -0.1465245, 0.19248645, 0.2266519, 0.10206744, -0.14473689, 0.04509525, 0.17755857, -0.13619855, 0.1145138, 0.096824266, 0.24690108, 0.16585273, 0.1472786, -0.1431093, -0.17577623, -0.21381299, 0.170595, -0.67561233, -0.18709731, -0.16617292, -0.08008842, 0.05377366, 0.13837832, 0.163684, 0.15976866, 0.123525985, -0.029726835, 0.2545748, 0.091602206, -0.09487176, -0.050993357, 0.23061894, -0.18500024, 0.1267488, 0.14832947, 0.18707085, -0.2931161, 0.123742856, 0.1271113, -0.18349768, 0.031649966, 0.13004862, 0.15185109, 0.14740835, 0.22932196, -0.16228984, -0.23521572, -0.114561304, 0.1378523, -0.689848, -0.20637223, -0.10439583, -0.102762334, 0.024847735, 0.1388189, 0.25525627, 0.099298045, 0.13400804, 0.17973259, 0.27799186, 0.029254299, -0.011613223, -0.082681954, 0.19222717, -0.21323512, 0.15591718, 0.17704867, 0.1487229, -0.20808843, 0.1582101, 0.107078046, -0.20043431, 0.16280693, 0.13035391, 0.07639587, 0.15101355, 0.19705302, -0.14006674, -0.26562247, -0.17777263, 0.16483004, -0.6683102, -0.21814317, -0.15870197, -0.108320095, 0.09795961, 0.16270049, 0.15901981, 0.16099206, 0.15617086, 0.035883404, 0.236182, 0.08193745, -0.116874956, -0.058929104, 0.18566446, -0.28919604, 0.15750214, 0.13355832, 0.017139073, -0.19383235, 0.1524594, 0.11059657, -0.21158066, 0.05796175, 0.12737909, 0.017744316, 0.14769599, 0.20657043, -0.16682267, -0.16190925, -0.14918078, 0.16001879, -0.67589134, -0.16200498, -0.124652565, -0.12850973, 0.15316826, 0.16104288, 0.13425267, 0.10444076, 0.1576138, 0.08879682, 0.23622605, 0.015433144, -0.13459061, -0.15305918, 0.19917914, -0.19316939, 0.17300928, 0.15565307, 0.057704184, -0.23509437, 0.06974794, 0.11940659, -0.17804325, 0.11334148, 0.17300163, 0.08562559, 0.17296772, 0.1978146, -0.16366003, -0.24340358, -0.09921081, 0.16779958, -0.6658699, -0.19125427, -0.17340884, -0.11902469, 0.15986961, 0.18075903, 0.19603403, 0.18157758, 0.1736078, 0.0697059, 0.20452653, 0.0069568963, -0.10658935, -0.1122931, 0.27907518, -0.13314053, 0.23228687, 0.17143972, 0.07249346, -0.19775407, 0.13463283, 0.07506838, -0.200402, 0.06820289, 0.1699084, 0.11040487, 0.21391372, 0.20431024, -0.15173268, -0.1339112, -0.13928606, 0.22074595, -0.69011265, -0.16814727, -0.1443841, -0.16331461, 0.091119096, 0.22411944, 0.12387244, 0.18587649, 0.23950057, 0.07540156, 0.20605925, -0.011217248, -0.11978953, -0.11360406, 0.12578098, -0.13143173, 0.21467766, 0.18739209, 0.13180001, -0.19101165, 0.09912327, 0.07080003, -0.17307307, 0.059808712, 0.16021688, 0.044148393, 0.20918995, 0.17630263, -0.17062956, -0.20587367, -0.15117174, 0.2048648, -0.6930111, -0.22953013, -0.244722, -0.15349026, 0.06067582, 0.21278845, 0.16585724, 0.12276953, 0.22094426, 0.08928489, 0.18269949, -0.049773652, -0.16367868, -0.13727488, 0.09563584, -0.1320854, 0.23486699, 0.20431422, 0.02562578, -0.16818722, 0.09814889, 0.11529476, -0.21785124, 0.18807572, 0.1509429, 0.10159227, 0.22122693, 0.22107169, -0.16572398, -0.033699702, -0.13776812, 0.21449716, -0.6813104, -0.20342752, -0.13685739, -0.15397991, 0.1047012, 0.20231824, 0.17104179, 0.10753986, 0.20003806, 0.055006303, 0.21374282, 0.0017841598, -0.11172345, -0.04650787, 0.22051087, -0.12522864, 0.16937023, 0.27898267, 0.13635422, -0.17102362, 0.04937959, 0.14332697, -0.20349503, 0.10079675, 0.1175629, 0.17206977, 0.18119189, 0.13534474, -0.18560897, -0.14825432, -0.17545092, 0.16811916, -0.6855777, -0.1826208, -0.17759754, -0.13925412, 0.11021454, 0.16365929, 0.18155979, 0.10988912, 0.15626603, -0.052919332, 0.22854418, 0.02242514, -0.11759736, 0.00027991165, 0.2792315, -0.15655667, 0.14801225, 0.086549856, 0.05901833, -0.28141627, 0.1195498, 0.10740707, -0.16815141, 0.07821214, 0.16345409, 0.08275647, 0.19344576, 0.22194842, -0.15696916, -0.2139817, -0.08469182, 0.16354899, -0.6980657, -0.21869917, -0.12511428, -0.11171959, 0.08572219, 0.16126283, 0.224776, 0.03377103, 0.15879765, 0.18690059, 0.18869881, 0.0041697426, -0.051872067, -0.025533339, 0.16113059, -0.16900803, 0.15427062, 0.14413759, 0.22929488, -0.20342246, 0.15977041, 0.09717537, -0.17593399, 0.106991515, 0.11889704, -0.005555032, 0.14532934, 0.18224666, -0.15765096, -0.1477699, -0.14694081, 0.15978436, -0.6893198, -0.21565764, -0.19657195, -0.09735316, 0.17941093, 0.15768802, 0.1767903, 0.15242097, 0.16274722, -0.016375339, 0.19870797, -0.020321656, -0.17494202, -0.113931164, 0.14530689, -0.13870612, 0.2004441, 0.17122214, 0.15068932, -0.16921042, 0.16361263, 0.12601003, -0.20517002, 0.1078888, 0.14101988, -0.027880847, 0.20662405, 0.2044492, -0.18324931, -0.14084086, -0.13700055, 0.21912332, -0.6901924, -0.18464032, -0.12557608, -0.15820588, 0.099558905, 0.22551978, 0.14747177, 0.07026566, 0.21517324, 0.094372265, 0.22758378, -0.019230442, -0.1328649, -0.116533384, 0.12998332, -0.13539024, 0.21659027, 0.14393324, 0.28143016, -0.18750812, 0.15890826, 0.09976535, -0.22035052, 0.121617965, 0.13962589, 0.0113632325, 0.20481186, 0.2026682, -0.15513906, -0.17899962, -0.14227949, 0.21700609, -0.6791712, -0.17600252, -0.13882446, -0.159442, 0.0495263, 0.21973164, 0.1587363, 0.124038264, 0.22355835, 0.033331245, 0.18917271, -0.046404712, -0.09549962, -0.11999236, 0.16160022, -0.15236382, 0.19596457, 0.14752218, 0.08310494, -0.21276468, 0.12839018, 0.07838498, -0.23776452, 0.083027884, 0.15380473, 0.006869415, 0.19072041, 0.21575084, -0.15509252, -0.18182336, -0.09122309, 0.18990993, -0.6743406, -0.1753055, -0.16481873, -0.13618055, 0.055379134, 0.20723532, 0.15213442, 0.1442531, 0.20970774, 0.077810265, 0.21493296, -0.017299006, -0.19930172, -0.14744453, 0.17534098, -0.05613116, 0.24390358, 0.17840967, 0.09048264, -0.2030128, 0.12124827, 0.14392981, -0.16149525, 0.1039958, 0.1643758, 0.020985471, 0.2779874, 0.15649784, -0.16530208, -0.07251957, -0.14166242, 0.25757948, -0.6910261, -0.24256955, -0.22172953, -0.22589421, 0.0038702535, 0.2596837, 0.25115314, 0.08947174, 0.25352785, 0.08875572, 0.21699497, -0.09382365, -0.08548528, -0.014314344, 0.31568846, -0.17302316, 