#ifndef NN_VALUES_H
#define NN_VALUES_H


const float L1_WEIGHTS[] = {
0.008516771, 0.0002647092, 0.0025373825, 0.0056317104, 0.0037117703, 0.005580825, 0.0073485207, 0.0084782, 5.028967e-06, 0.005444754, 0.0025497372, 0.0018786723, 0.006776065, 0.004112177, 0.0023711545, 0.0037227827, 0.00032877387, 0.005464445, 0.0028167104, 0.003145357, 0.0066240677, 0.007715702, 0.001230402, 0.0008485149, 0.007063514, 0.002101398, 0.00469829, 0.005835587, 0.006797991, 0.006489611, 0.003675851, 0.006846799, 0.007629644, 0.0013989975, 0.0029883804, 0.0010874487, 0.004685244, 0.008502784, 0.003677492, 0.00553146, 0.0041967947, 0.0064422092, 0.0036628582, 0.0014325994, 0.0026617858, 0.0050037103, 0.00339531, 0.0032948933, 0.003150036, 0.006235022, 0.005180847, 0.008171176, 0.006543286, 0.0014537787, 0.004515801, 0.0073942407, 0.0054466906, 0.0040157614, 0.0065934137, 0.0054121534, 0.005321388, 0.0008205438, 0.005883972, 0.0037546144, 0.0052057845, 0.0040303133, 0.0019862491, 0.0036979783, 0.0034169478, 0.0006012013, 0.00042979533, 0.00380756, 0.00760237, 0.0066053458, 0.0010948757, 0.0069476045, 0.0010723904, 0.0009158261, 0.005641886, 0.0042619836, 0.006624734, 0.008417055, 0.008375588, 0.0043233447, 0.0073442454, 0.0048098178, 0.0032729458, 0.0033759756, 0.007073994, 0.0008317486, 0.006112355, 0.006116094, 0.0036144946, 0.0022776767, 0.005396405, 0.0049446085, 0.0032753367, 0.007143894, 0.008647983, 0.007784913, 0.00401923, 0.0039045794, 0.004332065, 0.001215629, 0.004264892, 0.00598806, 2.6613128e-05, 0.007548541, 0.0030505343, 0.003535552, 0.006642399, 0.007705913, 0.0063738455, 0.0036500709, 0.0031072395, 0.0077992342, 0.0021386256, 0.0022356962, 0.0036223328, 0.0076474026, 0.0040728343, 0.007989209, 0.007879701, 0.008713273, 0.0028675068, 0.00036035824, 0.0044332375, 0.0048834197, 0.008712021, 0.007894052, 0.0031392104, 0.003503329, 0.0020832152, 0.004573077, 0.0010362621, 0.0087529095, 0.001858675, 0.004517337, 0.004981677, 0.0073559824, 0.006386985, 0.00830133, 0.0016437181, 0.006368748, 0.0058652298, 0.0023573986, 0.0003558494, 0.0040879343, 0.0066292332, 0.0032468545, 0.008761259, 0.0002735777, 0.0044151614, 0.0015035858, 0.0021754522, 0.0064910627, 0.0064980187, 0.0050665205, 0.007669932, 0.0027146097, 0.00601667, 0.0042204806, 0.0063947593, 0.0002947043, 0.007253269, 0.0030809485, 0.0027703904, 0.0038071377, 0.0075603235, 0.0020000553, 0.00093148893, 0.005835806, 0.0024391676, 0.0041344166, 0.0005838721, 0.0033097842, 0.002845067, 0.00036393682, 0.005510969, 0.0063079116, 0.005514438, 0.007512387, 0.0023245544, 0.0076752137, 0.0028391683, 0.0005116462, 0.003533108, 0.0073916074, 0.0023076443, 0.0028544278, 0.004823352, 0.006183675, 0.0015553721, 0.0081364475, 0.001984272, 0.0051495517, 0.0022806188, 0.006012759, 0.0066577164, 0.004818155, 0.00035589177, 0.005692009, 0.0056881057, 0.0051601836, 0.007663974, 0.001108808, 0.0032474156, 0.007938377, 0.003974257, 0.0028594069, 0.0016228503, 0.0042544175, 0.004766607, 0.008207106, 0.006071703, 0.003929348, 0.008023794, 0.0038184673, 0.003240056, 0.0061542443, 0.0055394974, 0.00024564957, 0.007207494, 0.0035746184, 0.0037268451, 0.0015997543, 0.0057699815, 0.0012197726, 0.0068302345, 0.0039328253, 0.004255337, 0.006203142, 0.0010409579, 0.0050651543, 0.0041503543, 0.008344414, 0.008256425, 0.0030965472, 0.0028158722, 0.0069128294, 0.008400364, 0.0071459403, 0.0049699997, 0.0057316227, 0.0052371286, 0.00592317, 0.004446036, 0.00083270425, 0.005123958, 0.0045511876, 0.005614728, 0.004733822, 0.008541205, 0.0050032535, 0.0017362406, 0.0034949973, 0.001594115, 0.0056036445, 0.004561501, 0.007428296, 0.0003412607, 0.00203979, 0.0058659087, 0.00041163975, 0.001153828, 0.0069325264, 0.0039781467, 0.0037506, 0.0028230643, 0.0059629055, 0.0083849, 0.0040046405, 0.005107458, 0.00013847096, 0.0062354235, 0.0060810484, 0.00425923, 0.00012926031, 0.0015457267, 0.0037531648, 0.003920747, 0.005593033, 0.0030238854, 0.004754806, 0.0009683173, 0.0044422057, 0.0072008357, 0.0016794521, 0.0026244782, 0.0051426403, 0.0015908914, 0.0024383196, 0.0065917973, 0.0030208002, 0.0037116052, 0.00838142, 0.0047534374, 0.0041931113, 0.0048991228, 0.00137755, 0.004364331, 0.0026827776, 0.0002107234, 0.0056581018, 0.00059169816, 0.0029749123, 0.0032193407, 0.00605315, 0.00021037587, 0.006454167, 0.006085446, 0.002528754, 0.006584919, 0.005900462, 0.0080685755, 0.0014581749, 0.0052230624, 0.0064641857, 0.0032160128, 0.008489891, 0.00020593057, 0.0023352855, 0.0066482453, 0.0026829466, 0.0019952997, 0.0018684475, 0.003825579, 0.0009162108, 0.0053985133, 0.0021946393, 0.0037978, 0.0023184172, 0.008500913, 0.0011472945, 0.005574153, 0.0026736963, 0.005492375, 0.00073260476, 0.0024054737, 0.0007396693, 0.006634346, 0.008735292, 0.006256158, 0.0016090616, 0.008241758, 0.006517529, 0.0046259128, 0.0031289798, 0.00848438, 0.008453761, 0.006608245, 0.0019595264, 0.0020916215, 0.0066325935, 0.00744062, 0.003378335, 0.008156982, 0.0060656453, 0.0062009506, 0.0036678773, 0.0015947934, 0.0006971939, 0.007984757, 0.005124783, 0.0054131523, 0.00047245738, 0.007084383, 0.0021031308, 0.0062358677, 0.00069768546, 0.0005741137, 0.0006937499, 0.005610295, 0.00086299557, 0.008488972, 0.006832106, 0.0018966878, 0.0067582815, 0.008107167, 0.005608842, 0.0023291681, 0.005163287, 0.0060699712, 0.0054261405, 0.0020231665, 0.0043265424, 0.0056351763, 0.005967595, 0.0014201561, 0.0048087053, 0.0015341603, 0.0020249735, 0.0033803023, 0.0009069413, 0.0010623874, 0.0016720749, 0.0076786336, 0.0019852647, 0.0029324805, 0.0058572693, 0.0045563453, 0.007763927, 0.0012727634, 0.0034395347, 0.0069778617, 3.6762045e-05, 0.0008624604, 0.006447873, 0.006646111, 0.00661004, 0.0072286967, 0.005010189, 0.0008901481, 0.0063396664, 0.0018037733, 0.0003317631, 0.0035653946, 0.0009337142, 0.0035386295, 0.008653199, 0.0006270024, 0.0071090716, 0.005110445, 0.0020299614, 0.0058329324, 0.006819046, 0.0004537085, 0.00047328288, 0.0065418817, 0.0007170045, 0.0050288187, 0.008053663, 0.0067807464, 0.0070334706, 0.004343295, 0.007872908, 0.0070334706, 0.0043957913, 0.004338479, 0.0005684076, 0.0072317943, 0.00859804, 3.788267e-05, 0.0064465096, 0.001507843, 0.0051052184, 0.0016767518, 0.0025427088, 0.0029702408, 0.005904027, 0.00041779157, 0.0066400096, 0.0029652887, 0.006631805, 0.0004978997, 0.00596686, 0.005275258, 0.0031071217, 0.0046475697, 0.00526404, 0.008062764, 0.0036000102, 0.004111786, 0.0042164614, 0.0019179126, 0.0035990414, 0.0077523827, 0.0066055995, 0.0069821486, 0.004229387, 0.00018000373, 0.0072956216, 0.0072679226, 0.0054965587, 0.0064662085, 0.0075617875, 0.002074785, 0.0034504745, 0.0061470144, 0.0024041615, 0.0003321242, 0.0057502184, 0.0004566877, 0.0062200404, 0.0044384184, 0.008641187, 0.001421669, 0.003421665, 0.00054380903, 0.0061639384, 0.006073145, 0.002205254, 0.0072291945, 0.007931945, 0.005376412, 0.0037142215, 0.006623772, 0.0030333786, 0.002005894, 0.00031201015, 0.003084575, 0.005257458, 0.0073760627, 0.00034876104, 0.00016034208, 0.0009847716, 0.006847297, 7.008763e-05, 0.0025843196, 0.006846112, 0.0031887083, 0.00681232, -0.024047816, 0.15167078, -0.017471667, -0.017291132, -0.02033065, -0.11088352, -0.054730322, -0.18642026, 0.065705135, 0.034814715, 0.08251549, 0.014169811, 0.060790267, 0.14347349, -0.007263439, -0.01865819, -0.08161203, 0.12675181, -0.032918334, 0.011304662, 0.07792442, -0.051460497, -0.054659523, 0.07413086, 0.058514986, -0.024164578, 0.08019387, 0.31916612, -0.09973099, 0.036673702, -0.09818864, -0.00846726, 0.10302166, 0.013395981, 0.044173688, -0.008940422, -0.15382993, 0.070463926, -0.0021866483, 0.07036603, 0.0259793, 0.05375824, -0.11930317, -0.13356781, -0.0036259603, 0.03371073, -0.07578866, 0.09785721, 0.064595476, -0.0065665436, 0.07425656, -0.019815769, -0.24800436, 0.0005452475, 0.0044018743, -0.32496917, -0.11134234, 0.15749504, -0.043185666, 0.0018711674, -0.016955694, 0.05758432, 0.14381032, 0.06720432, -0.07552197, -0.10579414, -0.05875727, 0.012467248, -0.071479246, 0.028084798, -0.14024325, 0.18709038, 0.0001458285, -0.061511744, 0.10140414, 0.057897814, -0.13034508, 0.001166443, -0.16565023, -0.06552619, -0.061862666, -0.08585091, 0.055962615, 0.026557827, 0.11206315, -0.059674915, 0.06856616, 0.010583743, -0.05062147, 0.02969812, 0.093732275, -0.2399121, -0.15130375, 0.029689256, -0.1334797, -0.012695779, 0.09311637, 0.03122211, 0.0154576395, -0.038605195, -0.26983666, -0.12481564, -0.112840675, 0.044293765, 0.016731668, 0.05643196, -0.074964985, -0.18702014, 0.03097361, 0.05490312, -0.03684197, -0.005647343, 0.06541684, -0.09820833, 0.07072367, 0.02907996, -0.5087098, 0.07159279, -0.0036626935, 0.1444651, -0.044712484, -0.0105976295, 0.058757354, 0.11142459, 0.10253542, -0.032015324, 0.18339293, 0.10257531, 0.0497244, -0.027295336, -0.006047256, -0.11998694, 0.058567546, -0.052233353, -0.08921836, -0.19520296, 0.003013341, 0.009906739, 0.08421152, 0.047063734, -0.09737042, 0.020256067, -0.019636938, -0.06959112, -0.016793871, 0.01999911, -0.04081175, 0.056509368, 0.060783893, -0.058198716, -0.050259143, -0.071331255, 0.010577382, -0.009935957, 0.08183299, 0.027337132, -0.08387297, 0.0132318875, -0.06499728, -0.09596128, 0.0077631604, -0.041586474, -0.0174865, 0.047938038, -0.15857232, -0.044807374, -0.059902065, 0.08591713, -0.038489994, 0.02977671, -0.026631515, -0.14394127, 0.02193073, 0.019927826, -0.043649856, 0.059006568, 0.08264822, 0.011093862, 0.08585321, 0.022960821, -0.43941778, 0.0011414731, -0.09600839, -0.021012343, -0.08380725, 0.21316601, -0.033518158, -0.11607227, 0.09146381, 0.067583196, -0.071101375, -0.030675327, 0.025610965, -0.24101302, -0.04250638, 0.28824568, -0.10756879, -0.030802585, -0.068097405, 0.08324153, 0.03871156, -0.0387493, -0.05983406, 0.07254411, -0.07345712, 0.07584771, -0.03893081, -0.023464711, -0.039646458, 0.02673836, 0.07136163, 0.03019265, -0.010491065, -0.022094915, 0.011231694, -0.020004902, -0.06958063, -0.15390815, 0.10756769, 0.1387124, -0.034808557, 0.059458215, -0.6108764, -0.07132601, 0.018972322, -0.03978023, 0.13321386, -0.00047771304, -0.13468373, -0.18711837, -0.07524291, 0.14527677, -0.00717331, 0.036894005, 0.23578383, -0.55705607, 0.03964726, 0.022195581, 0.1968796, 0.010688634, -0.074527726, -0.012851302, 0.09240592, 0.05323842, -1.0352571, 0.034128573, -0.19295767, 0.08692835, -0.039992526, -0.4455353, 0.03413869, -0.2745999, -0.05961273, -0.024532799, 0.069164634, -0.13600324, 0.008859087, -0.10850281, -0.019692762, -0.118046835, 0.012276667, -0.005130033, -0.0025649369, -0.08903605, 0.014702811, -0.12958573, 0.017365245, 0.064000435, 0.06522429, 0.036776207, 0.015966343, -0.036372628, -0.014866033, 0.10283022, -0.012616915, 0.03341442, 0.12266014, 0.024672447, -0.028481094, 0.03105491, -0.05054037, 0.05832868, 0.102189906, -0.07606469, -0.041734166, 0.04543611, -0.24497816, 0.17522183, -0.0128623, -0.13123867, 0.04562404, -0.00153722, -0.012360997, 0.07860731, -0.059521854, 0.001888523, 0.07282592, 0.02163768, -0.23331787, -0.085938595, 0.09118489, 0.012850265, 0.030222625, 0.0074934587, 0.027875813, 0.09553539, 0.072946966, -0.034636673, -0.136089, -0.06040029, -0.17548852, -0.06372978, -0.079319194, -0.13259806, -0.049676433, -0.15711105, -0.07973718, -0.026323361, -0.09379297, 0.029390806, -0.03145705, 0.03271993, -0.030283699, -0.018921282, -0.04158915, -0.024233166, -0.13720983, -0.1629701, 0.024693975, -0.014458182, 0.027454354, -0.18815297, -0.035890043, 0.009600909, 0.0843051, -0.07135485, -0.09166353, 0.0711108, -0.063140474, 0.07968145, 0.09487772, -0.005657289, -0.16988784, -0.0441966, -0.1305928, -0.009461266, 0.07785226, 0.08753114, -0.02685502, 0.050596945, -0.18610357, -0.20999455, 0.008420252, -0.027198968, 0.068542175, 0.083557785, -0.035708807, -0.16632003, 0.024662828, -0.00431064, 0.14846162, 0.07340902, -0.10354791, -0.095635034, 0.0704535, 0.060440157, 0.056773607, -0.15443769, -0.094895884, 0.1064179, 0.11581828, 0.057087436, -0.14615805, 0.00046576848, -0.23302579, 0.12580264, -0.0024931433, -0.109894924, -0.04355938, -0.1107725, 0.17344482, 0.043222893, 0.10596633, 0.0068851537, 0.09844224, -0.24405883, -0.042995688, -0.14798221, -0.04379147, 0.02903639, 0.1296952, -0.12862857, 0.09486622, -0.007157277, 0.015508799, -0.5819027, -0.01858123, 0.0619777, 0.12064136, -0.055058908, -0.02471167, 0.06657205, -0.016272431, 0.089868605, -0.012609967, 0.005359083, -0.14955257, 0.032446947, 0.15928955, 0.00702034, 0.05880988, 0.13306405, 0.066621505, 0.03400759, -0.17891976, -0.092296086, -0.07482828, 0.022815851, -0.02692343, -0.2497533, -0.043018393, -0.054970153, -0.054640748, -0.056900047, 0.116158135, 0.08384411, -0.15468487, -0.117628045, 0.03477585, 0.07401931, 0.15380053, 0.00677246, 0.037868787, 0.060580336, 0.1172001, 0.098285936, -0.14397036, 0.021498067, -0.1007885, 0.088342965, 0.121704035, 0.10991464, -0.16931365, -0.09295435, 0.13403237, -0.010538548, 0.025974674, 0.0059961956, 0.2468918, -0.07344765, -0.009513843, 0.02082486, -0.03177391, -0.0709591, 0.03339407, -0.06304772, -0.015714109, -0.015058112, 0.035519324, -0.5240818, 0.059991416, 0.07785218, 0.05511256, -0.012943961, 0.009406767, 0.061503075, -0.16564587, 0.010509601, -0.024227915, 0.021807056, -0.21120876, 0.025467474, -0.19921342, 0.042205766, 0.079352126, -0.23001832, 0.12806536, 0.017956402, -0.28216982, 0.0012634094, 0.3036153, 0.100168586, 0.021565136, 0.086134434, -0.01930012, -0.00995446, -0.08219472, 0.02814381, 0.06517665, 0.039510544, -0.07059732, -0.09617736, 0.0455954, 0.037824735, 0.08138315, 0.062019814, 0.02288477, 0.10136036, 0.0835196, 0.060840547, -0.11864087, 0.016793465, 0.06085021, 0.034153372, -0.03871846, -0.09727473, -0.08041451, -0.062005464, 0.072047785, 0.020791192, 0.067818634, 0.05356768, -0.07077659, 0.11255026, -0.048962697, 0.1269792, 0.044331457, -0.08431565, -0.05638389, -0.16992657, 0.04680163, 0.018691571, 0.16488995, 0.01479708, 0.056931112, 0.08928452, 0.014713131, -0.07048566, -0.07558812, 0.077613644, -0.059187107, 0.07210082, 0.113979466, -0.0913848, -0.011946134, 0.08343802, 0.06918735, -0.016912265, 0.05907322, 0.35031417, -0.092126094, 0.027763864, -0.062027104, 0.010790958, 0.13688195, 0.079926535, 0.007937002, 0.074621305, -0.1763863, -0.0060421233, -0.007502654, 0.07831743, -0.008127401, 0.07261676, -0.09410039, -0.13874729, 0.031973556, 0.062438954, -0.05505447, 0.11183833, 0.050051153, 0.011136639, 0.05794244, -0.021174481, -0.19699952, 0.012809859, 0.00035008322, -0.380823, -0.08278617, 0.16651449, 0.03615517, 0.098978855, 0.01936205, -0.015733177, 0.11781726, 0.12557103, 0.030394109, -0.14707631, 0.0025828974, 0.029629264, 0.030591618, 0.09282859, -0.108773164, 0.14813238, 0.116691485, -0.101274066, 0.09020392, 0.013494879, -0.042730995, -0.024330394, -0.14503779, -0.023991898, -0.05101501, 0.01533506, 0.0007235927, 0.02364269, 0.12850621, 0.005536006, -0.019439036, 0.07083517, -0.07333311, 0.026216118, 0.01844743, -0.20587844, -0.12604052, 0.023252798, -0.09922655, -0.08405821, 0.08021842, -0.039206676, -0.008255534, -0.07878458, -0.24095577, -0.036694057, -0.007454357, 0.065947175, -0.008339511, 0.03988611, -0.030314796, -0.17193666, 0.06111377, 0.033680305, -0.0063868253, -0.05575033, 0.101441845, -0.13868277, 0.08967052, -0.039417442, -0.2277971, 0.007907023, 0.005197135, 0.17958601, -0.030675763, 0.01885646, -0.033661228, 0.18656574, 0.081198975, 0.12245726, 0.11399257, 0.07064169, -0.07913094, 0.045893095, -0.03810997, 0.030194286, 0.19667895, -0.057206687, 0.049954414, -0.14145894, 0.06974799, 0.050317682, 0.05849194, -0.0076815872, -0.05610964, 0.021020524, 0.06866325, -0.024310863, -0.043763336, -0.21683146, -0.12086378, 0.02970921, 0.007304715, -0.06441219, -0.08238914, -0.097974464, 0.030418422, -0.08431032, 0.10765578, 0.07182857, -0.07505962, 0.014418287, -0.09243088, -0.16536783, 0.080111735, 0.06441987, 0.04519445, 0.081669495, -0.16199799, -0.096692085, -0.082316875, 0.055782065, -0.019138021, 0.034333643, 0.03660904, -0.15443486, 0.040809993, 0.023938179, -0.043897863, 0.04705578, 0.02363673, 0.010663776, 0.060167827, 0.060337663, -0.50755703, -0.0086453315, -0.046463672, -0.030036023, -0.058910828, 0.16439947, -0.06751724, 0.1002494, 0.053959105, 0.07418638, -0.1217339, -0.021353578, 0.020841068, -0.052604645, -0.03787669, -0.008579992, -0.06344665, -0.0005852734, -0.0893165, -0.061599538, -0.009968841, -0.060403645, 0.045975182, -0.0058073876, -0.07933667, -0.04068938, -0.023109145, -0.020400707, -0.10625267, 0.11487686, 0.067402415, 0.124881886, -0.028352242, 0.019684628, -0.067784205, 0.067015074, -0.11231622, 0.12732668, 0.092163116, 0.11349477, -0.08860621, 0.07371256, -0.10887155, -0.11407699, -0.044523142, -0.032305736, 0.068454154, 0.010237725, -0.06289401, -0.007485516, 0.03590336, 0.20208484, -0.04823817, 0.06444923, 0.01449685, -0.10835984, 0.09339982, 0.049736254, 0.15568231, 0.0027829874, 0.058565132, -0.022465738, 0.08047804, 0.02513557, -0.17455007, -0.0099174185, -0.14461139, 0.17834908, 0.008846022, 0.04974373, -0.0679206, -0.054348983, 0.041985776, -0.010663124, 0.017020117, -0.1464742, -0.009093679, -0.12833416, -0.047736075, -0.08487897, 0.041044205, -0.0356446, -0.046081312, 0.045528736, 0.086375006, -0.11054235, 0.0018352928, -0.047264315, 0.030845003, 0.11293895, -0.001914913, -0.049789462, -0.049835272, 0.18182546, -0.089936994, 0.018555023, 0.12146758, -0.036839146, -0.025983006, 0.011447468, 0.13191685, -0.094469294, 0.07684312, -0.1312462, -0.029084338, 0.10650887, -0.19102567, -0.09284791, -0.0046570385, -0.014537356, 0.12209563, -0.049128257, -0.008747177, -0.019490752, -0.064379506, 0.0059995395, 0.040294908, 0.06635279, 0.05349452, -0.084704936, 0.057223443, 0.055418618, 0.043595728, 0.041555006, -0.11947807, 0.12844189, 0.07991436, 0.029310891, -0.23833607, -0.017592685, -0.32943907, -0.09638102, -0.06697253, -0.12707727, -0.06386994, -0.16200998, 0.046874728, -0.09337945, 0.057674706, -0.06301964, -0.0029495016, 0.05560901, -0.016241705, -0.028756166, 0.0629898, -0.062067404, -0.17486428, -0.1474419, -0.011753388, -0.100570686, -0.013908213, -0.15969975, -0.03246433, -0.03729212, 0.1283071, -0.01590207, -0.07995993, 0.087806076, 0.032344524, 0.090469524, 0.022291668, -0.021091904, -0.12180884, 0.008054031, -0.18079196, 0.03860152, 0.041248996, 0.1039889, -0.11343818, 0.054301407, -0.18809015, 0.04705653, 0.06403495, 0.06962538, 0.047194894, -0.014014355, -0.01905458, -0.06479955, -0.11126461, -0.06421712, 0.10051108, 0.049508926, -0.069022305, -0.0821818, 0.0757798, 0.028363748, 0.07599603, -0.2033669, -0.003046752, 0.0945035, 0.16001852, 0.01688053, -0.13658133, 0.090740085, -0.25776798, 0.17595024, -0.02797684, 0.119242065, 0.0654668, -0.052210797, 0.022400666, -0.13163982, 0.084092274, 0.018980622, 0.09577867, -0.35686526, -0.015454796, -0.122489944, 0.017635902, 0.024596276, 0.20483139, 0.010029905, 0.0306054, -0.034064595, -0.043644488, -0.6804481, -0.073022254, 0.05023196, 0.0850385, -0.056428276, -0.057490464, 0.033536647, -0.015516207, 0.08260973, -0.043151177, 0.00018173216, -0.14842658, -0.011507854, 0.27023193, 0.03711563, 0.06061048, 0.13425162, 0.16728331, 0.024838315, -0.186597, -0.055810545, -0.117306635, 0.15052487, 0.0035492615, -0.2296914, -0.041004665, -0.071441315, -0.13046075, 0.0035273817, 0.06139644, 0.061000153, -0.11761539, -0.09307952, 0.070864044, 0.04821732, 0.13729002, 0.048783503, 0.015312658, 0.062712386, 0.13047944, 0.036289025, -0.13976887, 0.024571234, -0.108767435, 0.059703737, 0.046214167, 0.17135526, -0.14874122, -0.034002632, 0.043626927, -0.060795307, 0.104442336, 0.05671247, 0.26966035, -0.07524128, -0.038410082, -0.05318589, 0.005598837, -0.061849855, 0.015055248, -0.023934077, 0.029775988, -0.039400995, 0.0349188, -0.55248016, 0.07217864, 0.033924904, 0.030092096, -0.032262288, 0.013196265, 0.056696154, -0.102361925, 0.07388581, 0.046772197, -0.018487984, -0.23253284, 0.015900245, -0.19753829, 0.074294195, 0.032640055, -0.22826056, 0.08450918, 0.013194277, -0.10702692, -0.032891512, 0.2965165, 0.033782482, 0.024128253, 0.098758206, 0.0030768565, -0.003372775, -0.050549906, -0.045189925, 0.018853823, 0.05374857, -0.10753493, -0.084717266, 0.034618538, 0.060621183, 0.08984989, 0.027963191, 0.008661886, 0.11420387, 0.065614074, 0.10925862, -0.08113589, -0.0008805336, -0.0061690644, 0.014160294, -0.043070022, -0.04936763, -0.11486362, 0.036977, 0.05824121, 0.025798338, 0.053847425, 0.031457193, 0.01267776, 0.13650887, 0.021107113, 0.073838376, 0.04042218, -0.07028306, -0.06792791, -0.12859116, 0.047721356, -0.06704462, 0.32218674, 0.01805226, 0.025983637, 0.023246448, -0.01629607, -0.00428374, -0.07967092, 0.0726147, -0.032269903, 0.043384343, -0.0094464915, -0.04317838, -0.088543475, 0.066611886, 0.054612286, -0.006661724, 0.0016718936, 0.30019778, -0.08032781, 0.057298485, -0.07310622, -0.027894681, 0.1520609, 0.08862703, 0.05728043, 0.06935594, -0.11445228, 0.038011566, 0.12048508, 0.0020953037, 0.03244607, 0.013882897, -0.05216918, -0.17868368, 0.022153325, 0.015709467, -0.10992746, 0.12422368, 0.022914935, -0.007830152, 0.079977006, -0.06071546, -0.21664524, 0.017016439, 0.008801568, -0.36750755, 0.029629854, 0.1788043, 0.04386377, 0.04102434, 0.05621072, 0.116646506, 0.120030105, 0.08249623, -0.068602316, -0.13155623, -0.058003258, 0.13700926, 0.013756621, 0.092561424, -0.11709561, 0.12970057, 0.111809485, -0.014103091, 0.26241833, -0.044202022, -0.07355713, 0.03208328, -0.096384846, -0.0616685, -0.05360786, 0.040718317, -0.038827095, 0.15332806, 0.10372248, 0.036562648, -0.022245543, 0.08729276, -0.08315096, -0.08092661, 0.02776234, -0.1650854, -0.11622244, 0.010219936, -0.09724197, -0.13221402, 0.09383232, 0.058279585, 0.0038072087, -0.041426588, -0.29921868, -0.062880576, -0.035375286, -0.007722648, 0.015518051, 0.11824556, 0.01688111, -0.20455974, 0.06252121, 0.104037024, 0.115249835, -0.07905395, 0.10809732, -0.08169456, 0.041781694, 0.0031797327, -0.24845219, 0.011348335, -0.010377225, 0.12251108, -0.18707232, -0.13386062, -0.052703194, 0.11926359, 0.04465154, 0.16355778, 0.11716841, 0.096211575, 0.033007193, 0.08073478, -0.038819715, 0.060122464, 0.050776016, -0.0074540162, -0.08874728, -0.12217468, 0.15806893, -0.064435445, 0.11618069, -0.0052180504, -0.17768525, 0.017911619, 0.030073404, -0.034946464, -0.0069233915, 0.12453641, 0.07902712, 0.119363286, 0.10091014, -0.039127998, -0.12290852, -0.19178839, 0.02030091, -0.0015916289, 0.056195877, 0.035139605, -0.052333493, -0.0835575, -0.11167936, -0.15581778, 0.23947825, 0.13199732, -0.032524005, -0.00352674, -0.13370077, -0.28933588, 0.030591952, 0.08317575, -0.086829945, 0.08364213, 0.055535875, -0.20103301, 0.113726065, 0.06281493, 0.057987813, 0.085332446, -0.040001452, 0.033603605, 0.05324408, -0.005581203, -0.20824604, 0.04106351, -0.04680907, 0.0155628165, -0.005690673, 0.2711686, -0.10119202, 0.1313779, 0.059093285, 0.09151085, -0.14924814, 0.011572628, -0.024351168, -0.109722316, 0.03425554, -0.002189878, -0.06505407, 0.004603871, -0.0136925625, -0.051973537, -0.007705644, -0.06236194, 0.007009051, -0.043312628, 0.042025045, -0.009062872, 0.025645413, -0.036964204, -0.27566254, -0.012375413, -0.034266666, 0.07598666, -0.044211153, 0.12362307, -0.18053809, 0.03592031, 0.08404273, -0.21491873, 0.06536544, 0.0882108, -0.055149596, -0.013548854, -0.15762542, -0.085206434, -0.0071591786, 0.003836377, 0.07434568, 0.029345352, -0.037539545, 0.060069304, -0.030392341, 0.095019214, -0.0472824, 0.030521298, 0.045664802, -0.16209184, 0.11324969, 0.014719768, 0.2059881, 0.008071061, 0.027890235, -0.15780534, 0.060638037, -0.0041444628, -0.20567381, -0.030594224, -0.10508859, 0.06396906, -0.06789133, -0.22201519, -0.034559615, 0.12612265, 0.069118924, 0.0415687, 0.14451748, -0.13069198, 0.0175789, -0.11734974, -0.077979945, 0.07398167, 0.08195393, 0.014213352, -0.11050443, 0.057890005, 0.2130152, -0.115753755, -0.015485665, -0.048387263, -0.05560804, -0.021331718, -0.010950618, -0.07686341, -0.015669277, 0.037779342, 0.055311296, 0.17253825, 0.011022627, 0.101794496, 0.028202131, 0.046331108, 0.08207753, 0.098109424, 0.07841566, 0.06515067, -0.07665969, -0.054603666, -0.15941364, 0.11873942, 0.2434181, -0.0014532398, 0.050738208, -0.15234771, -0.024956834, 0.016871965, -0.005155069, 0.107428126, -0.29054463, 0.11243548, -0.028770743, -0.113886766, 0.08748339, 0.10657733, 0.08905373, -0.028381743, -0.050197102, 0.2973129, 0.14526862, -0.08075856, -0.16736737, -0.072385944, -0.26721358, -0.04265253, -0.01888621, -0.028445788, -0.05185537, -0.038243756, 0.009001489, -0.05243236, -0.032365803, 0.008356709, 0.00871071, 0.059471495, -0.09270733, -0.04357359, -0.051412918, -0.038508333, -0.05853852, -0.17032246, 0.1076496, -0.0674108, -0.0019872508, -0.10179873, 0.006476781, 0.012218947, 0.067665406, -0.05632908, -0.07221019, 0.07977421, -0.05294111, 0.15088952, 0.06340983, -0.02237882, -0.14975421, -0.019069236, -0.13542607, -0.061918978, 0.07689709, -0.030534359, 0.03636692, 0.051435918, -0.18425027, 0.03434359, 0.107821025, 0.2053695, 0.08422764, 0.089462996, -0.016170742, -0.059937775, -0.0564002, 0.09764231, 0.13135396, 0.1457139, -0.06487688, -0.11100472, 0.11947899, 0.15022416, 0.018514778, -0.15744138, -0.092025265, -0.035669405, 0.12821776, 0.022354674, -0.13816838, 0.108194284, -0.22302894, 0.088962846, 0.034025494, 0.2300614, -0.069468215, -0.14966097, 0.085343, 0.105465256, 0.21457744, 0.0013337258, 0.074167535, -0.35373256, -0.015371455, -0.049477372, 0.037886627, 0.0072645056, 0.100987434, 0.0355495, 0.18750814, -0.008346201, -0.032653827, -0.32640514, -0.035349283, -0.021707693, 0.09548086, -0.035201687, -0.020468129, 0.00363653, 0.020525683, 0.1529024, 0.054943852, -0.026365072, -0.053375468, -0.011960739, 0.20042586, 0.040910743, 0.048306134, 0.21724719, 0.06905336, 0.032634337, -0.1778772, -0.017309431, -0.08863289, 0.056432124, 0.0053942166, -0.042218983, -0.051152542, -0.04259832, 0.06760149, 0.019453267, -0.09823158, 0.1153287, -0.11220296, -0.121529326, 0.09873199, 0.10537728, 0.032374356, 0.016984515, 0.07528162, 0.056177493, 0.050653443, 0.042493265, -0.16629608, -0.07859738, -0.1561754, 0.20768449, -0.01598727, 0.13664141, -0.13249993, -0.024415031, -0.047541678, 0.009349796, 0.07426941, -0.008871995, 0.15458924, -0.0479681, -0.030648774, -0.051436972, -0.055381827, -0.044888873, 0.035490364, -0.15665898, 0.04790002, -0.035121717, -0.002263464, -0.31807888, 0.05622431, 0.09070063, 0.009908817, -0.016872091, 0.021604417, -0.014661359, -0.028954875, 0.061192244, 0.009993921, 0.018309709, -0.23304582, 0.008034126, -0.19554552, 0.026824415, 0.04642085, -0.29815167, 0.098818175, -0.0054921885, -0.12197951, -0.023684163, 0.32309014, 0.13208705, -0.007935916, 0.061941095, -0.021008043, 0.054878946, 0.004889187, -0.020416917, 0.07724029, 0.072049454, -0.07725562, -0.09849675, 0.038693044, 0.06730709, 0.041239128, 0.01827553, -0.023998693, 0.086018436, 0.04818017, 0.06545025, -0.12724753, 0.026137374, 0.006423202, -0.009472664, -0.0056796, -0.120399185, -0.01003746, -0.032169763, 0.017173799, 0.028840901, 0.031163568, 0.034811493, -0.020820588, 0.14715295, -0.044422653, 0.12540472, 0.041335, -0.08176875, -0.016310237, -0.13539791, 0.14695714, -0.14370582, 0.51161, -0.019268911, 0.026081221, 0.007935516, -0.04080451, -0.047433022, -0.07408642, 0.106469974, -0.092385374, 0.10140486, -0.0683571, -0.039358165, -0.091680646, 0.0954035, 0.06087527, 0.078108184, 0.0791193, 0.26199913, -0.042993087, 0.005452611, -0.10050735, -0.014601154, 0.18574727, 0.039592694, 0.029242743, 0.0410751, -0.12303909, 0.12892507, 0.14995892, -0.020261677, 0.017204748, 0.09758012, 0.057275422, -0.22079979, 0.029923731, 0.09614804, 0.091822304, 0.1464902, 0.018736633, 0.02983038, 0.047596596, -0.036085017, -0.31430563, 0.058616504, -0.011239996, -0.39517456, 0.028320478, 0.29115176, 0.09040174, -0.075578526, -0.03511324, 0.002453752, 0.069900215, 0.12959583, 0.04265332, -0.12220296, -0.10602162, 0.16918051, 0.05375266, 0.11626909, -0.01615253, 0.055507783, 0.17306761, 0.09603782, 0.51490164, -0.078906626, -0.04706191, 0.12824205, -0.11486033, -0.13510974, -0.026314378, 0.041953854, -0.03414689, 0.0975101, 0.08886321, 0.05194392, 0.13103461, 0.116052926, -0.103904344, -0.010487819, 0.07932823, 0.008192712, -0.08565987, -0.044151053, -0.13219315, -0.032317832, 0.18780258, 0.082065634, -0.07306181, -0.03129895, -0.21862784, 0.04117548, 0.08990831, -0.025477534, -0.00316383, 0.122911386, 0.06695226, -0.22135505, 0.071991585, 0.1411094, 0.036827013, -0.1314496, 0.05281421, -0.056469735, 0.053956185, -0.026158344, -0.17706023, 0.07632315, -0.0433815, 0.03899356, -0.25022435, -0.3026463, -0.13470317, 0.083632685, 0.033700038, 0.13154879, 0.13157095, 0.026877796, -0.058731798, 0.11008672, -0.023085002, 0.052889287, 0.0057498408, -0.031063106, -0.07339972, -0.08363814, 0.16881703, -0.10986309, 0.20477079, -0.043020934, -0.12755921, 0.080642045, 0.028528951, -0.07291362, 0.02911728, 0.023455845, 0.051455338, 0.13342431, -0.030590024, 0.0009239486, 0.0077688643, -0.13142651, 0.12006631, -0.09851988, 0.055973206, -0.17362566, -0.1380602, -0.12822409, -0.13085599, -0.035678316, 0.116403475, 0.13224979, -0.027334386, 0.06819109, -0.19565782, -0.7775414, -0.091064736, 0.060538214, -0.14378282, 0.095907986, 0.2136204, -0.21251515, 0.06600264, 0.089485936, 0.078876875, 0.047762766, -0.06053132, 0.07435721, 0.0076964656, 0.03244558, -0.24028343, 0.03781545, 0.019696796, 0.113498114, 0.068030715, 0.33074623, -0.020035733, -0.04501032, -0.0023366832, 0.09820481, -0.041598573, 0.0054802867, 0.030613972, -0.022589874, -0.0726184, 0.06264132, 0.03128121, 0.03603129, 0.02078593, 0.072523005, 0.33753374, -0.038899247, -0.030167582, -0.11485405, 0.008356509, 0.089596964, -0.00451375, -0.047632188, -0.44750622, 0.051538832, -0.2994253, 0.16316465, 0.020650756, 0.08261924, -0.096926, 0.13637373, -0.10619832, -0.09153312, 0.08372188, 0.13060385, -0.08002026, -0.19126734, -0.19348194, 0.06623441, 0.051500794, 0.16305825, 0.01127687, 0.008884842, -0.12406903, -0.0015526168, 0.11438388, 0.13827807, 0.044800423, 0.12811968, 0.05560679, -0.19196174, 0.021328019, 0.12353985, 0.212866, 0.00089722883, 0.053386334, -0.09073146, 0.030197738, -0.06829992, -0.24497144, -0.049609497, -0.14841044, 0.09302568, 0.010095067, -0.5039745, 0.18075499, 0.094828114, 0.01333531, 0.07255944, -0.044636093, -0.11107541, 0.14325538, 0.13009153, -0.09226033, -0.14097275, 0.09003705, -0.035883747, 0.1331618, -0.1849871, 0.17756478, -0.05660508, 0.021063613, -0.020681104, 0.02626073, -0.0018786001, -0.0322721, -0.12434876, -0.04860268, 0.060387824, -0.029914381, 0.16070399, 0.07049118, 0.0019531057, 0.04018114, 0.011002537, 0.09247862, -0.06643372, 0.098484464, 0.037606753, -0.061493047, -0.111692384, -0.18888977, 0.08614029, 0.10074869, 0.162051, 0.071952075, 0.0022975295, 0.012090542, -0.1186406, 0.0070525836, 0.087321416, -0.37194076, 0.16186641, 0.0019434544, -0.16908878, 0.11761516, 0.15493545, 0.17151178, -0.10778342, -0.012293544, 0.28579888, -0.06802445, -0.057462636, -0.20671171, -0.06417104, -0.16215824, 0.14690207, -0.048564658, -0.13140796, -0.06729454, -0.2745392, 0.07815972, 0.09673619, 0.18787022, -0.04026459, 0.017175104, 0.048116043, -0.11158588, 0.09917917, 0.05218527, 0.019169286, 0.12268329, -0.19284327, 0.40627095, -0.09197003, -0.0050844206, -0.025800737, -0.033257168, -0.038483318, 0.040617667, -0.09912921, 0.025417916, 0.061834667, -0.1444248, 0.22530091, 0.07678597, -0.059199132, -0.22290336, 0.013830154, -0.22055323, 0.039956454, 0.067590326, 0.019501777, 0.057746798, -0.08944103, -0.19462302, 0.021549763, 0.19115655, 0.27574387, 0.03098897, 0.06151228, -0.004861735, -0.18716788, 0.056165885, 0.12183203, 0.13481322, 0.19781938, 0.008705732, -0.1485268, 0.084732, 0.19585764, -0.09757684, -0.089349136, -0.033403456, -0.18012999, -0.072002664, -0.046694852, -0.18353254, 0.058870718, -0.21950188, 0.09834491, 0.12368146, 0.20509689, -0.11165507, -0.3591699, 0.05978182, 0.10484328, 0.15198253, -0.06628611, -0.061905943, -0.09986293, -0.048845675, 0.027596593, 0.028642004, -0.054207757, 0.038177695, 0.06721421, 0.16187614, -0.033035744, -0.033670243, -0.1798255, -0.07360707, 0.030145584, 0.05175978, -0.063843824, -0.009079729, -0.07319887, -0.12126083, 0.04939627, 0.03439366, -0.012528416, 0.012539333, -0.03729975, 0.17686352, 0.012478655, 0.081987485, 0.21641059, 0.026595911, 0.03150603, -0.20366253, 0.031829223, -0.10336503, 0.15552102, 0.020273447, 0.0036035585, -0.05000824, -0.0019415168, -0.13624133, 0.051809993, -0.153251, 0.11787539, -0.13672183, -0.15065935, 0.11087967, 0.13205434, 0.026903978, 0.03558441, 0.119713746, -0.004460034, 0.016939627, -0.025308853, -0.21107355, 0.042202864, -0.066337325, 0.27688473, -0.08718129, 0.07033864, 0.098641634, -0.0052764, 0.100575306, 0.033618532, 0.11642069, 0.03518117, 0.07277027, -0.107072294, -0.07037309, -0.033298504, -0.010349975, -0.05675267, 0.11751561, -0.13008986, 0.33069316, -0.034009032, 0.0015541441, -0.16891827, -0.0776372, 0.031108009, -0.035848532, -0.068059005, -0.036029484, 0.01127168, 0.08652542, 0.16384763, 0.04355068, 0.09395114, -0.2531002, 0.0048517445, -0.21923779, 0.038078032, 0.09776509, -0.24464335, 0.026970116, -0.01738446, -0.13869648, -0.021268956, 0.26265615, 0.08699424, 0.03685587, 0.04057769, 0.007012402, -0.016442278, 0.11411735, -0.029070351, 0.06521158, 0.15387765, -0.05494166, -0.12854007, 0.0747106, 0.1494719, 0.0721459, 0.051535975, 0.031186635, 0.08294227, -0.018216686, 0.08345309, -0.20084113, -0.02313533, -0.012109093, 0.037073106, 0.031455103, -0.15817091, -0.03162853, -0.099310726, 0.072030745, 0.15592435, 0.13050996, -0.0143745225, 0.09680998, 0.12548487, 0.06131965, 0.29133347, 0.08392977, -0.031057753, -0.07031379, -0.055503704, 0.058494285, -0.2713242, 0.5861598, -0.08957163, 0.026796767, 0.001769494, -0.07746306, 0.07196831, 0.05715657, 0.2652494, -0.087244146, 0.06460956, -0.2552336, -0.24978007, -0.33712852, 0.15302761, -0.025859678, 0.07563482, 0.14190832, 0.28250882, -0.039840765, -0.045323025, -0.119462445, 0.0020211705, 0.09089238, -0.06747172, 0.107820936, 0.12423305, -0.21901162, 0.07804396, 0.23320879, -0.13089795, -0.03818644, 0.04213294, 0.21165101, -0.24534932, -0.00067698676, 0.018243026, 0.0353075, 0.15133452, -0.040161803, 0.035034496, 0.043282315, -0.040065534, -0.5021889, -0.0030990532, -0.08471337, -0.9994356, -0.061792288, 0.29189202, 0.16056876, -0.40770504, 0.06505699, -0.16341013, 0.081215486, 0.12597768, 0.064205214, -0.054699913, 0.093357995, 0.2578369, -0.10381009, 0.124424, -0.03947604, -0.08537049, 0.03370491, 0.19017677, 0.50957423, -0.14495224, -0.034545656, 0.19704516, -0.2019414, 0.058613494, 0.010609995, -0.03226442, -0.10206945, 0.020314217, -0.21274565, -0.05235909, 0.3119219, -0.10832544, -0.09048359, 0.047023218, 0.14333066, -0.012203817, -0.08710792, -0.12878454, -0.19153653, -0.20721088, 0.15647517, 0.009289691, -0.060592327, -0.019201048, -0.16744578, -0.06594009, 0.012042863, -0.060386177, -0.15563114, 0.007834005, 0.18727128, -0.23931697, 0.043246057, 0.0031133813, -0.079490624, -0.3153307, 0.111671515, -0.019513821, 0.01266363, -0.059614636, -0.2922903, 0.021809446, -0.0019693975, -0.085616775, -0.2565464, -0.49904358, -0.23592953, 0.2146358, -0.24990426, -0.30015633, 0.1587835, 0.006269604, 0.06265547, 0.03203256, -0.040992983, -0.06798219, -0.04211328, 0.028245842, -0.097396284, 0.14912915, 0.24433015, -0.49284855, 0.25326806, -0.10095662, 0.65980095, -0.03428, 0.026658835, -0.052465, 0.055563822, 0.27887562, 0.10475433, 0.09686505, 0.09887936, 0.048564535, 0.05114705, -0.15092452, -0.058792017, 0.029438915, 0.08533733, -0.2010348, -0.26097846, -0.22260904, -0.15435904, -0.37584683, -0.03072507, 0.18153206, -0.24965768, -0.108204, -0.21028548, -0.6260754, -0.09533081, 0.14581004, -0.08273328, 0.09272233, 0.29129624, -0.2214861, -0.015686586, 0.09979263, 0.068780676, 0.055548675, 0.08787965, -0.010747043, -0.29689178, -0.06811715, -0.42386878, 0.016333424, -0.02657387, -0.026298989, -0.09377949, 0.2878088, 0.10624709, -0.15416828, -0.091884665, 0.06431976, -0.0076718447, 0.051372863, 0.07648276, -0.061878305, -0.08012055, -0.0034301942, 0.06037426, 0.036276408, 0.0639457, 0.07336385, 0.16570899, -0.11158918, 0.100598454, -0.2569511, 0.13381721, 0.065508135, -0.01770399, -0.08854572, -0.40405115, 0.0522854, -0.16831371, 0.16477937, 0.068619944, 0.030643703, -0.21808383, -0.048789762, 0.023965811, -0.019305078, 0.056754045, 0.057888523, 0.013967284, -0.18756256, -0.161333, -0.13189156, 0.0048675123, 0.24114768, -0.003403625, -0.022004195, -0.13630085, 0.054397576, -0.07606412, 0.19842498, 0.102561034, 0.14088848, 0.12517561, -0.18337107, 0.040418524, 0.15132603, 0.06532002, 0.058447864, -0.06279858, -0.060506657, -0.18627106, -0.01935586, -0.48340046, -0.012981976, -0.11318974, -0.07883684, -0.07713484, -0.67869127, -0.04504925, 0.089749604, -0.053523462, -0.07207015, -0.031213515, -0.07697359, 0.11030237, 0.13828279, -0.06647275, -0.041593887, -0.12050624, 0.019406734, -0.16947325, -0.26336253, 0.01926239, -0.19112556, 0.029832823, -0.08266268, 0.08442498, -0.021046927, -0.019026209, -0.08748599, 0.017127803, 0.050651122, 0.11869463, 0.13708735, 0.16380954, -0.0015238258, 0.07055535, 0.097148664, -0.030977473, 0.03620683, 0.13043846, 0.089168996, -0.15318736, -0.14642845, -0.1741664, 0.008081483, 0.110854074, 0.2987935, -0.040123716, 0.23008938, -0.032398734, -1.3328414, 0.23076347, 0.1431508, -0.1727047, 0.128479, 0.11266663, -0.1956327, -0.016680518, 0.1213932, 0.01857435, -0.011414255, 0.045003057, 0.24025932, -0.36017457, -0.028936803, -0.5704958, -0.004973529, -0.1638064, 0.035686493, -0.14546461, -0.30216575, -0.43019086, -0.47026742, -0.008386493, -0.10807301, 0.092728846, 0.04882582, -0.045160938, -0.03230692, -0.12126603, 0.20589285, -0.0021885105, -0.061653808, 0.026670994, 0.048338465, 0.4290474, -0.09640281, -0.031864956, -0.111808695, -0.24617611, -0.03232294, 0.08827454, -0.12894483, 0.033007365, -0.19273959, -0.06413955, 0.21664554, 0.010377639, 0.008914265, 0.14493647, -0.24311735, -0.10894527, 0.04191185, 0.12585743, -0.21431024, -0.028923424, 0.04108208, -0.21396562, 0.14756802, 0.23338221, 0.23743433, -0.035992455, -0.09062679, -0.084429145, 0.20590574, 0.39897496, 0.03942765, 0.15600355, 0.2485947, -0.056735035, -0.16733916, -0.0077762716, 0.2574405, 0.041588876, -0.00538864, 0.02841016, -0.08928066, -0.412672, -0.06083427, -0.26927, -0.016460286, -0.17930661, 0.086558186, -0.11843085, 0.09393798, -0.0809372, -0.3822156, 0.004014406, 0.092642255, 0.0830676, -0.06960405, -0.0033853361, -0.032222904, -0.052919053, 0.020429436, 0.2302745, -0.0074820234, 0.041974176, 0.005920835, 0.1745861, -0.09162721, -0.043018315, -0.12545657, -0.20633455, -0.034282424, 0.16519699, -0.05818768, -0.1870751, 0.0045857215, -0.1381573, 0.22521986, 0.07246194, 0.049103647, -0.37057352, 0.009666689, 0.13141643, -0.022831703, 0.092816114, 0.3794595, 0.0067110746, -0.14376791, -0.20852385, 0.22325331, -0.0052082622, 0.29236862, -0.016224157, 0.008102017, 0.0010940776, -0.16859548, 0.0069496087, 0.13092403, -0.07963086, 0.20335987, -0.14553694, -0.18824017, 0.09341278, 0.19185275, 0.030586107, -0.002844071, 0.14596596, -0.3261017, -0.37406552, -0.06616145, -0.2709716, 0.055100475, -0.09601625, 0.18302001, -0.16641794, 0.021659475, -0.031716373, -0.37586832, 0.23816217, 0.025205268, 0.110033385, 0.0705691, 0.24781913, -0.096835524, -0.06329766, -0.07626022, 0.073807865, -0.059279025, 0.021855399, -0.10772603, 0.3505322, -0.13383347, -0.015234148, -0.21341157, -0.39140224, 0.09679676, 0.008147579, -0.07221916, 0.13606885, -0.18262379, 0.06734578, 0.06484803, 0.12037718, 0.071901426, -0.013686623, 0.0036659122, -0.17878748, 0.015492061, 0.12250842, -0.33908105, -0.005657373, 0.011581946, -0.19414982, 0.20447114, 0.31182948, 0.061877787, -0.011042401, 0.0049264976, 0.02635231, 0.07351458, 0.039159298, 0.052756492, -0.0055529424, 0.16188414, -0.096152104, -0.16333194, 0.063690014, 0.17597179, -0.03884019, 0.047027282, 0.17286159, 0.050620016, -0.14222857, -0.15204254, -0.44028226, -0.07804765, 0.04883634, -0.017973412, -0.09960165, -0.393617, 0.27798912, -0.16030054, 0.24567926, 0.17316209, 0.06308607, -0.092336275, 0.1229073, 0.23467466, -0.011011179, 0.23038931, -0.052319452, -0.12763159, -0.12910415, -0.5900702, 0.14704686, -0.28842556, 0.5972185, -0.12873678, 0.15451361, 0.07123561, -0.13623273, 0.008723575, 0.040110826, -0.067871876, 0.06950301, 0.008158167, -0.19809279, -0.11864147, -0.84245694, 0.03614672, 0.04174269, 0.049129065, 0.11429518, 0.15910059, 0.07552035, 0.0970998, -0.2368898, 0.051015336, -0.069085985, -0.0036707595, 0.02011404, -0.15888472, -0.28456935, 0.093317576, -0.5228396, 0.10270627, -0.12058754, 0.0816012, 0.11314276, -0.25115862, -0.15144192, 0.06477851, 0.086412035, 0.24439888, 0.09813156, -0.102395214, 0.10420883, 0.084019974, -0.43732274, -0.0733034, -0.10827895, -0.71797484, -0.16330205, 0.39078242, 0.07296415, -0.7884116, 0.042808145, -0.08831771, 0.19323482, -0.1406842, -0.033596598, -0.48447305, -0.032993924, 0.27044314, 0.07790319, 0.19735143, -0.07463984, -0.31828144, 0.1537292, 0.17332235, 0.5530695, -0.1773625, 0.050469354, 0.16130011, -0.76577145, -0.09479953, 0.22889976, -0.07624681, -0.20583443, 0.0013066552, -0.23361062, -0.044232566, 0.40393284, -0.7813515, -0.41801062, -0.18371253, 0.09691976, -0.09939372, -0.22687376, -0.0397404, -0.24117054, -0.4982798, 0.1433549, -0.07105404, -0.2566171, -0.076768294, -0.12826103, -0.10343924, -0.01056654, 0.10844111, -0.14222567, 0.101570554, 0.28138462, -0.3167047, -0.07352987, 0.09134317, -0.27230233, -0.46244398, 0.06997395, 0.002874097, -0.45779678, 0.07190187, -0.68041277, -0.056432176, 0.05252738, -0.13371694, -0.088023216, -0.11052727, -0.09815355, 0.32300508, 0.008589595, -0.07283523, 0.1485434, -0.020765753, -0.0012418303, 0.17179912, 0.016131751, 0.01540743, -0.059985276, -0.28389227, -0.23370998, 0.09621998, 0.060165457, -0.16799694, 0.2736926, -0.19339916, 0.5781237, -0.038442165, -0.020108558, -0.006003919, -0.008039895, 0.14440376, 0.05004173, 0.07804643, 0.11836481, -0.027325476, 0.08942686, -0.20340796, -0.044212807, -0.010040688, 0.107494235, -0.5360363, -0.385841, -0.26593667, -0.17610891, -0.46751428, 0.003694951, 0.08246139, -0.29007232, -0.24234432, -0.29379493, -0.2918902, -0.39243525, -0.032294735, -0.1518284, 0.07496691, 0.38876963, -0.25891414, -0.057854448, 0.057912305, -0.0031211043, -0.07854562, 0.11074333, 0.21198662, 0.003661975, -0.003542303, -0.51191026, -0.044079088, -0.16951571, -0.3959612, -0.123797424, 0.15778214, -0.11151179, -0.32791743, -0.31166434, -0.24985373, 0.007843861, -0.030317597, -0.050397243, -0.21403925, -0.09308304, -0.14572282, -0.027340997, 0.020583816, -0.080177546, 0.1075271, 0.23543963, -0.06436382, 0.034307037, -0.1619537, 0.4760856, 0.05809335, 0.045839, -0.113890514, -0.16218166, -0.18590404, -0.052153043, 0.2666955, 0.24005501, -0.038895186, 0.29474962, -0.301963, -0.33840153, 0.16077831, 0.07231443, 0.23637815, -0.23677474, -0.14657967, -0.2658415, 0.17914456, -0.05704191, 0.12277733, -0.4280384, 0.010138198, -0.16240838, -0.32101685, 0.33808377, 0.1399017, 0.26351503, 0.24379997, 0.24514559, -0.2352299, -0.13491678, 0.20690364, -0.1745979, -0.113680184, -0.12750083, -0.10220188, -0.15443951, -0.0042511215, -0.7456375, 0.044327993, -0.12389175, -0.10487573, -0.119688004, -0.37751922, 0.07302731, -0.31691825, -0.48273504, -0.145478, -0.26474562, 0.08534289, 0.040172163, 0.15722913, -0.026876925, -0.28542286, -0.18790266, -0.20131369, -0.1948441, -0.14448011, 0.1920945, -0.23731992, 0.0021139623, -0.16676973, 0.23431359, 0.0011911707, -0.31608617, -0.07623898, -0.121388584, -0.032518275, 0.070921265, 0.2876892, 0.12945311, -0.1454702, -0.16843781, -0.22958708, 0.07722744, 0.18680695, 0.032622796, 0.048860513, -0.07189169, 0.005460322, -0.23564678, 0.21783552, -0.302641, 0.111897126, -0.09900694, -0.07311082, 0.06802547, -0.31629148, 0.181381, 0.20237488, -0.1977969, 0.18288384, -0.014935044, -0.25815004, -0.3122096, 0.14656615, -0.18335319, -0.19281396, 0.16081113, 0.20718986, -0.19164963, -0.017549554, -0.6364014, 0.032403708, -0.21039027, -0.21773653, -0.31707865, -0.2121497, -0.20279212, -0.9206616, -0.18015815, -0.06795707, 0.029267212, 0.06984395, 0.08007551, -0.16711068, 0.0018405032, 0.14127612, -0.6563242, -0.032604583, -0.036835656, -0.042655937, 0.12641, 0.04006756, -0.05982403, -0.12043484, -0.3992986, -0.12826532, 0.27172595, -0.029307276, -0.13318875, -0.19810714, 0.11282375, 0.074224524, 0.07852995, -0.042877313, 0.0022190933, -0.078949444, -0.8156667, -0.11545039, 0.06891529, -0.12875636, -0.0012546497, 0.06645964, -0.26860818, 0.30895573, 0.010375463, 0.137123, -0.22525673, -0.09109116, 0.12750694, 0.0023258652, 0.19862886, 0.04818853, 0.39228877, 0.10445259, -0.17218919, -0.21133387, 0.049859274, 0.10015587, -0.23176399, -0.026080374, 0.088807985, -0.36116692, -0.3896308, 0.024434814, -0.5637649, -0.09540949, 0.09757436, -0.19220716, -0.0068431227, -0.29566765, 0.32356793, -0.24050362, 0.14900067, -0.03730386, -0.08984579, -0.043399103, 0.03147464, 0.11073451, -0.0881787, 0.20538078, -0.28156564, -0.297648, 0.13067846, -0.12896961, 0.12073818, 0.0049081524, -0.006890163, -0.3632413, -0.41279554, -0.094615184, -0.41412607, -0.077251114, 0.0592998, -0.024916925, -0.328378, 0.19665906, -0.13884002, -0.073215686, -0.34521797, 0.024402954, 0.03346129, -0.2756338, 0.04769405, 0.36988333, -0.07106793, -0.0006297533, -0.24716608, 0.27187645, -0.4185185, 0.1717688, -0.0052318503, -0.1522104, 0.46809533, 0.13415469, -0.7708133, -0.23995806, -0.04203441, 0.19549783, -0.25070995, -0.30124998, 0.10122789, 0.18498261, -0.0885614, 0.025189396, -0.057241865, 0.0041775387, -0.641482, -0.19404137, -0.31002563, 0.0047920574, 0.016787553, 0.4581686, 0.014017751, 0.22467826, 0.14599003, -0.2481623, 0.26245603, 0.18894589, 0.040470436, 0.024326531, -0.060213134, -0.0788684, 0.015027671, -0.092962205, -0.344193, -0.6384785, 0.101327926, 0.27378255, 0.1477513, 0.13203508, -0.034547817, -0.2918262, -0.31186694, 0.08283761, -0.10160977, -0.008371831, -0.032127872, 0.027987802, 0.082281545, 0.061376058, -0.0033983279, -0.026622705, -0.025687655, 0.1972301, -0.48551044, -0.24335372, 0.15705423, -0.3582427, -0.58306515, -0.067989126, -0.22138698, 0.23464999, -0.10373513, 0.13019328, -0.25258523, 0.028838977, 0.033554647, -0.080418594, 0.008458687, -0.26025218, -0.07571172, 0.097542696, -0.24764036, -0.2181708, -0.08008744, 0.09223169, -0.14674532, 0.016274415, 0.02171072, -0.046521638, -0.17103261, -0.14211036, -0.70045364, -0.42860094, 0.033865534, -0.17012963, -0.0056303204, -0.04437009, 0.037042197, -0.24601333, 0.30543342, 0.1875836, -0.111043416, -0.035140302, 0.0051445574, 0.008756059, 0.008200922, 0.004781676, 0.0039947284, 0.00038629706, 0.00196443, 0.006980469, 0.0066709635, 0.006048683, 0.0020467811, 0.0018505019, 0.0057513826, 0.00033157482, 0.00054345094, 0.0016500453, 0.00616286, 0.0036780648, 0.0019100378, 0.00049471477, 0.0033943066, 0.007048546, 0.0047377287, 0.006808686, 0.0061925817, 0.0029964987, 0.0058915955, 0.0018939137, 0.0065941405, 0.0011034522, 0.004040942, 0.007156102, 0.0011531191, 0.003945957, 0.0071703433, 0.0040117293, 0.0077534546, 0.005700269, 0.0030577532, 0.0003581214, 0.0022773412, 0.002625124, 0.0052041626, 0.0012436896, 0.008003853, 0.0076638693, 0.008122271, 0.008044814, 0.005682135, 0.0060752532, 0.004202148, 0.008237104, 0.0025894805, 0.0016146498, 0.008070663, 0.004980448, 0.007386229, 0.004704509, 0.0009063672, 0.00070072245, 0.0025654233, 0.0029784283, 0.002065462, 0.0016599502, 0.004813946, 0.002394456, 0.0059396364, 0.0015271433, 0.0069212336, 0.00030422388, 2.0011588e-05, 0.0027976236, 5.8947287e-05, 0.002600481, 0.0041340035, 0.0016125232, 0.007653856, 0.00062801805, 0.0059568956, 0.00024564617, 0.0016592836, 0.0019264142, 0.0017508707, 0.0058626183, 0.003707615, 0.0043944293, 0.007819592, 0.0043939413, 0.007170314, 0.004823339, 0.002461428, 7.900693e-05, 0.008511121, 0.00787101, 6.621725e-06, 0.0044714874, 0.0013377361, 0.00701136, 0.0029858127, 0.0007121053, 0.0042530494, 0.0017518988, 0.0028876509, 0.008741223, 0.001527894, 0.0041809743, 0.007262229, 0.008770954, 0.0056216596, 0.0035941794, 0.0041728364, 0.003516811, 0.00778807, 0.00014885412, 0.0001859771, 0.0042940937, 0.0063789887, 0.006652155, 0.005740019, 0.008775217, 0.0071596107, 0.008077304, 0.008412107, 0.0071999608, 0.007182785, 0.008598839, 0.0024817302, 0.0028973538, 0.008189309, 0.002037111, 0.006612921, 0.0066136317, 0.0078564435, 0.000888224, 0.0084990505, 0.0011801118, 0.0006832942, 0.004818951, 0.0038231825, 0.004262784, 0.004906069, 0.002376612, 0.0036510117, 0.00040903044, 0.0047806357, 0.0022043686, 0.0068099783, 0.0041857525, 0.00095650624, 0.0057234745, 0.0047308826, 0.008791165, 0.0075137364, 0.00014544163, 0.0036857307, 0.0017708793, 0.00041487886, 0.0058881696, 0.006798001, 0.0077534495, 0.0025271415, 0.0044808383, 0.0015907396, 0.005863846, 0.0044189715, 0.0029584048, 0.0025180543, 0.0062764585, 0.0026040096, 0.0055387015, 0.00042611573, 0.0042026914, 0.0004788401, 0.0062165936, 0.004127608, 0.0014146396, 0.0004502021, 0.00523272, 0.005252327, 0.0022279185, 0.007824401, 0.00536667, 0.0035553188, 0.00373944, 0.008357885, 0.0043352293, 0.0005184433, 0.0046321065, 0.0048610414, 0.005365631, 0.007188244, 0.0033673642, 0.0016801216, 0.0012328948, 0.0022662468, 0.004333815, 0.00018853608, 0.004439391, 0.004593276, 0.0044797664, 0.006367221, 0.0019751363, 0.0006943923, 0.0010377984, 0.002225514, 0.004576283, 0.0029089267, 0.007603262, 0.0067007747, 0.0036795626, 0.008672878, 0.0007078081, 0.006258614, 0.0075798114, 0.008529672, 0.008305092, 0.0005267932, 5.187909e-05, 0.0037156765, 0.008722856, 0.0009801891, 0.00093399896, 0.008308387, 0.004435181, 0.0006639191, 0.0015954863, 0.0068328725, 0.00011787177, 0.003044898, 0.008715509, 0.007826826, 0.005380534, 0.0079455655, 0.004354883, 0.0063369013, 0.0018258909, 0.0030502877, 0.0086773895, 0.0050474755, 0.006459877, 0.008635733, 0.0008379049, 0.00072813436, 0.0012331079, 0.0077080643, 0.0014472703, 0.0063030603, 0.0028991562, 0.00024210481, 0.0041666282, 0.005600061, 0.0067684557, 0.0034133948, 0.0062762033, 3.0546365e-05, 0.0021808285, 0.006462267, 0.00873678, 9.434801e-05, 0.008582085, 0.0033849047, 0.003087345, 0.004174808, 0.0044736397, 0.006455578, 0.007144209, 0.0071464004, 0.006576714, 0.0018256451, 0.0027446838, 0.00477704, 0.00016099759, 0.0069863256, 0.001492581, 0.002850254, 0.0022454006, 0.001321449, 0.0069569573, 0.0058181705, 0.0060513075, 0.0019441526, 8.31386e-05, 0.0013536796, 0.005239001, 0.0051794476, 0.004364087, 0.005022933, 0.0017268083, 0.006048604, 0.0073228925, 0.0059671625, 0.002500683, 0.007941987, 0.008265195, 0.003809556, 0.0047194543, 0.0057778344, 0.0014517038, 0.0027949072, 0.0049093347, 0.0024916462, 0.0011539636, 0.0057465113, 0.0053603384, 0.00085586193, 0.0022986145, 0.0071147378, 0.00034782535, 0.0082901195, 0.0056575355, 0.0017150932, 0.0007186761, 0.008636486, 0.0028412102, 0.0033479931, 0.0034379605, 0.005902539, 0.0071078534, 0.0036314838, 0.0043155393, 0.0087098945, 0.0074001625, 0.0028863975, 0.007272257, 0.004571697, 0.0016824112, 0.0057729045, 0.007613929, 0.0056960215, 0.003321282, 1.0220341e-06, 0.0043093236, 0.0014207287, 0.0022090792, 0.00028632893, 0.0061676134, 0.0040433365, 0.007219555, 0.005191378, 0.008043556, 0.005723661, 0.006076775, 0.0068914937, 0.0072052777, 0.0064366804, 0.0077010244, 0.0075242757, 0.0004992428, 0.0005946465, 0.005117634, 0.007144695, 0.0011700109, 0.006918209, 0.005012049, 0.001713241, 0.0051349197, 0.006215232, 0.0037802747, 0.0045723305, 0.008308262, 0.0014012402, 0.0026872333, 0.0032306039, 0.0037779976, 0.00018150604, 0.00021790818, 0.0075274995, 0.0029150357, 0.0055166706, 0.0018751624, 0.0065783304, 0.0066699004, 0.007130944, 0.0077070296, 0.004178003, 0.0069934027, 0.0006566471, 0.0021074833, 0.008755138, 0.008102066, 0.0054631215, 0.0062306486, 0.0069407406, 0.0033876756, 0.0007692569, 0.0009970655, 0.0022695756, 0.0013126172, 0.0005914886, 0.0025031853, 0.008406583, 0.005118283, 0.004799552, 0.004035225, 0.004603294, 0.0021387523, 0.005703846, 0.0073266854, 0.0002230872, 0.0031150526, 0.004952015, 0.0022470655, 0.005933576, 0.003960139, 0.0069339992, 0.0006120728, 0.008318392, 0.006981028, 0.007902386, 0.0016525295, 0.007611336, 0.0029063844, 0.004694344, 0.0011975062, 0.0051980526, 0.002558261, 0.003924612, 0.0070411093, 0.0025834139, 0.00782745, 0.005471812, 0.0002426977, 0.0063353893, 0.0009105363, 0.00086085283, 0.007897064, 0.0037425444, 0.00556343, 0.0016312117, 0.0032797083, 0.0004581447, 0.0037813603, 0.0048301397, 0.0008454621, 0.004629046, 0.0049747457, 0.0019257814, 0.0034135955, 0.0042867325, 0.006793325, 0.006349279, 0.0043181735, 0.008714378, 0.008196358, 0.0032480631, 0.004187155, 0.0039133616, 0.0023329218, 0.007933754, 0.005177785, 0.008060352, 0.0006233243, 0.0030965419, 0.0043106857, 0.0027019877, 0.005549375, 0.00012959733, 0.0069549102, 0.0061140507, 0.0004793871, 0.0010039194, 0.002894522, 0.007822567, 0.0049663535, 0.00031030766, 0.008077109, 0.00457845, 0.008648803, 0.007704543, 0.007579336, 0.0037621388, 0.00872849, 0.0038799234, 0.005466044, 0.00030367862, 0.0051477985, 0.0027314571, 0.0076416647, 0.0016603274, 0.00033074527, 0.0024672279, 0.0071179685, 0.0059477175, 0.0048007234, 0.005452511, 0.000105229534, 0.004838152, 0.0049358155, 0.008406199, 0.0050457944, 0.0037829513, 0.0044605536, 0.0025255214, 0.008659934, 0.0018053186, 0.0010227836, 0.0025180252, 0.00534272, 7.21448e-05, 0.007574759, 0.0047430387, 0.00524828, 0.0027450242, 0.0074041635, 0.0064815306, 0.0073788264, 0.0024428267, 0.0007408314, 0.008289583, 0.0008167998, 0.004309927, 0.0026093554, 0.02718887, -0.18273717, -0.032278076, -0.21201822, -0.025965607, -0.14850041, -0.035657562, 0.22454624, 0.079092905, -0.072688825, -0.28078705, 0.09775522, -0.041069195, 0.044038612, -0.22970077, -0.01524505, -0.14359239, 0.08588127, -0.29681978, 0.099046096, -0.17321394, -0.11805783, -0.075636, 0.0074999677, -0.10861854, -0.2670594, 0.07100647, 0.06686329, -0.1182302, 0.10036555, -0.14849953, -0.15556146, 0.06803487, 0.028296795, 0.2466572, 0.024313014, -0.08160607, 0.37361968, 0.4462346, -0.006676321, -0.08202359, 0.04090595, 0.19095547, -0.13583936, 0.111519724, 0.04689159, 0.069582455, -0.20655806, -0.03522001, -0.46473277, 0.08822402, 0.13911083, -0.35982957, -0.2949922, -0.23589927, -0.06822763, -0.13006036, -0.16154124, 0.013787941, -0.069956556, -0.035835948, 0.17032343, -0.0119254, 0.12527773, 0.10935862, 0.056565452, -0.051573064, 0.011990375, 0.024098547, -0.1808618, -0.0034837981, -0.025591986, 0.020402888, -0.084792435, -0.24232398, 0.024700021, -0.1088333, -0.08810916, -0.18137743, -0.022763748, -0.038741324, 0.101365186, -0.023631401, 0.04947553, 0.1032954, -0.23263851, -0.3179135, -0.08479874, -0.09710287, 0.105124734, 0.07038037, 0.12394622, -0.15731168, -0.0038542869, -0.11618486, -0.03105157, 0.028822707, -0.043715183, 0.025641719, -0.03739976, -0.114168376, 0.07906189, -0.12742165, -0.05938268, -0.1302716, 0.030132271, -0.07168868, -0.23421323, 0.1407892, 0.029398212, 0.14848511, -0.147631, -0.087594874, -0.13728432, 0.22066939, 0.0630105, -0.3996209, -0.14254582, -0.057566047, -0.032066595, -0.18203706, 0.012736942, -0.14897281, -0.16570239, 0.0133126145, 0.08994918, -0.19054271, 0.049748015, 0.048680745, 0.030452605, -0.060677074, 0.07568603, -0.02324987, -0.20154573, -0.14212266, -0.09594515, 0.033041578, -0.067488655, 0.03867057, 0.04484545, -0.1585851, -0.15726711, -0.08616896, -0.03281068, 0.081243634, 0.16992892, -0.19986069, 0.05161824, 0.061413147, -0.24681072, -0.07022285, -0.024446273, -0.08423676, -0.04618738, 0.029587712, 0.019323569, -0.052947342, 0.1360219, -0.16944876, 0.01417091, -0.20944989, 0.1405948, 0.17807288, -0.024299072, -0.18944986, 0.086148195, -0.22611874, 0.14932916, -0.089497946, 0.076559864, -0.108503446, -0.2262607, 0.25212198, 0.101587996, -0.0010200988, -0.13918197, -0.30142322, -0.18108168, 0.23649034, 0.042774267, -0.27900913, -0.1505519, -0.19402732, -0.16102831, -0.15773165, -0.18534385, -0.041357625, -0.0622962, -0.065639086, -0.06743117, -0.047312047, 0.005760038, 0.15498796, -0.008257865, -0.042733643, -0.01797889, 0.07654462, -0.17382754, -0.16207398, -0.13640179, 0.051160682, -0.1156572, -0.12640718, 0.059842657, -0.110337846, -0.0931586, -0.15749034, -0.06145973, 0.061723564, 0.040412012, -0.15632413, 0.019983811, 0.14556219, -0.10764133, -0.13111143, -0.15206179, -0.07267577, 0.11917675, 0.07372132, 0.1350744, -0.12003743, -0.020443544, -0.18517104, 0.056413006, -0.0075823436, 0.008320639, -0.07604898, 0.014564321, -0.07713493, 0.14432904, -0.1985703, 0.14266314, -0.010071377, 0.04756999, -0.10443591, -0.21935272, 0.11710869, 0.04784005, 0.15525734, -0.115548536, -0.24316506, -0.09735137, 0.2682579, 0.075345725, -0.2168148, -0.119668454, -0.16966195, -0.08252969, -0.21721663, 0.020582575, 0.0040537496, -0.35648966, 0.123032615, 0.06533863, -0.038298547, 0.09218796, 0.12891062, 0.09318712, -0.08988389, 0.037199974, -0.0259632, -0.11218193, 0.01421788, 0.055640083, -0.0041008503, -0.16302764, -0.15848166, 0.08834379, -0.030124372, -0.027244315, -0.05463126, -0.09018302, -0.09672057, 0.07167903, -0.21265814, 0.12667522, 0.1336264, -0.24769038, -0.08486427, -0.18492688, -0.12777948, -0.008561223, -0.019749425, 0.07648577, -0.10750126, 0.13735557, -0.21835908, -0.030100595, -0.10619926, -0.040765606, 0.07463692, -0.13391812, -0.057705317, 0.1870932, -0.09425344, 0.23260055, -0.13306993, 0.105832234, -0.056578897, -0.23903821, 0.24565877, 0.104286395, 0.09061123, -0.17356476, -0.16428551, -0.11901258, 0.1843072, 0.09712444, -0.17422882, -0.07974485, -0.26226288, -0.090327434, -0.10436514, 0.16841084, -0.10971922, -0.037083007, -0.05409623, 0.14221013, -0.10172301, -0.022168318, 0.14442633, 0.019172892, -0.10210782, -0.15404198, 0.023818627, -0.14179632, -0.13560598, 0.04087198, 0.061588924, -0.08522048, -0.098238535, 0.08322037, -0.00985491, 0.023920069, -0.10815705, -0.08287218, -0.022374745, -0.10482559, -0.095672235, 0.0578461, 0.1675227, 0.041041676, -0.04055045, -0.1318508, -0.09569093, 0.0711831, 0.07823564, 0.0039079715, -0.11087598, 0.07695873, -0.19024445, -0.058618058, 0.06684964, 0.03893084, 0.0966454, -0.109967016, -0.06655622, 0.1932953, -0.24142575, 0.11692397, 0.0014778005, 0.07817506, -0.07187027, -0.2347711, 0.12163651, 0.07646016, 0.27575165, -0.08763389, -0.16916563, -0.08384297, 0.17821102, 0.04872603, -0.5085567, 0.024689842, -0.13083617, -0.20444892, -0.10091999, 0.08045467, -0.11749858, 0.0700066, -0.0044407505, 0.08026004, -0.13315901, 0.14471857, 0.13910249, 0.01144286, -0.03315701, 0.11271917, -0.055530157, -0.1809084, 0.05777212, 0.057576332, 0.04048676, -0.1390454, -0.117883004, 0.13150066, -0.003097314, -0.2037055, -0.04434728, -0.032502852, -0.11174943, 0.16608559, -0.11990268, 0.06104677, 0.10077507, -0.18791427, -0.2424337, -0.09381742, -0.22952813, 0.049656596, -0.07603433, 0.010592037, -0.036175657, 0.077742815, -0.2078373, -0.24532647, 0.00024318113, -0.009742683, 0.03257939, -0.035256565, -0.04485006, 0.07131784, -0.1031654, 0.12816088, -0.09064798, 0.04528877, -0.19226265, -0.2236783, 0.06437553, 0.037403222, 0.10402626, -0.14599718, -0.13424186, -0.18353768, 0.184805, 0.08650845, -0.21426032, -0.17135778, -0.35236716, -0.10328366, -0.08385562, -0.021459248, -0.20340782, 0.16339017, -0.0057703583, 0.18490046, -0.10281105, -0.04216191, 0.11031677, 0.10062559, -0.0332905, -0.06288338, -0.20195821, -0.2948277, 0.0058593005, -0.2784134, 0.020787895, -0.30422518, -0.11018412, -0.1642973, 0.04251196, 0.09499987, -0.078376606, -0.045954008, -0.14547224, 0.38387552, -0.17789707, 0.0066965767, -0.07703817, 0.21027133, -0.20440678, -0.37141216, -0.12800707, 0.25016648, -0.20328733, -0.018255938, -0.40863207, -0.12078458, -0.17564626, 0.14758931, 0.059719507, 0.17261459, 0.29303175, -0.061845373, 0.10358118, 0.43205985, -0.3345379, 0.29131454, -0.11903904, 0.034278467, 0.10055351, -0.20633395, 0.06103477, 0.05485879, 0.051914066, -0.07580572, -0.2622858, -0.15225896, 0.13539939, 0.12057234, -0.41330895, 0.090734705, -0.037439175, -0.21725273, -0.19746725, 0.27276433, -0.0997919, 0.065367036, 0.20874228, -0.079893745, -0.33711547, 0.14235012, 0.15215011, 0.15274478, -0.059079655, 0.13100125, -0.02357653, -0.19529508, 0.18881266, -0.08806077, 0.043160334, -0.16184537, -0.26752713, 0.2088257, 0.041352108, -0.16528471, -0.21665615, -0.0340899, 0.13719863, 0.10680431, -0.07918961, 0.051326968, 0.16199279, -0.27794066, -0.40354013, -0.106862165, -0.053666666, 0.051519603, 0.14155345, 0.18199326, -0.22338791, -0.099999756, -0.095217355, 0.13015072, -0.20630579, 0.20543058, 0.03103762, -0.012492039, -0.2572132, 0.14930026, -0.025101935, 0.004144092, -0.250601, 0.07463274, -0.1966261, -0.19483106, 0.114592336, 0.10029553, 0.043794543, -0.27829129, -0.1068366, -0.017499952, 0.13185665, 0.06737241, -0.2598288, -0.032555114, -0.37868392, -0.046891704, -0.20386082, -0.21405551, -0.26475996, -0.06812562, 0.072364315, -0.1960859, -0.09564694, 0.28826678, 0.08625191, 0.2588228, -0.034488704, 0.27224967, -0.029398216, -0.17634068, -0.009640412, -0.11848327, 0.007323693, -0.08445582, -0.07892777, 0.13284738, -0.25677666, -0.08424077, -0.22964585, 0.038487285, -0.22490269, -0.10593128, -0.050075304, 0.024488972, 0.02292129, -0.21147284, -0.089271925, -0.14411438, -0.13537262, 0.113547966, 0.07812932, 0.042536356, -0.33004233, 0.026321912, -0.16541411, -0.021236045, 0.0013994911, -0.021277454, 0.026918141, -0.034982003, -0.12729886, 0.13421348, -0.3967686, 0.11530323, 0.026737655, 0.027870314, -0.069660984, -0.22726162, 0.11846061, 0.032721084, 0.096804485, -0.06618296, -0.11323602, -0.12379629, 0.1486304, -0.0058522467, -0.16050339, -0.01418503, -0.08022836, -0.0082517825, -0.20034334, 0.029906632, -0.01286635, -0.23818232, 0.11798319, 0.027976202, -0.18782364, -0.042910382, 0.067723125, 0.16713652, -0.060243867, -0.16887742, -0.04061495, -0.12355838, -0.020190008, -0.08607066, 0.08660769, -0.078729086, 0.0042311926, 0.1134456, -0.20266974, 0.031550035, -0.07411759, -0.029299447, 0.10955986, 0.03692576, -0.091742806, 0.053271957, 0.12612075, -0.22636376, -0.23702884, -0.112385236, 0.0061294236, -0.041774683, 0.11098407, -0.0064697843, -0.103388496, 0.08813571, -0.20364209, 3.8034865e-05, -0.028217927, 0.038876254, 0.07389592, -0.07222022, -0.12193839, 0.15956251, -0.0174268, 0.23893552, -0.029784398, 0.058811054, 0.019675527, -0.23856594, 0.054970663, 0.06330258, 0.20122936, -0.08041629, -0.15430987, -0.13153192, 0.17058514, 0.040859193, -0.16244258, -0.08711268, -0.17946057, -0.10344407, -0.09232709, -0.112357646, -0.028919043, 0.09921742, 0.035645705, 0.078253165, -0.12638801, 0.26007003, 0.047831416, 0.12049533, -0.101274386, 0.072397545, -0.032236725, -0.13280585, -0.04420544, 0.015056206, -0.007698946, -0.15061754, -0.07477339, 0.09663461, -0.12512533, -0.09744646, -0.1511856, -0.09440883, -0.034464486, 0.04970611, 0.0602903, 0.059463266, 0.07629988, -0.17969108, -0.10832976, -0.12067059, -0.058676176, 0.10386967, 0.13224567, 0.01952321, -0.15968564, 0.09766751, -0.19861485, -0.078345776, 0.09514757, 0.03181457, 0.16425426, -0.19162735, -0.14949533, 0.0038136179, -0.2631531, 0.029450336, -0.08700753, 0.053121276, -0.020955317, -0.26834834, 0.16540514, 0.060937583, 0.15954879, -0.16162646, -0.17841539, -0.120595776, 0.15052392, 0.041700527, -0.2742645, -0.066522636, -0.13180782, -0.17747691, -0.09136112, -0.018605074, -0.1334414, -0.050864507, 0.019558333, 0.10985686, -0.20273843, -0.07916508, 0.11146236, 0.025176972, -0.052870862, -0.13852748, -0.044812173, -0.12350591, -0.064114355, -0.07064523, 0.055212133, -0.09322747, -0.09239089, 0.073377505, 0.023211943, -0.14779192, -0.08010056, -0.03875271, -0.005679755, 0.21569157, -0.15806831, 0.06480184, 0.13467334, -0.12098648, -0.12506902, -0.12674274, -0.08968373, 0.040437285, 0.12070861, 0.08231877, -0.070841625, 0.08728519, -0.2308805, -0.04970705, -0.02232481, 0.2013237, 0.044520967, -0.11734922, -0.09983195, 0.06484914, 0.0056127263, 0.09606908, -0.14185733, 0.069161914, -0.015796209, -0.26033717, 0.17430349, 0.0738692, 0.13172579, -0.08691289, -0.12258587, -0.15851764, 0.14352752, 0.043366786, -0.3061499, -0.1112062, -0.26194546, -0.18053052, -0.05442342, -0.17881511, -0.1101783, 0.09101074, 0.026143944, 0.021244291, -0.12542883, 0.13997793, 0.13510089, -0.10983539, -0.11761084, 0.13528548, -0.0053356937, -0.16718109, -0.0679561, -0.06965856, 0.07035862, -0.23409405, -0.09231595, 0.06297046, 0.007334035, -0.045783885, -0.0912215, -0.1009631, -0.13608982, 0.13633111, 0.06643637, 0.048908494, 0.1202622, -0.09587675, -0.024031587, -0.09195018, -0.116049685, 0.06358542, 0.1887764, 0.017237185, -0.1130787, 0.10764998, -0.23302758, -0.07739539, -0.0064211073, -0.077533536, 0.11339992, -0.022725614, -0.05460022, -0.0019438152, -0.17537844, 0.11489736, -0.12578079, 0.09733983, -0.11798042, -0.25042468, 0.20953442, 0.09670483, 0.11079496, -0.13947871, -0.1655318, -0.0839633, 0.13505606, -0.008794055, -0.26089293, -0.20463283, -0.2601548, -0.17646824, -0.1426921, 0.15298644, -0.044462092, -0.20446967, 0.06945195, 0.04850455, -0.075584434, -0.017826747, 0.055666257, -0.060204502, -0.04996451, -0.04568211, -0.012057962, -0.12670325, -0.33588228, 0.07105134, -0.03019799, -0.13609491, -0.063223496, 0.012963032, 0.12826103, 0.0011627725, -0.031135757, -0.05829592, -0.081232026, -0.03925582, -0.27155817, 0.12361348, 0.021415653, -0.1480231, 0.12331358, -0.19575554, -0.13750674, 0.048524883, -0.016394522, -0.013846428, -0.14296657, 0.13531087, -0.18190333, -0.023919668, 0.046489537, 0.14261056, -0.03177397, -0.060686316, -0.039201234, 0.061949305, 0.23179089, 0.18292864, -0.018026292, 0.08611954, -0.1676169, -0.23688717, 0.16247535, 0.085591726, 0.16729476, -0.08773167, -0.10775901, -0.13122518, 0.21493915, 0.17316961, -0.2423264, -0.113575794, -0.31900203, -0.2891086, 0.007036134, 0.07227073, -0.04822151, -0.073716275, 0.04417839, 0.08871163, -0.10514239, 0.123050906, -0.02420746, 0.12811615, -0.09847928, 0.0004907226, 0.042424098, -0.21821576, 0.051578157, 0.0012332909, 0.03746593, -0.13416201, -0.10184926, -0.06760887, 0.06418061, -0.16068806, -0.11194004, -0.04112526, -0.049114395, 0.092719495, -0.16696446, 0.010540464, 0.13894096, -0.11692989, -0.14667289, -0.14324515, -0.06588151, 0.0922248, 0.091846205, -0.02219516, -0.16715406, 0.09200418, -0.20431241, -0.3005262, -0.014367046, 0.1833882, 0.15998305, -0.09038245, 0.10351253, 0.08899507, -0.09974051, 0.025510289, -0.112888515, 0.043746743, -0.16912751, -0.21192043, 0.140843, 0.06374763, 0.12913121, -0.21195784, -0.1036264, -0.1235236, 0.07360795, 0.15454169, -0.28686944, -0.050803363, -0.1265535, -0.22590543, 0.029389663, 0.13702315, -0.18925716, 0.16686198, 0.1505886, -0.07813065, -0.102278076, 0.012460814, 0.07001389, 0.2014099, 0.002573315, -0.0112002455, -0.06214221, -0.20927583, 0.059480246, -0.07557904, 0.014935559, -0.04172949, 0.030057168, -0.04865842, -0.085526735, -0.057087537, -0.19214866, 0.040877234, -0.14362447, -0.036887955, -0.09896427, -0.021646613, 0.051332638, -0.17183076, -0.0086487755, -0.14260644, -0.035334118, 0.13541932, 0.08188843, 0.07856554, -0.15975845, -0.01241388, -0.11188007, -0.021207757, 0.11782352, 0.0024854543, 0.05256585, -0.18624103, -0.15440673, 0.22568363, -0.1539774, -0.022996936, -0.033360187, -0.026284605, -0.0390784, -0.22377281, 0.06448314, -0.020106213, 0.15032707, -0.103056446, -0.16660246, -0.10992067, 0.22579186, -0.00086026586, -0.09201171, -0.09588562, 0.06842126, 0.02183614, -0.15245506, -0.0021084873, -0.18826544, -0.15688764, 0.078384586, 0.15382616, -0.23373677, 0.10519988, 0.12072211, -0.011404236, -0.04417769, 0.064121775, -0.05916717, -0.14180557, -0.117388375, 0.035417896, 0.08932576, -0.107391216, 0.027176054, 0.055575773, -0.15744667, -0.12545791, -0.10698692, -0.050998878, -0.0792561, 0.1753821, -0.007718181, 0.085459314, -0.0041790763, -0.11613998, -0.28079876, -0.16920374, 0.011122092, 0.018912347, 0.21215053, 0.016169317, -0.11557777, 0.12751648, -0.18215661, -0.078609295, 0.015450783, 0.021048566, 0.057227872, -0.13373324, -0.059440482, 0.02478292, -0.02125262, -0.0025834686, -0.14375728, 0.0453972, -0.039332118, -0.21574047, 0.198597, 0.04422289, 0.042573284, -0.1271844, -0.13415666, -0.21816297, 0.16304272, 0.09001152, -0.17084149, -0.10931951, -0.08903931, -0.055599533, -0.09082723, -0.102767095, 0.004091686, -0.32056263, 0.105049886, -0.010426602, -0.105168134, 0.042024285, 0.027885692, 0.022641541, -0.082616165, 0.023383072, 0.09066123, -0.13300855, -0.0649953, -0.14267254, 0.09141632, -0.060993955, -0.009713532, 0.083075024, -0.090800375, -0.22311573, -0.19150962, -0.090044275, -0.01593486, 0.12667781, -0.21023916, 0.071464896, 0.15513743, -0.13365556, 0.073931515, -0.07847271, -0.1091622, 0.16568266, 0.16682272, 0.08285686, -0.14392985, -0.033925347, -0.19941604, -0.09272798, 0.023182757, 0.10179424, 0.021374963, -0.08983806, -0.12817119, 0.09635251, -0.20406213, 0.061512727, -0.15200785, 0.10516897, 0.09442173, -0.25618637, 0.14010082, 0.102685295, 0.019734984, -0.113597944, -0.16450696, -0.062196914, 0.15585871, 0.11664503, -0.27915457, -0.07519019, -0.16823775, -0.099319525, -0.13129784, 0.024047187, -0.07553527, -0.044537667, 0.10529768, 0.103247955, -0.18160471, 0.17298551, 0.097713344, 0.14078164, -0.119706, 0.0315683, -0.09754978, -0.08573789, -0.023830129, 0.068760164, 0.09087014, -0.083286054, -0.09289628, 0.061822966, -0.05655929, -0.14743833, -0.11617344, -0.120379664, -0.0927359, 0.16621941, -0.20093916, 0.09699989, 0.02047446, -0.26351035, -0.030795718, -0.090121016, -0.07504779, -0.030326324, 0.17306346, 0.12653616, -0.10967854, 0.14720522, -0.2055914, -0.061643336, -0.12505104, 0.14368676, 0.13058968, -0.10637833, -0.15137273, -0.100628234, -0.029361757, 0.09870276, -0.044908267, 0.110976554, -0.06516677, -0.25357515, 0.20501474, 0.09926861, 0.19223997, -0.12115264, -0.16486612, -0.08891261, 0.10372803, 0.08030351, -0.14647703, -0.09995029, -0.17814212, -0.1568791, -0.010677548, -0.14896168, -0.13753876, -0.037426133, 0.09493069, -0.012901069, -0.030837119, -0.12679917, 0.0104278885, 0.16313756, -0.08034547, 0.048112195, 0.11112264, -0.073775746, -0.11463035, -0.047865402, 0.06938876, -0.1312843, -0.080414884, 0.052808072, 0.0017316494, -0.10748729, -0.10736012, -0.07288634, 0.04909024, 0.07239818, -0.026011404, 0.070967674, 0.13509761, -0.12590769, 0.03984079, -0.08217517, -0.020808822, 0.12411549, 0.19216119, -0.041993633, -0.16528639, 0.036518354, -0.21886812, -0.034830537, -0.085362636, 0.0020246084, 0.10746438, -0.030939203, -0.069282, 0.15521494, -0.14052583, 0.19253364, -0.04950641, 0.086548746, -0.04496262, -0.27161372, 0.10499523, 0.07275015, 0.20761782, -0.03540509, -0.16428882, -0.08607962, 0.18198876, 0.18034722, -0.25631842, -0.050611358, -0.28807703, -0.111123584, -0.10978084, -0.15226494, -0.21818805, -0.00065586023, 0.09911749, 0.15256712, -0.18704611, 0.18844648, 0.0772369, 0.08115335, -0.05764338, 0.009859752, -0.03878791, -0.13098417, 0.015022137, -0.08261152, -0.017894544, -0.13025598, -0.15080613, 0.05926876, -0.0433374, -0.19997218, -0.06295908, -0.07852659, -0.16411613, 0.11313039, -0.065564364, 0.025459921, 0.1823121, -0.18288246, -0.18294431, -0.111262605, -0.10100463, 0.011623723, 0.11508328, 0.057336185, -0.1204349, 0.1452991, -0.26343647, -0.061988115, -0.02036871, 0.014935573, 0.13965072, -0.13588604, -0.113494694, -0.024409827, 0.017558437, 0.11242063, -0.09210172, 0.049751088, -0.07693886, -0.2558192, 0.12010342, 0.053737994, 0.13658163, -0.15484737, -0.12121492, -0.17500505, 0.152983, 0.05060301, -0.14210989, -0.12605706, -0.22136547, -0.16070712, -0.058106396, -0.02144928, -0.1373236, -0.056068037, 0.103757635, 0.05354469, -0.043704282, -0.08458207, 0.12473597, -0.03805979, -0.092535384, -0.14676526, 0.056046847, -0.11366369, -0.07825346, -0.114392035, 0.15482785, -0.10978388, -0.11539437, 0.005008012, 0.054718435, 0.08434938, -0.10028077, -0.08160993, -0.02768739, -0.02377555, -0.10422236, 0.11649688, 0.06719325, -0.07792687, 0.076610066, -0.15210718, -0.038698487, 0.15878397, 0.15371664, 0.08760774, -0.12712573, 0.15288785, -0.23826155, -0.033895146, 0.10273479, 0.13512932, 0.12872724, -0.18703395, 0.014505846, 0.24142194, -0.27394843, 0.10186965, -0.14162906, 0.10795767, -0.022160942, -0.26823324, 0.12021722, 0.12812966, 0.16336547, -0.050167535, -0.0494695, -0.11979964, 0.16475162, 0.089111395, -0.38066337, -0.043449666, -0.29030457, -0.057239793, -0.119130656, -0.13243736, -0.18220481, -0.37963715, 0.21089329, 0.014480777, -0.17021324, 0.21496303, 0.18049274, -0.08032708, -0.06484467, 0.16426338, -0.19334427, -0.14233497, -0.10328353, -0.042300712, 0.08845715, -0.06544519, -0.16273463, 0.09168245, 0.030929578, -0.093407065, -0.05149152, -0.027131533, -0.14294146, 0.2042201, -0.11647155, 0.047902957, 0.10329854, -0.10210888, -0.018977892, -0.2063953, -0.25981918, 0.11554007, 0.1053958, 0.14867264, 0.034291662, 0.055942547, -0.2471847, -0.061537266, -0.07405171, -0.009352614, 0.06970708, -0.050632413, 0.08152943, -0.021404762, 0.32898223, 0.19554073, -0.15648203, 0.048135847, -0.0030385854, -0.22624172, 0.069867514, 0.051005535, 0.021193368, -0.12495722, -0.08449856, -0.10822781, 0.12878348, -0.011748889, -0.16884659, -0.28817314, -0.2865063, -0.32457322, -0.08190177, 0.13233314, -0.012966025, -0.22201592, 0.078097194, 0.11751263, 0.09786442, -0.080869436, 0.066112384, 0.101950735, -0.04615345, 0.20567562, 0.03421294, -0.16068344, -0.05702413, -0.08091832, 0.07681137, -0.051763713, -0.0054517714, 0.15627922, -0.19338624, -0.24164303, -0.12828785, -0.07015478, -0.13538162, 0.10729213, -0.09063522, 0.079633415, -0.00695108, -0.29531068, 0.0660146, -0.2127386, -0.016354423, 0.06912569, 0.09415734, 0.11385428, -0.21303472, 0.024654614, -0.15290979, -0.0033262542, 0.1044776, -0.14105178, -0.026404418, -0.12491341, -0.13978979, -0.027478753, -0.083010845, -0.20195849, -0.10014757, 0.0772631, 0.09420445, -0.21775977, 0.17352916, 0.082120374, 0.096995026, -0.14536972, -0.11858586, -0.10447321, 0.12695642, 0.021247411, -0.21806845, -0.13992594, -0.1564604, -0.111610904, -0.24126327, 0.10270496, 0.07660231, -0.29610673, 0.11637533, 0.124742605, -0.17806612, 0.099155635, 0.07496884, 0.036213964, -0.0854573, -0.17036723, -0.021607827, -0.07109423, -0.15520617, -0.020720039, 0.028986674, -0.0908739, -0.018281937, 0.1123879, -0.008916818, -0.04632154, -0.07663911, -0.0549416, -0.023343898, 0.11158502, -0.15809023, 0.05644773, 0.14220858, -0.31386694, -0.14540163, -0.07090609, -0.06374183, -0.0792253, 0.18928878, -0.14913927, -0.2577497, -0.014282137, -0.206365, -0.016968893, -0.1262215, 0.08474793, 0.0041683847, -0.15436928, -0.15159898, 0.094243646, -0.033885773, 0.1476256, -0.18173338, 0.07409707, 0.049078383, -0.22027488, 0.21233542, 0.073231295, 0.016864989, -0.22158188, -0.14316404, -0.20679015, 0.09822327, 0.17479797, -0.19769943, -0.16357245, -0.15824398, -0.17752704, -0.065027535, -0.08959497, -0.10412401, 0.054481022, 0.14480539, -0.06411464, 0.0065355077, 0.09273817, 0.07780448, 0.1650743, -0.054419834, 0.15233944, -0.081984095, -0.09521944, 0.008634609, -0.14073269, 0.029894212, -0.17721424, 0.011289949, 0.13698342, -0.08175076, -0.082701586, -0.14234124, -0.04920158, -0.06419351, 0.086010784, 0.012221768, 0.11057045, -0.019497385, -0.21085596, -0.27690002, -0.16572413, 0.054541565, 0.06872894, 0.11822656, 0.03568876, -0.1745435, 0.0055780746, -0.22092281, -0.1353997, 0.058599554, 0.16683803, 0.1378944, -0.11179278, -0.15983035, 0.05940511, -0.11777545, 0.005318662, -0.10367786, 0.08193208, -0.04053649, -0.26294905, 0.17161183, 0.07756255, 0.048579223, -0.084559746, -0.18486822, -0.13374345, 0.12679552, 0.015456456, -0.12712012, -0.091170214, -0.22283852, -0.07611372, -0.18028025, -0.07549917, -0.24920546, -0.17918569, 0.21211548, 0.025832482, -0.1621804, 0.08604352, 0.11193255, -0.036809955, -0.07118362, 0.08966436, -0.11858325, -0.07316417, -0.11923407, -0.15201627, 0.043411534, -0.04396527, -0.019845352, 0.12763177, -0.028964091, -0.1921524, -0.12139923, -0.05425544, -0.08185772, 0.07469442, -0.15487319, 0.1408011, 0.103616744, -0.19586314, -0.07957387, -0.119207926, -0.018780755, -0.15570463, 0.1998424, 0.1356707, -0.12432458, 0.023087902, -0.24698184, 0.020204756, -0.021862824, 0.006303133, 0.0052412, -0.19130428, -0.1283023, 0.15486826, -0.06363137, 0.17799735, -0.103989646, 0.11428657, 0.058903262, -0.26918367, 0.13334748, 0.108348355, 0.13336806, -0.050321456, -0.124403, -0.2026827, 0.117760845, 0.048879605, -0.2732945, -0.1283113, -0.17117284, 0.010352314, -0.08341381, -0.11542396, -0.13207994, 0.0033314244, 0.16270694, 0.13225897, -0.08686944, 0.05504126, 0.10913746, -0.028748283, -0.06327708, 0.013581647, -0.09605837, -0.13948068, -0.08057073, -0.037138604, 0.03550873, -0.1687679, -0.01165468, 0.14826082, -0.09072903, -0.09340095, -0.1762135, -0.06480163, -0.0406379, 0.060686763, 0.010832836, 0.0048374855, 0.1672295, -0.13177608, -0.10951156, -0.15634874, -0.007399245, 0.19080642, 0.22253947, -0.0053065787, -0.12088017, 0.032774605, -0.28039134, -0.07366742, -0.00011623987, -0.026837744, 0.15327342, -0.15084958, -0.051053647, -0.06636916, -0.1789484, 0.057645574, -0.008068723, 0.08910092, -0.082828075, -0.2838436, 0.15547615, 0.08250336, 0.15238403, -0.098636, -0.18814842, -0.050994147, 0.035127196, 0.011735141, -0.19211276, -0.13666946, -0.29942995, -0.18711154, -0.08226365, -0.17618775, -0.11067758, -0.08468475, 0.2060812, -0.02092184, -0.15508854, 0.082041726, 0.058772054, 0.002373132, -0.050188567, 0.013824358, -0.085855, -0.115169644, -0.3209883, 0.050419476, 0.10232964, -0.044930767, -0.15812637, 0.12851286, 0.04470434, -0.17675681, -0.08647328, -0.044686273, -0.021534882, 0.16346048, -0.28992775, 0.14940588, 0.086533666, -0.17912593, 0.21951634, -0.13134426, -0.051605567, -0.012933618, 0.2087998, 0.15774462, -0.14185765, 0.11548939, -0.24304563, -0.09598242, -0.02276143, 0.21108128, -0.05200228, -0.17691739, -0.16860713, 0.06894552, 0.15664193, 0.10289162, -0.089932024, 0.113664545, 0.029750912, -0.272092, 0.080050334, 0.10404382, 0.03789857, -0.12569594, -0.07000708, -0.07144949, 0.14723575, 0.15648796, -0.20135608, -0.15917811, -0.26494464, -0.09694103, -0.036020387, -0.1582709, -0.092165925, -0.07873672, 0.12683252, 0.12344951, -0.10703677, 0.02441294, 0.041282807, 0.20334196, -0.06546473, 0.0039520157, 0.16034639, -0.12590347, -0.0688018, -0.03113526, 0.083425075, -0.095278226, -0.07210895, 0.075728565, -0.13624683, -0.13586818, -0.12519167, -0.076869644, -0.23893918, -0.064365245, 0.020598948, 0.06877734, 0.13937736, -0.15980405, -0.14539154, -0.05027081, 0.00755082, 0.076079756, 0.23216733, -0.05715485, -0.23606908, 0.06773842, -0.24118607, 0.033563167, -0.16829805, 0.09838773, 0.034573443, -0.08461698, -0.065235406, -0.001021819, -0.029748084, 0.20050554, -0.053883567, 0.104915544, -0.10190106, -0.2590921, 0.057298943, 0.09449563, 0.05416896, -0.21451709, -0.054769624, -0.06936878, 0.07004478, -0.0673269, -0.18603472, -0.0028567887, -0.2747728, -0.39354402, -0.029084543, 0.012525005, -0.020999616, 0.0017193911, 0.18514574, 0.051485643, -0.114639655, 0.07050407, 0.06608827, 0.009235657, -0.057387855, -0.0038486717, -0.072256304, -0.15774873, -0.17619556, -0.2298044, 0.005552592, -0.2779717, -0.1446539, 0.06924442, 0.11995516, -0.10807142, 0.008395028, -0.078994736, -0.108233094, 0.0037102494, -0.15574926, 0.12468002, 0.05391125, -0.23465581, -0.016214807, -0.1431201, -0.06421917, 0.069505684, 0.07258748, 0.017040726, -0.08745062, 0.09549179, -0.22419266, 0.006943366, 0.10842411, 0.045310706, -0.009574001, -0.15663528, 0.033896863, 0.21862285, 0.17013311, 0.20050818, -0.0346083, 0.086485274, -0.22017011, -0.27422285, 0.12670094, 0.08052038, 0.13018239, -0.2066664, -0.0657355, -0.19409598, 0.1260513, 0.04956474, -0.09695517, -0.15604326, -0.2522093, -0.17329748, -0.06732755, -0.17381933, -0.07186762, 0.064469576, 0.12894154, 0.22418919, -0.111364484, -0.029667951, -0.0024137269, 0.21481864, -0.13477632, 0.017122468, -0.057936907, -0.111706935, -0.022557635, -0.16449244, 0.11879399, -0.26437628, -0.023724224, 0.03074311, -0.104389176, -0.19731858, -0.2473671, -0.11316765, 0.01382284, 0.028907802, 0.06666463, 0.11186596, -0.08426159, -0.08617587, -0.22909644, -0.2173757, 0.06614533, 0.07004944, 0.15064234, 0.11337205, -0.17678714, -0.034700517, -0.17884071, -0.028246602, 0.22589944, 0.16305193, -0.0006977788, -0.2112831, -0.07581989, 0.20615703, 0.01797868, -0.22020847, -0.10563721, 0.13843441, 0.0027679426, -0.20948367, 0.10628577, 0.13855796, 0.18784231, -0.030042807, -0.10040128, -0.2714366, 0.15830398, 0.027592467, -0.17005381, -0.13624898, -0.015418531, -0.043607127, -0.17031866, -0.28831017, -0.35857296, -0.03272511, 0.090081416, 0.103313334, -0.05078438, -0.028529763, 0.0902219, -0.08534003, -0.06612438, -0.11261478, -0.14413387, -0.1387086, -0.02426437, -0.105513126, 0.1204528, -0.11233945, 0.008470379, 0.07114361, -0.17136511, -0.07024613, -0.25780916, -0.12034525, 0.04392121, 0.14582124, -0.19360237, 0.05356736, 0.16153549, -0.14919513, -0.083821446, -0.17630625, -0.037548862, 0.009023091, 0.2462979, 0.09285027, -0.27656117, -0.10195633, -0.1818804, -0.043248363, 0.05663643, 0.01201299, 0.035447203, -0.18015398, -0.16078344, 0.15941986, -0.09216553, 0.06889018, -0.09101105, 0.08800067, 0.097856365, -0.2547352, 0.07182198, 0.08673818, 0.13075653, -0.11729596, -0.1533233, -0.11510367, 0.10726109, -0.034427326, -0.11800236, -0.06987467, -0.19071165, -0.09297528, -0.19950478, -0.026156716, -0.088400885, 0.30797628, 0.10301699, 0.05153055, -0.19635212, 0.20803703, 0.10055523, -0.014836662, -0.09186486, 0.10514102, -0.13017905, -0.11810275, -0.24396136, -0.075471655, 0.12570712, -0.08006776, -0.022075856, 0.14289817, -0.16968508, -0.18130164, -0.12821229, -0.106926635, -0.08275211, -0.0057407655, 0.030039221, 0.111758746, 0.026444675, -0.18040375, -0.1017302, -0.1449218, 0.0042433958, 0.076502934, 0.24457996, 0.03567995, -0.18064375, 0.052435815, -0.20895168, -0.12048173, 0.02819762, -0.039970856, -0.01957272, -0.16975486, -0.13439631, 0.016751036, -0.017966455, 0.02833161, -0.08185364, 0.13075148, 0.016055088, -0.27449012, 0.22223003, 0.12568377, 0.07116861, -0.08792242, -0.040720165, -0.10230346, 0.08171765, 0.06523589, -0.16567428, -0.123734996, -0.21652305, -0.13647757, -0.16904579, 0.06179409, -0.029204732, -0.08628752, 0.11811043, -0.05824338, -0.15998462, -0.049018517, 0.010862855, 0.0066590123, -0.10660822, 0.053147625, -0.083435, -0.12481991, -0.11664651, -0.19120249, 0.13612497, -0.10560879, 0.03346521, 0.11265684, -0.034508806, -0.18434046, -0.14485434, -0.11276618, 0.00077553216, 0.09097555, -0.2064524, 0.20589742, 0.072563276, -0.16945833, 0.04587607, -0.11954456, -0.04419654, 0.029155428, 0.23420198, 0.055323333, -0.30097663, -0.07972763, -0.23920812, -0.14169991, -0.13447963, 0.17235757, 0.029449249, -0.035714507, -0.11115073, 0.11891602, 0.028636342, 0.17531484, -0.03994466, 0.18214034, -0.08275426, -0.25782716, 0.20080234, 0.16983494, -0.018270517, -0.077288106, -0.19937474, -0.110700816, 0.079701535, 0.1655057, -0.17724271, -0.14626144, -0.2560118, -0.07094549, -0.13297784, -0.080514, -0.119356446, 0.068118945, 0.14742698, 0.09450143, -0.0071874433, 0.15624219, 0.054599725, 0.24341838, -0.07407558, 0.03655001, -0.11123037, -0.08502077, -0.036790002, -0.12046279, 0.096369565, -0.1759719, -0.06816357, 0.15507255, -0.013598046, -0.15146454, -0.12073284, -0.10346372, -0.15471706, 0.08043104, -0.1778029, 0.11014408, 0.12360157, -0.23152387, -0.20482787, -0.104703754, 0.026856737, 0.06777606, 0.25116736, 0.053357482, -0.13997158, 0.08142745, -0.2603092, -0.12012163, -0.019006465, 0.21483159, 0.048793916, -0.16989788, -0.12870185, 0.038456913, 0.03752501, 0.04180131, -0.11819233, 0.11898928, -0.091606885, -0.28166968, 0.12053262, 0.13085647, 0.1092989, -0.18717788, -0.032498028, -0.13589944, 0.06863583, -0.0019415244, -0.21051419, -0.13669045, -0.30523795, -0.14345951, -0.17283843, -0.08913017, -0.24552335, -0.1877008, 0.16787775, 0.015721628, -0.037766315, -0.13476303, 0.09068365, 0.060142115, -0.09938381, 0.030251317, -0.08254354, -0.11803549, -0.04522771, -0.10485766, 0.060670447, -0.13041839, -0.053286504, 0.18065368, 0.05879722, -0.0714452, -0.058668833, -0.101785436, -0.066798694, -0.042336978, -0.119965605, 0.14893831, 0.16915083, -0.06258074, -0.054575767, -0.15939292, -0.09012433, -0.06572083, 0.20506771, 0.084525935, -0.21790569, 0.020760426, -0.25768992, 0.03193629, -0.025127396, 0.103572406, 0.031405047, -0.14291655, -0.03768018, 0.15975939, -0.11527702, 0.3708025, 0.02068544, 0.14722306, -0.07693566, -0.26246238, 0.16445121, 0.1515047, 0.05538627, -0.13629599, -0.1677151, -0.16365758, 0.029628597, 0.046988823, -0.14400193, -0.05075654, -0.2810871, -0.32992512, -0.12588659, -0.15357701, -0.13981405, 0.08597104, 0.23257327, 0.08905969, -0.1130984, 0.20516811, 0.10054281, 0.029637821, -0.052569456, -0.033404853, -0.19151331, -0.14887515, -0.080570996, -0.06281182, 0.07666877, -0.19152623, -0.09598064, 0.121070005, 0.13848473, -0.18443573, -0.11014184, -0.06523427, -0.0434185, 0.042422965, -0.062300965, 0.112486914, 0.060283426, -0.19606799, -0.15979415, -0.11917839, -0.042088676, 0.0463331, 0.2401962, 0.2178486, -0.13587089, 0.11660032, -0.29190436, -0.087104365, 0.060747135, 0.14730959, -0.04899193, -0.2204568, 0.03356031, -0.07665224, 0.2776146, 0.017103655, -0.17564784, 0.11490235, -0.06543346, -0.2742977, 0.024805577, 0.110968895, 0.031742517, -0.19648775, 0.007061116, -0.07391804, -0.011432845, -0.090620615, -0.13391285, -0.21629451, -0.23291206, -0.30077112, -0.026935209, 0.0991443, -0.19468345, -0.17299682, 0.25461057, 0.018203737, -0.1273317, -0.07203466, 0.10280073, 0.080120035, -0.121128984, -0.77938735, 0.02393637, -0.07826812, -0.23005478, 0.024097191, 0.10175082, -0.17218958, -0.27131462, -0.122569315, 0.11526576, -0.18043335, -0.053097367, -0.16543896, 0.029187843, 0.10153706, -0.19297001, 0.12585326, 0.15317056, -0.13622612, 0.11683057, -0.15107314, -0.09553101, 0.07616231, 0.13473266, 0.01192833, -0.12739111, 0.022333411, -0.2187614, -0.014164967, 0.13795833, 0.1567803, -0.07137402, -0.12631515, 0.058671165, 0.021585235, -0.20436805, 0.1431296, -0.10542696, 0.15959059, 0.098718874, -0.2618916, 0.09843981, 0.15543513, 0.17359897, -0.06554077, -0.16575661, -0.13885936, 0.07750325, 0.14126606, -0.1862104, -0.14785485, -0.2773163, -0.16055974, -0.077023424, -0.047617637, -0.049098346, -0.065576136, 0.24097954, -0.02735734, 0.052686412, 0.1379287, 0.01977551, 0.19793698, -0.09064366, -0.6955024, 0.051628664, -0.1673053, -0.20176232, 0.102321126, 0.09750443, -0.21325283, -0.15146424, -0.091632955, -0.12440694, -0.20387878, -0.12685585, -0.08173989, -0.24560036, 0.07518526, -0.14348282, 0.032300457, 0.07210834, -0.30441067, 0.086402595, -0.08707471, -0.008590144, 0.043290272, 0.11507269, 0.24404383, -0.21835357, -0.056473725, -0.17710365, -0.15722068, -0.02683448, 0.012465863, -0.0011971411, -0.087943, -0.14350343, 0.24307357, -0.11229886, -0.022179233, -0.101797685, 0.07491871, 0.17340457, -0.2152386, 0.07733287, 0.100586444, 0.058523573, -0.30084354, -0.2636318, -0.19199821, 0.0041367607, 0.11685878, -0.4114414, -0.17816673, -0.19999696, -0.1537219, -0.24928859, 0.0732303, -0.29293734, 0.04808506, 0.067471415, 0.24042304, -0.12494216, -0.34527856, 0.09881626, 0.110291965, -0.15907744, 0.22168876, -0.0046511167, -0.14208513, 0.035952844, -0.05791507, 0.14761965, -0.18318778, 0.00831541, 0.11390723, -0.099271744, -0.23575115, -0.17235112, -0.1679527, -0.038303293, 0.02691008, -0.05423711, 0.22689627, 0.043190006, -0.27216095, 0.19726537, -0.141237, -0.003874316, 0.10384099, 0.21910626, 0.12815717, -0.28811142, -0.003131134, -0.20252939, -0.10730058, 0.17580655, 0.21407107, 0.031047884, -0.052553132, -0.16929725, -0.0204429, -0.13592441, -0.10747418, -0.10534324, 0.19902782, 0.16440052, -0.25588486, 0.16161309, 0.19261183, 0.10786244, -0.1439948, -0.23575556, -0.18908346, -0.0012563365, -0.15310296, -0.16849338, -0.20529935, -0.120221496, -0.036399372, -0.1502507, -0.08817218, -0.16827656, -0.23998673, 0.1337031, 0.0797366, -0.13726163, 0.11276847, 0.06432517, 0.11277334, -0.10771378, -0.05565837, -0.09327823, -0.1120783, 0.013997156, -0.08485968, 0.08578462, -0.17917518, -0.036314465, 0.040682312, -0.25841314, -0.08533465, -0.15279631, -0.09805621, -0.014893493, 0.055665765, -0.14675464, 0.21026197, 0.043271936, -0.27545372, -0.33726817, -0.22918157, -0.005318106, -0.012323482, 0.21514733, -0.03392849, -0.24286924, -0.0020390004, -0.23854965, 0.042346787, -0.024768136, 0.02430436, 0.010723262, -0.20302, -0.22291595, 0.021308085, 0.05207847, 0.17304298, -0.1527717, 0.18524112, 0.19534853, -0.24795432, 0.02238305, 0.18184224, 0.059509486, -0.16124342, -0.10665142, -0.21133347, 0.024367126, 0.0025203673, -0.24860317, -0.22387682, -0.12965755, -0.114018455, -0.20588268, -0.04187114, -0.19383891, 0.023815868, 0.22185503, 0.24843994, -0.06346867, -0.06437543, 0.06975133, 0.021786116, -0.16685067, -0.039088592, -0.034541592, -0.15634005, -0.15243953, -0.06213172, 0.16181503, -0.19404128, 0.027842855, 0.14012697, 0.014589494, -0.14878449, -0.18420337, -0.13745385, -0.11474368, -0.024725275, -0.10264522, 0.23712406, 0.04252011, -0.13648976, -0.17399344, -0.17441122, 0.03661529, 0.0062559717, 0.22161989, 0.1161291, -0.12691167, -0.06073827, -0.25252816, -0.11686917, 0.096071094, 0.10535081, 0.00039660558, -0.17612989, -0.121906735, 0.087415904, -0.035445407, 0.102914415, -0.10706258, 0.21833867, 0.1733009, -0.2594653, 0.16650449, 0.22255999, 0.015584517, -0.08655196, -0.25187454, -0.14450346, -0.020705191, 0.057388082, -0.17816359, -0.073251344, -0.26039135, -0.15176655, -0.12226772, -0.02364873, -0.07480446, 0.027532784, 0.1093075, 0.004744932, -0.22029518, 0.11861928, 0.24716419, 0.1260622, -0.1711625, 0.07587313, -0.16196592, -0.12867346, -0.1181411, -0.1576191, 0.2413418, -0.09293408, -0.22885896, 0.1412407, 0.049160965, -0.2169895, -0.10454886, -0.1677884, 0.01486817, -0.08259681, -0.22453916, 0.22300404, 0.14096642, -0.2411965, -0.027916636, -0.2582259, -0.08640949, 0.05478523, 0.19244048, 0.10826721, -0.080111064, -0.06692089, -0.2517148, -0.001876318, 0.0073414743, 0.17462035, -0.09212771, -0.31342128, -0.2255731, 0.22601601, 0.22633003, 0.08884779, -0.13560578, 0.18152587, -0.021251962, -0.2777107, 0.052049108, 0.19483376, 0.03978509, -0.20308775, -0.14205766, -0.017932644, -0.07896277, 0.015786007, -0.13281709, -0.2029167, -0.23878811, -0.09453468, -0.1687411, -0.20812747, -0.13655505, 0.12932393, 0.30818817, 0.093558796, 0.02364817, -0.026163084, -0.0055450955, 0.134125, -0.11209208, 0.104406215, -0.06999521, -0.14307359, -0.10381524, -0.11638081, 0.09573816, -0.16206285, -0.043349866, 0.12894417, 0.031958554, -0.051567823, -0.11791389, -0.12733367, -0.048968054, -0.19223782, -0.043852188, 0.11456038, 0.14358258, -0.24090073, -0.018438168, -0.20375472, -0.17745, 0.033595968, 0.21758568, 0.109787464, -0.17885458, -0.030426053, -0.22984561, 0.14560987, 0.11465744, 0.22088817, -0.05516917, -0.27435678, -0.04186385, 0.020374354, -0.0044878074, 0.14561959, -0.12333612, 0.13710909, -0.0068141106, -0.25490078, 0.13406083, 0.14448053, -0.044217426, -0.26553586, -0.04720871, -0.16229804, -0.09863831, 0.028514085, -0.17944601, -0.16734862, -0.24889086, -0.25788894, -0.11005354, -0.07571862, -0.2607635, 0.11284866, 0.2894366, 0.059268977, -0.042478662, 0.17008734, 0.09223467, 0.13187422, -0.07262031, -0.03608138, -0.18704472, -0.03089475, -0.048403177, -0.15114117, 0.08828378, -0.28124613, -0.24139184, 0.05235696, 0.02873778, -0.1962386, -0.017386468, -0.06478659, -0.19726653, -0.0072110686, -0.19977944, 0.068273894, -0.03665626, -0.28074494, -0.01430322, -0.18909438, -0.030796593, -0.038138162, 0.17678328, 0.039573852, -0.0527672, 0.00081113336, -0.23070955, 0.028704578, 0.01413229, 0.10217236, -0.050873965, -0.24304107, -0.09583844, 0.1343019, 0.35098037, 0.24100317, -0.07674107, 0.07902079, -0.10786431, -0.27136502, -0.05927935, 0.094274275, 0.0050492887, -0.30940887, -0.041617878, -0.17608386, -0.083959505, -0.045396276, -0.10706652, -0.12965383, -0.20535795, -0.16924156, -0.26355395, 0.16526718, 0.050898068, -0.06256346, 0.23800004, 0.12502377, -0.13484278, -0.23960769, -0.062460832, 0.22269408, -0.08264463, -0.18990552, 0.04376319, -0.13945994, 0.04573152, 0.033088546, 0.11619162, -0.2305865, -0.045936428, 0.07773379, -0.015859894, -0.066382505, -0.034040213, -0.09436386, -0.113045074, -0.05845336, -0.0061465213, 0.057877764, 0.041365776, -0.20288765, 0.016248059, -0.17374128, -0.17772166, -0.06062013, 0.11834014, -0.17574948, -0.016058085, 0.098329276, -0.25252476, 0.19908845, 0.0823984, 0.11609141, -0.062274173, -0.08265573, -0.07599798, 0.21445778, 0.024137527, 0.3099896, -0.26149583, 0.100064896, -0.37481996, -0.25396985, -0.03776899, 0.12907836, 0.1426494, -0.1806637, -0.044211842, -0.14996248, -0.115952305, -0.09483063, -0.24810097, -0.2146854, -0.2567214, -0.56768113, -0.29773295, -0.23627679, -0.19851866, 0.2459728, 0.1848867, 0.089332104, -0.11258678, 0.13406385, 0.041215952, -0.07423258, -0.09470155, -0.32800215, -0.20272067, -0.18877588, -0.21554245, -0.0736508, 0.053185966, -0.16976124, 0.03445687, 0.14994217, -0.48771644, -0.049185306, -0.24438767, -0.12427713, 0.0032217565, 0.027349569, -0.4539138, 0.10638413, 0.15898514, -0.28296798, -0.47223607, -0.033921067, 0.07133622, 0.03225168, 0.08476282, 0.14056124, -0.2665081, -0.12030814, -0.19638307, 0.0041597607, 0.13396394, 0.051761206, -0.0014551126, -0.064093515, -0.2120324, 0.07345496, -0.20402996, 0.20387706, -0.20836306, 0.11601463, 0.15971017, -0.20061027, 0.05619034, 0.12190013, 0.16745447, -0.14937183, -0.07941478, -0.18513438, 0.11183446, -0.25627863, -0.21585621, -0.27967566, -0.14617185, -0.1077123, -0.021841023, -0.14725286, -0.04059334, -0.30957076, 0.19467925, 0.10037558, -0.038422786, 0.0077110096, 0.117196664, 0.09706105, -0.03979468, 0.10749888, -0.25362667, -0.09556645, -0.16460124, 0.05632372, 0.047842707, -0.110253446, -0.061943665, 0.13135834, -0.20009567, -0.08387116, -0.3437532, -0.046322934, -0.13539974, -0.026770715, -0.13686296, 0.036780838, -0.10651445, -0.26064402, -0.04768988, -0.14444329, 0.08810716, -0.016682131, 0.11000333, 0.039739173, -0.17148323, -0.12911102, -0.19661732, -0.01177576, 0.17677726, 0.021397104, 0.021761961, 0.041851014, -0.18207012, -0.042522125, 0.25267124, 0.09366072, -0.16274126, 0.056848995, 0.09463192, -0.25925332, 0.11047881, 0.051525343, 0.051962003, -0.22867914, -0.075587004, -0.159964, -0.053900488, -0.044801764, -0.18352064, -0.13247563, -0.12553255, -0.23129326, -0.28388506, 0.10022909, -0.30162716, -0.100227535, 0.0154759595, 0.023777, -0.16708808, 0.008240096, -0.09039141, -0.08940602, -0.17502293, -0.09631535, -0.08793568, -0.1659579, 0.056952447, -0.09658709, 0.24609208, -0.14478654, 0.049996294, 0.0482673, 0.09160805, -0.30329984, -0.17307873, -0.20932128, -0.02705741, -0.037148744, -0.10596532, 0.27039468, 0.22994508, -0.23197521, 0.37222233, -0.29045093, -0.15366372, -0.024908308, 0.21726596, 0.07353472, -0.38116565, -0.10743977, -0.19422089, 0.01555143, -0.08732757, 0.3086284, 0.05587773, -0.09029676, -0.08667662, 0.06226313, -0.0055078384, 0.07405305, 0.035928953, 0.24589781, 0.001342181, -0.2929823, -0.011943451, 0.23555617, -0.18483536, -0.102472246, -0.31321788, -0.19291219, -0.010606923, 0.025894823, -0.31344256, 0.029294092, -0.14719531, 0.09417005, -0.15740319, -0.23500054, -0.16290121, 0.22361858, 0.064887956, 0.13237217, -0.10917309, 0.018773565, 0.10476439, -0.019617183, -0.12346572, 0.06928378, -0.052421924, -0.19014275, -0.15348254, -0.1367339, 0.0861853, -0.15746784, -0.10694249, 0.07823176, 0.038543534, -0.047114853, -0.12203144, -0.12139031, -0.14127056, -0.15883262, -0.14639, 0.17923506, 0.07546622, -0.2919286, -0.14591147, -0.35226154, -0.0113245025, -0.008594224, 0.19296712, -0.049550787, -0.18092221, -0.100570425, -0.25871608, -0.051482204, 0.1520471, 0.09325246, -0.0015005714, -0.2147549, -0.25377545, -0.21877441, 0.04558688, 0.12170385, -0.14404687, 0.18929014, 0.0454993, -0.27029046, 0.19557817, 0.17854808, 0.06617161, -0.270397, -0.13526958, -0.23104636, -0.06186763, -0.046194375, -0.2148165, -0.2627426, -0.21141317, -0.2893224, -0.26515037, -0.09861982, -0.08741601, -0.113042, 0.051856257, 0.10819799, -0.14814807, -0.10387387, -0.047918882, -0.1677847, -0.09810803, -0.10036272, -0.32942212, -0.15356718, -0.2663762, -0.21869408, 0.07725885, -0.3204627, -0.04315611, 0.082881026, 0.041791208, -0.19764782, -0.1231586, -0.15335685, -0.07254241, -0.045341525, -0.23880956, 0.1251399, 0.0531731, -0.32244012, -0.05511122, -0.08733013, 0.04135025, -0.18582316, 0.10163564, 0.07673766, -0.3019407, -0.072646685, -0.24975532, -0.07757308, 0.13528144, 0.15524054, -0.07007801, -0.08593665, -0.14961669, 0.02030001, 0.19599101, 0.13618311, -0.12555721, 0.1572735, 0.02865483, -0.27460536, 0.021147007, 0.15751614, -0.102499984, -0.2995041, -0.185979, -0.23335971, 0.02574073, 0.158421, -0.26860404, -0.14670217, -0.2918939, -0.20363015, -0.19456603, -0.20828152, -0.12089308, -0.046026923, 0.16355653, 0.21990451, -0.13018513, 0.105609946, 0.16529822, -0.020777771, -0.14881022, -0.08103567, -0.3412942, -0.13607186, -0.12619616, -0.20234294, 0.17834754, -0.29565105, -0.15187027, 0.13676879, 0.055786822, -0.11298782, -0.1618433, -0.1487781, -0.23220533, 0.0031328711, 0.014324697, 0.13096139, 0.054311726, -0.0314089, -0.1436698, -0.22113363, -0.05548193, 0.099957585, 0.2526214, 0.17116016, 0.05313785, -0.04563477, -0.24690902, 0.09513826, 0.07504277, 0.21744843, -0.16559231, -0.25828838, -0.13196084, -0.09810739, 0.20435831, 0.20549457, -0.13716725, 0.187999, 0.040896844, -0.27848393, 0.007697425, 0.20570213, -0.02466176, -0.18982081, -0.10809019, -0.19695665, 0.012029037, -0.058119982, -0.17414103, -0.23072478, -0.3329387, -0.08529265, -0.24683887, -0.14337192, -0.21806942, -0.08723429, 0.053156886, 0.14254399, 0.059255797, -0.097319216, 0.013263917, 0.09669141, -0.06307913, -0.6848834, -0.32090127, -0.19914423, -0.023268925, -0.17540264, 0.09097241, 0.010098736, -0.621, 0.09187385, -0.13869521, 0.070457086, -0.15758757, -0.09226499, -0.11994879, -0.16898344, -0.29329866, 0.10627198, -0.02037589, -0.05767887, -0.13669454, -0.12099176, -0.049901515, -0.17147464, 0.15843894, -0.008553923, 0.031195834, -0.059453033, -0.2560593, 0.13803354, 0.14457601, 0.14702743, -0.058888264, -0.2981767, -0.1309129, -0.12636708, -0.06408647, 0.2353083, -0.1459249, 0.10884492, -0.054348752, -0.24595007, 0.108581886, 0.10202341, 0.054823898, -0.34115034, -0.027471283, -0.19244756, 0.0773462, 0.09350227, -0.24383509, -0.17949355, -0.20885402, -0.6060361, -0.3513277, -0.17295428, 0.021460878, 0.12673338, -0.030251553, 0.10259646, -0.24615635, 0.08119003, -0.0021250714, -0.13466659, -0.2069162, 0.08061036, 0.015722025, -0.1411081, -0.21099855, 0.14401345, 0.17930707, -0.056853417, -0.10817748, 0.0990222, -0.082228824, -0.22689109, -0.2406322, -0.29423815, -0.27974343, 0.10177147, -0.09863368, 0.12265372, -0.026021028, 0.09078171, 0.0059386324, -0.028523313, -0.003569922, -0.04621909, 0.07768172, -0.03525564, -0.17773172, -0.035647076, -0.24064757, 0.0065808147, 0.095310144, 0.21882255, 0.20520225, -0.24499528, -0.029949391, 0.021447659, 0.07793112, 0.08997594, -0.1758136, 0.13703357, -0.0873228, -0.22259276, 0.09730598, 0.15512213, 0.1113178, -0.4114559, -0.39284554, -0.1954549, -0.015767753, -0.11664491, -0.43803668, -0.333005, -0.17897458, -0.5808454, -0.23383807, 0.15129423, -0.13801843, 0.0501994, -0.0028762724, -0.04663039, -0.0019070096, -0.14605369, 0.07851269, -0.055978883, -0.013310072, 0.55855876, -0.46809068, -0.2148175, 0.22197685, 0.029981732, 0.024523534, -0.073839635, -0.132807, -0.17274317, -0.19077165, -0.099663354, -0.38074747, -0.017662782, 0.04044165, 0.009137388, 0.039656002, -0.089060456, -0.17256826, -0.46008316, 0.11559943, -0.5287503, -0.19393629, -0.050722558, 0.07580318, 0.04002201, -0.34897888, -0.044983607, -0.16091217, 0.06822094, 0.058716964, -6.124025e-05, -0.2311269, 0.1351804, -0.26266098, 0.052638423, 0.16378817, -0.20856419, -0.32937858, 0.015906649, 0.08906632, -0.27441284, 