#ifndef NN_VALUES_H
#define NN_VALUES_H

const float L1_WEIGHTS[] = {0.009213938, 0.0002863901, 0.002745878, 0.006093279, 0.004016457, 0.006038829, 0.007952577, 0.00917256, 5.4412358e-06, 0.005893289, 0.002759064, 0.0020329037, 0.007334636, 0.004450583, 0.0025651576, 0.0040282155, 0.00035585434, 0.0059143123, 0.0030475503, 0.0034048273, 0.0071690097, 0.008351212, 0.0013319663, 0.0009184398, 0.007643604, 0.0022737544, 0.0050832382, 0.0063170795, 0.0073580574, 0.0070224353, 0.0039779986, 0.007410253, 0.008259163, 0.0015137568, 0.003234043, 0.0011771499, 0.0050692963, 0.009199015, 0.0039797626, 0.0059860074, 0.004541046, 0.006971731, 0.0039641536, 0.0015508258, 0.0028818185, 0.005415679, 0.0036750939, 0.0035648642, 0.0034098378, 0.006750126, 0.005605168, 0.008844203, 0.007079852, 0.0015738002, 0.004888069, 0.0080016125, 0.0058953646, 0.0043473993, 0.0071338867, 0.0058583934, 0.005761302, 0.0008877962, 0.0063688387, 0.004062711, 0.005631871, 0.0043629934, 0.00215057, 0.004001723, 0.003698242, 0.0006508055, 0.000465144, 0.0041217944, 0.008229917, 0.007147558, 0.0011855736, 0.0075180833, 0.0011600723, 0.0009911577, 0.006104116, 0.0046107993, 0.0071697733, 0.00910731, 0.00906276, 0.0046771085, 0.007948028, 0.005206686, 0.0035413208, 0.0036544083, 0.0076555437, 0.0009004132, 0.006613116, 0.0066171084, 0.0039124307, 0.0024651815, 0.005841552, 0.005352534, 0.0035438798, 0.007733859, 0.009355762, 0.0084292805, 0.004351141, 0.004228383, 0.0046875193, 0.0013161724, 0.0046138954, 0.006480167, 2.8804925e-05, 0.008170146, 0.0033005325, 0.0038261209, 0.0071900315, 0.008340722, 0.0068986015, 0.003950482, 0.0033640685, 0.008445514, 0.0023135259, 0.0024202876, 0.0039207945, 0.008278204, 0.0044084885, 0.008649567, 0.008532431, 0.009433365, 0.0031043137, 0.00039015024, 0.0047997935, 0.005287051, -0.124585874, -0.012292659, 0.030847885, -0.0008962861, -0.07887643, 0.02629808, -0.16268618, 0.14794752, 0.07883139, -0.10763059, -0.0846716, 0.018420435, -0.16067575, 0.0012321908, -0.098718815, 0.08721046, -0.09505508, -0.23534757, -0.30705744, 0.0028718126, -0.14396942, -0.20440035, 0.0052517885, 0.027154466, -0.20206816, -0.01851127, 0.08120152, -0.0004230243, -0.24782056, 0.02605095, 0.008188068, -0.04273337, 0.055253033, 0.1306473, 0.041291732, -0.18850918, -0.049325563, 0.1008369, -0.1551886, 0.043203678, -0.07733969, -0.16261967, 0.015986899, 0.0841284, 0.26565072, 0.012861023, 0.11673511, -0.21585712, 0.053443883, 0.07131058, 0.094456874, 0.028842563, 0.0802059, -0.14392947, -0.30157262, -0.14459777, -0.20859678, -0.12033409, -0.17159991, 0.057004794, -0.25571337, -0.015026223, 0.018646536, 0.25557336, -0.22591813, -0.25127664, -0.029284159, 0.03384459, 0.042571373, 0.030392982, -0.12737736, -0.12136872, -0.33577818, -0.34482822, -0.33307037, 0.08966124, -0.008754895, -0.015501545, -0.03551774, 0.029354114, -0.22122808, -0.09470649, -0.08085634, -0.13520515, -0.097545125, -0.19055754, -0.21322575, 0.04556591, -0.13683006, -0.030074436, -0.14471744, 0.015252721, -0.052405834, -0.10986809, -0.1724379, -0.017478308, 0.05817983, -0.13648087, -0.19284217, -0.1104025, -0.05210413, -0.069890045, -0.21472031, -0.0023863576, -0.16847385, -0.041046876, -0.2345803, -0.09170917, -0.14745808, -0.2524858, 0.10360432, -0.16205879, 0.04569162, -0.10144059, 0.032315362, -0.12171011, 0.18437035, -0.11085334, -0.13515975, -0.23485297, -0.112224996, -0.07320702, -0.1221728, 0.0061048693, -0.04620449, 0.03871561, -0.01236631, -0.04352477, -0.052572805, -0.057107884, -0.07787986, 0.08818827, -0.13100782, -0.03735461, 0.099984095, 0.06988097, -0.0026133505, 0.026628582, -0.12188392, -0.15724581, 0.04092376, 0.019311992, 0.043314938, -0.074845724, 0.050587215, -0.19175014, -0.18353765, -0.030422052, 0.03290054, 0.11266259, 0.061982393, -0.019411383, -0.14242686, 0.105775245, 0.0864658, -0.22292683, -0.14873369, -0.17206007, -0.09287968, -0.13827232, -0.026384853, -0.16710134, -0.05445935, -0.059029907, -0.01909945, -0.102738775, -0.00089075416, -0.0038606676, -0.029633692, 0.06783536, -0.06340895, -0.24137978, -0.17281143, -0.012501678, 0.007524251, -0.13786381, -0.1227218, -0.041172564, -0.0059617553, -0.15855731, -0.11502573, -0.011916228, 0.06936034, 0.047947813, -0.11078943, 0.0039786533, -0.030272966, 0.018922143, -0.14085953, -0.25075293, -0.040342048, -0.18793851, -0.07843223, 0.036840368, -0.06799836, -0.13767307, 0.12673967, -0.053738806, 0.09152478, -0.005224843, -0.026385924, 0.09152863, -0.056912486, -0.07653439, 0.06746194, 0.025821626, -0.02352069, -0.1304451, -0.24290319, -0.061325766, -0.26955512, -0.027555175, -0.17268737, -0.14616814, -0.02367162, -0.15007786, -0.008045943, 0.0006185364, -0.24088661, -0.1776171, -0.06497476, -0.11192236, -0.07399667, 0.014164224, -0.022023713, -0.051768944, -0.19961138, -0.17284147, 0.104064524, -0.047963664, -0.0006370322, -0.067453325, 0.024109093, -0.17382777, 0.03505476, -0.09968228, -0.012330077, -0.23511808, 0.03807077, -0.0711431, -0.06445478, -0.13691978, -0.0829061, -0.11251804, -0.07940781, 0.036235616, -0.11856415, -0.09558089, -0.22392696, -0.20317474, -0.12452181, -0.09333466, 0.043670706, -0.046501778, -0.041511465, 0.029189186, -0.007041865, -0.15213525, -0.09019687, 0.09133003, 0.027683452, -0.10836327, 0.008301543, -0.18267913, -0.16471723, -0.0098035345, 0.015740745, 0.10476343, 0.040156227, -0.07657895, 0.038213827, -0.11864475, -0.09164528, -0.10063974, -0.16311625, -0.051852256, -0.021666495, -0.28886855, -0.2488402, -0.12541473, 0.0089677125, -0.10810254, -0.102509335, -0.065323666, 0.04877767, -0.0629708, 0.041255176, 0.055945784, 0.068082795, 0.08316201, 0.12764181, 0.04968997, -0.07487506, -0.029772501, 0.0330496, 0.060102697, -0.045421384, 0.0456458, 0.018171359, -0.011364156, 0.17078984, 0.053904228, 0.025382733, -0.017953634, -0.07595872, 0.1383829, -0.09743949, 0.076472335, 0.027858287, 0.02518282, -0.22253507, -0.10517063, -0.02429202, -0.046435677, 0.018294808, -0.0047240644, -0.064987734, -0.22853212, -0.122970685, 0.075442195, -0.26353306, -0.08918054, -0.14308843, 0.00021256701, -0.06299584, -0.050109126, -0.15029892, -0.15139735, -0.01802887, -0.13620427, -0.26691836, -0.058876734, -0.18731546, -0.027929412, -0.075935654, -0.0703444, -0.00014718185, 0.06719267, -0.1376805, -0.011364123, -0.012321086, -0.059852056, 0.013334284, -0.023294259, 0.077824794, 0.043945767, 0.07384988, -0.098923564, 0.06182222, -0.18299946, -0.07242177, -0.007626454, -0.2325658, -0.06271463, 0.0030370587, -0.10062577, -0.14225675, -0.10601047, -0.31720018, -0.03786841, -0.12802781, -0.0023274822, -0.07394965, -0.09778682, -0.1611477, 0.09808163, 0.034855835, -0.16824846, -0.0723125, 0.021005487, -0.082528934, -0.10716099, -0.12667827, -0.14077154, -0.044207115, -0.07297448, -0.035859536, -0.25188038, -0.18210155, -0.0645868, -0.08860009, 0.0119888075, -0.02452744, 0.08709113, 0.019553918, -0.07199786, 0.019041002, -0.06761227, 0.08899709, -0.01577283, -0.20507574, 0.017739827, 0.0060909805, 0.06231766, -0.120327026, 0.068902396, -0.047708195, -0.059933472, -0.016578326, 0.012538879, -0.027466174, -0.19039975, 0.20935546, -0.041937612, 0.039380945, -0.07483103, 0.044962864, 0.027275544, -0.101263225, -0.19394405, 0.07277243, -0.080257505, -0.20343225, -0.014732677, 0.10892674, -0.08178251, -0.215831, -0.12141557, -0.072269715, -0.17169958, -0.29274118, 0.11709031, -0.059788752, 0.17611067, -0.15602185, -0.0131512955, 0.06764707, -0.11635931, 0.023972139, 0.0298502, -0.04760601, -0.13214135, -0.029798195, -0.002225283, -0.031995926, -0.0017432282, -0.040148538, 0.1465941, 0.057189524, 0.017421044, -0.17984071, -0.02624807, 0.011486383, 0.10759237, -0.16191451, -0.11740278, -0.10472693, 0.14353628, -0.09114117, -0.12464565, 0.14664814, -0.0067995964, -0.23715957, -0.035393063, -0.23915353, -0.1823948, -0.12456516, -0.20403145, 0.09348342, -0.067063205, 0.0076480997, 0.050313473, -0.13029248, -0.12198243, -0.01312104, -0.2280511, -0.33471557, 0.0767161, 0.024734069, -0.011879417, 0.014727336, -0.07921216, 0.08111858, -0.18069641, -0.09199031, -0.07616653, -0.054666866, -0.13359308, -0.3183202, 0.04411272, -0.15946682, -0.12162428, 0.061489653, -0.10289235, 0.020344954, -0.0036124662, -0.052805476, -0.16687348, -0.20270742, 0.048720535, -0.07258108, -0.12589994, 0.08229957, -0.03281356, -0.09258438, -0.0014567864, -0.0024844704, -0.122063845, -0.17483684, 0.006349454, -0.011916866, 0.112124346, -0.2794016, 0.10576646, 0.16382544, 0.053508144, -0.3005206, 0.06476253, -0.23420805, -0.08938476, -0.072252676, 0.1336525, 0.030338094, -0.118813984, 0.13343352, -0.18025333, 0.022323795, -0.12722239, -0.010071113, 0.07905258, -0.14627068, 0.122019015, 0.10832434, 0.009837637, 0.06583678, 0.0025435959, -0.11549149, -0.06486798, -0.06842722, -0.14335193, 0.018868972, -0.013964403, -0.16400225, -0.17073284, -0.15226188, -0.0070387, -0.2058179, -0.12846178, -0.15276943, 0.13999318, -0.20731264, 0.22232977, -0.023852846, 0.050932117, -0.027401084, -0.072655745, 0.0448886, 0.052219816, 0.11039487, 0.025146203, -0.043141454, -0.10891147, 0.088458866, 0.26261643, -0.0038148756, 0.004830368, 0.023822919, 0.15027498, 0.12549633, -0.0036744967, 0.03333034, 0.012843016, 0.049500383, 0.035259154, 0.03593231, -0.041482612, -0.08480307, 0.058274865, -0.181693, -0.19175, 0.10664511, -0.10827171, -0.03595951, -0.13831455, -0.11339532, 0.09886824, -0.071132414, 0.031290345, -0.094691575, 0.114980474, 0.06726633, 0.08075205, -0.07186134, 0.02405362, -0.17241494, -0.056471724, -0.05621351, -0.09345903, 0.022947883, -0.040035173, 0.07039743, 0.12185731, -0.08158878, -0.109409854, -0.050170593, 0.03748677, 0.027251555, -0.079776146, 0.15630552, 0.037595715, 0.06849964, -0.076269455, -0.046972867, -0.09471233, -0.14217187, 0.012124227, 0.05527586, 0.1944801, -0.33686095, 0.0069290125, -0.0326197, 0.16062132, -0.20808086, -0.09165262, -0.1398079, -0.07314408, 0.18318422, -0.09302785, -0.13992392, -0.07646967, 0.04439603, 0.001503154, -0.17627694, 0.10811583, -0.08071167, 0.0698145, -0.17836253, 0.020707587, -0.1251491, -0.128776, -0.07275667, 0.05674216, 0.1472554, -0.0734994, -0.26785794, 0.06335748, 0.07968108, 0.004273647, 0.005674282, 0.11096614, 0.21431029, -0.16388753, -0.03791349, -0.22439207, 0.22086404, -0.01988598, 0.014767414, 0.016426586, -0.04193261, 0.11840412, -0.01881487, -0.07876734, -0.018167494, -0.088655055, -0.09375191, 0.04640884, 0.1227185, 0.07767664, 0.123894036, -0.105963945, -0.25134027, -0.15532088, 0.30761698, 0.019258281, 0.0028557738, -0.33620015, 0.07380869, 0.11345517, -0.039611503, 0.06734957, 0.029494265, 0.060760543, -0.19967744, 0.10554658, -0.028999545, 0.0136814695, -0.056744993, 0.033495367, 0.08834918, 0.11953553, 0.108187154, 0.037387267, -0.113029145, 0.13470207, 0.10274909, 0.03298898, 0.0075837825, 0.27491376, -0.0123773925, -0.0051890234, -0.0928329, -0.034138653, 0.057454918, 0.0716899, 0.17365767, 0.063719526, -0.16311185, -0.16449136, 0.06898335, 0.11864753, -0.21352161, -0.24879882, -0.049867876, -0.017607223, 0.02474387, -0.21491691, -0.18039802, 0.120060325, -0.059068266, 0.05433688, 0.10962468, -0.08430389, -0.05302167, -0.0065778377, -0.006068748, 0.039984185, -0.028911207, -0.022340156, -0.15769508, 0.2745842, 0.027094537, 0.1809768, 0.060585164, -0.051108193, 0.18311492, 0.13422996, 0.16106185, 0.033794824, -0.028471287, 0.088208206, 0.07407352, -0.08560343, 0.086748786, 0.033686902, 0.117075086, 0.08479181, -0.20714946, 0.060479805, 0.0612914, 0.14523545, -0.02729004, -0.036247663, 0.11620953, -0.069104515, 0.071114846, -0.015820155, -0.2608284, 0.017155396, 0.1350162, 0.10055581, 0.042263865, -0.108122714, 0.070481755, 0.028915452, -0.104709946, 0.08156877, 0.05735082, 0.0018709337, -0.20179439, -0.064369984, 0.06177503, -0.001289198, -0.010333958, 0.056959312, -0.26530892, -0.014152172, -0.025608212, -0.114865415, 0.0041757487, 0.0028512487, 0.00705674, 0.005489357, 0.006517992, 0.0065359036, 0.0067300843, 0.0065378887, 0.0031792452, 0.0049045114, 0.0007075205, 0.0051251454, 0.0029478837, 0.007190314, 0.008446445, 0.0032592071, 0.006834138, 0.005261352, 0.0025559582, 0.0044602873, 0.008981121, 0.0012538944, 0.0068432717, 0.0004987682, 0.005717539, 0.008584724, 0.001529921, 0.0012289626, 0.0002704597, 0.0016468111, 0.002019198, 0.0035295226, 0.003679905, 0.006987796, 0.00690209, 0.005759004, 0.0031817444, 0.0030043467, 0.009269797, 0.007162694, 0.006977803, 0.008878498, 0.001839654, 0.008502922, 0.0023914773, 0.0077732177, 0.0041467785, 0.0061571677, 0.008780728, 0.0067672897, 0.0046494678, 0.008804877, 0.00077898725, 0.0034091566, 0.0031509507, 0.007934283, 0.004522523, 0.006527209, 0.007331885, 0.003318326, 0.005055253, 0.009354856, 0.005956545, 0.0015080469, 0.0015839854, 0.0044624372, 0.0036675811, 0.0067694457, 0.007997896, 0.0029228975, 0.0019279339, 0.007205952, 0.0030036515, 0.0013573931, 0.0067618024, 0.00054707576, 0.0015785486, 0.009467692, 0.0053238664, 0.004691114, 0.0033314019, 0.0013940028, 0.0012190006, 0.0008020302, 0.0075251716, 0.0004712966, 0.0054968656, 0.0037070569, 0.008635539, 0.003990943, 0.009309175, 0.008769621, 0.005808307, 0.00042329513, 0.0063323313, 0.0022121542, 0.00852391, 0.006974791, 0.005835473, 0.00591673, 0.001536961, 0.003811382, 0.0065441695, 0.0003321602, 0.00091153424, 0.0012700391, 0.0038899656, 0.0040304046, 0.0016706043, 0.0060944115, 0.0015017246, 0.0065542953, 0.0021177593, 0.0046871607, 0.009124346, 0.0075456556, 0.0022579532, 0.008996272, 0.0066496576, 0.0062870774, 0.00032510216, 0.004795887, 0.0023120292, 0.0084769325, 0.008362806, 0.0065129823, 0.0018617306, 0.0043228795, -0.30358, -0.15519953, -0.19375934, -0.19716239, 0.0060065733, 0.02310916, 0.17761327, -0.15300031, 0.037739836, 0.22037405, 0.155402, -0.25396904, -0.22201818, -0.09235153, -0.031826116, -0.22382796, -0.08817658, -0.016298613, 0.056316134, 0.021577286, -0.0070499945, -0.033430208, 0.1021452, -0.03206297, -0.04265813, -0.006754357, -0.104881845, 0.22528338, -0.23028469, 0.025754075, -0.10767149, 0.06791662, 0.027157184, 0.110198036, -0.09517958, 0.05161927, -0.106732726, 0.050850015, -0.07340341, 0.11500314, 0.12676325, 0.06834362, -0.01043776, 0.13781036, -0.25474185, -0.0052666487, 0.07695375, 0.07340189, -0.20298542, -0.12407355, -0.1269161, 0.03860397, -0.09274239, -0.035640463, -0.049799576, -0.24531202, -0.26682058, 0.12294753, -0.21065181, -0.27013424, -0.11612285, -0.2234584, 0.23833123, 0.29133597, -0.0049786037, -0.034678333, 0.13260458, 0.04757389, 0.088471994, 0.066104054, -0.24715513, -0.21478777, -0.21227995, -0.04240163, -0.13597591, -0.014256037, 0.12957498, -0.2250419, 0.16884619, -0.07378945, 0.26555544, 0.2731361, 0.27422956, 0.029667547, -0.06615813, 0.052786425, -0.23233251, -0.01987636, -0.0088899, 0.05089779, 0.18395597, 0.012912381, 0.21610273, 0.096137814, 0.09236983, 0.06489297, -0.24402662, 0.073208556, 0.009652563, -0.018246017, 0.028255712, -0.1734635, -0.098085396, -0.091175236, 0.077722535, -0.049947582, -0.10141632, -0.050608836, 0.031330105, -0.06322578, -0.039603032, 0.020339908, -0.2113171, -0.09569568, -0.09013804, -0.0063679977, 0.049719755, -0.07587761, -0.24002025, 0.008280401, -0.03454577, 0.009499183, -0.26607254, -0.15367623, 0.028623402, 0.10983033, -0.025713125, 0.06447126, 0.09634884, -0.0756805, -0.090551466, 0.18922314, -0.030842535, 0.05400687, 0.041230164, 0.02630149, -0.05270057, -0.10833042, -0.058795705, 0.052626844, -0.19768605, 0.09547988, -0.026395528, 0.11831277, 0.10248854, -0.14407948, 0.03404339, 0.00821735, 0.07130514, 0.1665527, 0.020565847, 0.0012814857, -0.16957884, -0.013084109, 0.022946443, -0.023239564, -0.014308555, -0.060772166, -0.12132987, 0.07096178, -0.10368187, -0.085882455, -0.16098353, 0.033024628, 0.06979112, 0.14587092, 0.1335024, -0.11450374, -0.1951536, 0.005234244, 0.013689227, -0.039502963, 0.03717308, -0.05839961, -0.03246207, -0.29844734, 0.07201125, 0.052440334, 0.13664402, -0.29713336, -0.006679772, -0.1453667, -0.062315196, -0.096190855, -0.33701086, 0.017541273, 0.052448668, -0.06679386, 0.11203531, -0.0031592066, -0.046568226, -0.18254618, 0.04974427, -0.05815289, 0.09034281, 0.05451188, -0.2641764, -0.041555833, -0.15520637, -0.11358362, -0.16219477, -0.28834385, 0.1418097, 0.11075564, -0.13832493, 0.059488535, -0.010534469, -0.030310841, 0.06410652, 0.02550548, -0.07402103, -0.14995228, 0.039801087, -0.12150011, -0.16679206, -0.14378063, 0.05376404, -0.19230835, 0.016534641, 0.0017757353, -0.07060657, 0.13727237, 0.07406316, -0.062375132, 0.17586257, -0.050167464, -0.006751908, -0.029166266, -0.096165985, 0.14596964, -0.19087027, 0.060907554, -0.15028621, 0.021839092, 0.0596591, -0.06931178, -0.036928214, 0.01851858, 0.15358385, -0.22426897, -0.1476978, 0.018521836, 0.04764844, -0.04771914, -0.23509438, -0.008678826, -0.22313708, 0.046180908, -0.2563128, -0.12545396, -0.22313587, -0.1288294, 0.059214484, -0.13003772, 0.0017920543, 0.057634786, -0.13591838, 0.019704431, -0.11694648, 0.11822741, 0.08486218, 0.081577346, -0.18647689, 0.11255095, 0.011094067, -0.18575908, -0.17518121, -0.15749687, 0.07276102, -0.13026808, -0.24043642, 0.1700305, 0.17627688, 0.024011638, -0.03957129, -0.08181919, 0.07957284, -0.21678865, -0.08580654, -0.03041966, 0.15503006, -0.029721253, -0.043032996, -0.20761168, 0.019978292, 0.29519233, -0.014424571, -0.032201797, -0.01311481, 0.011144693, 0.07728742, 0.01971751, -0.1226064, -0.10974604, -0.1889454, -0.092686266, 0.046155624, -0.090562694, 0.028157797, 0.01707601, 0.043996487, -0.069047995, 0.10412137, 0.20816545, 0.08880703, 0.023030728, -0.12643267, 0.042825747, 0.07652426, 0.0906584, -0.0934795, -0.03545262, -0.08817909, -0.1842402, -0.084187604, -0.15083851, 0.12736632, -0.060810316, 0.088878416, 0.08034882, -0.13762876, -0.10188643, 0.07044958, 0.13791649, -0.268097, 0.07271133, -0.039978, -0.13166536, 0.043412797, -0.26750782, -0.18513204, 0.042295665, -0.011530295, -0.013582145, -0.07981335, -0.037146077, 0.02466097, -0.08011158, -0.05303989, -0.053085174, -0.026310952, -0.09433949, -0.1984723, -0.18780227, 0.15141216, -0.2527058, -0.0062218877, -0.0073456904, -0.01412246, -0.13679928, -0.013434226, -0.078803755, 0.028232297, -0.06729569, -0.01892601, -0.009773524, -0.16802482, 0.06220416, -0.19871716, -0.12785698, -0.12191079, -0.29048672, 0.03298805, -0.1802669, -0.1046721, 0.12927897, 0.01748186, 0.051883683, -0.08733775, -0.014655483, 0.12666121, 0.06392451, 0.10100431, -0.15095164, -0.15093374, -0.1661777, -0.08889851, 0.13985604, 0.060977284, -0.12078074, -0.1202141, 0.12785728, 0.093411505, -0.03612038, 0.029514987, -0.23173231, 0.05617561, -0.0088621825, -0.054815166, -0.030648986, 0.1311796, 0.15103583, -0.22840478, 0.20536909, 0.08623867, 0.011996543, -0.10822843, -0.14551853, 0.07754466, 0.036213838, -0.07776431, -0.081937216, -0.17558761, -0.105098814, -0.08661332, 0.0021931338, -0.042476635, -0.09469473, -0.13325228, -0.26024094, -0.059560645, -0.21462148, -0.10117777, -0.16169064, -0.23756713, 0.04030855, -0.025049191, -0.21952035, -0.054617234, -0.16126256, -0.113030784, -0.11482149, -0.14206499, -0.09533501, -0.13736612, 0.1967621, -0.09299935, -0.13899018, -0.010165324, 0.006903465, -0.116738744, -0.06179494, 0.09660724, -0.106497265, -0.23174572, 0.113200426, 0.11673244, -0.051386554, 0.07914348, -0.041477244, -0.011045468, 0.061269213, -0.06580216, -0.12799634, 0.081439264, -0.046274133, -0.08232864, 0.05097428, 0.0805316, 0.0136886155, 0.014368215, -0.09060968, -0.2107898, -0.074791804, -0.13433395, 0.03185573, -0.07321937, -0.0097055305, -0.009114517, -0.12682743, -0.038888883, -0.060593188, 0.11766509, -0.037424356, -0.103511065, 0.24569026, 0.26787135, 0.14108312, -0.105293795, -0.011637754, -0.17699283, -0.14363341, -0.009477093, -0.020230856, 0.032328125, 0.061882894, 0.012486514, -0.047086023, -0.04887675, 0.12727635, -0.18102519, -0.16486774, -0.27045768, -0.077445805, -0.014329088, 0.045276396, -0.079560496, 0.024654215, -0.16361913, -0.18697156, -0.07106022, 0.05793715, -0.055627543, 0.047954153, 0.31975165, -0.008194607, 0.0675322, 0.07105319, -0.05309297, 0.0052639544, 0.045852873, -0.10098692, -0.23021188, -0.09268353, 0.23984236, 0.065602355, 0.10848712, -0.091435924, 0.16895281, 0.008241407, 0.20051119, 0.018992556, 0.017524565, -0.2526497, -0.24642108, 0.12018515, 0.21235403, 0.046801575, -0.023226872, -0.060144946, -0.17672195, 0.040451225, -0.021005465, -0.2253407, -0.070822746, -0.3248786, -0.23029432, -0.060410425, 0.18269049, -0.09737035, -0.17838837, 0.14041615, -0.090321705, -0.104744695, 0.026586518, -0.21449244, 0.07356968, -0.02927397, 0.07955079, -0.13650815, -0.031054512, -0.124231726, 0.02416284, 0.10803592, 0.08972799, -0.22479662, 0.029432563, 0.16489998, -0.26485318, -0.009542898, 0.003493745, -0.067310445, -0.1311241, -0.31718728, -0.16871794, -0.003784637, -0.20021978, 0.09748383, 0.0860217, 0.07809622, -0.055976313, 0.10109505, 0.061833877, 0.07790355, -0.22947443, 0.030585416, 0.012583109, -0.048049476, 0.068167284, 0.06035829, -0.14699891, -0.1263677, 0.040317394, -0.075662665, -0.03930452, 0.1800505, -0.18513152, -0.10521438, -0.16233592, -0.04427627, -0.39339355, -0.12016042, -0.09141851, -0.26649463, 0.027313512, -0.21353386, -0.104874596, -0.09449005, 0.038493205, -0.03135327, -0.2672772, -0.023382159, -0.0968057, -0.024150359, 0.014033804, 0.03566287, -0.20299329, 0.082416475, -0.06463829, 0.09648373, -0.12570176, 0.048971146, 0.16738892, 0.08885239, -0.19291607, -0.020551713, 0.04616202, 0.024011621, -0.11710975, 0.06604073, 0.15489258, 0.03675264, 0.16354072, -0.09705876, -0.022581674, -0.18065691, -0.07088452, 0.19916385, 0.031664405, 0.044712465, -0.0010042163, 0.1446914, 0.17518379, 0.10271451, 0.05584205, -0.12502651, -0.0074809548, 0.19970661, 0.11516251, 0.115737155, -0.046161365, -0.11579822, -0.29677486, 0.012942985, -0.08078231, -0.13451587, -0.033776082, 0.13472202, -0.061302785, 0.21031903, -0.013534581, -0.21656853, -0.050552655, 0.0796439, 0.13974221, -0.042799022, 0.14139429, -0.2649022, -0.010991756, -0.00033171292, 0.14795211, -0.25035828, -0.03127355, -0.025052758, 0.25958592, 0.107254356, 0.10764348, -0.16032293, -0.18148117, -0.2674941, -0.12768479, -0.16476312, -0.045987014, -0.06772663, -0.20883912, 0.18445061, 0.036587846, -0.3712613, -0.1566816, -0.15262106, 0.20773037, -0.08955646, -0.069645576, -0.14545672, -0.17859523, 0.06960001, -0.0051171076, 0.0578697, 0.06130914, -0.10594279, 0.18919197, -0.119345166, -0.0055454383, -0.20221438, 0.083589815, -0.1780452, -0.106878154, 0.0697881, -0.0044357865, -0.06786738, -0.05539696, -0.039833438, 0.1805625, 0.25456515, 0.24407798, 0.27843815, 0.100038245, 0.15141985, 0.1811345, -0.10465385, -0.1815841, -0.10265713, 0.0758555, 0.046892177, -0.05797328, 0.077627406, 0.04878502, 0.015766881, -0.14233133, 0.14647534, -0.015355543, -0.0041328054, 0.15766416, -0.055511706, -0.069295794, 0.0867219, 0.058057867, 0.03861608, -0.070035346, 0.15361007, 0.05511432, 0.16761018, 0.07307966, 0.011818556, 0.12597096, 0.014423303, 0.041787177, 0.04662074, 0.23717426, -0.0052285804, 0.05212101, 0.11886704, 0.11673497, -0.05486157, -0.062133096, 0.33002862, 0.10958349, 0.06138195, 0.024481928, 0.20901464, -0.2756687, 0.18693663, -0.15366143, -0.009335576, -0.08331011, -0.116854146, -0.015902543, 0.048099976, 0.05232948, 0.04469572, 0.1472716, 0.18187875, -0.1871728, -0.11596568, -0.096423976, 0.20902696, -0.0020664646, 0.0985199, 0.028927257, -0.13821852, -0.32694393, 0.23791079, -0.22163394, -0.072324574, -0.20257066, 0.024074472, 0.20027171, -0.03826241, -0.009307818, -0.06800338, 0.0866056, 0.21309392, -0.041962996, -0.06778044, 0.0731938, 0.16306315, 0.14847569, -0.0227986, -0.06370067, -0.05002727, -0.0710529, 0.04954046, -0.06888501, 0.11665343, -0.0007816228, -0.18717204, -0.20968568, -0.025586009, 0.12066391, -0.03279992, 0.055617508, -0.05190728, -0.20964405, -0.28120658, -0.18851765, -0.15343398, -0.17772488, -0.11356942, -0.19559997, 0.12975216, -0.06118138, -0.267101, -0.21703862, 0.10426396, -0.2494607, -0.08772999, -0.13766216, 0.052492823, 0.096544445, -0.24631685, -0.17506671, 0.0065589743, 0.021998806, 0.18773708, -0.038758125, 0.0022140308, -0.18683828, 0.1406444, 0.12618883, 0.12710112, -0.16333732, 0.04251162, -0.29345727, 0.120588645, 0.025077803, 0.1445754, -0.2215961, 0.14528178, 0.0076992214, 0.3228976, 0.31058642, 0.13355084, -0.2848756, 0.11984249, 0.092923604, 0.022237213, -0.24490935, -0.1232721, -0.037920214, 0.24722354, 0.14408547, -0.1657246, -0.02018713, 0.05834394, 0.035583258, 0.18790922, 0.32415602, -0.111790806, -0.12862787, -0.101557046, -0.0856342, -0.08166473, -0.046790626, 0.08895246, -0.252165, -0.10246536, -0.15668583, -0.1983037, 0.025317652, -0.14737679, -0.32845986, -0.108909875, -0.03364641, -0.10859401, -0.051445033, -0.17396468, -0.19384722, -0.14152007, -0.04808573, -0.030386593, 0.15666385, -0.017610367, -0.11984209, 0.039178547, 0.19960187, 0.13322297, -0.08848465, 0.077008836, 0.13590093, -0.05857166, 0.09758292, 0.047273573, -0.124292076, -0.11721257, 0.2963639, -0.09462243, 0.14693858, -0.062239826, -0.25012854, 0.045578934, -0.22975104, 0.12118708, -0.18281582, -0.13316886, -0.11376462, -0.066491194, 0.03725035, -0.016671877, -0.15299323, 0.016186474, -0.0137303015, 0.10286052, 0.003737298, 0.049772736, -0.13611107, 0.09087254, -0.04573074, 0.043141615, -0.19619913, -0.105034105, 0.17349024, 0.10822941, 0.16472107, -0.085606664, -0.100346185, 0.3276678, 0.07999755, 0.19229345, -0.14532743, -0.1117404, -0.3061869, 0.06353151, 0.09173091, -0.2800021, -0.330799, -0.044109393, 0.02645303, 0.27539483, -0.11736266, -0.12339516, -0.25442013, -0.26880616, -0.11062446, 0.04559873, 0.17136893, 0.2697779, -0.12902457, 0.079664156, 0.027057068, -0.18914811, -0.23197539, -0.20391266, -0.13272795, 0.1306398, 0.014676517, -0.07966338, 0.11112043, -0.056206748, 0.10485472, 0.24581277, -0.14729916, 0.018915083, -0.105917074, 0.12833841, 0.067101985, -0.07183381, 0.15047763, -0.05250944, 0.07819227, 0.229649, -0.0885897, -0.17204069, -0.05831798, 0.008462816, 0.18113221, 0.0049131704, -0.26783758, -0.2511705, -0.065358065, -0.013281908, -0.17548633, 0.062939115, -0.21981329, -0.057973303, -0.08330835, 0.08464673, -0.14845471, -0.01954419, -0.028334362, -0.06977708, 0.34229952, 0.09395695, 0.14692323, 0.19802286, 0.027332915, 0.09463258, 0.008559749, 0.17835164, 0.026489852, -0.08792763, 0.053264, -0.0503065, -0.037882954, 0.30103275, 0.22139814, 0.16815186, -0.054461945, -0.07004126, 0.14229512, -0.022745708, 0.08427399, 0.041300647, -0.020136526, 0.3111569, 0.1385184, 0.14585635, 0.23769121, 0.049219545, -0.028123783, 0.2722623, 0.18606406, 0.10775948, -0.1854414, -0.12655894, -0.20841175, -0.18129215, 0.070210174, -0.19031161, 0.030749418, 0.20599765, 0.14895162, 0.18156214, -0.06412109, 0.21545874, -0.088730566, -0.08466197, 0.01130964, 0.1311024, -0.038875993, -0.033548474, -0.004366954, 0.021468002, 0.15030977, -0.20185852, -0.009082903, 0.014014365, -0.0049413736, 0.14432977, 0.35767725, -0.14356081, -0.102171496, 0.11708003, -0.12027045, 0.007843842, -0.15957572, 0.030152265, -0.15393165, -0.25729573, 0.12929997, -0.017122215, -0.112199865, -0.07699501, -0.082944244, -0.13944562, 0.14012279, -0.059405185, -0.09086909, -0.03974972, 0.18097354, -0.083427444, 0.13204287, -0.007423621, -0.13241038, -0.0648745, -0.051806893, 0.065504245, -0.11501133, -0.11567861, -0.14791422, 0.12615547, 0.020758955, -0.04191055, 0.03395211, -0.15903856, -0.079349615, 0.04727282, 0.048774812, -0.010598867, 0.08015059, -0.1342653, 0.092537165, -0.037980363, 0.047331493, -0.12446158, 0.14664115, -0.023798203, -0.07751109, 0.19598363, 0.17663498, -0.022887416, 0.1256837, 0.1184286, -0.06915743, 0.07709493, -0.20202938, 0.014524954, -0.05021786, 0.001173784, -0.26595995, -0.06596702, 0.15374282, 0.0044278055, 0.0035910686, 0.03309516, -0.26143017, -0.03661764, -0.023728982, 0.03378615, 0.14858295, -0.08284056, -0.025708187, 0.023646893, 0.04295623, -0.1750024, -0.18014558, -0.0078822095, -0.053069275, -0.028372573, -0.09633668, 0.0632015, -0.0048617236, 0.06542836, -0.05090741, -0.047177877, -0.21657968, 0.12287176, -0.20752501, -0.10412872, 0.080122866, -0.049820293, -0.32552257, -0.05901209, -0.088306345, 0.20666222, -0.030806525, 0.13279045, -0.15879628, 0.08783774, -0.08151759, 0.039490305, -0.30961952, -0.09203447, -0.18065001, -0.198046, -0.15212373, -0.3800149, -0.30925372, 0.0029712494, 0.025809044, 0.024982838, -0.05251347, -0.050423194, 0.084700435, -0.04048729, -0.037160058, -0.03748961, -0.34907618, -0.052268155, -0.068495035, -0.2664091, -0.28333807, -0.41519794, 0.074485816, -0.05426995, -0.059455574, -0.12298566, 0.30743533, -0.20851882, -0.035829138, 0.025473848, 0.14129327, 0.17540847, 0.00020384797, -0.044353742, 0.029368505, 0.049278997, -0.11351849, 0.12246232, 0.051164325, -0.006517989, -0.0033232071, 0.018362276, 0.04635025, 0.025661001, -0.15350176, -0.012662814, 0.18209143, -0.21550272, 0.018570915, -0.06717008, -0.0055360594, -0.06782629, 0.05376346, 0.14071515, -0.05816228, 0.17556977, 0.011830297, 0.09741315, -0.18578109, 0.010491045, -0.1584766, -0.04345644, 0.024314627, -0.016200133, -0.031013932, 0.03918836, -0.11498106, -0.18143933, -0.04224984, -0.22830908, -0.0048956536, -0.19673803, -0.18337217, 0.043466885, 0.042564075, 0.06607773, -0.26816273, -0.101415455, 0.17577799, -0.23083507, 0.052267138, -0.09762241, -0.16772416, 0.04470983, -0.15539654, 0.038523197, -0.30194032, -0.00023596507, -0.06710786, -0.017283635, -0.03554942, 0.07786496, 0.03382452, -0.10768748, -0.16162287, -0.26196578, -0.003098917, -0.003024883, -0.05824828, 0.06691624, -0.059188876, -0.11528372, -0.2848582, -0.25407556, 0.09347295, -0.18776602, 0.06991116, -0.420525, 0.045260582, 0.00527391, -0.059007335, 0.019422729, 0.1566283, 0.057188593, 0.042962387, -0.1362962, 0.09663968, -0.019126544, 0.021573793, -0.11723305, -0.17259447, -0.0886919, -0.0008749053, 0.0487703, -0.022720102, 0.2042495, -0.06237072, 0.022868702, 0.16862676, 0.1577428, -0.07730746, -0.2889832, 0.15132008, -0.2463367, 0.06444389, 0.08390123, 0.12682031, -0.041749306, -0.09055533, 0.29994312, -0.19863342, -0.14916626, 0.04228108, 0.1587354, -0.100256346, 0.008269305, 0.0060312753, 0.009690453, 0.036534004, -0.04450532, -0.15662839, -0.29326668, 0.04667652, -0.02371416, 0.0043367054, 0.072056875, -0.19813791, -0.20164189, 0.04127272, 0.06842471, -0.23937823, -0.032890696, 0.097526826, -0.053508688, -0.22890005, -0.12762713, -0.21076056, -0.11001968, -0.26672465, -0.12510899, 0.056988634, 0.04209284, 0.022298543, 0.0894487, 0.096172705, -0.1106798, -0.0029753938, -0.17555691, -0.17414431, -0.21359587, 0.17339662, -0.22850674, -0.060238257, 0.14934534, -0.11496053, 0.11758528, 0.11574417, -0.038463358, -0.11781735, -0.055461023, 0.1301412, -0.016003547, -0.12102773, -0.15516755, -0.004758773, -0.110515036, -0.26683757, -0.10003405, -0.20112616, 0.054111652, -0.020522658, 0.016224366, -0.023049358, -0.033653907, -0.082966454, -0.23747346, 0.14294998, -0.13115603, -0.066859156, -0.037226893, -0.19934319, -0.13652216, -0.005006168, -0.09818926, -0.2017677, -0.17275354, -0.032016333, -0.09757492, 0.0045391098, 0.013445415, -0.0028423986, -0.05653158, 0.15919408, -0.1497501, 0.00028310425, 0.027704852, -0.017752383, -0.08825602, 0.002524894, -0.010541338, -0.17540368, 0.04419922, -0.0699473, -0.06776462, 0.062955886, -0.040391445, 0.10446129, 0.034605537, -0.06496741, 0.13572893, 0.13407764, 0.007154593, 0.0013672181, -0.050622858, -0.0066369902, 0.004933064, -0.16572157, -0.14825706, 0.045208912, -0.11511219, 0.0975312, 0.04232965, 0.10782622, -0.23610231, 0.13768041, 0.04141547, -0.004910962, 0.068989746, -0.1877775, 0.057383306, -0.1311877, -0.19957991, 0.014310819, -0.25950605, -0.10403288, 0.0055698818, 0.12900239, 0.23436184, 0.014002671, -0.10073856, 0.0613686, -0.16791585, -0.21608669, -0.20409553, -0.117245086, -0.15453796, 0.08531094, 0.11104488, 0.0011311066, -0.071983434, 0.10920505, -0.17528723, -0.0040679276, -0.028452698, -0.14992581, 0.12548158, -0.017137816, -0.07055997, 0.039303213, 0.17534207, 0.020748032, 0.26772064, 0.013817199, 0.026628422, -0.09920362, 0.032196604, 0.19142719, -0.036817264, 0.18121867, -0.1320695, 0.019888315, -0.059390068, 0.08435989, 0.05210575, -0.033644028, 0.1416232, 0.13490725, 0.022224654, -0.14537397, 0.06495579, 0.05340146, -0.013263475, -0.13505057, -0.032142803, 0.11237301, 0.0059006815, -0.19141942, -0.12521979, 0.09523721, -0.15593186, -0.204966, -0.023074808, -0.19658656, -0.23298916, -0.011868289, -0.1442376, -0.24666186, -0.3089028, -0.11093958, 0.1826348, 0.0044961604, -0.00066472264, 0.019190399, -0.13644001, 0.04642938, -0.10894514, -0.0025458902, -0.018074049, -0.39964584, -0.38898748, 0.026401265, -0.29984888, -0.082787365, -0.14062305, 0.11756219, 0.0063492884, 0.020729925, -0.047007844, 0.07790996, 0.084212616, 0.18176442, -0.05210271, 0.013241887, 0.1309115, 0.083784685, 0.008972924, 0.079397656, -0.078602344, 0.027079022, 0.12610114, -0.027594108, 0.11287179, 0.004693707, 0.15509492, 0.029880561, 0.07831887, 0.01419563, 0.14181748, 0.14622648, 0.10116885, 0.07311583, -0.082878076, -0.22590916, -0.15404047, 0.014458224, 0.004732644, -0.15605132, -0.29034087, -0.0715695, 0.10932966, 0.025102476, -0.07171433, 0.026951062, -0.09242692, -0.13564683, -0.054506697, 0.08714437, -0.026196979, -0.076065086, 0.04131748, 0.08770032, -0.13435765, 0.06545978, -0.12205456, -0.17683274, -0.07059231, -0.26119754, 0.05754967, -0.0088422, -0.08755337, 0.04643597, -0.0419838, -0.24922507, -0.16281347, -0.046384882, -0.11028892, -0.26338932, -0.22465569, -0.013452862, -0.041668423, 0.014543102, -0.09363176, -0.20355855, 0.15354654, 0.1996539, -0.012734932, 0.07553037, 0.06981136, 0.12427776, 0.2212414, 0.048546657, 0.17201789, -0.017957272, 0.05982357, 0.2008933, 0.03723695, 0.026448812, 0.15129822, 0.092977084, 0.10737485, 0.060619224, 0.010165159, 0.1779124, 0.12554981, -0.0023148435, 0.15971681, -0.012053539, 0.18226951, -0.007932751, -0.035521805, 0.115866594, -0.0015668655, 0.05125909, -0.057993572, -0.06103521, -0.16349927, -0.047040332, 0.021159658, 0.11745486, -0.115489155, -0.05384747, -0.06696904, -0.21016496, -0.059164334, 0.0024237698, -0.05903644, -0.22490281, -0.19293287, 0.06816106, -0.009701109, -0.10618196, 0.05661436, -0.07602565, -0.14934191, -0.034435693, -0.27832496, 0.08196845, -0.15493457, 0.022540279, 0.015613003, -0.0016026994, 0.21183524, -0.057556894, 0.16212252, 0.08712462, -0.21940953, -0.24415177, -0.16613998, -0.03575992, -0.08403225, 0.044614375, -0.043462154, -0.24141012, -0.26675728, -0.17641072, -0.085396305, -0.19066398, 0.0025248858, -0.13369733, -0.14228114, -0.0566023, -0.104544275, -0.12065441, 0.08860436, 0.1657811, -0.046738453, 0.22164147, -0.10386592, 0.07146443, -0.015155649, -0.2895462, 0.030299077, -0.014070573, 0.10313304, -0.010395462, 0.090667754, -0.0016160399, 0.07651004, -0.25060138, 0.07071779, -0.12733519, 0.0028660388, -0.30797538, 0.21384925, 0.05875969, -0.046995174, -0.13324267, -0.13293123, 0.07887456, -0.013653029, -0.10966295, 0.15653381, 0.043411978, 0.052939843, -0.003387183, -0.14372922, 0.1935148, -0.15409367, 0.04269586, -0.06498958, -0.13415082, -0.17338173, -0.16774759, -0.06883361, 0.007621397, 0.13234521, -0.12519513, 0.07891324, 0.14103498, 0.19273132, -0.07669324, -0.20431232, -0.08416572, -0.09388307, 0.05487715, 0.13812128, -0.06478722, -0.11779499, -0.12281086, -0.013959534, -0.118121825, -0.29040435, 0.07192425, -0.12168886, -0.030121943, 0.018889185, -0.0084533105, 0.06650549, -0.1719963, -0.1880265, 0.0037569408, 0.0051064887, 0.13924783, -0.06577507, -0.21310852, -0.052391376, -0.020224957, -0.020027334, -0.06356773, -0.11719248, -0.07464378, 0.20779033, -0.059472423, 0.03274338, -0.111197256, -0.12190684, -0.17377791, 0.039543245, -0.12813324, -0.07009033, 0.043165978, -0.1042684, -0.033882167, 0.03664398, 0.17364953, 0.00716337, -0.06290539, -0.0161342, 0.14101431, -0.16695829, -0.021453645, -0.06860605, 0.04872357, 0.063707255, 0.08307647, -0.1722887, -0.23341066, -0.019193731, 0.06930665, -0.15570013, -0.31533733, 0.02585821, 0.12398739, 0.032693435, 0.021525443, 0.108973004, 0.16222963, 0.007115475, 0.062093865, 0.058416173, -0.05331167, -0.10202978, 0.022552077, -0.02609455, -0.11728386, -0.04513207, 0.107973136, 0.17707965, -0.12678029, 0.08993918, -0.42443398, -0.088926114, 0.07626047, -0.191013, -0.22646733, -0.15883826, -0.06225976, -0.21616404, -0.01655087, -0.19950335, -0.051176306, 0.11151237, -0.13586415, 0.008952908, 0.13006707, -0.2092496, 0.35443148, -0.1679581, 0.033034995, -0.14982276, -0.023702832, 0.027100997, -0.31800163, -0.1851726, -0.046520628, -0.37875214, -0.045628093, -0.07396776, 0.040744733, -0.01671278, -0.08526327, -0.10634798, -0.12920414, 0.07512124, 0.21266809, -0.10512702, -0.115125366, 0.058875322, 0.06318217, 0.02533364, -0.04205203, 0.07566949, 0.116201736, 0.099924155, -0.0416269, 0.28295183, 0.1765285, 0.1227622, -0.01913088, -0.07848398, 0.097251564, 0.06328302, 0.03762034, 0.16656297, -0.118962444, 0.1146038, -0.023854505, -0.21370403, 0.004027716, 0.058052186, -0.0019221415, -0.021498054, 0.20278537, -9.6728865e-05, -0.19470936, 0.02107495, -0.044688236, -0.07887624, -0.2363772, 0.04237876, 0.03845522, -0.050546795, -0.12669234, -0.019285481, -0.27470312, 0.043782927, -0.03971256, -0.0799286, 0.06677905, 0.024690647, -0.17148124, 0.083667405, -0.09101431, -0.22222795, 0.01093358, 0.00041603335, 0.027796298, -0.19140121, 0.031330712, 0.07536284, -0.09191734, -0.012261792, 0.063615546, -0.030316336, 0.078740545, 0.16793795, 0.2662641, 0.0718202, 0.0716673, 0.071896695, -0.046005525, -0.053217035, 0.07384975, -0.021230584, -0.07066071, 0.03465836, -0.015001652, 0.04562799, 0.078882605, -0.006731058, -0.029342681, -0.18074907, 0.060335204, -0.22590795, -0.1726809, -0.12814948, -0.094185375, -0.11135062, -0.046274535, -0.15227468, -0.14972472, -0.083765894, -0.08573855, -0.15247934, -0.25967115, -0.067079425, 0.05257963, 0.047137942, 0.3613477, 0.22746992, 0.07235947, 0.3033978, 0.033703357, -0.043538835, 0.03864557, 0.023060633, 0.10732212, 0.088180125, 0.12217623, 0.18324728, 0.11141408, 0.18450367, 0.1832982, 0.08591477, -0.3116805, 0.040344514, 0.040035892, -0.26094672, -0.13627008, -0.18771285, -0.10606949, -0.05442376, -0.021619987, -0.14473274, -0.09622988, 0.16005474, -0.05354345, 0.0520692, -0.096746564, -0.08513349, -0.107640274, -0.18876852, -0.10742281, 0.17748886, 0.06188666, -0.04370491, -0.3140088, -0.009869969, -0.16260678, 0.28831738, -0.11920632, 0.08988164, 0.0003388232, -0.09379806, 0.01331429, 0.19642131, -0.034347106, 0.10028983, 0.11874382, -0.055823058, -0.23225564, 0.0496669, 0.023086725, 0.020168442, -0.0034386762, -0.19813423, 0.011626924, -0.022098899, 0.08157515, -0.14899781, 0.07432188, -0.06271776, 0.041301962, -0.0028167192, 0.12620316, -0.08751098, 0.18851551, -0.06938931, 0.035222113, -0.19553564, 0.04545498, 0.22534792, -0.082208484, -0.024177989, -0.15115285, 0.019554751, 0.24445072, 0.1404029, -0.25326917, 0.02802032, 0.17864926, 0.17851679, -0.28327182, 0.06515662, -0.12524062, -0.033617966, -0.19590718, -0.22546232, -0.23856038, -0.022098757, 0.09024204, 0.015936533, -0.014824271, -0.062884554, 0.026275575, -0.012189771, -0.015546937, -0.12258584, -0.07395512, -0.03747638, 0.08821548, 0.017742364, 0.08815701, 0.033064168, 0.028258279, -0.0274921, -0.12904067, -0.057696845, -0.22918624, 0.106659904, -0.090178, 0.089674145, 0.00046841835, 0.05096847, 0.18883225, -0.11771249, -0.2342991, -0.30686387, 0.13594544, -0.21336123, -0.20946562, 0.013898917, 0.08970679, 0.06823204, 0.050281525, -0.16796157, -0.26373675, -0.0015507576, -0.008842936, -0.02419492, 0.057870977, -0.12217732, -0.08199593, 0.05034698, 0.06156251, -0.17092796, -0.21459578, 0.0756546, -0.101536, -0.054087285, -0.04162501, 0.095304236, -0.01930859, -0.23247062, -0.19197883, 0.014754141, -0.10969332, 0.122303806, -0.13189009, -0.12921531, -0.09210072, 0.10761917, -0.061298497, -0.12630278, 0.031691678, 0.04374948, -0.32133332, 0.15899582, 0.020947563, 0.043458212, -0.06308145, -0.104916476, 0.02919697, -0.0636435, -0.11640175, -0.10157594, -0.036832113, -0.14759529, -0.067149475, -0.12805992, -0.01530183, -0.043706078, -0.01056746, 0.062404767, -0.022153758, -0.047425337, 0.14660327, 0.03346364, 0.041113675, -0.06545613, 0.071878105, -0.07100921, -0.09169925, 0.07456811, -0.12485571, 0.19409579, 0.0013011091, 0.17664291, 0.08829142, 0.09369751, -0.027878398, 0.05773996, -0.021776332, -0.06533924, -0.08674659, -0.031581905, -0.10439181, -0.075688615, -0.1787864, -0.09065723, 0.035792816, 0.035397455, -0.11054844, -0.0031364674, -0.059160065, 0.07340619, -0.052359764, -0.040579427, 0.009189581, 0.09178496, -0.1253758, -0.18668817, -0.09024744, -0.13694733, -0.072189815, 0.0634836, -0.19268364, 0.018119277, -0.10870266, 0.08388403, 0.027000789, -0.11699485, -0.14176604, 0.051065855, -0.012687009, 0.09783084, -0.13900027, 0.06951355, -0.07177328, -0.039346687, -0.07678206, -0.061988488, -0.01981841, 0.029275957, -0.02161917, 0.07133464, -0.09090022, 0.15607634, -0.06927554, -0.07479876, -0.06795818, 0.002668237, -0.04163626, -0.009298096, -0.104832456, -0.20761566, -0.19083767, -0.018466303, -0.09205622, -0.067975655, -0.0028270695, -0.00991613, -0.00029008492, 0.100696765, -0.17269342, -0.038834497, -0.026082529, -0.029599976, -0.019160459, 0.14825073, 0.01711627, 0.070930466, -0.1151107, 0.0053974073, -0.071441926, -0.02750435, -0.002574632, 0.058070518, -0.18908787, 0.046678983, -0.010180739, -0.01709921, 0.119206764, -0.07025998, -0.22016595, 0.0001676788, -0.025699554, -0.24847606, -0.09670182, -0.097719066, -0.17923386, -0.13232148, 0.051609617, -0.061901823, 0.027681423, 0.15757576, 0.15000999, 0.08516455, 0.08001274, -0.06983295, 0.022321843, -0.118541986, 0.0044810027, -0.04702003, -0.095831454, -0.028595962, 0.09244868, 0.16782534, -0.08571425, 0.056983195, 0.11295005, -0.03604436, 0.064479895, 0.003541325, -0.016386965, -0.044644684, -0.14254509, -0.200442, -0.28562602, -0.26766142, -0.0004678575, -0.15418543, -0.06879788, 0.17009781, 0.04220609, -0.0642121, 0.15453918, -0.062966004, -0.14573942, -0.053863816, 0.082658626, 0.08827283, -0.23989102, -0.0691857, -0.08112485, -0.060828846, -0.14813735, -0.2626628, 0.021902898, 0.022328556, -0.016280685, 0.15592875, 0.25324824, 0.0321609, -0.32959622, -0.1734917, -0.14845644, 0.032820392, -0.104086734, -0.043091927, 0.06334272, -0.24349076, -0.1282266, -0.10208013, -0.23635703, -0.13953915, 0.021823678, 0.021339174, 0.15125471, 0.08364908, -0.051919863, -0.15664771, -0.17458239, 0.0031456773, -0.0009447994, -0.1157286, 0.09706434, 0.11916433, -0.119147375, -0.112486005, -0.05330774, -0.049553674, -0.062947735, 0.03195812, 0.09009351, 0.18354201, 0.038339674, -0.0066247266, 0.04440795, 0.06130204, -0.06906386, 0.103386596, 0.09990084, 0.048873562, -0.044750858, 0.009790355, -0.015775383, -0.04296621, 0.1413065, 0.052357484, -0.011329541, 0.00790183, -0.15077552, -0.21602066, -0.025695618, 0.15408663, 0.02527053, 0.13433509, 0.002955351, 0.011478949, -0.25531355, 0.12547828, -0.26711693, 0.03531696, -0.01477509, 0.0235164, -0.25692788, 0.11477435, -0.2062178, 0.06427912, 0.2347032, 0.0012782053, 0.19057292, -0.07242057, -0.02177279, 0.00306216, -0.055886816, 0.0035793108, 0.034618974, 0.18164518, 0.042619247, 0.1024079, -0.09386489, -0.012804297, -0.026600996, -0.05721116, 0.003566191, -0.17790583, -0.13482104, -0.28238508, -0.31895256, 0.10973779, -0.06635269, -0.08369517, -0.06485213, 0.13252747, -0.027992453, 0.045645516, 0.24391694, -0.0957148, -0.11941997, -0.08839131, -0.028832363, -0.2206406, -0.086929694, -0.11289261, -0.19707699, 0.04275944, -0.053058907, -0.19973403, 0.013746768, 0.16294903, 0.0010732248, -0.22689344, -0.03937703, -0.11212202, -0.09728872, -0.09066045, 0.18886463, -0.063587934, -0.15651265, -0.04504814, -0.052952785, -0.08716295, -0.15076694, -0.06023151, -0.08525352, -0.06900297, -0.16375025, 0.094544746, -0.06805164, 0.089729175, -0.13943122, -0.09981052, -0.13632493, -0.07366473, -0.23518178, 0.20421448, -0.15723506, -0.0489729, -0.04746599, -0.16198707, -0.035574324, 0.0023672467, -0.019708766, -0.1081873, -0.014270787, -0.024084615, -0.11926975, -0.0053653386, -0.042939167, 0.07523882, -0.24661602, 0.16951539, -0.19051535, -0.19828911, -0.02404209, -0.210867, -0.1888888, -0.07200439, -0.06704411, -0.24886079, -0.025603173, -0.0007223587, -0.22285187, 0.047613777, -0.06229562, -0.03744396, 0.030675843, -0.16609085, -0.23421822, -0.044011135, 0.09908421, -0.14508025, 0.03249612, -0.06468204, -0.05607843, 4.980321e-05, 0.028126076, -0.055654258, 0.013700556, 0.08595954, 0.12719773, 0.122108035, -0.079419635, 0.09436938, -0.23089549, -0.1795658, 0.10393275, 0.07944634, -0.18276359, -0.010708372, 0.15901269, 0.066348806, -0.17530958, 0.037596256, 0.031523593, 0.080402546, 0.05377859, 0.0017508303, -0.05778185, -0.11130122, -0.13386306, -0.2494481, 0.052423526, -0.03760388, 0.12317662, 0.18744802, 0.11318603, -0.11697822, 0.09382813, 0.13770415, -0.08357177, 0.04006558, -0.088227145, 0.15126806, -0.04142442, -0.02420519, 0.04292107, -0.116179705, 0.013419716, -0.1637299, -0.10070483, 0.10992255, 0.038442794, 0.0763787, 0.09880366, 0.04638472, -0.08095278, 0.008131372, 0.19049522, -0.003114559, -0.0946587, 0.17150602, -0.025992552, 0.05170678, -0.014016503, 0.10677874, 0.038504988, 0.15258458, -0.072414815, 0.09206689, -7.743606e-05, 0.1715517, -0.15626037, 0.13492225, 0.036838334, 0.0070890775, -0.09791274, -0.15452974, -0.04966679, -0.15729927, 0.060179103, -0.020794189, -0.16362183, -0.0018741945, 0.037448354, 0.060008448, 0.07722095, 0.067599274, -0.08029661, 0.06590746, 0.16112429, 0.17142338, 0.024308866, 0.01906632, -0.09610975, -0.094691865, 0.06624297, 0.0022446502, -0.045637317, -0.079335965, 0.08746405, 0.019419651, -0.016228214, 0.0455633, -0.20748052, -0.020841323, -0.026393924, 0.043188315, -0.123690985, 0.114932194, -0.16946225, 0.0349688, -0.27599913, -0.44396147, -0.019124145, -0.03740913, -0.084019676, 0.059515458, -0.07690272, 0.16545959, 0.017590685, 0.059821893, 0.033494055, -0.03860838, 0.021097787, -0.115251005, -0.056792397, -0.10330683, 0.2101085, 0.027893882, 0.023562247, -0.08181427, 0.23490076, -0.09680505, -0.11355322, 0.025631892, -0.25865003, -0.109653525, -0.15712199, -0.13936318, -0.03968247, 0.0707236, 0.0052683027, 0.06289396, -0.1107278, -0.1359189, -0.1683968, -0.17904317, -0.04164435, 0.1452181, -0.029080084, 0.090304606, -0.21377459, -0.021486176, -0.11405244, -0.038093705, -0.20172757, 0.031317707, -0.034447324, -0.024579227, -0.12993385, -0.028634012, 0.087442935, 0.12437401, -0.0022557708, 0.11637088, -0.061003022, 0.010880922, 0.033176288, -0.014995068, -0.07912449, 0.11858447, -0.041776005, -0.03403592, -0.08634815, -0.21348864, -0.012053859, 0.030484356, -0.13954619, 0.13710742, 0.008487505, -0.14861682, 0.092092484, -0.25264466, -0.2865032, -0.26967615, -0.07585744, -0.28713122, -0.0798911, -0.060804576, -0.12588565, 0.07508743, -0.27486655, -0.11069702, -0.11450812, -0.012568968, -0.04645146, -0.12355972, 0.19337913, -0.07596219, -0.06031901, -0.080889225, -0.05561205, 0.040394004, -0.015636623, 0.0065098777, -0.06676565, -0.2603649, -0.12094004, -0.14103766, -0.0058238367, -0.019252485, 0.024854869, -0.05746586, -0.08223575, -0.025063891, -0.01789224, -0.06734394, -0.049805105, -0.09405595, -0.013968425, -0.16058724, 0.012040706, 0.06560778, -0.073968105, -0.012611708, 0.0565967, 0.02054752, -0.14810692, -0.18598717, 0.11975217, -0.099531665, 0.061647844, -0.03554823, -0.10240872, 0.13335072, 0.014426161, -0.005549035, -0.0764198, -0.010813969, -0.16200581, 0.08502945, -0.18499163, -0.08021099, -0.06908843, 0.013857924, -0.020211866, 0.019845074, -0.13737386, -0.18116792, -0.1194139, -0.08160991, 0.042913083, -0.056148425, -0.111401, -0.21040358, -0.16947125, -0.2542207, -0.20701525, -0.035306696, -0.05401821, -0.17616223, -0.026536724, -0.15475024, -0.05127378, 0.14936195, -0.10264509, 0.15703832, 0.11406886, -0.047906876, -0.011449188, 0.09407169, 0.077415206, -0.10157005, -0.13522191, -0.012140611, 0.12339589, -0.03616697, -0.051628564, 0.124105185, 0.0065997764, -0.08730254, -0.2143883, -0.056061752, -0.1577353, 0.008292064, 0.07540011, 0.08399285, -0.092239596, 0.043851152, 0.16964975, 0.09183278, -0.08002845, 0.07137343, 0.15500522, 0.008683704, 0.12043519, -0.04624908, -0.19637246, 0.00047972062, 0.08373478, 0.07617984, -0.09751664, -0.091634884, -0.084080204, 0.05869743, -0.07675515, -0.20605144, -0.0065516927, -0.06551973, 0.012439521, -0.020893907, 0.058166776, -0.086788386, 0.029765554, -0.17924708, -0.07663368, 0.13810903, 0.13779554, 0.06391166, -0.092066206, -0.037857767, 0.065951005, -0.1581492, -0.18171003, 0.06648476, 0.11474256, 0.06459913, 0.02600198, -0.06792615, -0.13327324, 0.12567466, 0.220496, 0.07972447, 0.033073977, -0.12627901, -0.211099, -0.09403401, -0.034954786, -0.24966751, 0.17967336, -0.03329831, 0.102524646, 0.051771786, -0.043204375, -0.028557481, -0.018539239, 0.107535094, -0.09529593, 0.06471489, 0.028507112, 0.07099883, 0.09503655, -0.05311719, 0.08095717, 0.23454988, -0.1433655, -0.16333985, -0.05520927, -0.010037377, -0.095355056, -0.06125756, -0.12165902, 0.06349941, -0.028956665, 0.0038652355, -0.014195253, -0.07868873, -0.06002509, -0.2710415, -0.0018776691, -0.04121965, 0.042740285, 0.015076966, 0.0872287, 0.123903014, -0.09348269, -0.13116002, -0.08156203, -0.2040703, 0.027768366, -0.061850887, -0.13460661, -0.024182202, -0.080408804, -0.12640749, 0.066899404, -0.0019020946, -0.066490024, -0.00677067, 0.17762448, -0.15766835, -0.096539974, -0.13471869, 0.16212243, -0.00031582944, 0.12761916, 0.20880243, -0.01690108, 0.00040092296, 0.069159865, -0.17655091, -0.12517458, -0.19794343, 0.1673991, 0.031565364, -0.20653419, 0.20389178, 0.05135057, 0.009303281, 0.056753773, -0.04988808, -0.026520383, 0.026738364, 0.021956334, 0.09811138, -0.113822296, 0.12348064, 0.0656702, 0.016818615, 0.122239515, 0.17444101, 0.050526537, 0.059986852, 0.011298931, -0.19027315, -0.1949823, -0.12382085, 0.1085946, 0.14388773, -0.0045247604, -0.0123057775, -0.08594542, -0.04879906, -0.009741986, 0.11279053, -0.03673173, -0.029608563, -0.068116374, -0.031983435, 0.022595573, -0.09465775, -0.18503124, -0.03632865, 0.022997271, -0.037787568, -0.0052896547, 0.08325231, -0.04940394, -0.10199573, 0.11510234, -0.03184127, -0.11206898, -0.025946876, 0.1079168, -0.067168176, 0.025679002, -0.052819572, -0.09371478, -0.067895696, -0.021055058, -0.10276155, -0.25846544, -0.101114064, -0.28491002, -0.17514403, -0.09005726, 0.08766706, -0.16333783, 0.042474356, 0.039706856, -0.06867629, 0.020866327, -0.040595625, -0.08968652, 0.13693824, 0.005274105, 0.1601245, -0.28091416, -0.1777679, -0.110477336, -0.034613978, -0.055877034, -0.08657437, 0.069294654, 0.04917238, 0.007417575, -0.04552762, 0.009408651, -0.024912674, 0.025306724, -0.12420119, 0.0136156995, 0.06344772, -0.15370417, -0.091273524, -0.18366425, -0.025459101, -0.0860623, 0.027785981, -0.031139478, -0.0047855517, -0.016885541, -0.052824873, -0.09123157, 0.051304232, -0.09877798, 0.016658599, 0.20871143, 0.22550142, -0.035039116, 0.063877255, -0.18509594, -0.016903076, -0.08813909, -0.051648423, -0.058989976, 0.028758563, 0.17646065, 0.103638895, -0.058805574, 0.012963724, -9.209679e-05, -0.044841763, 0.11232604, 0.07175023, -0.037338592, 0.109328054, -0.049952343, -0.04149687, -0.093312375, -0.06863005, -0.029237444, -0.06180295, -0.09925168, -0.11535937, -0.077909864, -0.022538178, 0.04527453, 0.10996099, -0.0898338, -0.07293482, -0.07319254, 0.014468259, -0.06547043, -0.048338946, -0.07397093, -0.012722689, -0.066206835, 0.010640221, 0.22458652, 0.05638846, -0.11148965, 0.048038132, -0.067177445, -0.09127092, -0.018411823, -0.07433377, -0.16837329, 0.11703475, 0.11174794, 0.06304448, -0.093713015, 0.07214602, -0.12728135, -0.12663028, 0.053904314, -0.017897742, 0.03165826, -0.023284359, 0.0030631556, 0.036798026, 0.026852198, 0.017924715, 0.023179548, -0.026956014, -0.085676625, -0.080627725, 0.050708216, 0.0413429, -0.038414493, -0.06814637, 0.017979937, 0.022291098, 0.11113962, 0.18080792, 0.0030039353, 0.053801987, -0.010966707, -0.08940345, 0.018182108, -0.03388943, -0.025981883, 0.07779253, -0.09367798, 0.12319771, 0.0412398, 0.097674094, -0.013407305, 0.043743417, 0.18549334, 0.066667065, 0.0146282455, 0.19855136, -0.114286646, 0.0853435, -0.03693535, 0.005429209, 0.15626578, 0.04883726, 0.063326634, 0.19486889, 0.04799723, 0.19321404, 0.010145084, 0.15187617, 0.108675644, 0.027250085, -0.018358847, -0.016253248, -0.20270412, 0.13226292, -0.011202572, -0.0097412085, 0.052069597, -0.20747747, -0.18479176, 0.1233194, 0.00073631876, 0.021973677, -0.009226981, 0.060890596, -0.18915923, -0.0035813763, -0.0006694916, -0.1231873, 0.014760305, -0.056571893, -0.13900873, 0.10875153, 0.048423756, 0.15162025, -0.16371843, -0.09231426, -0.065240085, 0.0039579473, 0.011985802, -0.098100215, -0.1687389, 0.028775675, 0.106993206, 0.12416466, -0.10717667, 0.039032098, -0.045801684, -0.017415352, -0.006176485, 0.1401153, -0.14636478, 0.030724296, -0.13426712, -0.035889514, -0.10299545, -0.019881833, -0.12056723, 0.09113855, 0.0130161, 0.16553889, 0.043450054, -0.04572276, -0.089069724, 0.25758973, 0.16557594, 0.06774046, -0.0326375, 0.22575772, 0.13317391, -0.011924249, 0.034024965, -0.050890673, -0.022268305, 0.18154058, -0.00037517678, -0.021105684, 0.1433408, -0.05982515, 0.11291436, 0.11193896, 0.0032807281, 0.24199976, 0.1388124, 0.18436278, 0.09945828, -0.0690685, 0.1888764, 0.08814195, -0.040186245, -0.11761271, -0.26722187, 0.12136434, -0.26609817, -0.02504194, -0.049842797, 0.12778452, -0.14600936, -0.005453175, 0.10005483, -0.06969191, -0.20308872, -0.013485195, 0.15755734, -0.1205911, -0.07590594, 0.004408328, -0.03507352, 0.020348568, -0.121493176, -0.17016016, -0.0835534, -0.34173897, 0.046316344, 0.040658064, -0.15916435, 0.05124265, 0.14189894, -0.09117628, -0.16394787, -0.092655115, 0.013278241, 0.028374752, 0.028351925, -0.003872639, -0.023186363, -0.1023239, 0.08194067, 0.077371836, 0.013935382, 0.04414914, -0.03751879, -0.018469932, -0.10103701, -0.07841855, -0.17005455, -0.07969157, 0.06547488, 0.088336036, 0.0939086, -0.090374276, -0.06386809, -0.12266075, -0.061569482, -0.046066955, 0.09029544, 0.057614494, -0.11626257, 0.08993428, -0.1198174, -0.03713076, -0.013389104, -0.098770455, 0.15756187, 0.09555476, -0.036144473, 0.153855, 0.027677204, -0.012487456, -0.11696344, 0.058552396, 0.26322293, 0.015282386, 0.14319962, -0.008868158, 0.012544696, -0.047585264, 0.029391998, -0.062214494, -0.13754037, 0.036157377, -0.0078014843, -0.114915974, -0.004300869, -0.1798937, -0.06726518, 0.018934859, 0.086004086, 0.143429, -0.024968192, -0.016708028, -0.015988356, -0.047146965, -0.20861934, 0.08004245, 0.17385273, 0.0004693651, -0.080187, 0.13897634, 0.07102179, 0.003898472, 0.15153283, -0.009590823, 0.088542536, 0.13755147, 0.07241628, -0.023672104, 0.14136973, -0.020842511, 0.16939649, -0.1282019, -0.1549178, 0.25152332, -0.006925002, -0.0031174615, 0.1981445, -0.07987449, 0.15367459, 0.08319191, 0.13618961, 0.17231408, 0.062008902, 0.22237067, 0.07934542, -0.14716512, -0.06833011, -0.008655574, 0.1255165, 0.09606531, 0.09516345, 0.0081654815, 0.0759261, -0.12112037, -0.15087678, -0.21490882, -0.1405223, -0.020051777, -0.0684385, -0.06836846, 0.17157745, 0.07151311, 0.06752798, -0.0512038, 0.07394054, 0.13904148, -0.013577403, 0.07590412, 0.16699165, -0.21691011, 0.00879226, 0.046840016, 0.04690161, 0.16440183, -0.10305941, -0.06537597, 0.28545937, 0.06348744, -0.15582299, -0.2035433, 0.09390462, -0.011045943, -0.08744907, 0.032281127, 0.025866525, 0.030984392, 0.1338651, -0.0275506, 0.0074463235, -0.006764619, 0.07159605, -0.16511823, -0.049351774, 0.12490076, -0.09611643, -0.058230296, 0.18576437, -0.07063643, -0.047537003, -0.086854786, -0.22284086, -0.121022455, 0.03751076, -0.012361321, 0.06609859, -0.036548797, -0.13813369, 0.18158522, 0.0317126, -0.015747488, -0.034549892, 0.034012545, 0.0014263327, 0.19793642, 0.061230473, 0.08848427, 0.09769888, 0.20459838, 0.17411807, 0.10254022, 0.10515507, 0.113553286, 0.15318361, 0.06525924, 0.19938622, 0.14945684, -0.14928792, -0.01946651, -0.27318045, 0.013583366, 0.099574395, -0.11739786, -0.4412854, -0.08490982, 0.00904375, -0.15107085, -0.015169254, -0.22650023, -0.20124611, -0.14469542, -0.050027214, 0.15185462, 0.065439284, -0.3291846, 0.12341377, 0.04363136, -0.031225977, -0.09337379, 0.10704154, -0.019212693, -0.0013182403, -0.03049034, 0.070503734, 0.110046744, 0.05600355, -0.053177863, 0.004710703, 0.1171633, -0.075244926, -0.22155458, -0.0065901056, 0.006568748, 0.17960382, -0.040235635, -0.16958152, -0.016417127, 0.08893309, -0.12832488, -0.0044657863, 0.02782264, 0.12924282, -0.12686533, 0.03895751, -0.21219972, -0.05264078, 0.211192, 0.09428794, 0.00547218, 0.045469232, 0.061802443, 0.09245899, 0.054844894, 0.1143105, 0.090213194, 0.20946093, 0.07863391, 0.098455705, 0.048279963, 0.018772515, 0.07052124, 0.028899666, 0.047929656, 0.13565928, 0.032902703, 0.0399528, 0.032505855, 0.07521151, -0.18754922, 0.030191505, -0.08080753, 0.16035786, -0.09138152, 0.015340067, 0.038355682, -0.014307677, 0.013409846, -0.10279236, 0.0880849, 0.2171138, 0.025010582, -0.24264243, 0.034151983, 0.105862744, -0.038849812, -0.036946397, -0.026235715, 0.2269855, -0.013007421, -0.08045018, 0.0013441952, -0.030311141, -0.13503253, -0.037049334, 0.022242868, 0.15125343, -0.07062984, -0.12354418, 0.007599065, -0.22459604, 0.018555598, 0.18975864, -0.041595902, 0.11711659, 0.031582754, -0.033003666, -0.06898729, 0.09190513, -0.11030151, -0.13327768, 0.18680511, -0.0012651986, 0.07709096, -0.10987196, -0.058534678, 0.008024263, -0.15744703, 0.053923905, 0.032415938, 0.14762057, 0.07709194, -0.11065039, 0.0031373315, -0.019864174, -0.13197523, -0.014281374, -0.021785231, 0.06622321, 0.1314123, 0.0075371005, -0.013970128, 0.022279108, -0.16589513, -0.0060587777, 0.038583927, -0.011249098, 0.11714131, 0.04873079, 0.0010664223, -0.005429205, -0.08572, -0.17765293, -0.028828908, 0.16147722, 0.13429476, 0.34974694, 0.21075608, -0.20661725, 0.023222575, 0.05715417, -0.07353563, 0.0667726, 0.21774876, 0.13276894, 0.010789389, 0.051259343, 0.09141796, -0.11959465, 0.089344785, -0.009240346, -0.16080093, 0.03834095, -0.117419675, -0.026261427, -0.09535053, -0.14418581, -0.17661163, -0.14709191, 0.24634871, -0.25693262, 0.011801198, -0.1303261, -0.05524233, 0.033906512, 0.06768139, -0.08713745, 0.14214171, 0.0023603116, -0.18669099, 0.030408237, 0.035315234, -0.15078035, -0.113324985, 0.11863451, 0.114075184, -0.12279529, 0.052860897, -0.05446093, 0.15027213, -0.24999312, -0.038474336, -0.046319496, 0.061605427, 0.07288382, -0.054657146, -0.02379989, -0.11541255, -0.1334744, -0.14043106, 0.1215136, 0.017313782, -0.18877062, 0.086669095, -0.010062494, -0.07979095, -0.06427259, 0.19238213, 0.19509894, -0.029867768, -0.09724889, 0.033379473, 0.022627559, 0.065886974, 0.10738102, -0.08491689, 0.054352082, 0.12287376, 0.09090732, 0.025153924, -0.12740515, 0.023336418, -0.029438213, 0.03275646, 0.19729564, -0.015501708, -0.09629406, 0.008264733, -0.009943987, -0.19430411, -0.109959036, -0.005716739, 0.1261203, 0.04888474, -0.03788156, 0.15089625, -0.10316691, -0.13314125, -0.14454356, 0.0019211437, 0.0554185, 0.20141126, -0.0612115, 0.042114154, 0.10282402, 0.14260757, 0.059530634, -0.0701372, 0.11702386, 0.024751795, -0.19438946, -0.11531501, 0.2134161, -0.075488456, -0.06393032, 0.104796454, 0.044126462, 0.17970228, -0.092442736, -0.11885831, 0.056793243, -0.09475736, -0.18534331, -0.37171116, -0.17325357, -0.065169424, -0.2796832, 0.019492917, 0.04328134, -0.08519588, 0.057740286, -0.042175215, -0.08455656, 0.020766102, 0.019824622, -0.012374423, 0.113851875, -0.13758685, 0.11472846, 0.035651952, 0.09257048, 0.1357019, -0.0584061, 0.10148568, 0.22196376, 0.03532974, -0.24565671, 0.121942624, 0.040286943, -0.03583084, 0.09290791, -0.042368315, 0.12121631, 0.1316174, 0.00061850745, -0.052971404, -0.09618222, 0.12849891, -0.016189361, 0.05154115, 0.040527496, 0.05841587, -0.30374295, 0.059367787, 0.17431436, 0.13205592, -0.20925774, 0.1319902, -0.010892993, -0.012870987, -0.04693042, -0.037429, 0.14045005, 0.16666575, 0.016719915, 0.018477075, 0.05987689, 0.021116352, -0.047397718, -0.103395775, 0.23798002, 0.18778613, -0.0052333274, 0.07065291, 0.15918393, 0.006291571, 0.018742748, -0.12055579, 0.26407552, 0.27757248, 0.04798826, 0.13353974, 0.21484445, 0.100780115, -0.00045075966, -0.21356295, 0.14334764, -0.02638684, -0.24693792, -0.12739302, 0.15335126, 0.035613243, -0.14580289, -0.03598576, 0.21573018, 0.069737755, 0.16593984, -0.13279042, 0.122431956, 0.007066275, -0.10250229, -0.0574876, 0.09262674, 0.12057707, 0.032914836, -0.14617462, -0.00064498914, -0.06950805, 0.1494071, 0.0024113797, 0.18549815, 0.047372285, 0.047247507, 0.012694788, 0.0038504861, 0.013267981, 0.0013636788, -0.023823084, 0.047560774, 0.2611143, 0.043993883, -0.17754398, 0.011405702, -0.103500664, 0.07594422, 0.14238058, 0.31368527, 0.08376628, 0.11019268, 0.035427745, 0.15476891, 0.05738289, -0.007930254, -0.08903943, -0.23997243, 0.09092723, -0.023413008, -0.095727086, -0.17325562, -0.29429296, -0.19937935, -0.18944377, 0.1153254, 0.07922136, 0.04581692, -0.08948702, 0.09900747, 0.086079106, -0.045665093, -0.11416678, 0.04340075, 0.16826199, 0.05189364, 0.064375706, -0.10603248, -0.18336518, -0.19483012, -0.2708231, 0.118339226, -0.04325269, -0.15252438, 0.05070915, 0.004629251, -0.08178501, -0.08962055, 0.122499034, -0.10953645, -0.0148095675, 0.11301766, 0.10758705, 0.051000077, 0.28315163, 0.10926948, 0.054176103, 0.04309326, 0.1149045, 0.013927995, 0.25726432, -0.20309046, 0.002330209, -0.2199415, 0.0026624207, -0.106295444, -0.013324039, -0.22338401, -0.18205951, -0.03614856, 0.042021975, 0.06384027, 0.06568677, -0.009429649, 0.15992962, 0.045778513, 0.08116611, 0.057729606, 0.009422459, -0.04950095, -0.12735286, 0.08130443, 0.10845698, 0.018935248, -0.2532772, 0.19776587, -0.09255381, -0.1745043, -0.2468422, 0.15745558, -0.022806874, 0.012271287, 0.08724915, 0.099567235, 0.034391027, 0.012573277, -0.11630141, 0.11151632, 0.2291305, -0.03302306, 0.2535922, 0.1109021, -0.045641817, -0.31932905, -0.121582136, 0.16644537, 0.13583618, 0.14184524, 0.1598654, 0.036455493, 0.011576408, 0.013881059, -0.009074698, 0.07601364, 0.14337642, -0.022215987, 0.04966395, 0.0799564, -0.11108401, -0.1898985, -0.06385486, 0.1884817, 0.044391435, 0.045035645, 0.15572967, -0.04502662, 0.28252184, 0.060847644, -0.07409797, 0.04408039, 0.1365993, 0.08793045, 0.027591549, 0.086575516, -0.042719945, 0.11195299, -0.037322864, 0.09912892, 0.05410693, 0.07626016, 0.057197653, 0.20469771, -0.02461077, 0.051331848, -0.068241574, 0.14546078, 0.078980386, 0.018430574, 0.31049523, -0.22843355, 0.2146587, -0.22861499, 0.07717205, 0.1857679, 0.14397764, 0.075682364, 0.092835955, 0.06649662, 0.046920996, 0.034620672, 0.06488698, -0.051555194, 0.08887178, 0.06654958, 0.27041623, -0.09745019, 0.0019442508, 0.1648633, 0.098336294, 0.15484747, 0.14634638, 0.021455573, 0.10669539, 0.026665434, -0.09888104, -0.20482184, 0.081251316, -0.015358153, 0.0982209, 0.063190326, 0.030558469, 0.043194413, -0.077122875, 0.15031804, -0.021628244, 0.2804482, 0.08182455, -0.011328309, 0.29516652, 0.08975427, 0.13726437, -0.06058716, 0.056629077, 0.009765004, -0.13697863, -0.078849, 0.15800507, 0.16834423, -0.034446876, -0.18501194, 0.053573932, -0.19742706, 0.05054918, -0.055904943, -0.05669142, -0.14610067, -0.076927945, -0.23277795, 0.23910582, 0.13446882, 0.17936413, 0.022339923, 0.025375497, 0.15677074, -0.08100677, -0.04658926, -0.11253819, 0.15773697, -0.076536864, 0.049768917, 0.1229963, 0.16142258, 0.11565632, -0.11793448, -0.19630204, 0.091435984, 0.22123268, 0.09131797, -0.17706364, 0.14431761, 0.010907995, 0.10170315, 0.035926476, 0.18550855, 0.07975534, 0.18608075, -0.16507618, -0.013499527, -0.01164693, 0.052996825, -0.023453226, 0.10778265, 0.2736766, 0.034814414, 0.06252251, 0.06385954, 0.01983631, 0.007373562, 0.00040759076, 0.26266745, 0.06132022, -0.0126145575, 0.11037717, 0.08794949, -0.051115986, 0.016241968, -0.022360196, 0.15764141, 0.04206597, -0.1938477, 0.09798992, 0.11156652, -0.0347333, -0.0009932026, 0.0077660386, 0.03341484, -0.0034007495, 0.1899286, 0.061299812, -0.13198692, -0.0331028, -0.10725708, 0.022166066, 0.21113245, 0.07540874, -0.02918748, 0.006311142, 0.064211644, -0.044720612, 0.04895738, -0.021122813, 0.12302329, 0.11924566, 0.07415613, 0.07832154, -0.031947985, 0.021047508, -0.014517934, 0.0027217977, -0.03837418, 0.10657674, 0.05685638, -0.13471839, -0.042530224, -0.14651403, -0.09325221, 0.14161728, -0.020563448, -0.053059418, 0.07414313, 0.005185405, 0.026288854, 0.10785683, -0.3332962, -0.1563622, 0.13797292, -0.2661265, -0.14408956, -0.10108215, 0.08601827, 0.011572064, -0.0140543915, 0.0043431385, -0.1443811, 0.2711964, 0.15372792, -0.19378693, -0.14214627, -0.04826776, -0.10971414, 0.13072306, 0.11992831, 0.03375679, 0.013178422, 0.06774264, 0.020881843, -0.080902316, 0.09452058, -0.08896767, -0.20207828, 0.15792811, 0.039503347, 0.023960179, -0.0058115656, 0.05931948, -0.07524481, 0.07749439, 0.049285747, 0.050030425, 0.035611365, -0.13208145, 0.110707395, -0.18545915, 0.11747136, -0.18690304, 0.020606931, 0.04460103, 0.10128124, 0.16855542, 0.035911474, 0.06906377, 0.049114384, 0.108891964, 0.090506464, 0.05215051, -0.038435504, 0.12501875, -0.12211761, -0.12774159, 0.011528263, 0.03925619, 0.013887531, 0.045188714, 0.071411565, 0.012097332, -0.046523176, 0.010688969, 0.040600322, -0.114427894, 0.12683438, 0.09542303, 0.022340521, -0.26300174, 0.14712286, -0.09912068, -0.038325205, -0.14347498, 0.17233188, 0.17118782, -0.050104063, -0.00089513534, 0.026191173, -0.012249573, -0.003936125, 0.18385667, 0.12704185, 0.13445412, -0.10766643, -0.042770553, 0.17181535, -0.15297619, 0.024717087, -0.17893815, 0.21244606, 0.1176123, 0.03312076, -0.06341446, 0.0059578684, 0.06690859, -0.05676063, -0.05807666, 0.15531817, 0.072813794, -0.0012715238, -0.058070775, 0.14885317, -0.0054939403, 0.16419002, 0.07011334, 0.23967803, 0.16436973, 0.05653339, 0.15248194, 0.047115285, -0.01954949, -0.036023542, 0.031116, 0.1356976, 0.045870345, 0.086797275, 0.061434112, 0.049534943, 0.19755605, 0.1854922, 0.17157497, 0.145758, 0.12318678, 0.12941253, -0.033291474, 0.05268915, -0.06607667, 0.19674867, -0.0071574533, 0.08358975, -0.32349858, 0.103268385, 0.18781419, -0.08041287, 0.17904638, 0.01830424, -0.027113253, -0.17320524, -0.19574668, -0.04967373, -0.19391021, -0.2030296, -0.42623925, -0.010023358, 0.26343542, 0.07970897, -0.083788134, 0.06535497, 0.16359383, 0.013263371, 0.014618565, -0.030436939, -0.06278394, -0.11168953, 0.035980165, 0.116403185, 0.09593835, 0.1774036, 0.11446926, -0.07825712, 0.08622382, 0.055237755, -0.0043621003, -0.118416384, -0.027176168, -0.066939086, 0.040083237, -0.101182185, -0.122802354, 0.054535314, 0.033861067, 0.1562983, -0.19120556, 0.18967408, -0.17096637, -0.11296728, -0.06461471, 0.18468131, -0.11637727, -0.096360065, -0.12932737, -0.15614012, -0.1642582, -0.28044158, -0.21936895, -0.1340848, 0.005484955, -0.24274175, -0.20572835, -0.012084178, 0.1150538, 0.2315491, 0.02977003, 0.019510647, -0.16038105, -0.10981368, -0.18653174, -0.06447812, -0.13811997, -0.31329224, -0.11496056, 0.01399103, -0.09749298, -0.10784092, -0.08875439, -0.12297411, -0.16744477, -0.11988726, -0.029503584, -0.043428943, -0.10872063, -0.042187046, -0.106407925, -0.1877727, -0.26862252, -0.2757339, -0.09750173, 0.024013426, -0.17582902, -0.31696418, -0.059373822, -0.26968688, -0.2496048, -0.09100409, -0.040760163, -0.035249837, -0.064747944, -0.1481522, -0.043643415, 0.051967297, -0.14816138, -0.11721978, 0.026636682, -0.08168795, -0.08818402, -0.16461772, -0.048187863, -0.27897316, -0.080681145, -0.062235408, -0.04502587, -0.08573678, 0.004102408, -0.12304719, -0.00033941813, -0.1206597, 0.09982968, -0.16197836, -0.10772636, 0.015603225, -0.18753181, -0.21399224, 0.14329314, 0.0028584383, 0.020387016, 0.048556697, 0.0673164, -0.030449294, -0.29484174, 0.001375711, 0.19815823, 0.016587934, -0.08580971, 0.016227284, -0.10942612, -0.133496, -0.14117256, -0.010373905, -0.06469435, -0.06717974, 0.080914855, 0.28969553, 0.048113972, 0.049064737, -0.14216995, -0.016144522, 0.1125368, 0.0066843396, 0.11710793, 0.006074412, -0.1638029, 0.012381694, -0.119151324, 0.058366537, -0.10793746, 0.120034136, -0.14687401, -0.18162936, -0.026586477, 0.053739186, -0.05208201, 0.006379965, 0.0688693, -0.05295992, -0.09142435, 0.0112156635, -0.00095187506, 0.08722431, -0.052584987, 0.16467623, -0.038319267, 0.077332966, 0.060491975, 0.004735507, 0.0022065232, 0.08001625, -0.034796514, -0.07278502, -0.15386708, -0.044035118, -0.046218693, 0.027583858, -0.08821215, 0.016693378, 0.007544929, 0.052973334, -0.14947729, 0.08086316, 0.03223622, 0.022863157, -0.06748404, 0.042369366, -0.121861525, -0.0036272667, -0.2656767, -0.102339245, -0.19691135, -0.2613628, -0.20920965, -0.17095862, -0.29137078, -0.11634928, -0.16128181, -0.12816162, -0.07133734, 0.1086579, -0.19199276, -0.08436197, 0.027593544, -0.012326295, -0.09484506, -0.032945413, 0.104091026, -0.30409804, -0.11582076, -0.03174451, 0.012936954, -0.03404862, -0.056299947, -0.08977114, -0.08850813, 0.11028644, 0.027808422, -0.06040666, -0.14841375, -0.16029209, -0.09835034, -0.1573455, -0.09020539, -0.27012524, -0.21582662, 0.03044839, -0.21389244, -0.17264327, 0.07999522, -0.11200292, -0.12152143, 0.11606349, 0.028305672, 0.03174182, -0.06522715, 0.031797275, 0.02717459, -0.15309428, 0.014760648, -0.012643792, -0.047200225, -0.03545729, -0.004784507, -0.15719606, 0.04836497, -0.17832331, 0.03264287, 0.09732158, -0.10151577, -0.03329259, 0.06780578, 0.13139907, 0.09630493, -0.21197155, -0.2111368, -0.13310929, 0.042025365, 0.0075822202, -0.20453376, -0.20066524, -0.0930318, 0.15615264, -0.06782936, -0.06374629, -0.18025295, 0.14788668, -0.12583682, 0.052268345, 0.17425577, 0.1714983, 0.0068098865, -0.08529758, -0.12691197, 0.10162841, -0.15686259, 0.029530836, 0.03945895, 0.0401369, 0.037221815, 0.019285848, 0.024841942, 0.08854685, -0.028014181, -0.008385917, 0.019543646, -0.017253188, 0.04969451, 0.05814456, 0.016913062, 0.05211745, -0.098462574, 0.11589484, -0.13129957, 0.040531825, 0.091869496, -0.044908203, -0.17211518, -0.044445105, 0.008496513, -0.14407362, -0.16759, -0.023685724, 0.030612193, 0.08084501, 0.020264031, -0.07457189, 0.030043341, 0.07708681, 0.10072418, 0.03529919, 0.008805135, 0.1699005, -0.13451643, -0.21427979, -0.003308443, 0.008139207, -0.12439675, -0.070594124, 0.06702639, 0.03237091, -0.006373837, -0.10971535, 0.105264336, 0.07732036, -0.20652804, 0.028499484, 0.0043981965, -0.0630022, -0.11772439, -0.20208786, 0.0023964064, -0.20061314, -0.14396511, -0.17412975, 0.110035636, -0.14435524, -0.21022107, -0.021293169, -0.11612437, -0.10139016, 0.017897101, -0.07530619, -0.1203773, 0.15613593, 0.0014612688, -0.017612424, 0.06802614, -0.16392103, -0.2591332, 0.08612608, 0.0046797004, -0.28049192, -0.15671527, -0.042392008, 0.080156974, -0.24906968, -0.085709505, -0.12759389, 0.06441043, 0.15878433, 0.0074406024, -0.086908035, -0.105753854, -0.051189374, -0.07736014, -0.038468674, 0.0063780188, -0.032096665, -0.16785964, 0.06326822, 0.0933985, -0.05750838, 0.034582566, -0.13934584, 0.014665739, -0.09785368, -0.006076726, -0.08961889, -0.03883818, 0.08081826, -0.0034044283, -0.09271087, -0.061292995, -0.048253268, -0.23275231, -0.19826053, -0.06735034, -0.16467732, 0.0059485827, -0.077642225, -0.076933034, -0.026158396, -0.10061926, 0.03660034, -0.032327846, 0.15149488, 0.15778916, -0.060112078, 0.03311273, -0.10812676, 0.05324345, -0.32327092, 0.107673, -0.23270655, 0.15217443, -0.014524558, -0.004279048, -0.090759546, 0.008104258, -0.01749525, -0.027744194, -0.006577672, 0.0055509103, 0.018605528, 0.06872473, -0.0017142878, -0.042372044, 0.0363302, 0.02001112, 0.040050767, 0.059431024, -0.14514944, 0.016358979, 0.018160434, -0.052796736, 0.00094707403, -0.07326742, -0.025346365, -0.1754158, -0.02928342, 0.030501748, -0.069498405, -0.03300081, -0.0033660233, -0.038077835, 0.03515183, -0.10113447, -0.06498673, -0.02089893, 0.11634196, -0.209051, -0.14488144, 0.06786981, -0.046342377, 0.062873855, -0.14270793, 0.070684776, -0.013814468, 0.00797175, 0.06368947, -0.10510086, 0.020999998, -0.026507596, 0.024031429, -0.009696497, 0.11094174, -0.06645176, -0.10461762, -0.062995374, -0.0035071196, -0.004951807, -0.20250276, -0.042085066, -0.13866067, -0.21141739, 0.033832118, -0.220754, -0.07533677, 0.19086209, -0.012887346, 0.050738577, 0.01471597, 0.12925245, 0.027557397, 0.07169271, -0.03525819, -0.22186118, 0.060137514, 0.05634766, 0.024221668, -0.043124206, -0.050393037, -0.14995304, 0.022198372, 0.028102346, 0.030605454, -0.14429961, 0.017898068, 0.05072587, -0.21262106, -0.021126222, -0.099816374, -0.01882225, -0.1993754, 0.0064006066, -0.1448655, -0.14272349, -0.059644233, -0.13236839, -0.09490182, -0.008638343, -0.09765131, 0.124040626, -0.05872838, 0.037975736, 0.035022166, -0.045393173, 0.05953456, 0.17216662, -0.0042202454, 0.054306634, 0.0066949558, 0.025485162, -0.03812507, 0.012978127, 0.0745748, 0.12456727, 0.051453352, 0.07375067, 0.123809226, 0.03213854, 0.028334757, 0.011290465, 0.025239982, -0.060282912, 0.108610556, 0.07388284, -0.10073517, -0.16254827, 0.037310235, -0.058008082, -0.05721337, 0.06633611, 0.1834924, -0.020102853, -0.12138511, -0.11788954, 0.023605064, 0.0031486908, 0.043711428, 0.04846561, 0.007797651, 0.06401985, -0.062131856, 0.015259551, -0.20303836, 0.09949342, -0.07477986, -0.12245173, -0.0741457, -0.012807767, 0.11428412, -0.048640884, 0.072177716, -0.05889482, -0.06425818, 0.047558058, -0.0078031835, 0.18301749, -0.20846939, -0.033830687, -0.21823162, -0.03254456, 0.05049296, 0.02065242, -0.056816436, -0.041544963, -0.07643445, 0.040662006, -0.019578164, 0.052749958, 0.14827718, -0.17302334, -0.043213353, 0.09140881, 0.07743224, 0.13781084, 0.0149463415, 0.048576772, -0.02015109, -0.114587255, 0.031002525, 0.07118048, -0.092837125, -0.16228567, -0.26238915, 0.022858985, -0.12330593, -0.37764207, -0.047103956, -0.1407215, 0.11495326, 0.07146808, 0.045590606, -0.04947814, -0.0014774377, 0.1306527, -0.13549696, -0.031035522, -0.016397486, -0.011886686, -0.016287366, 0.07050436, -0.11392843, -0.07062495, 0.16913068, -0.15428127, 0.17762332, 0.10093825, 0.06433711, 0.09628731, 0.043286853, 0.07613735, -0.100988224, 0.030111328, 0.027870305, -0.09142769, -0.06735155, -0.04429753, -0.06291288, -0.11217435, 0.03792084, -0.0251078, 0.19956085, 0.074590236, 0.01762671, 0.087396786, -0.0047591478, -0.03576055, -0.037511673, 0.10790071, 0.08232761, -0.2420204, -0.1804915, 0.14210868, 0.03578297, -0.034518585, -0.07380896, -0.12072851, -0.037634093, -0.028814651, 0.13710225, 0.048983335, 0.027983055, 0.025209766, 0.09691696, -0.024387427, 0.027548993, -0.16228163, 0.0061892024, 0.086121954, 0.13672845, 0.086383164, 0.0058725066, -0.018319966, -0.111924194, -0.012304099, -0.06294798, -0.08083441, -0.062482573, 0.09191859, -0.10305408, -0.101788685, 0.0016210095, -0.099157795, -0.06713753, 0.039545372, -0.10045492, 0.044017825, -0.061263483, 0.06756499, 0.019235143, 0.0005694205, -0.09438679, -0.16297491, -0.13380481, -0.036099296, 0.04069979, -0.32080662, -0.22581115, 0.008210207, -0.17734504, 0.0045043146, 0.07571701, -0.10320534, -0.015641982, 0.03204686, -0.051182117, 0.014446937, -0.22996795, 0.059014637, -0.27496633, -0.06551848, -0.052860904, -0.06824258, -0.07348808, 0.019311104, -0.19823174, -0.02822663, 0.070577234, -0.02886407, -0.20484397, 0.1426707, 0.07862201, 0.044080902, -0.1835193, 0.11517504, -0.11112911, -0.091811486, -0.11693105, 0.0074103912, 0.10738675, -0.04683785, -0.25404856, 0.053260945, -0.02379519, -0.09507218, -0.06537592, 0.044074938, -0.058923524, 0.13525145, -0.04488789, 0.04893499, -0.26511618, -0.08048006, -0.08653097, -0.10078996, -0.24895735, -0.15824543, -0.06917966, -0.11092974, -0.14522357, -0.3275095, 0.11197596, -0.113825634, 0.012047484, -0.09508217, -0.009235578, 0.11978116, -0.030251883, -0.036554005, -0.23185562, -0.12263662, 0.010996967, -0.072175674, 0.100719474, 0.051882923, 0.12176859, 0.047106672, 0.12433582, -0.05014174, 0.13362774, 0.09049227, -0.11555884, -0.0071275304, 0.0060749985, -0.01941909, 0.052930854, 0.1271616, 0.040506, -0.033743147, 0.12323999, 0.10271204, 0.13562715, -0.08519806, -0.0010578061, -0.063051686, 0.07804072, 0.09007825, 0.1336254, -0.07684414, 0.16211772, 0.13800576, 0.11087174, 0.17087525, 0.07874004, -0.16068588, -0.024182707, 0.1330504, -0.13417746, 0.026626954, -0.071076825, 0.00047500507, 0.05756635, -0.11584642, -0.10964468, -0.3251275, -0.018336345, 0.24797562, -0.1873345, -0.18311682, -0.12745507, 0.077365816, 0.10953515, 0.10421367, 0.05537421, -0.19912584, -0.046500426, -0.0046424395, 0.028670184, -0.09771879, -0.06344883, 0.029410878, -0.06561535, 0.03656523, -0.016432185, -0.13085058, -0.13047789, -0.032706335, -0.15820637, -0.20568621, -0.1178525, -0.11984238, -0.14944051, 0.13255717, 0.004666994, 0.07294381, -0.21636741, -0.15450272, -0.03333625, -0.15641458, -0.030440371, -0.042687677, 0.00021602493, -0.026028585, -0.1626622, 0.16884992, 0.07746575, 0.0054429537, -0.14074565, 0.10758705, -0.06288508, 0.09989751, -0.12814967, -0.018675175, -0.16472396, -0.101705655, -0.11951425, 0.101421915, -0.1178753, 0.12105599, 0.030334633, -0.062081598, 0.15669231, 0.032513343, 0.033371758, 0.1300114, 0.13817438, 0.017898776, -0.02018034, 0.072364055, 0.03327131, -0.090089574, -0.06223339, 0.13853045, -0.052144814, -0.14425644, -0.1758276, -0.011855666, 0.014242278, -0.03404206, -0.09191396, -0.11154047, -0.050245382, 0.049274564, -0.14032076, -0.07376052, -0.045494393, 0.011330078, -0.024661416, 0.014791964, -0.0051634503, -0.15718383, -0.17313012, 0.016516931, 0.06165729, 0.052855868, 0.085382976, 0.0638992, 0.036112178, 0.15998454, -0.023935195, -0.02837237, -0.19018501, 0.06561983, 0.07285708, 0.13888994, 0.08565283, -0.11116215, -0.024336632, 0.07637236, 0.09212669, -0.30020213, -0.013521635, 0.050847396, 0.09643681, 0.1698739, 0.025598168, -0.13148345, 0.15934815, 0.01762968, 0.023260048, 0.069376394, 0.07622596, -0.042761978, 0.036297027, 0.06111959, 0.05200916, -0.2663291, -0.030459888, -0.061874818, 0.1346157, 0.047044363, 0.054515332, -0.077893004, 0.019531826, 0.09556324, -0.0259041, -0.010202095, -0.24347493, -0.089560315, -0.09655693, -0.09044197, -0.1647545, -0.025285738, -0.10185982, 0.028996564, 0.014254062, 0.05934319, -0.22255014, 0.018346746, 0.021991597, 0.024241775, -0.07118828, -0.05905718, -0.072656766, 0.14094317, -0.12816125, 0.0033735253, -0.08397964, -0.33981264, -0.09488389, -0.1513666, -0.17750409, 0.024751885, -0.028110456, -0.17158903, -0.2993415, -0.028011724, 0.0070814365, -0.011236988, 0.061013676, -0.08647878, 0.043621793, 0.0026256922, -0.13402511, -0.031308375, -0.054736286, -0.21369584, -0.05085454, -0.23388194, -0.287467, 0.027784236, -0.15875413, -0.14137599, -0.062544994, 0.059098106, 0.10933607, -0.18572964, -0.044682432, 0.05691742, 0.14873864, 0.012261922, 0.0892696, -0.023472847, 0.13360585, 0.0779572, -0.06516548, -0.0033761354, 0.0143238325, 0.07860305, 0.024138374, 0.15141627, 0.016742578, 0.0027807655, 0.031834263, -0.18463987, 0.13726497, -0.021766389, 0.02461828, -0.09359215, -0.06697855, 0.024140969, -0.14251402, -0.030639352, 0.07133372, 0.04548317, -0.09839136, 0.10270167, -0.00164091, 0.029097525, -0.06364298, -0.03197908, 0.1555063, 0.10772273, 0.023946935, 0.036049716, -0.04257447, 0.025808224, -0.17928302, 0.19817609, -0.08131833, 0.01831142, 0.04525994, 0.15992932, 0.1575518, -0.037095398, 0.0018359384, 0.008193188, 0.003173774, 0.0010375576, 0.0030071284, 0.0009986585, 0.009205657, 0.0019576557, 0.008494436, 0.0046644094, 0.0067929914, 0.0011071516, 0.004232753, 0.0073402533, 0.005823769, 0.009182739, 0.00077822217, 0.008426056, 0.0085950205, 0.006809252, 0.0004052357, 0.008272808, 0.003217638, 0.0068004737, 0.0040433784, 0.0034108132, 0.004560246, 0.00086687726, 0.002786888, 0.00017308973, 0.0050919014, 0.0048637195, 0.0027119857, 0.0054180836, 0.0014324342, 0.006741902, 0.00497603, 0.004327073, 0.006809283, 0.0048447037, 0.009440152, 0.0084176175, 0.0053060837, 0.0014857203, 0.0004961947, 0.0042918106, 0.003322665, 0.009260146, 0.001189421, 0.0076753492, 0.007576158, 0.008032691, 0.0026076138, 0.0015895152, 0.0061067985, 0.004673084, 0.0051335185, 0.008993808, 0.0059210868, 0.0029889501, 0.0028994083, 0.0038690092, 0.002226107, 0.003178694, 0.009421993, 0.0030162581, 0.0065549836, 0.005932614, 0.00072065386, 0.0033307339, 0.0009285447, 0.0038129126, 0.0032728955, 0.00030024073, 0.008094593, 0.005085638, 0.004398448, 0.0053619896, 0.0041122832, 0.003726246, 0.0089191105, 0.00024030286, 0.008687307, 0.00082836975, 0.00095285894, 0.007546829, 0.003637549, 0.0017334201, 0.008273225, 0.00013815823, 0.0021223417, 0.0023458707, 0.004524353, 0.008494955, 0.0014032259, 0.0031891577, 0.0018677086, 0.008013155, 0.009051496, 0.0066609755, 0.000102054895, 0.00848467, 0.00785763, 0.00892168, 0.00088350143, 0.00196613, 0.0077700987, 0.0052781235, 0.008241268, 0.002117374, 0.0075539434, 0.008671983, 0.0043057776, 0.00938407, 0.0045755943, 0.004541363, 0.004786517, 0.0030130285, 0.0073393527, 0.0054867966, 0.0036865904, 0.007804094, 0.00172931, 0.0025882765, 0.0033203, 0.009425382, 0.0067694793, 0.0061119017, -0.014883247, -0.24354534, -0.031584963, -0.14900687, 0.114840224, 0.018347194, 0.016390063, -0.13932425, 0.124104, 0.34236252, -0.10601927, 0.0151724005, -0.01823096, -0.18001224, -0.15299143, -0.10316363, -0.068707034, 0.00814836, 0.011498382, -0.06875729, -0.33084825, -0.18324688, 0.13327044, 0.200377, 0.09788763, -0.1131816, -0.12880996, 0.08957714, -0.12740403, 0.049874492, 0.077883415, 0.02575965, -0.10316191, 0.16748631, 0.10676416, 0.0842466, 0.01623483, 0.06090235, -0.00948907, 0.13746445, 0.16328055, -0.046989847, -0.0071297386, 0.25018272, 0.0012353839, 0.04239455, 0.011646738, 0.23164786, -0.032911487, 0.08300759, -0.053660132, -0.048615858, -0.08256003, -0.034646027, 0.1712181, 0.080405094, -0.12844203, -0.28460732, 0.14221597, 0.0375733, -0.02107195, -0.18065579, -0.039289553, -0.0126696685, 0.11857845, -0.089670375, -0.15974733, 0.1982686, -0.30018696, -0.04825519, 0.0086412635, 0.09184605, -0.16565157, -0.05822251, 0.08283373, -0.29173064, -0.31589454, -0.07035596, -0.20128627, 0.27522805, 0.0072162612, 0.1384609, 0.14651304, 0.045956504, 0.11931337, 0.13243216, 0.14873031, 0.16027859, -0.012675082, 0.16295145, 0.27264357, 0.13033085, -0.023819959, 0.13825046, 0.20347534, 0.041419003, -0.2708852, -0.04968012, 0.038931478, -0.17010818, -0.29583684, -0.04729446, 0.16207543, 0.22131383, 0.13966118, -0.060326476, -0.21109352, 0.062891334, 0.09114702, 0.06606191, -0.01862178, -0.07498218, 0.026238844, 0.01620624, 0.037569046, 0.18258885, -0.05304534, 0.012297718, 0.046902906, 0.073538266, -0.08283611, 0.06315534, 0.089161806, 0.11547908, 0.018994505, -0.10165708, 0.15666868, -0.10059236, 0.016432296, 0.019024897, 0.11021331, -0.050486658, 0.12719983, -0.10062965, -0.029124904, -0.051929045, -0.12380456, 0.2523845, -0.061374273, 0.09758208, -0.22021864, 0.07741227, -0.103070155, -0.0018251409, -0.17945826, -0.019003775, -0.16816379, 0.05680187, 0.018633535, -0.24260086, -0.18102272, -0.10457579, -0.110562995, -0.2043497, -0.20701596, 0.05698428, -0.24396798, 0.23618339, 0.04686365, 0.13964482, 0.044812582, 0.08241135, 0.14903128, 0.052838016, 0.0590589, -0.033732634, 0.03127451, 0.115633205, 0.13526231, 0.06304494, -0.10607309, 0.15836446, 0.1642007, 0.011869989, 0.13372308, 0.053416207, 0.15458752, -0.005754382, -0.036526766, 0.06999547, -0.038891517, -0.06425039, -0.008627609, -0.028525716, -0.07027445, 0.11522791, -0.07792648, -0.11767209, -0.19072323, -0.23178738, -0.13285266, 0.12103361, -0.11404366, 0.109339036, 0.007613975, -0.013571346, -0.032262046, 0.06956405, 0.015889619, -0.05039456, -0.31130293, -0.11488669, 0.11817874, -0.18344937, 0.08832961, -0.003972145, 0.08771494, 0.06688754, -0.14674571, -0.09887685, 0.01264872, -0.08195937, 0.023328125, -0.065225534, -0.099291846, 0.05157189, -0.037757218, 0.074883096, 0.050255064, 0.1353729, -0.027811565, 0.03318893, 0.051484816, 0.1785586, -0.13153665, 0.091200985, 0.04817323, -0.030423917, -0.35334826, -0.10480754, 0.010883071, 0.08662146, 0.15609826, 0.077339396, -0.043755975, 0.062221043, 0.09782581, 0.035394996, -0.18652734, 0.07177369, -0.030403823, 0.10983699, 0.09379851, -0.08046291, -0.108155906, -0.13133788, -0.13320291, -0.28133833, -0.003528738, -0.014079709, 0.08640652, 0.02069875, 0.2053756, 0.01374674, 0.083106875, 0.09829571, -0.19992875, -0.05018675, 0.09435006, 0.027439546, 0.129286, -0.0078065717, 0.013485006, -0.14590865, 0.032927565, -0.032692406, -0.06173488, -0.038220875, -0.055321578, 0.10448025, -0.09180031, 0.015674638, -0.009228609, -0.11881913, 0.0007363118, -0.06348346, -0.101579845, -0.05356326, -0.052860178, -0.23929311, 0.0940161, -0.121427745, 0.11307609, 0.028510313, -0.14729494, 0.07567159, 0.095878616, -0.17806324, -0.034091007, -0.14644459, -0.20398904, -0.020633904, -0.00095815986, 0.0011466547, 0.09166075, 0.09955631, 0.013479098, -0.1530594, -0.11486492, -0.16411678, -0.18653879, -0.014891451, -0.14406769, -0.04241935, 0.07956678, -0.18579534, -0.23932329, -0.013944998, -0.034264125, 0.09697908, 0.04682134, 0.1187655, -0.1525816, 0.15058526, -0.12124289, 0.021480452, -0.23819344, -0.10782739, -0.04169706, 0.15153752, 0.020824956, -0.06051533, 0.08654309, 0.043270558, -0.097757794, -0.03682579, -0.0063436856, -0.0811041, -0.26640245, -0.059200525, 0.1248811, -0.06508345, 0.07512634, 0.02545982, -0.06134018, -0.008148538, -0.03156708, -0.02199366, 0.018726615, -0.08024099, -0.088787906, -0.0114411535, -0.06325397, 0.046425093, 0.0856909, -0.06663539, 0.05063731, -0.032687332, 0.0059807342, -0.11691776, -0.23025772, 0.0897435, -0.21175577, -0.049031448, 0.03809224, -0.14548948, 0.06065227, -0.001458016, -0.093617655, -0.06941111, -0.16679397, 0.019835532, -0.007388394, -0.08214488, 0.120288074, 0.0008518924, -0.05906265, 0.031642325, -0.09399365, -0.13379025, 0.043357212, -0.070705354, 0.09137167, 0.053083204, -0.15712936, -0.101902395, -0.12987752, 0.086356744, -0.103859074, 0.06431271, -0.014153904, -0.15994509, -0.016820334, 0.0074127386, -0.036591772, -0.18215223, -0.16329584, 0.09890151, -0.07760806, -0.098256625, 0.039347652, -0.10839606, -0.009763483, 0.029866947, 0.08780164, 0.03266602, 0.01233076, 0.02935093, -0.024433512, -0.051383723, -0.17357744, -0.072225556, -0.251398, 0.108052194, -0.15497744, -0.25828218, -0.08146467, 0.0013301275, 0.08087027, 0.014239851, -0.19258188, -0.013562959, 0.024235418, -0.10283316, 0.03972761, 0.04491532, 0.0936803, 0.108047046, 0.104560316, 0.11368204, 0.003312359, -0.019581206, 0.10921556, 0.10020905, 0.053210206, 0.09064379, -0.022036133, 0.14616542, -0.031330477, 0.09781615, -0.07998384, -0.09742234, 0.07491463, 0.15395705, -0.17359865, 0.102304295, -0.0019893472, 0.046749413, -0.23828337, -0.14200541, 0.06827045, -0.041701023, 0.028215174, 0.016135946, -0.098892264, -0.24979661, -0.2211413, 0.11408855, -0.03430651, -0.11342191, 0.05278301, -0.10065717, -0.09001476, 0.0076254196, -0.15068033, -0.30739433, -0.026932437, -0.0039803, -0.19062482, 0.13335364, -0.10979367, -0.2113565, -0.013392422, -0.024335628, 0.08180738, -0.059237953, -0.12934007, 0.029693758, -0.0007259781, -0.029930271, -0.036068775, -0.04713253, 0.077365935, 0.08890571, -0.106305405, -0.03763804, 0.07332093, -0.2852042, -0.024279214, 0.07015169, -0.0763142, -0.016989356, 0.04912936, -0.1255719, 0.19424184, -0.10602649, -0.19768256, -0.06873035, -0.101663925, -0.04865205, -0.22956744, -0.027728682, 0.07384272, 0.1163325, 0.069252774, -0.061600816, -0.23572649, 0.03030385, 0.10447074, -0.058775544, -0.07344714, -0.077062845, 0.029630458, 0.014462956, -0.034817547, -0.07896101, -0.11879535, -0.04246662, 0.03190543, -0.098849304, -0.066424996, 0.0012871847, 0.06016064, -0.12405099, -0.22061619, -0.1326507, 0.013016061, -0.08547864, 0.04190683, -0.043289766, 0.084271416, -0.09985998, 0.030724496, -0.056826107, 0.0782991, -0.034228824, 0.08525583, -0.10998232, 0.015008441, -0.16867037, -0.16172062, 0.06744142, -0.03960753, 0.07481954, 0.183177, 0.15087123, 0.04351862, 0.099272855, 0.041780613, -0.25692916, -0.088854365, -0.10126717, -0.11828232, -0.04380338, -0.09429362, -0.10525532, 0.11910218, 0.079691425, 0.007057204, -0.026801141, -0.19261493, -0.12290854, -0.028985675, 0.038519144, -0.045922544, -0.021604639, -0.024112334, 0.044565007, 0.092887804, -0.25190437, -0.0042932564, -0.06628194, 0.008649058, -0.119003, -0.046867255, -0.050624333, 0.046696555, 0.094742954, -0.19496663, -0.11223382, 0.046938278, 0.031696152, -0.122530535, -0.2590224, -0.12559985, 0.027349403, 0.012055889, 0.08752139, -0.12031326, -0.17260632, 0.09901939, -0.04692308, 0.0108855935, -0.03831512, 0.011536943, 0.08788437, 0.1453262, -0.012069382, -0.08884008, 0.003261934, -0.010242791, -0.15169817, -0.21513107, -0.097773716, -0.16966915, -0.2268182, -0.29014412, -0.00982672, -0.00917586, 0.06524998, 0.04960926, -0.047973063, -0.068153925, -0.28045338, -0.10802468, -0.14085355, -0.108472526, -0.07601251, -0.0006211428, -0.09660113, -0.017469646, -0.005995738, 0.012392217, -0.053053204, -0.048047632, -0.08783709, -0.029789653, -0.0769973, 0.016629646, -0.006889462, -0.09065102, -0.11475398, -0.08840465, -0.13500167, 0.0023537613, -0.046456497, 0.01881531, 0.027518913, -0.08064453, 0.039958633, -0.10151327, -0.1160654, -0.05352738, -0.26154473, 0.023638522, 0.14693837, -0.083575085, 0.05044649, -0.046074808, 0.0016533022, -0.08760606, -0.16078459, 0.15272981, 0.026671162, -0.24113896, 0.028383147, -0.08121879, 0.20113005, -0.16431499, 0.035777505, -0.25080526, -0.15415488, -0.078345075, -0.059614044, -0.004938745, 0.057141434, -0.08184837, -0.12102317, 0.038716957, -0.17359866, -0.020421626, -0.1932416, -0.028457962, -0.025934506, -0.16723914, -0.2585691, 0.06702345, 0.02139811, -0.17924657, -0.03718555, 0.11872143, -0.18067402, -0.20509185, 0.20616874, 0.088215515, -0.15251003, 0.012576789, 0.04948394, -0.04239084, -0.15262178, 0.056469064, -0.120632246, -0.051485337, 0.14388806, 0.12183336, 0.078675576, 0.22050743, -0.1964132, 0.21374501, 0.045531735, -0.013304184, 0.1863731, 0.08197119, -0.07721027, -0.12977816, -0.106650874, -0.1989344, -0.14289047, -0.18703584, 0.04232908, 0.037202556, 0.010024434, -0.050580487, 0.22967066, -0.08565066, -0.12415162, 0.0021258732, -0.13846596, -0.01278929, 0.06750129, 0.023500202, -0.33781117, -0.21809745, -0.22887005, -0.07275983, -0.04682613, -0.028998442, 0.06117552, -0.15332885, -0.06997652, -0.21888532, 0.02307071, -0.091496654, -0.16963784, -0.15324019, -0.1934444, -0.25869226, 0.037510544, -0.09783548, -0.0494333, -0.033133097, -0.032222096, -0.15950963, -0.0112123275, -0.17474619, -0.18340665, 0.11650913, 0.0027253947, -0.13733749, -0.050578315, -0.0032055962, -0.0906438, -0.16524813, -0.13746203, -0.09250917, -0.04679605, -0.047748044, -0.21676028, 0.06699215, -0.18384321, 0.15205275, -0.23105182, 0.0073863817, -0.1373816, -0.113784246, -0.11845744, 0.042264815, -0.068359256, -0.25692996, -0.0040294356, -0.13582827, -0.075433314, -0.044218827, -0.10317409, 0.050783433, -0.06268043, 0.032965716, 0.05027466, 0.0073948316, 0.0020503178, 0.0040151686, 0.0059352107, 0.0007978832, 0.0038487343, 0.007432103, 0.0051433938, 0.0049698045, 0.001241755, 0.0044855443, 0.002544268, 0.0032707243, 0.0061971107, 0.009205459, 0.0026148632, 0.008107907, 0.005219272, 0.0031371994, 0.008207988, 0.004426724, 0.0041628056, 0.0006181781, 0.001972247, 7.293875e-05, 0.0051549263, 0.0076401387, 0.008791745, 0.004892313, 0.006769686, 0.0025709267, 0.0027798216, 0.0042748046, 0.0013784715, 0.0083882, 0.009015919, 0.0046654297, 0.008468768, 0.006477909, 0.0034383838, 0.006881603, 0.006329258, 0.008214963, 0.0028286441, 0.0035401192, 0.002503649, 0.0042500906, 0.0011210946, 0.001024045, 0.005379364, 0.0053222883, 0.002208078, 0.008381713, 0.0052070064, 0.0038344644, 0.0058292327, 0.002783749, 0.0073583177, 0.0058474094, 0.0032253857, 0.0027783965, 0.004056202, 0.0062094554, 3.2873515e-05, 0.0063606934, 0.008556451, 0.00752185, 0.0022616745, 0.003202133, 0.0006509971, 0.0060372567, 0.0009522015, 0.0044050147, 0.00328528, 0.00342166, 0.006561952, 0.008692634, 0.008248831, 0.0040539093, 0.0002601639, 0.0068385773, 0.007966422, 0.008371354, 0.008847828, 0.005804734, 0.0012118784, 0.0027195688, 0.0021786978, 0.007502033, 0.0016404706, 0.0019764, 0.009050851, 0.0031000052, 0.007116467, 0.0027231192, 0.008067822, 0.0060456377, 0.0007396259, 0.006583669, 0.0025028535, 0.005566778, 0.008336779, 0.00086270005, 0.0055572283, 0.0026272219, 0.007741834, 0.005550421, 0.0072855465, 0.005291437, 0.0067957607, 0.0025176369, 0.0018280951, 0.0015314809, 0.0076274998, 0.001264105, 0.004725846, 0.0088809915, 0.0018616829, 0.0011097334, 0.003626809, 0.0030094532, 0.0025872267, 0.0019423364, 0.0064218175, 0.0051528425, 0.008857382, 0.00018607159, 0.0012122594, 0.14346658, 0.013382242, -0.042636856, 0.20370048, -0.03270368, 0.062939525, 0.004136554, -0.09419261, -0.00014595379, 0.051283393, 0.04592849, 5.086138e-05, 0.04403902, -0.022920819, 0.36813635, 0.10859254, -0.15978509, -0.2514574, -0.054671053, 0.25399464, 0.105265744, 0.048573583, -0.050401516, -0.025431845, -0.222367, 0.18394044, -0.0036343106, -0.10796505, -0.0603342, -0.107454605, 0.036591634, 0.25400242, 0.059908416, -0.12727833, -0.17859161, -0.17973042, -0.15455851, 0.084998436, 0.22970603, 0.21287954, -0.106249176, 0.030768411, 0.20968722, -0.29488805, -0.12731972, -0.2117127, 0.00035670755, -0.00026408563, -0.12088402, -0.007687325, 0.048610136, -0.019721054, 0.13875134, 0.28455672, -0.058926042, -0.051616184, 0.078387946, 0.106747426, -0.08810782, -0.03574883, -0.03118576, 0.028433388, 0.10375141, 0.2059175, 0.1238629, -0.05718794, -0.10557969, -0.09434402, 0.14521499, -0.012621376, 0.12681024, -0.35318315, -0.05165063, 0.09481743, -0.052791424, -0.014479061, -0.14074065, -0.16539413, 0.035491765, 0.16367193, 0.032363266, -0.030386604, -0.0149720125, -0.18054955, 0.0820833, 0.13837051, -0.05351669, -0.017942892, 0.099626355, 0.11235323, 0.06188226, -0.2695773, -0.015422644, -0.08933582, 0.004390229, -0.13086244, -0.26287732, 0.2239273, 0.17556724, 0.11639373, -0.08468331, -0.099054925, -0.19988403, -0.23067988, 0.07341493, 0.04092987, -0.04570498, 0.37323487, 0.10672858, 0.18081726, 0.21268554, -0.021370167, 0.12607954, 0.21296218, 0.2551972, -0.027244668, -0.062423807, -0.05981055, -0.28744453, -0.18715762, 0.16175288, -0.1909245, -0.318887, 0.2748894, 0.20504414, 0.14579582, -0.047782477, 0.04793609, -0.16586247, -0.08205386, 0.05901323, 0.3221262, -0.072712116, -0.03266659, -0.0053854454, 0.106020145, 0.010197116, 0.19258977, -0.1778243, -0.20295055, -0.114977054, 0.10769593, -0.055880193, 0.100016035, 0.03591056, -0.2919441, -0.35516354, -0.090409964, -0.01021791, -0.055895954, 0.023038937, -0.063174695, -0.247615, -0.045600437, -0.067760214, -0.094919294, -0.21826951, -0.1654934, -0.23611604, 0.06394868, -0.07120022, -0.21430854, -0.11249436, -0.0024225104, -0.2056909, -0.10220835, -0.11591818, -0.10228619, -0.21528427, -0.3773872, -0.12169306, -0.23135011, -0.10164483, 0.017485345, 0.013159428, 0.0065492555, -0.090511605, 0.23562577, 0.33480883, 0.026621664, -0.09470727, 0.06419051, -0.07139138, -0.32685277, -0.07517888, -0.25539982, -0.08463411, 0.37094975, 0.14968164, 0.22289309, 0.32768816, 0.19449694, -0.056264378, 0.1041833, -0.0009833788, 0.15115115, -0.05392613, -0.068014055, -0.10177177, 0.010742666, 0.010643001, -0.0421576, -0.039757434, 0.048186228, 0.08204419, 0.14143899, 0.2667964, -0.10999199, 0.07042883, -0.092904866, 0.10783032, 0.05535745, -0.21353021, 0.05408265, -0.034536574, -0.071666464, -0.08319853, -0.25810233, -0.021863224, 0.0086847255, 0.027073361, -0.070835546, -0.061370794, -0.13056068, 0.011086421, -0.11209479, 0.0013129317, 0.011583706, -0.19946997, -0.044442214, 0.054393172, 0.1926961, 0.10787415, -0.0071640504, 0.06497203, -0.106702425, -0.09583777, 0.12547225, 0.13873868, 0.008793259, 0.22384292, -0.096681, -0.12057471, -0.15962301, 0.1274665, -0.031205373, -0.09392591, -0.16291754, -0.10666224, 0.12485215, 0.14228699, 0.085791394, -0.19911227, -0.20517148, -0.17571487, -0.07584149, 0.15809593, -0.2824753, -0.2093681, 0.10891337, -0.016552312, 0.038506094, 0.012428284, -0.0030033456, 0.051027335, 0.00056340575, 0.16174288, -0.10108613, -0.054135438, 0.14283942, 0.261491, 0.11164762, 0.014738544, -0.23212965, -0.16792502, -0.36245018, -0.02716652, -0.1251111, -0.12326396, 0.08941452, -0.27775657, -0.084156394, -0.17748755, -0.30821124, -0.26292172, -0.109897934, 0.2648515, -0.05112031, -0.092802234, -0.06158377, -0.3462126, 0.28750914, -0.30076438, 0.10025623, -0.11581833, -0.026928738, 0.08829526, 0.08682137, -0.14486165, -0.29528844, -0.0064811497, -0.116235204, -0.017259233, 0.025715422, 0.10270763, -0.08753551, -0.03961689, 0.23024563, 0.19752711, 0.20942551, 0.22089437, 0.24403861, 0.08439851, 0.2267849, 0.08298291, 0.051006723, 0.101954795, -0.18860948, 0.12208762, 0.20211312, -0.01590886, 0.14075099, 0.021587033, 0.1237726, -0.29301527, 0.08376047, -0.07367708, -0.2985411, 0.18954736, -0.16531439, -0.16337535, 0.027564831, 0.19622022, -0.03584314, -0.014989934, 0.039923772, 0.021341013, 0.080780275, -0.024914367, -0.01699218, 0.0011190916, 0.055991217, 0.096849315, 0.0011882847, 0.35213673, 0.07021786, 0.031045314, 0.080208994, 0.047744248, -0.015028661, -0.1056519, 0.3127129, 0.05456143, -0.05041572, 0.18452267, 0.2469352, -0.07221186, 0.084023334, -0.15748425, -0.1101046, -0.13950962, -0.09263367, 0.06814724, 0.11722432, 0.13630186, 0.16649833, 0.17750333, 0.14861579, -0.06277402, -0.2508764, 0.027909294, 0.26478317, 0.2834481, 0.096242905, 0.058417775, 0.10094466, -0.21982455, 0.17839833, -0.15919508, 0.1357812, -0.20268072, -0.0054428224, 0.18198723, 0.07997303, 0.08554751, -0.25830498, -0.29480112, 0.04590465, -0.02878966, -0.024385301, -0.06640241, 0.011990519, -0.13567096, 0.2898647, -0.23376013, -0.29513422, -0.089161724, -0.18438463, -0.2586248, 0.047366623, 0.01040776, -0.05733493, -0.25506335, 0.24378648, -0.16026463, -0.095802516, -0.19686261, -0.19645257, -0.1314216, 0.11494667, -0.109838314, -0.035655987, -0.18198545, -0.20497826, 0.19616753, 0.1690317, 0.25322163, -0.23316175, -0.075202085, 0.108887404, -0.17017691, 0.004110165, 0.014044315, -0.08979966, -0.25746888, -0.23313025, -0.0424153, 0.08227428, -0.08861557, 0.12532663, 0.12466451, 0.13781412, -0.107055835, 0.108719766, -0.054891247, 0.047902174, -0.07304079, 0.034788072, -0.055007357, -0.06936926, 0.10026011, -0.22534372, -0.34250793, 0.04923321, -0.085870504, -0.11227938, 0.034103293, 0.1734097, 0.0062538143, -0.03722381, 0.14672202, -0.060826153, -0.21705262, -0.13782363, 0.0066497764, -0.16638331, -0.08397602, -0.14699142, 0.032583024, -0.30349866, 0.08914593, -0.12376697, -0.042350326, -0.032567523, 0.044329632, -0.23672901, 0.090120174, 0.22178005, 0.1166737, 0.0816733, 0.18577544, -0.15060234, -0.2403294, 0.15734045, 0.007191804, -0.11265348, -0.097532436, -0.004428334, 0.110516585, 0.16414681, 0.07428232, 0.128792, 0.01924411, -0.042316165, 0.21872383, -0.16558416, 0.13543189, -0.12756133, 0.18412761, 0.07498065, 0.060888775, 0.043621592, 0.10117298, 0.20799151, 0.1572431, 0.118606664, 0.14165814, -0.06038647, 0.09520902, 0.17319271, 0.13439412, -0.05345897, 0.006726857, 0.023889607, -0.2062382, 0.011393794, -0.03994614, -0.09143921, -0.23800643, 0.100464635, 0.08965736, 0.1661349, 0.16886257, -0.17336448, -0.093984626, -0.028098999, -0.011549906, -0.101317145, 0.24225439, 0.06989231, -0.1717783, 0.12408607, -0.121799365, -0.13636728, -0.21572842, -0.14056264, -0.0924094, 0.082992494, -0.009136566, -0.3181644, -0.31647328, -0.16264108, -0.16475922, -0.121391125, -0.046337195, 0.023648428, -0.2801436, -0.032396995, -0.20203047, -0.2342185, -0.10415646, -0.12517399, -0.2818144, -0.02152709, -0.036872707, -0.12874903, 0.046843983, -0.25176394, -0.117030114, -0.19987935, 0.049677156, -0.21514538, -0.29832682, 0.049558617, 0.07308951, -0.14659384, -0.09269863, 