#ifndef NN_VALUES_H
#define NN_VALUES_H


const float L1_WEIGHTS[] = {
2, 0, 0, 1, 1, 1, 1, 2, 0, 1, 0, 0, 1, 1, 0, 1, 0, 1, 0, 0, 1, 2, 0, 0, 1, 0, 1, 1, 1, 1, 0, 1, 2, 0, 0, 0, 1, 2, 0, 1, 1, 1, 0, 0, 0, 1, 0, 0, 0, 1, 1, 2, 1, 0, 1, 2, 1, 1, 1, 1, 1, 0, 1, 1, 1, 1, 0, 1, 0, 0, 0, 1, 2, 1, 0, 1, 0, 0, 1, 1, 1, 2, 2, 1, 1, 1, 0, 0, 1, 0, 1, 1, 0, 0, 1, 1, 0, 1, 2, 2, 1, 1, 1, 0, 1, 1, 0, 2, 0, 0, 1, 2, 1, 0, 0, 2, 0, 0, 0, 2, 1, 2, 2, 2, 0, 0, 1, 1, -55, 3, 25, -2, 8, 34, 3, 19, -5, 22, 0, 2, -1, -16, 14, 4, 49, -15, 19, -3, 22, 38, 18, 0, 0, 27, -18, 15, 12, 18, 19, -12, -85, -7, 14, -3, 10, 8, 10, 9, 4, 32, -7, 9, 9, -10, 10, -6, 48, 0, 25, 57, 9, 16, 2, -16, -3, 32, -2, 7, 1, -43, 24, -3, -70, -8, 27, 26, 7, 7, 9, 12, -29, 21, -9, 12, 10, 33, 12, -8, 12, -10, 31, 25, 11, 0, 9, 7, -15, 14, -12, 11, 10, -79, 19, -6, -34, -15, 41, -10, 19, 14, 19, 22, -51, 4, -16, 19, 20, 46, 37, -11, 19, -4, 30, 0, 12, 14, 11, 20, -30, 16, -6, 9, 9, -61, 24, -2, -54, 3, 23, -2, 9, 34, 6, 16, 3, 24, 0, 5, 2, -11, 16, 5, 52, -14, 24, -2, 25, 43, 21, 13, -7, 31, -15, 18, 16, 16, 15, -12, -100, -10, 30, -15, 10, 12, 12, 1, -2, 31, -8, 11, 12, -8, 5, -8, 68, -12, 25, 26, 20, 19, 19, -9, -15, 30, -12, 18, 19, -39, 12, -15, -71, -8, 29, 43, 16, 10, 13, 0, 12, 19, -8, 11, 7, 52, 10, -6, 29, -10, 31, 5, 19, 6, 19, 3, 10, 22, -9, 18, 18, -80, 30, -10, -39, -12, 42, 1, 22, 12, 21, 18, -14, 11, -14, 21, 22, 57, 20, -12, 19, -4, 28, -5, 14, 7, 15, 21, -14, 10, -3, 15, 15, -59, 27, -4, -37, 4, 30, 1, 8, 22, 6, 25, -5, 25, 3, 4, 4, -2, 17, 4, 53, -21, 34, -9, 31, 49, 27, 19, -15, 25, -23, 26, 22, 17, 20, -19, -68, -13, 24, -13, 21, 13, 18, 2, -12, 26, -14, 16, 16, 1, 21, -11, 30, -23, 27, -16, 26, 16, 26, -21, -17, 30, -23, 23, 23, -39, 1, -22, -61, -16, 25, -24, 29, 14, 23, -17, 19, 32, -19, 25, 22, 39, 28, -16, 18, -10, 20, -4, 26, 6, 24, -4, -23, 29, -12, 24, 22, -74, 15, -9, -37, -12, 22, -8, 35, 15, 30, 4, -9, 21, -13, 30, 30, 49, 30, -11, 12, 0, 16, -1, 14, 6, 15, 12, -23, 16, 0, 14, 15, -62, 29, 0, -16, -6, 35, -3, 16, 17, 17, 45, -2, 23, -7, 15, 15, 8, 27, -2, 51, -26, 27, -2, 39, 42, 33, 41, -40, 26, -29, 30, 29, 26, 31, -24, -48, -12, 24, -20, 17, 11, 18, 21, -24, 28, -12, 17, 17, 9, 22, -8, 25, -33, 6, -54, 41, 25, 38, 2, -34, 31, -32, 38, 37, 0, 32, -31, -47, -23, 5, -49, 30, 9, 28, -1, -15, 36, -24, 29, 25, 14, 0, -20, 23, -16, -14, -25, 41, 5, 35, -7, -33, 33, -19, 33, 33, -54, 27, -17, -34, -13, -7, 2, 35, 17, 32, 0, -3, 30, -16, 29, 26, 40, 31, -12, 9, -2, 0, 3, 31, 6, 27, -11, 5, 18, -3, 26, 23, -68, 24, -2, 7, 0, 30, 23, 11, 11, 11, 63, 5, 26, 1, 10, 11, 38, 28, 3, 27, -17, 17, 17, 30, 32, 29, 78, -74, 26, -19, 27, 25, 26, 43, -13, -32, -19, -19, -56, 30, 24, 30, 57, -37, 30, -20, 30, 32, 25, 47, -17, 7, -23, -42, -38, 35, 25, 33, 64, -30, 36, -25, 28, 27, -1, 21, -20, -67, -18, -55, -47, 37, -3, 35, 43, 0, 33, -22, 31, 29, 15, 47, -14, -9, -18, -70, -24, 39, 4, 37, 1, -24, 23, -20, 35, 32, -75, 31, -18, -38, -17, -36, -14, 44, 23, 42, -9, -19, 30, -18, 42, 44, 24, 50, -16, 4, 0, -25, 25, 30, 2, 27, -9, 10, 24, -1, 26, 24, -89, 37, 1, -35, -24, 25, 23, 35, 17, 34, 76, -29, 36, -24, 32, 30, 4, 22, -22, 0, -29, -54, 12, 42, 24, 42, 62, -86, 31, -30, 41, 38, 10, 71, -27, -101, -27, -36, -12, 34, -19, 38, 75, -43, 40, -27, 39, 39, -36, 14, -23, -12, -36, -55, -50, 47, 40, 49, 59, -56, 30, -37, 49, 50, 1, 68, -36, -127, -25, -76, -12, 32, -4, 38, 46, -17, 34, -24, 39, 42, -17, 28, -23, -4, -20, -95, -10, 42, 15, 41, 5, -10, 24, -21, 40, 39, -153, 103, -18, -29, -32, -66, -15, 63, 46, 60, -26, -14, 15, -36, 60, 55, -134, 41, -31, -4, -8, -13, 36, 28, 13, 30, -2, 7, 28, -7, 29, 31, -204, 70, -6, 1, 0, 1, 1, 1, 1, 1, 1, 0, 1, 0, 1, 0, 1, 2, 0, 1, 1, 0, 1, 2, 0, 1, 0, 1, 2, 0, 0, 0, 0, 0, 0, 0, 1, 1, 1, 0, 0, 2, 1, 1, 2, 0, 2, 0, 1, 1, 1, 2, 1, 1, 2, 0, 0, 0, 1, 1, 1, 1, 0, 1, 2, 1, 0, 0, 1, 0, 1, 2, 0, 0, 1, 0, 0, 1, 0, 0, 2, 1, 1, 0, 0, 0, 0, 1, 0, 1, 0, 2, 1, 2, 2, 1, 0, 1, 0, 2, 1, 1, 1, 0, 0, 1, 0, 0, 0, 0, 1, 0, 1, 0, 1, 0, 1, 2, 1, 0, 2, 1, 1, 0, 1, 0, 2, 2, 1, 0, 1, 38, -13, 42, 35, 20, -17, 22, -43, -23, 7, -14, 25, 26, -9, 18, -16, -15, -22, 60, 14, 21, -30, 18, 14, -28, 32, -23, 20, 22, -22, 18, -24, 4, -16, 57, 7, 24, 1, 24, -4, -19, 39, -16, 27, 26, -36, 24, -22, -15, -22, 47, -8, 26, -23, 27, 24, -30, 47, -20, 31, 30, -31, 24, -22, 1, -22, 40, 33, 24, -26, 24, -11, -21, 42, -23, 27, 27, -11, 26, -22, 4, -30, 38, -11, 33, -24, 31, 27, -30, 36, -31, 35, 33, -5, 31, -35, 9, -21, 45, 26, 20, -35, 17, 4, -28, 33, -21, 23, 22, -24, 23, -24, -27, -14, 42, -5, 23, -16, 22, -24, -23, 36, -11, 26, 23, -40, 0, -13, -8, -14, 42, 19, 22, -9, 21, -11, -44, 35, -12, 27, 24, -29, 28, -18, -9, -24, 35, -6, 22, -33, 24, 53, -19, 43, -24, 25, 26, -33, 25, -27, -8, -20, 52, 3, 25, -33, 24, 10, -16, 40, -20, 27, 27, -13, 33, -20, -11, -27, 47, 24, 24, -33, 27, 28, -23, 38, -26, 28, 28, -6, 28, -29, -6, -26, 45, 15, 27, -34, 28, 16, -35, 45, -25, 27, 28, -16, 39, -27, 9, -30, 36, 31, 37, -25, 36, 24, -27, 47, -28, 36, 37, -8, 32, -32, 2, -24, 42, 15, 30, -39, 29, 0, -21, 40, -22, 34, 31, -1, 42, -26, -4, -24, 37, 1, 25, -39, 25, 16, -32, 31, -22, 28, 28, -12, 31, -26, -28, -15, 74, -2, 12, -28, 14, 32, -36, 42, -14, 19, 17, -16, 16, -19, 6, -28, 47, 17, 32, -26, 32, 31, -21, 42, -27, 36, 36, -4, 44, -32, -18, -25, 42, 4, 29, -40, 26, 33, -2, 45, -25, 22, 20, -20, 33, -21, 10, -27, 43, 23, 36, -40, 34, 15, -26, 47, -28, 36, 33, -4, 41, -28, -2, -28, 45, 4, 38, -34, 38, 33, -33, 54, -29, 39, 37, -1, 39, -31, -16, -35, 32, 30, 32, -40, 32, 3, -22, 40, -34, 24, 26, -11, 40, -37, -17, -26, 37, 9, 36, -37, 35, 37, -31, 48, -27, 37, 36, -11, 22, -28, 11, -30, 24, 32, 37, -30, 33, -4, -24, 36, -30, 35, 33, -16, 42, -31, -13, -23, 41, 2, 24, -40, 26, 40, -21, 29, -23, 32, 33, -9, 43, -26, 12, -29, 38, 4, 29, -48, 30, 17, -34, 50, -27, 33, 34, -12, 45, -33, -20, -22, 32, 0, 26, -56, 27, 50, -23, 51, -22, 30, 31, -6, 31, -23, 1, -22, 29, 25, 33, -44, 32, 7, -33, 55, -23, 30, 31, -25, 52, -20, -12, -25, 19, 8, 36, -38, 36, 56, -36, 49, -26, 32, 32, 3, 37, -25, 14, -26, 17, 43, 40, -43, 38, 21, -20, 48, -26, 37, 36, -12, 49, -24, -7, -20, 13, 2, 34, -42, 34, 33, -25, 41, -23, 38, 36, 11, 43, -22, -16, -26, 10, 19, 32, -41, 35, 5, -35, 46, -25, 37, 36, -15, 29, -25, -5, -32, 41, -33, 39, -47, 42, 39, -20, 42, -32, 40, 39, -5, 33, -30, 9, -26, 36, 0, 30, -37, 34, 29, -19, 39, -26, 32, 35, -11, 32, -25, -6, -31, 31, -9, 37, -51, 40, 38, -36, 49, -28, 40, 43, -10, 54, -30, 7, -27, 16, -4, 38, -56, 39, 50, -23, 50, -28, 38, 40, -16, 33, -29, -11, -32, 11, 13, 36, -61, 40, 26, -48, 41, -29, 38, 44, 7, 50, -28, 18, -28, 1, 8, 34, -73, 36, 28, -24, 53, -27, 38, 41, -10, 49, -24, -24, -23, 7, 16, 25, -64, 31, 22, -48, 30, -22, 32, 37, -7, 51, -20, 3, -32, 12, -26, 42, -58, 42, 25, -29, 46, -34, 43, 44, 1, 33, -34, -5, -31, 0, 5, 36, -71, 36, 25, -21, 33, -33, 36, 35, -17, 32, -32, 0, -37, 19, -36, 39, -64, 44, 40, -20, 26, -39, 44, 45, -12, 29, -36, -14, -33, 7, -11, 29, -82, 37, 36, -41, 45, -30, 39, 43, 3, 38, -32, 6, -35, 0, -11, 37, -68, 41, 47, -24, 42, -35, 43, 47, 2, 49, -33, 8, -41, -14, -12, 52, -74, 54, 39, -43, 37, -43, 53, 52, 3, 48, -41, 0, -31, -22, 1, 42, -96, 40, 36, -60, 47, -32, 39, 36, 4, 44, -32, -10, -25, -11, 26, 37, -80, 36, -11, -40, 41, -27, 37, 37, 45, 48, -24, -15, -22, -15, 10, 38, -68, 36, 16, -25, 35, -24, 31, 31, -13, 28, -22, 18, -33, 29, -5, 33, -35, 37, 18, -31, 32, -30, 37, 40, -10, 22, -32, 0, -31, 21, -40, 33, -51, 37, 30, -36, 44, -29, 34, 36, 1, 40, -31, 34, -38, 2, -22, 40, -74, 46, 13, -22, 35, -35, 48, 53, -5, 29, -34, -2, -32, -13, -8, 38, -78, 38, 38, -40, 36, -32, 40, 40, 12, 31, -31, 6, -26, -13, 15, 40, -84, 37, 21, -31, 41, -27, 35, 34, -2, 28, -24, 4, -33, -25, 0, 49, -85, 45, 36, -50, 33, -35, 42, 39, 17, 36, -32, 3, -22, -13, -12, 35, -87, 33, 5, -33, 40, -22, 34, 36, -47, 39, -22, 13, -37, -9, -4, 41, -74, 40, -4, -38, 24, -35, 37, 34, 14, 48, -37, -33, -11, -40, -34, 21, -36, 16, 16, -90, -23, -12, 11, 11, -27, 9, -9, -6, -21, 0, -17, 19, -60, 22, 30, -16, 27, -19, 25, 26, -47, 7, -20, 33, -15, 0, -7, 21, -65, 23, 34, -21, 32, -14, 25, 26, -47, 18, -12, -12, -14, -25, 16, 22, -42, 22, 33, -37, 31, -16, 23, 20, -12, 26, -13, 25, -25, -41, -23, 38, -83, 34, 23, -39, 35, -28, 33, 30, -38, 38, -26, -59, 0, -49, 21, 20, -70, 12, 22, -26, 27, -5, 10, 1, -67, 8, -3, -6, -21, -7, 17, 27, -65, 26, -18, -22, 20, -19, 25, 26, -47, 11, -18, -34, 1, -140, 19, 6, -65, 6, 13, -5, 19, 0, 4, 4, -64, 23, 1, -48, -28, 13, 20, 33, -23, 33, 26, -28, 23, -28, 30, 30, -26, 39, -29, -16, -27, 11, 19, 40, -39, 39, -27, -34, 33, -28, 39, 39, -10, 3, -27, -31, -34, 27, -3, 31, -41, 29, 25, -28, 23, -34, 33, 32, -15, 14, -37, -19, -21, 30, 23, 28, -27, 27, 17, -20, 36, -20, 31, 29, -18, 17, -22, -25, -17, 46, 28, 23, -37, 25, 37, -26, 29, -15, 27, 27, -23, 31, -19, -5, -25, 31, 26, 24, -34, 24, 31, -69, 24, -24, 28, 29, -11, 24, -29, -48, -23, 44, 12, 32, -51, 33, 22, -25, 3, -21, 33, 34, -23, 32, -22, -25, -23, 11, 24, 25, -60, 30, 15, -24, 21, -19, 32, 34, -4, -13, -25, -43, -26, 10, 28, 34, -61, 35, 3, -40, 30, -25, 34, 35, -18, -3, -25, -42, -36, 12, 20, 40, -43, 39, 29, -29, 26, -34, 35, 36, -36, 33, -32, -10, -35, 9, 9, 43, -44, 41, 12, -25, 35, -35, 40, 41, 4, 18, -35, -43, -28, 27, 16, 27, -46, 27, 30, -19, 34, -27, 28, 28, -20, 34, -31, 2, -30, 30, 40, 33, -41, 31, 29, -12, 36, -30, 32, 33, -10, 21, -31, -46, -30, 44, 16, 37, -49, 36, 41, -26, 26, -29, 34, 35, -11, 46, -30, -19, -36, 38, 20, 38, -45, 37, 38, -7, 19, -35, 36, 35, 2, 20, -36, -21, -27, 42, 6, 38, -54, 37, 7, -30, 27, -29, 36, 38, -18, 34, -27, -28, -23, 11, 8, 29, -59, 28, 25, -23, 22, -25, 30, 28, -29, 40, -23, -11, -30, 15, 34, 36, -47, 35, 36, -26, 41, -31, 34, 36, -2, 12, -29, -44, -23, 20, 21, 34, -49, 32, 49, -36, 41, -25, 34, 34, -33, 41, -26, -2, -35, 13, 34, 42, -42, 40, 23, -23, 38, -37, 40, 39, -7, 22, -34, -32, -27, 29, 21, 34, -47, 34, 45, -26, 38, -28, 33, 33, -24, 41, -26, -18, -27, 25, 41, 32, -43, 36, 36, -5, 39, -24, 35, 37, -2, 32, -27, -50, -31, 44, 9, 31, -56, 33, 28, -46, 30, -30, 30, 32, -26, 40, -30, 0, -30, 24, 4, 38, -47, 37, 45, -30, 23, -31, 41, 41, -2, 17, -31, 4, -25, 19, 10, 39, -34, 40, 30, -19, 27, -25, 34, 38, -5, 16, -25, -22, -30, 17, -5, 34, -55, 36, 40, -30, 41, -30, 35, 38, -10, 34, -30, -15, -28, 9, 34, 34, -47, 38, 42, -35, 42, -29, 35, 38, -14, 20, -28, -5, -26, 10, 26, 38, -57, 36, 31, -37, 38, -27, 36, 36, -37, 52, -23, -8, -31, 16, 40, 49, -38, 46, 33, -34, 45, -33, 43, 43, 15, 29, -30, -30, -34, 24, 21, 35, -53, 39, 31, -39, 27, -32, 35, 38, -32, 42, -34, 1, -31, 23, 13, 35, -37, 38, 32, -36, 27, -31, 39, 41, -3, 32, -31, -33, -33, 19, -21, 41, -44, 42, 34, -27, 39, -33, 42, 41, -25, 36, -34, -53, -28, 25, 7, 36, -46, 37, 39, -27, 35, -26, 33, 36, -23, 28, -26, 8, -29, 16, 39, 34, -44, 35, 44, -30, 36, -31, 37, 36, -1, 27, -29, -28, -30, 10, -1, 36, -70, 38, 42, -44, 36, -31, 40, 41, -19, 39, -29, 13, -33, -6, 25, 43, -60, 42, 37, -36, 42, -34, 41, 42, 3, 26, -32, -40, -27, 8, 15, 36, -57, 38, 38, -36, 36, -27, 39, 41, -6, 51, -26, 0, -32, -5, 5, 47, -56, 46, 23, -23, 39, -32, 46, 46, -11, 32, -31, -34, -31, 12, 2, 36, -55, 40, 31, -46, 29, -31, 39, 42, -24, 42, -30, -32, -30, 1, 7, 37, -44, 36, 24, -29, 38, -30, 36, 36, -17, 27, -30, 6, -35, 17, 11, 40, -49, 41, 32, -32, 28, -34, 39, 44, 1, 10, -35, -20, -35, 19, 0, 39, -66, 43, 44, -26, 33, -33, 44, 47, -34, 32, -31, -16, -32, 19, 18, 38, -51, 40, 49, -19, 35, -32, 40, 41, -14, 29, -30, -6, -38, 4, -14, 45, -68, 47, 40, -35, 27, -38, 46, 46, -26, 48, -36, 8, -35, -15, 2, 49, -75, 50, 24, -27, 38, -35, 50, 49, 12, 30, -32, -24, -31, -6, -12, 37, -75, 37, 44, -44, 37, -30, 39, 41, -25, 46, -28, -12, -38, -9, 5, 47, -67, 49, 22, -43, 34, -38, 46, 48, 6, 30, -36, -46, -30, 13, -3, 34, -67, 36, 40, -28, 22, -30, 39, 40, -21, 34, -29, -8, -24, 16, 21, 36, -60, 36, 37, -22, 19, -23, 36, 37, -25, 32, -23, -2, -32, 16, 15, 35, -54, 39, 25, -21, 27, -31, 43, 46, 8, 15, -34, -17, -32, 26, 0, 32, -68, 39, 39, -33, 26, -28, 42, 44, -25, 44, -32, 4, -25, 8, 25, 35, -60, 39, 23, -20, 33, -25, 39, 42, -1, 26, -24, -45, -26, -8, 0, 31, -83, 34, 38, -36, 28, -26, 35, 38, -28, 34, -27, -20, -28, -15, 14, 39, -67, 40, 13, -37, 38, -28, 38, 39, -23, 23, -26, -49, -31, -8, 13, 36, -55, 37, 9, -36, 21, -30, 39, 41, -9, 28, -30, 7, -31, -5, 32, 38, -75, 40, 14, -30, 20, -31, 41, 41, -11, 5, -31, -2, -17, 13, 45, 28, -62, 30, 18, -23, 10, -14, 31, 32, -38, 4, -17, -3, -22, 12, 18, 23, -57, 28, 21, -25, 10, -21, 29, 33, -22, 27, -21, -13, -26, 11, 15, 33, -50, 35, 12, -25, 34, -26, 36, 40, -20, 27, -25, -64, -19, 8, 10, 25, -53, 29, 38, -23, 38, -18, 29, 30, -61, 26, -17, 16, -22, -4, 24, 27, -47, 31, 34, -19, 33, -20, 32, 35, -32, 23, -20, -31, -18, -25, 18, 22, -68, 24, 28, -28, 26, -15, 23, 27, -42, 18, -17, -28, -22, -10, 39, 34, -69, 37, 31, -22, 25, -22, 35, 37, -17, 9, -21, -43, -21, -8, 7, 23, -66, 27, 1, -28, 22, -21, 26, 29, -56, 15, -19, -53, -35, 67, 61, 32, -40, 31, 41, -39, 48, -33, 26, 29, -52, 46, -35, -24, -27, 64, 65, 37, -41, 34, 52, -31, 50, -28, 37, 34, -46, 45, -33, -67, -26, 66, 60, 37, -47, 34, 51, -27, 51, -29, 34, 33, -58, 48, -26, -50, -33, 56, 37, 41, -43, 40, 59, -33, 54, -34, 37, 37, -60, 43, -32, -63, -37, 52, 31, 47, -44, 45, 41, -17, 49, -37, 43, 43, -46, 47, -37, -52, -36, 49, 32, 41, -38, 39, 40, -38, 58, -36, 36, 34, -79, 39, -38, -57, -35, 18, 49, 40, -47, 40, 27, -69, 71, -32, 41, 41, -31, 40, -36, -26, -43, 39, 33, 37, -47, 36, 13, -95, 57, -42, 32, 33, -70, 26, -46, -53, -23, 70, 70, 27, -42, 27, 51, -37, 57, -22, 31, 29, -49, 49, -26, -22, -29, 60, 60, 38, -47, 40, 51, -36, 56, -26, 42, 41, -40, 50, -32, -74, -24, 71, 60, 34, -48, 35, 54, -25, 59, -25, 37, 34, -52, 51, -30, -47, -32, 67, 44, 35, -40, 36, 60, -36, 58, -30, 36, 39, -55, 54, -31, -66, -35, 62, 37, 43, -46, 41, 48, -27, 61, -34, 43, 44, -48, 51, -37, -44, -34, 47, 39, 39, -37, 38, 51, -29, 64, -33, 38, 39, -79, 50, -37, -74, -34, 35, 48, 43, -48, 42, 29, -40, 67, -33, 45, 45, -39, 48, -36, -56, -27, 24, 39, 38, -53, 36, 23, -36, 77, -25, 36, 34, -88, 50, -26, -48, -25, 69, 69, 37, -51, 38, 53, -19, 58, -21, 39, 42, -39, 51, -24, -46, -34, 74, 45, 36, -48, 38, 53, -32, 59, -31, 40, 42, -44, 50, -37, -64, -32, 62, 51, 30, -50, 34, 55, -30, 61, -27, 35, 39, -53, 59, -30, -59, -34, 63, 45, 32, -42, 36, 67, -34, 64, -33, 34, 37, -53, 52, -37, -64, -36, 63, 43, 42, -41, 43, 44, -17, 53, -34, 43, 46, -43, 61, -33, -59, -30, 48, 45, 42, -42, 42, 58, -23, 61, -30, 41, 44, -57, 56, -30, -53, -34, 36, 39, 50, -50, 52, 48, -16, 57, -34, 56, 56, -36, 57, -36, -64, -36, 35, 29, 44, -48, 44, 26, -39, 60, -37, 46, 48, -83, 39, -40, -51, -22, 69, 63, 37, -39, 38, 64, -24, 70, -25, 39, 41, -41, 43, -24, -39, -31, 69, 55, 38, -38, 40, 50, -31, 66, -30, 40, 41, -40, 54, -31, -61, -27, 63, 62, 37, -43, 37, 70, -24, 68, -27, 37, 37, -51, 50, -26, -52, -30, 64, 53, 41, -46, 41, 57, -36, 64, -31, 40, 40, -54, 56, -28, -63, -33, 56, 51, 38, -40, 40, 54, -32, 68, -32, 37, 41, -54, 64, -33, -42, -28, 54, 49, 41, -44, 42, 54, -22, 65, -27, 44, 45, -61, 59, -28, -62, -33, 49, 39, 40, -45, 45, 73, -26, 65, -32, 47, 50, -44, 60, -35, -49, -36, 52, 27, 43, -47, 45, 62, -22, 68, -35, 44, 45, -68, 49, -36, -55, -28, 66, 50, 41, -30, 39, 56, -34, 74, -30, 39, 40, -40, 57, -29, -46, -34, 67, 52, 39, -37, 41, 58, -36, 72, -33, 40, 42, -49, 55, -32, -59, -35, 60, 42, 43, -47, 43, 62, -36, 73, -34, 41, 44, -50, 59, -31, -56, -36, 56, 36, 44, -48, 46, 58, -44, 70, -38, 43, 45, -43, 63, -35, -43, -41, 52, 31, 45, -45, 46, 59, -32, 68, -40, 46, 50, -47, 67, -40, -52, -32, 47, 64, 45, -46, 46, 50, -27, 74, -33, 41, 43, -63, 69, -30, -32, -34, 49, 67, 48, -44, 48, 58, -38, 69, -35, 47, 47, -46, 69, -35, -45, -31, 57, 40, 52, -43, 48, 59, -40, 71, -34, 45, 44, -59, 58, -34, -51, -33, 46, 25, 53, -36, 50, 55, -38, 79, -35, 48, 48, -43, 49, -34, -49, -39, 53, 34, 46, -47, 46, 50, -41, 73, -39, 45, 44, -42, 63, -36, -53, -40, 44, 33, 46, -53, 45, 69, -40, 75, -41, 45, 44, -53, 63, -38, -42, -38, 31, 39, 51, -58, 49, 58, -40, 69, -39, 47, 47, -41, 63, -37, -54, -43, 30, 31, 53, -74, 54, 69, -51, 68, -44, 51, 53, -42, 68, -39, -55, -44, 28, 9, 56, -62, 57, 58, -45, 71, -45, 57, 55, -39, 70, -43, -48, -39, 36, 26, 56, -62, 54, 51, -46, 73, -41, 52, 51, -45, 69, -38, -48, -38, 46, 31, 51, -56, 48, 68, -47, 72, -39, 45, 44, -43, 62, -36, -52, -35, 36, 33, 51, -47, 48, 57, -47, 77, -37, 48, 45, -45, 53, -33, -45, -29, 30, 48, 44, -52, 43, 56, -46, 73, -33, 41, 39, -48, 53, -28, -58, -37, 30, 27, 50, -65, 48, 75, -47, 69, -39, 50, 48, -47, 61, -36, -62, -37, 30, 38, 47, -65, 46, 69, -31, 74, -37, 46, 47, -46, 63, -36, -62, -36, 17, 35, 50, -66, 50, 71, -40, 68, -40, 50, 49, -60, 68, -36, -42, -45, 28, 23, 62, -66, 59, 72, -52, 76, -48, 55, 53, -40, 67, -44, -45, -34, 37, 42, 54, -61, 47, 52, -51, 67, -38, 44, 39, -51, 77, -34, -44, -35, 21, 23, 56, -62, 53, 80, -46, 70, -37, 51, 49, -36, 63, -35, -37, -37, 27, 25, 57, -58, 55, 66, -43, 69, -38, 52, 50, -39, 48, -37, -26, -39, 27, 25, 56, -66, 56, 60, -41, 66, -39, 56, 56, -32, 46, -38, -53, -39, 22, 33, 54, -81, 51, 81, -35, 67, -40, 49, 48, -34, 49, -37, -26, -44, 20, 18, 58, -71, 56, 75, -47, 61, -47, 55, 51, -36, 55, -43, -48, -40, 25, 16, 57, -65, 55, 68, -39, 65, -42, 55, 53, -40, 64, -41, -14, -48, 24, -1, 59, -67, 59, 59, -50, 73, -49, 61, 59, -36, 63, -49, -16, -41, 38, 32, 64, -62, 61, 66, -49, 69, -44, 61, 59, -18, 64, -42, -33, -41, 35, 0, 65, -70, 61, 65, -47, 65, -44, 57, 56, -48, 56, -41, -80, -76, 89, 83, 77, -103, 77, 94, -93, 66, -76, 79, 75, -102, 83, -80, -76, -77, 91, 67, 80, -104, 82, 77, -77, 67, -76, 81, 81, -110, 80, -79, -83, -74, 93, 63, 81, -107, 79, 86, -93, 66, -71, 81, 80, -106, 95, -75, -88, -84, 94, 66, 85, -101, 82, 74, -81, 75, -85, 80, 81, -104, 72, -88, -84, -75, 93, 57, 80, -99, 78, 79, -88, 78, -74, 83, 81, -103, 90, -80, -69, -77, 95, 60, 79, -101, 78, 81, -95, 90, -76, 80, 79, -124, 70, -81, -85, -68, 81, 81, 92, -118, 78, 64, -89, 96, -68, 77, 73, -85, 105, -68, -42, -73, 28, 97, 93, -128, 82, 53, -92, 99, -76, 78, 71, -94, 50, -71, -88, -74, 88, 90, 81, -100, 78, 74, -92, 52, -75, 77, 76, -106, 65, -72, -74, -81, 94, 79, 86, -92, 84, 92, -94, 67, -81, 82, 80, -104, 100, -82, -81, -85, 91, 69, 92, -101, 88, 76, -77, 73, -88, 87, 82, -105, 81, -87, -75, -79, 88, 59, 87, -100, 87, 85, -74, 83, -81, 82, 82, -91, 97, -80, -72, -86, 92, 62, 87, -96, 85, 84, -88, 84, -83, 84, 84, -95, 75, -89, -76, -85, 93, 60, 90, -104, 89, 89, -84, 93, -82, 91, 90, -96, 100, -87, -82, -84, 70, 72, 86, -97, 82, 93, -88, 119, -85, 82, 81, -79, 70, -87, -73, -73, 58, 81, 89, -119, 83, 36, -83, 95, -74, 81, 76, -117, 74, -73, -67, -74, 97, 79, 88, -91, 83, 86, -88, 77, -78, 88, 84, -95, 95, -80, -96, -78, 88, 84, 85, -101, 87, 83, -75, 71, -77, 85, 86, -106, 73, -77, -76, -86, 82, 68, 87, -93, 87, 105, -73, 82, -86, 83, 86, -108, 108, -86, -68, -78, 93, 78, 83, -96, 82, 91, -88, 90, -78, 82, 82, -99, 82, -78, -91, -83, 90, 71, 87, -99, 86, 101, -76, 89, -85, 86, 87, -87, 113, -88, -87, -81, 87, 76, 91, -94, 89, 96, -86, 97, -82, 88, 87, -88, 89, -82, -74, -85, 82, 56, 95, -101, 93, 82, -84, 90, -86, 93, 91, -99, 100, -87, -72, -80, 60, 48, 93, -118, 89, 60, -105, 87, -80, 85, 84, -94, 62, -80, -81, -83, 93, 79, 80, -101, 82, 93, -86, 67, -81, 84, 86, -99, 78, -86, -77, -83, 87, 83, 87, -87, 87, 99, -85, 89, -83, 87, 84, -103, 104, -82, -90, -75, 92, 79, 83, -90, 85, 108, -74, 95, -77, 87, 88, -100, 95, -78, -79, -77, 83, 79, 85, -96, 86, 97, -70, 93, -78, 83, 85, -106, 117, -74, -79, -75, 77, 98, 86, -95, 85, 110, -80, 102, -78, 85, 83, -89, 97, -76, -82, -83, 74, 70, 87, -97, 85, 101, -82, 89, -83, 84, 85, -100, 120, -82, -80, -82, 71, 69, 93, -96, 93, 91, -90, 92, -84, 91, 91, -101, 77, -82, -93, -82, 61, 42, 93, -113, 88, 86, -93, 79, -84, 85, 81, -101, 90, -81, -85, -78, 83, 74, 89, -97, 85, 106, -85, 82, -80, 82, 78, -98, 98, -77, -76, -75, 92, 87, 84, -94, 85, 90, -79, 74, -73, 84, 85, -109, 84, -73, -64, -80, 83, 71, 88, -100, 86, 125, -83, 92, -81, 85, 85, -106, 114, -80, -71, -78, 72, 86, 94, -91, 89, 112, -77, 107, -81, 85, 84, -100, 99, -77, -85, -78, 53, 95, 91, -101, 89, 112, -83, 84, -81, 81, 77, -110, 114, -76, -72, -78, 50, 83, 91, -100, 87, 108, -97, 106, -81, 82, 78, -72, 105, -78, -80, -77, 48, 56, 96, -101, 90, 91, -88, 93, -79, 85, 81, -98, 121, -76, -87, -77, 56, 61, 84, -124, 83, 78, -106, 91, -77, 76, 75, -103, 67, -80, -66, -81, 83, 84, 88, -105, 83, 89, -87, 76, -82, 83, 79, -110, 77, -82, -84, -76, 75, 99, 88, -103, 86, 96, -88, 88, -80, 81, 78, -105, 109, -79, -71, -88, 79, 75, 98, -96, 93, 126, -82, 87, -89, 93, 90, -88, 90, -86, -60, -78, 68, 103, 94, -100, 85, 108, -86, 93, -83, 81, 75, -113, 111, -79, -48, -83, 60, 75, 103, -103, 90, 120, -102, 98, -88, 79, 69, -91, 107, -83, -62, -85, 19, 53, 95, -118, 90, 110, -120, 74, -87, 86, 80, -89, 123, -85, -66, -83, 41, 59, 96, -123, 91, 99, -114, 81, -88, 83, 74, -81, 83, -84, -89, -77, 29, 60, 90, -135, 83, 95, -110, 80, -81, 76, 71, -109, 80, -74, -61, -76, 60, 83, 92, -121, 84, 76, -91, 78, -80, 81, 75, -111, 93, -76, -72, -78, 58, 77, 89, -120, 88, 88, -80, 67, -79, 84, 81, -98, 81, -78, -71, -77, 66, 80, 88, -111, 83, 123, -89, 87, -81, 79, 75, -119, 114, -78, -68, -75, 47, 96, 93, -114, 83, 113, -97, 74, -82, 78, 67, -107, 103, -76, -79, -79, 30, 75, 93, -130, 84, 97, -96, 64, -83, 78, 66, -116, 119, -79, -76, -76, 26, 69, 103, -123, 86, 113, -126, 104, -85, 73, 62, -114, 97, -77, -101, -66, 26, 75, 85, -128, 74, 129, -135, 78, -72, 70, 65, -97, 113, -68, -58, -75, 23, 63, 102, -144, 88, 106, -136, 70, -84, 77, 65, -96, 71, -74, -79, -50, 43, 75, 92, -149, 65, 83, -134, 39, -66, 50, 36, -107, 71, -53, -66, -66, 31, 89, 105, -145, 81, 86, -115, 40, -79, 68, 48, -109, 87, -68, -67, -58, 42, 86, 110, -130, 78, 90, -114, 79, -73, 61, 43, -102, 89, -58, -69, -75, 45, 69, 111, -133, 88, 89, -116, 74, -87, 76, 54, -108, 102, -74, -84, -77, 23, 83, 109, -139, 86, 99, -120, 72, -88, 72, 52, -70, 82, -78, -61, -73, 23, 48, 123, -152, 92, 74, -140, 22, -90, 73, 41, -88, 94, -76, -56, -66, 28, 82, 118, -165, 86, 96, -136, 75, -84, 68, 42, -77, 78, -70, -51, -55, -35, 66, 115, -158, 76, 82, -164, -2, -76, 51, 31, -95, 87, -58, -34, 13, -26, 11, 13, 4, 14, -13, 15, 0, 12, 16, 15, -19, -32, 12, 17, 2, -22, -11, 18, -5, 21, -6, -16, 10, 4, 22, 25, 18, -24, 0, 13, 2, -6, -1, 14, 3, 15, -2, -15, -10, 3, 14, 16, 8, -4, 2, -16, 27, 0, 43, -2, 27, -2, -4, -15, 2, 27, -1, -1, -8, -20, 27, 5, 7, 21, 15, 0, 17, 2, -3, 2, -17, 11, 2, 3, 2, -9, 2, 4, 16, 17, 24, -1, 27, -2, 0, -13, -6, 16, 0, 0, 4, -24, 17, 20, -1, 9, 6, 18, 13, 18, -3, 9, -29, -2, 16, 15, 24, -3, -3, 23, -2, 4, 0, 23, 14, 21, -1, 14, -28, 0, 21, 20, 23, -13, -6, -17, 19, -21, 16, 4, -17, 4, 16, 10, 0, 23, 6, 10, -5, -10, 19, -11, 24, -14, 35, 12, -3, 9, 11, 13, 9, 24, 7, 6, -6, 1, 22, -21, 25, 3, 18, 7, 12, 6, 3, 15, 13, 27, 7, 6, -6, -19, 24, -17, 28, 1, 32, 1, 17, 0, -4, 5, 12, 29, 0, 1, -11, 4, 27, 2, 28, 14, 38, -3, 22, -5, 6, 1, 11, 27, -6, -6, -3, -17, 26, 7, 19, 16, 38, 7, 21, 4, -9, 3, 3, 19, 3, 1, 8, 7, 18, 12, 10, 15, 14, 16, 16, 13, -1, 14, -14, 9, 12, 10, 18, -9, 9, 24, 5, 2, 9, 21, 13, 16, 1, 14, -23, 3, 17, 15, 19, 3, 3, -22, 32, -33, 35, 1, -24, 3, 5, 21, 7, 35, 2, 3, -19, -4, 30, 1, 25, -5, 7, 2, -5, 5, 16, 24, 12, 29, 6, 10, -8, -4, 27, -17, 27, 2, 20, 1, 13, 2, 11, 22, 15, 29, 0, 3, -8, 12, 27, -8, 33, 15, 22, -1, 14, -1, 5, 24, 17, 31, -1, 0, -2, -3, 29, -14, 24, 13, 31, 5, 20, 5, -7, 14, 15, 24, 2, 1, -5, 17, 23, 13, 23, 13, 31, 6, 23, 5, -3, 16, 14, 24, 4, 5, 6, -4, 23, 8, 22, 11, 38, 11, 24, 12, -18, 11, 6, 21, 8, 9, 18, 19, 20, 14, 22, 1, 35, 15, 16, 11, 3, 17, -5, 21, 7, 7, 4, -8, 21, 19, 23, -21, 0, 3, -25, 7, 18, 24, 7, 26, 8, 13, -29, -5, 22, 6, 24, -15, -8, 5, -8, 9, 16, 29, 15, 28, 9, 12, -21, 15, 23, -5, 26, -1, 23, 4, 1, 5, 17, 23, 17, 27, 4, 5, 0, 9, 26, -1, 19, 3, 3, 10, 6, 11, 6, 21, 20, 18, 9, 8, -8, 22, 20, 5, 17, 8, 13, 12, 11, 11, 2, 18, 20, 15, 9, 9, 13, 6, 18, 15, 18, 7, 25, 18, 25, 16, -13, 12, 17, 16, 13, 11, 5, 23, 18, 25, 20, 1, 27, 16, 22, 14, -10, 16, 14, 20, 12, 13, 16, 13, 20, 2, 25, -6, 32, 12, 27, 13, -16, 29, 7, 27, 8, 10, -2, 14, 24, 20, 28, -23, 6, 5, -26, 8, 21, 30, 10, 28, 7, 11, -35, 2, 26, 38, 20, -13, 16, -1, -29, 4, 28, 38, 14, 24, 4, 9, -28, 13, 22, -16, 25, -18, -7, 7, -30, 10, 14, 34, 22, 26, 12, 13, -24, 21, 26, 14, 20, -1, -8, 16, 7, 15, 19, 28, 22, 20, 12, 13, -6, 18, 21, 39, 15, 2, 21, 23, 18, 22, 1, 18, 24, 13, 16, 15, 8, 29, 16, 36, 16, -3, 18, 25, 27, 23, 0, 20, 20, 14, 21, 21, 32, 22, 18, 6, 20, 0, 28, 25, 23, 24, -7, 26, 15, 19, 19, 20, 37, 26, 20, 4, 21, -16, 24, 15, 26, 15, -15, 28, 12, 21, 13, 12, 11, 15, 22, 31, 15, -30, -1, 6, -77, 13, 30, 31, 7, 20, 14, 20, -29, 10, 16, 12, 28, -32, 13, 8, -77, 11, 33, 42, 13, 30, 9, 12, -51, 19, 27, 34, 20, -13, -3, 18, -31, 20, 25, 35, 17, 19, 18, 20, -35, 23, 20, 32, 13, -30, -19, 26, -29, 26, 12, 29, 23, 12, 23, 26, -24, 27, 15, 46, 11, -28, -19, 35, -2, 32, 13, 25, 27, 9, 28, 28, 35, 35, 13, 39, 12, -20, 18, 42, 4, 40, 0, 22, 26, 10, 37, 36, 60, 34, 13, 9, 17, -28, 37, 31, 2, 28, -13, 22, 23, 17, 28, 26, 76, 34, 18, 22, 19, -23, 21, 20, 11, 21, -18, 27, 9, 18, 18, 19, 25, 24, 20, 18, 18, -64, 1, 3, -54, 6, 21, 34, -4, 20, 8, 11, -29, -1, 17, 48, 23, -31, 1, 8, -47, 12, 35, 39, -1, 25, 16, 20, -53, 18, 24, 15, 20, -63, 0, 7, -63, 11, 34, 38, 10, 22, 13, 16, -42, 24, 22, 73, 16, -45, 2, 18, -22, 21, 26, 27, 13, 17, 19, 24, -22, 13, 17, 22, 8, -64, -13, 30, -85, 32, 16, 15, 18, 6, 29, 29, 43, 29, 9, 55, 5, -42, 17, 36, -41, 35, 3, 17, 20, 4, 33, 33, 75, 29, 6, 15, 3, -44, 43, 27, -16, 30, -27, 17, 8, 4, 28, 29, 113, 31, 3, 2, 8, -77, 27, 17, -57, 21, -47, 19, -10, 10, 23, 24, 82, 22, 7, 37, 20, -61, 9, 3, -61, 2, 8, 30, -4, 21, 3, 2, -14, 7, 20, 11, 23, -69, 8, 3, -56, 4, 33, 37, 6, 24, 4, 7, -22, 13, 25, 29, 13, -45, 10, 0, -80, 6, 26, 28, 1, 16, 7, 11, -23, 8, 14, 48, 17, -124, 5, 11, -97, 15, 24, 30, -1, 20, 14, 17, -23, 10, 16, 78, 8, -65, -2, 17, -90, 20, 20, 17, 8, 11, 17, 18, 13, 13, 9, 29, 8, -68, 13, 24, -55, 24, -16, 24, 2, 9, 22, 23, 56, 18, 10, -13, 7, -48, 27, 24, -31, 26, -26, 20, 1, 9, 25, 28, 141, 28, 4, -25, 20, -104, 14, 0, -94, 4, -34, 32, -42, 25, 4, 7, 4, -2, 18, 0, 2, 0, 0, 0, 0, 2, 0, 2, 1, 1, 0, 1, 1, 1, 2, 0, 2, 2, 1, 0, 2, 0, 1, 1, 0, 1, 0, 0, 0, 1, 1, 0, 1, 0, 1, 1, 1, 1, 1, 2, 2, 1, 0, 0, 1, 0, 2, 0, 1, 1, 2, 0, 0, 1, 1, 1, 2, 1, 0, 0, 0, 0, 0, 2, 0, 1, 1, 0, 0, 0, 0, 0, 0, 2, 1, 1, 1, 1, 0, 2, 0, 2, 0, 0, 1, 0, 0, 2, 0, 0, 0, 1, 2, 0, 0, 0, 2, 2, 1, 0, 2, 1, 2, 0, 0, 1, 1, 2, 0, 1, 2, 1, 2, 1, 1, 1, 0, 1, 1, 0, 1, 0, 0, 0, 2, 1, 1, 46, 34, -35, -46, -25, 7, -24, 0, 6, 39, 35, -22, -21, 31, -39, 29, 66, 40, -42, -51, -30, 0, -30, -72, 30, 72, 43, -27, -28, 18, -114, 40, 70, 35, -19, -39, -29, -10, -25, -2, 33, 59, 37, -22, -19, 19, -42, 35, 42, 46, 23, -5, -37, 0, -37, -53, 41, 20, 47, -35, -33, 22, -98, 46, 48, 33, 55, -30, -28, -3, -24, -43, 33, -4, 37, -18, -14, 25, -7, 31, -28, 42, 76, -18, -18, -4, -22, -16, 22, -6, 42, -20, -20, 49, -42, 40, -17, 61, 61, 4, -32, -33, -36, -10, 50, -104, 60, -34, -34, 61, 33, 60, -38, 26, 48, -62, -10, 16, -7, 1, 21, -34, 29, -2, 0, -12, -26, 24, 89, 10, -5, -76, 0, 2, 1, 14, -8, 2, 11, 3, 5, 37, -17, 8, 15, 29, -9, -16, -16, -16, -19, -28, 9, 9, 27, -18, -19, 10, -14, 25, 48, 30, -4, -53, -21, 25, -20, 22, 11, 16, 31, -19, -18, 12, -29, 30, 32, 33, 3, 4, -22, 21, -26, -55, 25, 6, 31, -24, -25, 10, -10, 31, 0, 36, 25, -15, -17, 21, -21, 13, 19, 0, 33, -20, -20, 12, -34, 35, -15, 38, 19, 10, -17, 22, -21, -14, 18, -8, 37, -21, -23, 22, 2, 36, -41, 42, 53, -26, -16, 21, -18, -19, 38, -29, 43, -17, -15, 0, -11, 43, -34, 27, 13, -29, 0, 18, -1, 11, 6, -12, 27, 0, 0, 29, -11, 25, 48, 16, -21, -35, -7, -9, -7, 21, -7, 4, 18, -4, -4, 37, 3, 13, 8, 34, -12, -12, -26, -4, -29, -15, 23, 10, 35, -27, -27, 9, -3, 31, 20, 17, -16, -51, -13, 11, -12, 47, 12, 13, 17, -11, -9, 6, -3, 16, -39, 38, -7, 2, -32, 2, -33, -24, 14, 12, 39, -33, -31, 6, -16, 36, 4, 30, -13, 1, -22, 15, -24, 28, 46, -1, 29, -23, -24, 4, 3, 29, -26, 36, 3, 19, -15, 16, -18, 0, 28, 11, 36, -18, -20, 12, -7, 35, -10, 32, 11, -7, -14, 23, -17, -6, 11, -17, 32, -16, -17, 21, 14, 30, -6, 28, 4, -4, -2, 18, -3, 17, 9, -4, 27, -5, -5, 28, -10, 23, 32, 6, -21, -35, 5, 7, 3, 10, 2, 4, 7, 3, 2, 35, -3, 4, 20, 28, -12, -23, -22, 10, -23, -28, 13, 5, 27, -23, -24, 24, 3, 26, 6, 20, -20, -17, -12, 3, -15, 49, 25, 9, 17, -12, -11, 8, -16, 15, -20, 24, -12, 8, -25, 4, -24, -61, 23, 10, 24, -24, -22, 17, 18, 23, -20, 27, -7, -10, -14, 19, -20, 43, 23, 4, 24, -20, -21, 2, -21, 24, -15, 25, 1, 10, -10, 15, -12, -9, 26, 14, 25, -11, -11, 14, 13, 24, -3, 32, 9, -3, -12, 19, -15, 5, 22, -9, 31, -13, -13, 14, 6, 28, 6, 15, 6, -11, 0, 12, 0, 26, 7, -1, 15, 0, 0, 20, -3, 16, 37, 9, -29, -26, 5, 12, 0, 8, 6, 3, 6, 0, -1, 29, -1, 7, 22, 21, -15, -31, -12, 17, -15, -27, 3, 8, 21, -16, -16, 21, -9, 19, 8, 9, -15, -16, -10, 7, -9, 35, -4, 5, 12, -9, -6, 29, 0, 9, -10, 20, -7, 7, -9, 9, -12, -23, 14, 13, 19, -15, -14, 13, -17, 19, -14, 14, -6, -1, -4, 12, -8, 13, 32, -17, 13, -10, -12, 4, 2, 11, -6, 18, 9, -12, -10, 10, -9, 8, 14, 18, 19, -9, -8, 18, -11, 15, 14, 20, 23, -7, -14, 25, -13, -4, 16, -13, 21, -11, -11, 17, 17, 18, 9, 15, 10, -12, -2, 12, -3, 35, 13, 0, 15, -3, -3, 12, -7, 13, 38, 6, -28, -29, 2, 5, 0, 0, 11, 0, 5, 0, -3, 32, -2, 0, 25, 19, -15, -36, -15, 18, -18, -25, -6, 0, 17, -19, -20, 30, -7, 14, -1, 9, -7, -10, -7, 12, -6, 7, -15, 0, 10, -7, -6, 25, -8, 7, -11, 9, -7, -15, 4, 12, -2, -20, 16, 11, 2, -5, -9, 15, -1, 6, -5, 9, 2, -10, -9, 1, -9, -5, 19, -9, 8, -6, -7, 11, -5, 6, 3, 13, 13, -16, -10, 20, -13, 12, 14, 19, 10, -8, -9, 17, -1, 12, 16, 18, 31, 1, -17, 34, -17, -3, 17, -5, 18, -14, -12, 12, 5, 15, 14, 11, 16, -14, -4, 16, -6, 39, 10, -1, 11, -4, -5, 16, -3, 9, 1, 0, 1, 1, 0, 0, 1, 1, 1, 0, 1, 0, 0, 1, 2, 0, 2, 1, 0, 2, 1, 1, 0, 0, 0, 1, 1, 2, 1, 1, 0, 0, 1, 0, 2, 2, 1, 2, 1, 0, 1, 1, 2, 0, 0, 0, 1, 0, 0, 1, 1, 0, 2, 1, 0, 1, 0, 1, 1, 0, 0, 1, 1, 0, 1, 2, 1, 0, 0, 0, 1, 0, 1, 0, 0, 1, 2, 2, 1, 0, 1, 2, 2, 2, 1, 0, 0, 0, 1, 0, 0, 2, 0, 1, 0, 2, 1, 0, 1, 0, 1, 2, 0, 1, 0, 1, 1, 1, 1, 1, 0, 0, 0, 1, 0, 1, 2, 0, 0, 0, 0, 0, 0, 1, 1, 2, 0, 0, 17, 18, -152, -41, -9, 21, -14, -42, 17, -74, 17, -14, -17, 9, -60, 18, 24, 20, -65, -50, -23, 37, -18, -11, 18, -59, 22, -16, -13, 21, -75, 19, 44, 23, -68, -31, -16, 50, -15, -5, 25, -55, 23, -11, -9, 57, -56, 23, -2, 23, -58, -47, -15, 30, -15, -38, 29, -84, 21, -12, -14, 32, -64, 21, -9, 36, -67, -31, -26, 53, -28, -43, 35, -46, 34, -27, -30, 26, -41, 33, -41, 16, -107, -60, 0, 1, -7, -81, 0, -61, 12, -7, -11, 55, -64, 15, -44, 26, -86, -45, -21, 45, -19, -49, 29, -63, 27, -18, -18, -14, -49, 24, 30, 5, -82, -41, 1, 11, -1, -52, 13, -83, 4, 1, 0, 26, -58, 4, -40, 33, -45, -41, -33, 62, -31, -17, 22, -53, 37, -29, -27, 7, -34, 32, 8, 33, -56, -37, -33, 40, -30, -15, 35, -44, 35, -26, -24, 18, -37, 31, -1, 44, -59, -29, -41, 47, -36, -28, 50, -50, 45, -30, -23, 10, -38, 42, -14, 38, -52, -39, -33, 59, -32, -7, 33, -46, 39, -29, -28, 17, -48, 37, 30, 37, -39, -21, -26, 59, -28, -16, 31, -51, 38, -26, -27, 2, -47, 37, 17, 46, -49, 0, -33, 54, -35, -15, 13, -47, 45, -38, -39, -13, -39, 45, 3, 34, -36, -33, -22, 28, -23, -25, 36, -60, 34, -22, -21, -28, -41, 32, -25, 39, -54, -16, -34, 36, -36, -50, 27, -38, 38, -37, -40, 0, -46, 39, -30, 36, -47, -13, -32, 52, -32, -9, 21, -50, 35, -30, -30, 15, -42, 32, 4, 40, -42, -14, -42, 62, -40, -22, 38, -48, 44, -33, -31, 22, -25, 42, 5, 32, -37, -42, -38, 64, -29, -11, 38, -41, 36, -24, -19, 9, -31, 29, 19, 41, -38, -18, -38, 65, -34, -18, 39, -39, 41, -32, -29, 18, -32, 40, -13, 54, -29, -7, -42, 74, -42, -26, 32, -38, 52, -42, -40, 0, -27, 54, -12, 41, -33, -27, -31, 64, -33, -40, 40, -31, 40, -32, -36, -8, -38, 40, -16, 38, -35, -30, -26, 74, -27, -38, 18, -43, 37, -25, -28, 19, -49, 40, -2, 34, -50, -32, -21, 51, -24, -25, 30, -45, 35, -26, -26, -14, -44, 36, -23, 37, -46, -29, -35, 54, -32, -15, 21, -43, 40, -29, -30, 14, -18, 35, 39, 31, -39, -38, -29, 66, -26, -31, 15, -44, 33, -21, -18, 7, -33, 27, -13, 37, -25, -32, -32, 64, -28, -6, 35, -37, 38, -26, -25, 14, -33, 34, 29, 38, -18, -21, -28, 72, -29, -51, 41, -37, 38, -27, -28, 2, -33, 38, -11, 36, -16, -38, -34, 70, -30, -13, 23, -47, 40, -26, -23, 30, -35, 35, 25, 35, -19, -41, -30, 69, -27, -30, 57, -33, 37, -23, -21, -8, -38, 36, -10, 28, -28, -21, -28, 67, -21, -32, 33, -44, 30, -17, -12, 46, -40, 29, 11, 42, -37, -41, -36, 63, -35, -28, 53, -33, 41, -31, -30, -44, -33, 39, -19, 28, -40, -41, -22, 55, -22, -9, 22, -47, 26, -21, -20, 15, -37, 27, 16, 32, -24, -9, -29, 55, -28, -27, 36, -39, 33, -27, -27, 8, -36, 29, 0, 27, -33, -39, -23, 59, -23, -24, 23, -41, 28, -20, -19, 20, -29, 26, 20, 31, -19, -23, -21, 69, -23, -40, 28, -33, 33, -22, -22, 9, -32, 29, -8, 35, -15, -29, -25, 72, -26, -31, 56, -41, 36, -25, -26, 26, -35, 34, 21, 39, -24, -10, -26, 66, -26, -32, 44, -39, 40, -27, -26, -2, -36, 40, -13, 37, -31, -46, -22, 79, -22, -32, 45, -40, 33, -21, -21, 19, -36, 33, 5, 35, -40, -20, -26, 57, -22, -35, 25, -45, 35, -26, -23, -20, -41, 37, 2, 15, -54, -26, -13, 39, -12, -21, -13, -44, 14, -15, -16, 26, -32, 16, -5, 36, -40, -32, -28, 48, -28, -27, 10, -38, 33, -27, -27, 17, -27, 29, 21, 27, -30, -23, -24, 64, -27, -20, 41, -40, 27, -27, -27, 7, -34, 25, -2, 38, -28, -20, -26, 62, -29, -12, 31, -37, 34, -27, -29, 29, -36, 36, 5, 38, -32, -28, -27, 56, -28, -14, 41, -32, 38, -28, -30, -3, -33, 36, -5, 28, -31, -29, -34, 49, -33, -36, 19, -36, 33, -35, -32, 21, -36, 28, 11, 37, -32, -23, -25, 48, -26, -28, 54, -31, 36, -27, -27, 0, -32, 37, -10, 36, -37, -20, -28, 46, -29, -31, 23, -37, 35, -32, -34, 10, -43, 38, 11, 24, -71, -10, -12, 44, -13, -26, 36, -48, 19, -16, -17, -12, -40, 27, -22, 23, -56, -24, -23, 29, -21, -25, 30, -46, 24, -23, -23, 33, -37, 25, 33, 25, -42, -34, -19, 47, -19, -25, 21, -42, 24, -21, -20, 19, -27, 28, -14, 26, -42, -36, -26, 40, -25, -27, 19, -40, 26, -28, -28, 22, -32, 32, 13, 27, -36, -23, -23, 45, -25, -22, 34, -38, 27, -30, -30, 0, -35, 31, -29, 38, -25, -19, -27, 54, -29, -32, 40, -31, 36, -32, -32, 23, -30, 39, 30, 33, -46, -21, -22, 33, -22, -22, 43, -38, 29, -26, -24, -5, -41, 33, 0, 26, -56, -41, -20, 36, -22, -26, 32, -38, 27, -26, -25, 19, -30, 29, 22, 24, -71, -25, -11, 30, -13, -44, 37, -65, 21, -14, -15, 26, -37, 25, -20, 21, -53, -24, -20, 26, -22, -21, 19, -45, 19, -25, -26, -1, -33, 24, 25, 28, -54, -22, -13, 53, -15, -29, 27, -54, 23, -19, -19, 27, -26, 28, 11, 27, -45, -30, -19, 32, -19, -18, 40, -41, 27, -22, -21, 6, -37, 32, 7, 27, -57, -35, -22, 40, -22, -26, 22, -40, 25, -24, -24, 19, -35, 29, 11, 35, -49, -25, -29, 28, -32, -26, 45, -36, 32, -31, -31, 19, -36, 37, 6, 19, -45, -33, -20, 37, -21, -22, 34, -46, 18, -27, -27, -5, -39, 22, 66, 24, -102, 10, -6, 4, -10, -41, 27, -55, 23, -14, -14, 18, -75, 25, 10, 29, -72, -28, -15, 33, -14, -24, 32, -59, 29, -13, -13, 16, -76, 31, 40, 25, -66, -24, -25, 39, -21, -57, 27, -72, 27, -18, -15, 28, -39, 24, 13, 34, -40, -16, -29, 60, -26, -22, 38, -49, 34, -23, -20, 8, -92, 34, -20, 26, -67, -40, -21, 58, -20, -54, 34, -49, 27, -16, -14, 10, -26, 26, 43, 29, -30, -38, -25, 69, -20, -34, 33, -52, 33, -18, -15, 10, -84, 30, 30, 23, -70, -42, -17, 37, -15, -71, 24, -74, 25, -14, -13, -3, -45, 21, 0, 34, -37, -17, -23, 54, -22, -49, 33, -48, 37, -23, -20, -5, -87, 34, 34, 23, -52, -20, -23, 43, -20, -66, 30, -66, 26, -17, -17, 1, -53, 24, 9, 34, -49, -33, -25, 52, -22, -41, 29, -48, 36, -23, -20, 6, -24, 36, 39, 38, -48, -9, -35, 60, -32, -13, 26, -48, 38, -30, -27, 6, -106, 36, 0, 36, -41, -40, -34, 66, -28, -25, 41, -47, 38, -27, -24, 15, -1, 34, 21, 37, -25, -15, -29, 68, -24, -24, 35, -46, 39, -23, -19, 25, -94, 37, 29, 30, -51, -27, -31, 64, -27, -40, 32, -50, 36, -23, -17, -1, -13, 32, 21, 39, -44, -2, -29, 57, -29, -30, 40, -41, 40, -27, -27, -1, -108, 38, -12, 35, -52, -44, -32, 60, -29, -53, 17, -62, 38, -26, -24, 11, -24, 31, -1, 38, -24, -21, -31, 51, -29, -50, 39, -48, 40, -31, -28, -12, -107, 37, 2, 39, -33, -15, -36, 63, -33, -41, 24, -48, 41, -33, -31, 10, -89, 40, 23, 39, -39, -35, -36, 66, -33, -49, 31, -50, 43, -30, -29, 24, 24, 42, 1, 39, -25, -18, -34, 80, -32, -17, 16, -32, 40, -30, -28, 6, -89, 36, 13, 45, -53, -17, -39, 77, -38, -44, 31, -46, 45, -37, -35, -8, -1, 43, 4, 49, -37, -23, -35, 75, -35, -22, 33, -40, 49, -33, -33, 2, -84, 48, -9, 36, -56, -67, -33, 69, -31, -44, 42, -45, 37, -27, -25, -22, 2, 34, -3, 46, -34, -8, -39, 72, -39, -30, 39, -33, 48, -34, -34, 10, -96, 45, 17, 34, -55, -38, -32, 63, -29, -55, 35, -45, 37, -25, -21, -8, -3, 34, 2, 34, -49, -43, -28, 63, -28, -48, 27, -50, 37, -25, -26, 11, 15, 35, 22, 35, -29, -25, -31, 73, -30, -32, 26, -39, 34, -28, -26, 10, -85, 33, 14, 36, -43, -38, -33, 69, -32, -24, 19, -53, 39, -27, -26, 10, -2, 36, 17, 41, -24, -6, -34, 79, -35, -51, 47, -33, 43, -32, -33, 4, -85, 41, 0, 37, -26, -46, -28, 93, -26, -41, 43, -43, 37, -24, -22, 18, 1, 38, 2, 46, -20, -9, -30, 88, -34, -26, 54, -39, 46, -32, -33, 7, -80, 47, 13, 34, -30, -33, -35, 69, -31, -40, 48, -58, 39, -24, -22, 7, 0, 35, 11, 37, -34, -17, -30, 70, -30, -34, 27, -36, 37, -30, -30, -9, -85, 35, 36, 38, -54, -21, -27, 70, -24, -23, 35, -42, 39, -25, -23, 13, -96, 37, 19, 35, -48, -43, -32, 67, -29, -42, 25, -47, 39, -28, -26, 18, -2, 35, 32, 35, -25, -3, -30, 73, -29, -34, 24, -35, 36, -26, -26, 8, -89, 36, 16, 36, -30, -42, -28, 85, -28, -45, 31, -41, 36, -25, -25, 6, 4, 37, 6, 44, -14, -5, -32, 80, -33, -28, 38, -36, 45, -30, -32, 11, -87, 44, -3, 33, -30, -34, -35, 68, -32, -44, 32, -51, 37, -30, -29, 6, 0, 33, 37, 37, -19, -13, -33, 70, -32, -18, 45, -43, 39, -28, -28, 14, -89, 37, -10, 43, -44, -26, -33, 74, -34, -31, 48, -37, 41, -33, -32, -14, -4, 42, 30, 29, -56, -51, -24, 71, -24, -45, 24, -56, 29, -22, -20, 10, -3, 26, 32, 36, -39, -1, -32, 69, -32, -31, 30, -31, 37, -28, -29, 14, -89, 32, 23, 34, -34, -49, -25, 68, -26, -68, 21, -38, 32, -22, -23, 5, 12, 31, 16, 41, -25, -15, -36, 66, -37, -17, 45, -35, 40, -35, -35, 9, -102, 38, 21, 34, -36, -43, -27, 62, -28, -62, 40, -45, 34, -26, -27, 15, 18, 31, 26, 33, -18, -31, -26, 67, -25, -28, 27, -27, 34, -28, -26, 7, -92, 34, 3, 30, -38, -20, -31, 64, -29, -41, 39, -41, 34, -27, -26, 13, 4, 26, 38, 40, -43, 0, -31, 59, -31, -23, 36, -46, 37, -25, -27, 9, -85, 36, 17, 35, -52, 5, -26, 66, -23, -35, 35, -39, 36, -25, -24, 4, -98, 33, 6, 37, -55, -40, -35, 59, -35, -56, 15, -49, 37, -40, -38, -7, 5, 37, 30, 43, -36, -14, -34, 67, -36, -32, 35, -31, 43, -34, -34, 9, -95, 40, 26, 26, -45, -50, -27, 55, -27, -45, 28, -54, 28, -28, -30, 18, 7, 31, 20, 32, -32, -21, -28, 60, -28, -34, 33, -33, 31, -30, -31, 7, -88, 33, 22, 32, -40, -31, -29, 61, -28, -50, 40, -46, 38, -30, -29, 12, 23, 30, 32, 37, -32, -8, -36, 60, -35, -32, 30, -36, 37, -35, -35, -1, -84, 35, 0, 38, -50, -25, -29, 63, -28, -28, 22, -44, 37, -29, -28, 4, -8, 37, 0, 34, -64, -37, -25, 64, -26, -72, 28, -45, 33, -29, -32, -13, -11, 34, 14, 41, -37, -11, -29, 74, -29, -41, 53, -37, 41, -29, -29, -2, -104, 40, 20, 32, -54, -43, -33, 34, -33, -45, 28, -66, 30, -36, -37, 9, 0, 33, 29, 30, -32, -28, -20, 67, -22, -27, 37, -36, 28, -22, -23, 14, -90, 31, 27, 25, -49, -46, -14, 58, -15, -39, 32, -46, 23, -20, -18, 12, 0, 26, 20, 25, -42, -22, -24, 56, -24, -24, 38, -39, 24, -25, -25, 1, -90, 28, 23, 30, -71, -20, -24, 55, -21, -53, 30, -53, 32, -23, -21, -7, -4, 31, 29, 30, -53, -36, -20, 60, -18, -10, 28, -48, 29, -22, -19, -6, -85, 30, 21, 55, -94, -54, -35, 80, -38, -53, 32, -64, 55, -39, -43, 32, -66, 55, 37, 55, -86, -47, -39, 78, -39, -57, 48, -70, 54, -38, -40, 36, -64, 53, 25, 52, -86, -47, -38, 75, -41, -42, 38, -71, 50, -41, -41, 32, -52, 52, 42, 58, -91, -39, -43, 77, -47, -49, 34, -66, 56, -48, -50, 31, -61, 57, 17, 56, -77, -41, -41, 87, -43, -50, 50, -69, 55, -41, -43, 37, -53, 54, 30, 59, -77, -45, -48, 78, -49, -51, 54, -66, 59, -47, -49, 18, -55, 57, 0, 62, -73, -41, -41, 85, -45, -44, 61, -68, 60, -43, -45, 24, -45, 61, 22, 62, -80, -35, -41, 81, -44, -46, 54, -67, 60, -45, -48, 16, -58, 62, 3, 49, -77, -58, -34, 86, -37, -67, 35, -63, 49, -35, -38, 45, -59, 49, 55, 43, -80, -52, -30, 85, -32, -60, 27, -68, 43, -31, -34, 52, -61, 43, 22, 51, -77, -42, -39, 83, -39, -51, 42, -68, 49, -35, -37, 45, -57, 49, 43, 47, -73, -32, -37, 87, -36, -55, 37, -70, 47, -35, -36, 40, -56, 44, 22, 50, -74, -13, -38, 88, -39, -44, 47, -69, 49, -37, -37, 55, -62, 51, 29, 61, -69, -14, -45, 88, -48, -47, 51, -62, 58, -48, -51, 4, -46, 61, 2, 50, -63, -28, -32, 87, -39, -42, 41, -64, 47, -40, -46, 65, -61, 50, 34, 54, -59, -62, -36, 95, -38, -45, 43, -65, 53, -36, -38, 3, -53, 52, 14, 49, -71, -64, -34, 89, -36, -61, 45, -67, 50, -35, -37, 41, -54, 47, 48, 44, -59, -47, -39, 85, -39, -53, 33, -68, 46, -36, -37, 46, -58, 44, 15, 47, -69, -48, -39, 76, -40, -51, 39, -67, 45, -39, -41, 46, -58, 47, 40, 49, -71, -31, -39, 83, -39, -52, 44, -72, 49, -41, -41, 42, -62, 49, 9, 52, -68, -30, -44, 80, -44, -38, 51, -67, 54, -44, -43, 35, -45, 55, 18, 56, -56, -41, -45, 86, -45, -49, 57, -65, 55, -42, -43, 19, -61, 55, 7, 53, -58, -45, -40, 83, -41, -45, 51, -64, 53, -40, -41, 36, -46, 54, 35, 47, -54, -57, -38, 88, -39, -37, 40, -65, 48, -37, -40, 17, -52, 44, 5, 41, -67, -81, -30, 72, -31, -59, 44, -62, 40, -26, -28, 43, -60, 39, 51, 39, -60, -50, -36, 77, -33, -64, 29, -71, 41, -31, -29, 48, -58, 39, 13, 41, -69, -64, -36, 71, -35, -52, 40, -62, 42, -33, -31, 45, -62, 39, 44, 43, -64, -43, -38, 72, -38, -58, 36, -67, 44, -33, -34, 41, -56, 43, 36, 44, -54, -51, -43, 75, -41, -47, 46, -68, 47, -37, -36, 46, -65, 42, 40, 43, -53, -46, -32, 88, -33, -51, 44, -64, 43, -31, -31, 32, -48, 45, 31, 47, -48, -30, -35, 95, -35, -43, 43, -61, 48, -34, -35, 43, -57, 46, 32, 47, -55, -55, -31, 81, -35, -35, 46, -66, 46, -32, -36, 19, -53, 42, 21, 38, -68, -91, -23, 60, -23, -57, 43, -63, 38, -21, -21, 34, -54, 37, 42, 38, -61, -77, -33, 63, -30, -71, 33, -67, 39, -28, -26, 36, -66, 36, 42, 37, -67, -70, -29, 57, -28, -66, 39, -65, 38, -25, -24, 45, -56, 30, 53, 39, -63, -51, -32, 66, -31, -67, 40, -63, 40, -29, -28, 45, -60, 39, 40, 39, -58, -54, -33, 74, -32, -58, 47, -66, 40, -33, -32, 42, -51, 37, 32, 41, -47, -85, -29, 78, -28, -54, 49, -63, 42, -23, -22, 38, -60, 41, 29, 43, -50, -73, -36, 82, -32, -52, 50, -64, 44, -29, -28, 25, -50, 38, 22, 43, -52, -81, -38, 75, -36, -44, 52, -60, 44, -33, -33, 25, -51, 41, 23, 35, -84, -86, -23, 33, -21, -47, 46, -67, 37, -24, -21, 26, -59, 38, 38, 35, -74, -75, -34, 53, -31, -48, 40, -67, 37, -32, -30, 34, -55, 36, 40, 31, -72, -89, -33, 44, -28, -51, 37, -66, 35, -27, -25, 36, -66, 30, 46, 33, -70, -68, -35, 51, -32, -64, 38, -65, 34, -34, -33, 39, -54, 35, 34, 42, -74, -67, -36, 56, -34, -53, 45, -72, 43, -32, -31, 37, -59, 43, 35, 40, -66, -77, -31, 60, -30, -67, 46, -66, 42, -27, -28, 43, -54, 43, 26, 52, -62, -74, -35, 62, -35, -59, 45, -68, 52, -31, -31, 12, -57, 52, 14, 45, -66, -67, -37, 55, -36, -35, 35, -72, 44, -35, -34, 30, -62, 44, 33, 28, -84, -84, -23, 39, -23, -49, 46, -74, 29, -24, -23, 21, -55, 31, 37, 40, -84, -76, -26, 38, -28, -62, 50, -69, 39, -32, -31, 20, -61, 40, 36, 36, -79, -76, -24, 52, -24, -44, 42, -64, 34, -25, -25, 31, -57, 35, 54, 37, -72, -63, -31, 51, -30, -70, 48, -65, 37, -32, -31, 34, -59, 37, 44, 43, -71, -53, -34, 53, -33, -46, 48, -66, 42, -36, -36, 38, -57, 44, 36, 40, -68, -67, -31, 59, -33, -59, 53, -65, 38, -36, -37, 31, -61, 38, 17, 44, -51, -55, -32, 54, -33, -54, 52, -80, 42, -34, -35, 26, -58, 43, 28, 37, -61, -55, -23, 32, -27, -44, 59, -79, 36, -29, -30, 49, -60, 37, 18, 30, -93, -76, -33, 39, -33, -60, 30, -77, 31, -38, -38, 22, -61, 30, 32, 37, -81, -82, -25, 52, -29, -66, 47, -74, 35, -29, -33, 20, -57, 38, 37, 37, -83, -76, -27, 55, -29, -54, 41, -67, 34, -27, -29, 30, -61, 33, 54, 39, -81, -66, -33, 57, -33, -65, 36, -68, 40, -34, -35, 32, -59, 38, 46, 45, -79, -64, -38, 60, -37, -57, 18, -74, 46, -37, -39, 34, -61, 45, 37, 39, -74, -75, -34, 51, -36, -60, 45, -70, 39, -38, -40, 30, -62, 38, 8, 41, -59, -77, -29, 58, -32, -51, 37, -80, 40, -37, -36, 23, -64, 43, 12, 34, -91, -57, -40, 42, -40, -34, 41, -82, 36, -46, -47, 34, -63, 33, 86, 79, -184, -129, -39, 100, -66, -91, 47, -226, 66, -80, -107, 80, -135, 77, 70, 93, -168, -93, -55, 112, -80, -108, 39, -217, 80, -90, -110, 50, -116, 94, 101, 95, -159, -102, -44, 117, -74, -108, 40, -183, 79, -90, -118, 79, -111, 92, 53, 100, -144, -109, -65, 103, -88, -116, 52, -199, 87, -96, -116, 75, -113, 98, 49, 97, -146, -108, -66, 120, -89, -102, 47, -196, 87, -100, -120, 79, -123, 97, 72, 108, -164, -104, -59, 120, -91, -90, 32, -206, 91, -105, -131, 77, -120, 105, 35, 103, -170, -112, -51, 130, -85, -78, 45, -156, 87, -99, -122, 18, -129, 103, 51, 95, -184, -137, -35, 118, -76, -96, 38, -218, 76, -95, -133, 27, -129, 96, 59, 89, -143, -101, -72, 123, -81, -88, 60, -163, 84, -83, -88, 75, -113, 87, 99, 87, -156, -106, -77, 104, -78, -85, 59, -187, 85, -79, -81, 100, -118, 84, 86, 85, -145, -107, -76, 101, -80, -74, 64, -167, 83, -81, -84, 101, -97, 82, 93, 88, -141, -90, -70, 118, -81, -72, 59, -186, 83, -85, -94, 103, -118, 84, 66, 88, -144, -110, -75, 100, -83, -77, 55, -207, 83, -89, -96, 118, -123, 88, 87, 94, -159, -92, -68, 116, -85, -96, 59, -156, 87, -94, -106, 77, -100, 94, 75, 80, -198, -116, -62, 114, -72, -89, 67, -143, 77, -77, -88, 90, -98, 78, 61, 94, -182, -110, -67, 120, -84, -99, 68, -161, 85, -89, -101, 39, -110, 94, 64, 87, -151, -107, -78, 112, -82, -75, 60, -164, 84, -85, -87, 89, -114, 85, 86, 86, -133, -90, -75, 110, -80, -90, 65, -164, 86, -80, -84, 102, -87, 88, 69, 94, -150, -102, -88, 96, -90, -80, 67, -170, 94, -91, -92, 97, -108, 94, 102, 89, -148, -121, -75, 114, -82, -90, 48, -169, 85, -85, -91, 91, -76, 85, 96, 94, -152, -122, -76, 122, -89, -73, 60, -160, 89, -97, -104, 100, -96, 92, 89, 91, -123, -121, -82, 137, -88, -81, 71, -168, 90, -89, -93, 71, -103, 91, 82, 92, -165, -122, -80, 128, -88, -91, 83, -155, 89, -90, -96, 85, -88, 90, 75, 87, -147, -120, -72, 128, -81, -93, 80, -158, 84, -86, -90, 48, -101, 88, 61, 86, -132, -114, -77, 123, -80, -82, 59, -151, 84, -82, -85, 73, -96, 88, 93, 83, -149, -106, -74, 113, -74, -92, 82, -157, 86, -74, -74, 100, -109, 84, 93, 88, -129, -119, -80, 108, -81, -77, 63, -146, 87, -81, -82, 99, -91, 83, 107, 90, -130, -104, -78, 126, -81, -90, 65, -137, 90, -82, -83, 107, -97, 92, 97, 86, -129, -102, -76, 126, -80, -79, 65, -161, 88, -81, -84, 93, -96, 86, 96, 88, -124, -118, -76, 141, -79, -82, 89, -144, 86, -83, -85, 96, -100, 89, 100, 91, -128, -131, -74, 130, -80, -87, 88, -144, 89, -84, -86, 64, -102, 93, 81, 80, -146, -123, -73, 134, -77, -87, 91, -146, 81, -79, -82, 91, -91, 82, 81, 79, -152, -102, -83, 106, -81, -94, 55, -159, 83, -80, -80, 57, -112, 79, 76, 88, -139, -106, -82, 116, -82, -97, 67, -142, 86, -82, -83, 86, -94, 81, 97, 86, -140, -103, -77, 107, -75, -87, 84, -132, 85, -75, -77, 99, -104, 87, 96, 84, -119, -119, -78, 126, -76, -91, 67, -139, 85, -77, -76, 89, -100, 83, 97, 88, -121, -99, -75, 132, -78, -80, 83, -126, 86, -77, -80, 105, -97, 86, 93, 84, -122, -122, -83, 119, -82, -82, 80, -138, 87, -83, -82, 82, -96, 87, 89, 93, -141, -105, -82, 124, -82, -105, 87, -130, 93, -82, -83, 73, -101, 90, 76, 88, -151, -108, -79, 121, -81, -88, 90, -140, 88, -85, -88, 78, -89, 89, 86, 90, -153, -110, -74, 108, -77, -90, 84, -134, 85, -78, -80, 57, -99, 88, 82, 86, -152, -91, -75, 112, -76, -96, 80, -148, 88, -78, -78, 85, -107, 90, 89, 83, -129, -109, -86, 116, -86, -88, 74, -134, 85, -85, -85, 79, -98, 84, 102, 82, -136, -108, -77, 118, -76, -88, 88, -132, 82, -79, -79, 90, -107, 84, 78, 87, -129, -116, -85, 107, -84, -84, 85, -133, 86, -83, -85, 80, -88, 84, 90, 88, -134, -110, -80, 118, -81, -95, 82, -129, 88, -82, -82, 82, -94, 87, 76, 94, -150, -97, -83, 111, -85, -84, 90, -125, 93, -88, -90, 83, -92, 94, 91, 89, -155, -92, -75, 113, -80, -83, 85, -137, 89, -85, -87, 111, -99, 90, 80, 80, -156, -92, -72, 122, -73, -81, 85, -174, 79, -76, -79, 77, -104, 83, 73, 84, -147, -102, -80, 108, -79, -90, 87, -146, 82, -83, -84, 48, -95, 81, 72, 90, -150, -95, -86, 106, -87, -98, 90, -141, 89, -88, -92, 69, -101, 85, 101, 86, -143, -112, -78, 111, -81, -93, 91, -134, 87, -83, -86, 76, -96, 88, 85, 86, -144, -112, -82, 114, -82, -96, 76, -137, 87, -89, -89, 84, -101, 87, 83, 91, -143, -90, -81, 107, -82, -79, 79, -121, 89, -90, -89, 80, -91, 93, 91, 83, -131, -98, -82, 115, -84, -87, 82, -126, 85, -87, -91, 90, -80, 86, 66, 87, -164, -86, -68, 120, -75, -65, 78, -139, 83, -80, -84, 97, -83, 88, 86, 77, -153, -110, -75, 106, -75, -83, 82, -153, 77, -78, -78, 50, -99, 79, 85, 81, -157, -97, -74, 104, -76, -89, 95, -152, 82, -81, -81, 77, -104, 88, 87, 81, -162, -101, -70, 95, -71, -81, 93, -145, 79, -77, -76, 80, -104, 85, 94, 84, -153, -97, -80, 98, -83, -99, 87, -143, 83, -89, -90, 70, -106, 84, 73, 83, -151, -117, -71, 117, -75, -83, 76, -140, 78, -79, -81, 70, -96, 85, 88, 79, -158, -95, -73, 107, -78, -79, 86, -134, 77, -82, -82, 70, -102, 83, 104, 82, -156, -78, -60, 95, -66, -72, 65, -136, 79, -74, -76, 86, -95, 83, 14, 90, -175, -107, -66, 109, -77, -84, 76, -135, 84, -80, -88, 80, -110, 90, 26, 3, 20, 6, 21, -56, 21, 5, 0, -107, 1, 19, 20, 35, 17, 2, 30, 2, 17, 28, 21, -35, 25, -4, 8, -60, 3, 27, 30, 47, 8, 2, 51, 2, -6, 18, 12, -20, 16, -2, 10, -57, 6, 18, 24, -3, 8, 3, 18, 11, -35, 17, 16, -12, 20, -16, 15, -57, 15, 20, 24, 21, 10, 10, 26, 17, -46, 13, 8, -17, 10, -22, 19, -4, 19, 10, 13, 23, -8, 16, -30, 21, -46, 9, 8, -11, 9, -35, 23, 2, 24, 9, 10, 28, -3, 21, 4, 22, -51, 0, 4, -52, 9, -33, 29, 3, 26, 9, 13, 17, 11, 21, 11, 0, -55, 10, 21, -5, 25, -27, 9, 10, 4, 23, 27, -14, -73, 1, 37, 4, 15, 19, 16, -58, 20, -31, 2, -68, 6, 22, 26, 23, 14, 4, 49, 10, -2, 30, 20, -57, 25, -6, 16, -100, 12, 30, 35, 52, 20, 8, 42, 8, -15, 27, 18, -36, 22, 0, 13, -57, 11, 25, 30, 35, 20, 7, 27, 17, -38, 20, 15, -21, 18, -15, 20, -22, 21, 20, 22, 33, 7, 18, -5, 31, -67, 15, 6, -13, 6, -13, 26, -14, 32, 9, 9, 0, 22, 28, -8, 34, -80, 1, 5, -22, 4, -16, 33, 4, 35, 7, 7, 9, 6, 33, -10, 26, -89, 10, 3, -41, 4, -21, 29, 5, 29, 7, 8, 8, 0, 25, -11, 19, -102, -1, 8, -17, 10, -31, 25, 8, 21, 10, 14, -22, 0, 19, 17, 8, 4, 26, 15, -23, 20, 5, 15, -9, 13, 22, 26, 31, 13, 10, 41, 7, -8, 30, 26, -33, 29, -6, 4, -19, 11, 32, 35, 62, 29, 6, 25, 16, -11, 32, 19, -19, 19, 1, 19, -12, 19, 21, 24, 45, 18, 15, 10, 24, -16, 27, 13, -16, 12, -9, 23, -12, 26, 13, 16, 29, 29, 23, 38, 32, -36, 18, 13, -11, 9, -1, 29, -7, 31, 7, 8, 10, 18, 31, -33, 40, -59, 14, 13, -16, 10, -8, 37, 1, 39, 9, 10, 4, 21, 39, 17, 30, -44, 8, 19, -19, 17, -7, 26, 10, 29, 16, 17, 2, -10, 28, 0, 18, -64, -1, 18, -16, 18, -27, 20, 9, 20, 19, 20, -11, -3, 18, 59, 4, -3, 18, 25, -3, 28, -1, 4, -2, 6, 30, 33, 26, 16, 2, 43, 0, 1, 23, 18, -16, 23, -16, 8, -5, 3, 28, 32, 52, 16, 0, 47, 8, -5, 19, 24, -15, 26, 0, 10, -5, 10, 29, 31, 30, 19, 6, 30, 13, 1, 20, 20, 2, 19, -2, 13, -6, 14, 20, 21, 31, 15, 12, -5, 20, -4, 23, 16, 2, 13, 10, 16, -6, 20, 12, 12, 10, 19, 20, -4, 23, -1, 3, 16, 12, 14, 2, 26, 2, 24, 16, 17, 10, 0, 22, -4, 23, -18, 12, 20, 2, 18, 0, 22, 0, 22, 19, 17, -17, -4, 22, -7, 14, -31, 6, 21, 0, 20, -28, 17, 6, 14, 22, 21, -2, 2, 12, 24, 4, 3, 13, 22, 5, 27, 14, 9, 3, 6, 28, 31, 35, 12, 4, 41, 5, 7, 16, 23, -6, 27, -7, 6, 2, 9, 29, 31, 44, 11, 5, 41, 3, 12, 31, 26, 2, 27, -9, 6, 1, 4, 27, 28, 34, 12, 3, 11, 10, 7, 18, 19, -8, 18, -2, 8, 6, 11, 20, 19, 28, 18, 9, 9, 10, 11, 8, 18, 8, 15, 8, 13, 6, 10, 16, 15, 13, 10, 9, -10, 15, 9, 19, 19, 11, 18, 15, 18, 3, 15, 17, 16, 4, 13, 12, -14, 14, 14, -11, 20, 10, 19, 10, 19, 3, 13, 19, 20, -2, 3, 12, 0, 10, -5, 4, 26, 4, 27, 8, 16, 6, 11, 24, 25, -18, -3, 9, 4, 1, 3, 34, 35, 0, 34, -1, -14, 5, 2, 31, 32, 52, 3, 1, 22, 3, 9, 11, 27, 0, 29, 0, 8, 4, 4, 30, 33, 43, 8, 3, 7, -1, 13, 7, 26, -12, 29, -14, 4, 6, 2, 29, 30, 37, 8, 0, 22, -2, 13, -5, 32, 0, 32, 0, 13, 4, -1, 31, 32, 28, 7, -2, -1, 3, 16, 9, 25, 0, 24, -3, 5, 7, 4, 23, 22, 5, 11, 2, -1, 4, 15, -18, 23, 4, 24, 9, 14, 10, 5, 23, 23, 0, 0, 4, -14, 9, 19, 0, 22, 5, 21, 4, 11, 8, 11, 20, 19, -7, 5, 9, -1, 10, -2, 10, 24, 10, 22, 14, 17, 8, 11, 19, 17, -14, 0, 10, 30, 4, 33, 48, 22, 4, 23, -11, -10, 8, 4, 20, 23, 47, 3, 4, 25, 9, 28, 57, 27, 0, 23, -16, -12, 5, 9, 21, 21, 37, 0, 7, 10, 6, 11, 31, 27, 0, 25, -10, 3, 5, 5, 23, 23, 30, 7, 6, -2, 0, 17, 3, 30, -3, 30, -2, 4, 1, 0, 27, 26, 3, 1, 0, -1, -5, 6, -7, 29, 0, 27, 3, 10, 5, -5, 27, 24, 9, 2, -4, -10, 5, 4, 9, 21, -4, 19, 6, 14, 9, 3, 15, 13, -14, 4, 5, -2, 15, 0, 16, 12, 14, 10, 10, 19, 12, 13, 5, 4, -11, 4, 14, 0, 19, 2, 26, 7, 12, 5, 13, 18, 11, 18, 3, 1, -28, 1, 18, 11, 14, 25, 73, 14, 15, 13, -12, 8, 8, 13, 9, 9, 18, -4, 15, 33, 18, 41, 43, 1, 10, 3, 4, -33, 8, 20, 5, 8, 15, 5, 18, 1, 14, 18, 30, 1, 9, 2, 7, -20, 0, 15, 3, 5, -1, 10, 13, -2, -2, -5, 8, 28, -7, 28, 9, -37, -7, -2, 27, 28, 11, 5, -2, -6, 1, -4, 22, 8, 1, 10, 11, 3, 5, 1, 6, 7, -16, 6, 1, 9, -1, -12, 12, 17, -4, 16, 19, 5, 3, -2, 15, 13, -9, 0, 0, 1, 18, -8, 40, -1, 11, -2, 17, 3, 10, 18, -2, -2, -22, 3, 16, 6, 22, 0, 48, 0, 11, 0, 20, 22, 14, 21, -6, -6, -34, 3, 22
};
const float L1_BIASES[] = {
27, 51, -24, 134, 48, -114, 68, -59, 22, -48, 69, 59, 57, 9, -50, 48
};
const float L2_WEIGHTS[] = {
-40, -17, 82, 50, 21, -92, 18, 56, -29, 109, -18, 17, 14, -48, 74, -18, 40, 21, -80, -54, -14, 87, -18, -56, 25, -110, 18, -22, -25, 49, -75, 22
};
const float L2_BIAS =
14
;
#endif
